solver_type L2R_L2LOSS_SVC_DUAL
nr_class 11
label 1 2 3 4 5 6 7 8 9 10 11
nr_feature 8886
bias -1
w
0.3723626635002199 -0.07561155211924443 -0.05347370821355819 -0.1117996914051814 -0.07184712447116978 0 0 -0.01493865523881041 0 0 0 
-0.3851446140014227 -0.252177830145511 0.06267588609824011 0.2808107693472027 0.1784247375437218 -0.182677809699001 -0.3158820984602452 -0.2923831448911957 -0.2608188382468226 -0.1400922029493985 -0.3440619847845117 
-0.2744753348601577 0.5964048323908622 -0.4543072825488442 -0.3855410935002888 -0.1837143543231665 0.4536682559278353 0.5790634294871411 0.2868877301038915 0.03329566965826448 -0.006598880478073704 -0.220897399288931 
0.2553171312403033 0.04748416512606879 0.1881344350779167 -0.01156849275984577 0.163572665261939 -0.3206609751818519 -0.2563863639073258 0.02149770128076466 -0.2405938525682674 -0.13091282600004 0.1089460022900051 
0.6967774107156666 0.970610972509981 -0.09641922456389546 -0.1288953183836952 -0.8133958956560134 -0.5418150082904928 -0.3142262992692296 0.4387827962367553 -0.04384725173030603 2.602085213965211e-18 8.673617379884035e-19 
0.4901093307544007 -0.2644598827694687 -0.2726525802220251 0.4367605424898613 -0.1240497792242101 -0.3488056345133702 -0.1600997028508128 -0.1055777386952083 -0.1698749903641983 -0.02324796862880877 0.4769884877840688 
0.8900979600114995 0.1400794455260235 -0.5012057857276286 -0.183155838847252 -0.3741920444113399 0.1841887766898582 -0.04115062667933187 -0.06712739372467733 -0.01532600790634127 2.602085213965211e-18 8.673617379884035e-19 
0.4903170029652584 -0.2038175371661284 -0.5234357820970059 0.3562447520982876 0.2127742032499241 -0.2782683390027412 -0.06975005447767645 -0.08358133619748002 -0.1280921206891513 -0.02324796862880877 0.2418098135662834 
0.3723626635002199 -0.07561155211924443 -0.05347370821355819 -0.1117996914051814 -0.07184712447116978 0 0 -0.01493865523881041 0 0 0 
0.8287405046682782 -0.150590856189249 -0.1695988962227346 -0.1543736695292741 -0.1577336630928771 -0.03506746978744151 0 -0.02321663046217698 -0.009145224129565708 0 -0.034324147508831 
-0.2234231260373605 -0.2845993702287383 0.0247348568564285 -0.1728408975098578 -0.1019474374634287 -0.2782070685971314 -0.2705148921454665 -0.204835762813579 -0.06484854464046272 -0.1962514353457475 -0.1506461771164729 
-0.2261599410507341 -0.2621889943417552 -0.03062064103996085 -0.1357701317992119 -0.0729147284736066 -0.2425604888857412 -0.2782102962403682 -0.223115102855735 -0.1501340167931566 -0.2000656870174617 -0.1983229109705639 
0.1872657500916094 -0.01677603516938672 -0.2283113517405455 0.6781189918740422 -0.105691234998733 -0.2698385747294346 -0.08442713485765399 -0.06420943233840351 -0.07087255745390558 2.168404344971009e-19 -0.03647977764056298 
0.2670887689811028 -0.1129730537512316 -0.1841107763122831 -0.4924182798020053 0.1982573094084921 0.4401020448297824 -0.0005891808954018562 -0.01493865523881041 0 0 0 
0.120882419418649 0.01347939031197113 0.2874655510601859 -0.1383954046150922 0.007753001889985775 0.008874550197493475 -0.1741671847645093 0.004862718195332924 -0.1241616325134862 -0.001185226513132333 -0.2461410195211847 
0.1145623973413229 -0.1218785687818967 0.06531116628737624 0.01024934304819355 0.09424437523334124 -0.03741596368813889 -0.1234266276411586 0.02538005494574221 -0.08681894520463576 -0.02888108851237022 -0.2735097237670471 
0.0007167425059107647 -0.0006265388657091842 0.02069393757885222 -0.01516062509236353 -0.01895481123764959 -0.002651185993493107 0.00577891980167452 -0.002850703035017495 -0.004838107232742766 -0.002540882707169896 -0.005096491173178813 
-6.216328646093224e-05 -3.568027093086251e-05 -2.732991633920632e-05 -0.0003266904828444466 0.0001114502468738654 0.0001552648781281413 -2.111534322904047e-05 -1.836118787341183e-05 -6.066478005891423e-05 -2.606521515881504e-05 -2.291458376091294e-05 
-0.2118571590369301 -0.5462278800165761 0.142804871524859 -0.07250404436699581 -0.7927059723896199 -0.1046963218515163 -0.5002573408360003 -0.3686505103306772 -0.2410162227019762 -0.409098150104804 -0.5487112118044258 
0.1306937598374716 0.1082992985887813 -0.3226196579821491 -1.059495786622731 0.1492135780287549 -0.2655387640936679 -0.004687313469881315 0.03438291629771655 -0.4317669850198125 -0.2889530406644985 -0.3882230856351134 
-0.3571062448538954 -0.4982198954204828 -0.7123299666642826 0.2295343555528476 0.4180757971437659 0.3186996974996942 -0.2477689375202087 -0.2685164298152047 -0.1230472249547189 -0.1618371109900655 -0.155520138912799 
-0.2916172936383362 -0.04933411480559308 -0.4162107796324219 0.07338231098385614 0.5037392954523722 -0.02881712078006321 -0.3462895968946976 -0.2439931318405376 -0.1149745815729205 -0.06682626014732722 0.1327420872836079 
-0.7723963653311275 -0.6162615240140925 0.3371050738401445 -0.4585585204185073 -0.441340313836598 -0.4814902347026822 -0.7446945138647186 -0.6277787289421903 -0.6304656627166357 -0.5458057833531645 -0.4844429942120355 
-0.0001177673718555923 -5.355118544615374e-05 -0.0002159186331829442 -0.0001961674512593114 0.0003058152245939439 0.0001772545811342959 -0.00013948324641915 -1.904991983752918e-05 -5.410949701803313e-05 -2.385701152598152e-05 -3.133614804581172e-06 
0.08027097490956613 0.07991380151430566 -0.2065863926234906 -0.04745900783145759 0.01014683539910326 -0.0378031044874677 0.06479527175490563 0.04703989180818147 -0.002818778396619947 0.002292558119906319 0.009689900054803149 
-0.1046340029465114 0.1187783184591437 -0.7305600549116025 0.9257916018915097 -0.5844251390977958 0.03939322215184101 -0.4389950383740113 -0.66728804489185 0.1962762860879275 -0.1626707311212432 -0.1188214130939644 
0.004667322216977447 0.004022018559643905 0.01238445443577904 -0.02578455131996446 -0.009265944934188286 -0.002749923852265058 0.009503570337997931 -0.0001040754209781807 -0.005157810546277159 -0.001736160120955383 -0.002299284316670941 
-0.002031470838740714 0.001113810300746196 -0.003113583642266034 -0.005873172737120819 0.001302200075528895 -0.001992594084475459 0.001840571701347311 0.002000402103749774 0.004881302671833967 -0.000175343512836217 0.000444077126280771 
6.389227417221239e-06 5.826789590253226e-06 -8.630542797743772e-05 -0.0001238164870205188 9.336396266077991e-05 5.750938448860354e-06 4.968766126607744e-05 1.191690308758165e-06 3.089521028011637e-05 -2.344880157153994e-06 3.926135218872108e-06 
0.1598226157535755 -0.1234767880263767 0.1097371719872902 -0.01428115172262204 -0.1412242070457214 -0.02111508758507214 -0.2176634271124349 0.06848397647901802 -0.07489559511453846 -0.03429862422558708 -0.005505266324668501 
-0.2082369417852939 0.0368380658345971 -0.55181237720656 0.285212023504404 0.2770308307211784 -0.0193649650672587 -0.01442543106938804 -0.261008069165149 -0.1800460783429741 0.01556643765170227 0.06385259289757206 
0.09647630289254258 0.01229011805693856 0.228645309444169 -0.04882101725038487 -0.1705212200577652 0.02685711751860623 0.178832118030268 0.1324151406722464 -0.07043909846498045 -0.06820706265988467 0.1075012951337799 
0.123172512944521 -0.123940994408466 -0.1052893715787573 -0.04794933358433793 -0.07679709733257874 0.09038326060524861 0.1475462000884405 0.1366893381979018 0.1327295708209809 -0.02670643324944342 -0.08316225245162166 
-0.03442040923921401 -0.0604494826878265 -0.09031880446204692 -0.3812647984014578 0.09946774744412462 -0.01464608589103693 0.2859805164140176 0.08691042294795061 0.188528828412219 -0.08639296304447429 0.02492714167075807 
3.706700684716593e-05 -6.53895430408007e-06 -6.569402972135973e-05 -8.464059520096468e-05 9.461084562169335e-05 2.81069810304333e-05 5.120350719851458e-05 -2.038412473522319e-05 -1.367194411578652e-05 -4.999696643643712e-06 -4.573638565210549e-06 
-0.03763728253104039 0.004710112890980564 0.04597619667575385 0.06520066583570083 -0.03233508541595437 -0.0336055314504368 -0.03612608523552909 -0.02988303027947417 0.00121101146245044 0.001734855861348465 -0.01535639693731134 
-0.2611722890655488 -0.4253586540114205 0.704783808200232 0.6677693493515736 -0.3632872646258 -0.4351281758499016 -0.2646208212681739 -0.09745698908552729 -0.330280867538256 -0.04029210949017644 -0.2624258640966803 
-0.004286615519520257 0.001916329207297702 -0.004410030450443763 -0.005343766382642491 0.003658776292024787 -0.0007362409231256551 0.002476592209624756 -0.001512060655494794 0.003332605196397449 9.787121288526492e-05 0.000866612739397056 
-0.0001592811291192052 0.001537289911014358 -0.0005918074569336211 0.002873981883967586 -0.0004361862036961185 -0.002873980587450533 -0.002439570299211137 -0.0004249145234440357 -0.003025990987442765 0.000412401845998904 0.001146671732860247 
4.838026739109867e-05 2.150903214292787e-05 5.827441177439121e-05 1.431507872512362e-05 -4.091390859115986e-05 -7.18781579266152e-05 -5.734175760994187e-05 7.893576518051428e-06 -1.159254454354615e-05 6.463422058768574e-06 5.381828093363507e-06 
-0.3005530587725609 0.06559901041412143 -0.5106636823005245 0.3612985918365183 -0.1912911031974761 0.3744813873471898 -0.1078952919715833 -0.1195899554339329 0.09795255127302405 -0.09955992812562579 0.04325053302311919 
0.1049900992349151 -0.009474415625128666 0.08964543623109772 -0.3998156838535085 0.4311017684560293 -0.3168926540078323 0.1327301616247014 -0.1261258052554673 -0.1564460147848132 -0.1213708797937723 -0.04879970084367666 
-0.05639032284281586 0.259904165481012 -0.1971188029748543 -0.1294856014494779 -0.02891155336022883 0.3495981618412164 -0.02749043024844045 -0.01670553387882434 -0.06361507816253477 0.09590637919146021 0.06479173441969796 
0.009714917173311622 -0.08180064755459966 0.1590561907917108 0.2502915131781639 -0.2959068510343687 -0.160487193390361 -0.04163670289680626 0.01276049028976441 0.06824291568477486 0.04833588363650152 -0.03110546306440768 
0.1057368132803457 -0.09859599896471365 0.1395132680306714 0.07362584812552812 -0.1515137878735544 -0.2394598171643332 -0.02077433057480745 0.00187513891553651 -0.1930335127192298 0.06006424878327183 -0.03870091917385342 
4.466701686443232e-05 1.437187009862177e-06 8.909186486936696e-05 -9.895810813082437e-06 -5.359711986272188e-05 -5.812846825277557e-05 -3.075490523273135e-05 1.734325040739038e-05 1.189818545125846e-05 3.558069190206307e-06 -1.06607100860255e-05 
-0.009402585685400963 -0.03744650903223976 0.1074682221652328 -0.1127699320496394 0.01921319165687801 -0.006845779100665618 -0.002418514406107998 0.006885980305728789 0.001416807546562566 0.001282068202304993 -0.01506630455275481 
-0.1963273066447028 -0.05787570180172872 0.07539424291844937 -0.2209568905713868 0.166316700374996 -0.3545602332851543 0.561945787424905 0.2061221707571111 0.02353284446326963 -0.1435444161998657 -0.0144752641176769 
0.001513935729096532 5.901469792634047e-06 0.005570829199300823 -0.000731614339488312 0.00113878900696389 -0.006008466136442678 -0.001458620313702959 -0.0008382856342229703 -0.003083444175261584 7.994630740522558e-05 0.0001795928099739243 
-0.2475719297479441 0.5796949911744572 -0.1096756117286256 -0.1043454480333218 -0.01335120589469213 -0.04366085658730039 -0.03556388671255345 -0.01272840482607668 8.673617379884035e-19 0 -0.02558671218848134 
-0.07162101355856415 0.2145340975353038 0.02901154289561826 -0.2889997937222443 -0.2536754688393584 -0.06141155791773359 0.226375844660896 0.2172943608744257 -0.2426027490308791 -0.02432288012214137 0.6185995405036893 
0.3788069141417821 0.814785921673464 -0.1638551659079022 -0.5274603416799309 -0.8068734747929537 0.05774457510167834 0.08214704848476925 0.3130793673094245 -0.1105582144064872 3.469446951953614e-18 0.05735309648618335 
0.8211255681410452 0.7357790567461746 -0.7619291333852214 -0.2380211945406705 -0.2613153479151871 -0.1746407954942422 -0.03556388671255345 -0.03638163688319138 -0.01993678044387684 0 -0.08569517046227286 
1.15011236383219 0.174815269588639 -0.3767834473054206 -0.2848025851855114 -0.2700020209691386 0.5162500676198796 -0.2806675423351489 -0.2714217460436907 -0.07353927864099674 0 -0.2249768514389218 
-0.2475719297479441 0.5796949911744572 -0.1096756117286256 -0.1043454480333218 -0.01335120589469213 -0.04366085658730039 -0.03556388671255345 -0.01272840482607668 8.673617379884035e-19 0 -0.02558671218848134 
-0.2475719297479441 0.5796949911744572 -0.1096756117286256 -0.1043454480333218 -0.01335120589469213 -0.04366085658730039 -0.03556388671255345 -0.01272840482607668 8.673617379884035e-19 0 -0.02558671218848134 
-0.2475719297479441 0.5796949911744572 -0.1096756117286256 -0.1043454480333218 -0.01335120589469213 -0.04366085658730039 -0.03556388671255345 -0.01272840482607668 8.673617379884035e-19 0 -0.02558671218848134 
-0.299382821748393 0.6094203708207775 0.2314126424187422 -0.06505168217352837 -0.1959499775099662 -0.3769861844952064 -0.06993714964198554 -0.06627077800610716 0.274828303246606 0 -0.03612048867787824 
-0.1662213567088602 0.2297696191909845 -0.08011924122214867 0.2735095592707554 -0.1223296633569583 -0.06893257185260586 0 -0.003885820978909026 0 0 -0.02991907062618251 
-0.09098058463753224 0.2513664381194064 -0.05273002584089773 -0.1043454480333218 0 -0.01154534693379022 0 0 0 0 -0.007454887732025008 
-0.6180505246927062 0.4565677894387445 -0.4935330435108831 1.111682595299146 -0.494401310553944 -0.1552440772362674 0.01874158537782218 -0.1942063006864456 0.219969001003867 -0.01077886539362572 -0.2352097631812661 
-0.05440580274368193 -0.008688400718631771 0.3966288759593812 -0.007470795347614215 -0.1554178680696231 -0.005865151900146928 0 0 0 0 -0.05948391922027365 
0.2130261975693041 0.0107785424180601 0.4457637264525204 -0.8303926513440368 0.3081099682751165 0.0348792621973472 -0.2489505061704282 0.1521281255482093 0.01415068277302697 -0.0534096511229135 -0.3587076493988282 
-0.0852194224970405 -0.09464875525388571 -0.02418065340772717 0.03129647594552185 0.4833979155616495 -0.3022296370207176 -0.03949434871001422 -0.04066742188634663 -0.000236195345005945 0 0.1207017376361802 
0.3562959681973947 0.7550737567575885 -0.4750580520352786 -0.07576797845364594 0.003100524482907617 -0.1697599675622722 -0.03543032147439112 -0.06690299674578595 -0.05694838261769367 0 -0.09083524735566999 
-0.05440580274368193 -0.08798894794619705 0.03517873050147968 0.2070754971352736 -0.2347078721757856 -0.09797899100219749 -0.02645534145212423 -0.01696607417959514 -0.0002361953450059476 0 0.2514484227227875 
-0.05440580274368193 -0.008688400718631771 0.3966288759593812 -0.007470795347614215 -0.1554178680696231 -0.005865151900146928 0 0 0 0 -0.05948391922027365 
-0.05440580274368193 -0.008688400718631771 0.3966288759593812 -0.007470795347614215 -0.1554178680696231 -0.005865151900146928 0 0 0 0 -0.05948391922027365 
-0.05440580274368193 -0.008688400718631771 0.3966288759593812 -0.007470795347614215 -0.1554178680696231 -0.005865151900146928 0 0 0 0 -0.05948391922027365 
-0.05440580274368193 -0.008688400718631771 0.3966288759593812 -0.007470795347614215 -0.1554178680696231 -0.005865151900146928 0 0 0 0 -0.05948391922027365 
-0.357642494304944 -0.1951644689109617 -0.4365942243771764 0.7487222217655503 -0.4004409627826927 -0.08386548190506525 0.2876009559079346 -0.08946602888957962 -0.04934459733249468 -0.005320763993773511 0.3487813226757608 
0.0502831262625395 -0.1382935839006503 0.4642282675621988 -0.6014588623902677 0.5464267254881366 -0.03011853413591004 -0.160660447616842 -0.1186933693549563 -0.0511414286228441 -0.01881450860255403 -0.1169592595100331 
0.4137796188844077 -0.1634502787434089 -0.04548212425063511 -0.1096260965635764 -0.07572465363219084 0.2109376110321556 -0.2292187712153881 -0.1310101142429961 0.1111314501719641 -0.0005112154292078691 0.1018380785115004 
0 0 -0.2710771112965829 0.3895134197459925 0 -0.046454436104922 0 0 -0.04814923393355176 -0.005121312528769966 -0.004715091526507676 
0.1589846729506854 -0.0100111641962449 -0.09329652713820263 -0.4165809011464093 -0.2513394660173301 -0.05988267918674077 0.03767180221987859 0.06926804203546297 0.1106848214536667 -0.05997348406806341 0.1457390738139459 
0.1735218913000732 -0.04775326460748495 0.001225340083201631 -0.1074129607264773 -0.6432209984819678 0.1696128368037245 -0.1834163215114061 0.1947700436800379 0.05680085494549163 0.2678057357057341 0.1763011360748636 
-0.4398369844380514 -0.04373533910521853 0.3004714434650465 1.046045732068321 -0.396917709179571 -0.07006517019497327 -0.3827133747660894 -0.1793345797644459 -0.3169266070462361 -0.03980906628553826 -0.2397344755756212 
-0.018070754891247 0 0.07881835644428298 0.2307033764660054 -0.01539761168067906 -0.07332071626599078 0 -0.01706777074140136 -0.124003774774505 -0.005121312528769966 -0.004715091526507681 
-0.1799630344123249 -0.1666460396812354 -0.1561031649278591 1.238582379233072 -0.6258988582842137 -0.3101093272436866 -0.1018441455715427 -0.075686061788048 -0.1978000619954716 -0.03861701151609612 -0.04922263345238048 
-0.018070754891247 0 0.07881835644428298 0.2307033764660054 -0.01539761168067906 -0.07332071626599078 0 -0.01706777074140136 -0.124003774774505 -0.005121312528769966 -0.004715091526507681 
-0.01930048114848469 0 -0.7202570691634946 0.7711745711215935 1.040834085586084e-17 -0.04790121079997069 0 0 -0.04814923393355176 -0.005121312528769967 -0.004715091526507676 
-0.018070754891247 0 0.07881835644428298 0.2307033764660054 -0.01539761168067906 -0.07332071626599078 0 -0.01706777074140136 -0.124003774774505 -0.005121312528769966 -0.004715091526507681 
-0.01930048114848469 0 -0.4457074885682882 0.5893585991606957 -3.469446951953614e-18 -0.046454436104922 0 0 -0.04814923393355176 -0.005121312528769967 -0.004715091526507676 
-0.2069635070991784 -0.2295030483032398 -0.07514257796287718 -0.1113364617708714 0.01005546072898043 -0.1961206230125447 -0.2706499566035512 -0.2383847322894732 -0.1519050792744611 -0.1784737630199561 -0.1841163631550389 
0.2076680423069363 -0.02719990644027686 -0.454763634405001 -0.1337847939752528 0.3218038214750643 -0.1195317724774953 0.1231887361609154 0.09354605425029247 0.4115094873903661 0.03893406111639797 -0.0911154144013874 
-0.1906428498247749 -0.2459321460141755 -0.02558461017217831 -0.1565961545153308 -0.05040798193767944 -0.2102852785454939 -0.2908568776169422 -0.1942432116196018 -0.1091649497527983 -0.1802363566813153 -0.176351999690453 
-0.1350612672099432 0.08379137117897353 -0.1447860348931907 0.06762936543951828 -0.07296034393458098 -0.1772731662819924 0.4591551480278958 -0.3208929086594411 0.4497437948001461 -0.2909873385081949 -0.01919683622382078 
-0.06957057920777804 -0.02551541998726457 0.3856200763232551 -0.04469866235161485 -0.1306111140603795 -0.06021671246316632 0 0 0 0 -0.000315841443793406 
0.8955654318848341 -0.1954845533084229 -0.1784066762033582 -0.2981857267889627 -0.09869932445497691 -0.2731159356252263 0.2073159032639673 0.08981145774756241 -0.1610250694190976 -0.04122076826483026 -0.09955317882259293 
-0.06957057920777804 -0.02551541998726457 0.3856200763232551 -0.04469866235161485 -0.1306111140603795 -0.06021671246316632 0 0 0 0 -0.000315841443793406 
-0.166873209306683 0.3242208034973452 -0.4495493574903193 -0.6150218978006865 0.7196025634336322 0.565916030830287 -0.1876204842876767 0.06848001366293446 -0.06485533973483912 -0.0002396018635043127 -0.07534147604145106 
-0.06957057920777804 -0.02551541998726457 0.3856200763232551 -0.04469866235161485 -0.1306111140603795 -0.06021671246316632 0 0 0 0 -0.000315841443793406 
-0.06957057920777804 -0.02551541998726457 0.3856200763232551 -0.04469866235161485 -0.1306111140603795 -0.06021671246316632 0 0 0 0 -0.000315841443793406 
-0.06957057920777804 -0.02551541998726457 0.3856200763232551 -0.04469866235161485 -0.1306111140603795 -0.06021671246316632 0 0 0 0 -0.000315841443793406 
-0.06957057920777804 -0.02551541998726457 0.3856200763232551 -0.04469866235161485 -0.1306111140603795 -0.06021671246316632 0 0 0 0 -0.000315841443793406 
-0.06957057920777804 -0.02551541998726457 0.3856200763232551 -0.04469866235161485 -0.1306111140603795 -0.06021671246316632 0 0 0 0 -0.000315841443793406 
-0.07346562959227201 -0.06653165132015312 -0.2456680394881176 0.353894703707942 0.3420546992222989 -0.1100583532102364 -0.1283112468913566 -0.1129964628687409 -0.1662540053121181 -0.01092207746901854 0.2102764113476508 
-0.02314869251477268 0 -0.09413631141355992 -0.09537086818516431 0.3151274600466542 -0.01552973849834902 -0.06082095511808111 0 0 0 0 
0.2284887985922074 0.2689228485718563 -0.2280252958107558 0.0628924007696262 0.1313148785379806 -0.3205958543136184 0.1421421540594016 0.3027428031442491 -0.1704809059605935 -0.0005351858831921679 -0.07771656848382656 
-0.1030568104070642 0 -0.4890828439037338 0.3463000834907585 0.5890748691511625 -0.1957650916544652 -0.06440885549100082 -0.04018509866833966 0 0 -0.01552062720936992 
-0.3123787025808511 -0.1728563501204242 -0.08053768737709184 0.4758713217231585 0.01027330304519233 0.2016065589541168 0.2087531464121818 -0.09533785050305484 -0.1574357964551453 -0.04203551831172379 -0.1624408191449754 
-0.02314869251477268 0 -0.1843550316133883 -0.2750524457915856 0.6804016225780272 -0.0208813613571728 -0.06440885549100082 -0.001023586183876201 0 0 -0.01552062720936992 
-0.05978536896598516 -0.1120613626025363 -0.4658270249530491 0.3404459673539182 -0.5509095447675848 0.6290271336928293 0.4187442682356566 -0.04862103739543991 -0.08801956721470752 0 -0.06064983256409976 
-0.02314869251477268 0 -0.1843550316133883 -0.2750524457915856 0.6804016225780272 -0.0208813613571728 -0.06440885549100082 -0.001023586183876201 0 0 -0.01552062720936992 
-0.02314869251477268 0 0.2063105795901264 -0.2157520283632904 0.2249807069122917 -0.03537229580677848 -0.1376072726175914 -0.01769094775047965 0 0 0 
-0.02314869251477268 0 -0.09413631141355992 -0.09537086818516431 0.3151274600466542 -0.01552973849834902 -0.06082095511808111 0 0 0 0 
-0.08993018669777073 -0.09139444530508468 -0.05951791430600281 0.3335757327253481 0.18022868690292 -0.2547627147656714 -0.09866442897381057 -0.3408016833438728 0.2067393080330184 -0.04124318104088964 -0.3054923449542037 
-0.02314869251477268 0 -0.09413631141355992 -0.09537086818516431 0.3151274600466542 -0.01552973849834902 -0.06082095511808111 0 0 0 0 
0 0 0.2492030316978477 -0.1715671453508915 -0.05364143659124361 0 -0.001209813139040316 0 0 0 -0.02055585588665084 
0.01470072609105121 0.1922031927545526 -0.1351337257410957 0.2647474341482035 0.3472460603183539 -0.2176629029051025 -0.2263959217947674 0.06430323766904454 -0.2744474901203113 -0.05121401528055403 0.1043207275223959 
-0.1086928114793668 -0.4921995842354551 -0.7181150921447534 0.5973793900962999 1.036574998651831 -0.2895171469041706 -0.1966573672619194 0.0436101055237857 -0.4787384580720578 -0.008383862301539546 -0.04528792832305149 
-0.3240617863819199 -0.2023147758984467 0.3251448004192265 -0.4232122393210081 0.3459438214124754 -0.2727402138112115 -0.03784150846976303 -0.09378213225781373 -0.07819043403539336 -0.001428241235314139 0.5038660981065374 
-0.2579171085568476 -0.1820359358686288 0.82975874254063 -0.5796193610392574 -0.3560851525762495 -0.1700876191387898 0.340386911603528 0.4976906151065052 -0.08040692252029541 -0.0001829796899483049 -0.1592998751125494 
-0.05791021814459397 -0.05665369247403083 0.9613522351785073 -0.4044516944711251 -0.4023571777390234 -0.06026424669013974 -0.001209813139040316 -0.01325842786664272 0 -0.001428241235314137 -0.08715410573318651 
3.469446951953614e-18 3.469446951953614e-18 -0.2904132907296926 0.4934696608245248 -0.5001693377908814 -0.03862333812315385 0.5063942897971241 -0.0570936542181649 0 0 -0.07387493937997411 
0 0 0.2492030316978477 -0.1715671453508915 -0.05364143659124361 0 -0.001209813139040316 0 0 0 -0.02055585588665084 
0 0 0.2492030316978477 -0.1715671453508915 -0.05364143659124361 0 -0.001209813139040316 0 0 0 -0.02055585588665084 
-0.187084188794193 -0.00680079604825543 0.9686394841089614 0.2952608671859048 -1.028706746348622 -0.359146204063582 -0.07358997955244666 -0.02767171616241709 -0.1467101157247775 -0.05616963448880066 0.2798910767989053 
-0.06028479893789611 -0.0859165194531893 0.3173824301143099 0.1152100088055419 -0.2125409232654916 0.2842277839562732 -0.1656641433219262 -0.09906876168747557 -0.01759215347802532 2.168404344971009e-19 -0.07556845442381259 
-0.004027892863254713 -8.673617379884035e-19 0.04725278500969206 -0.0294613290166285 0.2167992802388356 -0.1311673014203702 -0.001209813139040319 -0.02235779007156423 -8.673617379884035e-19 -0.02056202028583826 -0.04120424123578304 
0 0 0.5384635528162252 -0.1885088371306083 -0.3509678980753992 0 -0.001209813139040316 1.355252715606881e-20 0 0 -0.04103317539204054 
-0.04881351865419019 -0.01331111276963554 0.3654806064983511 0 -0.1100407868334617 -0.01528593530861582 -0.03702196535649842 -0.02138001804572872 -0.001426620951767538 0 -0.02942540665278484 
0.0918219251088406 -0.01763904892966308 0.1579811938148199 -0.4824710826075716 0.1824954968170762 0.1947278179210609 -0.1871136281100728 -0.1578062037205337 -0.04818997800926408 -0.0410812920701647 0.09405859620266586 
-0.2009325916328077 0.6045018335480075 -0.007159810466193853 0.1232403038054856 -0.6946250699311142 -0.3673235650427455 0.144415551537436 0.2818674507054815 0.5339731939416116 -0.001781817543580455 -0.2486288295113 
0.4831010942475517 -0.1254542735748661 0.02642209911162328 -0.03752431900850665 0.08978401055051663 -0.1644360129337067 -0.06634359862845193 -0.03013458243309333 -0.125381116555182 0 -0.04804796445123552 
-0.04881351865419019 -0.01331111276963554 0.3654806064983511 0 -0.1100407868334617 -0.01528593530861582 -0.03702196535649842 -0.02138001804572872 -0.001426620951767538 0 -0.02942540665278484 
-0.1324486384379278 -0.04357827484371014 0.06875917036821212 0 0.3505804832725868 -0.07913075348785717 -0.03702196535649842 -0.02586391315749183 -0.008415282469840737 0 -0.02942540665278484 
-0.04881351865419019 -0.01331111276963554 0.3654806064983511 0 -0.1100407868334617 -0.01528593530861582 -0.03702196535649842 -0.02138001804572872 -0.001426620951767538 0 -0.02942540665278484 
-0.04881351865419019 -0.01331111276963554 0.3654806064983511 0 -0.1100407868334617 -0.01528593530861582 -0.03702196535649842 -0.02138001804572872 -0.001426620951767538 0 -0.02942540665278484 
-0.04881351865419019 -0.01331111276963554 0.3654806064983511 0 -0.1100407868334617 -0.01528593530861582 -0.03702196535649842 -0.02138001804572872 -0.001426620951767538 0 -0.02942540665278484 
-0.1532585692376812 -0.04569282425729916 -0.5454916706443518 0.5535006398857875 0.08578142297754711 0.4048892540963935 -0.1957261077200983 -0.07485123449436845 -0.1253272927212881 -0.001518386456666482 -0.1096532355301874 
-0.04881351865419022 -0.07369161991226014 -0.4746320714896783 0.1414956414991479 0.4715154404607889 0.1437129191802308 -0.09941506552383872 -0.02138001804572872 -0.02221368387191661 0 -0.06531505025351483 
-0.12001230973348 -0.2989610563765362 0.8104469568502676 -0.2041042844341617 -0.5995743812429133 -0.3899738232128452 0.2695076427867275 -0.09039268970481626 -0.09196936750248447 -1.084202172485504e-18 0.3364266339059149 
-0.04881351865419019 -0.01331111276963554 0.3654806064983511 0 -0.1100407868334617 -0.01528593530861582 -0.03702196535649842 -0.02138001804572872 -0.001426620951767538 0 -0.02942540665278484 
-0.00409237214880909 0 0.1540987282476704 -0.01897875851674687 -0.02544845471760724 -0.03481373534171241 0 0 -0.03579017304829017 0 -0.01294551017292791 
-0.2028165177792556 -0.04896354014465105 0.1767068253821761 0.694315840182799 0.3115318870997793 -0.1814261209447331 -0.2144444928793167 -0.1412905330648914 -0.2634530058995223 -0.06219005751151009 -0.0846865258505077 
-0.2180519793498155 0.2983352269136629 0.9040542301385243 -0.0694243034869748 -0.5435593166280817 -0.1879086270540275 -0.1806064321302479 -0.04107304643382462 0.2405488560396914 0 -0.09264683172116465 
-0.03379495228398286 -0.007020214063865059 0.253827958480785 -0.2124019323418526 -0.1969338671534054 0.3078218354373431 0 -0.02599039417468713 -0.03775629459029382 0 -0.01294551017292791 
-0.03213890823861368 -0.01306475255949221 0.3988839904398407 -0.03141663899352435 -0.1077854272255162 -0.06671239340077736 0 0 -0.08725000272189484 0 -0.0129455101729279 
-0.03379495228398286 -0.007020214063865059 0.253827958480785 -0.2124019323418526 -0.1969338671534054 0.3078218354373431 0 -0.02599039417468713 -0.03775629459029382 0 -0.01294551017292791 
-0.00409237214880909 0 0.1540987282476704 -0.01897875851674687 -0.02544845471760724 -0.03481373534171241 0 0 -0.03579017304829017 0 -0.01294551017292791 
-0.00409237214880909 0 0.1540987282476704 -0.01897875851674687 -0.02544845471760724 -0.03481373534171241 0 0 -0.03579017304829017 0 -0.01294551017292791 
-0.00409237214880909 0 0.1540987282476704 -0.01897875851674687 -0.02544845471760724 -0.03481373534171241 0 0 -0.03579017304829017 0 -0.01294551017292791 
0.5354589030267279 0.2027460213298554 1.082091865455185 -0.3277397637944917 -0.6840859519435729 -0.5688600604450298 -0.1699692015957069 0.04862965335609242 -0.1174573493064294 -0.001228311217191191 -0.120430682156623 
-0.00409237214880909 0 0.1540987282476704 -0.01897875851674687 -0.02544845471760724 -0.03481373534171241 0 0 -0.03579017304829017 0 -0.01294551017292791 
-0.003187513753029014 0.5269915418855811 -0.06907426341737723 -0.02447478474186535 -0.1160636041467646 -0.160520871405606 -0.02263988976202158 -0.05704816426543075 0 -0.0001512976379308695 0 
-0.3144573497061042 -0.04597596375043578 -0.08744698061767042 -0.07804682158732759 0.502805681757 -0.02666274875835291 -0.03229480998931401 -0.0395851851894574 -0.4495260067274117 0.2762322018345337 0.2612202965743553 
0.2748289712906928 0.8963841717737452 -0.835584797449993 -0.0415643549749851 -0.7881736926120431 0.1729881930394301 -0.2184442568311757 0.7953192197511257 -0.01547067239913936 -0.0001512976379308695 -0.04392893629852675 
-0.15772318329136 0.9469534578743218 -0.6927855290376939 -0.04415633270044288 -0.1636217781352792 0.03782077109786018 0.4353772715928254 -0.1411219998107687 -0.01150556433287938 -0.01517700472650816 -0.1226028688589657 
-0.06388008464830171 0.881192007203043 -0.2298353691703807 -0.02447478474186535 -0.2881665259175751 -0.160520871405606 -0.02263988976202158 -0.09854555606325524 0 -0.0001512976379308695 0 
-0.15772318329136 1.184382382061383 -0.05052844403844559 -0.2380108879031183 -0.6350945573254467 0.2401055000600335 -0.1464817709233993 -0.1204650713664544 -0.009447310190111097 -0.01164737990857325 -0.09445902810314723 
-0.06388008464830171 0.881192007203043 -0.2298353691703807 -0.02447478474186535 -0.2881665259175751 -0.160520871405606 -0.02263988976202158 -0.09854555606325524 0 -0.0001512976379308695 0 
-0.0994105163586308 0.08244347922781869 -0.06907426341737716 -0.2025980766837262 -0.1160636041467645 0.550860433516926 -0.02263988976202158 -0.05704816426543077 0 -0.0001512976379308688 -0.01219835169816156 
-0.02056444123107433 0.1498683842145606 0.6895343232869682 -0.1129595937694968 -0.3133555838938106 -0.1325579311007045 -0.1609117636372047 -0.03922504440654118 0 -0.0001512976379308695 0 
-0.003187513753029014 0.2617722821045129 -0.0690742634173772 0 -0.02466439781315574 -0.08082929694893808 -0.02263988976202158 -0.03827070564554932 0 -0.0001512976379308695 0 
-0.104400163505192 0.09559246836482711 0.05377539772255162 -0.1814240143280892 0.241832181106956 0.19972314284725 -0.02333800554191966 -0.09426916431485488 -0.01643755742898297 -0.01702219602730692 -0.009898274220012234 
-0.02640211144498439 0.2917143273441004 -0.05203567459736171 0 -0.01970727634534826 -0.04578341399002903 -0.09182117240527349 -0.0129302076105023 -0.00944731019011107 0 0 
0.2637143485887516 0.2377086027796585 -0.1023283512924381 -0.2245686973818483 -0.05934496042732968 0.03528830451438204 0.06231306592588519 0.1433916701080463 -0.3368022513895066 -0.000511215429207869 -0.1056804188812714 
0.1273571033130709 0.5507502021477892 -0.4993333190745716 -0.03550585855494529 -0.3774508848565409 0.0505561451815418 -0.1702525566931748 0.3872410841691209 -0.1206936879652903 -0.0005112154292078678 -0.03612953068016899 
-0.1041694462266524 0.7327974792571805 -0.2478433853544071 0 -0.2387968287356708 -0.08148904619975941 -0.09182117240527349 -0.05292385159067242 -0.01553750280320166 0 0 
-0.1041694462266524 0.7327974792571805 -0.2478433853544071 0 -0.2387968287356708 -0.08148904619975941 -0.09182117240527349 -0.05292385159067242 -0.01553750280320166 0 0 
-0.02640211144498439 0.2917143273441004 -0.05203567459736171 0 -0.01970727634534826 -0.04578341399002903 -0.09182117240527349 -0.0129302076105023 -0.00944731019011107 0 0 
-0.02640211144498439 0.2917143273441004 -0.05203567459736171 0 -0.01970727634534826 -0.04578341399002903 -0.09182117240527349 -0.0129302076105023 -0.00944731019011107 0 0 
-0.02895913633659664 -0.08362473692302576 -0.3466163816463721 0 0.3077208894090455 0 0 0 0 0 0 
0.4191986869824823 0.4201236929284758 0.5330910665103972 -0.6174315462377218 0.03801397337869034 -0.4390538975929187 -0.1750426699887049 -0.209402268807974 0.08691237187452722 -0.01115738211795907 -0.1486664559116253 
-0.2548600714301079 0.2477227948726898 0.1949877439920521 -0.3676843977797007 0.5618932094505644 -0.2169024650252489 -0.04324279475616591 -0.02173494863870285 -0.01054923602452539 0 -0.01944840761826198 
-0.1368284184407662 -0.1385505784725841 0.5257672758218419 0.07032591129989908 -0.02994102151490688 -0.2757803703234268 -0.01716431780458998 3.252606517456513e-18 -0.07632087316217126 0 -0.07424012480369191 
-0.07513359588300264 0.4029001141518439 0.05916727727248883 -0.337774662235388 -0.04416635367118254 -0.0576916064004813 -0.02939308622019962 -0.02173494863870286 1.734723475976807e-18 0 -0.01795661334838254 
-0.07023676580487351 -0.08362473692302574 0.6127426540220465 -0.2895897334807316 -0.1352713589041667 -0.05048822789730423 0 0 -0.06342544956417362 0 -0.02887449393691109 
-0.02895913633659664 -0.08362473692302576 -0.3466163816463721 0 0.3077208894090455 0 0 0 0 0 0 
-0.05404757666578926 -0.08362473692302576 -0.02671525864263247 -0.03585892288700442 0.1680515631383604 -0.05048822789730423 0 0 -0.002701567118296857 0 -0.007797065400611823 
-0.1831297585801658 0.1179548674252163 -0.5837348125687892 -0.572590946444593 1.163308533373301 -0.0334876731723151 -0.09810700537573194 0.2547572504709826 -0.03392387648423899 -2.414043899674756e-20 -0.06574318148035385 
-0.05027803488145888 -0.1024156646580661 -0.3377423660032198 -0.05826496882799137 0.8130575490367768 -0.2440132204585954 -0.1613533550816675 -0.02160773624753175 -0.006119794958150427 0 -0.02047731950538969 
-0.02895913633659664 -0.08362473692302576 -0.3466163816463721 0 0.3077208894090455 0 0 0 0 0 0 
0 0 0.215700320291241 -0.07680752619978645 -0.03460425598097706 -0.00414864077016298 0 0 -0.07463804687294531 0 0 
-0.3260038302966201 -0.1855049936196662 0.4473153796506289 0.244352035024103 0.07113641083122295 -0.273283199678492 -0.2930215152445167 -0.224510441653717 0.3168029332924771 -0.0218478382220714 -0.2577419231065572 
0 0 0.5284109187961096 -0.273883905260321 -0.1248771294341996 -0.05407171198428454 0 0 -0.07708782058003844 0 0 
0 0 0.215700320291241 -0.07680752619978645 -0.03460425598097706 -0.00414864077016298 0 0 -0.07463804687294531 0 0 
0 0 0.215700320291241 -0.07680752619978645 -0.03460425598097706 -0.00414864077016298 0 0 -0.07463804687294531 0 0 
0 0 0.215700320291241 -0.07680752619978645 -0.03460425598097706 -0.00414864077016298 0 0 -0.07463804687294531 0 0 
0 0 0.215700320291241 -0.07680752619978645 -0.03460425598097706 -0.00414864077016298 0 0 -0.07463804687294531 0 0 
0 0 0.215700320291241 -0.07680752619978645 -0.03460425598097706 -0.00414864077016298 0 0 -0.07463804687294531 0 0 
-0.02759847447896934 -0.006393935358486253 0.0696049431128664 0.4268328891835311 -0.2915726369586855 -0.0298270675526989 0 0 -0.0799522454840096 0 0 
-0.04267036505277606 0 0.5747895176495099 -0.3133450895823966 -0.294183001528069 -0.00414864077016298 -1.734723475976807e-18 0 -0.07463804687294531 0 0 
-0.01228745310255377 0 -0.1668721267249337 -0.01009891618604566 0.4208315481046699 -0.0806094194879268 -0.01812236396957274 -0.02585377276717645 -0.07415879532896799 -0.004503566512519531 -0.007018081371927768 
-0.2224922713829061 -0.2246085438681359 0.6178962977524123 -0.1668243803375946 0.5383854538394161 -0.1940533754750249 -0.1086729093708888 -0.1249169761197125 0.04020047118311127 -0.01614631627647221 -0.08921331907879256 
-0.01228745310255377 0 -0.1668721267249337 -0.01009891618604566 0.4208315481046699 -0.0806094194879268 -0.01812236396957274 -0.02585377276717645 -0.07415879532896799 -0.004503566512519531 -0.007018081371927768 
-0.1338363985275329 -0.07606378858892349 -0.9298367708991326 -0.1095554115149172 0.04403939393694006 0.4381341084460359 0.4702398129423755 0.6649265433948437 -0.1315493231554239 -0.04263505545423177 -0.07064921646809477 
-0.01228745310255377 0 -0.1668721267249337 -0.01009891618604566 0.4208315481046699 -0.0806094194879268 -0.01812236396957274 -0.02585377276717645 -0.07415879532896799 -0.004503566512519531 -0.007018081371927768 
-0.01228745310255377 0 -0.1668721267249337 -0.01009891618604566 0.4208315481046699 -0.0806094194879268 -0.01812236396957274 -0.02585377276717645 -0.07415879532896799 -0.004503566512519531 -0.007018081371927768 
-0.01228745310255377 0 -0.1668721267249337 -0.01009891618604566 0.4208315481046699 -0.0806094194879268 -0.01812236396957274 -0.02585377276717645 -0.07415879532896799 -0.004503566512519531 -0.007018081371927768 
-0.01228745310255377 0 -0.1668721267249337 -0.01009891618604566 0.4208315481046699 -0.0806094194879268 -0.01812236396957274 -0.02585377276717645 -0.07415879532896799 -0.004503566512519531 -0.007018081371927768 
0 0 -0.1777944636935367 0 0.4504005562316082 -0.1241648342953155 -0.002360149882944766 -0.01641949193511342 -0.1089778960627122 0 -0.07475557769783533 
-0.2017404863191554 -0.01479207861501018 0.5285525941003185 -0.2319164040270588 0.1445814071393922 -0.06705367887265568 -0.07445193115149751 -0.09159387585273329 -0.1369631585211842 -0.01506063788810509 0.1973191986356841 
-0.5209345324488365 0.12637109435799 0.04012709964261527 -0.01820820799150773 0.1323397322038834 0.09763038129623353 0.3559231903458704 0.04594887240743349 -0.09266067445990593 6.993104012531504e-18 0.1224874736169223 
0 0 -0.1777944636935367 0 0.4504005562316082 -0.1241648342953155 -0.002360149882944766 -0.01641949193511342 -0.1089778960627122 0 -0.07475557769783533 
-0.2421308207347865 -0.4016062371493923 -1.051553711812381 0.3348127910150486 0.1541026900880273 0.4160383547125378 -0.2131897999290727 0.1642856618757397 0.4197660368222562 -3.469446951953614e-18 0.5264138151561217 
0 0 -0.1777944636935367 0 0.4504005562316082 -0.1241648342953155 -0.002360149882944766 -0.01641949193511342 -0.1089778960627122 0 -0.07475557769783533 
0 -0.008848722785197948 -0.3942054947083375 -0.06572512112839819 0.3148461053339729 0.2682417021780366 -0.08093913507913501 -0.06191769846091424 -0.1742211432326032 0 0.1319195885227519 
0 0 -0.1777944636935367 0 0.4504005562316082 -0.1241648342953155 -0.002360149882944766 -0.01641949193511342 -0.1089778960627122 0 -0.07475557769783533 
0 0 -0.1777944636935367 0 0.4504005562316082 -0.1241648342953155 -0.002360149882944766 -0.01641949193511342 -0.1089778960627122 0 -0.07475557769783533 
-0.09622300260560174 -0.4445480626577625 -1.734723475976807e-18 -0.1781232919418607 0 0.7113813049225324 0 3.252606517456513e-19 0 -2.168404344971009e-19 -0.01219835169816156 
0.3554686964840953 0.1159533098421846 -0.5477197273253439 -0.2596072121065823 -0.4788427706457056 1.037092194609072 -0.04448658776360964 -0.03043221384666819 -0.04454730431315149 -7.047314121155779e-19 -0.04727265160300889 
0.5210860201184947 0.2250588512299617 -0.4150262847993348 -0.5282545657789752 -0.5619709526581692 0.5962013306136292 8.673617379884035e-19 1.301042606982605e-18 -0.04454730431315149 -2.168404344971009e-19 -0.01219835169816156 
0.5210860201184947 0.2250588512299617 -0.4150262847993348 -0.5282545657789752 -0.5619709526581692 0.5962013306136292 8.673617379884035e-19 1.301042606982605e-18 -0.04454730431315149 -2.168404344971009e-19 -0.01219835169816156 
-0.05359252056063054 -0.2500021605198938 0 -0.07900306001883435 0 0.3619330426509357 0 0 0 0 0 
-0.01091633929724919 0.216171326468303 -0.3164839555821349 -0.04655536111459388 0.6589693000264872 -0.2042633805834681 -0.09847416274232179 -0.09353412952923795 0 0 0 
1.734723475976807e-18 0.2652192597810683 -0.230667066132608 -0.02447478474186535 0.2463856766742175 -0.07969157445666802 -0.1904176821585591 -0.01877745861988144 -8.673617379884035e-19 0 0 
-0.02562161208790422 -0.05057084277409862 0.3483020661568302 -0.01043568673896297 -0.1168176984677439 -0.08821532174989755 -0.03255535947092244 -0.03066725510149124 0 0 0 
-0.4347520386059414 0.0367846070647321 0.1452030280466007 -0.2682617049157049 0.3129562943113334 0.2432903480452853 -0.05441508981787382 -0.2055242252926988 0.100599760699011 -0.04815592674781431 0.08173233449984066 
0.1356965411355311 0.4385415480245988 -0.5171077333829109 -0.05313970081147931 -0.6001494977138204 0.1224640991236098 0.5447313036709953 0.4814955709370678 -0.2252733164231548 -0.01071678063964287 -0.05349216371181566 
-0.06030722011694906 -0.1218686093449914 0.008647891461203365 -0.3075230308969031 0.5390430061676095 0.3093511956720331 -0.1938621458571469 -0.06855493734231993 -0.1163498989651862 2.168404344971009e-19 -0.1480667275672513 
-0.02562161208790422 -0.05057084277409862 0.3483020661568302 -0.01043568673896297 -0.1168176984677439 -0.08821532174989755 -0.03255535947092244 -0.03066725510149124 0 0 0 
-0.04378715480914271 -0.05057084277409862 0.08837016600063427 0.184346584763516 -0.1608034858594187 0.1622317777577319 -0.09373983351628769 -0.03066725510149124 -0.07805771648421737 -1.084202172485504e-19 -0.1453650189175265 
-0.02562161208790422 -0.05057084277409862 0.3483020661568302 -0.01043568673896297 -0.1168176984677439 -0.08821532174989755 -0.03255535947092244 -0.03066725510149124 0 0 0 
-0.02562161208790422 -0.05057084277409862 0.3483020661568302 -0.01043568673896297 -0.1168176984677439 -0.08821532174989755 -0.03255535947092244 -0.03066725510149124 0 0 0 
-0.02562161208790422 -0.05057084277409862 0.3483020661568302 -0.01043568673896297 -0.1168176984677439 -0.08821532174989755 -0.03255535947092244 -0.03066725510149124 0 0 0 
-0.02562161208790422 -0.05057084277409862 0.3483020661568302 -0.01043568673896297 -0.1168176984677439 -0.08821532174989755 -0.03255535947092244 -0.03066725510149124 0 0 0 
-0.02562161208790422 -0.05057084277409862 0.3307546994619686 0.2588925938336728 -0.3551722806720514 -0.08821532174989753 -0.03255535947092244 -0.03066725510149124 0 0 -0.02435554620196492 
0.5971694068427642 -0.07133960937017952 -0.2858820157586089 -0.1266536322890709 -0.1064477247726818 -0.00517365875872139 0 0 -0.009798377847286972 0 -0.002744705123636609 
0.6506799613965116 -0.1015527117612823 -0.4558469797912276 0.02814960407754277 0.3128821034322143 -0.3000673410615772 -0.02442389355748644 -0.01853176747200257 -0.009798377847286974 0 -0.01171706934517616 
0.8576443576033073 -0.07133960937017952 -0.1784902690862135 -0.2513267003299752 -0.369313170354883 -0.005173658758721389 0 -0.004990776416317236 -0.009798377847286972 0 -0.00274470512363661 
0.5971694068427642 -0.07133960937017952 -0.2858820157586089 -0.1266536322890709 -0.1064477247726818 -0.00517365875872139 0 0 -0.009798377847286972 0 -0.002744705123636609 
0.5971694068427642 -0.07133960937017952 -0.2858820157586089 -0.1266536322890709 -0.1064477247726818 -0.00517365875872139 0 0 -0.009798377847286972 0 -0.002744705123636609 
0.5971694068427642 -0.07133960937017952 -0.2858820157586089 -0.1266536322890709 -0.1064477247726818 -0.00517365875872139 0 0 -0.009798377847286972 0 -0.002744705123636609 
0.2725743682126092 -0.04946015174966545 -0.0407762468275349 -0.000400541114412703 -0.1064477247726818 -0.00517365875872139 0 0 -0.009798377847286972 0 -3.948050719380727e-05 
0.2581759913454027 -0.04946015174966545 0.1364703741342692 -0.1007272724593278 -0.3527324124585403 0.2571361418788202 -0.0248705668734334 0 -0.009798377847286972 0 -3.948050719380727e-05 
0 -0.0009745648287878139 0.3397944319417158 0 -0.08457404762385103 -0.1020259008127289 0 0 -0.01213275468561025 0 -0.04806524464018389 
0.03804998319150676 0.2595618002947868 -0.7372564427341985 -0.08234439772201732 -0.2802989400604963 0.582313590041876 0.1513927671065433 0.1624865606934522 0.2610105048227866 -0.01136869806001267 0.1800407103274628 
-0.1363124542267098 -0.03928459076231321 -0.2795006444381817 -0.1981048667845369 -0.2441926886800014 -0.04212657369788462 0.497259513201454 -0.03470074436660096 -0.01213275468561025 0 0.5314473816618377 
0.2575647948879723 -0.2435108453785233 0.3981180343195849 -0.6991311561617964 0.1786210529143896 -0.1483322993153961 -0.1209734926622962 -0.3203952894685593 0.2822914312257449 -0.02460685945244512 -0.08425789559983596 
-0.1159944609066077 -0.0009745648287878139 0.1087538537932421 -0.1619784298157707 -0.2079490569146084 -0.1405987558649159 -0.04174865994083801 -0.009059682400809257 -0.01213275468561025 0 0.6479775748879693 
0 -0.0009745648287878139 0.3397944319417158 0 -0.08457404762385103 -0.1020259008127289 0 0 -0.01213275468561025 0 -0.04806524464018389 
0 -0.0009745648287878139 0.3397944319417158 0 -0.08457404762385103 -0.1020259008127289 0 0 -0.01213275468561025 0 -0.04806524464018389 
0 -0.0009745648287878139 0.3397944319417158 0 -0.08457404762385103 -0.1020259008127289 0 0 -0.01213275468561025 0 -0.04806524464018389 
0 -0.0009745648287878143 0.62494025763346 -0.1603430351044266 -0.1214972644677911 -0.1646246535929617 8.673617379884035e-19 0 -0.01213275468561025 0 -0.04806524464018389 
-0.08223667302991612 0.3347607065004216 -0.1646121784138115 -0.08814744320698376 0.2117163614145891 0.04670764584780309 -0.1266554600306525 -0.04827510751262491 -0.01213275468561025 0 -0.04806524464018389 
0 -0.0009745648287878139 0.3397944319417158 0 -0.08457404762385103 -0.1020259008127289 0 0 -0.01213275468561025 0 -0.04806524464018389 
0.01775516457638651 0.1869122134257641 0.5220630934655304 -0.5211696389759124 -0.7012332397090961 0.5969179323782151 -0.4143942554281231 0.1409048692973864 0.1173333785696644 -0.02547106669290278 -0.1054367287065672 
-0.0565374825068111 0 0.435746987253051 -0.09398613171437026 -0.236677326140833 0 -0.01472978758033024 0 0 0 0 
0.002270667123236488 -0.2952897266879426 -0.2770117163654375 0.007651124862389952 0.8150188619615489 -0.05132473219496953 -0.240459052787335 -0.1446966999729551 -0.2701809119421784 -0.06193519490689198 -0.1607194266703142 
-0.1676694844661125 -0.1285785817837866 1.095511027268413 0.2906988727051723 -1.407362469976551 -0.1831357197866911 0.6631658604748718 -0.116621910279244 -0.0468582326304081 0 0 
0.1102502540662946 -0.2952897266879425 -0.8769543533323501 0.1831924800138909 0.829616322310781 0.08227223320887206 -0.2032891769071149 -0.09389510162587134 -0.1834522097368278 -0.06193519490689198 -0.1607194266703142 
-0.0565374825068111 0 0.435746987253051 -0.09398613171437026 -0.236677326140833 0 -0.01472978758033024 0 0 0 0 
0.4383967816629161 -0.2664301609227081 -0.3480318914286206 -0.2749714155649641 1.045526171453473 -0.8711760506701698 -0.1777743663301159 -0.04211130994261642 -0.1656497336057986 -0.061935194906892 -0.1607194266703142 
-0.0565374825068111 0 0.435746987253051 -0.09398613171437026 -0.236677326140833 0 -0.01472978758033024 0 0 0 0 
-0.06858958083578037 0 0.04396295949358889 -0.3692492416984305 0.448215965734817 -0.0108633693482797 -0.01472978758033024 0 -4.336808689942018e-19 0 -0.0206483853491322 
-0.0565374825068111 0 0.435746987253051 -0.09398613171437026 -0.236677326140833 0 -0.01472978758033024 0 0 0 0 
-0.09776854247856873 -0.05260716418804902 0.5386210555549173 0.06817797083577998 -0.3619470439641129 -0.04424749984648684 -0.01472978758033024 -0.006549830830029108 0 0 0 
0 -0.06493242418213135 0.3584986107175674 -0.0796432851603856 -0.1217486867687215 -0.02382905372801166 0 0 0 0 -0.03204750443270721 
0.4954315945549235 -0.07272005612485347 -0.3490222859455391 0.0382673447510934 0.04689897924773018 0.03518938708257979 -0.2887300902590912 -0.2194044887451279 0.1215377748873982 -0.01013025963985827 -0.1039207649212856 
-0.5463652912501205 0.2410108141750915 -0.2523743961473997 0.1864472480036367 1.046110215744424 -0.2104106750273901 -0.1738669156961126 -0.1557576410694481 -0.1318733839161666 -0.01003007475045661 -0.06580840156014697 
-0.1125811836798934 0.3187860256744654 0.3584986107175674 -0.0796432851603856 -0.248916201430714 -0.04693792777543371 -0.1738669156961125 -0.04075730804720099 -0.007831302228549936 -0.00580865694475201 -0.03264004825696529 
-0.09541064035824723 0.3524988135898867 0.1287837940583643 0.06473351321445331 -0.01267692091439312 -0.3933753675671865 -0.03693781489363443 -0.04581865905771933 -0.02748965118031412 0 -0.03225890562826765 
0 -0.06493242418213135 0.3584986107175674 -0.0796432851603856 -0.1217486867687215 -0.02382905372801166 0 0 0 0 -0.03204750443270721 
0 -0.06493242418213135 0.3584986107175674 -0.0796432851603856 -0.1217486867687215 -0.02382905372801166 0 0 0 0 -0.03204750443270721 
-0.1239897223206493 -0.1343084825967473 0.469746630988729 -0.2926050253682524 -0.2870519571751924 0.1713810977304579 -0.04220310902377621 -0.02156958914905159 -0.02293771012622713 -0.009754017134894122 0.2135486542767536 
-0.114161024597033 -0.2634517365615516 0.2389968352761838 -0.2537779001891345 0.5849486735388211 -0.51343960857455 -0.04280716949830513 0.2679067123647926 -0.1592214493228604 -0.01164274976395269 -0.07997762486276802 
-0.1678776117437055 -0.1547862798806944 0.1024537748911576 -0.1236321680536836 -0.2454148974880428 0.5168692635618524 -0.1484805962646702 -0.1181721254392136 0.1758105222616633 6.505213034913027e-19 0.1517495340205662 
-0.03669296224710911 0 -0.3971661418749977 0.6349965064682379 -0.1587751053660552 0 -0.0186505027623975 0 0 0 0 
0.6422768939057902 -0.2602249880843572 0.2395503364428102 -0.3763361968553532 -0.2395303129164887 -0.32988440468596 0.1771925351506681 -0.1098482728021547 0.6533464375239053 -0.0001001848894016553 -0.07595744208681877 
-0.1632731787969409 -0.2490740680170938 0.2125657349678642 -0.2024147537565099 0.8211418752869288 -0.2422487282539637 -0.05306150102582684 -0.1682787193172435 -0.09321592546245545 -0.0003838882452613042 4.77048955893622e-18 
-0.08684643234571066 -0.009224710969766228 0.2241926860670205 0.4910637250067667 -0.2950493990066694 -0.08175090812761007 -0.1511658262388516 0 -0.02491033057329817 0 -0.01158313553969967 
-0.04531745642445496 -0.02347084100015705 0.1798505669689784 0.236663910692869 -0.3343704347412063 0 -0.0186505027623975 0 0 0 0 
-0.08684643234571066 -0.009224710969766226 -0.04326583598629881 0.5898631682785707 -0.2950493990066693 -0.03170794536753006 -0.0740467543605445 0 -0.01426842519412342 0 0 
-0.03669296224710911 0 -0.3971661418749977 0.6349965064682379 -0.1587751053660552 0 -0.0186505027623975 0 0 0 0 
-0.03669296224710911 0 -0.3971661418749977 0.6349965064682379 -0.1587751053660552 0 -0.0186505027623975 0 0 0 0 
-0.1165978734059948 0.10430651783318 0.1329314537837795 0.5792636573100663 -0.6397818698119687 -0.2014114805819505 -0.1027239218889829 -0.02313917449804843 -0.03365184065579224 -0.001428241235314137 0.2318836000738387 
-0.1770419677320854 0.1684905645043523 -0.8791669556967239 0.6791920401850321 0.1010347640960361 0.195779606286721 0.2159834974174793 -0.08365050881932914 -0.008484153316991894 0 -0.05297580748695971 
0 0 -0.1662527448307203 0.2839109983926095 -0.08554869010166694 0 -0.01114216050788355 0 0 0 0 
-0.1588290141952542 0.09988736631212693 0.006189369779091909 0.2946333676551378 0.2360515549495539 -0.3673753044443385 -0.1239895523802575 -0.0707656223689855 -0.05686856692008254 -0.002702285121421793 -0.1363506335777143 
0 0 0.5442229935237073 -0.08347958294053504 -0.3847359636088884 -0.02061732505204351 0 8.673617379884035e-19 -0.0003591511370785391 0 -0.06133481930301063 
-0.343134811987356 0.05149308242643082 0.05986208625152702 -0.1394707245605237 0.09925153405311926 -0.05478628719759553 0.03975449486857237 -0.2142980079111558 0.09032380347600936 -0.09355105613243654 0.4904247563244491 
-0.1239167911903837 -0.1049003955379876 -0.3984269917443968 -0.1711635968465078 0.1581675876210716 -0.2852177138260423 -0.1641532289072567 -0.00349531876701155 0.2618453588747096 -0.01519227802482733 0.8122476237681702 
-0.4129971650936609 -0.02399039495874796 -0.2189730064246994 -0.01918572327221562 0.4342214078710807 0.4256245103210656 -0.271257187606604 0.1496739629408153 0.1592163095475104 1.897353801849633e-19 -0.3236677151982019 
0 0 0.5442229935237073 -0.08347958294053504 -0.3847359636088884 -0.02061732505204351 0 8.673617379884035e-19 -0.0003591511370785391 0 -0.06133481930301063 
-0.4175194161252279 -0.06378372493139924 1.10929548292434 0.02241291479442981 -0.3295938364054942 -0.2629991711106198 -0.004256487962305373 -0.03939720958300981 -0.1119424298604426 0 -0.103183693654968 
0 0 0.5442229935237073 -0.08347958294053504 -0.3847359636088884 -0.02061732505204351 0 8.673617379884035e-19 -0.0003591511370785391 0 -0.06133481930301063 
0 0 0.5442229935237073 -0.08347958294053504 -0.3847359636088884 -0.02061732505204351 0 8.673617379884035e-19 -0.0003591511370785391 0 -0.06133481930301063 
-0.07599428194965518 0.07387617978432795 -0.04715259558318358 -0.4156310834767079 0.7496504690636144 0.1299388057033516 -0.2109781819671683 -0.07545841215730431 -0.08615972028454874 -6.505213034913027e-19 -0.1390756957000162 
-0.009269528681621272 0 -0.2209593508434548 -0.0971996551732929 -0.1552121217931938 -0.09406254271316204 0.571927265671174 -0.009818192966090275 -0.0194994740505455 0 -0.01336039062368133 
0.4950223384197267 -0.1915796344454629 -0.4717722128129119 0.4501136902821572 0.05773560245153461 -0.180361238012049 0.2485543493237473 0.1594019547760192 -0.1292481493064689 -0.01167843215702098 -0.07305281047329401 
-0.2340561206908905 -0.06392811115105533 0.07593936367428218 -0.02012131830504957 -0.2032825821704268 0.2024707773670602 0.5178576068939662 -0.1050961625793483 -0.07258107516377284 -0.006770308462130122 -0.03670524881566097 
-0.00926952868162129 -0.1285390343890395 -0.2138399807656569 -0.0907107929709088 0.08527382815131203 0.2664734407567019 0.2414329511572368 -0.1041273061854588 -0.1372284513843696 0 -0.04701788513626545 
-0.009269528681621272 0 -0.2209593508434548 -0.0971996551732929 -0.1552121217931938 -0.09406254271316204 0.571927265671174 -0.009818192966090275 -0.0194994740505455 0 -0.01336039062368133 
-0.009269528681621272 0 -0.2209593508434548 -0.0971996551732929 -0.1552121217931938 -0.09406254271316204 0.571927265671174 -0.009818192966090275 -0.0194994740505455 0 -0.01336039062368133 
-0.009269528681621272 0 -0.2209593508434548 -0.0971996551732929 -0.1552121217931938 -0.09406254271316204 0.571927265671174 -0.009818192966090275 -0.0194994740505455 0 -0.01336039062368133 
-0.009269528681621272 0 -0.2209593508434548 -0.0971996551732929 -0.1552121217931938 -0.09406254271316204 0.571927265671174 -0.009818192966090275 -0.0194994740505455 0 -0.01336039062368133 
-0.005243688660744042 0 0.04481557036221226 -0.1936950015161769 -0.03227826024884155 -0.02362002977141247 0.2461267992339756 -0.02015484527271251 -0.04226738330690376 0 -0.01336039062368133 
-0.007072200053945208 0.2693974698495323 -0.09328845087290341 -0.1592075646697605 0.1288406280335978 -0.1258528529220984 0.2387279878944701 -0.1040547861086287 1.517883041479706e-18 -0.004324148908529543 -0.01664065395339716 
0 0 -0.3286123010555907 -0.07628433115584017 0.1648413175471954 -0.004541861157171758 0.2042610416970083 -0.0323651177719286 0 0 -0.01336039062368133 
0 -0.07256891229369906 -0.5079952912011632 -0.222518742216476 -4.336808689942018e-18 -0.1743854626638295 -0.1297607821113679 0.8218405272468876 0 0 -0.008811861244279417 
-0.08396856689032975 -0.3284820390057022 -0.3742487727809573 0.1085992403376723 -0.2715419118926252 0.08873414712870287 0.1788109672096262 0.8126555689749698 -0.1226336819536849 -0.001781817543580459 -0.08711583605473421 
-0.08384605953091984 0.1788547362324622 0.1485704537851122 0.1544903475053427 -0.5612116447385933 -0.05259952457240172 -0.186690699855017 0.4624803146041536 -2.168404344971009e-19 3.361026734705064e-18 -0.1895005459474128 
-0.04537370475556517 -0.3033044102797234 -0.4950060399829163 -0.07195992020070907 -0.2715419118926252 0.09524587938128534 0.2401447478937959 0.914966432572102 -0.1144111079707258 -0.001781817543580459 -0.08711583605473421 
-0.06624300223316731 -0.179484074478131 0.253135972170335 0.3463363004294479 -0.4644191046170479 -0.2282802459198551 -0.1537965396553584 0.5244947584579905 2.168404344971009e-19 0 -0.1667756515363748 
-0.04537370475556515 -0.2826144809376619 -0.9205906756984328 -0.07195992020070907 -0.1081254413519435 0.1248657929039832 0.2534036104806754 1.016207088694973 -0.1032695623929241 -0.001781817543580459 -0.08711583605473421 
-0.03818334133777258 -0.05064581984664987 -0.4158246499796472 -0.2008146043863082 0.7970617169788634 -0.08391194996617896 -0.2915901876409723 0.2901412043917417 -1.734723475976807e-18 0 -0.008811861244279415 
0.3768949083245975 0.1889623375086651 0.006150394380252075 -0.2711968434606752 0.02572920724908618 -0.119263022440948 -0.07615895042332832 0.0758637690912185 -0.0826891771435487 -0.06129961008469638 0.1257453007096773 
0 -0.008819804082303288 -0.3268207204236508 -0.04851699283032194 -1.734723475976807e-18 3.469446951953614e-18 0.2152108323252681 0.2859637305916749 2.168404344971009e-19 0 -0.08210241743571949 
0 -0.0009787234500563595 0.4681614996107916 -0.09940737796218072 -0.3257571367314246 -0.006876039976262392 0 -4.336808689942018e-19 0 0 0 
-0.3581188634865076 -0.3726120592039737 0.4126523339797689 0.3419759209724961 0.1537005544311063 -0.4287887427541345 -0.3814030651663571 -0.1601257135946402 -0.1847533046029281 -0.07026595690552395 -0.1884722291600273 
-0.1657457247183057 -0.1136234935023293 -0.3360594367538329 0.1273029413941006 0.6089572176559629 -0.1903691320594906 -0.1911507699515245 -0.09843446280478016 -0.02201809485106302 -0.004578333720049042 -0.05886371461312251 
-0.4845903381094132 0.551620038991819 -0.1288551452365703 -0.4253239929418121 0.2142720205240612 0.4965875747252769 -0.1973150146031513 0.3095166534715844 -0.1369681269735343 1.734723475976807e-18 -0.1363131597496464 
-8.673617379884035e-19 -0.0009787234500563742 0.1516255923806334 -0.263777928672177 0.1927761547096707 -0.02526496816758649 0 -0.04381957008847862 0 0 1.040834085586084e-17 
-0.003722623450284803 -0.02662649200887794 0.5917456188185378 0.2261662505344275 -0.5358381554544095 -0.05731991638857634 0 -8.345242005013373e-05 -0.02060800776265306 0 -0.0175617149335544 
0 -0.0009787234500563595 0.4681614996107916 -0.09940737796218072 -0.3257571367314246 -0.006876039976262392 0 -4.336808689942018e-19 0 0 0 
8.673617379884035e-19 -0.02662649200887793 0.7571303230356333 -0.2482180340707571 -0.3712514503727598 -0.01257951832970711 0 -4.336808689942018e-19 0 0 0 
0 -0.0009787234500563595 0.1601231947984616 -0.3263033683383849 0.2206560028232623 0 -0.0473859057585452 0 0 0 0 
-0.03060117346677765 -0.01039208363193082 0.2209123595038643 0.3682304664159834 -0.5065267500377379 -0.01712834812300773 0 -8.673617379884035e-19 -0.001637927164719737 0 -0.003664416293756879 
0.3372706566957482 -0.08187599873115599 -0.1885162791911656 0 -0.05218355333615124 -0.0219484057529813 0 -0.0003524027728208697 -0.01013840259658987 0 -0.006272918060983215 
0.6155497326854796 -0.08187599873115599 -0.04233707125658881 -0.03752431900850664 -0.2607964727220702 -0.08530525944584941 -0.02932163327195358 -0.004270669275601502 -0.1169658340853412 0 -0.01862255779845069 
0.3372706566957482 -0.08187599873115599 -0.1885162791911656 0 -0.05218355333615124 -0.0219484057529813 0 -0.0003524027728208697 -0.01013840259658987 0 -0.006272918060983215 
0.3372706566957482 -0.08187599873115599 -0.1885162791911656 0 -0.05218355333615124 -0.0219484057529813 0 -0.0003524027728208697 -0.01013840259658987 0 -0.006272918060983215 
0.3372706566957482 -0.08187599873115599 -0.1885162791911656 0 -0.05218355333615124 -0.0219484057529813 0 -0.0003524027728208697 -0.01013840259658987 0 -0.006272918060983215 
0.3372706566957482 -0.08187599873115599 -0.1885162791911656 0 -0.05218355333615124 -0.0219484057529813 0 -0.0003524027728208697 -0.01013840259658987 0 -0.006272918060983215 
0.1581544372976181 -0.114276902339425 0.3644114529609708 -0.03213219056566999 -0.4761352685318549 0.1239683112529935 -0.04911922462681066 -0.01315503501444977 -0.01177632976130961 -0.001185226513132334 -0.04496323196794449 
0 0 -0.083030836735605 -0.005049626407938651 0.1584168525641093 0 -0.0410297484222298 0 0 -0.001917731308366517 0 
-0.1022570316859071 -0.04756517389485561 0.3276229961064984 -0.4107727702926209 0.741529791422612 -0.3562755633455628 -0.1056747788367209 -0.02994948343327016 -0.0636500268316689 -0.001917731308366517 -0.02190940479364099 
-0.02179209191194051 0 -0.2004945386282505 -0.03971120962023414 0.4932666704077343 -0.1754117404482062 -0.05558990014885035 -4.336808689942018e-19 -0.01409573260890801 -0.001917731308366517 0 
-0.01473997820974695 0 -0.1515298717269385 -0.2365576854477821 0.5866468357058257 -3.252606517456513e-18 -0.05175593721743294 0 0 -0.001917731308366517 -0.0005670673703437468 
0 0 -0.083030836735605 -0.005049626407938651 0.1584168525641093 0 -0.0410297484222298 0 0 -0.001917731308366517 0 
0 0 -0.2616906296452735 -0.1144841638832967 0.4865123896334388 0 -0.0410297484222298 0 0 -0.001917731308366517 0 
0 0 -0.083030836735605 -0.005049626407938651 0.1584168525641093 0 -0.0410297484222298 0 0 -0.001917731308366517 0 
0 0 -0.083030836735605 -0.005049626407938651 0.1584168525641093 0 -0.0410297484222298 0 0 -0.001917731308366517 0 
-0.1204128794582705 -0.01732407344803518 -0.2994959307006427 -0.2103622065308552 0.7011779361742193 -8.673617379884035e-18 -0.04190245111557009 -0.009252810993204344 -0.004505944394682141 -0.001917731308366517 6.938893903907228e-18 
-0.2513589911450032 -0.1636388962269395 -0.4638953884186683 0.0849271538388625 0.334321068925638 -0.2211367468616325 0.6312741697102037 0.1219836775119025 -0.02054900961469437 -0.001917731308366517 -0.09110332050786535 
0 0 -0.083030836735605 -0.005049626407938651 0.1584168525641093 0 -0.0410297484222298 0 0 -0.001917731308366517 0 
0 0 -0.3755599596382803 0.265965162932584 0 0 0 0 0 0 0 
1.387778780781446e-17 -0.02564776855882157 -0.1016516464774135 -0.2995770455694994 0.4685177734662674 -0.05229018250229971 -0.0004371291620016561 -0.0468204534291007 -0.0268234796540688 0 -0.006569661487824888 
-0.1787017297114146 -0.2411016955121869 0.1777662215118279 1.266602319100512 -0.7761881507865835 -0.1987909630990978 -0.074846698461757 -0.05483217942812361 -0.1245218244344624 0 -0.1281631522086321 
-1.301042606982605e-18 -0.02564776855882157 -0.1462667224582828 0.137709570697098 -0.02732128897080449 -0.005703478353444687 0 0 -2.710505431213761e-20 0 -0.006569661487824885 
-0.001867576208913524 -0.02389624271841662 0.05664184962562391 0.2658486476517927 -0.3248450769102326 -0.05856303016120501 -0.01479850930573067 0 -0.03012535745090367 0 -0.01213080012092455 
0 -3.469446951953614e-18 -0.01885831358310115 0.2068837346483755 -0.2624037560031416 0 0 0 0 0 -0.006569661487824886 
0 0 -0.3755599596382803 0.265965162932584 0 0 0 0 0 0 0 
-0.2194031786897667 -0.2317589927076059 1.00610973177957 0.9693160706025473 -1.403756944964994 -0.4297656069359017 -0.4908138776429696 -0.5005230834037576 0.02776286927620162 -0.02692436143852019 -0.3720907529050383 
-0.02120002352155322 0.1683300897074254 0.3157012354990064 0.5648193027938313 -0.9633835638463158 0.06398019843934501 -0.3020292596520956 -0.1323633953388023 -0.0006909841848093521 -4.336808689942018e-19 -0.2045880380737946 
-0.1648898712759108 -0.1087047554488993 0.7284104481556967 -0.2366330768609881 -0.2518257624534414 -0.1198079042826092 -0.001990864783560367 -0.01418436162113035 0 0 6.505213034913027e-19 
-0.06675982000644703 -0.05055584644345221 -0.8823645713184791 0.07004472563927461 0.1650679477873605 -0.1502798552679559 0.3129917209659169 0.247470387544496 -0.01812559453824832 -0.006169604048777579 0.4036042579137119 
0.353530632038156 -0.006503695942790268 -0.09529094463453679 -0.04486290170551627 -0.1454040959782814 -0.03013662646077764 -0.003849908740869662 -0.0098263491391996 0 0 0 
0.5182548440788475 -0.1152245284981239 -0.6583330209624498 0.03082354232746379 0.293533480666022 0.3460186756441219 -0.05534528345052669 -0.06801932343645012 2.602085213965211e-18 0 -0.005040407531522012 
0.3003890887876723 -0.0964930012494679 -0.1583658607824439 -0.06738074065083749 0.2596151160863074 -0.06971421050612087 -0.03687035503741671 -0.009826349139199598 8.673617379884035e-19 0 -0.01417062689731959 
0.353530632038156 -0.006503695942790268 -0.09529094463453679 -0.04486290170551627 -0.1454040959782814 -0.03013662646077764 -0.003849908740869662 -0.0098263491391996 0 0 0 
0.353530632038156 -0.006503695942790268 -0.09529094463453679 -0.04486290170551627 -0.1454040959782814 -0.03013662646077764 -0.003849908740869662 -0.0098263491391996 0 0 0 
0.353530632038156 -0.006503695942790268 -0.09529094463453679 -0.04486290170551627 -0.1454040959782814 -0.03013662646077764 -0.003849908740869662 -0.0098263491391996 0 0 0 
0.353530632038156 -0.006503695942790268 -0.09529094463453679 -0.04486290170551627 -0.1454040959782814 -0.03013662646077764 -0.003849908740869662 -0.0098263491391996 0 0 0 
0.353530632038156 -0.01824721216849652 -0.2035850855858979 -0.1252034890084119 -0.2167328617933542 0.2948428116112128 -0.003849908740869662 -0.0098263491391996 0 0 0 
0.353530632038156 -0.006503695942790268 -0.09529094463453679 -0.04486290170551627 -0.1454040959782814 -0.03013662646077764 -0.003849908740869662 -0.0098263491391996 0 0 0 
0.7035285625828862 -0.04127800930147282 -0.1555669031630505 -0.1103953194657209 -0.3797438067050376 -0.03013662646077763 -0.003849908740869662 -0.0098263491391996 0 0 -8.673617379884035e-18 
0.314365724713098 -0.006503695942790266 -0.112033329752884 -0.07560150206171271 0.1407332956509868 -0.06912560938450567 -0.06546501787472359 -0.05984336848229128 0 -0.002776554601996082 -0.03561700700518923 
-0.0164767168349048 -0.06315924758267041 -0.04349742169256478 -0.05202101213588585 0 -0.1316959669827489 0.7798511944773399 -0.3730347507818725 0 0 -0.06577488206832004 
-0.01831281798561799 -0.08306889616936577 -0.1769197314511687 -0.05275704276438285 -0.07169089891412013 -0.1394072448973599 0.718593658457152 -0.3730347507818726 2.168404344971009e-19 0 0.2867035470522001 
-0.0164767168349048 -0.06315924758267041 -0.04349742169256478 -0.05202101213588585 0 -0.1316959669827489 0.7798511944773399 -0.3730347507818725 0 0 -0.06577488206832004 
0.1964300577983684 -0.03828159560925945 -0.481398702661132 -0.01193906073159974 -0.3561123652127808 0.7203084957621745 0.2749943640401653 -0.1780637642126046 1.734723475976807e-18 0 -0.02499280048152903 
0.2726154830178575 -0.03828159560925946 -0.2604517608529305 -0.3694172054328101 0.009719570895651706 0.2555866386825838 0.3068081003160751 -0.1671354304831427 -0.02200124262261952 0 -0.02499280048152903 
-0.0164767168349048 -0.03619407083452463 0.3325864473977148 -0.001876897745758592 -0.4019812327019243 -0.1151340945017143 0.3802502775137392 -0.1671354304831427 0 0 -0.02499280048152903 
0.5046600039759871 -0.04326610971924182 -0.3070492682921976 -0.1182368503403065 -0.03601842406399244 -0.05359271118657957 -0.01863561678370049 0 0 0 -0.007801862696164711 
0.2662499536627113 0.04335212746236324 -0.2349928600175756 0.3154264885541134 -0.5245087607577483 0.7973660360285215 -0.04259973853678901 -0.3636265043264856 -0.349068050920181 -0.03565626392415377 0.008669370186468678 
0.6430500113454768 -0.3355187396196853 0.5179110888251989 -0.0607607147689594 -0.2233592534389139 -0.4342561433496566 -0.05528567331123935 0 -0.0109559131862807 0 -0.02820439919586429 
0.7968603717917327 -0.1251740059764855 -0.3942836430236099 -0.1182368503403065 -0.03601842406399244 -0.160539869010101 -0.01863561678370049 0 0 0 -0.02779759460524346 
0.7746368750213388 -0.1801622222438076 -0.5327994333746484 -0.1520856299613825 0.3687208220535092 -0.1956777082348777 -0.02124636778355108 -0.01371431936830109 0 0 -0.01913262312457805 
0.5046600039759871 -0.04326610971924182 -0.3070492682921976 -0.1182368503403065 -0.03601842406399244 -0.05359271118657957 -0.01863561678370049 0 0 0 -0.007801862696164711 
0.2050105091982986 -0.002576062787703103 -0.1715384869239644 -0.2475900392864158 0.3518721699015454 -0.07149588956366408 -0.01863561678370049 0 0 0 -0.007801862696164711 
0.1817364849394782 -0.1509410302174999 -0.2199251012545295 -0.04461611463236164 0.4458773728513857 -0.0724097158040467 -0.0415773899155026 -0.00564260160258289 -0.03097000173521531 0 -0.05324758633264193 
0.4208791479797906 -0.08448395904494685 0.07279323529703118 0 -0.1412619971866687 -0.2101410444080735 -0.01863561678370049 0 -0.01854284246683385 0 -0.03134708260903209 
0.2309214305654677 -0.002576062787703103 -0.1198815200797103 0 -0.03601842406399244 -0.03870212965626073 -0.01863561678370049 0 0 0 -0.007801862696164711 
-0.1090738637968541 -0.0084015179025544 -0.04552502632001579 0 -0.02012545351608077 -0.112022404398794 -0.04990559146191206 -0.01350053616456181 0.3943555777300933 -0.01445244238838331 -0.03274148535035157 
0.0511450527133324 -0.3997594894276396 -1.131305278477654 -0.3903687093193619 -0.1388894706098659 0.8028161786939133 0.3740485889260172 -0.2017749290677673 0.7352286197431362 -0.03713000814581079 0.4150452777425394 
0.3830980318866195 -0.0387786517252065 -0.6426964735956141 -0.1593105455292597 -0.2734468428700103 0.1365473026095801 -0.1524711186388237 0.2778755490122033 0.1913479252073652 0.3021601441047093 -0.1423277296915055 
-0.1090738637968541 -0.0084015179025544 -0.04552502632001579 0 -0.02012545351608077 -0.112022404398794 -0.04990559146191206 -0.01350053616456181 0.3943555777300933 -0.01445244238838331 -0.03274148535035157 
-0.1090738637968541 -0.0084015179025544 -0.04552502632001579 0 -0.02012545351608077 -0.112022404398794 -0.04990559146191206 -0.01350053616456181 0.3943555777300933 -0.01445244238838331 -0.03274148535035157 
-0.1090738637968541 -0.0084015179025544 -0.04552502632001579 0 -0.02012545351608077 -0.112022404398794 -0.04990559146191206 -0.01350053616456181 0.3943555777300933 -0.01445244238838331 -0.03274148535035157 
-0.1090738637968541 -0.0084015179025544 -0.04552502632001579 0 -0.02012545351608077 -0.112022404398794 -0.04990559146191206 -0.01350053616456181 0.3943555777300933 -0.01445244238838331 -0.03274148535035157 
-0.1090738637968541 -0.0084015179025544 -0.04552502632001579 0 -0.02012545351608077 -0.112022404398794 -0.04990559146191206 -0.01350053616456181 0.3943555777300933 -0.01445244238838331 -0.03274148535035157 
-0.1090738637968541 -0.0084015179025544 -0.04552502632001579 0 -0.02012545351608077 -0.112022404398794 -0.04990559146191206 -0.01350053616456181 0.3943555777300933 -0.01445244238838331 -0.03274148535035157 
-0.08326819488673533 -0.03290934010215134 -0.07326123693207688 0 -0.05040578458124965 0.347032017660363 -0.03294104445077798 -0.003632463937946745 -0.07300770519705414 -0.001589543727797407 -0.03337952035962628 
0.000401963367560168 0.269935464512613 -0.4833027559507504 -0.006802068056349064 -0.4204848833482114 0.7235786103892516 -0.03294104445077798 -0.04543000704016745 -0.1407674467302535 -0.001589543727797406 -0.03938289944117491 
-0.08326819488673533 -0.03290934010215134 -0.07326123693207688 0 -0.05040578458124965 0.347032017660363 -0.03294104445077798 -0.003632463937946745 -0.07300770519705414 -0.001589543727797407 -0.03337952035962628 
-0.08326819488673533 -0.03290934010215134 -0.07326123693207688 0 -0.05040578458124965 0.347032017660363 -0.03294104445077798 -0.003632463937946745 -0.07300770519705414 -0.001589543727797407 -0.03337952035962628 
-0.08326819488673533 -0.03290934010215134 -0.07326123693207688 0 -0.05040578458124965 0.347032017660363 -0.03294104445077798 -0.003632463937946745 -0.07300770519705414 -0.001589543727797407 -0.03337952035962628 
-0.08326819488673533 -0.03290934010215134 -0.07326123693207688 0 -0.05040578458124965 0.347032017660363 -0.03294104445077798 -0.003632463937946745 -0.07300770519705414 -0.001589543727797407 -0.03337952035962628 
-0.08326819488673533 -0.03290934010215134 -0.07326123693207688 0 -0.05040578458124965 0.347032017660363 -0.03294104445077798 -0.003632463937946745 -0.07300770519705414 -0.001589543727797407 -0.03337952035962628 
-0.08326819488673533 -0.03290934010215134 -0.4092305458949702 0.3380183608002488 -0.05040578458124966 0.3470320176603631 -0.05046735364724236 -0.003632463937946743 -0.07300770519705414 -0.001589543727797407 -0.04630026387056278 
-0.1092868516822576 -0.03290934010215134 0.2108714514012424 -0.1044746334898635 -0.07072800948709881 0.2963478004834775 -0.03294104445077798 -0.003632463937946747 -0.07300770519705416 -0.001589543727797407 -0.06717494817081124 
0.3407483643009091 -0.02307728892775752 -0.1453634865189288 0 -0.06257143719427781 -0.02786984869861883 -0.02561883052613713 -0.03096316357611168 -0.02428469471639622 -0.003810121718000889 0 
0.3407483643009091 -0.02307728892775752 -0.1453634865189288 0 -0.06257143719427781 -0.02786984869861883 -0.02561883052613713 -0.03096316357611168 -0.02428469471639622 -0.003810121718000889 0 
0.3407483643009091 -0.02307728892775752 -0.1453634865189288 0 -0.06257143719427781 -0.02786984869861883 -0.02561883052613713 -0.03096316357611168 -0.02428469471639622 -0.003810121718000889 0 
0.3407483643009091 -0.02307728892775752 -0.1453634865189288 0 -0.06257143719427781 -0.02786984869861883 -0.02561883052613713 -0.03096316357611168 -0.02428469471639622 -0.003810121718000889 0 
0.3407483643009091 -0.02307728892775752 -0.1453634865189288 0 -0.06257143719427781 -0.02786984869861883 -0.02561883052613713 -0.03096316357611168 -0.02428469471639622 -0.003810121718000889 0 
0.3407483643009091 -0.02307728892775752 -0.1453634865189288 0 -0.06257143719427781 -0.02786984869861883 -0.02561883052613713 -0.03096316357611168 -0.02428469471639622 -0.003810121718000889 0 
0.3407483643009091 -0.02307728892775752 -0.1453634865189288 0 -0.06257143719427781 -0.02786984869861883 -0.02561883052613713 -0.03096316357611168 -0.02428469471639622 -0.003810121718000889 0 
0.3407483643009091 -0.02307728892775752 -0.1453634865189288 0 -0.06257143719427781 -0.02786984869861883 -0.02561883052613713 -0.03096316357611168 -0.02428469471639622 -0.003810121718000889 0 
0.3407483643009091 -0.02307728892775752 -0.1453634865189288 0 -0.06257143719427781 -0.02786984869861883 -0.02561883052613713 -0.03096316357611168 -0.02428469471639622 -0.003810121718000889 0 
-0.01033643411148584 0 -0.09253899282833246 -0.3141027783698667 0.4298955195413096 -0.01084035845648879 -0.01198703156350078 0 0 0 0 
0.5649584248721234 -0.1411205328398541 0.2177686438960389 0.128403059449157 -0.2023803195808684 -0.08942863540116167 -0.1562290881288561 -0.2816641749584619 -0.1840895085019726 -0.03482125609459574 -0.2115350346002252 
-0.4541493069518628 0.2182066203181302 -0.2642169956010467 -0.05596662741826677 0.983650722382561 -0.1645264842740675 -0.1342720013376105 -0.1539373390441743 -0.03314346839480697 0 -0.05715181857745549 
-0.1389318750988433 -0.01345419869633152 -0.7427281843834468 0.997885499133783 -0.1363949706560555 -0.1607974110877204 0.2563181259919928 -0.02151679980618273 -0.08374959834090981 0 -0.00928641743474589 
-0.01033643411148584 -8.673617379884035e-18 -0.1002588629170458 -0.4709415016610993 0.6382096359297422 -0.02653671552843779 -0.01198703156350078 0 0 0 0 
-0.01033643411148584 0 -0.09253899282833246 -0.3141027783698667 0.4298955195413096 -0.01084035845648879 -0.01198703156350078 0 0 0 0 
-0.01033643411148584 0 -0.09253899282833246 -0.3141027783698667 0.4298955195413096 -0.01084035845648879 -0.01198703156350078 0 0 0 0 
-0.01033643411148584 0 -0.09253899282833246 -0.3141027783698667 0.4298955195413096 -0.01084035845648879 -0.01198703156350078 0 0 0 0 
-0.2438170260692083 -0.4022361297076472 -0.15509275118872 -0.5988902159200109 0.8835612029106434 0.2648516269261681 -0.01071646495646596 0.05074604277222201 -0.1270547990847585 -0.0001326438645783512 0.1254292976710437 
-0.01033643411148584 0 0.2165366683897778 -0.08314263099346006 -0.001362973393929857 -0.01084035845648879 -0.02542221100886342 0 0 0 0 
-0.1626923258165754 0.7911504118868748 -0.04688069589691799 -0.1548900649570653 -0.1421915905804333 -0.2098877651341982 0 1.301042606982605e-18 0 0 0 
0.03841617902088209 0.6835073461214153 -0.01188525325691755 -0.3876978623700692 -0.02687779525029273 -0.2485678931248543 -0.04647430102797588 -0.08893006461291257 0.1981552366827791 -0.009752894274296856 -0.1380729025041604 
-0.436082889939566 0.6244840109797339 -0.2331454836534695 0.1327465312710455 0.4925572107032357 -0.4262328386090407 -0.02930081846555524 -0.03456132718033554 -0.1617690186585187 0 -0.03182178557279174 
-0.1626923258165754 0.5689957752353301 -0.5630905219130187 0.4305405067685153 -0.1875469612164878 -0.2098877651341982 0 1.301042606982605e-18 0 0 0 
-0.1054122230473415 0.2299311432149019 0.2131586022281042 0.2536736761701343 -0.7798759864226736 0.3491153746503908 -0.03308247977614951 0.1670272866787 -4.87890977618477e-19 4.87890977618477e-19 -0.1158343085261664 
-0.08542651059855211 0.3861490196365168 -0.01322563417323257 -0.1548900649570653 0 -0.1220612226817363 0 0 0 0 0 
-0.08542651059855211 0.3861490196365168 -0.2474230472914246 0.4657965027393421 -0.00738918460516901 -0.2882390697274049 -0.09221066264029182 -0.02274707012779953 0 0 -0.0001411831077876506 
-0.1498626523494858 0.3198872628293639 0.02654208572268305 0.5599284859275863 -0.4064273780168468 -0.1774915332824737 -6.938893903907228e-18 -0.04426578780040535 0 -0.01236489786621074 -0.02094267702862074 
1.734723475976807e-18 -0.05976123742303278 -0.2312082208710483 -0.1625344192735923 0.5311251994215425 -0.0326930011965379 -1.951563910473908e-18 0 0 0 0 
-0.1121197372457685 -0.1894646838529624 0.1602667293487933 -0.3318725632777985 0.8884797635859855 -0.1980135861001567 -0.1588796241971009 -0.1534763228448213 -0.01426842519412342 0 -0.01112015348912562 
1.734723475976807e-18 -0.05976123742303278 -0.2312082208710483 -0.1625344192735923 0.5311251994215425 -0.0326930011965379 -1.951563910473908e-18 0 0 0 0 
-0.04689971835565353 -0.05976123742303276 -0.1031074303509782 0.4079816981752207 0.2919484802488317 -0.3045462795677591 -0.05520739099725823 -0.1144310975625664 -0.03143555655498041 1.897353801849633e-19 -0.01508699594397762 
1.734723475976807e-18 -0.05976123742303278 -0.2312082208710483 -0.1625344192735923 0.5311251994215425 -0.0326930011965379 -1.951563910473908e-18 0 0 0 0 
1.734723475976807e-18 -0.05976123742303278 -0.2312082208710483 -0.1625344192735923 0.5311251994215425 -0.0326930011965379 -1.951563910473908e-18 0 0 0 0 
0 -0.0130032974036214 -0.2179304706516793 -0.0768897730603867 0.3205432445800483 -0.01445843814414601 0 0 0 0 0 
-0.0603115871846016 -0.02924282500459841 0.2699676190832569 -0.08587397981140316 -0.1214433101692125 -0.01445843814414599 -0.00346658177685528 -3.469446951953614e-18 0 0 0 
-0.07027425005534123 -0.06405546362806488 0.3014161787492262 0.3104131292415502 -0.1643188538422267 -0.00247496191646439 -0.2972091431328642 -0.3033109876266588 -0.05947324460307957 -0.01407625611880915 -0.005368423363045639 
-0.0743218389134612 0.2727894039377188 -0.1621607435358565 0.2972689121651013 0.08228436809474528 -0.1159325117208242 -0.02594211337469088 -0.0176425855635917 0 0 -0.1054956373585753 
-0.03213543657531143 -0.01000184067076287 0.3214378679166285 -0.2563082044581869 -0.02438940678698009 0 0 -0.01183199824772064 -0.0004807464963981988 0 0 
-0.06065084796048904 0.461753382489866 -0.3090408447502003 0.03087202980281891 0.3990844133426176 -0.2430891896635366 -0.04357070699678388 -0.03610126524363538 -0.02021776195918181 0 -0.0785624066927206 
-0.05506342462705044 -0.02160667900742566 0.9587895035738366 -0.2868122593221968 -0.5212115051438109 -0.001310037512247755 -0.0225104501712344 -0.02291265606952464 -0.0004807464963981988 0 -0.0143024649843312 
-0.03213543657531142 -0.01000184067076287 0.04035568436991605 0.06886302512025898 -0.04172099586052266 0 0 -0.01183199824772064 -0.04249901564988496 0 0 
-0.03213543657531143 -0.01000184067076287 0.3214378679166285 -0.2563082044581869 -0.02438940678698009 0 0 -0.01183199824772064 -0.0004807464963981988 0 0 
-0.03213543657531143 -0.01000184067076287 0.3214378679166285 -0.2563082044581869 -0.02438940678698009 0 0 -0.01183199824772064 -0.0004807464963981988 0 0 
-0.03213543657531143 -0.01625274443700816 -0.1401410406229507 0.3639500107713517 -0.2091646726537705 -0.004859824033089197 0 -0.01183199824772065 -0.01048770535061221 0 0 
0.1620381276350505 -0.05607165122252841 0.2458961589831721 0.3582133958759976 -0.4701793297852229 -0.1751526703158127 -0.1722840323973911 0.2116549717640464 0.1626135964207543 -0.03302882086707873 -0.1469868717230805 
-0.04541443611780004 -0.05143936214217844 0 -0.0908950845806778 -0.06913368463139088 0.3250155629278582 0 0 0 0 -0.01967550997797705 
-0.04541443611780004 -0.1171881685451379 -0.0292515304398414 -0.1400478051815486 -0.2030148672388294 0.6808791668211726 -0.01698626834319795 0 -0.05131945358266009 0 -0.01967550997797706 
-0.04541443611780004 -0.05143936214217844 0 -0.0908950845806778 -0.06913368463139088 0.3250155629278582 0 0 0 0 -0.01967550997797705 
-0.04541443611780004 -0.05143936214217844 0 -0.0908950845806778 -0.06913368463139088 0.3250155629278582 0 0 0 0 -0.01967550997797705 
-0.04541443611780004 -0.05143936214217844 0 -0.0908950845806778 -0.06913368463139088 0.3250155629278582 0 0 0 0 -0.01967550997797705 
-0.04541443611780004 -0.05143936214217844 0 -0.0908950845806778 -0.06913368463139088 0.3250155629278582 0 0 0 0 -0.01967550997797705 
-0.06249595473792879 0.1629239501062191 -1.141856630673238 1.202585955259043 -0.08423598651196502 0.2889728223657747 -0.1048798906855232 -0.07391447117788796 -0.0942889182498468 -3.686287386450715e-18 -0.1220487391110456 
-0.04541443611780004 -0.05143936214217844 0 -0.0908950845806778 -0.06913368463139088 0.3250155629278582 0 0 0 0 -0.01967550997797705 
-0.02514632449030989 0.7213462596076464 0.2534582263183946 -0.472791141532816 -0.2513486928779674 -0.1097984777083184 -0.1603629348467572 -0.1441237753529999 -0.06439282256154909 -0.01634507581038383 0.1691599491049538 
0.02506757943454375 0.0235655347069293 -0.2543075350903909 0.02792789612667745 0.04368410489251077 0.3541861478074043 -0.1986695496468193 0.3331348450519449 -0.1089080487371838 -0.05423094027854521 -0.1624858868997786 
-0.009834246412802986 -0.03344375340315645 -0.1749868015229264 0 -0.09429938958761998 0.381726692018322 0 -0.07857607202868683 -0.0006642197471571531 0 0 
-0.112076896814226 -0.03344375340315645 0.1049223285852275 0 -0.1995429627102962 0.3172349350900309 0 -0.07857607202868683 -0.01920706221399101 0 -0.003549488003788625 
-0.009834246412802986 -0.03344375340315645 -0.1749868015229264 0 -0.09429938958761998 0.381726692018322 0 -0.07857607202868683 -0.0006642197471571531 0 0 
-0.04958734766321533 -0.07737377153374973 0.2152405161570011 -0.5037045630908112 -0.340043466499992 0.5840090672323581 -0.01845969963590985 0.3113478576154959 -0.0006642197471571531 8.673617379884035e-19 -0.0006648921417806355 
-0.009834246412802986 -0.03344375340315645 -0.1749868015229264 0 -0.09429938958761998 0.381726692018322 0 -0.07857607202868683 -0.0006642197471571531 0 0 
-0.02140891092910435 -0.04637901523921235 -0.4985429552822429 -0.1569547360708743 -0.5052666594141704 0.8741386468878968 -0.01349458790858284 0.3447300889409456 -0.0006642197471571531 8.673617379884035e-19 -0.0006648921417806302 
-0.1350305973988673 -0.1038526689222409 -0.155170141469629 -0.1670080302855776 0.1995220393546007 0.1626589293150708 -0.1178993694337104 0.1277417062588073 -0.02113405305407186 0 0.173109435424744 
0 2.168404344971009e-19 -0.1527692919229888 0.9576509831793834 -0.05120193772636309 -0.5398087206115298 -0.07872193649650923 0 -9.486769009248164e-20 0 0 
-0.4852755085941918 -0.1167361288110173 0.3399698095500122 -0.1527885306010993 0.09656961680384624 -0.5628481747023301 0.4057473476017229 0.4103224831267028 0.1146566705960766 -0.02249634893443753 -0.2530377993439297 
-0.05400649028209277 -0.2563407492906651 -0.6053207625315713 -0.539956671897145 0.3577192875217885 0.02099705441529407 0.773643779557198 0.3576869184334529 -0.12845118587264 -0.00991186294185958 -0.06500613401392975 
-0.1650855360214265 -0.1449853973901327 -1.173598718970411 -1.248300381628535 -1.066993956950613 3.430899604450317 -0.1773386045689077 -0.03193756930148764 -0.1096052388625657 -0.004048729935427001 -0.07418933630551908 
0 -0.01862071862150854 0.3199505088543531 0.6137787474862701 0.2022285974566216 -0.5790974854235911 -0.3870231338163447 -0.09133309797263953 0 0 -0.01049007836652001 
0 -0.002116231169015308 -0.2487020663467361 0.2719126892807074 -0.05601240372839107 0.09920764643991667 -0.07872193649650923 -3.469446951953614e-18 -0.01201958938811746 -0.004048729935427001 0 
0 2.168404344971009e-19 -0.1527692919229888 0.9576509831793834 -0.05120193772636309 -0.5398087206115298 -0.07872193649650923 0 -9.486769009248164e-20 0 0 
0 2.168404344971009e-19 -0.1527692919229888 0.9576509831793834 -0.05120193772636309 -0.5398087206115298 -0.07872193649650923 0 -9.486769009248164e-20 0 0 
0 2.168404344971009e-19 -0.07544472843968196 0.04784096367437338 0 0.03029144733095968 2.168404344971009e-19 0 0 0 0 
0 0 -0.06520171975272269 0.2790089633610782 0 -0.2064073738300081 0 0 0 0 0 
-0.4792274017728568 0.1019377296328302 -0.2303264313415703 0.2365195812945256 0.3428177387597574 -0.02433887810349645 0.02101432089646733 -0.1014392516744197 0.4306808008837488 -0.01478698680145501 -0.1471463979749593 
-0.04607585259682081 0 -0.150378022407387 0 0.3301727151376983 -0.1460842808702991 0 0 0 0 0 
0.5338519629727652 -0.02944462055123693 -0.4144605425551602 -0.1489689188540186 -0.03509688397761287 0.590887680989003 -0.2920473467219313 -0.08075038089628384 -0.02293771012622712 -0.01136869806001267 -0.1428628852042279 
0.1610105511943286 -0.07113450145057987 0.2342530730038589 -0.3939217568392173 -0.01166623615746441 0.2957145547619685 -0.166749381915388 -0.1751331073272638 -0.04644818824733014 -0.02388019385346546 0.08930091372666325 
-0.04607585259682081 0 -0.150378022407387 0 0.3301727151376983 -0.1460842808702991 0 0 0 0 0 
0.1610105511943286 -0.07113450145057987 0.2342530730038589 -0.3939217568392173 -0.01166623615746441 0.2957145547619685 -0.166749381915388 -0.1751331073272638 -0.04644818824733014 -0.02388019385346546 0.08930091372666325 
-0.04607585259682081 0 -0.150378022407387 0 0.3301727151376983 -0.1460842808702991 0 0 0 0 0 
0.2469802564086602 -0.05128670493506758 0.1067951391053195 -0.1013787517861893 0.6639385301500819 -0.4170019435150415 -0.06807480188448999 -0.1751331073272638 -0.02504810256390592 -0.01548847532326522 -0.1713847396558554 
-0.1930568467890807 -0.05330781542465855 0.1671079460821057 0.2019006371577964 0.3181789237347239 -0.2962452656465787 -0.03603123511763258 -0.0188647743763613 0 -0.001667170900728626 -0.05954355836365145 
-0.1533255967546796 -0.08315106757807822 -0.3014191668857805 -0.3285589937626064 0.7673062193486468 0.2331343497829578 -0.2681346336118894 0.2459185882205286 -0.06143544461031679 8.673617379884035e-19 -0.07733468236478999 
-0.07052512467420941 -0.05181893212512004 -0.02192574196431411 -0.1258728158558487 0.365500751066472 -0.01464334237830825 0 -0.01011154442581413 -0.0105619752605132 0 -0.0004068045906208404 
-0.002736815013373508 0.02241037588698312 -0.05535549789639015 0.0370707657106456 0.02903270898982117 0.03564657971138731 -0.007695404094901401 -0.01827934004215622 -0.08528547215269287 -0.003814251671714235 -0.0476767338540915 
-0.002736815013373508 0.02241037588698312 -0.05535549789639015 0.0370707657106456 0.02903270898982117 0.03564657971138731 -0.007695404094901401 -0.01827934004215622 -0.08528547215269287 -0.003814251671714235 -0.0476767338540915 
-0.002736815013373508 0.02241037588698312 -0.05535549789639015 0.0370707657106456 0.02903270898982117 0.03564657971138731 -0.007695404094901401 -0.01827934004215622 -0.08528547215269287 -0.003814251671714235 -0.0476767338540915 
-0.002736815013373508 0.02241037588698312 -0.05535549789639015 0.0370707657106456 0.02903270898982117 0.03564657971138731 -0.007695404094901401 -0.01827934004215622 -0.08528547215269287 -0.003814251671714235 -0.0476767338540915 
-0.002736815013373508 0.02241037588698312 -0.05535549789639015 0.0370707657106456 0.02903270898982117 0.03564657971138731 -0.007695404094901401 -0.01827934004215622 -0.08528547215269287 -0.003814251671714235 -0.0476767338540915 
-0.002736815013373508 0.02241037588698312 -0.05535549789639015 0.0370707657106456 0.02903270898982117 0.03564657971138731 -0.007695404094901401 -0.01827934004215622 -0.08528547215269287 -0.003814251671714235 -0.0476767338540915 
-0.002736815013373508 0.02241037588698312 -0.05535549789639015 0.0370707657106456 0.02903270898982117 0.03564657971138731 -0.007695404094901401 -0.01827934004215622 -0.08528547215269287 -0.003814251671714235 -0.0476767338540915 
-0.002736815013373508 0.02241037588698312 -0.05535549789639015 0.0370707657106456 0.02903270898982117 0.03564657971138731 -0.007695404094901401 -0.01827934004215622 -0.08528547215269287 -0.003814251671714235 -0.0476767338540915 
-0.002736815013373508 0.02241037588698312 -0.05535549789639015 0.0370707657106456 0.02903270898982117 0.03564657971138731 -0.007695404094901401 -0.01827934004215622 -0.08528547215269287 -0.003814251671714235 -0.0476767338540915 
-0.002736815013373508 0.02241037588698312 -0.05535549789639015 0.0370707657106456 0.02903270898982117 0.03564657971138731 -0.007695404094901401 -0.01827934004215622 -0.08528547215269287 -0.003814251671714235 -0.0476767338540915 
-0.06629050220162365 -0.04034098649216918 0.5615390020613406 -0.1496256781116238 -0.1508314461932431 -0.1198079042826092 -0.001990864783560367 -0.009193585204813122 0 0 0 
0.2686349910085257 0.07041739562280626 0.2742938415605676 0.1296851168907027 -0.6485370676522318 -0.04731553693552205 -0.1568593568245744 0.3024161856402196 -0.04079858673901708 -0.0008386370266746416 -0.09901466189788517 
0 0 -0.1131627199439108 0.3226294968926541 -0.1689844673416095 -0.0228288390846491 0 0 0 0 0 
-0.4179916583591521 -0.2949729442167001 0.7653286761591069 -0.1973913544550673 0.5281146098714815 -0.547408986320002 -0.3689840502850976 -0.1507406024295965 -0.193837783103395 -0.01012906894924638 -0.195953696053102 
-0.02714868808116287 -0.06846542596642055 0.1408876543488803 -0.02067442600413046 0.2038189325428452 -0.2890164659369571 -0.1229519969324103 -0.05310325314220491 -0.01116740087032035 -0.009321572858479663 -0.006300943852141221 
-0.02292798805173902 -0.0262364742937075 0.1458479654689933 0.09619672655530993 0.06687494661407416 -0.1139406443351721 -0.03711644435271245 -0.05976654852519061 -0.09050402417975757 -0.006346765338567833 -0.0567168005939532 
0 0 -0.1309215776637576 0.3496924539588604 -0.2365345797417028 -0.0228288390846491 0 0 0 0 -0.006300943852141222 
-6.505213034913027e-19 -0.01463163595704471 -0.07091699862954814 0.5771484027124303 -0.385652810717554 -0.07652528547223955 -0.005184880457929988 0 -0.07632133068675352 -0.006346765338567837 -0.0386441014928798 
0 0 -0.1309215776637576 0.3496924539588604 -0.2365345797417028 -0.0228288390846491 0 0 0 0 -0.006300943852141222 
0 0 -0.3082507744272953 0.7566049303262572 -0.3258220052557621 -0.07652528547223955 0 0 -0.07632133068675352 -0.006346765338567829 -0.009214674409830944 
-6.938893903907228e-18 -0.01949538506370882 -0.2939478571592022 0.1007374272121954 0.6314228049452322 -0.2682911408275122 -0.05321192768511211 -0.02530769459193862 0 0 -0.001235565053556043 
-0.247578292901669 0.3179323374277559 0.2144282162874283 0.06539854174872536 -0.1854616945291497 -0.01883919041803927 -0.1777838872785158 0.202748490076457 0 0 -0.07440683632432615 
-0.174241737505779 -0.03358322809895559 -0.1747070395426667 0.219049329642695 -0.4938866521178621 0.609481935708918 0.2633930343009955 -0.01670764298797917 -0.02355203682419725 -8.673617379884035e-19 -0.04342622363528258 
0 -0.004789627842015447 -0.4144349221894497 0 0.6430592012666099 -0.1300569668993014 -0.008353794229203477 -0.002192419435442757 0 0 -0.01148785880457658 
-0.1659058187798808 0.2164728857037828 0.3834349297889368 -0.2415139595492816 0.1143585004919768 -0.1768368227336667 -0.03546116955914905 -0.002192419435442757 -0.07203472781191364 0 -0.04900234060026072 
-0.1365764308995768 -0.2588991503620525 -0.3854951938108678 -0.2561288579468455 -0.2621937010595756 0.6603530433985201 0.3140852259909934 0.2164695187433685 -0.06065222349154061 -0.07319023083243029 0.4771864855790734 
-0.01978472502779895 -0.03459969568497014 -0.08606280597587701 -0.2117144330607481 0.5840414373111572 -0.1300569668993014 -0.008353794229203477 -0.002192419435442757 0 0 -0.01148785880457658 
-0.08901398577173902 -0.03686566856374863 -0.3439401739163679 -0.1121816263612677 0.3641237385248638 0.6069240280799988 -0.0797362798338057 -0.04256263397955594 -0.02952623882247384 -0.01939588097530975 -0.1457421330478964 
0 -0.004789627842015447 -0.4144349221894497 0 0.6430592012666099 -0.1300569668993014 -0.008353794229203477 -0.002192419435442757 0 0 -0.01148785880457658 
0 -0.004789627842015447 -0.4144349221894497 0 0.6430592012666099 -0.1300569668993014 -0.008353794229203477 -0.002192419435442757 0 0 -0.01148785880457658 
-0.1030693236069179 -0.2009882764517861 0.04006920282687767 -0.680350588293505 0.8778958242178789 -0.2015781057927058 -0.002296117980013126 0.07600066401735456 -0.118957622593282 -4.87890977618477e-19 -0.06945724275956114 
-0.01062132357731343 -0.02364089047156812 -0.2064384042245319 0 -0.03572583406402172 -0.0636258028647485 -0.03352578806176066 0.3070596198263477 0 -1.084202172485504e-19 -0.007370313901515119 
0 0 -0.1366657151157437 0 0.2122287687710056 -0.0636258028647485 -0.0004594741229699933 -0.0003392756492700324 0 0 -0.007370313901515119 
-0.1139184303217059 -0.0005951244303744025 0.009884249046833172 -0.3407187564034641 0.2909460898063537 0.1415981732244543 0.1630533393985655 -0.04522624727263903 -0.0659944528674343 1.084202172485504e-19 -0.05539531887630339 
0 -0.03942888064947558 -0.1040321198021995 -0.1918102271971351 0.4081469839192944 0 -0.01651618820897186 0 -0.03857851605468614 0 -0.02975991124708956 
-0.1097368885550171 -0.2197758098429561 0.1409735885267431 0.7594286839714488 0.2941518956572357 -0.1466403026288292 -0.190097855862822 -0.07709754652979134 -0.4379019589978237 -2.168404344971009e-19 -0.06496027051730524 
-0.05447341330835695 -0.05826292148770259 -0.4671847393717577 0.6385472201248886 0.501907150858461 -0.06436692972501665 -0.05591433974034946 -0.003495318767011553 -0.03857851605468614 0 -0.3131305718537249 
-0.005739995258122412 -0.1171762642636561 -0.004526043093500118 0.4940570224249807 -0.03525343305312178 -0.0712809758496973 -0.1207792032748171 -0.01911584194614208 -0.1250260174777173 0 -0.05231422460775238 
0 -0.03942888064947558 -0.1040321198021995 -0.1918102271971351 0.4081469839192944 0 -0.01651618820897186 0 -0.03857851605468614 0 -0.02975991124708956 
0 -0.03942888064947558 -0.1040321198021995 -0.1918102271971351 0.4081469839192944 0 -0.01651618820897186 0 -0.03857851605468614 0 -0.02975991124708956 
-0.0323651835353047 -0.06214220622849475 -0.03243349531506633 -0.3867242888958875 0.5819571998202546 -0.07414225561963037 -0.01651618820897189 -8.673617379884035e-19 -0.03857851605468614 0 -0.02975991124708956 
0.01842258899127333 0.1507996070095489 -0.7796752996594101 0.293520225874503 0.4157956419476844 0.3628735858243843 -0.2466634602240665 -0.1276090243054511 0.2164930670549593 0 -0.1547078174267313 
-0.002260498902390147 0.177847785792286 -0.1334874082951648 -0.09161046855314742 0.2454441345611641 -0.0349712165536058 -0.05426886651423908 -0.07361778381155569 -0.0421593088197982 -0.01695966133084513 -0.05387583284376875 
0 -0.006250903766245279 -0.2896559677715302 0.2376590076976805 0 0 0 0 0 0 0 
0.2950138253011094 -0.2233340279010732 0.03328322778997123 0.1009340482428982 0.02779119152709386 -0.1727474345479972 -0.01166355206579492 -0.03186855470674448 -0.128135769547436 -0.01115738211795907 -0.01764750542798234 
-0.09814988552526931 -0.006250903766245279 0.2851145165290176 -0.05202341113358677 -0.1398106784197653 0 9.75781955236954e-19 0 -0.005417191430300155 0 -0.001182784838991117 
-0.03412540309396099 -0.0416875641389382 -0.4963131360192587 0.5898540217544197 -0.04088516906619474 -0.05478311058806749 0 3.469446951953614e-18 0 0 -0.009835771830415681 
-0.09814988552526931 -0.006250903766245279 0.2851145165290176 -0.05202341113358677 -0.1398106784197653 0 9.75781955236954e-19 0 -0.005417191430300155 0 -0.001182784838991117 
-0.03412540309396099 -0.0416875641389382 -0.4963131360192587 0.5898540217544197 -0.04088516906619474 -0.05478311058806749 0 3.469446951953614e-18 0 0 -0.009835771830415681 
0.1718423597932303 -0.08592991675681175 0.1171116799681065 0.3459892476120339 -0.360227007952007 -0.1170467729252149 -0.2443724854719641 0.3032455342343719 -0.09062001684420731 2.168404344971009e-19 -0.1961192835304897 
0 -0.006250903766245279 -0.2896559677715302 0.2376590076976805 0 0 0 0 0 0 0 
-0.2473251613751519 0.3234885414925828 0.2909277392091696 -0.04103436561556328 -0.2280893156113993 -0.4314880129288065 0.4261331554366458 -0.2205416038125592 -0.04068925808142143 -0.01966296010282176 0.02823847033832833 
0 -0.01463163595704472 0.4724094672790251 -0.1606452952818483 -0.3339632139993827 0 -0.00518488045792999 4.336808689942018e-19 0 -4.336808689942018e-19 -0.02942942708304885 
-0.2483364653038436 -0.1194256778700188 0.4802593614689143 0.2129571479104194 0.1675527720352954 -0.2377033115550771 -0.2238308662571172 -0.1232571710251013 -0.1717354237485878 -0.004324148908529543 -0.1168863911348941 
-0.08520209996010551 -0.02862272795459067 -0.2928694003959982 0.2150109696852863 0.4780342944788344 -0.3302041655059179 -0.1147900483404144 -0.05223777486703656 -0.02213262688367576 4.336808689942018e-19 -0.05668657372463343 
0 -0.01463163595704472 0.6668410616604494 -0.1534210763830217 -0.6081862770376162 -0.03390828391518771 -0.00518488045792999 4.336808689942018e-19 0 -6.505213034913027e-19 -0.02942942708304886 
0 -0.01463163595704472 0.4724094672790251 -0.1606452952818483 -0.3339632139993827 0 -0.00518488045792999 4.336808689942018e-19 0 -4.336808689942018e-19 -0.02942942708304885 
-6.505213034913027e-19 -0.01463163595704472 0.237333775797747 -0.1794565276138259 -0.05983080546179184 0 -0.00518488045792999 0 0 -4.336808689942018e-19 -0.02942942708304885 
-0.0338622836965655 0 0.3404389510315902 -0.4074739538385278 0.153432173592819 -0.08079609168278129 -0.01979708776898509 0 0 0 -0.02942942708304885 
-0.01004189684114597 0 0.6213719341542042 -0.04439974442499238 -0.5458492476269523 4.336808689942018e-19 0 0 -0.04226738330690376 0 0 
-0.1133051738259468 -1.214306433183765e-17 0.2041189783769123 0.3106268440277031 -0.2149994927335156 -0.1636532514005277 -0.1088015410441733 -0.1348123332527088 0.1636112959195375 -0.00747656823915144 -0.04025993203353467 
-0.01004189684114597 0 0.3869470669335255 -0.2945694166892208 -0.08821120479612601 -3.469446951953614e-18 0 0 -0.04668592702474828 0 0 
-0.01004189684114597 0 0.3869470669335255 -0.2945694166892208 -0.08821120479612601 -3.469446951953614e-18 0 0 -0.04668592702474828 0 0 
-0.4172017682607528 -0.07769424569746114 1.759392585142327 -0.732950381053435 -0.5381982526487349 -0.1306956556684978 -4.336808689942018e-19 -3.469446951953614e-18 -0.06323390861923736 -0.004950802077723558 -0.009565086563465486 
-0.09366265334404064 0 -0.3087264248219662 -0.04163613543503514 -0.06870173029272481 -0.06932270363929147 -0.04978913644528508 -0.02263954653619884 0 0.6263183244639221 -0.009590078856149799 
