solver_type L2R_L2LOSS_SVC_DUAL
nr_class 11
label 1 2 3 4 5 6 7 8 9 10 11
nr_feature 5703
bias -1
w
0.1118035124056761 -0.07945088518200689 -0.001603432948000826 -0.02758339880986697 0 0 0 0 -0.00343982726655719 0 0 
-0.1040595102365397 -0.1069265770844943 -0.2279309974346 -0.2644901330881028 -0.02258467057898694 -0.2829429555177594 -0.1934329778480607 -0.2693791630265934 -0.2808095761775234 -0.2712101008042837 -0.2469428374891192 
-0.07695454236490867 0.1473738019701137 0.1304473695039458 0.08926734245821234 0.02402125370740228 -0.09176851996538091 -0.232622812365673 -0.04398253806605996 -0.05920281582381307 -0.02308316481857073 -0.005074450691458206 
0.139492542076175 0.03995267134070819 0.008965640253917889 -0.200095254652191 -0.09619999069610698 -0.1152533832321733 -0.03887498026519037 -0.05282185907496616 0.03110731563127971 -0.04635999987425539 -0.01844024416444091 
0.04001131344142216 -0.1180439374237729 -0.07164591180393164 0.129468802887984 0.1705700251977243 -0.03242570762349579 -0.127328660822459 -0.005792573321023523 -0.01189680798151865 -0.003980925761796024 0 
0.2682633943000927 -0.002459236626038398 0.03032645413990655 -0.04462609068495962 -0.1643938825120698 -0.01547146378821876 -0.1343872311052015 -0.01032968681391654 -0.02276172565725594 -0.01615927468639863 -0.00854201777451097 
0.1118035124056761 -0.07945088518200689 -0.001603432948000826 -0.02758339880986697 0 0 0 0 -0.00343982726655719 0 0 
0.2585983432565414 -0.1933655522105296 -0.01440294355011834 -0.02758339880986697 0 0 -0.03105515537295473 0 -0.00343982726655719 0 0 
0.1118035124056761 -0.07945088518200689 -0.001603432948000826 -0.02758339880986697 0 0 0 0 -0.00343982726655719 0 0 
0.1118035124056761 -0.07945088518200689 -0.001603432948000826 -0.02758339880986697 0 0 0 0 -0.00343982726655719 0 0 
-0.2577738024596612 -0.139716475975825 -0.3662646943993318 -0.3066987022036518 -0.3082946125087353 -0.33205576127357 -0.3216764541863958 -0.3456426116876644 -0.3549829293063722 -0.3598189748417577 -0.3925133706179162 
-0.3345442106300821 -0.06510533876448876 -0.3891946540882029 -0.3331623064199462 -0.2789377437881539 -0.3566502174385986 -0.3254163566578657 -0.3611766188873353 -0.3554545056076521 -0.3639853070638083 -0.3928346092065469 
0.2278330813371245 -0.1374040732899191 -0.01149462719932117 -0.02758339880986697 -0.02023802759906465 0 -0.003998903529011347 -0.004341457895924673 -0.00343982726655719 0 0 
0.06569966163519639 0.0861692092605208 -0.1334074338148413 -0.05238152645797163 -0.3941510658591795 0.07158965840971386 0.1372696340720911 -0.009954206160157174 0.07606718579453201 0 -0.01840914099179888 
0.1118035124056761 -0.07945088518200689 -0.001603432948000826 -0.02758339880986697 0 0 0 0 -0.00343982726655719 0 0 
0.1569512338186623 -0.07393816111169244 0.05191492336390194 0.1857571908083858 -0.07448238412979566 0.09589245663705001 -0.1679707454174209 -0.04642725116505903 0.001430086045959315 -0.01484018515033859 -0.0264433662302987 
0 0.1595896855061002 0 0 -0.1518249874009162 0 0 0 -0.00911573146925073 0 0 
-0.3454339681505759 0.0927276878959756 0.01904647647381584 -0.06350111705611916 0.00644142678153225 0.03250937012614996 0.07892436117157428 0.109572608716814 0.01597073947016196 -0.0633622029835121 -0.01351236948403713 
-0.1476309788890127 0.1503654922008802 -0.05454798204455066 -0.01053690200234283 0.05968630756291756 -0.159892698811572 0.03097017361242158 -0.08392754878832739 -0.01565963903763509 -0.0061279174551206 -0.02620627358058857 
0.08920325681320096 0.05359717979365048 -0.01910005344609594 -0.006066500268344282 0.08201160549237305 -0.02276150796993477 -0.1354625138592747 -0.02357827344690447 -0.00911573146925073 0 0 
-0.09643613031358995 0.1881749117888511 -0.04026698037100861 0.03104698523781681 0.1056042823842815 -0.00729821651863137 -0.1778497910093475 -0.03412168747237006 -0.01641411856211144 -0.009070336974259349 9.215718466126788e-19 
0 0.1595896855061002 0 0 -0.1518249874009162 0 0 0 -0.00911573146925073 0 0 
0 0.2863670997403439 0 0 -0.2604743116963768 0 -0.02564106324750712 0 -0.00911573146925073 0 0 
0 0.1595896855061002 0 0 -0.1518249874009162 0 0 0 -0.00911573146925073 0 0 
0 0.1595896855061002 0 0 -0.1518249874009162 0 0 0 -0.00911573146925073 0 0 
0.06925140095037727 -0.02432289876800999 0.01559801395626715 -0.09032295971276062 0.09942281935309649 -0.02654478290374975 -0.05078318887635614 -0.03624221652194475 -0.06540496412706139 -0.003900128572490956 8.673617379884035e-19 
0 0.1595896855061002 0 0 -0.1518249874009162 0 0 0 -0.00911573146925073 0 0 
-0.1332241585792326 -0.4723068925146254 -0.09843494706716388 -0.1273441593852335 0.5030646004002443 -0.08011486829114761 0.09223451258595491 -0.03095671692496509 0.15373988563247 -0.04842524683014717 -0.01741417483125016 
0 0.1595896855061002 0 0 -0.1518249874009162 0 0 0 -0.00911573146925073 0 0 
0 -0.1366923553599002 0.2580650691241202 -0.1242981146823659 0 0 -0.06096364646596671 -0.008633670184063628 0 0 0 
-0.005786373804040047 -0.001880960617748811 0.03655720643624432 0.04181018591887269 0.01666256092277611 -0.1086157404125393 -0.1148311753716246 0.03118119456165077 -0.07788804946310053 -0.1144520920910338 -0.06932113463408893 
-0.05900234505536052 -0.1011237738854719 0.222223679202018 0.08590887517511203 -0.1114117050680544 0.0223846259961956 -0.007557734866820894 -0.008964162984650944 0.07965056674634431 -0.02643325208862123 -0.009901979246373802 
-0.09900319790285621 -0.2559766651577251 0.3127203165858916 0.2363523389384154 -0.1008231902636596 0 -0.1054375525300729 -0.02960313290335961 -0.006888455554971021 0 0 
-0.03916685604758888 -0.07946023213953866 0.06692703274536863 0.30209988307314 -0.196345248421825 -0.0511227482118249 0.1049658009240217 -0.06431953695765309 -0.06979881744915863 -0.004543829320621123 0 
0 -0.1366923553599002 0.2580650691241202 -0.1242981146823659 0 0 -0.06096364646596671 -0.008633670184063628 0 0 0 
0 -0.1366923553599002 0.2580650691241202 -0.1242981146823659 0 0 -0.06096364646596671 -0.008633670184063628 0 0 0 
0 -0.1366923553599002 0.2580650691241202 -0.1242981146823659 0 0 -0.06096364646596671 -0.008633670184063628 0 0 0 
0.1094232036144741 -0.2593986409773901 0.1194425909797617 0.1316081594658031 -0.1279943433316551 -0.01616209631882682 0.2148736647725281 -0.03457679395654647 -0.008916009208434073 -0.0153803995246284 -0.006394095390805632 
0.05644740520457987 -0.09135688328914157 0.0379935626254105 -0.06754871818274702 0 0 -0.0609636464659667 -0.0004562018043024599 0 -0.0003298362255364166 -0.003204811331508392 
0 0 0.06088872312462124 -0.06754871818274702 0 0 -0.0609636464659667 -0.0004562018043024599 0 0 0 
0.05838085400494553 -0.1133449913240623 0.04709650396173274 -0.1815854305414291 0.08025656113556061 0.0324961049841286 0.06624598557255067 0.007035374770370081 -0.06634869532916454 -0.02328706923907327 -0.007528157673274522 
-0.2982722213155505 0.3809932449136589 0 0 -0.05607077049381243 -0.03909826718426533 0 -0.004178070732314436 -0.001770951722424897 0 -0.003735017863889845 
0.06574070785372549 -0.06931168863848491 -0.09758938227031402 0.1565355419457048 -0.05929587108590083 0.04301831268866751 -0.04381104852699648 -0.01701942288763579 0.07237490541558088 -0.01490232750146678 -0.004647088243942023 
0.03333589285679082 -0.05026439187370729 -0.02203512105006368 -0.1221495740685513 0.09558663835802217 -0.04570522791317583 -0.05894505061320936 0.03356635537495188 -0.02645464634018771 -0.1029153332273984 0.05316010323964162 
0.01574892494786817 0.1397829440880358 -0.06989273455985465 -0.1036859540188858 -0.06324746909282269 0.1393575415501184 0.006724697602579393 -0.00578854874152468 -0.02447673286419438 -0.0141597780734701 -0.003944419571302908 
-0.08731427791080856 -0.1634981481483569 -0.05330357042736168 -0.04785311595196448 0.1236727432257632 0.07117638605483602 0.1560845121141453 0.04555461104870732 0.0423935765491992 -0.001428466013873098 -0.01394713756672813 
0.1183978408043773 0.186755199921352 0 -0.02872505340252529 -0.2565751071865491 0.08314179050331576 -0.01082563983918781 -0.004657706116898546 -0.02447673286419438 -0.0141597780734701 -0.003735017863889845 
0.1828985970024032 0.1482663923208843 -1.734723475976807e-18 -0.008256460923831645 -0.1109203396286285 -0.07229175051275011 -0.09088013861022842 -0.0231790349946181 -0.03198607076825445 0 -0.003736000965663985 
0.02713817147336368 0.248337102242713 0 -0.02744650242720916 -0.2008516619560385 -0.03909826718426532 -4.336808689942018e-19 -0.004178070732314436 -0.001770951722424897 0 -0.003735017863889845 
-0.02578019683351148 0.2196276500659501 0 0 -0.1443504248581571 -0.04764139679338561 -0.04295226825257089 -0.004178070732314436 -0.006977190045261017 0 -0.003736000965663981 
-0.06829543396078026 0.03636047315337942 0 0 0 -0.02391732816055442 0 -0.004178070732314436 0 0 0 
-0.1251186401387613 0.1729392036226829 -0.01178487262591204 -0.0411198875382001 0.07143019413451264 -0.0239213012432072 -0.1165222148737948 -0.02282756789495216 -0.01399060899358254 -0.004856583303714749 5.421010862427522e-20 
-0.06829543396078026 0.03636047315337942 0 0 0 -0.02391732816055442 0 -0.004178070732314436 0 0 0 
-0.03983847264642947 0.01010805164130719 0.106966666040641 -0.06305953037564284 0.2046846384591136 -0.04550135713695536 -0.2661891190530261 -0.009133330538442345 -0.03611973768618033 -0.02685282849803559 0 
-0.01044971192673644 0.05721130722191359 0 -0.02479523555878252 0 0 -0.01476210096256209 0 0 -0.005318042167951758 0 
-0.1360311412613381 -0.06392215966912576 -0.1700262456987421 -0.07430809627880675 -0.2624951891124297 -0.1045756381709469 -0.1906046251148373 -0.117256434830095 -0.1122054879865601 -0.1203247954919636 -0.1769519591246944 
-0.06468745702349948 -0.1113337118499449 0.02083289256303404 0.1019041983335195 0.2175372039699235 -0.03071882517784484 0.01001186116575459 -0.05088641021286084 -0.0940733787275846 -0.04014990228197046 -0.007240142368161912 
-0.01044971192673644 0.01737722546581878 -4.336808689942018e-18 -0.02479523555878252 -0.1061913997765695 0 0.1301386736225655 0 -0.01467325434408425 -0.005318042167951758 -0.002624252513488376 
-0.01044971192673644 0.05721130722191359 0 -0.02479523555878252 0 0 -0.01476210096256209 0 0 -0.005318042167951758 0 
-0.01044971192673644 0.1189135483716319 0 -0.02479523555878252 -0.06209407523297453 0 -0.04264439837466558 0 0 -0.005318042167951758 0 
-0.01044971192673644 0.05721130722191359 0 -0.02479523555878252 0 0 -0.01476210096256209 0 0 -0.005318042167951758 0 
-0.01044971192673644 0.05721130722191359 0 -0.02479523555878252 0 0 -0.01476210096256209 0 0 -0.005318042167951758 0 
0.3045619854123945 0.4732950916099734 -0.0603721732259291 -0.06850436316828332 -0.4628872377572801 -0.03144193749728889 -0.2004929544961948 -0.02807813681342024 -0.04113787825083833 -0.01263962393402039 -0.009127606955542242 
-0.1603946818114647 0.1389840725437579 -0.0502563371679729 -0.03520044455802276 0.1122172409439331 -0.004709623811478597 -0.01580030412375264 -0.005461390681839418 -0.0306865003728266 -0.04267978352950989 -0.004912215512441747 
-0.01044971192673644 0.05721130722191359 0 -0.02479523555878252 0 0 -0.01476210096256209 0 0 -0.005318042167951758 0 
-0.02859988765440238 -0.02106288029580099 0.08084351994139602 -0.1211689590318659 -0.07008105794629466 0 0.185189381535057 -0.007511776459467051 -0.05626306177651057 -0.005318042167951758 0 
-0.01778808252574952 0.08861192519519108 0 -0.003427999329377235 -0.06535785541937951 0 0 0 0 0 0 
0.1130620028219997 0.04663117909775272 -0.1822216509718571 -0.1164017846642393 0.1257841652441743 -0.1124341262198391 -0.1295890475148899 -0.07467334520132266 -0.04614313725641901 -0.01551808246280185 -0.05385054385509469 
0.07521347071916298 0.02296281186193722 0 -0.003427999329377236 -0.02167140566717776 -0.01477879658880785 -0.06602815828135565 0 -0.009607017307915416 0 0 
-0.1669680850427982 0.05620396657827549 0.2619085585009531 0.002944249258764827 -0.04752184897349455 -0.03262571360191055 -0.06898283044950063 -0.02042787799267 -0.009769345421586192 -0.01641441402878381 0 
-0.1189355057257726 0.08861192519519108 0 -0.003427999329377236 0.0385700751676568 0 0 0 -0.009607017307915416 0 0 
-0.02139860160780865 0.2399173095204784 -0.04456415188632784 -0.006899529096943078 -0.1544931719872241 0 0 -0.009853824177171983 -0.009769345421586195 0 0 
-0.01778808252574952 0.08861192519519108 0 -0.003427999329377235 -0.06535785541937951 0 0 0 0 0 0 
-0.01778808252574952 0.08861192519519108 0 -0.003427999329377235 -0.06535785541937951 0 0 0 0 0 0 
-0.1075970937394124 0.369988579814867 -0.03587973559060728 -0.003427999329377237 -0.06285967563168041 -0.04537886306688886 -0.1546263610458868 -0.03067447986331711 -0.01239879409375181 0 -9.831017741371599e-07 
-0.1112113994943269 0.06462075438598454 0 -0.003427999329377235 -0.09565221099187178 -0.006496677224607625 0.1215856281607744 -4.336808689942018e-19 -0.00744829255280747 0 -0.01730214557217657 
0.120822442643136 0.02531217394159329 -0.1086722565169769 0.01210900890156576 0.1084178584248291 -0.191226424039959 0.07362830888369118 -0.0597056387842921 -0.05054504211245801 -0.04966759195452392 -0.003621487677617332 
-0.01778808252574952 0.08861192519519108 0 -0.003427999329377235 -0.06535785541937951 0 0 0 0 0 0 
0.01768315096178687 -0.03113226077779335 -0.03169254873401087 -0.03209952716325765 0.02321475281731705 -0.05546283241513703 -0.06236114877650092 -0.04099298616902389 -0.03803213485771219 -0.03171592145449015 -0.0313814259958981 
0.01768315096178687 -0.03113226077779335 -0.03169254873401087 -0.03209952716325765 0.02321475281731705 -0.05546283241513703 -0.06236114877650092 -0.04099298616902389 -0.03803213485771219 -0.03171592145449015 -0.0313814259958981 
0.01768315096178687 -0.03113226077779335 -0.03169254873401087 -0.03209952716325765 0.02321475281731705 -0.05546283241513703 -0.06236114877650092 -0.04099298616902389 -0.03803213485771219 -0.03171592145449015 -0.0313814259958981 
0.01768315096178687 -0.03113226077779335 -0.03169254873401087 -0.03209952716325765 0.02321475281731705 -0.05546283241513703 -0.06236114877650092 -0.04099298616902389 -0.03803213485771219 -0.03171592145449015 -0.0313814259958981 
0.01768315096178687 -0.03113226077779335 -0.03169254873401087 -0.03209952716325765 0.02321475281731705 -0.05546283241513703 -0.06236114877650092 -0.04099298616902389 -0.03803213485771219 -0.03171592145449015 -0.0313814259958981 
0.01768315096178687 -0.03113226077779335 -0.03169254873401087 -0.03209952716325765 0.02321475281731705 -0.05546283241513703 -0.06236114877650092 -0.04099298616902389 -0.03803213485771219 -0.03171592145449015 -0.0313814259958981 
0.01768315096178687 -0.03113226077779335 -0.03169254873401087 -0.03209952716325765 0.02321475281731705 -0.05546283241513703 -0.06236114877650092 -0.04099298616902389 -0.03803213485771219 -0.03171592145449015 -0.0313814259958981 
0.01768315096178687 -0.03113226077779335 -0.03169254873401087 -0.03209952716325765 0.02321475281731705 -0.05546283241513703 -0.06236114877650092 -0.04099298616902389 -0.03803213485771219 -0.03171592145449015 -0.0313814259958981 
0.01768315096178687 -0.03113226077779335 -0.03169254873401087 -0.03209952716325765 0.02321475281731705 -0.05546283241513703 -0.06236114877650092 -0.04099298616902389 -0.03803213485771219 -0.03171592145449015 -0.0313814259958981 
0.01768315096178687 -0.03113226077779335 -0.03169254873401087 -0.03209952716325765 0.02321475281731705 -0.05546283241513703 -0.06236114877650092 -0.04099298616902389 -0.03803213485771219 -0.03171592145449015 -0.0313814259958981 
0.3760100848907245 -0.3261025539272703 0 -0.02113626112959675 -0.1079955452720579 0 0 -0.01988613388928681 0 -0.007321581766068629 -0.009127606955542242 
0.3629775203702713 -0.3261025539272703 0.05047483551598039 -0.05690683934051377 -0.1084377040991841 0 -0.01685172566990973 -0.01988613388928681 -0.005160353752014988 -0.007321581766068629 -0.009127606955542242 
0.02007146381206889 -0.1353823801960156 -0.06529410501190527 0.06687510968151009 -0.207016379656645 -0.03735486362513345 0.2201611052511771 0.1226876796138118 -0.008283560913780028 -0.02911110969226489 -0.009127606955542242 
-0.06202328184463576 0.5405638657500049 0.03107120081554642 -0.1221815502843786 -0.4538631157963199 -0.04167871638002815 -0.05557127709373653 -0.06811993909083838 -0.07860066923626881 -0.002865696832291566 -0.02948001875920099 
0.3565233118041442 0.06176169580886717 -0.02757533700761131 -0.0003659652056703308 -0.4151287917771068 0.07392584030371342 -0.08298551239860416 -0.04569934346814031 0.0291804844891623 -0.01909919432387466 -0.006889110179511027 
-0.4350945213929832 0.3697967843025242 -0.08063231093050968 -0.07804378080436367 0.007328575836648747 0.1777370179588701 -0.11790987394725 0.1043153144431233 -0.07543870398350308 -0.0214856367675372 -0.03495033021419564 
-0.3875842822430265 0.1394404758756857 -0.1199281400297288 0.07410058155543338 0.002067582384629588 0.01191551626942239 0.08612498692130093 0.05646488317517085 -0.08040924225631366 -0.06098542115043869 -0.04468430643190588 
0 0.06170224114971832 0 0 -0.06209407523297452 0 -0.02788229741210349 0 0 0 0 
-0.09681159389113962 0.194463443561032 -0.03969218867211327 -0.013851455330308 -0.03260644815512505 -0.02233527249787029 0.01815878028430447 -0.02152639996358131 -0.01927593202626391 0 0 
-0.169118385996621 0.1645319634520734 -4.336808689942018e-19 0 -0.06209407523297452 0 -0.02788229741210349 -0.0001206667146030138 -0.01927593202626391 0 0 
-0.169118385996621 0.1645319634520734 -4.336808689942018e-19 0 -0.06209407523297452 0 -0.02788229741210349 -0.0001206667146030138 -0.01927593202626391 0 0 
0 0.06170224114971832 0 0 -0.06209407523297452 0 -0.02788229741210349 0 0 0 0 
0.1397934082601764 0.2561326012442131 -0.1062361443637488 -0.08102869586102802 -0.263857676047037 0.1410142832282009 -0.1121862257218677 -0.004973853466333418 -0.02726525888757817 -0.01345169395130974 -1.084202172485504e-19 
-0.03491151415444636 0.01968547169736154 0.0159380697673128 -0.1252209176670239 -0.1227277595649606 -0.08560012600671306 0.1324785047613243 -0.007480927485822431 -0.03448434213859562 -0.01332344344595183 0 
-0.05817056501663133 -0.07761342797136818 0 0 0.117525460997222 0 -0.02788229741210349 0 0 0 0 
-0.03890233128055842 0.08445092679575875 0 -0.0005915755277164582 0 0 -0.04448674227173207 0 0 0 0 
0.003384127532845 0.1523247862497845 -0.04203808814033986 -0.1081141857948688 0.1688219022942016 -0.08410019095481809 -0.1579393669470137 -0.06535991356491137 -0.02213227600353591 -0.01778441630526624 -0.02934860731922283 
-0.1003968706910022 0.02707157521078097 -0.1036809373369074 0.08591488265592377 -0.2188456003966438 0.09087843394851085 -0.001832188936392376 -0.0005556818767066214 0.1615679026737059 -0.07420421084629511 -0.03338902620547288 
-0.1088350592903056 0.3127003850569742 -8.673617379884035e-19 -0.0006156499035337776 -0.1011107990496626 -0.01885743899195884 -0.04448674227173206 -0.01011241289151938 -0.004889318126835597 -0.002602865586056233 0 
-0.04194189212130862 0.02276742407088546 0.0227652341193396 -0.03582542771713428 -0.02318660633457232 -0.004868985808663514 0.2344563900806834 -0.07931108401757926 -0.1389506086621358 -0.02276636037174325 -0.009329791636080673 
-0.03890233128055842 0.08445092679575875 0 -0.0005915755277164582 0 0 -0.04448674227173207 0 0 0 0 
-0.03890233128055842 0.08445092679575875 0 -0.0005915755277164582 0 0 -0.04448674227173207 0 0 0 0 
-0.03890233128055842 0.08445092679575875 0 -0.0005915755277164582 0 0 -0.04448674227173207 0 0 0 0 
-0.03890233128055842 0.08445092679575875 0 -0.0005915755277164582 0 0 -0.04448674227173207 0 0 0 0 
-0.1280665983827514 -0.0901796229627832 0.02538638832143368 -0.02914158306405159 0.1487766719960485 -0.06185181653109021 0.07696179772441845 -0.05727395164971596 -0.1555138956200663 0.02544039048146144 0.01136350357214738 
-0.03890233128055842 0.08445092679575875 0 -0.0005915755277164582 0 0 -0.04448674227173207 0 0 0 0 
-0.01776522085771564 0.1324964568444871 0 -0.0159971024664978 -0.0759190257556714 -0.00719805935208009 0 -0.01382945807229398 -0.02622567862260432 -0.0008886952791339201 -0.00533611061113336 
-0.07790672400923156 0.09991191705240277 -0.0557431523942955 -0.04307603540496526 0.1854444460885754 -0.02357383732278185 -0.03127747607208041 -0.04537932074871456 -0.04180267072234008 -0.03225198433777363 -0.01924513428307106 
-0.01776522085771564 -0.1144026598450384 -0.0557431523942955 -0.02385681174064377 0.2655845583556267 -0.01703740369607939 -0.02753071738112687 -0.01784870171727897 -0.03526114392707295 -0.01043526487464477 -0.01029305947333826 
0.1488464928306391 0.3545946846379665 -0.008738036529288992 -0.0277579453998993 -0.3818971341018182 -0.01139198917210016 -0.005849167489763249 -0.01382945807229399 -0.02622567862260432 -0.0008886952791339201 -0.00533611061113336 
-0.01776522085771564 0.05562499438617367 0 -0.0159971024664978 0.06372342837764959 -0.00719805935208009 -0.02753071738112688 -0.01382945807229398 -0.03201247519166906 -0.0008886952791339201 -0.01029305947333826 
-0.01776522085771564 0.1324964568444871 0 -0.0159971024664978 -0.0759190257556714 -0.00719805935208009 0 -0.01382945807229398 -0.02622567862260432 -0.0008886952791339201 -0.00533611061113336 
-0.01776522085771564 0.1324964568444871 0 -0.0159971024664978 -0.0759190257556714 -0.00719805935208009 0 -0.01382945807229398 -0.02622567862260432 -0.0008886952791339201 -0.00533611061113336 
-0.01776522085771564 0.1324964568444871 0 -0.0159971024664978 -0.0759190257556714 -0.00719805935208009 0 -0.01382945807229398 -0.02622567862260432 -0.0008886952791339201 -0.00533611061113336 
-0.01776522085771564 -0.05737184413477053 -0.01977156459355377 -0.01734308709186563 -0.0759190257556714 -0.0499319840192852 -0.05106307153178393 -0.01382945807229398 0.1808379350135113 -0.0008886952791339196 -0.00533611061113336 
-0.01776522085771564 0.1324964568444871 0 -0.0159971024664978 -0.0759190257556714 -0.00719805935208009 0 -0.01382945807229398 -0.02622567862260432 -0.0008886952791339201 -0.00533611061113336 
-0.117927422886569 0.2568179476129004 -0.03392279164323972 0.07528081021288466 -0.1054073863756433 -0.007198059352080088 -0.06348670800284804 -0.01382945807229399 -0.02622567862260432 -0.00134153343109259 -0.00533611061113336 
-0.1075226818720137 -0.005678697962848533 -0.01641325418160239 -0.02526332504407039 0.221534822874381 -0.00719805935208009 -0.01837344905488858 -0.01382945807229398 -0.02622567862260432 -0.0008886952791339205 -0.00533611061113336 
0 -0.07680666402836034 -0.06392707839893547 0.1734612674361787 0 -0.02389872763266483 -0.02744453075813266 -0.002456508834966151 -0.01353575567264803 0 0 
0.1202242534187964 0.04366196282504034 -0.06392707839893547 0.1185027077183392 -0.03597756763923497 -0.03877236300490765 -0.07244248715092215 -0.002456508834966152 -0.03197767604697713 -0.001996803751925988 0 
0 -0.07680666402836034 -0.06392707839893547 0.1734612674361787 0 -0.02389872763266483 -0.02744453075813266 -0.002456508834966151 -0.01353575567264803 0 0 
0 -0.07680666402836034 -0.06392707839893547 0.1734612674361787 0 -0.02389872763266483 -0.02744453075813266 -0.002456508834966151 -0.01353575567264803 0 0 
0 -0.07680666402836034 -0.06392707839893547 0.1734612674361787 0 -0.02389872763266483 -0.02744453075813266 -0.002456508834966151 -0.01353575567264803 0 0 
0.1424302977890049 -0.2191248088362031 0.3125562260859081 0.07372792308237618 -0.1741851172934708 0.1125773701247869 -0.0540389059157184 -0.03858899682740762 -0.06378912089096241 -0.02358379041759498 -0.003786661012017153 
0 -0.07680666402836034 -0.06392707839893547 0.1734612674361787 0 -0.02389872763266483 -0.02744453075813266 -0.002456508834966151 -0.01353575567264803 0 0 
0 -0.07680666402836034 -0.06392707839893547 0.1734612674361787 0 -0.02389872763266483 -0.02744453075813266 -0.002456508834966151 -0.01353575567264803 0 0 
-0.04073956870273823 0.0485045725645277 -0.06392707839893547 0.168832814215627 -0.08218447777740349 -0.03832735346137589 -0.02744453075813266 -0.002456508834966151 -0.01353575567264803 0 0 
0 -0.07155019356134021 0 -0.01668022570493856 0.1894302792630383 -0.01879923656957049 -0.02992733622993426 -0.01580695034866983 -0.000128365068859032 -0.02980280508940211 0 
0.04868470978371663 0.1539570967444713 -0.03833747663001916 -0.04363813382957914 0.09897507572370493 -0.07939915955025449 -0.05678742785547157 -0.02606325872283552 -0.07127217237327244 -0.07090783153493091 -0.0111865461089929 
-0.1349131574166539 -0.3631364917269403 -0.08708801858851686 -0.0074787961432412 0.03145336200015919 0.1853788002104868 0.07780826733921319 0.09925800961106709 -0.08887211049434041 0.2530600400910868 -0.05818987745172533 
-0.04704502313573311 0.1422742844467574 0 -0.02684046992826049 0.03964859577822957 -0.02326268996186219 -0.03436790884541698 -0.02310740764931005 -0.0381356650541913 -0.04593994869489829 -0.005980701900031178 
0 -0.07155019356134021 0 -0.01668022570493856 0.1894302792630383 -0.01879923656957049 -0.02992733622993426 -0.01580695034866983 -0.000128365068859032 -0.02980280508940211 0 
0 -0.07155019356134021 0 -0.01668022570493856 0.1894302792630383 -0.01879923656957049 -0.02992733622993426 -0.01580695034866983 -0.000128365068859032 -0.02980280508940211 0 
0 -0.07155019356134021 0 -0.01668022570493856 0.1894302792630383 -0.01879923656957049 -0.02992733622993426 -0.01580695034866983 -0.000128365068859032 -0.02980280508940211 0 
0 -0.07155019356134021 0 -0.01668022570493856 0.1894302792630383 -0.01879923656957049 -0.02992733622993426 -0.01580695034866983 -0.000128365068859032 -0.02980280508940211 0 
0 -0.07155019356134021 0 -0.01668022570493856 0.1894302792630383 -0.01879923656957049 -0.02992733622993426 -0.01580695034866983 -0.000128365068859032 -0.02980280508940211 0 
-0.02893816741237003 0.1649351217739441 -0.1373276086173235 -0.04287767070114523 -0.04675263091447359 -0.04545374587051081 0.03185730683113644 -0.02953481875566565 0.09829790076069066 -0.046747919197653 0.02036865540511267 
-0.04471006296317492 -0.2018035966482413 0.0438295719126667 -0.01668022570493856 0.157980920606281 -0.0375644901106903 -0.03296376258807206 -0.02025958768110019 0.07790531152242279 -0.04144206444509425 -2.168404344971009e-19 
0 -0.07155019356134021 0 -0.01668022570493856 0.1894302792630383 -0.01879923656957049 -0.02992733622993426 -0.01580695034866983 -0.000128365068859032 -0.02980280508940211 0 
0 0 -0.04193780400392574 0.1353182662016488 -0.01646982686631254 0 -0.08357231366122847 0 0 -0.0007915345143135339 0 
-0.001085681823198392 -0.06100698824947861 -0.01832269455941345 0.07073378489998342 -0.1462597392640026 -0.04964170767277801 0.2215280227453179 -0.02335432738321224 -0.1009375972809134 -0.06057891370880157 -0.02779842833026331 
0.09555755571296835 -0.1279732263685557 -0.05851869729516403 0.2818794895209228 -0.01646982686631254 -0.002161556802028195 -0.17587013548271 -0.02064564539156163 0 -0.0007915345143135339 0 
0 -0.03629641885212626 -0.0516334909669726 0.3101761855621765 -0.01646982686631254 -0.002161556802028195 -0.17587013548271 -0.02064564539156163 0 -0.0007915345143135339 0 
0 -0.07461114582799437 -0.05756672556756949 0.2939236189252994 -0.0599188702388236 0 -0.110737297797263 -0.0009481089138575284 0 -0.0007915345143135339 0 
0 0 -0.04193780400392574 0.1353182662016488 -0.01646982686631254 0 -0.08357231366122847 0 0 -0.0007915345143135339 0 
0 0 -0.04193780400392574 0.1353182662016488 -0.01646982686631254 0 -0.08357231366122847 0 0 -0.0007915345143135339 0 
0 0 -0.04193780400392574 0.1353182662016488 -0.01646982686631254 0 -0.08357231366122847 0 0 -0.0007915345143135339 0 
-0.0459158520900727 -0.2638446672039381 0.01373910525697723 0.04296018981505205 0.07626177923649796 -0.06196061548542258 0.2058457796713151 -0.03987276820107723 -0.01004380168606891 0.1323822786912397 -0.006339293370292135 
-0.0589250940102624 -0.07750368441310189 -0.01173077601418023 -0.01385145533030801 0.2398148328847101 0 -0.01936941457879578 0 0 0 0 
0.3085723037334966 -0.07500916182485125 0.05586021976562461 -0.1296508906832321 0.024740741888977 -0.04152168313442418 -0.09748933900710828 -0.02639259778380575 -0.005821457934259094 -0.008879684997941444 -0.003584781776514669 
-0.0589250940102624 -0.07750368441310189 -0.01173077601418023 -0.01385145533030801 0.2398148328847101 0 -0.01936941457879578 0 0 0 0 
-0.02313079885569426 -0.01375908987464973 -0.01244818593748898 -0.01385145533030801 0.158830678678943 0 -0.03443027525933047 0 0 -0.0002577634170065552 0 
-0.0589250940102624 -0.07750368441310189 -0.01173077601418023 -0.01385145533030801 0.2398148328847101 0 -0.01936941457879578 0 0 0 0 
-0.0589250940102624 -0.07750368441310189 -0.01173077601418023 -0.01385145533030801 0.2398148328847101 0 -0.01936941457879578 0 0 0 0 
-0.0589250940102624 -0.2826541391082047 0.1375368794276761 -0.01385145533030801 0.3151713857451183 4.336808689942018e-19 -0.04534229605618594 -8.673617379884035e-19 -0.005980502326155816 -0.007949119586320058 0 
0.1036465179210824 -0.263213494056857 0.07858549683314911 -0.01385145533030801 0.1119200514665752 0.1438134934723579 -0.07064919483587842 -0.01522921638681193 -0.005919204341344914 -0.0005496657849706164 0 
0.1831052218186481 0.1686093545265455 -0.1629804256560108 -0.0004194092679483483 -0.09250028700165235 -0.1250882387574459 -0.1085651225494011 -0.07621924665355444 0.02556365614629983 -0.04315795608956093 -0.03323853793409574 
-0.1075728690312686 -0.1007933221070044 -0.02917629386446692 0.1456094431539886 0.1859072797363246 -0.005271861642144206 -0.02965596988427456 -0.009466692771238154 0 0 0 
-0.06821211390777075 -0.1006465660522562 -0.04495648850948853 0.2132679522751146 -0.0005270676605652798 0 0 0 0 0 0 
0.09540134320295966 -0.1405914129554731 -0.04495648850948853 0.1651908459710867 -0.03746493629006702 0 -0.04054575858174306 0 0 0 0 
-0.06821211390777075 0.02057870674407167 -0.04495648850948853 0.1692635587311866 -0.03021856446820253 0 -0.1056464264263026 -8.673617379884035e-19 0 0 0 
-0.06821211390777075 -0.1006465660522562 -0.04495648850948853 0.2132679522751146 -0.0005270676605652798 0 0 0 0 0 0 
-0.06821211390777075 -0.1006465660522562 -0.04495648850948853 0.2132679522751146 -0.0005270676605652798 0 0 0 0 0 0 
-0.06821211390777075 -0.1006465660522562 -0.04495648850948853 0.2132679522751146 -0.0005270676605652798 0 0 0 0 0 0 
-0.06821211390777075 -0.1006465660522562 -0.04495648850948853 0.2132679522751146 -0.0005270676605652798 0 0 0 0 0 0 
-0.1210043256928572 -0.1311721858497946 -0.04495648850948853 0.149981069923395 0.1055475207606604 0.07036351015059321 0 -0.02131472124071759 -0.006721720635948242 -0.01252092705690545 0 
-0.0828376201907932 0.07903694886604469 0.09985409225309584 0.01521655199438112 -0.03458472827184172 -0.09293582792473754 0.1436820959775784 -0.03712348858802613 -0.09875830076133538 0.06826931660709257 -0.0122263166225136 
-0.04037019020055491 0.215119616986588 0 0 -0.1452359087493764 0 0 0 -0.003877019435837146 0 0 
0.05552004522704868 0.03774177546687388 -0.04867097323029689 -0.07356700218638604 0.1736823350865594 -0.08468461312025331 -0.06234163422366958 3.686287386450715e-18 -0.06551039793463016 -0.005122952549502988 -0.001360787232859748 
0.02395237991821769 -0.05495209452189739 -2.168404344971009e-19 -0.02136754541159002 0.05654360670240644 -0.0284152288489084 -0.06309755321981803 9.75781955236954e-19 -0.003877019435837148 -0.002695876190975574 0 
0.03684560864161533 0.2336748993335519 -0.01752134315126577 -0.01290386087418921 -0.1366205406692361 -0.03672953964299413 -0.05422323454979159 -0.002295591023559397 -0.003877019435837146 0 -0.01022931417929203 
-0.02868430790408917 0.1193681456257212 0 0 -0.1452359087493764 0 8.673617379884035e-19 0 -0.003877019435837146 0 0 
0.07631419169615916 0.02572179792580328 -0.01752134315126577 -0.007584052198117914 -0.03984904366378972 1.734723475976807e-18 -0.04532536499539278 -0.002295591023559397 -0.003877019435837146 0 -1.084202172485504e-19 
-0.02868430790408917 0.1193681456257212 0 0 -0.1452359087493764 0 8.673617379884035e-19 0 -0.003877019435837146 0 0 
-0.0991276391426045 0.02400099795261706 -0.004894008203391766 0 0.09101380594991174 0 0 0 -0.003877019435837146 0 0 
-0.09683038597285935 0.2355670097802264 -0.05878031595602566 0 -0.09047171749484167 -0.09388666679680546 -0.04845995622483947 -0.0002468076016454068 0.1606528367517543 0 -0.001255686609246299 
-0.1355571334124067 -0.1306032517357643 -0.09394930649964658 0.03065524339991652 0.2608778026730439 -0.01289788469183237 0.08137703029545953 -0.05628428802087592 -0.04144062308673317 -0.01184017515511614 -0.01423117738213121 
-0.04037019020055491 0.215119616986588 0 0 -0.1452359087493764 0 0 0 -0.003877019435837146 0 0 
-0.04037019020055491 0.215119616986588 0 0 -0.1452359087493764 0 0 0 -0.003877019435837146 0 0 
-0.04073956870273823 0.125311236592888 0 -0.004628453220551677 -0.08218447777740349 -0.01442862582871106 0 0 0 0 0 
-0.007011092026113607 0.01601914334956476 -0.07176443963545082 -0.04234414765619476 0.04418187433175841 0.1271351529295724 -0.1720756489895379 -0.05308504195966772 0.1328991884165406 -0.03509510381864171 -0.002181176719798189 
-0.09993539653885407 0.03728878730311719 -0.1237399533172756 -0.05350368426202792 0.4159540110384709 -0.09330490467558927 -0.1450882059862411 -0.0536659045260358 -0.0946508373337121 -0.0313800581678349 -0.01365376165314714 
0.1173092708329163 0.05783167029323853 0 -0.004628453220551677 -0.1433574008234607 -0.01442862582871106 0 0 0 0 0 
-0.1075463957424297 0.1322285045495391 0 -0.004628453220551677 0.04427183517798519 -0.03956637950070339 -0.02727480647752755 -1.301042606982605e-18 -0.01302350267922338 -0.00328704583640016 0 
-0.04073956870273823 0.125311236592888 0 -0.004628453220551677 -0.08218447777740349 -0.01442862582871106 0 0 0 0 0 
-0.04073956870273823 0.125311236592888 0 -0.004628453220551677 -0.08218447777740349 -0.01442862582871106 0 0 0 0 0 
-0.04073956870273823 0.125311236592888 0 -0.004628453220551677 -0.08218447777740349 -0.01442862582871106 0 0 0 0 0 
-0.04073956870273823 0.125311236592888 0 -0.004628453220551677 -0.08218447777740349 -0.01442862582871106 0 0 0 0 0 
-0.04073956870273823 0.125311236592888 0 -0.004628453220551677 -0.08218447777740349 -0.01442862582871106 0 0 0 0 0 
-0.0392627521293716 -0.04987869855340003 -0.1060375673229607 -0.04603887359286218 0.129379527526981 -0.01571902013020653 0.09572328735079218 -0.05087013707733772 -0.09116723804224666 -0.0368917617078434 -0.003439720885268312 
-0.03914528371302298 0.1592381201788359 -0.0004335220682101034 -0.009698938011410986 -0.1267733729363608 -0.002930160514668546 0 -0.003996167301944763 0 0 0 
0.03100401576240976 -0.03691538669500258 -0.04771454434601345 -0.08576746772931877 -0.02310555788248943 0.02634568298998999 0.08927185181550114 0.07441895001183094 -0.06736763185509784 -0.007449643124056745 -0.03175985303966593 
0.05593301521530076 0.1670970840392523 -0.006184565795080106 -0.04180036521863622 -0.1810527173817766 0.1657739996799993 -0.1063736947565206 -0.03851169296626908 -0.006354080425938673 0 0 
-0.03914528371302298 0.1592381201788359 -0.0004335220682101034 -0.009698938011410986 -0.1267733729363608 -0.002930160514668546 0 -0.003996167301944763 0 0 0 
-0.05708898072491148 0.08116903588242334 -0.0004335220682101034 -0.01425176753592881 0.04855710260070645 -0.02376738277126511 -0.006806843306006656 -0.003996167301944763 -0.003834128153812864 0 0 
-0.03914528371302298 0.1592381201788359 -0.0004335220682101034 -0.009698938011410986 -0.1267733729363608 -0.002930160514668546 0 -0.003996167301944763 0 0 0 
-0.03914528371302298 0.1592381201788359 -0.0004335220682101034 -0.009698938011410986 -0.1267733729363608 -0.002930160514668546 0 -0.003996167301944763 0 0 0 
-0.03914528371302298 0.1592381201788359 -0.0004335220682101034 -0.009698938011410986 -0.1267733729363608 -0.002930160514668546 0 -0.003996167301944763 0 0 0 
-0.1749692079374813 -0.1624781082129341 0.0152031020511303 0.1390816459362898 0.5260760608717955 -0.1096617891974903 -0.1840744992647981 -0.03615604110463841 -0.07397840624086424 -0.02687202020298375 -0.02630641357571008 
0 0.1592381201788359 0 -0.009698938011410986 -0.1267733729363608 0 0 -0.003996167301944764 0 0 0 
-0.1654769594754388 0.1293682054557005 -0.04938684008241925 -0.06595986169574963 0.1945378896019226 -0.03965512233253134 -0.09553366046707377 -0.01522704144805586 -0.01004380168606891 0.1249390252052336 -0.0004660589145577028 
0.1160295689314484 0.1012849320709237 -0.009891194251320345 -0.009698938011410986 -0.1470114005354255 0 -0.003998903529011347 -0.008337625197869437 0 0 0 
0 0.1684167015292578 -0.0155096016148536 -0.008112242535953943 -0.0283029312592455 0 -0.03709062443920787 -0.005618517383365398 -0.02485084891537633 0 0 
-0.004179627638541536 0.02150079608042704 -0.02463040838019515 -0.008377305236705325 -0.01184847673307288 -0.04366036358556111 0.1407463181090822 -0.005618517383365398 -0.04460165180515095 -0.00928404945028183 0 
0 0.1323128887826781 0.09729860603598108 -0.009458227161321766 -0.1950765480274251 -0.04273392466720511 -0.09164522172465607 -0.01993394384381255 0.1340189444654843 0 0 
-0.004179627638541529 0.02381832215077753 -0.0155096016148536 -0.008112242535953943 0.1182643731321209 0 -0.07882487022688615 -0.005618517383365398 -0.02485084891537633 0 0 
0 0.2081525450143629 -0.04104894118667775 -0.009458227161321763 -0.1430812865021732 -0.04273392466720511 -0.09164522172465607 -0.01867262558908445 0.1598042771728795 0 0 
-0.004179627638541529 0.02381832215077753 -0.0155096016148536 -0.008112242535953943 0.1182643731321209 0 -0.07882487022688615 -0.005618517383365398 -0.02485084891537633 0 0 
0 0.1684167015292578 -0.0155096016148536 -0.008112242535953943 -0.0283029312592455 0 -0.03709062443920787 -0.005618517383365398 -0.02485084891537633 0 0 
0 0.1684167015292578 -0.0155096016148536 -0.008112242535953943 -0.0283029312592455 0 -0.03709062443920787 -0.005618517383365398 -0.02485084891537633 0 0 
-0.1334310424310985 0.3253878404152059 -0.2469045367933896 0.07999741484530454 -0.2058211870001586 0.003101682287736129 0.09516908380535079 0.05332980059214968 -0.08848383822594688 0.02142843269797664 -0.03761614232613433 
0.1150406192591569 -0.1546842551460917 0.08826978872663648 -0.1200481907158507 0.07385739290672719 0.02248469100205776 -0.01941542550771118 -0.01928640848683112 -0.1094661838048392 0.002141421612901994 0.04660856690365663 
0.1431997147754428 -0.02243526855567332 0 -0.01019609309920437 -0.05120608494820277 0 -0.07010009599931354 0 0 0 0 
0.1588499156095199 -0.09037917104423425 0.04152141341287762 -0.03191855969151525 0.07977356617119646 -0.05537223128287534 -0.06563206989288223 -0.04163448326949201 -0.09275969020280597 -0.06223141110751149 -0.04047286136394433 
-0.05802365881185081 -0.09964950939305167 -0.1015021071225735 0.1745823436667238 0.2884996517895786 -0.01409761846038561 -0.1458583968141906 -0.0103756274672162 -0.008981212536886562 -3.252606517456513e-19 -0.01840914099179889 
0.1075336678589934 -0.1135360691926034 -0.02227181582783392 -0.09809807718306179 -0.1070872980959397 -0.004572542285256434 0.279070912508358 -0.001852326528136948 -0.04293973573938973 0 -0.0006783288497359475 
0.1431997147754428 -0.02243526855567332 0 -0.01019609309920437 -0.05120608494820277 0 -0.07010009599931354 0 0 0 0 
0.1431997147754428 -0.02243526855567332 0 -0.01019609309920437 -0.05120608494820277 0 -0.07010009599931354 0 0 0 0 
0.1431997147754428 -0.02243526855567332 0 -0.01019609309920437 -0.05120608494820277 0 -0.07010009599931354 0 0 0 0 
0.1431997147754428 -0.02243526855567332 0 -0.01019609309920437 -0.05120608494820277 0 -0.07010009599931354 0 0 0 0 
0.1431997147754428 -0.02243526855567332 0 -0.01019609309920437 -0.05120608494820277 0 -0.07010009599931354 0 0 0 0 
0.2598926867837957 -0.1910240068364459 -0.005382683137311993 -0.02627766907697314 -0.1535044360340001 -0.02730005135960849 0.1387662739960523 -0.007319376556465168 -0.02743486475006372 0 0 
-0.006057834444230598 0.1375978775531236 -0.05871337394146882 0 0 0 0 -0.008192002924133425 0 0 0 
-0.09152594997005145 -0.04892442097038729 0.06731536588691056 -0.1158594252301241 0.0595866904844904 0.08879512778851681 0.05401168537655008 0.1077322943937036 -0.09201322879975024 -0.03676435097678239 -0.02506364456332603 
-0.08948248325153366 -0.01866563009142452 -0.05871337394146881 -0.01577471625258922 -0.04143338954119617 -0.03422610365834093 0.2092211406774002 -0.0200708719873205 -0.01991151895855554 -8.869013170776829e-05 -0.001007710916356261 
-0.08626118165587088 0.2735473474097923 -0.05871337394146881 0 0 -0.02907346619678436 -0.03387691124911128 -0.02007087198732051 0 -8.869013170776829e-05 0 
-0.05422483547072644 -0.06017013480652825 0.1453307009193728 0 -0.01964382480682924 0 0 -0.008192002924133425 0 -0.0003298362255364166 -0.003204811331508392 
-0.006057834444230598 0.1375978775531236 -0.05871337394146882 0 0 0 0 -0.008192002924133425 0 0 0 
-0.1106722406753063 0.03118674848261332 0.1682258614185835 0 -0.01964382480682924 0 0 -0.008192002924133425 0 0 0 
-0.006057834444230591 0.002302681692581132 -0.05871337394146882 0 0.1478745121283141 -0.02166110875817798 -0.01731319140283115 -0.008192002924133425 0 0 0 
0 0.03327931423230995 -0.01465260583303118 -0.000301612542178504 0 0 -0.09618134440429742 0 0 -0.008870751032379068 0 
-0.1062327779939825 0.3591590913753515 -0.02242455989219765 -0.06616931516738671 -0.1528290953388061 -0.0298826797080866 -0.09618134440429742 -0.004106434165834052 -0.03582035687272328 -0.02024022723305692 -0.01281232187446772 
0 0.03327931423230995 -0.01465260583303118 -0.000301612542178504 0 0 -0.09618134440429742 0 0 -0.008870751032379068 0 
-0.08511635982244507 0.106787358540309 -0.05280574758312843 -0.06397683440567707 0.2462002064992729 -0.07441686361560929 -0.08997805086172556 -0.03838860305582689 -0.008390290342566026 -0.01278095426635355 -0.004552635760448379 
0 0.03327931423230995 -0.01465260583303118 -0.000301612542178504 0 0 -0.09618134440429742 0 0 -0.008870751032379068 0 
-0.02967037246305091 0.2266473379781672 -0.03084119863697622 -0.01120410015717861 -0.1375721051838028 -0.03317411619549787 -0.01087763125704536 -0.02079780817019962 1.734723475976807e-18 -0.008870751032379068 -0.003300299339591234 
0 0.03327931423230995 -0.01465260583303118 -0.000301612542178504 0 0 -0.09618134440429742 0 0 -0.008870751032379068 0 
0 0.03327931423230995 -0.01465260583303118 -0.000301612542178504 0 0 -0.09618134440429742 0 0 -0.008870751032379068 0 
-0.07570718776704556 0.1126806663192757 -0.07813581256175992 -0.02506427112566364 -0.08471946943601727 0.1220385556261736 0.04650488330847754 -0.02336046953746832 -0.03038114827864596 -0.03341838821266495 -0.003300299339591234 
-0.07874358711842473 0.2420959072699289 0.08974157673441739 -0.07671981849505735 -0.174287215535804 -0.01077682606838793 0.02066234082302461 -0.02478566023977273 -0.009769345421586195 -0.02425115055700746 0 
-0.0952346110810528 -0.006704560165862979 -0.04687631796332098 0.1635509219223613 -0.002691341808870961 0 -0.0006808790234963864 -0.002769510353662246 0 0 0 
-0.1085628640216995 -0.009798516109404999 -0.04687631796332098 0.314808616226859 -0.1572102943879475 0 -0.0006808790234963864 -0.002769510353662246 -0.003513258611347899 0 0 
-0.0952346110810528 -0.006704560165862979 -0.04687631796332098 0.1635509219223613 -0.002691341808870961 0 -0.0006808790234963864 -0.002769510353662246 0 0 0 
-0.0952346110810528 -0.006704560165862979 -0.04687631796332098 0.1635509219223613 -0.002691341808870961 0 -0.0006808790234963864 -0.002769510353662246 0 0 0 
-0.0952346110810528 -0.006704560165862979 -0.04687631796332098 0.1635509219223613 -0.002691341808870961 0 -0.0006808790234963864 -0.002769510353662246 0 0 0 
0.2043896335103022 0.2008393010647384 -0.0673381885542681 0.06585374098409963 -0.1691314070178148 -0.01758216594818713 -0.158779717714841 -0.04067205777460363 -0.0478618721366763 -0.02181671946312886 -0.001885430291174521 
-0.0952346110810528 -0.006704560165862979 -0.04687631796332098 0.1635509219223613 -0.002691341808870961 0 -0.0006808790234963864 -0.002769510353662246 0 0 0 
-0.1750748516002132 0.1421637368101296 0 0 0 0 -0.01062280303788783 -0.000188828883730887 0 0 0 
-0.2559319808490476 0.174229275199067 -0.01146955643147405 -0.02590554589470706 0.1031275034629665 0 -0.03818071222232681 -0.01506787150247831 -0.0007922406354977857 0 0 
0.381049514115555 -0.03181018345122052 -0.1104300245806543 -0.09844914096286349 -0.2186114068798321 -0.02604673956063537 -0.05047130647110995 -0.04891563124202514 0.08493839496627896 -0.003721839532146316 0 
-0.1750748516002132 0.1421637368101296 0 0 0 0 -0.01062280303788783 -0.000188828883730887 0 0 0 
0.66770471704641 -0.3378375308517357 -0.01287894726683222 -0.00747704592719481 -0.2359814233269422 -0.01836385501799177 -0.03847907702694256 -0.02037299966526478 -0.02994698280850903 -0.003721839532146316 0 
-0.1750748516002132 0.1421637368101296 0 0 0 0 -0.01062280303788783 -0.000188828883730887 0 0 0 
0.2139478957567457 0.01161357713745843 -0.002987753015511874 -0.003496472477130448 -0.1681409461286141 -0.01415434461211231 -0.01970924165721975 -0.000188828883730887 0 -0.003721839532146316 0 
-0.1750748516002132 0.1421637368101296 0 0 0 0 -0.01062280303788783 -0.000188828883730887 0 0 0 
-0.1750748516002132 0.1421637368101296 0 0 0 0 -0.01062280303788783 -0.000188828883730887 0 0 0 
0 -0.00211550635790724 0 -0.02919368938327504 -0.06883643964370612 0.2088566382836176 -0.1639923142030225 -0.01767956926203148 -0.006721720635948242 -0.01331368602083036 0 
-0.01928078608617035 -0.1664816855410224 -0.03384403866896672 -0.09767535054515189 -0.06537031975650398 0.1073637317268245 0.3336735280051613 -0.08033120885364051 -0.02472657772358371 -0.02776023874443223 -0.00361039023766332 
1.084202172485504e-18 -0.06369740867926811 0 -0.03047224035859117 -0.08419595053482559 0.3353062063770781 -0.1748179540422103 -0.01815920464661559 -0.01875645099547263 -0.02747346409430047 0 
0 -0.00211550635790724 0 -0.02919368938327504 -0.06883643964370612 0.2088566382836176 -0.1639923142030225 -0.01767956926203148 -0.006721720635948242 -0.01331368602083036 0 
0 -0.00211550635790724 0 -0.02919368938327504 -0.06883643964370612 0.2088566382836176 -0.1639923142030225 -0.01767956926203148 -0.006721720635948242 -0.01331368602083036 0 
0 -0.00211550635790724 0 -0.02919368938327504 -0.06883643964370612 0.2088566382836176 -0.1639923142030225 -0.01767956926203148 -0.006721720635948242 -0.01331368602083036 0 
0 -0.00211550635790724 0 -0.02919368938327504 -0.06883643964370612 0.2088566382836176 -0.1639923142030225 -0.01767956926203148 -0.006721720635948242 -0.01331368602083036 0 
0 -0.00211550635790724 0 -0.02919368938327504 -0.02419152024351373 0.07036351015059321 0 0 -0.006721720635948242 -0.01252092705690545 0 
-0.1663632092618011 -0.03996477909226888 -0.08050428881930773 0.1735950362310086 0.02261884564247952 0.02394510068266433 -0.09380466563539738 -0.05275702713415757 0.1676215605781632 -0.03587396801719957 -0.05401281327713826 
0 -0.00211550635790724 0 -0.02919368938327504 -0.02419152024351373 0.07036351015059321 0 0 -0.006721720635948242 -0.01252092705690545 0 
0 -0.1480142016570896 -0.009913027601295157 -0.01438770859226235 0.2360854633140756 0 -0.02816834154451104 -0.01679822120644708 -0.007806466396091577 0 -0.000149712104575593 
-0.04388109966889978 0.03423522089963085 0.07840867465337914 -0.05052134903642293 0.01721017075835274 -0.003830817995367199 -0.02816834154451104 -0.02595564905170413 -0.007806466396091579 -0.0153803995246284 -0.000149712104575593 
0 -0.1480142016570896 -0.009913027601295157 -0.01438770859226235 0.2360854633140756 0 -0.02816834154451104 -0.01679822120644708 -0.007806466396091577 0 -0.000149712104575593 
-0.05273620445811863 -0.1480142016570896 -0.01403250458052118 -0.01438770859226235 0.1156505657088264 0 0.1570905161220301 -0.02208433104712855 -0.01439346008801014 0 -0.0001497121045755931 
0 -0.1480142016570896 -0.009913027601295157 -0.01438770859226235 0.2360854633140756 0 -0.02816834154451104 -0.01679822120644708 -0.007806466396091577 0 -0.000149712104575593 
0 -0.1480142016570896 -0.009913027601295157 -0.01438770859226235 0.2360854633140756 0 -0.02816834154451104 -0.01679822120644708 -0.007806466396091577 0 -0.000149712104575593 
0 -0.05692733411302556 -0.09144328960406409 -0.01985697281742065 0.1778908663122433 0 -0.01340427509595225 -0.01877325478864641 -0.01514980982474486 0 0 
-0.089271808140455 -0.09143723665171519 0.06878182650183183 0.1037440537489143 0.2319527306452448 -0.00256463199767161 -0.124186681717061 -0.01679822120644708 -0.02248684263120419 -0.007949119586320058 0 
-0.03729656073725807 0 -0.002829710385532946 -0.008109161830088731 0.004280803083556757 0 0 0 0 0 0 
-0.04292438306692234 -0.07768954657427403 -0.002829710385532946 -0.02741674789843903 0.2336978709831103 -0.04630540438072336 -0.08020545260303728 -0.01584134239596689 -0.003248668735403893 -0.01312999448853188 -0.007593596146561277 
-0.01252463797018988 0.01384370072619844 -0.03504655923396659 -0.06314221826974092 0.06672912946401439 -0.01278125868391722 -0.007631167332658136 0 0 0 -0.01840914099179889 
-0.04292438306692234 -0.07768954657427403 -0.002829710385532946 -0.02741674789843903 0.2336978709831103 -0.04630540438072336 -0.08020545260303728 -0.01584134239596689 -0.003248668735403893 -0.01312999448853188 -0.007593596146561277 
-0.03729656073725807 0 -0.002829710385532946 -0.008109161830088731 0.004280803083556757 0 0 0 0 0 0 
-0.03729656073725807 0 -0.002829710385532946 -0.008109161830088731 0.004280803083556757 0 0 0 0 0 0 
-0.09585120367111674 -0.1745939773523994 -0.0439819363938778 -0.02501838287752219 0.3545114746397576 0 -0.03508901442593463 0 0 0 0 
-0.04193608581174538 -0.07173370284852898 -0.05622801095219651 0.1815604465885546 -0.03727242786878741 0 -0.003458162317359922 0 0 0 0 
0.1895193550287588 -0.06317418681584611 0.2897164946760641 -0.1685977450202276 -0.1866493647449947 -0.005070368824612442 -0.04853009474304773 -0.002959471011131318 -0.01431985858764084 -1.084202172485504e-19 0 
-0.03602030871425988 -0.02927786240107574 0 -0.005561102954292282 -0.03396266219678488 -0.00186104372437268 0.1670037596682566 0 0 -0.0154357911591668 0 
0.1359887957935372 -0.1934731376746594 0.09715996167668434 0.09423840252323976 -0.2315768110411952 -0.005975993448631438 0.2005617829096438 -0.02215688801555536 0 -0.0154357911591668 0 
-0.03602030871425988 -0.04548568097356502 -0.01211623739523018 -0.00726507252990879 -0.04780816495922151 -0.02716492700196971 0.3038176235018263 0 -0.0195934248145437 -0.04412003815092212 0 
-0.03602030871425988 -0.02927786240107574 0 -0.005561102954292282 -0.03396266219678488 -0.00186104372437268 0.1670037596682566 0 0 -0.0154357911591668 0 
-0.03602030871425988 -0.02927786240107574 0 -0.005561102954292282 -0.03396266219678488 -0.00186104372437268 0.1670037596682566 0 0 -0.0154357911591668 0 
-0.03602030871425988 -0.02927786240107574 0 -0.005561102954292282 -0.03396266219678488 -0.00186104372437268 0.1670037596682566 0 0 -0.0154357911591668 0 
-0.03602030871425988 -0.02927786240107574 0 -0.005561102954292282 -0.03396266219678488 -0.00186104372437268 0.1670037596682566 0 0 -0.0154357911591668 0 
-0.03602030871425988 -0.02927786240107574 0 -0.005561102954292282 -0.03396266219678488 -0.00186104372437268 0.1670037596682566 0 0 -0.0154357911591668 0 
-0.03602030871425988 0.1207256672960608 0 -0.03706386719918549 -0.1014592624436339 -0.00186104372437268 0.1324773751894036 0 0 -0.0154357911591668 0 
-0.005096474059672584 0 -0.04200320264984857 -0.008023585140255035 0.1491284401321269 -0.01676172985443256 -0.05039954925132085 -0.0156251978481763 0 0 0 
0.02673506144989395 -0.2838628802655155 0.1366127597513951 -0.0561958710002662 0.1614273282557804 -0.003434098189934436 -0.00167077293995859 0.07672766346067118 -0.07981966055792478 -0.08447230167376368 -0.020892117993014 
-0.005096474059672584 0 -0.04200320264984857 -0.008023585140255035 0.1491284401321269 -0.01676172985443256 -0.05039954925132085 -0.0156251978481763 0 0 0 
-0.07796024688308109 -0.1661350880141436 -0.0472545780003868 -0.06703471524654807 0.3192527247862088 0.1587980859036768 -0.0670242474280504 -0.02224439728503369 -0.01045139834472826 -0.003847405242897758 0 
-0.005096474059672584 0 -0.04200320264984857 -0.008023585140255035 0.1491284401321269 -0.01676172985443256 -0.05039954925132085 -0.0156251978481763 0 0 0 
-0.00543844173924926 0.01364167653353306 -0.04200320264984857 -0.02795165414727604 0.1413994889861306 -0.01676172985443256 -0.05638711110577074 -0.02038411934468735 -2.168404344971009e-19 0 0 
-0.005096474059672584 0 -0.04200320264984857 -0.008023585140255035 0.1491284401321269 -0.01676172985443256 -0.05039954925132085 -0.0156251978481763 0 0 0 
-0.005096474059672584 0 -0.04200320264984857 -0.008023585140255035 0.1491284401321269 -0.01676172985443256 -0.05039954925132085 -0.0156251978481763 0 0 0 
-0.02501120068197666 -0.2148523957023185 -0.04299244383028233 -0.03557981687198597 -0.03390483776602383 -0.04750220395530227 0.3981471297371032 -0.06598771646391992 9.486769009248164e-20 -0.00383887527807936 -0.006889110179511027 
-0.02324664978733853 -0.04873144482465838 0.1292028066378162 -0.07043786508042196 0.1261156026083557 -0.01676172985443256 -0.07061997154787239 -0.0156251978481763 0 0 0 
-0.005096474059672584 0 -0.04200320264984857 -0.008023585140255035 0.1491284401321269 -0.01676172985443256 -0.05039954925132085 -0.0156251978481763 0 0 0 
0 -0.0589634839419592 -0.03750296922715542 0.1627476697722585 -0.03758922796076554 0 -0.01868002488708635 -0.004118958805180552 0 0 0 
0 -0.0589634839419592 -0.03750296922715542 0.1627476697722585 -0.03758922796076554 0 -0.01868002488708635 -0.004118958805180552 0 0 0 
0 -0.0589634839419592 -0.03750296922715542 0.1627476697722585 -0.03758922796076554 0 -0.01868002488708635 -0.004118958805180552 0 0 0 
0 -0.0589634839419592 -0.03750296922715542 0.1627476697722585 -0.03758922796076554 0 -0.01868002488708635 -0.004118958805180552 0 0 0 
0 -0.0589634839419592 -0.03750296922715542 0.1627476697722585 -0.03758922796076554 0 -0.01868002488708635 -0.004118958805180552 0 0 0 
0 -0.0589634839419592 -0.03750296922715542 0.1627476697722585 -0.03758922796076554 0 -0.01868002488708635 -0.004118958805180552 0 0 0 
-0.008936779488591038 -0.0589634839419592 -0.039732335591386 0.1448709748062768 -0.03758922796076554 0 -0.05232442743083615 -0.004118958805180552 0 0 0 
-0.09894419200902937 0.004004383225061898 -0.05558142330072786 0.194294956267885 -0.1044714689966092 -0.01642877556848897 0.1129579311052312 -0.0068432315736183 -0.04872653230845445 -0.0003191960952824415 -0.008206091825340406 
0 -0.08330531193224119 -0.01641325418160239 -0.007079985638589054 0.1112426382110323 0 -0.01837344905488857 0 0 0 0 
-0.1496632007850715 0.1127416991190327 0.04721316115684084 -0.05237864313824396 0.1056899732533422 -0.02132321668431162 -0.07297233493297911 -0.001594343250800848 -0.01102977245506419 0 -0.001284473560995687 
0 -0.08330531193224119 -0.01641325418160239 -0.007079985638589054 0.1112426382110323 0 -0.01837344905488857 0 0 0 0 
0 -0.08330531193224119 -0.01641325418160239 -0.007079985638589054 0.1112426382110323 0 -0.01837344905488857 0 0 0 0 
0 -0.08330531193224119 -0.01641325418160239 -0.007079985638589054 0.1112426382110323 0 -0.01837344905488857 0 0 0 0 
0 -0.08330531193224119 -0.01641325418160239 -0.007079985638589054 0.1112426382110323 0 -0.01837344905488857 0 0 0 0 
-0.07378174804585484 -0.2359951793332556 -0.02764860441123509 -0.03029352511699484 0.2872861622521671 0 -0.04955742102804268 0 -0.04420826365660921 0 0 
0 -0.2042610090503599 -0.01641325418160239 -0.01169363582756346 0.1112426382110323 -0.01497804615510016 0.1063816967142878 0 0 0 0 
0 -0.0799103773652237 0.1513962973693349 -0.0411138361284153 -0.01404026160504949 0 -0.009627403356652355 0 0 0 0 
-0.02178129163883469 -0.186220593739782 0.2297149633228784 0.07894338248921767 0.03713938027399119 1.734723475976807e-18 -0.06126650039357565 -0.01167548505262898 -8.673617379884035e-19 -0.008998214333714871 0 
-8.673617379884035e-19 0.09255573986726776 0.0845752892901033 -0.1781983241362926 0.07212141311321643 -0.01819163523924247 -0.03594661831990779 -0.01224269278460862 -0.01004892123542927 0 0 
-0.004639525074487288 -0.1516440802137526 0.2544820635621932 0.09769641781711602 -0.1077962842991624 1.734723475976807e-18 -0.04443220290071956 -0.01167548505262898 -8.673617379884035e-19 -0.008403498671901554 0 
0 -0.0799103773652237 0.1513962973693349 -0.0411138361284153 -0.01404026160504949 0 -0.009627403356652355 0 0 0 0 
0 -0.0799103773652237 0.1513962973693349 -0.0411138361284153 -0.01404026160504949 0 -0.009627403356652355 0 0 0 0 
0 -0.0799103773652237 0.1513962973693349 -0.0411138361284153 -0.01404026160504949 0 -0.009627403356652355 0 0 0 0 
0 -0.0799103773652237 0.1513962973693349 -0.0411138361284153 -0.01404026160504949 0 -0.009627403356652355 0 0 0 0 
0.1174927498148317 0.07384177788413659 0.07059498559665754 0.04513130445263385 -0.09411971167154828 -0.1282545322131637 -0.009825947130934957 -0.03049161729212356 -0.05782391169163278 -0.02454763718028588 -0.006539302495663291 
-0.07379491588806202 -0.05084479335604309 -0.0087761957213162 0 -0.0300880149226282 0 -0.01387349231197525 0.1831432675681058 0 0 0 
-0.07379491588806202 0.03335831198920486 -0.0087761957213162 -0.004359354298346742 -0.07238016083846244 -0.008105586356605861 -0.01387349231197525 0.1724978048308476 -0.00704229537247987 0 0 
0.06833919664899152 0.08501930991925505 -0.01886922898043781 -0.06522164131980809 -0.1403201991742011 -0.04167220621456069 -0.01730964139567686 0.09890839320914568 0 -0.009178260994401173 0 
-0.07379491588806202 -0.05084479335604309 -0.0087761957213162 0 -0.0300880149226282 0 -0.01387349231197525 0.1831432675681058 0 0 0 
-0.07379491588806202 -0.05084479335604309 -0.0087761957213162 0 -0.0300880149226282 0 -0.01387349231197525 0.1831432675681058 0 0 0 
-0.07379491588806202 -0.05084479335604309 -0.0087761957213162 0 -0.0300880149226282 0 -0.01387349231197525 0.1831432675681058 0 0 0 
-0.07379491588806202 -0.05084479335604309 -0.0087761957213162 0 -0.0300880149226282 0 -0.01387349231197525 0.1831432675681058 0 0 0 
-0.07379491588806202 -0.05084479335604309 -0.0087761957213162 0 -0.0300880149226282 0 -0.01387349231197525 0.1831432675681058 0 0 0 
-0.07379491588806202 -0.05084479335604309 -0.0087761957213162 0 -0.0300880149226282 0 -0.01387349231197525 0.1831432675681058 0 0 0 
-0.07379491588806202 -0.05084479335604309 -0.0087761957213162 0 -0.0300880149226282 0 -0.01387349231197525 0.1831432675681058 0 0 0 
0.1123144003047479 -0.1700698906181737 -0.0087761957213162 0 -0.08039118144011656 0 -0.01387349231197525 0.1831432675681058 0 0 0 
0.1142992628648254 -0.08705990240743498 0 0 -0.02844468438144758 0 0 -0.01320805668126051 0 0 0 
0.05287233101018071 -0.02725308256488559 0 0 -0.09650435311517007 0 -0.006036148464820051 -0.01320805668126051 0 0 0 
0.1922782835648667 -0.3461846026831923 -0.07225850049940208 0.04612843862048061 0.2650955325127512 -0.06404676302252656 -0.1208886502034294 0.07642872579787385 -0.08206953352241908 -0.02273122924714247 -0.00797184103255001 
0.1142992628648254 -0.08705990240743498 0 0 -0.02844468438144758 0 0 -0.01320805668126051 0 0 0 
0.3062355110009268 -0.1827612890598804 -0.03072943667198595 -0.1345080038664787 -0.0756978413287195 -0.0203344676197291 -0.04589834343277037 0.168474369056273 -0.001314839103517494 -0.006364976312911241 -8.673617379884035e-19 
0.1142992628648254 -0.08705990240743498 0 0 -0.02844468438144758 0 0 -0.01320805668126051 0 0 0 
0.4118801010026405 -0.1216874376715781 -0.007165062070861325 -0.06678960482740742 -0.09490334092584377 -0.01236725616852845 -0.01937695165686034 -0.07943007543619054 -0.001314839103517495 -0.004860073063705888 0 
0.1142992628648254 -0.08705990240743498 0 -0.028614562921784 -0.02844468438144758 0 -0.02414486999984952 -0.01320805668126051 0 0 0 
0.1142992628648254 -0.08705990240743498 0 0 -0.02844468438144758 0 0 -0.01320805668126051 0 0 0 
-0.01815017572766594 -0.04873144482465838 0.1712060092876647 -0.06241427994016691 -0.02301283752377124 0 -0.02022042229655155 0 0 0 0 
-0.09969084507622045 -0.1113115417763871 0.1492295573382681 0.2555836280828606 -0.1497399561542732 0 -0.03407042045462808 -0.02215688801555536 0 0 0 
-0.0799071923412408 0.05292510463307773 0.2143632402494857 -0.2131687513076236 0.1405824412711151 -0.03262571360191056 -0.04901808157741973 -0.01057405381549801 8.673617379884035e-19 -0.01641441402878381 0 
-0.09969084507622045 -0.1113115417763871 0.1492295573382681 0.2555836280828606 -0.1497399561542732 0 -0.03407042045462808 -0.02215688801555536 0 0 0 
-0.01815017572766594 -0.04873144482465838 0.1712060092876647 -0.06241427994016691 -0.02301283752377124 0 -0.02022042229655155 0 0 0 0 
-0.03118274024811911 -0.04873144482465838 0.2216808448036452 -0.09818485815108391 -0.02345499635089744 0 -0.0370721479664613 0 -0.005160353752014988 0 0 
-0.01815017572766594 -0.04873144482465838 0.1712060092876647 -0.06241427994016691 -0.02301283752377124 0 -0.02022042229655155 0 0 0 0 
-0.08107191868119476 0.1488216590622921 0 0 0 -0.02308054036711695 0 0 0 -0.01995678866245253 0 
-0.04834060963637407 0.1265668567236389 -0.05235413574897916 -0.09856698167560926 0.1351868949973281 -0.09893630974881623 -0.1104532242537313 -0.03852381891228949 -0.05215225565782585 -0.03473014298205088 -0.003986870284957728 
-0.03011612754641372 -0.03948833818974519 0.1112561442037821 -0.1031009780937819 -0.2489980350748382 0.08596588223099468 -0.1174874295181681 -0.07257735558304956 0.03541592489829747 0.2625490763906698 -0.01189622263899484 
0.2381876222372384 -0.002184127438593204 -0.03217240792216448 -0.03346859838306875 -0.07047728179080348 -0.05100443508058818 -0.09367053085722192 -0.007515788064731231 -0.03120831430369753 -0.01995678866245253 -0.002178350526828699 
-0.1677217166088346 0.2647433600434263 -0.07580317961438546 -0.05978087354148269 -0.0440469668079731 0.2363989195234475 -0.05292491795644762 0 -0.01602719659106037 -0.08575050822844757 -0.00378824951930502 
0.2060358544430076 0.002243146510447727 -8.673617379884035e-19 0 -0.1616518329719814 -0.02308054036711695 -0.004832209541275009 0 -0.00520623832283612 -0.01995678866245253 -0.002178350526828699 
-0.08107191868119476 0.1488216590622921 0 0 0 -0.02308054036711695 0 0 0 -0.01995678866245253 0 
-0.08107191868119476 0.1488216590622921 0 0 0 -0.02308054036711695 0 0 0 -0.01995678866245253 0 
-0.08107191868119476 0.1488216590622921 0 0 0 -0.02308054036711695 0 0 0 -0.01995678866245253 0 
-0.08107191868119476 0.1488216590622921 0 0 0 -0.02308054036711695 0 0 0 -0.01995678866245253 0 
-0.03696197439287623 -0.02992022677564638 -0.009891194251320351 -0.01289351492667385 0.1080219165852442 -0.07568736646294585 0.1427035954064577 -0.01251398033064544 -0.02853705099168082 -0.01995678866245253 -0.005851601501637564 
-0.1229325731364264 0.1056687876534252 0 0 0 0 0 0 -0.005322202172448148 0 0 
-0.1744183772225595 0.282640078788743 0 -0.004359354298346742 -0.03369484909916649 -0.06113291154982374 -0.005731470161288249 -0.01446933560971457 -0.03686788996664145 0 -9.120498651956933e-05 
-0.1229325731364264 0.1056687876534252 0 0 0 0 0 0 -0.005322202172448148 0 0 
0.02845081719952465 -0.09287431486279427 0 0 0 0 0 0 -0.005680149423591184 0 0 
-0.1229325731364264 0.1056687876534252 0 0 0 0 0 0 -0.005322202172448148 0 0 
0.02845081719952465 -0.09287431486279427 0 0 0 0 0 0 -0.005680149423591184 0 0 
-0.1229325731364264 0.1056687876534252 0 0 0 0 0 0 -0.005322202172448148 0 0 
-0.1229325731364264 0.04943914678267781 0 -0.02170079357446404 -0.009571668306777512 3.469446951953614e-18 -0.04004329893449763 0.1425855070976631 -0.02221906575399114 -0.01163812982380165 -0.01620847869569549 
0 0.1112319814746661 0 0 -0.079484232590947 0 -0.03587372018786452 0 0 0 0 
-0.02722349065555649 0.1142197211862046 0 -0.01061274170570978 -0.0725050975268043 0 -0.04536512583449775 0 0 0 0 
0 0.1112319814746661 0 0 -0.079484232590947 0 -0.03587372018786452 0 0 0 0 
0 0.1112319814746661 0 0 -0.079484232590947 0 -0.03587372018786452 0 0 0 0 
0 0.1112319814746661 0 0 -0.079484232590947 0 -0.03587372018786452 0 0 0 0 
0 0.1112319814746661 0 0 -0.079484232590947 0 -0.03587372018786452 0 0 0 0 
0 0.1112319814746661 0 0 -0.079484232590947 0 -0.03587372018786452 0 0 0 0 
0 0.1308011146176722 4.336808689942018e-19 -0.008438775504205704 -0.1166659515414534 -0.02132321668431162 -0.03558247883987816 0 0 0 0 
0 0.1308011146176722 4.336808689942018e-19 -0.008438775504205704 -0.1166659515414534 -0.02132321668431162 -0.03558247883987816 0 0 0 0 
-0.1126735111473426 0.0542156729815761 -0.0223769490615534 -0.09734864510292716 -0.04636772148617119 0.0958567560680601 0.07008550208412892 -0.02027224691220055 -0.02990785747522028 -0.001254565401488761 0 
0 0.1308011146176722 4.336808689942018e-19 -0.008438775504205704 -0.1166659515414534 -0.02132321668431162 -0.03558247883987816 0 0 0 0 
-0.08731186899722218 0.2135886997225714 4.336808689942018e-19 -0.008438775504205702 -0.1774788524943368 -0.08344750739538218 0.1108840049243081 0 -0.02990785747522028 0 0 
-0.1266808355796362 0.2207718391306031 0 4.87890977618477e-19 -0.09288105707286907 -0.02132321668431162 0 0 0 0 0 
0.02423110273238902 0.3458019578694209 -0.06327601012378831 -0.01439984013949332 -0.3042329184394352 -0.07053609212439246 -0.1359353927140749 -0.01718559835425473 0.1175227900087635 0 -0.000149712104575593 
0 0 0 0 0 -0.02132321668431162 0 0 0 0 0 
-0.03440959763835565 0.1735288643418906 0 0 -0.207552672872645 0 0 0 0 0 0 
0.1911846709598792 0.02483651869026465 -0.04050227673380172 -0.02829669604125372 -0.1484906797984651 -0.0009799589422135654 -0.04962812264399772 -0.01562823239451566 0 0 -0.001686744141049606 
0.13085225448409 0.1595664717197673 -0.01826862615121658 -0.04030106804788011 -0.1316733546917327 0 -0.1065039631966462 -0.01627355707642565 -0.008553132933272473 0 0 
-0.03440959763835565 0.1735288643418906 0 0 -0.207552672872645 0 0 0 0 0 0 
-0.03440959763835566 0.1261501702869766 -0.001217057296000246 -0.01125619148576775 -0.03429201842545304 0 -0.03307842993817184 0 -0.008553132933272473 0 0 
-0.03440959763835565 0.1735288643418906 0 0 -0.207552672872645 0 0 0 0 0 0 
-0.03440959763835565 0.1735288643418906 0 0 -0.207552672872645 0 0 0 0 0 0 
-0.1635762450549445 -0.1576838569849114 -0.0802395632930812 -0.01969496698997346 0.5382350118361879 -0.05595070778768597 -0.1112361841439262 -0.0427678803978794 -0.03346934828366693 -0.01518155071921001 0 
-0.03440959763835565 0.1573210457694014 -0.01211623739523018 -0.001703969575616508 -0.2213981756350816 -0.02530388327759703 0.1368138638335697 0 -0.0195934248145437 -0.02868424699175532 0 
-0.04259027641380873 -0.1900665376103219 -0.04085777735021973 -0.05327182663383439 0.3525426482873138 -0.02823266990435912 -0.1037818672233752 -0.008018587194342031 0 -0.00328704583640016 -0.001989923249732489 
-0.1936079122034231 0.2603735277999059 -0.003767504980295095 -0.02966865220518001 0.004610163099617086 -0.08556394385866531 -0.04886623633904976 -0.05481397169238182 -0.0954131950709836 -0.0355374082743294 -0.004186681641918138 
8.673617379884035e-19 -0.1734469332285453 -0.04761035748984849 0.2371774865743029 -0.09849438630894329 0 0 0 0 0 0 
8.673617379884035e-19 -0.1734469332285453 -0.04761035748984849 0.2371774865743029 -0.09849438630894329 0 0 0 0 0 0 
8.673617379884035e-19 -0.1734469332285453 -0.04761035748984849 0.2371774865743029 -0.09849438630894329 0 0 0 0 0 0 
8.673617379884035e-19 -0.1734469332285453 -0.04761035748984849 0.2371774865743029 -0.09849438630894329 0 0 0 0 0 0 
8.673617379884035e-19 -0.1734469332285453 -0.04761035748984849 0.2371774865743029 -0.09849438630894329 0 0 0 0 0 0 
0 0 -0.0346696227533498 0.08971141705344093 -0.06900602568897146 0 0 0 0 0 0 
-0.02222528837185768 -0.05348576014983039 0.0266364848950341 0.07382369126311455 0.0893684980579635 -0.06969659352982088 0.1108569251650534 -0.04934788733988298 -0.04915999176559977 -0.003847405242897758 3.794707603699266e-19 
0 0 -0.0346696227533498 0.08971141705344093 -0.06900602568897146 0 0 0 0 0 0 
-0.02469372944412049 0 -0.01735995861563226 -0.006827774942674069 -0.0276356009973653 -0.03640397497835082 0.1802711375763131 0 -0.01790269142231521 0 0 
0.05305372277790266 -0.2587051468695202 0.1069594793327857 0.00724007668883977 -0.2128478737205497 0.06017361782106832 0.1870189600785564 0.07332805834065673 0.0475351434666684 -0.007198686392281382 -0.005304416471139297 
-0.05383917266911655 -0.1701799016555093 -0.01889606270712369 0.1150354468983407 0.1439562446651902 -0.04810050134310583 0.1452536143181005 -0.04015190867910823 -0.03521354329316183 0 -0.0005150103044787152 
-0.1312663418368512 -0.2678347030523384 -0.03061075137707801 -0.01605322596605738 0.03774643727863591 0.1679526673730984 0.1689918452753522 -0.03475806553550059 0.2400575960352335 -0.03603019828646963 -0.03320821520425878 
-0.02786016997285181 -0.041315595337501 -0.01735995861563227 -0.02996737901578959 -0.06895978500116205 -0.03640397497835082 0.2941937615408025 0 -0.01790269142231521 0 0 
-0.03163990081660881 -0.05644544963853225 -0.0287422412394288 -0.01227182726718418 -0.1100905073986816 0.2802226815108717 0.07406771917304028 -0.009760456523607155 -0.05889385168568068 -0.01047493134425164 -0.004950763187760309 
-0.02469372944412049 0 -0.01735995861563226 -0.006827774942674069 -0.0276356009973653 -0.03640397497835082 0.1802711375763131 0 -0.01790269142231521 0 0 
-0.02469372944412049 0 -0.01735995861563226 -0.006827774942674069 -0.0276356009973653 -0.03640397497835082 0.1802711375763131 0 -0.01790269142231521 0 0 
-0.02469372944412049 0 -0.01735995861563226 -0.006827774942674069 -0.0276356009973653 -0.03640397497835082 0.1802711375763131 0 -0.01790269142231521 0 0 
-0.02469372944412049 0.1228935451114903 -0.03059935302089681 -0.02067137102606032 -0.2036970847658539 -0.05030366703731773 0.1499620729025908 -0.001762728979083924 0.1372197556771591 -0.007327821929155749 2.710505431213761e-19 
-0.1061766394626598 0.1823160046435116 0 -0.01704269187509265 -0.01364413315075362 0 0 -0.001868114002082196 -0.007624064333369641 0 0 
-0.1422432326888052 0.02549910644543646 -0.005800394185106378 -0.01710524354186653 0.2136463145660936 -0.01490721849865838 0 -0.001868114002082196 -0.007624064333369641 -0.0007598320809605124 0 
0.007910408280904266 0.005288353826066773 0 -0.01704269187509265 0.04676252796716517 0 -3.469446951953614e-18 -0.001868114002082196 -0.007624064333369641 0 0 
-0.1061766394626598 0.1823160046435116 0 -0.01704269187509265 -0.01364413315075362 0 0 -0.001868114002082196 -0.007624064333369641 0 0 
-0.1061766394626598 0.1823160046435116 0 -0.01704269187509265 -0.01364413315075362 0 0 -0.001868114002082196 -0.007624064333369641 0 0 
-0.1061766394626598 0.1823160046435116 0 -0.01704269187509265 -0.01364413315075362 0 0 -0.001868114002082196 -0.007624064333369641 0 0 
-0.1061766394626598 0.1823160046435116 0 -0.01704269187509265 -0.01364413315075362 0 0 -0.001868114002082196 -0.007624064333369641 0 0 
-0.03526546375531765 0.1938964180788457 0 0 -0.02986556593797765 0 -0.0765106188127835 -0.006177396560563138 -0.01648512694822731 0 -0.0005207262925777775 
0.1040610180811306 0.2064875110584003 -0.02765963160911184 -0.001404303335286321 -0.1402138307340098 -0.03680526774350361 -0.0765106188127835 -0.01130593936896766 -0.03286640866806346 0 -0.0005207262925777775 
-0.03526546375531765 0.3533179257595676 0 -0.0007363160538575932 -0.1934473098304949 0 -0.0765106188127835 -0.006177396560563138 -0.01648512694822731 0 -0.0005207262925777775 
0.0599629260141245 -0.2300718245681269 -0.000948917186064825 0 -0.09554158763712939 -0.05219535228745018 0.1951944686272112 0.134899985210121 -0.01648512694822731 -0.001428466013873098 -0.004749432738883548 
-0.03526546375531765 0.1938964180788457 0 0 -0.02986556593797765 0 -0.0765106188127835 -0.006177396560563138 -0.01648512694822731 0 -0.0005207262925777775 
-0.0531021182942262 0.1353542820280888 0 0 -0.07912674509974285 0 0.07100581961399759 -0.0326126455554369 -0.01648512694822731 0 -0.0005207262925777775 
-0.03526546375531765 0.1938964180788457 0 0 -0.02986556593797765 0 -0.0765106188127835 -0.006177396560563138 -0.01648512694822731 0 -0.0005207262925777775 
-0.03121745661649281 0.2616482531026987 -0.1449124433750439 -0.0827907269489814 -0.1591125610730196 -0.2008885411653523 0.06915415000172145 -0.05128246591159502 0.1570107159668849 -0.07529067709320822 -0.006895808620871962 
-0.03526546375531765 0.1938964180788457 0 0 -0.02986556593797765 0 -0.0765106188127835 -0.006177396560563138 -0.01648512694822731 0 -0.0005207262925777775 
0 -0.06711479857915369 0 0 -0.1232796456797501 0 0.2247644263270016 0 0 0 0 
-0.07327158468099187 0.062778923226912 -0.02423703637396287 -0.2027262345739985 0.01157277380935909 0.1282768481731495 0.04499762136354685 -0.05620725755553702 -0.01505058772571508 -0.09043302124128465 -0.0392953994805014 
-0.06187617900277276 0.05236757437237387 2.168404344971009e-19 -0.03413886010155133 -0.07428181408605264 -0.0247774430370738 0.2139112870557384 -0.02653296438447478 -0.01264173434183877 -0.01477335431959835 -0.001062969886745394 
-0.05556952831863447 -0.08862484801099159 0.09036402890979797 -0.002552923594085482 0.2191974009430611 -0.1199231686378789 0.02237154067287327 -0.02499832956333384 -0.04493291264931294 -0.005387670950640808 -0.0003476570091915843 
3.469446951953614e-18 -0.3001092438729658 0 0 -0.1232796456797501 0 0.3437657551958657 0 0 0 0 
0.05009204364553203 0.03205876431654299 0.09036402890979797 -0.002552923594085482 -0.01725299298863905 -0.09676873700672464 0.03789879309886664 -0.02499832956333384 -0.03663070563702338 -0.005387670950640808 -0.0003476570091915843 
3.469446951953614e-18 -0.3001092438729658 0 0 -0.1232796456797501 0 0.3437657551958657 0 0 0 0 
0 -0.06711479857915369 0 0 -0.1232796456797501 0 0.2247644263270016 0 0 0 0 
0 -0.06711479857915369 0 0 -0.1232796456797501 0 0.2247644263270016 0 0 0 0 
0.1135503413267788 -0.1222030855803977 0.04271383735859852 0.149197620164107 -0.1169385756113132 -0.02540879585993728 -0.02195290769414622 -0.04979904442414332 0.1036147169646943 -0.02619253024207541 0 
-0.007056119390436267 0.2367811343453185 0 0 -0.2009533085187098 0 -0.0008576317035302031 0 0 0 0 
-0.1151680768923668 0.1276812515728382 -0.05623709405124018 -0.0731457249546929 -0.02349376476612517 -0.06455190974067861 0.1436039119115069 -0.03183901773988119 -0.01176489792517064 -0.00328704583640016 0 
-0.1403767454398608 0.1137592125361502 -0.009219918952195684 -0.02476193970257156 0.1009691834426847 0 -0.07249814521702376 0 0 0 0 
-0.007056119390436267 0.2367811343453185 0 0 -0.2009533085187098 0 -0.0008576317035302031 0 0 0 0 
-0.04666721543653746 0.07356154598442022 -0.009219918952195686 -0.02476193970257156 0.05508938672111634 0 -0.0008576317035302014 0 0 0 0 
-0.007056119390436267 0.2367811343453185 0 0 -0.2009533085187098 0 -0.0008576317035302031 0 0 0 0 
-0.1343017129401658 -0.01566908672963637 -0.01995533620964042 -0.03924526707366792 0.3120348242936224 -0.03816967200550578 -0.08055693132059848 -0.02298576000957348 -0.01025758036985155 0 0 
0.1181315904490747 0.139567281164999 0 -0.0142240048054793 -0.2067757931484513 0 -0.0008576317035302031 0 0 0 0 
0.1508930759711665 -0.07284950400939863 -0.002835195537339762 0 -0.02219041259500149 -0.004114949724258762 -0.01219243601591703 0 0 0 0 
0.05174847402475591 -0.1712509155094661 -0.002835195537339762 -0.004552829524517817 0.2481997808981105 -0.02495217198085532 -0.01899927932192369 2.710505431213761e-19 -0.003834128153812864 0 -1.084202172485504e-19 
0.1508930759711665 -0.07284950400939863 -0.002835195537339762 0 -0.02219041259500149 -0.004114949724258762 -0.01219243601591703 0 0 0 0 
0.1508930759711665 -0.07284950400939863 -0.002835195537339762 0 -0.02219041259500149 -0.004114949724258762 -0.01219243601591703 0 0 0 0 
0.1508930759711665 -0.07284950400939863 -0.002835195537339762 0 -0.02219041259500149 -0.004114949724258762 -0.01219243601591703 0 0 0 0 
0.1508930759711665 -0.07284950400939863 -0.002835195537339762 0 -0.02219041259500149 -0.004114949724258762 -0.01219243601591703 0 0 0 0 
0.04556376321421556 0.1082901504151813 -0.009336112902320363 -0.007329183931264662 -0.151587218203394 -0.004114949724258762 -0.01219243601591703 -0.001396267441422283 -0.02604077808752446 -0.002156672905811936 0 
0.1508930759711665 -0.07284950400939863 -0.002835195537339762 0 -0.02219041259500149 -0.004114949724258762 -0.01219243601591703 0 0 0 0 
0.1508930759711665 -0.07284950400939863 -0.002835195537339762 0 -0.02219041259500149 -0.004114949724258762 -0.01219243601591703 0 0 0 0 
0.09555755571296835 -0.09167680751642943 -0.006885206328191431 -0.02829669604125372 0 0 0 0 0 0 0 
0.3901665123278748 -0.2181754644304202 -0.04050227673380171 -0.02829669604125372 -0.0579077841791785 -8.673617379884035e-19 -0.05208654188013067 -0.01562823239451566 0 0 0 
0.09555755571296835 -0.09167680751642943 -0.006885206328191431 -0.02829669604125372 0 0 0 0 0 0 0 
0.09555755571296835 -0.09167680751642943 -0.006885206328191431 -0.02829669604125372 0 0 0 0 0 0 0 
0.09555755571296835 -0.09167680751642943 -0.006885206328191431 -0.02829669604125372 0 0 0 0 0 0 0 
0.09555755571296835 -0.09167680751642943 -0.006885206328191431 -0.02829669604125372 0 0 0 0 0 0 0 
0.09555755571296835 -0.09167680751642943 -0.006885206328191431 -0.02829669604125372 0 0 0 0 0 0 0 
0.1915122785107635 -0.01515806463756505 0 0 -0.1145927192692237 -0.005411017842863755 -0.0364059344308304 -0.007629656739209242 -0.01534637896299053 -0.002949212009366339 -0.002628668132794635 
0.3209662741958612 -0.1707565880306259 0 -0.02750900206715714 0.01931411183890428 -0.03402861737226623 -0.07736286686395136 -0.007629656739209242 -0.02517083217693425 -0.006682874091658979 -0.003422591179244506 
0.1915122785107635 -0.01515806463756505 0 0 -0.1145927192692237 -0.005411017842863755 -0.0364059344308304 -0.007629656739209242 -0.01534637896299053 -0.002949212009366339 -0.002628668132794635 
0.1097518657042869 -0.3093640331029735 -0.09788084003066375 -0.06553491685185391 0.1039626859013303 -0.08236748423122982 0.2746251160416769 0.06333547516297319 0.05017482608533858 -0.008269583746394119 -0.002628668132794635 
0.1915122785107635 -0.01515806463756505 0 0 -0.1145927192692237 -0.005411017842863755 -0.0364059344308304 -0.007629656739209242 -0.01534637896299053 -0.002949212009366339 -0.002628668132794635 
0.0363356528720361 -0.07884496617680728 -0.03743727907899001 0 0.1431050614151719 -0.04114758657274744 -0.05976130254182101 -0.0269578499895247 -0.01611912774572342 -0.002949212009366339 -0.002628668132794635 
0.1915122785107635 -0.01515806463756505 0 0 -0.1145927192692237 -0.005411017842863755 -0.0364059344308304 -0.007629656739209242 -0.01534637896299053 -0.002949212009366339 -0.002628668132794635 
0.0613678901688838 -0.07884496617680728 -0.03743727907899001 0 0.2510236123036186 -0.02661559134104156 -0.2077281514460241 -0.01055841695557311 -0.01611912774572342 -0.002949212009366339 -0.002628668132794635 
0.3765681090529582 -0.147389278522155 -0.0007174099233087541 -0.007129187817681798 -0.1534256887648148 -0.005411017842863754 -0.04772572388151823 -0.007629656739209242 -0.01534637896299053 -0.002949212009366339 -0.002628668132794635 
0.1915122785107635 -0.01515806463756505 0 0 -0.1145927192692237 -0.005411017842863755 -0.0364059344308304 -0.007629656739209242 -0.01534637896299053 -0.002949212009366339 -0.002628668132794635 
0 -0.02736279554588153 0 0 -0.05873934079751852 -0.01397763695225526 0.1361479191824889 -0.02167005012641184 0 -0.01444655272360187 0 
0 -0.02736279554588153 0 0 -0.05873934079751852 -0.01397763695225526 0.1361479191824889 -0.02167005012641184 0 -0.01444655272360187 0 
1.084202172485504e-19 -0.09589771239969005 0 0 0.08565744848755086 -0.05201770404165428 0.08527371655513595 -0.02167005012641184 0 -0.01444655272360187 0 
0 -0.02736279554588153 0 0 -0.05873934079751852 -0.01397763695225526 0.1361479191824889 -0.02167005012641184 0 -0.01444655272360187 0 
0 -0.02736279554588153 0 0 -0.05873934079751852 -0.01397763695225526 0.1361479191824889 -0.02167005012641184 0 -0.01444655272360187 0 
0 -0.02736279554588153 0 0 -0.05873934079751852 -0.01397763695225526 0.1361479191824889 -0.02167005012641184 0 -0.01444655272360187 0 
0 -0.02736279554588153 0 0 -0.05873934079751852 -0.01397763695225526 0.1361479191824889 -0.02167005012641184 0 -0.01444655272360187 0 
-0.006400503445072859 0.1490665923914372 0 0 -0.1904407280620232 -0.01397763695225526 0.1318442719850798 -0.02167005012641184 0 -0.01444655272360187 0 
-0.1342439346655843 -0.03138018923480276 -0.1216429766583109 0.07643901548945603 -0.05561762428270081 -0.07561382017014202 0.2240807611783898 0.09179054857341325 0.09536743212356504 -0.02608468254740352 -0.02228872312080368 
0.1189339610362429 -0.09372316359323236 -0.06480421165619256 -0.02845258699454991 0.1813855800916526 -0.1189747417129785 0.02517600656515341 -0.05879747433492279 -0.04758018409575897 -0.01945534518580848 -0.00361039023766332 
-0.1642375145495817 0.254497715146916 -0.006778297344344114 0 -0.01418979498500977 0 -0.04364777431290862 0 0 0 0 
0.05672771723279562 -0.165446259879453 -0.117190544686267 -0.04179247616091172 0.3200450807315849 -0.1111006231098466 -0.08468410147090125 -0.1016766476502931 -0.02959297060650047 -0.07926445816747656 -0.02079971190100789 
0.01361780645101464 0.2521772218050131 -0.03590555796429088 -0.0654767304088905 -0.309199759413551 0.02908191385113761 -0.02113162191794651 -0.0461052061034474 0.2109788408696646 -0.009780902002562269 -0.005439563446242029 
-0.1920477136427086 0.1811684264228104 -0.006778297344344114 -0.0001066474722983024 0.1149696379316594 0 -0.06200271962678727 0 0 0 0 
-0.02736256383468337 -0.02361057001595522 -0.006778297344344114 -0.001475318539809738 0.007820620731409685 -0.01375220040086494 0.1204072165162671 -0.03004161072291741 -0.04240895658966469 0 0 
-0.1920477136427086 0.1811684264228104 -0.006778297344344114 -0.0001066474722983024 0.1149696379316594 0 -0.06200271962678727 0 0 0 0 
-0.02736256383468337 -0.02361057001595522 -0.006778297344344114 -0.001475318539809738 0.007820620731409685 -0.01375220040086494 0.1204072165162671 -0.03004161072291741 -0.04240895658966469 0 0 
0.2314272102797263 0.3216125352376232 -0.0236091319362316 -0.1340700260063832 -0.5018014706456211 -0.1391238617810273 -0.1296601528945737 -0.1396279873433692 -0.09089574069125154 -0.005602508441052652 -0.0283924076115706 
-0.1679340373070935 0.1628410782891776 -0.009535046837213172 0 0.1379069053555435 0 -0.05511384227090378 -0.03613765756225352 0 0 -0.003621487677617333 
-0.1642375145495817 0.254497715146916 -0.006778297344344114 0 -0.01418979498500977 0 -0.04364777431290862 0 0 0 0 
-0.02630007619007195 -0.1495616717729827 -0.01322812290163604 0 0.1850890941839922 0 0 0 0 0 0 
-0.05883591285086013 0.03724128535654687 -0.01887158882696566 -0.07747873763632215 0.220038360665922 -0.03498750162581029 -0.1057372986502555 -0.03187348275023327 -0.01450997251345715 -0.0152603190457953 -0.0399220514806753 
-0.02630007619007195 -0.1495616717729827 -0.01322812290163604 0 0.1850890941839922 0 0 0 0 0 0 
-0.0656622910937488 -0.06319151434673535 0.1397198276276439 -0.01416495691097142 0.06488326805155754 0 -0.0199647488720809 0 0 0 0 
-0.02630007619007195 -0.1495616717729827 -0.01322812290163604 0 0.1850890941839922 0 0 0 0 0 0 
-0.02630007619007195 -0.1495616717729827 -0.01322812290163604 0 0.1850890941839922 0 0 0 0 0 0 
-0.02630007619007195 -0.1495616717729827 -0.01322812290163604 0 0.1850890941839922 0 0 0 0 0 0 
-0.02630007619007195 -0.1495616717729827 -0.01322812290163604 0 0.1850890941839922 0 0 0 0 0 0 
-0.1318365573585425 0.03830185522497112 -0.01322812290163604 0 0.1200979597121789 0 0 0 0 0 0 
-0.03645604308570576 0.2099970889112877 -0.04740595144152297 -0.01416495691097143 -0.02234578773904961 0 -0.0199647488720809 0 0 0 0 
0.1180028572064717 -0.002477695861029431 -0.1048361501054677 0.03304871983199716 -0.2706976744962599 0.05753913173696083 -0.001416222367258542 0.07193002475005887 -0.05652200834959965 0.08382193184096592 0.07345230632772334 
0.2579861663245237 0.01289680763301546 -0.0790637009858734 -0.01980087985793455 -0.09680128523550569 -0.03086837625010818 -0.09777134554847931 -0.02655790006829355 -0.03756055855643235 -0.02787942545797567 -0.03426499873877545 
-0.03645604308570576 0.2099970889112877 -0.04740595144152297 -0.01416495691097143 -0.02234578773904961 0 -0.0199647488720809 0 0 0 0 
-0.03645604308570576 0.2099970889112877 -0.04740595144152297 -0.01416495691097143 -0.02234578773904961 0 -0.0199647488720809 0 0 0 0 
-0.03645604308570576 0.2099970889112877 -0.04740595144152297 -0.01416495691097143 -0.02234578773904961 0 -0.0199647488720809 0 0 0 0 
-0.03645604308570576 0.2099970889112877 -0.04740595144152297 -0.01416495691097143 -0.02234578773904961 0 -0.0199647488720809 0 0 0 0 
0 -0.09252230571463996 0 0 -0.01464061710188825 0 0.1554304727286568 0 -0.02174792443397297 -0.007815372081825908 0 
-0.1761016026490436 0.1456591926762963 0.07377951715076822 -0.06336455361380131 -0.1105454931023729 0.0458846102039338 -0.009057921388783044 -0.02430892641206816 0.07794810201096272 0.06020321912464022 -0.02274104418606781 
0 -0.09252230571463996 0 0 -0.01464061710188825 0 0.1554304727286568 0 -0.02174792443397297 -0.007815372081825908 0 
-0.02353034003929025 -0.1590223765721472 -0.0368395931131345 -4.044364837322013e-05 0.05759189924240839 0.05794528886490287 0.1030704897950202 -0.003138243027724244 -0.05853324682410929 -0.007815372081825908 0 
0 -0.09252230571463996 0 0 -0.01464061710188825 0 0.1554304727286568 0 -0.02174792443397297 -0.007815372081825908 0 
0.144720720702386 -0.257190649437942 -0.03673920396632942 -4.044364837322013e-05 0.1052471407081185 -0.1325474099515698 0.1989688951587488 -0.003138243027724247 -0.02281507243530101 -0.007815372081825908 0 
0 -0.09252230571463996 0 0 -0.01464061710188825 0 0.1554304727286568 0 -0.02174792443397297 -0.007815372081825908 0 
-2.168404344971009e-19 -0.09252230571463996 0 0 -0.1099882665051553 -0.1173961527196599 0.3443031926396001 0 -0.02174792443397297 -0.007815372081825908 0 
0 -0.09252230571463996 0 0 -0.01464061710188825 0 0.1554304727286568 0 -0.02174792443397297 -0.007815372081825908 0 
0 -0.09252230571463996 0 0 -0.01464061710188825 0 0.1554304727286568 0 -0.02174792443397297 -0.007815372081825908 0 
0 -0.1595444523613635 -0.02927999278378574 0.1889634644457742 -0.02280101749382415 -0.02285887337608127 0 -0.01646906778149886 0 0 0 
-0.1823373372121229 0.1177436922648972 -0.1046865810860769 0.1480064192612375 0.04552411821898368 0.003771624349693563 -0.03319676016657203 -0.01888834016839887 -0.05199036644386243 -0.03163681584981766 -0.004186681641918141 
-0.00886125137696526 -0.08248043157264426 -0.02927999278378574 0.1405514791534475 0.06903417718238122 -0.02285887337608127 -0.06961539890478757 -0.01646906778149886 0 0 0 
0 -0.1595444523613635 -0.02927999278378574 0.1889634644457742 -0.02280101749382415 -0.02285887337608127 0 -0.01646906778149886 0 0 0 
0 0.006624829789699221 -0.0854326374835043 0.1559589213870928 -0.02280101749382415 -0.02285887337608127 -0.0590464413211255 -0.01989149656262071 0 0 0 
0 -0.1595444523613635 -0.02927999278378574 0.1889634644457742 -0.02280101749382415 -0.02285887337608127 0 -0.01646906778149886 0 0 0 
0 -0.1595444523613635 -0.02927999278378574 0.1889634644457742 -0.02280101749382415 -0.02285887337608127 0 -0.01646906778149886 0 0 0 
-0.07213276077280953 -0.07825292624916763 0.1430733219581573 0.1844623722706177 -0.06143915378771141 -0.04191527085291108 -0.05513008533279689 -0.01646906778149886 -0.03219670274923826 -0.00127438908505543 0 
0.1014912848681765 -0.2101012724788587 -0.04639954704758825 0.1708538012346109 -0.02280101749382415 -0.02285887337608127 -0.03383720193257262 -0.01646906778149886 0 0 0 
0 -0.02049492462315683 -0.0552620672338336 0 0.05911579571858769 0 0 0 0 0 0 
-0.08493564278912047 -0.007231961561217346 -0.0552620672338336 -0.03103211308810084 0.1286819287736628 -0.06266782800522103 -0.03730847658857837 -0.02860161869265716 -0.02095899943371843 -0.0002577634170065552 0 
-0.1056450962585472 -0.06270016841892261 -0.0552620672338336 -0.0279513340982143 0.185635679341999 0 -0.004991535786233046 0 -0.003785128481512807 0 0 
-0.02860618399815256 -0.2153337093193499 -0.0552620672338336 -0.0279513340982143 0.2629073528223741 0 0 0 -0.003785128481512807 0 0 
-0.0617570166135749 0.1637809910102746 -0.1055462953753884 0 0.0359176942678251 -0.02188415607422355 0 0 0 0 0 
-0.208044086989209 -0.2474959717178275 -0.08498672186155348 -0.02836203621875891 0.6027149706291169 -0.05445398221394793 -0.03401256223294936 -0.05500656380585117 -0.04213808368032214 -0.005390646226739675 -0.008992991941311371 
0 -0.02049492462315683 -0.0552620672338336 0 0.05911579571858769 0 0 0 0 0 0 
0.1839080625209123 -0.2369997575304135 0.1359288097560963 -0.001128267986524433 -0.03339272722930949 0 -0.03394335890390735 0 -0.02801066418565196 0 0 
0.130987451262938 -0.1860880652865116 0.005572150020680681 0.1502262435681292 0.04481643957148421 -0.07439809867179517 0.009595417962295558 -0.06229740521562455 -0.07355108582259177 -0.05227548287087812 -0.04349677476885037 
0 -0.2201854483492162 -0.01571033708913235 -0.004230086948391865 0.2030339316544468 0 0 0 0 0 0 
0.03266898166644389 -0.003573538116056141 -0.02162657366265002 -0.03089040535020053 0.08891161327790968 -0.0007148932083087956 -0.05194616866596737 -0.001870805052891059 -0.002022610647000919 -0.003721839532146316 0 
-0.026948622796868 0.1469457417798246 -0.02147811206740276 -0.006568037075386033 -0.1025662100854923 -0.08588981474531421 0.05083823984797324 -0.02646351974963513 -0.02495792315727098 -0.0003899414840288901 -0.005829357654209083 
0 -0.2201854483492162 -0.01571033708913235 -0.004230086948391865 0.2030339316544468 0 0 0 0 0 0 
-0.026948622796868 0.1469457417798246 -0.02147811206740276 -0.006568037075386033 -0.1025662100854923 -0.08588981474531421 0.05083823984797324 -0.02646351974963513 -0.02495792315727098 -0.0003899414840288901 -0.005829357654209083 
0 -0.2201854483492162 -0.01571033708913235 -0.004230086948391865 0.2030339316544468 0 0 0 0 0 0 
-0.02694862279686801 -0.09110921257663375 -0.01571033708913235 -0.006568037075386031 -0.0812370986930129 -0.08588981474531421 0.1756104387948687 -0.01340941154391607 -0.002549435609411177 -0.0003899414840288901 -0.004971177470523068 
-0.05198609808196095 -0.2700001113618001 -0.1237983320001903 -0.004230086948391865 0.4281568118158005 0 0 0 0 0 0 
0 -0.04560580487180232 -0.02166594295600566 0 -0.04447173256776119 0 0.1079129681602577 0 0 0 0 
-0.1897663583858613 -0.5051768425295552 -0.0561452855914603 -0.09175636837004034 -0.2333179537151377 -0.02253411319644382 1.007377769162368 -0.046139729328733 -0.01399060899358254 -0.01597462694094463 -0.01561523651546899 
0 -0.04560580487180232 -0.02166594295600566 0 -0.04447173256776119 0 0.1079129681602577 0 0 0 0 
-3.469446951953614e-18 0.08192610522834794 -0.02625358066344385 -0.02542528378870451 -0.04447173256776118 -3.973082652774064e-06 -0.00271429706936506 -0.001851275956190657 -0.01399060899358254 -0.004856583303714749 0 
0 -0.04560580487180232 -0.02166594295600566 0 -0.04447173256776119 0 0.1079129681602577 0 0 0 0 
0 -0.04560580487180232 -0.02166594295600566 0 -0.04447173256776119 0 0.1079129681602577 0 0 0 0 
0.1638950303037665 0.04809761001976326 -0.03952451687531251 -0.05081142348816337 0.0002604830383453327 1.734723475976807e-18 -0.02304627082050806 -0.0702600393294215 -0.001067148001328029 0 0 
0.1292375242686745 -0.04206412245285886 0.08074036461563266 0.0638303642347499 0.005199169685074286 -0.1125000501443623 -0.01465167171844996 -0.04708805771265757 -0.03672655685113847 0 -0.00443768653652896 
-0.170085393757557 -0.2457136321845512 0.1765160600113887 -0.143459031925558 0.3000328572492625 0.1437104832447564 -0.03605628370191328 -0.003327567604851119 -0.01582634814329657 -0.0346693750772948 -0.00378824951930502 
0 -0.04560580487180232 -0.02166594295600566 0 -0.04447173256776119 0 0.1079129681602577 0 0 0 0 
-0.007377243478501794 -0.06476477316997892 0 0 0.08577846529818473 0 -0.03604542075280683 0 0 0 0 
-0.1816974616023194 0.1597399110796884 0.05758061894998752 -0.04786837510033409 0.0331843237584596 -0.04068360365685555 0.05731863466111556 -0.03795375654198539 -0.009915677138533243 -0.007507691279936442 0 
0.08930139974014367 -0.03061041941499554 -0.03027974032223407 -0.05306501771792049 0.07814701140021654 -0.05479619665965191 0.1072090241988327 -0.0369365415641633 -0.02853705099168082 0 -0.01386923454366037 
-0.007377243478501794 -0.06476477316997892 0 0 0.08577846529818473 0 -0.03604542075280683 0 0 0 0 
-0.06007281825453416 -0.0647647731699789 0 0 0.228311759854062 -0.01884991572419447 -0.1097559466828917 0 0 0 -0.003935671248159582 
-0.007377243478501794 -0.06476477316997892 0 0 0.08577846529818473 0 -0.03604542075280683 0 0 0 0 
-0.007377243478501794 -0.06476477316997892 0 0 0.08577846529818473 0 -0.03604542075280683 0 0 0 0 
-0.07817700711397438 -0.1309648218501843 0 -0.01326264201970158 0.07389627436592718 0 0.1790462438755651 0 0 0 0 
-0.01705876959188848 0.1233008960760382 -0.0152192802482767 -0.009246171648380739 -0.05251808722410278 0 -0.03604542075280683 0 0 0 0 
-0.007377243478501794 -0.06476477316997892 0 0 0.08577846529818473 0 -0.03604542075280683 0 0 0 0 
0 -0.1031484460543775 0 0 0.1128608154248547 -0.006682176388159193 0 -0.01194626726261052 0 0 0 
0.02175462853029283 -0.2562046704630908 -0.08375363232304661 -0.02754926230531015 0.3660987633102183 -0.1009210119045656 -0.008663930104286443 -0.0423140089913945 -0.07157545210933659 -0.0498881380813053 -0.05607792824545749 
0.0626044155630352 -0.1053609929701765 -0.08375363232304661 0.004426062359570028 0.113167710396121 -0.1009210119045655 0.009903290746314436 -0.03554820726823318 -0.06610749818379789 -0.0498881380813053 -0.05607792824545749 
-0.1041870506375631 -0.04309979687972214 -0.08187937454283531 0.1461888315973917 0.27400393816372 -0.0619905122565582 -0.2465336453807843 -0.03554820726823318 -0.04144748493522492 -0.04626958037250294 -0.05607792824545749 
0 0.1724661172324916 -0.06682100807923161 -0.1370844880078773 0.08616167471826588 -0.01819163523924247 -0.02631921496325543 -0.01224269278460862 -0.01004892123542927 0 0 
0 -0.2310309257380046 1.734723475976807e-18 -0.005977476887686057 0.2318449099245648 -0.006682176388159193 0 -0.01194626726261052 0 0 0 
-0.06997890592282295 -0.1031484460543775 -0.01513401333736287 -0.02312918129988845 0.1128608154248547 -0.01383413469500739 -0.07357356891380115 -0.01194626726261052 0.1741130066654213 0 0 
0.2986566537756025 -0.3107293878972364 -0.05253553366927634 -0.01115145802353337 0.1725025578175169 0.07161960942853103 -0.0843305277113605 -0.03694459682594435 -0.02149962451594293 0 0 
0 -0.1031484460543775 0 0 0.1128608154248547 -0.006682176388159193 0 -0.01194626726261052 0 0 0 
-0.00823032647913483 -0.1660797972653791 -0.005184301774908183 0 0.1588747418072446 0 0 0 0 0 0 
-0.252350737406135 0.04843883228551058 0.04016808254467893 -0.1393875879894626 0.1607299835222488 -0.04174023883373412 0.2129948652088341 -0.008845481586734765 -0.08683202633869844 -0.02414534527269345 -0.005570352394768015 
-0.04492232716662636 -0.03147665472339257 -0.005184301774908183 0 0.06772722935388943 0 3.469446951953614e-18 0 0 -0.0152603190457953 0 
-0.1089815358674071 -0.04916369468999791 0.1757502590666203 -0.03028711836645344 0.06875305768236065 -0.004168155640924723 -0.1084888047830038 0 -0.01336803175225513 -0.007949119586320058 0 
-0.00823032647913483 -0.1660797972653791 -0.005184301774908183 0 0.1588747418072446 0 0 0 0 0 0 
-0.00823032647913483 -0.1660797972653791 -0.005184301774908183 0 0.1588747418072446 0 0 0 0 0 0 
0 -0.02862645461552736 0 0 0 0 0 0 0 0 0 
0 -0.02862645461552736 0 0 0 0 0 0 0 0 0 
-0.00886125137696526 -0.07293950890841723 0 -0.01690922104743346 0.1593317949230544 0 -0.03508901442593463 0 0 0 0 
-0.01167885416322843 -0.1478928152202321 -0.0255533568238979 -0.01690922104743346 0.2738455327955461 0 -0.0453034163769708 -0.009053250482454357 0 0 0 
-0.00886125137696526 -0.07293950890841723 0 -0.01690922104743346 0.1593317949230544 0 -0.03508901442593463 0 0 0 0 
-0.00886125137696526 -0.07293950890841723 0 -0.01690922104743346 0.1593317949230544 0 -0.03508901442593463 0 0 0 0 
-0.00886125137696526 -0.07293950890841723 0 -0.01690922104743346 0.1593317949230544 0 -0.03508901442593463 0 0 0 0 
0.1316848442552415 -0.1120313385750612 0 -0.01690922104743346 0.03202460416148209 0 -0.03508901442593463 0 0 0 -0.0004023799921763339 
-0.05119206863166377 0.1401802504966227 -0.0008904647464109708 0 -0.003056020309304898 -0.0005195329294426237 0 0 -0.0170895106720285 0 0 
-0.1393955598284252 -0.1336304239530578 0.1467083581787506 -0.01386802258030336 -0.08842817455711098 0.1763862619916868 0.1674308731063933 -0.1083117747933848 0.1192153712220554 0.03891410253849636 -0.009228478672335045 
-0.1164276004564297 -0.0006956209243510827 -0.00852782103479288 -0.001403509598122777 -0.04201221464756638 -0.08826963557159739 0.06617356099117493 0 0.2023371099616918 -0.01213793395924486 0 
0.1579341356214112 0.01765403231771636 -0.09276689046469477 -0.1045644242977321 0.1118486022703007 -0.008830543252920344 -0.2078113524239793 -0.06771459549340555 -0.06562941539556189 -0.01438000561084866 -0.03556394812687829 
-0.05119206863166377 0.1401802504966227 -0.0008904647464109708 0 -0.003056020309304898 -0.0005195329294426237 0 0 -0.0170895106720285 0 0 
0.1580093506422567 -0.05547627321722208 -0.01990400520614638 -0.01428655647225317 0.01131315723067633 -0.01615643055927533 -0.1132989982093026 -0.02292498738338543 -0.0170895106720285 -0.0001478337661833666 -0.007689459172004131 
-0.05119206863166377 0.1401802504966227 -0.0008904647464109708 0 -0.003056020309304898 -0.0005195329294426237 0 0 -0.0170895106720285 0 0 
0.1071604649233692 0.08667124922343114 -0.0008904647464109708 0 -0.1204295068367029 -0.0005195329294426237 0 0 -0.0170895106720285 -0.0001478337661833675 0 
-0.05119206863166377 0.1401802504966227 -0.0008904647464109708 0 -0.003056020309304898 -0.0005195329294426237 0 0 -0.0170895106720285 0 0 
-0.05119206863166377 0.1401802504966227 -0.0008904647464109708 0 -0.003056020309304898 -0.0005195329294426237 0 0 -0.0170895106720285 0 0 
-0.01866524789981427 -0.1475301748167464 0 -0.02830580402423166 0.2199151890867355 0 -0.006652761629920178 0 0 0 0 
-0.08536032859866062 0.1388594825769388 -0.05215423228870184 0.1940470173448969 -0.0747662126102563 -0.1334207719412132 -0.001952465185171719 -0.02459569658952292 -0.06760419373215162 -0.04371255730853891 -0.0296833556472044 
-0.1651925240102741 0.0603361258879105 0.05816113179085331 -0.142556934920432 0.2279977760047868 -0.0864207516301235 -0.03069412310509504 1.084202172485504e-18 -0.03582755009148627 -0.009745567463934597 -0.002337191917052191 
-0.01866524789981427 -0.1475301748167464 0 -0.02830580402423166 0.2199151890867355 0 -0.006652761629920178 0 0 0 0 
0.1407305138973157 -0.3621553428243509 -0.01995533620964042 -0.02830580402423166 0.2347869482549968 0 -0.006652761629920178 -0.006799581577260417 0 0 0 
-0.01866524789981427 -0.1475301748167464 0 -0.02830580402423166 0.2199151890867355 0 -0.006652761629920178 0 0 0 0 
-0.01866524789981427 -0.1475301748167464 0 -0.02830580402423166 0.2199151890867355 0 -0.006652761629920178 0 0 0 0 
-0.01866524789981427 0 0 0 0 0 0 0 0 0 0 
-0.06483149134081617 0 -0.01995533620964042 0 0.00334446567986029 0 0 -0.00167103876885589 0 0 0 
-0.1303440201383765 -0.162977169554023 0.08752888399885854 -0.02012484599055977 0.2580746109735206 -0.007443066853758157 -0.03529713136465668 -0.0230033315716957 -0.0009277015179779663 0 -0.001062377872628483 
-0.06483149134081617 0 -0.01995533620964042 0 0.00334446567986029 0 0 -0.00167103876885589 0 0 0 
-0.06483149134081617 0 -0.01995533620964042 0 0.00334446567986029 0 0 -0.00167103876885589 0 0 0 
-0.06483149134081617 0 -0.01995533620964042 0 0.00334446567986029 0 0 -0.00167103876885589 0 0 0 
