solver_type L2R_L2LOSS_SVC_DUAL
nr_class 11
label 1 2 3 4 5 6 7 8 9 10 11
nr_feature 5957
bias -1
w
0.09031213557975185 -0.02842497177060284 -0.0004578278097663666 -0.007800079128023796 -0.06156781333226962 -0.005054072570901054 -0.0217141998744619 -0.01369042543754213 -0.000365171695152674 -0.009946116707925629 -0.00311939653280038 
-0.1103931805191717 -0.01722324711085012 -0.1496770829840391 0.02029446989265578 -0.1362306633957845 -0.1251405172858144 -0.0877036920396403 -0.08617433069057541 -0.1259354682748886 -0.1178673426754027 -0.1773538590863313 
0.06400595504125822 -0.217281650280636 -0.0440763723991287 0.1051630373365506 -0.04500100376715702 -0.002196243614820275 -0.01323953034265148 0.03239314351252882 -0.008482189791439269 0.08691382519705476 -0.03336461990164186 
-0.06319300524610404 0.04031456714555983 -0.1137662661132208 -0.01382115642119302 -0.01019963185463181 -0.004658884090324239 -0.04041226427468336 0.08415592419530687 -0.03603600562575489 0.06380680966646476 -0.04911790054649914 
0.107477684409852 -0.01687218050757295 -0.03139453470830247 -0.08492875671964861 0.004252985553311901 -0.006050097405707344 -0.01674389860832168 0.04510632073599304 -0.003658133378035905 -0.02793733282189811 -0.03336461990164187 
0.1137105518564602 -0.05577442808704504 -0.04962663003394919 -0.03734770394291748 0.02926680568954196 -0.005054072570901051 -0.02713643778838612 -0.02000979643762022 -0.006358950851396445 -0.01275670687752294 -0.003119396532800382 
0.06552034387525017 -0.0954289984453026 0.1018439901812657 -0.03292407770612935 0.02097819844042947 -0.01298246401007926 -0.04359425004193893 -0.02217586548076287 -0.003658133378035905 -0.01145844966994208 -0.01311106674732058 
0.09031213557975185 -0.02842497177060284 -0.0004578278097663666 -0.007800079128023796 -0.06156781333226962 -0.005054072570901054 -0.0217141998744619 -0.01369042543754213 -0.000365171695152674 -0.009946116707925629 -0.00311939653280038 
0.09031213557975185 -0.02842497177060284 -0.0004578278097663666 -0.007800079128023796 -0.06156781333226962 -0.005054072570901054 -0.0217141998744619 -0.01369042543754213 -0.000365171695152674 -0.009946116707925629 -0.00311939653280038 
0.09031213557975185 -0.02842497177060284 -0.0004578278097663666 -0.007800079128023796 -0.06156781333226962 -0.005054072570901054 -0.0217141998744619 -0.01369042543754213 -0.000365171695152674 -0.009946116707925629 -0.00311939653280038 
-0.1527103713464352 -0.07830552242058135 -0.1359741682960974 -0.1557709167289676 -0.1031556524915009 -0.1588416076131241 -0.1909904548227386 -0.1846976622928082 -0.1779312107203146 -0.1751634286370445 -0.1747183029401748 
-0.1746778046896427 -0.08524731869647269 -0.1725378182208083 -0.1394869342543356 -0.1138598383277726 -0.174070309083582 -0.1548411626548657 -0.1918813468552609 -0.1843316203658227 -0.1937513882749985 -0.1788761632315507 
0.02244728115649729 0 -0.0004578278097663666 -0.004624744510578808 -0.01239520097752419 0 -0.01031651664854949 0 0 -0.00331732136076516 0 
0.06375310401915735 -0.1585185726510928 -0.050831303681554 0.1100442890060399 -0.01938743237707678 -0.0841914745836799 -0.1422862999176169 -0.1393697068244688 -0.08132386330511164 -0.02832958307997584 0.01994718592217116 
0.02244728115649729 0 -0.0004578278097663666 -0.004624744510578808 -0.01239520097752419 0 -0.01031651664854949 0 0 -0.00331732136076516 0 
0.01836822220431558 1.734723475976807e-18 -0.02746308548926596 -0.004860001675269065 -0.02012225502746239 0.0604340071397611 -0.02832953299418504 0 0 -0.004630621938076708 -0.000107150910036469 
-0.01944231065789163 0.06471083340190924 -0.1154710949070939 -0.1676023662553955 -0.08440617377174833 -0.1262514031332073 -0.05552442645534252 -0.1223720633027182 -0.09126189364072443 -0.107219224988558 -0.07392608610225013 
0.1088479862206685 -0.1143701303138175 -0.05403955756939856 -0.05951739717127284 0.07918416401146811 -0.05466477593456955 -0.1119859264169902 -0.03019255085099533 -0.02643548733566318 -0.03167862249768064 -0.008812948950065746 
0.1786270529330785 -0.06217780552335965 -0.03338618344621262 -0.03327371670552556 -0.1117076031045854 -0.04070291949974091 -0.06168735945986294 -0.03005735151686247 -0.02273521107368166 -0.02943206802864406 0.006088673255172599 
0.09031213557975185 -0.02842497177060284 -0.0004578278097663666 -0.007800079128023796 -0.06156781333226962 -0.005054072570901054 -0.0217141998744619 -0.01369042543754213 -0.000365171695152674 -0.009946116707925629 -0.00311939653280038 
0.09031213557975185 -0.02842497177060284 -0.0004578278097663666 -0.007800079128023796 -0.06156781333226962 -0.005054072570901054 -0.0217141998744619 -0.01369042543754213 -0.000365171695152674 -0.009946116707925629 -0.00311939653280038 
-0.04249979324573461 -0.1251479267030766 -0.0347559938869517 0.02831030468957414 -0.01408579097362727 -0.07546235235152664 -0.02099337482045074 -0.1006571280281267 -0.06327076797194021 -0.08283634776238794 -0.05681306181858576 
-0.01761042576692916 -0.0410440704842589 -0.02942291201384678 -0.05407153624536196 -0.0009420324624137728 -0.01837757051057039 -0.07222913348084056 -0.03304608063120594 -0.04396445974704358 -0.06342616067845827 -0.02260648743097551 
-0.02506126063734588 0.0288575042766277 -0.02527197927688394 -0.0528207962369223 0.0001367428090861616 -0.05055928516301856 -0.01778867276789212 -0.01986139093662345 -0.03074668895256815 -0.01601432655193513 -0.01646286422822245 
-0.006564686215952529 -0.0291570203898785 0.03122317415066935 -0.02888518621161341 -0.02635923570630774 -0.007526929263420907 0.02429050989079302 0.00500002249921434 -0.02074219166990477 -0.01795939873166388 0.007620897284802942 
-0.02340704443761062 -0.01082443130137754 0.03929272862684125 -0.03940739858345555 0.006284962999436068 0.01564674554197463 -0.01534333308869792 0.009501604734880972 -0.0004734250676196182 -0.01215631994469185 -0.01975486083027136 
-0.02391204781747115 -0.01824705814576767 -0.002825499118173845 -0.02226038182146214 0.05657776409506163 -0.01793931825533059 0.0276372111955569 0.001776404032848513 0.005520747821900714 -0.01244117881537353 -0.03621140476196405 
-0.03295799219024806 -0.06316049822771391 0.06535703469817813 -0.006951084844938336 0.07237616160635883 -1.231461117632388e-06 0.02023776055202108 -0.05682925824089843 -0.001490993623699586 -0.00331732136076516 -0.02849068231316244 
0.00808876842419913 -0.008777710420114361 0.112503803861613 -0.05759289060086231 -0.009104573867477686 -1.231461117628919e-06 0.02023776055202108 -0.05305870192074393 -0.001490993623699586 -0.00331732136076516 -0.02849068231316244 
0.01574061952371948 -0.05883952220966796 0.07453736411933995 -0.05360086526836491 0.01511822538051022 -5.421010862427522e-20 0.02721553641950704 -0.006319371000078099 -0.001490993623699586 -0.00331732136076516 0 
0.01574061952371949 -0.05382379659336425 0.0092907404698679 -0.03479924857533416 0.01758010963777635 -5.421010862427522e-20 0.04370586528035748 -0.006319371000078099 -0.001490993623699586 -0.00331732136076516 0 
0.02244728115649729 0 -0.0004578278097663666 -0.004624744510578808 -0.01239520097752419 0 -0.01031651664854949 0 0 -0.00331732136076516 0 
0.02244728115649729 0 -0.0004578278097663666 -0.004624744510578808 -0.01239520097752419 0 -0.01031651664854949 0 0 -0.00331732136076516 0 
0.02244728115649729 0 -0.0004578278097663666 -0.004624744510578808 -0.01239520097752419 0 -0.01031651664854949 0 0 -0.00331732136076516 0 
0.02244728115649729 0 -0.0004578278097663666 -0.004624744510578808 -0.01239520097752419 0 -0.01031651664854949 0 0 -0.00331732136076516 0 
0.02244728115649729 0 -0.0004578278097663666 -0.004624744510578808 -0.01239520097752419 0 -0.01031651664854949 0 0 -0.00331732136076516 0 
0.02244728115649729 0 -0.0004578278097663666 -0.004624744510578808 -0.01239520097752419 0 -0.01031651664854949 0 0 -0.00331732136076516 0 
-0.0282869312149579 -0.1284465091951358 -0.09293968052628014 -0.035982230901987 -0.00394409675405268 -0.0267765560027729 0.001224203088183844 -0.03581188305877704 -0.06992971303433462 -0.04260543284953131 -0.04579865512602476 
-0.0407590218667325 -0.08531757546955926 -0.05553709098405128 -0.06082656039119077 0.02252545402411109 -0.03463348799361553 0.07529084949929983 -0.06175274934897216 -0.04013180231941997 -0.008144124264882284 -0.006216415853552107 
0.02397882027310829 -0.07794563739082058 -0.02019637483274318 -0.001823788555645249 -0.05030601789130067 -0.008502917408326306 0.03737609534563741 -0.03274460355806486 -0.02462849770842695 0.00746001420840243 -0.04277124651435336 
0.01949595223354769 -0.0355299362724929 -0.06244719585104408 0.02737542377197854 -0.01075450363621545 -0.01680717493733531 0.01197652422539813 -0.01633696667525992 -0.01284279104362793 -0.01507432949643188 -0.01309324672810759 
0.03712921980377924 0.0307964155574723 -0.06295386725244143 0.01104835522789729 -0.001993931678000475 -0.008231602029104062 0.0002988857299121715 -0.005730467257339831 -0.0009465429024470682 -0.006669994004553381 -0.01726369215590478 
0.03712921980377924 0.0307964155574723 -0.06295386725244143 0.01104835522789729 -0.001993931678000475 -0.008231602029104062 0.0002988857299121715 -0.005730467257339831 -0.0009465429024470682 -0.006669994004553381 -0.01726369215590478 
0.02208607293296112 -0.04134030634884126 -0.0004578278097663666 -0.01447114506623156 -0.01239520097752419 0 0.04169573986075008 -0.004087157435702869 0 -0.005863702592323366 0 
0.02208607293296112 -0.04134030634884126 -0.0004578278097663666 -0.01447114506623156 -0.01239520097752419 0 0.04169573986075008 -0.004087157435702869 0 -0.005863702592323366 0 
0.02244728115649729 0 -0.0004578278097663666 -0.004624744510578808 -0.01239520097752419 0 -0.01031651664854949 0 0 -0.00331732136076516 0 
0.02244728115649729 0 -0.0004578278097663666 -0.004624744510578808 -0.01239520097752419 0 -0.01031651664854949 0 0 -0.00331732136076516 0 
0.02244728115649729 0 -0.0004578278097663666 -0.004624744510578808 -0.01239520097752419 0 -0.01031651664854949 0 0 -0.00331732136076516 0 
0.02244728115649729 0 -0.0004578278097663666 -0.004624744510578808 -0.01239520097752419 0 -0.01031651664854949 0 0 -0.00331732136076516 0 
0.02244728115649729 0 -0.0004578278097663666 -0.004624744510578808 -0.01239520097752419 0 -0.01031651664854949 0 0 -0.00331732136076516 0 
0 0.01246260514348487 0 0 0 0 0 0 0 -0.01980293695990741 -0.00451944651648189 
-0.06428462417047108 -0.06802407158562274 -0.02286073523676924 -0.1597814041469915 0.02237082506801217 -0.04892979179776766 -0.06713747061522686 -0.105707016164686 -0.05839615209093411 -0.07588404559959583 -0.001522304145219432 
-0.05502056554393637 0.08364245817584764 -0.0120123917318535 -0.02974765018807752 0.04911256063298378 0 -0.005422237913924229 0 -0.004502785532544185 -0.04633554829705525 -0.00451944651648189 
-0.002816907088469449 0.3211834801757112 -0.155251740778766 -0.03333162247097794 -0.05070517265339356 -0.06536538233966971 -0.08361926718072721 -0.06165588926151341 -0.02598464628278042 -0.0470278474222084 0.04486696727550565 
-0.03156001298240519 0.08868912010470281 0 -0.01179924006873177 -0.009349013014813966 0 0 1.355252715606881e-20 0 -0.04352495812745794 -0.00451944651648189 
-0.01899662798700838 0.06637200638572918 -0.01545911720880582 -0.002740856448594867 -0.01947474603345604 -0.000130245034742836 -0.03947053440600307 -0.09112154242983153 -5.421010862427522e-20 -0.01980293695990741 0.1224495430429722 
0 0.01246260514348487 0 0 0 0 0 0 0 -0.01980293695990741 -0.00451944651648189 
0 0.01246260514348487 0 0 0 0 0 0 0 -0.01980293695990741 -0.00451944651648189 
0 0.01246260514348487 0 0 0 0 0 0 0 -0.01980293695990741 -0.00451944651648189 
0 0.01246260514348487 0 0 0 0 0 0 0 -0.01980293695990741 -0.00451944651648189 
-0.01461948104653808 0.001640331725730731 0 -0.01952585443286209 -0.01321357626778886 0 -0.003206802822826015 -0.005768963865324225 0 0.02983313961842549 -0.005087570523975772 
-0.008038704725638236 -0.006292150501598783 -0.03074562119574099 0.05181996999357723 5.421010862427522e-19 0 0 0 0 -0.01980293695990741 -0.00451944651648189 
0 0.01246260514348487 0 0 0 0 0 0 0 -0.01980293695990741 -0.00451944651648189 
0 0.01246260514348487 0 0 0 0 0 0 0 -0.01980293695990741 -0.00451944651648189 
-0.1552354940317511 -0.149958152098382 -0.05706672331371427 0.02811543200105988 -0.02945366455602436 -0.04781890595037479 -0.09931673619952483 -0.06950928355254325 -0.09306972672509838 -0.08653216328644053 -0.1049500771293005 
-0.09620654321035135 -0.0685916555774037 -0.03793877346153216 0.1121641231671469 -0.1613291053500362 0.009739447939319129 -0.05810580412548479 -0.09497423789387914 -0.05687598932341377 -0.06016944508988459 -0.0701081026394506 
-0.05420693410877753 -0.04118413117938326 -0.007264672112922088 -0.09755064890565518 -0.08625052817594972 0.08401011316110128 -0.05647290477613543 -0.05533004116672858 -0.03324816684535537 -0.0472322733141661 -0.04129406839084983 
-0.03989396137754982 0.01952223349731836 0.06081999814870833 -0.004498559145321915 -0.01051303612705387 -0.160637448349352 -0.04504417262592809 -0.0008267204872172093 -0.01243406342753748 -0.02680920452352848 -0.0295133319227231 
-0.01691918224963905 0.08587416160112882 0.03134367690613234 -0.1335109369844507 -0.02332908468154008 -0.09410857592238255 -0.0006146534271472474 0.04505814909876949 -0.04860377837304023 -0.01137084992114394 -0.006625540996603498 
-0.02986454624432822 -0.0247423957954724 0.02424458113138902 -0.03440410832655058 0.06338842460806197 -0.06090380688261141 0.06774437367191111 -0.03910275092742663 -0.02238171604805895 0.01377093840403739 -0.02807817701975671 
-0.003865231684837486 0.06349354462277843 -0.08130532467923157 0.01749268124117263 -0.1071208201172401 -0.01822150002086524 0.07406981105120897 -0.02250842933853899 -0.02114498593492604 0.02340434278425346 -0.02787803804214242 
0.01833351829612564 0.03218901625949102 0.02069039905746819 -0.04360298253706864 -0.03202409663423719 -0.06996531225451978 -0.01579306187036376 -0.006771466155538393 -0.007024697687577025 0.03936378924472818 -0.05900110808890178 
0.02180079818512274 0.04517242516088402 -0.08253640526885572 -0.09336353815042135 0.05110097839437014 -0.03360868433608023 -0.01197465872360194 -0.03266106105795646 -0.01195695453219661 0.09646033502898896 -0.008677306807857874 
0.01953994004267662 0.02732840852930864 -0.05024391097344996 0.01226628050838505 -0.05623570000418564 -0.02436115127721417 -0.004452707805988282 -0.01670871949549263 -0.006400409645508014 0.04071739880676524 -0.008677306807857874 
0.04150737338588405 0.03427020480519998 -0.01368026104873903 -0.004017701966246848 -0.0455315141679138 -0.009132449806756331 -0.04060199997386117 -0.009525034933039897 -4.336808689942018e-19 0.05930535844471931 -0.00451944651648189 
-4.336808689942018e-19 -0.02569126584280501 0 0.06328559537401324 -0.02076291639101611 0 0 0 0 -0.02145637269505395 -0.00451944651648189 
0 0.01246260514348487 0 0 0 0 0 0 0 -0.01980293695990741 -0.00451944651648189 
0 0.01246260514348487 0 0 0 0 0 0 0 -0.01980293695990741 -0.00451944651648189 
0 0.01246260514348487 0 0 0 0 0 0 0 -0.01980293695990741 -0.00451944651648189 
-0.04700763910155735 0.04503719026535503 -0.1266316440595323 -0.09141409801466918 -0.08059046342454164 -0.03923454022694076 -0.07617211384786422 -0.03568355010495228 -0.07289666055258914 -0.04866770289940643 -0.02980505238623822 
-0.01733815362197859 0.1117004170646575 -0.07740399335677103 -0.07697700386736658 -0.04751654691972613 -0.05119457576774857 -0.03666666747185818 -0.03289901975076349 -0.02848192001300019 -0.01155649618003 -0.02318022769848805 
-0.05403309920449269 0.04372273917954335 -0.01606622497223878 -0.05935744282547325 -0.02149167572065755 -0.0262035056886098 0.01517362685337956 -0.02305208582423371 -0.01953441567594255 0.009762914726710786 -0.01808590907618234 
-0.03651318999220377 0.02619713653321055 -0.02680285843823793 -0.06222184124942533 -0.02149167572065755 -0.02023529856917764 0.04821440134996462 -0.008075628147570971 -0.01496673573702264 -0.004331866012935523 -0.01763097902608771 
-0.02744747762164051 0.04873896246132831 -0.04720314340846934 -0.05942523639364572 -0.01370515920026657 -0.007548512487850241 0.02454686321489322 0.002996320652301996 -0.006306853918476637 0.01178841577813971 -0.0138892313664074 
-0.02555399953214339 -0.02607426980958845 -0.0001704465758270441 -0.03909193006931842 -0.01370515920026657 -0.003685142921471375 0.03220542817957389 0.03000862579869279 -0.004500189231404362 0.02538035176017038 -0.005087570523975772 
-0.01461948104653808 -0.02033170949679693 2.276824562219559e-18 -0.03252783117161598 -0.01321357626778887 0 -0.0196227772471306 0.03103452684995572 0 0.02538035176017038 -0.005087570523975772 
-0.01461948104653808 0.001640331725730731 0 -0.01952585443286209 -0.01321357626778886 0 -0.003206802822826015 -0.005768963865324225 0 0.02983313961842549 -0.005087570523975772 
-0.01461948104653808 0.001640331725730731 0 -0.01952585443286209 -0.01321357626778886 0 -0.003206802822826015 -0.005768963865324225 0 0.02983313961842549 -0.005087570523975772 
-0.06196672815378956 0.001440348548397058 -0.06979333148321949 -0.03493453309782395 -0.03437701875778321 -0.05982635844979743 -0.09483101314633458 -0.05626353994190074 -0.06078286953795834 -0.09587347239416903 -0.1186560948998455 
-0.06462728902960053 0.02804216312637739 -0.04213178763481246 0.003074789605427302 -0.03449620808649808 -0.01465190173753687 -0.03264755250890211 0.01735677236653435 -0.02407837593191955 -0.03330723230605463 -0.05648077251482196 
-0.02562079802151095 0.05235881815597059 -0.04773871921951467 0.0489353522759808 -0.02334345620808961 0.01542719326991832 -0.03944186749270617 -0.05960650278382319 -0.007010909241675998 -0.0219916796371307 -0.01789963924666697 
0 0.1046053138989121 -0.06308672366537722 0.04066824248267453 0 0 -0.06172346300043517 -0.04171933521337749 4.336808689942018e-19 -0.01980293695990741 -0.0110792429560292 
0 0.0665471751158323 -0.06308672366537722 0.04481696442828987 0 0 -0.06172346300043517 0 -4.336808689942018e-19 -0.01980293695990742 -0.00451944651648189 
0 0.01246260514348487 0 0 0 0 0 0 0 -0.01980293695990741 -0.00451944651648189 
0 0.01246260514348487 0 0 0 0 0 0 0 -0.01980293695990741 -0.00451944651648189 
0 0.01246260514348487 0 0 0 0 0 0 0 -0.01980293695990741 -0.00451944651648189 
0 0.01246260514348487 0 0 0 0 0 0 0 -0.01980293695990741 -0.00451944651648189 
0 0.01246260514348487 0 0 0 0 0 0 0 -0.01980293695990741 -0.00451944651648189 
-0.007651851099520353 -0.04204382839918036 0.05933826457458127 0 -0.01540176688795175 0 -0.006977775867485957 0 0 0 0 
-0.03253137399190347 -0.08394051710103631 0.03474987694180032 0.247006846549471 0.001179820463985087 -0.06189820488807601 -0.1817958162501686 0.007032812302721545 -0.01685152919110923 -0.03318163385332931 -0.05003560592764249 
0.01170973181609963 -0.05768620498178513 -0.03581706555633583 -0.06983668016433414 -0.08296240946158392 0.004554697256716915 0.05710027080212234 -0.01521610660560705 0.0748488032464641 -0.0335655468427252 -0.04183652272365638 
-0.02553495072435861 -0.01808026497478514 0.1321710195206817 -0.1210578745071537 0.06376261174584215 -0.01201138370323961 0.03363507769053765 -0.01432716997637547 -0.005179664786784418 -0.007317050162119277 -0.01183146076257583 
0.1733482913627488 -0.05184021179298464 -0.01484495941884325 -0.03927178423842872 -0.03639794546585835 0.04701030444672123 -0.03174372521901967 -0.04233001971655322 -0.01014536604681791 0 -0.0001147561615539033 
-0.007651851099520353 -0.05089958595395413 0.1228768599551311 -0.1080534334766246 0.07567899144512361 0 -0.03648955720582734 0 0 -0.007317050162119277 -0.007621091464432838 
0.1896726923187344 -0.05184021179298464 -0.01484495941884325 -0.03927178423842872 -0.03639794546585836 -0.002502011436673945 -0.006977775867485957 -0.04134050303824006 -0.004048657648275704 0 -0.0001147561615539042 
-0.007651851099520353 -0.05089958595395413 0.1228768599551311 -0.1080534334766246 0.07567899144512361 0 -0.03648955720582734 0 0 -0.007317050162119277 -0.007621091464432838 
0.0537844365071612 -0.05184021179298465 0.05034418339548817 4.336808689942018e-19 -0.0195313571527213 0 -0.006977775867485957 -0.00832037515631491 0 0 0 
-0.007651851099520353 -0.04204382839918036 0.05933826457458127 0 -0.01540176688795175 0 -0.006977775867485957 0 0 0 0 
-0.007651851099520353 -0.04204382839918036 0.05933826457458127 0 -0.01540176688795175 0 -0.006977775867485957 0 0 0 0 
-0.007651851099520353 -0.04204382839918036 0.05933826457458127 0 -0.01540176688795175 0 -0.006977775867485957 0 0 0 0 
-0.01897007139055314 -0.02812959928888171 -0.02034452890487181 -0.08274927544072372 0.05541763750895669 -0.06622568859709392 -0.04573846099228162 -0.09205106971278869 -0.01353542855106351 -0.06446876520184128 -0.05674692278578034 
-0.1282902968785602 0.1790809637157272 -0.06143153733769542 -0.1080849690841228 -0.1635903377832166 -0.07158662719863777 0.05646149996164763 -0.0921795124517229 -0.06482640630506117 -0.07554060249087732 -0.06511313715218446 
-0.109125002658983 0.08506067219571457 -0.002737378758793003 -0.05591094991509464 -0.1048022464465155 -0.03660166937534914 0.05609784536162698 -0.04239019048259919 -0.0399411693905249 -0.05324700272550693 -0.04934989840946782 
-0.07436931921892467 -0.04702804890169106 -0.004812369213306348 -0.03191155392252527 -0.0574762872917681 -0.02728651317228829 0.1529570875982269 -0.0298205653018955 -0.0205274025825265 -0.04069042670941697 -0.02717695452180453 
-0.04994641739126 0.03607074940075845 0.05973003661357269 0.04093172271821777 -0.02372755861219745 -0.01515196099857386 -0.05941176293745739 -0.0247075068149297 -0.01209620402721849 -0.02487627771916608 -0.01390257203478578 
-0.04331446024995077 0.01541898160727094 0.08636290473126568 7.798478597865295e-05 -0.01540176688795175 -0.006230231533901761 -0.0393776695599392 -0.02223081584806202 -0.006487990908530084 -0.0102868665845705 -0.01195709731324019 
-0.02080208552008927 0.05728466449956712 0.09809505384315617 -0.01183970754947408 -0.01540176688795175 -0.0004894446018089669 -0.09733257559013062 -0.01891144390465863 -0.005989454975546108 -0.004676760791746533 -0.002439495557782694 
-0.009537923565890886 0.08173284476913489 0.0286242577830853 -0.01183970754947407 -0.01540176688795175 -0.0004894446018089669 -0.06410525114779458 -0.01891144390465863 -0.005989454975546108 -0.004676760791746533 0 
-0.007651851099520353 0.03917655806796207 0.0363974342352701 -0.01183970754947407 -0.01540176688795175 -0.0004894446018089667 -0.03728098458473409 -0.01891144390465863 -0.005989454975546108 0 0 
-0.007651851099520353 -0.002995671317497256 0.0363974342352701 0 -0.01540176688795175 -0.0004894446018089667 -0.02163355333024244 0 -0.005989454975546108 0 0 
-0.007651851099520353 -0.04204382839918036 0.05933826457458127 0 -0.01540176688795175 0 -0.006977775867485957 0 0 0 0 
-0.007651851099520353 -0.04204382839918036 0.05933826457458127 0 -0.01540176688795175 0 -0.006977775867485957 0 0 0 0 
-0.007651851099520351 0.05006181178955361 0.03796643974227296 -0.003992025332497378 -0.0242227992479879 -1.231461117630613e-06 -0.006977775867485957 -0.04673933092066584 0 0 -0.02849068231316244 
-0.007651851099520351 -0.05421624193235904 0.07809037621762366 0.01834705568365219 -0.0242227992479879 -1.231461117630613e-06 -0.006977775867485957 -0.006541888585719561 0 0 -0.02849068231316244 
-0.007651851099520353 -0.05421624193235904 0.06463784295662744 0.01834705568365219 -0.02376407956640751 -1.231461117630613e-06 -0.006977775867485957 -0.006541888585719561 0 0 0 
-0.007651851099520353 -0.04204382839918036 0.05933826457458127 0 -0.01540176688795175 0 -0.006977775867485957 0 0 0 0 
-0.007651851099520353 -0.04204382839918036 0.05933826457458127 0 -0.01540176688795175 0 -0.006977775867485957 0 0 0 0 
-0.007651851099520353 -0.04204382839918036 0.05933826457458127 0 -0.01540176688795175 0 -0.006977775867485957 0 0 0 0 
-0.01763326757023156 -0.06632635182996523 0.000506671401397352 0.01632706854408124 -0.008760571958214974 -0.008575572908231252 0.01167763849548595 -0.0106064994179201 -0.01189624814118086 -0.008404335491878511 0.004170445427797187 
-0.01763326757023155 -0.02925146025878726 0.0005066714013973518 -0.01487528842487642 -0.003950112126421292 -0.008575572908231252 0.0165084938221413 -0.007960154263964465 -0.005020108314815213 -0.02957570765120331 0.004170445427797182 
-0.03162803196434408 -0.04246619862438146 0.0175801551203399 0.01897972879469458 0.04097426137300822 -0.002407217193724235 -0.03944996632583369 -0.007960154263964469 -0.000595863814049847 -0.01453029536639835 -0.007521165450928937 
-0.01615415298968252 -0.02115872676984967 0.03600945409626925 0.01897972879469458 -0.009787890431943183 -0.002407217193724235 -0.02036157837073735 -0.007960154263964469 0 -0.01416321388823993 -0.005095229477092406 
-0.01615415298968252 0.02653554256177976 0.03600945409626925 -0.03685429863389031 -0.009787890431943183 -0.002407217193724235 -0.0115456984837333 -0.007784546417985475 0 -0.01416321388823993 -0.005095229477092406 
-0.01117140737173556 0.07751758446856558 0.03996448911923078 -0.03022851594351834 -0.01540176688795175 0 -0.03988941478769049 0 0 -0.0123304160744662 0 
-0.01117140737173556 0.07751758446856558 0.03996448911923078 -0.03022851594351834 -0.01540176688795175 0 -0.03988941478769049 0 0 -0.0123304160744662 0 
-0.01117140737173556 0.07751758446856558 0.03996448911923078 -0.03022851594351834 -0.01540176688795175 0 -0.03988941478769049 0 0 -0.0123304160744662 0 
-0.01117140737173556 0.07751758446856558 0.03996448911923078 -0.03022851594351834 -0.01540176688795175 0 -0.03988941478769049 0 0 -0.0123304160744662 0 
0 -0.03665161790558016 0 0.03386619653282121 0 0 -0.01052047931214539 0 0 0 -0.000846097910445567 
-0.09874633935184858 -0.07525587927379392 -0.2202019230605212 0.2951297294913109 -0.07531957065677194 -0.04358799677010508 0.1036894579636934 0.06467720454924158 -0.02911115181368294 -0.04478738030284508 -0.03301798505655837 
0.02974414203959957 -0.1030906284956917 0.008080327930531183 0.07640815660765583 -0.01825130465958669 -0.03830750055085178 0.02073982448137046 -0.01058657256435416 0 0 -0.000846097910445567 
-0.03791530642424139 -0.1986513027845565 -0.1168805951817039 0.3979440153242524 -0.05709233117023205 -0.03488189300882083 0.02356644919240255 -0.04741393256219902 -0.01301371938094332 -0.01227996562417119 -0.01040141184707125 
0 -0.03665161790558016 0 0.03386619653282121 0 0 -0.01052047931214539 0 0 0 -0.000846097910445567 
0 -0.03665161790558016 0 0.03386619653282121 0 0 -0.01052047931214539 0 0 0 -0.000846097910445567 
0 -0.03665161790558016 0 0.03386619653282121 0 0 -0.01052047931214539 0 0 0 -0.000846097910445567 
0 -0.03665161790558016 0 0.03386619653282121 0 0 -0.01052047931214539 0 0 0 -0.000846097910445567 
0 -0.03665161790558016 0 0.03386619653282121 0 0 -0.01052047931214539 0 0 0 -0.000846097910445567 
-0.007386201609309177 0.01034502101969997 -0.005198624817374433 0.03386619653282121 -0.009904951752401709 -0.001002135948147833 -0.04077406048134805 -0.004852039359794006 -0.002242923219538316 0 -0.002012037741060525 
-0.08442414532089504 0.04175884195026597 -0.009804806211308551 -0.06857017025452491 -0.0755387228159369 -0.08746739463101183 -0.06123435259671629 -0.09980592385458335 -0.0536190377935296 -0.05527248303129811 -0.0144214132056806 
-0.03475568344005821 0.1320887210974058 0.002074990454513347 -0.02399939599256935 -0.0473259591547474 -0.009315156203060868 -0.09685924223660006 -0.01256962518070372 -0.01941376680799842 -0.01255657601609 -0.0221729438876633 
-0.01635310477510523 0.03676617657742922 0.002074990454513343 0.05726684435167764 -0.03725374062440904 -0.00407763303229669 -0.09207855448730122 -0.001898811846809226 -0.01641598854931721 -0.006790087780181739 -0.02171801383756866 
-0.005683192719128061 0.01372962821848749 -0.006235252813970756 0.03042922374146009 -0.01283495242775667 0 -0.05404275563972927 -0.0002560422685864532 -0.007739327047339315 0 -0.000846097910445567 
-0.00282846698513697 -0.007168861823290483 -0.006235252813970758 0.03386619653282121 -0.008049337197169838 0 -0.02099454536782758 0 -5.421010862427522e-20 0 -0.000846097910445567 
0 -0.03665161790558016 0 0.03386619653282121 0 0 -0.01052047931214539 0 0 0 -0.000846097910445567 
0 -0.03665161790558016 0 0.03386619653282121 0 0 -0.01052047931214539 0 0 0 -0.000846097910445567 
0 -0.03665161790558016 0 0.03386619653282121 0 0 -0.01052047931214539 0 0 0 -0.000846097910445567 
0 -0.03665161790558016 0 0.03386619653282121 0 0 -0.01052047931214539 0 0 0 -0.000846097910445567 
0 -0.03665161790558016 0 0.03386619653282121 0 0 -0.01052047931214539 0 0 0 -0.000846097910445567 
0 -0.03665161790558016 0 0.03386619653282121 0 0 -0.01052047931214539 0 0 0 -0.000846097910445567 
-0.02966948547957872 -0.06666322679930287 -0.04922765070276126 -0.01443709414730259 -0.03307391650481542 0.01196003554080778 -0.0395054463760061 -0.002784530354188769 -0.04441474053958895 -0.03711120671937639 -0.006624824687750185 
0.03136412909093782 -0.05673251277222721 -0.01860442900254831 0.02201279219687809 -0.04480453596536482 -0.03728019967772791 0.002604773259810068 -0.0405251614294079 -0.03154800335308768 -0.02416754316069205 0.003404392670779478 
0.002363225742057036 -0.01359152873104736 -0.0626909566376757 -0.01105433487755041 -0.02838474937044774 -0.02007330488607932 0.06235040324932677 -0.00719976398722255 -0.014544294834772 -0.005539984232374272 -0.01365212140854191 
-0.01604803856018119 -0.05648404092630066 0.003319922749434531 0.04439503246660952 -0.02218677328211959 -0.01010804968501221 0.01971289111610015 -4.336808689942018e-19 -0.0001335057820219234 0 -0.004376806466448825 
-0.01169964345906976 -0.0609071454357201 0 0.03386619653282121 -0.02218677328211959 0 0.04725293110352777 0 0 0 -0.002431331744903238 
0 -0.03665161790558016 0 0.03386619653282121 0 0 -0.01052047931214539 0 0 0 -0.000846097910445567 
0 -0.03665161790558016 0 0.03386619653282121 0 0 -0.01052047931214539 0 0 0 -0.000846097910445567 
0 -0.03665161790558016 0 0.03386619653282121 0 0 -0.01052047931214539 0 0 0 -0.000846097910445567 
0 -0.03665161790558016 0 0.03386619653282121 0 0 -0.01052047931214539 0 0 0 -0.000846097910445567 
0 -0.03665161790558016 0 0.03386619653282121 0 0 -0.01052047931214539 0 0 0 -0.000846097910445567 
0 -0.03665161790558016 0 0.03386619653282121 0 0 -0.01052047931214539 0 0 0 -0.000846097910445567 
0 0.0390481570816831 -0.02294083033931117 0 0 -0.0004894446018089667 -0.01465577746275648 0 -0.005989454975546108 0 0 
-0.05999906703061572 -0.03260212734674808 -0.03471891791699921 -0.03911642834371085 -0.04244624566768438 0.04000301026154159 -0.06208808110120306 0.008627118270940612 0.06638703720308002 -0.003369879189083092 0.0646865973979647 
-0.07510087340725198 -0.02411313091753631 0.322022079962633 -0.1853861078604343 -0.03376060559555197 -0.02556156444881248 -0.02587233205324209 -0.09921672486293948 -0.04062044396544715 -0.03778669888508686 -0.04514977129720715 
-0.05999906703061572 0.00692098060388887 0.003881263219029026 -0.08482834839508935 -0.03394214956052197 -0.02886777162792866 -0.0418491901320337 0.03488080587553852 0.06962617501901497 -0.003369879189083092 0.07291279777430196 
-0.01093017262359964 0.1390282896254094 -0.07171975199676352 -0.02254452088730596 -8.673617379884035e-19 -0.0004894446018089667 -0.01465577746275648 -0.006746089341819048 -0.007392986414152427 0 -0.004105990793014677 
0 0.03737831906390929 -0.07319541662962828 -0.02877543708892741 -0.01094184891409963 -0.004882823350031352 -0.03226530051406632 -0.0003204587170422157 0.08114724918476621 0 0 
0 0.0390481570816831 -0.02294083033931117 0 0 -0.0004894446018089667 -0.01465577746275648 0 -0.005989454975546108 0 0 
0 0.0390481570816831 -0.02294083033931117 0 0 -0.0004894446018089667 -0.01465577746275648 0 -0.005989454975546108 0 0 
0 0.0390481570816831 -0.02294083033931117 0 0 -0.0004894446018089667 -0.01465577746275648 0 -0.005989454975546108 0 0 
0 0.0390481570816831 -0.02294083033931117 0 0 -0.0004894446018089667 -0.01465577746275648 0 -0.005989454975546108 0 0 
-0.07048316376509325 0.04464949517300808 -0.02470287178538495 -0.09422620429636878 0.002520513319936809 0.05965993374573059 0.0711650324965994 0.008776836773722299 -0.0146829379004252 -0.008010131416013739 -0.01488374510215032 
0 0.0390481570816831 -0.02294083033931117 0 0 -0.0004894446018089667 -0.01465577746275648 0 -0.005989454975546108 0 0 
0 0.0390481570816831 -0.02294083033931117 0 0 -0.0004894446018089667 -0.01465577746275648 0 -0.005989454975546108 0 0 
0 0.0390481570816831 -0.02294083033931117 0 0 -0.0004894446018089667 -0.01465577746275648 0 -0.005989454975546108 0 0 
0 0.0390481570816831 -0.02294083033931117 0 0 -0.0004894446018089667 -0.01465577746275648 0 -0.005989454975546108 0 0 
0.01841126430223821 0.04289251219525331 -0.06601087938711026 -0.05544936734415992 -0.006197976088328149 -0.009965255201067114 0.04263751213322663 -0.007199763987222553 -0.01441078905275008 -0.005539984232374276 -0.009275314942093075 
0 -0.02709750425131159 -0.0564091466291427 -0.03490030552297878 -1.084202172485504e-19 -0.00148908810270723 0.1029623027652984 -0.005521800738639073 -0.01441078905275008 0 -0.003688131035224108 
0 0.0390481570816831 -0.02294083033931117 0 0 -0.0004894446018089667 -0.01465577746275648 0 -0.005989454975546108 0 0 
0 0.0390481570816831 -0.02294083033931117 0 0 -0.0004894446018089667 -0.01465577746275648 0 -0.005989454975546108 0 0 
0 0.0390481570816831 -0.02294083033931117 0 0 -0.0004894446018089667 -0.01465577746275648 0 -0.005989454975546108 0 0 
0 0.0390481570816831 -0.02294083033931117 0 0 -0.0004894446018089667 -0.01465577746275648 0 -0.005989454975546108 0 0 
0 0.0390481570816831 -0.02294083033931117 0 0 -0.0004894446018089667 -0.01465577746275648 0 -0.005989454975546108 0 0 
0.002660560875810903 -0.02660181457798035 -0.02766154384840708 -0.03800932270325136 0.0001191893287148929 -0.04517445671226062 -0.06218346063743256 -0.07362031230843523 -0.03670449360603881 -0.06256624008811444 -0.0621753223850235 
-0.01617587066506107 -0.05040786654476896 -0.004258073313856841 0.007762031937643429 0.007050711426864201 -0.00272565689345441 -0.04159244741782332 -0.04072960706100251 -0.0154234842095477 -0.002256855231099845 -0.02713532033768416 
0.01458089418998285 -0.08716339504312591 -0.009409520941458515 0.06886322164549738 -0.003330651788361448 -0.02905270081761918 -0.03864293636456496 0.005931820773715913 0.006392357966798301 0.002541709479571238 -0.04333127498154793 
-0.005947616409785394 -0.05805527846849602 -0.008137623708180506 0.009529304775061915 -0.002596407742148084 -0.01060829258186555 0.06694458781177481 0.02017617098028116 -0.008729116197517928 0.007860697820242719 -0.008907540583827403 
0.001800671111413827 -0.03494417715630369 -0.06246255313057301 0.0601482036710443 0.01861266764459843 -0.008691047176089746 -0.0001767156601882143 -0.01339313245241048 0.008714219034953953 0.007074387709118063 -0.01147315158187617 
0.05747470107191394 0.00478804683161559 -0.006218067977769325 -0.05759073722032747 -0.009385259206648216 0.03462070311232732 0.02550210182661806 0.0002659946636710646 0.02249379012519227 0.01316094834929826 -0.01147315158187617 
-0.01783422819866774 0.05131972231848463 0.0326873905982733 -0.05764227069113397 0.001047403234960377 -0.01661529080652852 -0.01150016513269688 0.007055199094169884 0.02249379012519225 0.01578303701098443 -0.0113660006718397 
-0.02557280991425106 0.08689007175868597 0.03980539649358812 -0.02397160369128178 -0.001787289968226313 -0.03840672724493505 -0.001537321007273642 -0.03876463902821315 -0.0066881016120766 -0.02524030153638352 -1.084202172485504e-18 
-0.001061783614252643 0.02403013577573213 0.008640609014512676 0.03663186318380314 -0.03369879546446967 -0.01689165712091033 0.009664069173967822 -0.03157393041943109 -0.02765987790018435 -0.02332328463721034 2.168404344971009e-19 
-0.02670465918313208 -0.02700963812653518 0.05914545809006869 0.04288528051470352 -0.02556752199400503 -0.001232013077120085 -0.02695191118941385 -0.01494453147179921 -0.01000520626127719 -0.01141340595431299 0 
0 0.009826227683456534 0.003484452812375385 0 0 -0.0004894446018089667 -0.01525554896599717 0 -0.005989454975546108 -0.008057962467109308 0 
0 0.0390481570816831 -0.02294083033931117 0 0 -0.0004894446018089667 -0.01465577746275648 0 -0.005989454975546108 0 0 
0 0.0390481570816831 -0.02294083033931117 0 0 -0.0004894446018089667 -0.01465577746275648 0 -0.005989454975546108 0 0 
0 0.0390481570816831 -0.02294083033931117 0 0 -0.0004894446018089667 -0.01465577746275648 0 -0.005989454975546108 0 0 
-0.001893478089497126 0.05886743620161223 0 -0.02033330632432728 0 -0.002639283923046876 -0.01595204031764107 0 -0.001806664687072276 0 0 
0.08922692817230028 -0.05248318036765595 0.07517091456237256 -0.1969230394323034 -0.06196092341075803 0.06404426241078741 0.08246739440625764 0.05414247974533962 -0.0423335128384638 -0.01932474731544774 -0.04333381068235319 
-0.002131527894742589 0.1156421119535657 -0.01576690197203993 0.01302941264897837 -0.004977083405809833 -0.01652656863901356 -0.03232305788332138 -0.00274363511106734 -0.007126415975545431 0 0 
-0.02705417252962833 -0.04286548980557832 -0.08052789372360993 -0.009509611651628291 -0.05833342771994125 -0.01806022552044019 0.21850127705546 -0.008683835887868127 -0.005627746799823564 -0.01005578189400803 -0.009061489229285217 
-0.001893478089497126 0.05886743620161223 0 -0.02033330632432728 0 -0.002639283923046876 -0.01595204031764107 0 -0.001806664687072276 0 0 
-0.02705417252962833 0.116210205183364 -0.01306137909805245 -0.02035381053523325 -0.002543102075003438 -0.002639283923046876 -0.02803814819612098 -4.336808689942018e-19 -0.003197264924828188 0 -0.009061489229285217 
-0.001893478089497126 0.05886743620161223 0 -0.02033330632432728 0 -0.002639283923046876 -0.01595204031764107 0 -0.001806664687072276 0 0 
-0.001893478089497126 0.05886743620161223 0 -0.02033330632432728 0 -0.002639283923046876 -0.01595204031764107 0 -0.001806664687072276 0 0 
-0.001893478089497124 0.04956165424745027 -0.02565216512687887 -0.02033330632432728 0 -0.002639283923046875 -0.003074793350055591 -0.0270123051463908 -0.001806664687072276 -0.01194896818456144 -0.008801660842431634 
-0.001893478089497126 0.05886743620161223 0 -0.02033330632432728 0 -0.002639283923046876 -0.01595204031764107 0 -0.001806664687072276 0 0 
-0.0124713653067534 0.01435495304144115 -0.01212552007252935 -0.0009967413402182587 -0.01566749754809853 -0.005563592522019168 0.0113341959437725 -0.001919026820354095 -0.003376566367310982 -0.00622246641261915 0 
0.08364642787496988 0.02354019570860651 0.02151934096362434 -0.1394390698911693 -0.05267071873656199 0.0143079673881275 -0.004314768539529389 -0.000614798389231971 -0.009525231075468203 0.03742105377079227 -0.003017117964198298 
-0.02297477912791066 -0.06635192810381069 0.02947632124257588 0.1290123778391284 0.01281604855448627 -0.06652887242696975 -0.04442951919878087 -0.04588486958598668 0.0361697149455028 -0.01543835460238456 -0.0228877909261196 
0.03153739008498999 -0.01443734262149121 -0.07969165060355315 0.2209262766976628 -0.06562157318696127 -0.04337803604660848 -0.05381164902598212 -0.03374050403778254 -0.01495025523876738 -0.01411386804279106 -0.006566202908278939 
0.03583068747332939 0.01789450155466722 -0.07036146976982403 0.1193708763213484 -0.03702372759301861 -0.04206388045666726 -0.04191396493573772 -0.02916691946125642 -0.01131573479414186 -0.01199306297770538 -0.006566202908278939 
-0.01941570106878004 0.05034197757650942 -0.03570322715415607 0.04200481454861343 -0.004281060136316312 -0.02858897533678223 -0.01595204031764107 -0.002976532922018069 -0.005243038014259761 -0.003818756044250061 -0.001962575498566981 
-0.01941570106878004 0.05034197757650942 -0.03570322715415607 0.04200481454861343 -0.004281060136316312 -0.02858897533678223 -0.01595204031764107 -0.002976532922018069 -0.005243038014259761 -0.003818756044250061 -0.001962575498566981 
-0.001893478089497126 0.09489699103314908 -0.0008212554993899443 -0.05740663884604343 0 -0.002639283923046876 -0.01595204031764107 0 -0.001806664687072276 0 -0.001962575498566982 
-0.001893478089497126 0.09489699103314908 -0.0008212554993899443 -0.05740663884604343 0 -0.002639283923046876 -0.01595204031764107 0 -0.001806664687072276 0 -0.001962575498566982 
-0.001893478089497126 0.09489699103314908 -0.0008212554993899443 -0.05740663884604343 0 -0.002639283923046876 -0.01595204031764107 0 -0.001806664687072276 0 -0.001962575498566982 
-0.001893478089497126 0.05886743620161223 0 -0.02033330632432728 0 -0.002639283923046876 -0.01595204031764107 0 -0.001806664687072276 0 0 
-0.001893478089497126 0.05886743620161223 0 -0.02033330632432728 0 -0.002639283923046876 -0.01595204031764107 0 -0.001806664687072276 0 0 
-0.001893478089497124 0.07481323227091675 -0.04703269683264229 -0.02033330632432728 0 -0.003863369566378864 -0.00765856496468065 -0.0270123051463908 -0.001806664687072276 -0.01359193598203068 -0.008801660842431634 
-0.001893478089497124 0.04956165424745027 -0.02565216512687887 -0.02033330632432728 0 -0.002639283923046875 -0.003074793350055591 -0.0270123051463908 -0.001806664687072276 -0.01194896818456144 -0.008801660842431634 
-0.001893478089497124 0.04956165424745027 -0.02565216512687887 -0.02033330632432728 0 -0.002639283923046875 -0.003074793350055591 -0.0270123051463908 -0.001806664687072276 -0.01194896818456144 -0.008801660842431634 
-0.03075676485504389 0.03675552849835693 0.005151447627601579 -0.06110118970785362 0.01038136321522564 0.02632704392416472 -0.002949511053258316 -0.04666142783471844 -0.021815842176346 -0.004798564710671046 0.01619595464386379 
-0.0005787549276597934 0.05140352720746414 -0.01920022223536786 -0.007740635836408547 -0.007254297972488178 0.01676204474210549 -0.05271104663215807 -0.0439797819180828 -0.009473559282351838 -0.001583531204299365 -0.02290891896510931 
-0.0124713653067534 0.01435495304144115 -0.01212552007252935 -0.0009967413402182587 -0.01566749754809853 -0.005563592522019168 0.0113341959437725 -0.001919026820354095 -0.003376566367310982 -0.00622246641261915 0 
-0.0124713653067534 0.01435495304144115 -0.01212552007252935 -0.0009967413402182587 -0.01566749754809853 -0.005563592522019168 0.0113341959437725 -0.001919026820354095 -0.003376566367310982 -0.00622246641261915 0 
-0.01151598869831216 0 0 0 -0.001153269245896153 -0.02080967150343717 0 0 0 0 0 
-0.04713381197197115 -0.1417633036470897 -0.08025156109677782 0.281153504674829 0.003544702239696717 -0.1233817395341329 0.02909558804008665 -0.03698191308139107 -0.005228455684172825 -0.04174687680295422 -0.02444746331988665 
-0.01825099962656387 -0.003666377234507323 -0.01428817759737681 0.0003912868534321733 -0.004193663158138877 -0.02756674332361525 0.03746576778964281 -0.002976532922018068 -0.000921925189041191 -0.003895604458450289 0 
-0.04677260374843495 -0.1004229972982485 -0.08025156109677782 0.2909999052304817 0.003544702239696717 -0.1233817395341329 -0.0229166684692129 -0.03289475564568821 -0.005228455684172825 -0.039200495571396 -0.02444746331988665 
-0.01825099962656387 0 -4.336808689942018e-19 0.01461638323560848 -0.004193663158138877 -0.02756674332361525 0 -0.002976532922018068 -0.000921925189041191 -0.003818756044250061 0 
-0.04645785675245093 -0.08729892318482102 -0.1481041413789376 0.2968204409181748 0.0162110098478819 -0.1233817395341329 -0.05722973100775781 -0.001817091598151688 -0.005228455684172825 -0.03519693513022427 -0.02077385894047986 
-0.01151598869831216 0 0 0 -0.001153269245896153 -0.02080967150343717 0 0 0 0 0 
-0.02677407590453923 -0.03493936551143154 -0.01621007133880948 0.1256356036795535 -0.01682076679399469 -0.02080967150343717 -0.05043278566114348 -5.963111948670274e-19 -0.0004872502010606694 -0.006222466412619151 0 
-0.03521998722624864 0.01902709139285896 -0.03710604680202268 0.05956244668692231 0.02920156381728037 0.03420533541071108 -0.0715975192722593 -0.0005183739463844483 0 -0.01011956118480613 -0.0006181337431509945 
0.01709955955914556 -0.0753985581642406 0.03535356079887474 0.05002161024556286 -0.01399466044178754 -0.02938329096058601 -0.01169636222341668 -0.02289103353798317 -0.00692930476691212 -0.005449116450684591 0 
-0.01151598869831216 -0.06157557935276569 -4.336808689942018e-19 0.07538354173475562 -0.01290722651013139 -0.01458617722788519 -0.02404863180305911 0 -0.003703446533987394 -0.00497588185284945 0 
-0.01151598869831216 -0.002192790345478382 -0.009776656827795872 -0.003169405703685918 0.04196017085277254 -0.02510509047588018 -0.0002850747909054127 -6.505213034913027e-19 -0.0007667821234519275 -0.004116601274101325 0 
-0.01431297273122765 -0.06070636467670147 -0.06808467026163025 -0.09305208976033345 -0.075737492048896 0.2446475615104536 -0.01142873215020737 -0.05450332067951145 -0.020814103417818 -0.02042306879063757 -0.0117807364681268 
-0.01259091665100841 -0.06070636467670147 -0.05320604901846039 -0.02190522510748319 -0.05934155795749028 0.153542133389695 -0.01142873215020737 -0.04875799715945612 -0.02042566433616484 -0.01537636804294899 -0.0117807364681268 
-0.001356455810735591 -0.06070636467670147 -0.04965582384633838 -0.01429019193425421 -0.05934155795749027 0.1100593527026411 -0.004054834450340926 -0.04382186340097983 -0.01839232974118767 -0.01209148080273998 -0.0117807364681268 
0.04150360520402708 0.00292144451183699 -0.04225307662331799 0.1032243761637617 -0.04266416499243583 -0.05395340543976261 -0.03317880946075093 -0.01491026511567177 -0.01136995367186585 -0.0008823524002957601 -1.128729798433159e-05 
0.08099760512606771 -0.02749713693336351 -0.02958645486698647 -0.05629915911835642 -0.01086899401815444 0.06318360070199419 -0.0247659493515337 -0.01491026511567176 -0.006788063769545726 -1.204217286762973e-05 -1.128729798433148e-05 
0.09732200608205341 -0.02749713693336351 -0.02958645486698647 -0.05629915911835642 -0.01086899401815444 0.01367128481859902 4.336808689942018e-19 -0.01392074843735859 -0.000691355371003514 -1.204217286762973e-05 -1.128729798433148e-05 
0.1279095734694258 -0.005933405673644366 -0.009221011275434602 -0.03267782359643115 -0.008657986724697033 -0.0778079395811007 0 -0.0005606609960174077 0 -1.204217286762973e-05 -1.128729798433148e-05 
0.04464202730391421 0 -0.009221011275434603 -0.01085921760253656 -0.001153269245896153 -0.04441690152922464 0 0 0 -1.204217286762973e-05 -1.128729798433148e-05 
-0.01151598869831216 0 0 0 -0.001153269245896153 -0.02080967150343717 0 0 0 0 0 
-0.01151598869831216 0 0 0 -0.001153269245896153 -0.02080967150343717 0 0 0 0 0 
-0.01151598869831216 0 0 0 -0.001153269245896153 -0.02080967150343717 0 0 0 0 0 
0.0168423582216581 -0.01833258908850094 -0.008069554476171959 0.01052221237184206 -0.03264419870574385 -0.02317367480539554 0.03963384297949086 -0.004501582235666623 -0.02026876660228515 -0.005803078786972041 0.02737575811507434 
-0.03424544399918387 -0.04686687071041397 0.04482608384259942 0.01888521204108975 -0.0610619040517459 0.004813515166517025 0.009630103728024047 0.0334829350929348 -0.007800494982625329 0.01450882134680899 -0.02678729640879146 
-0.01011737693470847 0.003110172042444136 -0.00989724531625048 -0.02659503373084968 0.003035044965235051 -0.01784279250569731 0.05195434650082484 -0.02030022423430186 -0.005235340736690339 -0.02138960258382358 -0.004775994034526979 
-0.01011737693470847 0.003110172042444136 -0.00989724531625048 -0.02659503373084968 0.003035044965235051 -0.01784279250569731 0.05195434650082484 -0.02030022423430186 -0.005235340736690339 -0.02138960258382358 -0.004775994034526979 
-0.03521998722624864 0.01902709139285896 -0.03710604680202268 0.05956244668692231 0.02920156381728037 0.03420533541071108 -0.0715975192722593 -0.0005183739463844483 0 -0.01011956118480613 -0.0006181337431509945 
-0.03521998722624864 0.01902709139285896 -0.03710604680202268 0.05956244668692231 0.02920156381728037 0.03420533541071108 -0.0715975192722593 -0.0005183739463844483 0 -0.01011956118480613 -0.0006181337431509945 
-0.05567402996050009 -0.03973222398791931 -0.05624448515280378 0.1177389408913716 0.02799792685124665 -0.04331175028841709 -0.0256788174868063 -0.01365912711608154 -0.01377957109023831 -0.006086560640180191 0 
-0.03414341267373934 -0.06157557935276569 -0.01266662175633151 0.1346739038554738 -0.01545498370768656 -0.04331175028841711 -0.0256788174868063 0 -0.004581889902320122 -0.005501890101427766 0 
-0.01151598869831216 -0.06157557935276569 -4.336808689942018e-19 0.07538354173475562 -0.01290722651013139 -0.01458617722788519 -0.02404863180305911 0 -0.003703446533987394 -0.00497588185284945 0 
-0.01151598869831216 -0.06157557935276569 -4.336808689942018e-19 0.07538354173475562 -0.01290722651013139 -0.01458617722788519 -0.02404863180305911 0 -0.003703446533987394 -0.00497588185284945 0 
0.03234391020931827 -0.02842497177060284 0 -0.002482143262904182 0 -0.002646855377176818 0 -0.005905879019556655 -0.000365171695152674 -0.004795997533386738 0 
0.03234391020931827 -0.02842497177060284 0 -0.002482143262904182 0 -0.002646855377176818 0 -0.005905879019556655 -0.000365171695152674 -0.004795997533386738 0 
0.03096492183009793 0.004967774358777748 0.03205464195795815 -0.05495136345723302 -0.001846076364330313 -0.002646855377176818 -0.02287342916671981 -0.005905879019556655 -0.001653538295680985 -0.004795997533386738 0 
-0.06103361457051652 -0.009930714027075741 -0.03062322170021296 -0.0364498863441806 0.01173061946054936 0.04924023521853576 -0.04211021963581624 0.03774063107521916 -0.01286673718650125 -0.01294366355868437 -0.01002921735852965 
0.004383058259888464 0.09706831871440065 -0.0572514264497531 -0.06191277529422757 -0.03184654514167355 0.03113746697997908 -0.01578567146142728 0.009312988977547308 -0.01005692529550543 -0.01050177361009703 -0.008813996707854944 
0.01418636513311249 0.035332723892472 -0.01690342142819316 -0.003736140263068217 -0.01634599579905224 -0.01044130769584047 -0.0153325327661445 -0.02289103353798317 -0.01005692529550543 -0.005525891757247586 -0.004603627409711957 
0.01641767537648243 0.06042534364638501 0 -0.08286648216153293 -0.008040711352356998 -0.006099804033719327 -0.003636170542727821 -0.005905879019556655 -0.003492792223745992 -0.004872772839949733 -0.004603627409711957 
0.03234391020931827 -0.02842497177060284 0 -0.002482143262904182 0 -0.002646855377176818 0 -0.005905879019556655 -0.000365171695152674 -0.004795997533386738 0 
0.03234391020931827 -0.02842497177060284 0 -0.002482143262904182 0 -0.002646855377176818 0 -0.005905879019556655 -0.000365171695152674 -0.004795997533386738 0 
0.03234391020931827 -0.02842497177060284 0 -0.002482143262904182 0 -0.002646855377176818 0 -0.005905879019556655 -0.000365171695152674 -0.004795997533386738 0 
0.03234391020931827 -0.02842497177060284 0 -0.002482143262904182 0 -0.002646855377176818 0 -0.005905879019556655 -0.000365171695152674 -0.004795997533386738 0 
0.03234391020931827 -0.02842497177060284 0 -0.002482143262904182 0 -0.002646855377176818 0 -0.005905879019556655 -0.000365171695152674 -0.004795997533386738 0 
0.02564287556887942 0.05103977390226727 -0.05050484907555595 -0.006253417330900369 -0.008131273470464648 -0.01565964404379024 0.03661598036338168 -0.01662939894763189 -0.01765467163890715 -0.01190987868289736 0 
0.03461647926247132 0.01450037195898056 -0.05050484907555593 0.01477929876352775 0.0142881640368031 -0.01220669538724773 0.01998433857473412 -0.01662939894763189 -0.01692135054520225 -0.01004847765157139 0 
0.03461647926247132 -0.02075954202207279 -0.04762352558143814 0.008912621458734241 0.0454138912869494 -0.01208936590683638 0.02524175782318673 -0.0166293989476319 -0.009368146459101223 -0.01004847765157139 0 
0.01332102347345578 0.05908807917135279 -0.01198884272743624 -0.01746815525237969 -8.673617379884035e-19 -0.002646855377176818 -0.01874956816494332 -0.008745135082796791 -0.004865360926557036 -0.004795997533386738 0 
0.03234391020931827 -0.02842497177060284 0 -0.002482143262904182 0 -0.002646855377176818 0 -0.005905879019556655 -0.000365171695152674 -0.004795997533386738 0 
0.03234391020931827 -0.02842497177060284 0 -0.002482143262904182 0 -0.002646855377176818 0 -0.005905879019556655 -0.000365171695152674 -0.004795997533386738 0 
0.03234391020931827 -0.02842497177060284 0 -0.002482143262904182 0 -0.002646855377176818 0 -0.005905879019556655 -0.000365171695152674 -0.004795997533386738 0 
-0.004539464483076964 0.03058640812581625 0 -0.01248588275405743 -0.001621730094879449 0 0 -0.002727121584966783 0 0 0 
-0.005247856332333454 0.08162964595336158 -0.02668867393026934 -0.01248588275405743 -0.001621730094879449 -0.001958026588943161 -0.008124224134951966 -0.002727121584966783 0 0 0 
-0.01681573672672671 0.1104227864248511 -0.05351268120963781 -0.07217315396790312 -0.001621730094879449 -0.02154842552821915 -0.0187825892685246 0.08375940193061768 0 -0.002690832518391929 -0.02025355315432129 
-0.004539464483076964 0.03058640812581625 0 -0.01248588275405743 -0.001621730094879449 0 0 -0.002727121584966783 0 0 0 
-0.01681573672672671 0.1104227864248511 -0.05351268120963781 -0.07217315396790312 -0.001621730094879449 -0.02154842552821915 -0.0187825892685246 0.08375940193061768 0 -0.002690832518391929 -0.02025355315432129 
-0.004539464483076964 0.03058640812581625 0 -0.01248588275405743 -0.001621730094879449 0 0 -0.002727121584966783 0 0 0 
-0.004539464483076964 0.03058640812581625 0 -0.01248588275405743 -0.001621730094879449 0 0 -0.002727121584966783 0 0 0 
-0.004539464483076964 0.03058640812581625 0 -0.01248588275405743 -0.001621730094879449 0 0 -0.002727121584966783 0 0 0 
0.01294536399468913 0.1106165573966016 0.00709909577474334 -0.09910682865789955 -0.08671750928960206 -0.0332047690397712 -0.06835902709905846 0.08416090002619614 -0.02622206232498133 -0.02514178832518132 0.02145263602315323 
-0.0433321379720165 0.1706290322309508 0.001644644348914781 0.02324144180943094 -0.02459264244617805 -0.004515182781372836 -0.0123003639860856 -0.05590932553254713 -0.007852781458420749 -0.01206300918739476 -0.05592244486527635 
-0.02416502092737367 -0.03889037192661735 0.009956943573869163 0.08730134553922556 0.005998540046604247 0.003403048148593713 0.009524955551214312 -0.03344463856811042 -0.006892848906735284 -0.009957318304568176 -0.02894534584819328 
-0.008415328970576022 0.0707797148908916 0.1141331756907105 -0.0810039320663187 -0.06096983222395038 -0.005187359309476005 -0.02728143534846463 -0.02888585005826738 0 -0.001821662656090542 -2.168404344971009e-19 
-0.004539464483076964 -0.03760119806406331 0.08126169287845128 -0.005886644675909106 -0.0265324591105775 -0.004463450007954575 -0.004760632409239319 -0.01146553211227988 0 0 -2.168404344971009e-19 
-0.004539464483076964 -0.01208601059595145 0.03804575043864761 0.009215117242328333 -0.01199019658757829 -0.004463450007954575 -0.004760632409239319 -0.01146553211227988 0 0 -2.168404344971009e-19 
-0.004539464483076964 0.01995974699076897 -0.01490959210669522 0.04365311199540558 -0.01199019658757829 0 -0.004760632409239319 -0.01146553211227988 0 0 -2.168404344971009e-19 
-0.004539464483076964 0.01995974699076897 -0.01490959210669522 0.04365311199540558 -0.01199019658757829 0 -0.004760632409239319 -0.01146553211227988 0 0 -2.168404344971009e-19 
-0.004539464483076964 0.01995974699076897 -0.01490959210669522 0.04365311199540558 -0.01199019658757829 0 -0.004760632409239319 -0.01146553211227988 0 0 -2.168404344971009e-19 
-0.004539464483076964 0.03058640812581625 0 -0.01248588275405743 -0.001621730094879449 0 0 -0.002727121584966783 0 0 0 
-0.004539464483076964 0.03058640812581625 0 -0.01248588275405743 -0.001621730094879449 0 0 -0.002727121584966783 0 0 0 
-0.01849657442139338 0.05801452466650633 -0.0564951534275533 -0.02393561002530884 0.02649597851539399 -0.04303235589959756 -0.04207918265868502 -0.02486141343583777 -0.0100044972826634 0.001945072179728752 -0.02408376151302538 
0.00753494554091064 0.105949869570117 -0.01186801766247672 -0.1374322448885692 0.0296855261619072 -0.0253045241315184 -0.009827028955187554 -0.02252833965397617 -0.005332179599032515 0.003807378370361199 -0.01222620902477455 
-0.00459074154489419 0.03757505828634485 -0.04224753227118568 -0.01981793316369134 0.04487884236949326 0.008086513920357686 -0.04679630649166146 -0.01241349506557037 -0.001700507266351615 0.02039865253625951 -0.008492592179688153 
0.02242861060477466 0.06925652822205969 -0.07881646992759769 0.02338621844555774 -0.01320080675112518 0.008320288230269032 -0.03560987768841221 -0.004517213849995165 -0.0009465429024470684 -0.01803210889648166 -0.008492592179688153 
-0.004539464483076962 0.09179725652619597 -0.06499178732278559 0.01379121360937912 -0.03400467396511733 -0.0004805179752267494 -0.001485778601597653 -0.002727121584966783 0 -0.001650983053913313 0 
-0.004539464483076964 0.03058640812581625 0 -0.01248588275405743 -0.001621730094879449 0 0 -0.002727121584966783 0 0 0 
-0.004539464483076964 0.03058640812581625 0 -0.01248588275405743 -0.001621730094879449 0 0 -0.002727121584966783 0 0 0 
-0.004539464483076964 0.03058640812581625 0 -0.01248588275405743 -0.001621730094879449 0 0 -0.002727121584966783 0 0 0 
-0.004539464483076964 0.03058640812581625 0 -0.01248588275405743 -0.001621730094879449 0 0 -0.002727121584966783 0 0 0 
-0.004539464483076964 0.03058640812581625 0 -0.01248588275405743 -0.001621730094879449 0 0 -0.002727121584966783 0 0 0 
0 0 -0.001715359016804666 0.02877874175377799 -0.01304768236084835 -0.005756142869205613 -0.005106583768377089 -0.005262759585545034 0 -0.002441889948587335 0 
0.07305638493089928 -0.09163416670929535 -0.07849701550373335 0.06017108519246239 0.07065464863487152 -0.0207650335823417 -0.04064298317586295 -0.004236070629596821 -0.01236036233746746 -0.01765765313528313 -0.0103545448298626 
-0.009115511198768342 -0.07439299827925258 0.02151053222133925 0.1083877438378488 0.003943708587167857 -0.005756142869205613 -0.05894695327257535 -0.02157615394775296 -1.626303258728257e-19 -0.002441889948587335 0 
-0.02978357304079136 0.03143966119062819 0.1366852744366749 -0.002236878089893595 -0.03907875128129096 -0.0272990612278138 -0.03431341679584133 -0.01796482374162406 -0.006099446734288351 -0.01583416013364716 -0.02139190386472711 
0 0 -0.001715359016804666 0.02877874175377799 -0.01304768236084835 -0.005756142869205613 -0.005106583768377089 -0.005262759585545034 0 -0.002441889948587335 0 
-0.04334310777049824 -0.02599669622912163 0.2197524416317058 -0.006522596826723984 -0.07937425711300899 -0.01302614157874693 -0.005106583768377087 -0.03153921162027026 -0.006099446734288349 -0.008868788532907946 -0.009373536471369204 
0 0 -0.001715359016804666 0.02877874175377799 -0.01304768236084835 -0.005756142869205613 -0.005106583768377089 -0.005262759585545034 0 -0.002441889948587335 0 
0 0 -0.001715359016804666 0.02877874175377799 -0.01304768236084835 -0.005756142869205613 -0.005106583768377089 -0.005262759585545034 0 -0.002441889948587335 0 
0 0 -0.001715359016804666 0.02877874175377799 -0.01304768236084835 -0.005756142869205613 -0.005106583768377089 -0.005262759585545034 0 -0.002441889948587335 0 
0 0 -0.001715359016804666 0.02877874175377799 -0.01304768236084835 -0.005756142869205613 -0.005106583768377089 -0.005262759585545034 0 -0.002441889948587335 0 
0 0 -0.001715359016804666 0.02877874175377799 -0.01304768236084835 -0.005756142869205613 -0.005106583768377089 -0.005262759585545034 0 -0.002441889948587335 0 
-0.01547387897466154 -0.02130747185453179 -0.02014465799273403 0.02877874175377799 0.03771446944410305 -0.005756142869205613 -0.02419497172347342 -0.005262759585545034 -0.000595863814049847 -0.002808971426745748 -0.002425935973836533 
-0.04199960910157383 -0.02740752439802043 -0.0306741013486104 0.209714772072802 -0.07507857717408627 -0.07427066522178212 -0.001632899349349411 -0.03964419672715026 -0.02362782247805836 -0.01293717177571843 -0.02881403424860079 
-0.02621882342540108 -0.05529661344592149 -0.02145333523698576 0.1516253106455509 -0.01947475357355598 -0.01815688455275537 -0.02439321002465245 -0.0147192126156644 -0.01055845675510779 -0.003095008865885188 -0.01554490853959671 
-0.008909313364188098 -0.04704155580549212 -0.004744445001464642 0.1181440791094083 -0.0410522731793925 -0.01691824077371085 -0.007127738335344559 -0.007303382632172332 -0.00742861350215422 -0.003095008865885188 -0.01554490853959671 
-0.00271168619134113 0 -0.001715359016804666 0.03527254317503117 -0.02781819762174636 -0.005756142869205613 -0.007127738335344559 -0.005262759585545034 -0.0008644804303947742 -0.002441889948587335 0 
-0.00271168619134113 0 -0.001715359016804666 0.03527254317503117 -0.02781819762174636 -0.005756142869205613 -0.007127738335344559 -0.005262759585545034 -0.0008644804303947742 -0.002441889948587335 0 
0 0 -0.001715359016804666 0.02877874175377799 -0.01304768236084835 -0.005756142869205613 -0.005106583768377089 -0.005262759585545034 0 -0.002441889948587335 0 
0 0 -0.001715359016804666 0.02877874175377799 -0.01304768236084835 -0.005756142869205613 -0.005106583768377089 -0.005262759585545034 0 -0.002441889948587335 0 
0 0 -0.001715359016804666 0.02877874175377799 -0.01304768236084835 -0.005756142869205613 -0.005106583768377089 -0.005262759585545034 0 -0.002441889948587335 0 
-0.06541667283040499 -0.1069990327414763 0.02662820474954017 0.02546288895004692 0.04357716460222288 0.01810276823855668 -0.02632454817438894 0.02842764209767186 -0.002809811890995816 -0.002441889948587336 -0.001215220650674706 
-0.01189326870449297 -0.01596079080401706 -0.02208080260835653 -0.02526171669769711 -0.02101316323970438 0.02536955014521136 -0.005106583768377088 0.05319874969269579 -0.002049381044241986 -0.002441889948587335 -0.001215220650674706 
0 0 -0.001715359016804666 0.02877874175377799 -0.01304768236084835 -0.005756142869205613 -0.005106583768377089 -0.005262759585545034 0 -0.002441889948587335 0 
0 0 -0.001715359016804666 0.02877874175377799 -0.01304768236084835 -0.005756142869205613 -0.005106583768377089 -0.005262759585545034 0 -0.002441889948587335 0 
0 0 -0.001715359016804666 0.02877874175377799 -0.01304768236084835 -0.005756142869205613 -0.005106583768377089 -0.005262759585545034 0 -0.002441889948587335 0 
0 0 -0.001715359016804666 0.02877874175377799 -0.01304768236084835 -0.005756142869205613 -0.005106583768377089 -0.005262759585545034 0 -0.002441889948587335 0 
0 0 -0.001715359016804666 0.02877874175377799 -0.01304768236084835 -0.005756142869205613 -0.005106583768377089 -0.005262759585545034 0 -0.002441889948587335 0 
0.02129545578901554 -0.07984762119342566 -0.03563468285400192 0.02638077671111392 0.04541389128694938 -0.009442510529659564 0.04399132598813005 -0.007884263864835121 -0.004502785532544185 -0.005252480118184652 0 
-0.02346055256153116 -0.03305238340510998 -0.01873106686150055 0.00108876669498488 0.04541389128694938 -0.009442510529659564 0.04399132598813005 -0.005262759585545034 -0.004502785532544185 -0.005252480118184652 0 
0 -0.0280057214762548 -0.006718675129647051 0.01903717681433064 -0.01304768236084835 -0.009442510529659564 0.04941356390205427 -0.005262759585545034 0 -0.002441889948587336 0 
0 -0.0280057214762548 -0.006718675129647051 0.01903717681433064 -0.01304768236084835 -0.009442510529659564 0.04941356390205427 -0.005262759585545034 0 -0.002441889948587336 0 
0 0 -0.001715359016804666 0.02877874175377799 -0.01304768236084835 -0.005756142869205613 -0.005106583768377089 -0.005262759585545034 0 -0.002441889948587335 0 
0 0 -0.001715359016804666 0.02877874175377799 -0.01304768236084835 -0.005756142869205613 -0.005106583768377089 -0.005262759585545034 0 -0.002441889948587335 0 
0.04298970184295445 -0.02564196495930635 0 0 -0.00619797608832815 -0.007471586997338422 -0.007341585858039111 -0.0002872470837681715 0 -0.00285897189059057 -0.003635262897356611 
0.04298970184295445 0.01752489044247544 -0.01377170234802823 -0.002966270836879898 -0.01041672119292756 -0.007471586997338422 -0.007341585858039111 -0.02145006406614035 0 -0.00285897189059057 -0.003635262897356611 
0.04298970184295445 -0.02564196495930635 0 0 -0.00619797608832815 -0.007471586997338422 -0.007341585858039111 -0.0002872470837681715 0 -0.00285897189059057 -0.003635262897356611 
0.04298970184295445 -0.02564196495930635 0 0 -0.00619797608832815 -0.007471586997338422 -0.007341585858039111 -0.0002872470837681715 0 -0.00285897189059057 -0.003635262897356611 
0.04298970184295445 -0.02564196495930635 0 0 -0.00619797608832815 -0.007471586997338422 -0.007341585858039111 -0.0002872470837681715 0 -0.00285897189059057 -0.003635262897356611 
0.04298970184295445 -0.02564196495930635 0 0 -0.00619797608832815 -0.007471586997338422 -0.007341585858039111 -0.0002872470837681715 0 -0.00285897189059057 -0.003635262897356611 
0.04298970184295445 -0.02564196495930635 0 0 -0.00619797608832815 -0.007471586997338422 -0.007341585858039111 -0.0002872470837681715 0 -0.00285897189059057 -0.003635262897356611 
0.04298970184295445 -0.02564196495930635 0 0 -0.00619797608832815 -0.007471586997338422 -0.007341585858039111 -0.0002872470837681715 0 -0.00285897189059057 -0.003635262897356611 
0.03490701339615108 0.03009863178226997 0 -0.01410954895680003 -0.00619797608832815 -0.008476167098359874 -0.0324339498610961 -0.0002872470837681715 0 -0.002858971890590569 -0.003635262897356611 
0.03830950185398366 -0.02564196495930635 -0.01621007133880947 0.02128633446894788 -0.00619797608832815 -0.007471586997338422 -0.00734158585803911 -0.0002872470837681715 -0.0004872502010606694 -0.00285897189059057 -0.003635262897356611 
0.04298970184295445 -0.02564196495930635 0 0 -0.00619797608832815 -0.007471586997338422 -0.007341585858039111 -0.0002872470837681715 0 -0.00285897189059057 -0.003635262897356611 
0.08831491735332668 -0.03375283375275678 -0.03292835563644626 -0.02547363757750173 -0.05013978977231557 -0.03564884692883986 -0.03997315958540103 -0.01636692607932032 -0.02237003937852899 -0.01948595132071844 0.00920806978797298 
0.04298970184295445 -0.02564196495930635 0 0 -0.00619797608832815 -0.007471586997338422 -0.007341585858039111 -0.0002872470837681715 0 -0.00285897189059057 -0.003635262897356611 
0.04298970184295445 -0.02564196495930635 0 0 -0.00619797608832815 -0.007471586997338422 -0.007341585858039111 -0.0002872470837681715 0 -0.00285897189059057 -0.003635262897356611 
0.01841126430223821 0.06999001644656488 -0.009601732757967538 -0.02054906182118114 -0.00619797608832815 -0.008476167098359874 -0.06032479063207179 -0.00167796324858348 0 -0.005539984232374274 -0.005587183906868971 
0.01951132128988755 0.08381459816386944 0 -0.01410954895680003 -0.00619797608832815 -0.008476167098359874 -0.1062449568385679 -0.0002872470837681716 0 -0.003023063578209231 -0.005587183906868971 
0.03490701339615108 0.03009863178226997 0 -0.01410954895680003 -0.00619797608832815 -0.008476167098359874 -0.0324339498610961 -0.0002872470837681715 0 -0.002858971890590569 -0.003635262897356611 
0.03490701339615108 0.03009863178226997 0 -0.01410954895680003 -0.00619797608832815 -0.008476167098359874 -0.0324339498610961 -0.0002872470837681715 0 -0.002858971890590569 -0.003635262897356611 
0.03490701339615108 0.03009863178226997 0 -0.01410954895680003 -0.00619797608832815 -0.008476167098359874 -0.0324339498610961 -0.0002872470837681715 0 -0.002858971890590569 -0.003635262897356611 
0.03490701339615108 0.03009863178226997 0 -0.01410954895680003 -0.00619797608832815 -0.008476167098359874 -0.0324339498610961 -0.0002872470837681715 0 -0.002858971890590569 -0.003635262897356611 
0.004482868039560606 -0.04241570111832779 0.04225082101830086 -0.02919921232762381 -0.03955151425508517 0.00830425752900902 0.0253995711202393 -0.01640763688280489 -0.01178570666479901 0.02253434370483432 -0.02967799978624573 
0.02944939748781492 -0.0501624008392754 0.01966564351499295 -0.01844658390449274 -0.02605003639524718 0.01327544056998118 0.02677742052006228 -0.01129621917821487 -0.01178570666479901 -0.01807505167129732 -0.01223928404739059 
0.04107120882352145 -0.03558420574192697 -0.02796417042301582 0.05039301016224388 -0.0213060328540163 0.02074896671209485 -0.01878052305065416 -0.008139042363089023 0 -0.00285897189059057 -0.01223928404739059 
0.04107120882352145 -0.02564196495930635 -0.02340465282013918 -0.006792061163203833 -0.00619797608832815 0.0266076913634103 -0.01532811798814623 -0.008139042363089023 0 -0.00285897189059057 -0.003635262897356611 
0.04298970184295445 -0.02564196495930635 0 0 -0.00619797608832815 -0.007471586997338422 -0.007341585858039111 -0.0002872470837681715 0 -0.00285897189059057 -0.003635262897356611 
0.04298970184295445 -0.02564196495930635 0 0 -0.00619797608832815 -0.007471586997338422 -0.007341585858039111 -0.0002872470837681715 0 -0.00285897189059057 -0.003635262897356611 
0.04298970184295445 -0.02564196495930635 0 0 -0.00619797608832815 -0.007471586997338422 -0.007341585858039111 -0.0002872470837681715 0 -0.00285897189059057 -0.003635262897356611 
0.04298970184295445 -0.02564196495930635 0 0 -0.00619797608832815 -0.007471586997338422 -0.007341585858039111 -0.0002872470837681715 0 -0.00285897189059057 -0.003635262897356611 
0.04298970184295445 -0.02564196495930635 0 0 -0.00619797608832815 -0.007471586997338422 -0.007341585858039111 -0.0002872470837681715 0 -0.00285897189059057 -0.003635262897356611 
-0.002231310243369945 -0.01818461504003737 -0.003029085984659977 0.03213797170831911 -0.008305284446695241 -0.003598935186810018 0 -0.0020406230466273 -0.006564133071759445 -0.0006531189172978523 0 
-0.004030882497976482 -0.02910263533511065 -0.02440961769042339 0.08333632060633048 -0.02370798709699615 -0.004823020830142008 -0.0254691140876574 -0.0020406230466273 -0.006564133071759445 -0.002296086714767091 -0.005082458424421108 
-0.01477574765775995 -0.03952996473823683 -0.02026267893228211 0.02225595746819059 -0.008305284446695239 -0.003598935186810018 0 0.05837510548629806 -0.006564133071759445 -0.0006531189172978523 0 
-0.002231310243369945 -0.01818461504003737 -0.003029085984659977 0.03213797170831911 -0.008305284446695241 -0.003598935186810018 0 -0.0020406230466273 -0.006564133071759445 -0.0006531189172978523 0 
-0.002231310243369945 -0.01818461504003737 -0.003029085984659977 0.03213797170831911 -0.008305284446695241 -0.003598935186810018 0 -0.0020406230466273 -0.006564133071759445 -0.0006531189172978523 0 
-0.002231310243369945 -0.01818461504003737 -0.003029085984659977 0.03213797170831911 -0.008305284446695241 -0.003598935186810018 0 -0.0020406230466273 -0.006564133071759445 -0.0006531189172978523 0 
-0.002231310243369945 -0.01818461504003737 -0.003029085984659977 0.03213797170831911 -0.008305284446695241 -0.003598935186810018 0 -0.0020406230466273 -0.006564133071759445 -0.0006531189172978523 0 
-0.002231310243369945 -0.01818461504003737 -0.003029085984659977 0.03213797170831911 -0.008305284446695241 -0.003598935186810018 0 -0.0020406230466273 -0.006564133071759445 -0.0006531189172978523 0 
-0.002231310243369945 -0.01818461504003737 -0.003029085984659977 0.03213797170831911 -0.008305284446695241 -0.003598935186810018 0 -0.0020406230466273 -0.006564133071759445 -0.0006531189172978523 0 
-0.02141759978147828 -0.04875536833226676 0.04907777903244104 0.09163347153473113 -0.02371959864213664 -0.01229815482978622 -0.02047520248005745 -0.00763866024793545 -0.01328608270880194 -0.004471874961547917 -0.006948051546471461 
-0.006197627172846974 -0.04704155580549213 -0.003029085984659976 0.0828715359343771 -0.01323407555764614 -0.01116209790450524 0 -0.0020406230466273 -0.006564133071759445 -0.0006531189172978523 -0.01554490853959671 
-0.002231310243369945 -0.01818461504003737 -0.003029085984659977 0.03213797170831911 -0.008305284446695241 -0.003598935186810018 0 -0.0020406230466273 -0.006564133071759445 -0.0006531189172978523 0 
-0.002231310243369945 -0.01818461504003737 -0.003029085984659977 0.03213797170831911 -0.008305284446695241 -0.003598935186810018 0 -0.0020406230466273 -0.006564133071759445 -0.0006531189172978523 0 
-0.002231310243369945 -0.02509261975391304 -0.01690342142819316 0.07913034189846471 -0.008305284446695241 -0.004341503662121137 -0.01169636222341668 -0.01698515451842652 -0.006564133071759445 -0.0006531189172978523 0 
-0.002231310243369945 -0.01818461504003737 -0.003029085984659977 0.03213797170831911 -0.008305284446695241 -0.003598935186810018 0 -0.0020406230466273 -0.006564133071759445 -0.0006531189172978523 0 
-0.002231310243369945 -0.01818461504003737 -0.003029085984659977 0.03213797170831911 -0.008305284446695241 -0.003598935186810018 0 -0.0020406230466273 -0.006564133071759445 -0.0006531189172978523 0 
-0.002231310243369945 -0.01818461504003737 -0.003029085984659977 0.03213797170831911 -0.008305284446695241 -0.003598935186810018 0 -0.0020406230466273 -0.006564133071759445 -0.0006531189172978523 0 
-0.002231310243369945 -0.01818461504003737 -0.003029085984659977 0.03213797170831911 -0.008305284446695241 -0.003598935186810018 0 -0.0020406230466273 -0.006564133071759445 -0.0006531189172978523 0 
-0.0245110262999984 0.06285993598295388 0.03116478747907543 -0.06060346687508489 0.03191150549624334 -0.02151507012402473 -0.01120139018124149 -0.007190708608782073 0.02097177628810774 -0.001917016899173185 -4.336808689942018e-19 
-0.01615186310023688 -0.05307306655010206 0.03798566720414984 -0.002072550678973092 0.04204077061525359 -0.007627785408058045 0.00251814652464348 -0.006934666340195618 0.0262915275765809 -0.0006531189172978523 -4.336808689942018e-19 
-0.01072490351912016 -0.03267564220524884 0.05813186097574852 -0.03083032385789384 0.0290366615627533 -0.007627785408058045 -0.0240125959618129 -0.002361081763669517 0.03003229834403824 -0.0006531189172978523 0 
-0.01002963684447101 -0.04241447535966621 0.0763217384287786 0.008055323608388442 -0.028832115871972 -0.007627785408058048 -0.01760952305130981 -0.002361081763669516 0.03132066494456654 -0.0006531189172978523 0 
-0.01002963684447101 -0.04241447535966621 0.06823445077672467 0.02105976463891764 -0.008305284446695238 -0.006605213188471229 0 -0.0020406230466273 -0.007524065623444908 -0.0006531189172978523 0 
-0.002231310243369945 -0.01818461504003737 -0.003029085984659977 0.03213797170831911 -0.008305284446695241 -0.003598935186810018 0 -0.0020406230466273 -0.006564133071759445 -0.0006531189172978523 0 
-0.002231310243369945 -0.01818461504003737 -0.003029085984659977 0.03213797170831911 -0.008305284446695241 -0.003598935186810018 0 -0.0020406230466273 -0.006564133071759445 -0.0006531189172978523 0 
-0.002231310243369945 -0.01818461504003737 -0.003029085984659977 0.03213797170831911 -0.008305284446695241 -0.003598935186810018 0 -0.0020406230466273 -0.006564133071759445 -0.0006531189172978523 0 
-0.002231310243369945 -0.01818461504003737 -0.003029085984659977 0.03213797170831911 -0.008305284446695241 -0.003598935186810018 0 -0.0020406230466273 -0.006564133071759445 -0.0006531189172978523 0 
-0.009115511198768345 0 -0.007157297008815634 -0.002249139796840024 0.04188793483103375 0 -0.006731716866054557 -0.01631339436220793 0 0 0 
-0.009115511198768345 0 -0.007157297008815634 -0.002249139796840024 0.04188793483103375 0 -0.006731716866054557 -0.01631339436220793 0 0 0 
-0.009115511198768345 0 -0.007157297008815634 -0.002249139796840024 0.04188793483103375 0 -0.006731716866054557 -0.01631339436220793 0 0 0 
-0.009115511198768345 0 -0.007157297008815634 -0.002249139796840024 0.04188793483103375 0 -0.006731716866054557 -0.01631339436220793 0 0 0 
-0.009115511198768345 0 -0.007157297008815634 -0.002249139796840024 0.04188793483103375 0 -0.006731716866054557 -0.01631339436220793 0 0 0 
-0.009115511198768345 0 -0.007157297008815634 -0.002249139796840024 0.04188793483103375 0 -0.006731716866054557 -0.01631339436220793 0 0 0 
-0.009115511198768345 0 -0.007157297008815634 -0.002249139796840024 0.04188793483103375 0 -0.006731716866054557 -0.01631339436220793 0 0 0 
-0.009115511198768345 -0.0184988041386142 0.02975793966871325 -0.002249139796840023 0.006977768326052534 0 -0.007192255281910537 -0.02425129028955982 -0.002573633347502229 0 0 
-0.009115511198768345 -0.06654474950989188 0.04382296849620568 -0.002249139796840024 0.03495266241476476 -2.168404344971009e-19 0.02569154361955896 -0.02576832961599625 0 0 0 
-0.05902895082139968 -0.08136649652097847 -0.01912794985218206 -0.08404869116608669 0.1318754407940117 -0.05755835388969392 -0.04121093207403968 0.02546495434133584 -0.03619373740168452 -0.02636271819655608 -0.03484197448984993 
-0.04725468535642115 -0.01986887908961302 -0.07042669917447134 -0.02404605091619959 0.1799914535939806 -0.01496838523987968 -0.01033047439418 -0.04479707082261301 -0.0182141721733595 -0.009504050630952056 -0.008188632198884667 
-0.02484582651680527 0 -0.03795481148462527 -0.009198092174747478 0.08561031420576203 -0.00868801714835056 -0.00733504707311773 -0.03183658142592621 -0.01370183455659515 -0.008186962667280646 0 
-0.02484582651680527 0 -0.03795481148462527 -0.009198092174747478 0.08561031420576203 -0.00868801714835056 -0.00733504707311773 -0.03183658142592621 -0.01370183455659515 -0.008186962667280646 0 
-0.009115511198768345 0 -0.007157297008815634 -0.002249139796840024 0.04188793483103375 0 -0.006731716866054557 -0.01631339436220793 0 0 0 
-0.009115511198768345 0 -0.007157297008815634 -0.002249139796840024 0.04188793483103375 0 -0.006731716866054557 -0.01631339436220793 0 0 0 
0.009045944372776893 0.04491344008194625 -0.06818253381635185 -0.0153092969765238 -0.01579839751129707 -0.01793808679421295 0.007399450643535784 0.05860566227374693 0.007011741445600296 -0.00912385745460838 -0.007720722448801622 
0.03511719003865937 -0.01526484566845986 -0.02238649946467598 -0.02648260463506269 0.01520531664824511 -0.01178195617425051 -0.0112742141325566 0.03742533311169959 0.01994864435485339 -4.336808689942018e-19 -0.0002185429932603474 
0.09197187159919987 -0.04020291001841057 -0.02668753498870242 -0.02878840058363578 0.01710325833276322 -1.084202172485504e-19 -0.03366747887334524 0.01954690334734779 -0.003836003054499341 4.065758146820642e-20 0 
0.04268695072418651 -0.02073227553814227 -0.0204805840545874 -0.03528220200488898 0.02545754851254506 0 -0.006731716866054558 0.01954690334734779 -0.002971522624104564 0 0 
-0.01339400194978894 -1.734723475976807e-18 -0.007406509610137672 -0.0316214507173128 0.03798209551679407 0 -0.006731716866054558 0.0262997468108688 -0.002971522624104565 0 0 
-0.01339400194978894 -1.734723475976807e-18 -0.007406509610137672 -0.0316214507173128 0.03798209551679407 0 -0.006731716866054558 0.0262997468108688 -0.002971522624104565 0 0 
-0.01339400194978894 -1.734723475976807e-18 -0.007406509610137672 -0.0316214507173128 0.03798209551679407 0 -0.006731716866054558 0.0262997468108688 -0.002971522624104565 0 0 
-0.01339400194978894 -1.734723475976807e-18 -0.007406509610137672 -0.0316214507173128 0.03798209551679407 0 -0.006731716866054558 0.0262997468108688 -0.002971522624104565 0 0 
-0.01339400194978894 -1.734723475976807e-18 -0.007406509610137672 -0.0316214507173128 0.03798209551679407 0 -0.006731716866054558 0.0262997468108688 -0.002971522624104565 0 0 
0.01883643154087202 0.02380605196678864 -0.0234034705345503 -0.04577135464089474 -0.006931522098149246 -0.04244879981880621 -0.02059101321960937 -0.03289070524743278 -0.02128100939649111 -0.06030938485701472 -0.03504000204733934 
-0.01963375996078569 -0.002202083432976272 0.0295267357472312 -0.06239605792319274 -0.009778324585194668 -0.01256120170148962 0.00761956539966756 -0.01396748526054913 -0.01067769373474485 -0.03523442672312675 -0.02273409175745567 
-0.01372682069677596 -0.04744570654079634 0.01529382818134752 -0.05337283428693631 0.03016145070383121 -2.710505431213761e-19 0.07516541946931379 -0.02576832961599625 0 -0.006409993530849144 0 
-0.009115511198768345 -0.06654474950989188 0.04382296849620568 -0.002249139796840024 0.03495266241476476 -2.168404344971009e-19 0.02569154361955896 -0.02576832961599625 0 0 0 
-0.009115511198768345 -0.06654474950989188 0.04382296849620568 -0.002249139796840024 0.03495266241476476 -2.168404344971009e-19 0.02569154361955896 -0.02576832961599625 0 0 0 
-0.009115511198768345 -0.06654474950989188 0.04382296849620568 -0.002249139796840024 0.03495266241476476 -2.168404344971009e-19 0.02569154361955896 -0.02576832961599625 0 0 0 
-0.01573031531803694 0 -0.03079751447580963 -0.006948952377907447 0.0437223793747283 -0.00868801714835056 -0.0006033302070631721 -0.01552318706371828 -0.01370183455659515 -0.008186962667280646 0 
0.05423523476657849 -0.04472514388707981 -0.01452062111534601 0.06105338797884469 -0.03654752717789689 -0.003571825030606835 0.02979664983206637 -0.07080750740615446 -0.03149504315002364 -0.02383560107090789 -0.04905249481531426 
0.09135698191632666 -0.03184169938004192 0.0004819785969369444 -0.01544033298090397 0.003977605968845648 -0.02529528854390831 -0.0006033302070631736 -0.06765033059102858 -0.01678993432140238 -0.008186962667280645 -0.02459811507029771 
-0.01573031531803694 0 -0.03079751447580963 -0.006948952377907447 0.0437223793747283 -0.00868801714835056 -0.0006033302070631721 -0.01552318706371828 -0.01370183455659515 -0.008186962667280646 0 
0.00521889799554514 -0.01950990484995262 0.06550076381595027 -0.03331023301362267 0.07121676909867256 -0.02337701710516887 -0.0006033302070631721 -0.06765033059102858 -0.01370183455659515 -0.008186962667280645 -0.01859164132093104 
-0.01573031531803694 0 -0.03079751447580963 -0.006948952377907447 0.0437223793747283 -0.00868801714835056 -0.0006033302070631721 -0.01552318706371828 -0.01370183455659515 -0.008186962667280646 0 
-0.03441671502371178 -0.0004724136330402047 -0.05441655524418261 -0.03051315129145471 0.1215547750059973 -0.00868801714835056 -0.0006033302070631721 -0.01802457513758767 -0.01370183455659515 -0.008186962667280646 0 
-0.01573031531803694 0 -0.03079751447580963 -0.006948952377907447 0.0437223793747283 -0.00868801714835056 -0.0006033302070631721 -0.01552318706371828 -0.01370183455659515 -0.008186962667280646 0 
-0.0851703723423506 -0.005136582258750831 -0.0111501802743243 -0.07638314092924087 -0.01918358392960371 -0.05937341650511464 -0.05767567398655209 -0.05554066872218254 -0.04816419184129338 -0.06224733761320428 -0.09225804902672674 
-0.01573031531803694 0 -0.03079751447580963 -0.006948952377907447 0.0437223793747283 -0.00868801714835056 -0.0006033302070631721 -0.01552318706371828 -0.01370183455659515 -0.008186962667280646 0 
-0.01958825149449082 -0.007608545082101707 -0.03226694326540908 0.03777475633300797 0.03447774231340774 -0.00868801714835056 -0.003514438876884817 -0.02009677164024438 -0.01540164652856297 -0.008186962667280646 0 
-0.01573031531803694 0 -0.03079751447580963 -0.006948952377907447 0.0437223793747283 -0.00868801714835056 -0.0006033302070631721 -0.01552318706371828 -0.01370183455659515 -0.008186962667280646 0 
-0.01573031531803694 0 -0.03079751447580963 -0.006948952377907447 0.0437223793747283 -0.00868801714835056 -0.0006033302070631721 -0.01552318706371828 -0.01370183455659515 -0.008186962667280646 0 
-0.01573031531803694 0 -0.03079751447580963 -0.006948952377907447 0.0437223793747283 -0.00868801714835056 -0.0006033302070631721 -0.01552318706371828 -0.01370183455659515 -0.008186962667280646 0 
-0.01573031531803694 0 -0.03079751447580963 -0.006948952377907447 0.0437223793747283 -0.00868801714835056 -0.0006033302070631721 -0.01552318706371828 -0.01370183455659515 -0.008186962667280646 0 
-0.01573031531803694 0 -0.03079751447580963 -0.006948952377907447 0.0437223793747283 -0.00868801714835056 -0.0006033302070631721 -0.01552318706371828 -0.01370183455659515 -0.008186962667280646 0 
0.007738581715583307 -0.03557034944020134 -0.007118005895314857 -0.03367066699985218 0.002834693203186691 0.02179143643840656 -0.00996284412542324 0.04581983812238307 0.02918189173726886 0.04102333854736796 -0.01136600067183971 
0.02070561649094197 0.001439564313195729 -0.0406310649671244 -0.04814710934607876 -0.01050643214175397 0.02608685541084955 0.01316137884018977 0.06094876180813369 0.03337851510206466 -0.01356672650427049 -0.007611221492171567 
-0.003882945487422831 -0.04849985795351666 -0.01721592109272275 -0.01178670599414535 0.007035291378204212 -0.01060369961584356 -0.01845390005322224 0.07274903078110863 0.04251161435289134 -0.008186962667280645 -0.007611221492171567 
-0.04068355983016028 -0.04687870037352825 -0.001005849753913287 -0.02697985300440397 0.01266110728750685 -0.01060369961584356 -0.01845390005322224 0.08616244184047975 0.04890642754551677 -0.008186962667280645 -0.007611221492171567 
-0.02433950466472662 -0.04687870037352826 0.02420214828698262 -0.01889362255411692 0.02582218269575578 -0.00868801714835056 -0.01845390005322224 0.07626940387593403 -0.02217607725479981 -0.008186962667280646 0 
-0.02068896598264593 -0.02454884928417377 -0.04509697247303015 -0.01889362255411692 0.02860479394862072 -0.00868801714835056 -0.0006033302070631721 0.08377464871880919 -0.01914026873616876 -0.008186962667280646 0 
-0.02068896598264593 -0.02454884928417377 -0.04509697247303015 -0.01889362255411692 0.02860479394862072 -0.00868801714835056 -0.0006033302070631721 0.08377464871880919 -0.01914026873616876 -0.008186962667280646 0 
-0.01573031531803694 0 -0.03079751447580963 -0.006948952377907447 0.0437223793747283 -0.00868801714835056 -0.0006033302070631721 -0.01552318706371828 -0.01370183455659515 -0.008186962667280646 0 
-0.01573031531803694 0 -0.03079751447580963 -0.006948952377907447 0.0437223793747283 -0.00868801714835056 -0.0006033302070631721 -0.01552318706371828 -0.01370183455659515 -0.008186962667280646 0 
0 -0.04083211791561876 0.05280609984066376 -0.003111702789585591 -0.004008382933704132 0 0 0 0 0 0 
-0.006789005001438865 -0.006850702785993488 -0.003038096979746871 -0.0127869134517897 -0.04996556502906388 0 -0.009302811677356651 0.05610540378213905 -0.006312880784558958 -0.004452787858255112 -0.002403816015994876 
-0.05307799193061848 -0.1198671843507489 0.447638375974996 -0.127939140375298 -0.08903391062176354 -0.009271743104078205 -0.118973763591753 -0.01288864094023426 -0.009961928248951812 -0.01943878258111401 -0.01350351308785712 
0 -0.04083211791561876 0.05280609984066376 -0.003111702789585591 -0.004008382933704132 0 0 0 0 0 0 
-8.673617379884035e-19 0.07035313855815406 0.0081789640755872 -0.03915294449255162 -0.01044331933846982 0 -0.01129357945851791 0 0 0 0 
0 -0.04083211791561876 0.05280609984066376 -0.003111702789585591 -0.004008382933704132 0 0 0 0 0 0 
0 -0.04083211791561876 0.05280609984066376 -0.003111702789585591 -0.004008382933704132 0 0 0 0 0 0 
0 -0.04083211791561876 0.05280609984066376 -0.003111702789585591 -0.004008382933704132 0 0 0 0 0 0 
-0.04158512412593895 0.08155899195879077 -0.0501988365137474 -0.03368187450852421 0.01988658024556069 -0.00291991906218775 -0.0005208895370944554 -2.168404344971009e-19 -0.002726487335669508 -5.963111948670274e-19 -0.002989355785168376 
0.002260858142446082 0.01784401663157542 -0.03229249429540577 -0.1056298186588064 0.1073366783985556 -0.009247533058866039 -0.007521950917613648 -0.01595234156246384 -0.005556544886688599 0.05574293622222365 8.131516293641283e-20 
-0.01707866479168508 0.08994419250167586 0.05296036780155654 -0.06162988653341551 -0.02878128430869442 -0.009089051817765093 0.04545174506510603 -0.007920207155435557 0 -0.04320560305030809 0 
-0.01355910851946988 0.02317930348576671 0.07842640706705584 -0.01340032705074224 -0.007708826465531053 -0.009089051817765093 -0.03732271278226001 0 0 -0.01714159306651749 0 
-0.01355910851946988 0.04040422189982368 0.05280609984066376 -0.01340032705074224 -0.007708826465531053 -0.009089051817765093 -0.0193765870301296 0 0 -0.009583042878753018 0 
0 -0.04083211791561876 0.05280609984066376 -0.003111702789585591 -0.004008382933704132 0 0 0 0 0 0 
0 -0.04083211791561876 0.05280609984066376 -0.003111702789585591 -0.004008382933704132 0 0 0 0 0 0 
0 -0.04083211791561876 0.05280609984066376 -0.003111702789585591 -0.004008382933704132 0 0 0 0 0 0 
0 -0.04083211791561876 0.05280609984066376 -0.003111702789585591 -0.004008382933704132 0 0 0 0 0 0 
-0.02488936747880539 -0.08410385621881787 -0.005333081873105053 0.08238184093493592 -0.01314375851121348 -0.05708478184095643 0.05123575866038985 -0.06761104739692068 -0.01930630822489658 -0.0194101870839296 -0.03420657438761029 
-0.01370480395022822 -0.1252827496541189 0.01354694201777423 0.1191350883469922 -0.02438816898981487 -0.01619649328700243 0.01165817091331204 -0.006401528432858647 -0.008906451573905428 -0.006754295509698961 -0.005082458424421108 
-0.008502307146852385 -0.04083211791561876 0.05280609984066376 0.0185433318220554 -0.004008382933704132 -0.01619649328700243 -0.004122098193043947 0 0 -0.0003443019788498153 0 
0 -0.04083211791561876 0.05280609984066376 -0.003111702789585591 -0.004008382933704132 0 0 0 0 0 0 
0 -0.04083211791561876 0.05280609984066376 -0.003111702789585591 -0.004008382933704132 0 0 0 0 0 0 
0 -0.04083211791561876 0.05280609984066376 -0.003111702789585591 -0.004008382933704132 0 0 0 0 0 0 
0 -0.04083211791561876 0.05280609984066376 -0.003111702789585591 -0.004008382933704132 0 0 0 0 0 0 
0 -0.04083211791561876 0.05280609984066376 -0.003111702789585591 -0.004008382933704132 0 0 0 0 0 0 
0 -0.04083211791561876 0.05280609984066376 -0.003111702789585591 -0.004008382933704132 0 0 0 0 0 0 
-0.005906939264009742 0.04524362310782004 0.01423290756588368 -0.009023223636256496 -0.03993977528902584 -0.01256120170148962 -0.06754585406964621 0.01180084435544712 -0.01067769373474484 -0.02882443319227761 -0.02273409175745567 
-0.05694026164369466 0.0148791158845228 0.08265263694741082 -0.03368187450852421 -0.05070195478760339 -0.01018991777172906 -0.0005208895370944558 0.02976248609748729 -0.007053786688619119 -0.005102412024727107 -0.01971697379325737 
-0.02782621664529393 0.03228595501851698 0.0001998263167289922 -0.03368187450852421 -0.03045142566176408 -0.009242359881670856 -0.0005208895370944558 0.04949704954649296 -0.004247301637213999 2.710505431213761e-19 -0.01971697379325736 
-0.05281363194366183 0.07861956890281094 -0.007758526761939624 -0.03368187450852421 -0.002471242234069756 -0.00924235988167086 -0.0005208895370944554 3.252606517456513e-18 -0.002726487335669508 -5.963111948670274e-19 -0.002989355785168376 
-0.04158512412593895 0.08155899195879077 -0.0501988365137474 -0.03368187450852421 0.01988658024556069 -0.00291991906218775 -0.0005208895370944554 -2.168404344971009e-19 -0.002726487335669508 -5.963111948670274e-19 -0.002989355785168376 
-0.04158512412593895 0.08155899195879077 -0.0501988365137474 -0.03368187450852421 0.01988658024556069 -0.00291991906218775 -0.0005208895370944554 -2.168404344971009e-19 -0.002726487335669508 -5.963111948670274e-19 -0.002989355785168376 
-0.002828466985136971 0.02948275608228967 -0.006235252813970758 0 -0.008049337197169838 0 -0.01047406605568219 0 0 0 0 
-0.01537290439952697 -0.02316085367159622 -0.02346884576159288 -0.05561068886948134 -0.008049337197169838 0 0.04845871655661559 0.05849670171257128 0 0 0 
-0.002828466985136971 -0.001815503973396776 -0.006235252813970758 -0.0457286746293528 -0.008049337197169838 0 0.04845871655661559 -0.001919026820354095 0 0 0 
-0.002828466985136971 0.02948275608228967 -0.006235252813970758 0 -0.008049337197169838 0 -0.01047406605568219 0 0 0 0 
-0.002828466985136971 0.02948275608228967 -0.006235252813970758 0 -0.008049337197169838 0 -0.01047406605568219 0 0 0 0 
-0.002828466985136971 0.02948275608228967 -0.006235252813970758 0 -0.008049337197169838 0 -0.01047406605568219 0 0 0 0 
-0.002828466985136971 0.02948275608228967 -0.006235252813970758 0 -0.008049337197169838 0 -0.01047406605568219 0 0 0 0 
-0.002828466985136971 0.02948275608228967 -0.006235252813970758 0 -0.008049337197169838 0 -0.01047406605568219 0 0 0 0 
-0.01870388034709265 0.001690461181465901 0.02290157195356805 -0.04983706200160285 0.04658552430525104 -0.02520328745688884 0.01673271269165235 -0.004103479016727421 0 -0.01207401485943255 0 
-0.002828466985136971 0.02948275608228967 -0.006235252813970758 0 -0.008049337197169838 0 -0.01047406605568219 0 0 0 0 
-0.002828466985136971 0.02948275608228967 -0.006235252813970758 0 -0.008049337197169838 0 -0.01047406605568219 0 0 0 0 
-0.002828466985136971 0.02948275608228967 -0.006235252813970758 0 -0.008049337197169838 0 -0.01047406605568219 0 0 0 0 
-0.002828466985136971 0.02948275608228967 -0.006235252813970758 0 -0.008049337197169838 0 -0.01047406605568219 0 0 0 0 
-0.002828466985136971 0.02948275608228967 -0.006235252813970758 0 -0.008049337197169838 0 -0.01047406605568219 0 0 0 0 
-0.002828466985136971 0.02948275608228967 -0.006235252813970758 0 -0.008049337197169838 0 -0.01047406605568219 0 0 0 0 
-0.05685468156054051 0.0249380643499507 0.004301035524026451 0.002305795948573088 -0.00189794168451811 -0.01178195617425051 0.02239326474078864 0.0178784297643518 0.02378464740935274 0 -0.0002185429932603474 
-0.03901198877941001 -0.00467057544506048 0.04066019910177997 -0.04651305742539688 -0.03067042889274888 0.02500989207462944 0.05047553029111536 -0.005983126337514753 0.0257940026517746 0 0 
-0.002828466985136971 0.02948275608228967 -0.006235252813970758 0 -0.008049337197169838 0 -0.01047406605568219 0 0 0 0 
-0.002828466985136971 0.02948275608228967 -0.006235252813970758 0 -0.008049337197169838 0 -0.01047406605568219 0 0 0 0 
-0.002828466985136971 0.02948275608228967 -0.006235252813970758 0 -0.008049337197169838 0 -0.01047406605568219 0 0 0 0 
-0.002828466985136971 0.02948275608228967 -0.006235252813970758 0 -0.008049337197169838 0 -0.01047406605568219 0 0 0 0 
-0.002828466985136971 0.02948275608228967 -0.006235252813970758 0 -0.008049337197169838 0 -0.01047406605568219 0 0 0 0 
0.0118926103790936 0.03704857416602297 -0.00707470216283848 -0.006743894496190297 0.008413199575610356 0.02232563726412466 -0.06404524257593053 -0.04206075509772869 -0.006096992915040861 0.004638935208319782 -0.02290891896510931 
-0.001420734425984164 -0.02432109438852349 -0.02277485235610494 0.04370141706197738 0.008777293282504501 -0.02287390936296939 -0.0004673110163193855 -0.00905422402960978 -0.0002759924313726495 0.01267515890248128 -0.00152310755678325 
0.01724028086244708 -0.05756093645914896 0.006546753700734483 -0.007026763413314223 0.03102068636379436 -0.01085112142940261 0.04355556985861793 -0.009054224029609781 1.084202172485504e-19 -0.01684448000018685 -0.001523107556783254 
-0.01870388034709265 0.001690461181465901 0.02290157195356805 -0.04983706200160285 0.04658552430525104 -0.02520328745688884 0.01673271269165235 -0.004103479016727421 0 -0.01207401485943255 0 
-0.01870388034709265 0.001690461181465901 0.02290157195356805 -0.04983706200160285 0.04658552430525104 -0.02520328745688884 0.01673271269165235 -0.004103479016727421 0 -0.01207401485943255 0 
-0.00271168619134113 0 0 0.00649380142125319 -0.01477051526089802 0 -0.002021154566967471 0 -0.0008644804303947742 0 0 
-0.03999403174543111 0.01390117764029216 -0.04389744499745857 0.05952175615284704 -0.02990592985468105 -0.01760774377192213 0.08561054684977604 -0.02294641725883794 -0.003593696525882054 -0.01350578430731993 -0.009411043732137735 
-0.00271168619134113 -0.0591745360110805 -0.03028109218635273 0.000561210085422024 -0.01477051526089801 -0.002334337352152692 0.08454213722654266 0 -0.002190165087275734 0 0 
-0.00271168619134113 -0.03382445899793359 -0.00914253478495055 -0.03279022817589066 -0.01477051526089802 0 0.08239468151863655 0 -0.0008644804303947742 0 0 
-0.00271168619134113 0 0 0.00649380142125319 -0.01477051526089802 0 -0.002021154566967471 0 -0.0008644804303947742 0 0 
-0.00271168619134113 0 0 0.00649380142125319 -0.01477051526089802 0 -0.002021154566967471 0 -0.0008644804303947742 0 0 
-0.00271168619134113 0 0 0.00649380142125319 -0.01477051526089802 0 -0.002021154566967471 0 -0.0008644804303947742 0 0 
-0.00271168619134113 0 0 0.00649380142125319 -0.01477051526089802 0 -0.002021154566967471 0 -0.0008644804303947742 0 0 
-0.00271168619134113 0 0 0.00649380142125319 -0.01477051526089802 0 -0.002021154566967471 0 -0.0008644804303947742 0 0 
-0.02268935550873118 -0.02229461499106435 -0.01302577586029491 -0.01719622831673136 0.03961229134387364 -0.01703578871285211 -0.002021154566967471 0.04712165061426834 -0.001811023332841843 0 0 
-0.00271168619134113 -0.009650365240971077 -0.02703613616914979 0.08130669735078867 -0.02479196571589123 0 -0.01631979667392581 -0.02294641725883794 -0.004103618246329726 0 -0.005722912696913624 
-0.00271168619134113 0 0 0.00649380142125319 -0.01477051526089802 0 -0.002021154566967471 0 -0.0008644804303947742 0 0 
-0.00271168619134113 0 0 0.00649380142125319 -0.01477051526089802 0 -0.002021154566967471 0 -0.0008644804303947742 0 0 
-0.00271168619134113 0 0 0.00649380142125319 -0.01477051526089802 0 -0.002021154566967471 0 -0.0008644804303947742 0 0 
0.04928492087501337 -0.01947063448026833 -0.00620695093411503 0.006493801421253191 -0.008354290179781836 1.084202172485504e-19 -0.0269357620072907 0 -0.0008644804303947742 4.065758146820642e-20 0 
-0.00271168619134113 0 0 0.00649380142125319 -0.01477051526089802 0 -0.002021154566967471 0 -0.0008644804303947742 0 0 
-0.00271168619134113 0 0 0.00649380142125319 -0.01477051526089802 0 -0.002021154566967471 0 -0.0008644804303947742 0 0 
-0.00271168619134113 0 0 0.00649380142125319 -0.01477051526089802 0 -0.002021154566967471 0 -0.0008644804303947742 0 0 
-0.00271168619134113 0 0 0.00649380142125319 -0.01477051526089802 0 -0.002021154566967471 0 -0.0008644804303947742 0 0 
-0.00271168619134113 0 0 0.00649380142125319 -0.01477051526089802 0 -0.002021154566967471 0 -0.0008644804303947742 0 0 
0.02052851059976821 -0.02910811657462983 -0.001271897233277974 0.05933391687043527 -0.0007342440462133827 -0.01844440823575359 -0.1055875241763397 -0.01424435020656523 0.01512147416431622 -0.005318988340671502 -0.03442373439772058 
0.007686941990037869 -0.07323742896735069 -0.01403420912046276 0.09995098238462308 0.0002204287988293628 0.002896291547695906 -0.0709704355777333 0.004772925744078439 -0.00944664253516009 -0.004042358655454831 -0.03076372580435878 
-0.003846544196257306 -0.03516555270908295 -0.03217087988980868 0.04741529521536016 0.05687229188171501 -0.004169048466213549 -0.02092208145195089 -0.04774142378424096 -0.004148719713913532 -0.001446321606870371 -0.005977586954201314 
-0.003846544196257307 -0.03516555270908295 -0.00930926663514017 0.04906245212675216 0.005066367586251933 -0.002646311936704696 -0.01631979667392581 -0.02294641725883794 -0.004148719713913532 -0.001446321606870371 -0.005977586954201314 
-0.00271168619134113 -0.009650365240971077 -0.02703613616914979 0.08130669735078867 -0.02479196571589123 0 -0.01631979667392581 -0.02294641725883794 -0.004103618246329726 0 -0.005722912696913624 
-0.00271168619134113 -0.009650365240971077 -0.02703613616914979 0.08130669735078867 -0.02479196571589123 0 -0.01631979667392581 -0.02294641725883794 -0.004103618246329726 0 -0.005722912696913624 
-0.01866558789588438 0 0 0 -0.0049921314778439 0.03959547864210276 -0.01483468287478042 0 -0.003835538506328611 -0.006049296259511463 -6.100372348226731e-05 
0.04084728317599743 0.0838706574812236 0.0138205037118819 -0.1272373416865661 -0.07644126560327255 0.05199554237195003 -0.1076439917645909 0.03124049007769249 -0.02422119344154027 -0.01495714234183002 0.03384200905224686 
-0.01866558789588438 0 0 0 -0.0049921314778439 0.03959547864210276 -0.01483468287478042 0 -0.003835538506328611 -0.006049296259511463 -6.100372348226731e-05 
-0.01866558789588438 0 0 0 -0.0049921314778439 0.03959547864210276 -0.01483468287478042 0 -0.003835538506328611 -0.006049296259511463 -6.100372348226731e-05 
-0.01866558789588438 0 0 0 -0.0049921314778439 0.03959547864210276 -0.01483468287478042 0 -0.003835538506328611 -0.006049296259511463 -6.100372348226731e-05 
-0.01866558789588438 0 0 0 -0.0049921314778439 0.03959547864210276 -0.01483468287478042 0 -0.003835538506328611 -0.006049296259511463 -6.100372348226731e-05 
-0.01866558789588438 0 0 0 -0.0049921314778439 0.03959547864210276 -0.01483468287478042 0 -0.003835538506328611 -0.006049296259511463 -6.100372348226731e-05 
-0.01866558789588438 0 0 0 -0.0049921314778439 0.03959547864210276 -0.01483468287478042 0 -0.003835538506328611 -0.006049296259511463 -6.100372348226731e-05 
