solver_type L2R_L2LOSS_SVC_DUAL
nr_class 11
label 1 2 3 4 5 6 7 8 9 10 11
nr_feature 38022
bias -1
w
0.1090926343588389 -0.01295626210053856 -0.05463338642870022 -0.03251093190096631 0 0 -0.04780933821406898 -0.1211236809372768 -0.007428344445655459 -0.01621287317944998 4.065758146820642e-20 
-0.07159372973455887 -0.2166405057805234 -0.07241005783274537 -0.1505589618805273 -0.1250439422039467 -0.1304705004899257 -0.1543869664295286 0.04623448671633165 0.0233166224638137 -0.05980014701481871 -0.08292925183346819 
0.1056492892619069 -0.205919389238708 -0.180049652501524 0.1996991746985002 -0.1179999714073598 -0.0843874639442049 0.1028192527952128 -0.0126410064733346 -0.08406735999709353 0.1387415427401619 -0.01105994318949662 
0.03938633030517037 -0.02571359713040429 0.01474162417948742 0.1126059509225648 -0.09328545297473191 0.01855455760415584 -0.08471009639011197 0.0401084287671941 -0.149217846399361 0.0400718338562364 -0.04589108903662625 
0.2597972533963047 -0.1037088921361698 -0.2759608459416393 -0.008923070516884308 -0.09260390998359107 -0.03482108683886255 0.1625468581656648 0.05447780990950792 -0.04109073830535729 0.01861526709855777 -0.006693619589616609 
0.1264582075257586 0.01073063029898935 -0.284239364306478 -0.202714389773593 -0.001496781595148043 -0.01219453409884234 -0.08152753628179564 -0.01745538014392562 -0.009576416570762861 -0.06016031201838755 7.047314121155779e-19 
0.08693993874459463 -0.03253110745051005 -0.1065076468627897 -0.2822498387266581 -1.517883041479706e-18 -0.1647477542141933 0.2360243966937405 0.2319480772188927 -0.03869856004822753 -0.0667116782028976 -3.865727852060771e-05 
0.1090926343588389 -0.01295626210053856 -0.05463338642870022 -0.03251093190096631 0 0 -0.04780933821406898 -0.1211236809372768 -0.007428344445655459 -0.01621287317944998 4.065758146820642e-20 
0.1090926343588389 -0.01295626210053856 -0.05463338642870022 -0.03251093190096631 0 0 -0.04780933821406898 -0.1211236809372768 -0.007428344445655459 -0.01621287317944998 4.065758146820642e-20 
0.1090926343588389 -0.01295626210053856 -0.05463338642870022 -0.03251093190096631 0 0 -0.04780933821406898 -0.1211236809372768 -0.007428344445655459 -0.01621287317944998 4.065758146820642e-20 
-0.2469295009623136 -0.3542808503334554 -0.1353311505893084 -0.2988522096547711 -0.3285653405781561 -0.2768795773470177 -0.3548333812158921 -0.1725302057595637 -0.2158594481057687 -0.2662304498044085 -0.2219817552558863 
-0.2528102213833412 -0.4176618932168118 -0.1312179578419624 -0.2258046982313098 -0.3184784838743089 -0.2766586999131827 -0.3095075809015989 -0.1668737904327595 -0.2436840691606159 -0.2678883375649473 -0.2223775750330862 
-0.09569757244914358 -0.08718850735461557 -0.0443416287208453 -0.1463350445142791 -0.1142795662375657 -0.1196815039111131 -0.1016479851621965 -0.05087877907507151 -0.1018565878228979 -0.1551094625456661 -0.09533682701866752 
0.03291808908177146 -0.05592374041918884 -0.0621435132548699 0.01537981552866136 0.06859684265362054 -0.04683606827886459 -0.007534586954844398 0.02469142605825438 0.04864246840271481 -0.007588873808168529 -0.03616877416484233 
0 -0.04462722384789439 0 0 0.007342318230498601 0 0 0 0 0 0 
0 0 0 0 0 0 0 0.003308710159483957 0 0 0 
-0.01707805905073203 -0.09116891515010001 0.1219696648677637 -0.270941379222281 -0.2036037123928563 -0.1858363263257369 -0.2349767283025624 -0.1360295310252143 -0.1027137393788194 -0.1437182409264212 -0.1138267755235923 
0.1932070146341544 -0.2244998117351973 -0.2373605134196198 -0.1347633753245671 -0.08745903541429589 -0.04727047115525579 -0.2020480035037396 0.08165048013157478 -0.03598938995812804 -0.1028905860721325 -0.02121660105370807 
0.3370132971814527 -0.1000563614415277 -0.198609509986543 -0.08171427647651365 -0.03742164324037286 -0.04380121086647916 -0.1138379181952665 -0.2338363332375662 0.001580591629941857 -0.07877237178436751 -0.01902063892129843 
0.1754602323831486 -0.06031377612090245 -0.09349729221750712 -0.02545399770392081 -0.03742164324037282 -0.04380121086647916 -0.08710293076049672 -0.08384774777587323 0.001580591629941872 -0.03482493294542985 -0.01902063892129843 
0.05196266516721273 0.0194309768046239 -0.009184754329104669 0.005492962274667066 -0.01143275039957736 -0.04380121086647915 -0.03999465089502349 -0.06623573436753138 0.05051370594059906 -0.02934833525072971 -0.01850096860115978 
-0.05947605580088816 0.1205400728635772 0.08340661531439737 -0.01924872196438866 0.02946775441030071 -0.03089007384951406 0.009924635953347302 0.06394955757914494 -0.0615933997369306 -0.01810225941598799 -0.005448851252015148 
-0.1581607942419337 0.07773863263164325 0.1024057536549386 -8.419618569019014e-05 0.04967952215636236 -0.01743845403906828 0.06121457492532122 0.06909605441665986 -0.02277055556008434 -0.01621287317944998 -0.004177695362685968 
0.1090926343588389 -0.01295626210053856 -0.05463338642870022 -0.03251093190096631 0 0 -0.04780933821406898 -0.1211236809372768 -0.007428344445655459 -0.01621287317944998 4.065758146820642e-20 
0.1090926343588389 -0.01295626210053856 -0.05463338642870022 -0.03251093190096631 0 0 -0.04780933821406898 -0.1211236809372768 -0.007428344445655459 -0.01621287317944998 4.065758146820642e-20 
-0.0542508910519976 -0.03420342117685777 -0.1567975852616429 -0.03378614109144793 -0.02145704205815388 -0.05470516653684903 -0.09986169654569269 -0.04719920234976228 -0.09808251448009236 -0.09661672462162336 -0.05937239032755237 
-0.01381644487315257 0.0874368548724439 -0.1496189575392796 -0.08346760418397085 -0.01815731124263407 -0.04236771691440078 -0.04346312909156368 -0.008847667873724499 -0.05743682725766187 -0.0390320938279915 -0.03092174854183084 
-0.01992965625038174 0.01547409307542855 -0.05561370221811313 -0.001426403083833318 0.01597433905200819 -0.02194153836436153 -0.06034573299179098 0.00573574174374222 -0.03003809229111492 -0.02845646883957964 -0.01233717484089188 
-0.01111323388080826 0.07558318776924555 -0.06499579997323636 -0.08091385357401978 -0.02526441087237881 -0.01796957892033513 0.002603378361193993 0.03064247818508072 -0.0222659954365508 -0.02335424552613649 -0.0073815562033373 
0.004752948567243525 -0.01148524837704148 -0.02402699453929872 0.01018705866160089 -0.01132406092202685 -0.0003154786310077726 -0.001122176786660684 0.01425077231553445 0.001993668397014245 -0.002011842622986423 -0.003879639958356897 
0.0001485089628169346 0.04159702628523611 -0.04354448925600067 -0.00828181844269724 -0.0115080254631649 -0.0003154786310077733 -0.05455153156930803 0.00673496380536604 0.0025967011429449 -0.002378329329375734 -0.002926855155117817 
0.001816090918247558 0.03092793107383186 -0.01288899025057347 0.003274410248842224 0.007342318230498602 -0.0003154786310077715 0.01557869510576464 0.003551337388064566 -0.001672654935550631 -0.002378329329375732 -0.002926855155117817 
5.183841637196318e-19 0.01444699352186683 -0.01932269636038348 -0.02022300225947114 0.007342318230498601 0.005000922503406039 0.01557869510576463 0.002566323432853424 -0.001672654935550631 0 -0.002926855155117817 
0 0.01444699352186681 -0.01828728082108011 -0.01620640684086758 0.007342318230498601 0.00574416356162929 0.01557869510576463 8.673617379884035e-19 2.981555974335137e-19 0 -0.0004599380397360425 
0 0.09040248265210284 -0.01828728082108011 -0.1022825853027013 0.007342318230498601 0 0.01557869510576463 0 0 0 0 
0 0.09040248265210284 -0.01828728082108011 -0.1022825853027013 0.007342318230498601 0 0.01557869510576463 0 0 0 0 
0 0.1432220357887554 -0.2267845961137867 -0.03354028070406958 0 0 0 0 0 0 0 
-0.1812164916487816 -0.110786535485365 -0.05880790000922142 -0.1159038204640583 -0.1934345416703607 -0.1503753497368303 -0.1985146314588866 -0.2131082771490916 -0.2670006916244357 -0.2343019692479021 -0.1438696577792068 
-0.09955468322091257 0.05136058999031216 -0.07792818214909579 -0.07762171980852117 0.01303458660586861 0.02024895938317804 -0.09244553792525463 0.1357931297161331 -0.05123033081924288 -0.03953180953766251 -0.02684840513991962 
-0.02755977530893845 0.01300836085579316 0.1587899552546279 -0.2170443003836725 0.1868170964201297 -0.07220626604437805 0.1881975213279212 -0.08792382211174199 -0.02268945335467201 -0.02937142093857361 -0.0019795514363188 
0.2913525521431761 0.003008045176666382 -0.1010434909982764 0.1048028483417866 -0.1072721669735742 0.1281005554141647 0.1952448404586734 -0.1663001370857651 -0.0454354381050631 -0.07355063563737807 -0.003042340547054041 
0 0.264752184898682 0.1688667266187509 -0.08437536477380934 -0.02226897619940589 0 -0.1240337034323994 -0.005681538115360101 -0.01783919290907762 0 -0.0019795514363188 
-0.003048437046625748 0.1857856129482165 0.05690390304991338 -0.1110367237772777 0 -0.01288686036584335 -0.01054202638432925 -0.02699649404515246 -0.01872269220635969 0 0 
0 0.3090219508677228 0.1427220910276318 -0.1457276768412527 -0.05755745575727522 0 -0.09141115003234501 -1.111307226797642e-18 0 0 -0.0019795514363188 
-0.003048437046625748 0.1857856129482165 0.05076765275358253 -0.1110367237772777 0 -0.01288686036584335 -0.01054202638432925 -0.02699649404515246 -0.01872269220635969 0 0 
0.005969076167642953 0.03847386821564443 0.0256195396283884 -0.1001070551336782 -0.005855495777969266 -0.0134004636657658 -0.01130632928710567 -0.04157860669521321 -0.001579039105563248 0.01590666310352668 0 
-1.734723475976807e-18 0.236336994274444 -0.1139470855130776 0 0 0 -0.09475492180034198 0.003632398191061258 0 0 0 
5.421010862427522e-20 -3.469446951953614e-18 -0.1139470855130775 -0.008960294178949208 0 0 0 0 0 0 0 
-0.2102850736848837 0.1333308965850984 0.3593301782873826 -0.1361780038977205 -0.1161446769785607 -0.1385658551704809 -0.03292872479882379 -0.2176800111567925 -0.06672434942069219 -0.04082765485428926 -0.092610174469884 
-0.09632499753951793 -0.009859654389209107 0.257217451991289 -0.0809670079047209 -0.0599681892970805 -0.04700608374185909 -0.02396475376401613 -0.06256966059680658 -0.04513078770610062 -0.04822523240805178 -0.03430747666000228 
-0.02998781162279753 0.05275231327346782 0.09539244838955241 -0.07158756086066206 -0.03764220586765376 -0.04026963358386782 0.05919644378838194 -0.04571034790216111 -0.02248831891361336 -0.02303308408377416 -0.02231591000097486 
-0.04042298551030026 0.07070156165374085 -0.01848064840612147 0.06674125867043706 -0.02924485641563162 -0.02477096616562881 0.003481889846650484 -0.03538460712482458 -0.01503788805140944 -7.589415207398531e-19 -0.001244470838227957 
-0.03116874874083177 -0.07264461073708552 0.02383419385831517 0.1303830107654314 -0.01608260450591284 -0.01864305937860737 -0.01873619933409035 -0.03260605877762458 1.789357101074709e-20 1.084202172485504e-19 -0.001244470838227957 
-0.01480718779416504 -0.08339712897615148 0.03324479187653792 0.01436894628521057 -0.0009784424355728967 0 0.05713797117888084 -0.01719977854257 1.789357101074709e-20 1.084202172485504e-19 -0.001244470838227957 
0 0.107706166803688 -0.2334136391149796 0.0796931670133786 -0.0005315157610857996 0 0.05713797117888084 -0.01180805702375794 0 1.084202172485504e-19 -0.001244470838227957 
1.734723475976807e-18 0.2059234905629824 -0.2744486457273279 0.1416514681180908 0 0 8.673617379884035e-19 -0.01180805702375794 0 1.084202172485504e-19 -0.001244470838227957 
0 0.1756781760487096 -0.3267396323205403 0.2842453305248138 0 0 0 -0.01180805702375794 0 1.084202172485504e-19 -0.001244470838227957 
0 0.1756781760487096 -0.3267396323205403 0.2842453305248138 0 0 0 -0.01180805702375794 0 1.084202172485504e-19 -0.001244470838227957 
-0.0735783038314521 -0.09334687594735826 0.03075411133521967 -0.1433048864463469 -0.09723165690908601 -0.07789500800047607 -0.1250838233854866 -0.07390946805628845 -0.08568121940863584 -0.07344750292297431 -0.06655791621410831 
-0.04027031531525747 -0.0288155636332138 0.06214305277428045 -0.1404117560887499 -0.06266545642137024 -0.05191174790283024 -0.09331381863200219 -0.05872227090975232 -0.05984875020508216 -0.04396302942507735 -0.03094134025238483 
-0.02859375433617702 -0.02360178379510962 0.0436161776761755 -0.06461565569236719 -0.04415452350807115 -0.03855245237799234 -0.05808628548604024 -0.03866039732197465 -0.03035611388262617 -0.03334774351239142 -0.02074985357947954 
-0.01447859543701717 -0.01813805155372909 0.02071682990882149 -0.02770090102512425 -0.04150685852105625 -0.05168593826880695 -0.03585892992126946 -0.01926857553982395 0.007864557925155053 -0.04951593004974023 -0.01228729658531302 
-0.01091042085835583 -0.007738462567917298 0.003877924321553053 0.006125809387331963 -0.01400526359662739 -0.01876017999274429 -0.00766174025403585 -0.01224269078588816 0.01265889320176969 0.006226466144747844 -0.002818238637582455 
9.294616315587504e-05 0.01640269119466687 -0.01869168084400102 0.006157863818347408 -0.01835954046673444 0.0174762517189724 0.001907861192121009 -0.008927206865394954 -0.008573614558944637 -0.001279480689439299 9.821086218381495e-05 
-0.003899992573473733 -0.01571513356945152 0.04848802640048459 -0.03165170622367753 -0.005855495777969266 0.01489138036904398 -0.04806006846314494 -0.0374263324131196 -0.001579039105563249 0.01590666310352668 0 
0.005969076167642953 0.03847386821564443 0.0256195396283884 -0.1001070551336782 -0.005855495777969266 -0.0134004636657658 -0.01130632928710567 -0.04157860669521321 -0.001579039105563248 0.01590666310352668 0 
0.005969076167642953 0.03847386821564443 0.0256195396283884 -0.1001070551336782 -0.005855495777969266 -0.0134004636657658 -0.01130632928710567 -0.04157860669521321 -0.001579039105563248 0.01590666310352668 0 
-0.06389491666511721 -0.09891609396968398 -0.03179735782123667 -0.05717204855522821 -0.08164667371849917 -0.07577549785639023 -0.09754175542072994 -0.03869473377338137 -0.07238360758102723 -0.08474804576788039 -0.06514646307129292 
-0.02492077441162555 -0.1010217820608565 -0.006447592727378479 -0.05226522001664308 -0.04036439974781817 -0.03887125890888435 -0.03045167510041565 -0.0113912167397402 -0.06119170975563309 -0.04573058745684937 -0.03603052051229285 
-0.02663744016278984 -0.05003111308202677 -0.01209479288937503 0.01200572253562448 0.008009802189900706 -0.01539168795730079 -0.0386702464449059 -0.01137729004576837 -0.04122335089273695 -0.0348968072795872 -0.01369135871076327 
-0.01647496495603636 -0.03513623872237357 -0.04193835893184816 0.00588303367080345 0.009048794209435067 -0.002397525678886072 0.0004945332257869694 -0.008406576190664008 -0.02049331245695749 -0.01098745904905011 -0.005754059149492908 
-0.001350962877899767 0.03894765656451839 -0.0324297127161314 0.004044691964729213 0.009058921818988203 -0.004189041240014003 -0.01556865683518175 -0.01848569794511882 0.0009861628330766828 -0.003433549791425466 -0.003703925224036288 
0.007799283934974517 0.0149043488705987 -0.050153453195368 -0.002889346590406983 -0.01877669953562845 -0.01147959136684823 -0.00436625306978768 -0.008505866695058832 -0.01995842605403505 -0.01213988155363309 -0.004437608433786305 
0.02610157197054184 0.07792637057631449 -0.03295047380398897 -0.07974755574859251 -0.01502584665339256 -0.001232025792493031 0.02670492591917005 0.009468306257157897 0.006082561445979797 -0.006085697163123771 -0.0007414005763687302 
0.02946471925206453 0.05558342654407068 -0.02417485343032106 -0.07515875173807987 -0.01203454224565587 -0.01808748601587433 -0.003583263918605766 0.0003258348701347385 0.0006936232537162959 -0.01284235690825822 0.001614094898989363 
-0.02490217331402062 0.1099657444854293 0.02343215503974124 -0.04433999001585248 0.01631555684630846 -0.001574181474456714 -0.08489582376573876 0.01052125166015763 0.0006936232537162959 -0.01180531417588336 0.001946952972400731 
-0.01251626376274082 0.05798512549219326 0.01961451789526395 -0.02075880692560043 -0.003202406138078028 -0.0003383044593089184 -0.1516171381976891 0.007463962162598071 0.00108732542270784 -0.009717904120385881 -0.001491678716769151 
0.01212005591131578 -0.03042929788724997 0.02869588477140173 -0.002259886293132917 -0.003202406138078026 -0.006055025124040431 -0.04358060397656464 0.00101854614446501 0 0 -0.001491678716769151 
0.008233906351992282 0.02173504511628817 0.02869588477140178 -0.01367754783270907 -0.003202406138078026 -0.006055025124040431 -0.04358060397656466 0.001018546144465008 0 0 -3.86572785206077e-05 
0.006812814588406507 0.06619495683952159 -0.05662650719357002 -0.03038358564313824 -0.004443617988397878 -0.006055025124040431 -0.04358060397656463 0.00345775499535769 0 0 0 
0.006812814588406507 0.2108657945644225 -0.1533609371589884 -0.03038358564313824 0 -0.006055025124040431 -0.09475492180034198 0.00345775499535769 0 0 0 
0.006812814588406507 0.2108657945644225 -0.1533609371589884 -0.03038358564313824 0 -0.006055025124040431 -0.09475492180034198 0.00345775499535769 0 0 0 
0 -0.1686740185799467 0.759532377106297 -0.2378961318785232 0 0 -2.38524477946811e-18 0 0 0 0 
-0.03121723064993418 -0.0881995925233533 -0.02427336825796304 0.2561383803321599 0.08499383241338929 0.02735351088286097 -0.05387816600929106 -0.1517653526928983 -0.2307664257862986 0.05901281961005525 0.1061412340798034 
-0.08451032768641308 0.1187734716284449 -0.3109226332687904 -0.1333712760414449 0.07178517056622982 0.09461706978087185 0.3820715614355333 -0.02940745804669481 -0.06829067359929313 0.1265723950198831 -0.005651692530981052 
-0.01864313427927122 0.6171191682145263 -0.08553472242935477 -0.1758668542643615 -0.09751301439949325 -0.03801245315638706 -0.1687693766030312 -0.003931052864552391 -0.005358325976324087 -0.09460466491913209 -2.643335948635144e-05 
-0.005264657741800641 -0.008765532640441873 0.5959680199465855 -0.5211484944409764 -0.008390738339935724 0 -0.01321388934166653 0 0 0 -4.336808689942018e-19 
0 -0.02236156463156324 3.469446951953614e-18 -0.006766884188575198 0 0 0 0 0 0 0 
0.01324764417737549 -0.1822631836666782 0.1542823628238394 0.1438094221088815 -0.01773159619153217 -0.01884735268898266 -0.09521521402392953 -0.01965524329419018 -0.0216162979510591 0.01317257403201989 -0.0008500689438753438 
0 1.734723475976807e-18 0 -1.734723475976807e-18 0 -1.084202172485504e-19 0 0 0 0 0 
-0.01635437632905051 0.01733087757189053 0.03013510773119668 0.01003242573342445 -0.05547202268137948 0.00183298154812172 -0.05713708487217149 -0.0003085335833061409 0.005091903377260707 -0.02312732192504562 -0.004666171834756873 
-0.2357321623326108 -0.2362581261157872 -0.2531876227097213 0.004478596877698317 -0.114874771481454 -0.09500952390101763 -0.1179248695858517 -0.03084425940754753 -0.1409703297817959 -0.1503838753363005 -0.1129721340890829 
-0.1360593021723971 -0.1092825879900292 -0.1295805659089289 0.2871390357155528 -0.0004960103379413645 -0.1574781289326965 -0.037609981487946 -0.2392484613465975 -0.04580504647440667 -0.09248402440267904 -0.07404698802388772 
-0.01765556810103421 -0.01299456276437139 -0.08148536018739602 -0.1725146252545151 0.134573945199702 -0.06095277547501001 -0.02631154651336854 -0.08467065733178125 -0.04298289601324434 -0.06467453919708925 -0.01855696447079856 
-0.009197188063465939 0.02847730565512811 0.0659307607886456 -0.02202388040503519 -0.2697395289740698 0.0164848568617529 0.1388883591601047 -0.006320345594504104 -0.0250901967997582 -0.01129339733417259 -0.006062290525937079 
-0.01901689716010221 0.1028219429446089 0.1468371297594772 -0.2476245775812115 -0.09341745887637866 0.073267332452987 0.1410612279392528 -0.003498095430599068 -0.02593429908463079 0.01802668605529521 -0.0487303765804104 
-0.02659818457378968 0.06161756593710668 -0.01473428886691594 -0.1229893817390121 -0.03922193703310214 -0.03340309791070307 0.1150974953334532 0.1497900569557293 -0.006213562286970967 0.03536245673327717 -0.01652047873855569 
0.02201670737218418 0.0788122597164979 0.1678290989923448 0.1832579378526131 0.01338560381284495 -0.01142576438896114 -0.06350470238997392 -0.1465929846389719 0.0316271839924292 0.04440157535576717 -0.01627518105608874 
-0.07879306444962123 0.04248720702025661 0.08935542125355622 0.2309982890086528 0.03396852562847018 -0.002067031004876569 -0.1147382141159512 -0.04054234714815744 0.0263551466911466 -0.04726113359261292 -0.009876285926604843 
-0.04209677046027796 -0.1518934381710087 0.1117222970843782 0.2324783586912303 -0.06556383271562627 -0.06287522674062737 -0.1047075964628961 0.01479107136323178 -0.01118925390975696 -0.02705402305847963 -0.008856923357949922 
-0.03723090753903079 -0.1209332341485353 0.1698941975131118 0.03840726614080237 -0.02956883698398546 -0.04633913183973535 -0.03559303438850747 0.06806954644626839 -0.02949917101008151 -0.009322725929371885 -0.008856923357949922 
-0.03723090753903077 -0.05009765387248383 0.2400486830807976 -0.08638817489724643 -0.001855280792839216 -0.02462756773667801 -0.03393399390750343 0.006094580150013285 -0.02037027590828822 -0.005967760286859396 -0.008856923357949922 
-0.03723090753903077 -0.2187234915764458 0.009772013567867575 0.2041645380571303 4.336808689942018e-19 -0.009973120008475354 -0.009882341235297812 0.006094580150013278 -0.005117742005999729 -0.002391589193136641 0 
-0.03723090753903077 -0.1686740185799467 0.06860690964136612 0.1203008118287348 0 1.301042606982605e-18 -0.009882341235297805 -0.06349806852976889 -0.005117742005999729 0 0 
0 -0.1686740185799467 -0.1101443143206991 0.2134690193862877 0 4.336808689942018e-19 -0.009882341235297805 -0.009439652678729149 0 0 0 
0 -0.1686740185799467 -0.1101443143206991 0.2134690193862877 0 4.336808689942018e-19 -0.009882341235297805 -0.009439652678729149 0 0 0 
-0.03330798851619396 -0.06453131231414455 -0.03138894143906174 -0.00289313035759217 -0.03456620048771526 -0.02598326009764629 -0.03177000475348446 -0.01518719714653644 -0.02583246920355346 -0.02948447349789696 -0.0356165759617235 
-0.01119652349825625 -0.02233806573368503 0.003440508028484184 -0.0153575261179129 -0.02004779039776287 -0.009314256681271787 -0.01869359663398459 -0.002404382276877694 -0.002641970580437377 -0.01821780297068724 -0.01861522100441708 
0.004234695371572227 -0.03677910797972848 0.03529406718609924 -0.05169917789415366 -0.009429036949203155 -0.01385023408650496 -0.01485351930087518 -0.0233826704685222 -0.0323844220259376 -0.009671905246369324 -0.002961405087627499 
-0.003520861803431494 -0.11687534648329 0.05883824560116516 -0.01271035472993014 -0.01277185335303007 0.0001759955862903014 -0.02205925650825782 0.001288973780969577 -0.01612301117823745 -0.001255789297934 -0.0006433354891990899 
-0.007643664909006253 -0.0485400553800184 0.001354080670471396 0.03870391446644169 -0.004552740461968724 -0.002038108782443907 -0.007204728057728942 0.002756334857176374 -0.01659658137250313 -0.001255789297934 -0.0006433354891990905 
0.0004862902559850431 0.03908517576231316 -0.01798707907460827 -0.03846542160079432 -0.01302846207863023 -0.004262706093463234 0.0274205634899151 0.003113167473649825 -0.01659658137250314 -0.002388014341920045 0 
0.005809559194951857 -0.05667452159339832 0.06130804574173929 -0.003377328520633119 -0.01124153723457569 4.336808689942018e-19 -0.003715282724906565 0.005445400466868683 -0.01659658137250314 0 0 
-0.0004674769791689443 -0.0457946426613333 0.1074027504761348 -0.07737374138783652 -0.009696255396969201 0 0 -0.009971598605660574 -0.01659658137250314 0 0 
-0.0004674769791689443 -0.04579464266133331 0.09773255805414921 -0.07737374138783652 -0.0222169143862612 0 0 -0.00997159860566057 -0.01659658137250314 0 0 
-0.0004674769791689443 -0.04579464266133331 0.09773255805414921 -0.07737374138783652 -0.0222169143862612 0 0 -0.00997159860566057 -0.01659658137250314 0 0 
-0.003363147281522788 0.02234294403224259 -0.00877562037366828 -0.004588804010512718 -0.002991304407736631 0.01685546022338125 0.0302881898377757 0.00914247138702313 0.005388938192263498 0.006756659745134478 -0.002355495475358091 
-0.008971552925095175 -0.06827466565965501 0.04537388659751516 0.0217862110037714 0.001786016463212079 0.003192747844078495 0.004235289972856156 0.005503394965296103 -0.003772691686268612 0.01671769768372641 -0.004666854125413991 
0.01131348660895959 -0.1159121223677689 -0.01241451951254503 0.04910930050204926 -0.003056098854505489 0.007766725686504226 0.01818853946433314 0.01275521313244591 -0.01610968131419172 0.008205219846546744 0.004412845015118749 
0.002169007790117743 0.008516664762127632 -0.04652359235463169 0.01380572722707267 -0.007407519877256353 -0.004053633729111078 0.04100628913893775 0.02333760685590083 -0.01610968131419172 -0.008391651675294728 0.0008142180949258637 
-0.003681347742781478 0.002764057143170914 -0.1051775929459696 0.02534781267089151 -0.03702639472172675 0.0007748355951197832 0.04369406580876369 0.02664933304045478 0.00183528267011968 0.001875330674940824 4.554463695075745e-05 
-0.004739123081343393 0.005378534603305975 0.05724217110260597 -0.02576519115584133 0.009820223219905359 0.001681914679199513 -0.04816082434205302 0.01090539296333884 0 -4.336808689942018e-19 -0.0006636954835883397 
-0.004413974641237438 0.07746044690016909 -0.000214460347027089 -0.0572976399827534 0.009820223219905357 5.818650791109567e-05 -0.02621118343570707 0.000866529363854421 0 0 -8.277776682386599e-05 
-0.003302555937963464 0.1356269117745253 -0.01771504034839508 -0.06553437885620114 0.009820223219905357 -0.008693861181550074 -0.02621118343570708 -0.008243712050407052 0 0 -8.277776682386599e-05 
-8.673617379884035e-19 -0.02586622805948344 0.04138749815897434 0.009798887777810036 0 -0.008693861181550074 8.673617379884035e-19 0 0 0 -8.277776682386615e-05 
0 -6.505213034913027e-19 -4.77048955893622e-18 0 0 -1.084202172485504e-19 0 0 0 0 -8.277776682386609e-05 
0 -1.734723475976807e-18 -3.469446951953614e-18 0 0 -1.084202172485504e-19 0 0 0 0 -8.277776682386609e-05 
0 -1.734723475976807e-18 -3.469446951953614e-18 0 0 -1.084202172485504e-19 0 0 0 0 -8.277776682386609e-05 
0 -0.03703617862385813 0 0.1455484059765292 0 0 -0.04447527076392131 0 0 0 0 
0.1740471263071432 0.05529350215238715 -0.1126155833269034 -0.1256622458530032 0.2973054680453073 0.05463683443696157 0.172312057803576 -0.1426201696543541 -0.003810595838479979 -0.07169999294212365 -0.01449071734531881 
-0.2913188714652739 0.171940860704261 -0.284792175142538 0.484841297017044 -0.2588763731407965 -0.05694563684373942 -0.1822651633703741 -0.04262460715761367 -0.2541369314242877 -0.09124682434353829 -0.02176751265152312 
-0.009480181260038679 -0.06112486436230801 0.006252901087969662 0.09893403241123895 -0.01569083325416431 -6.505213034913027e-19 0.07165752370752113 4.336808689942018e-19 -0.005385725748263292 0 0 
-0.2025632934965361 -0.2439562751849589 -1.020988865250571 1.003023318034604 -0.3480795228857327 -0.157448163157971 -0.3600101752188765 -0.2269698512487068 -0.1585990729799519 -0.07576784875070319 -0.01853262259047872 
0 -0.07501013630607643 0 -0.06590854375018748 -1.084202172485504e-19 0 0.1706911153260621 0 0 0 0 
0 0.1974719822819739 -0.1017146942823176 -0.1069045858384156 -0.01553124036590664 -0.002910502212785316 -0.09052336763453832 0 -0.008049483463924905 0 -2.032879073410321e-19 
0 -0.07501013630607643 0 -0.06590854375018748 -1.084202172485504e-19 0 0.1706911153260621 0 0 0 0 
0 0.0005386687804948044 -0.2151645046857737 0.1953081202337493 -0.01538872730483856 0 -0.04447527076392131 0 0 0 0 
0 3.469446951953614e-18 0 0.01464746732268824 0 0 -0.006646096196536648 -0.003119955680816707 0 0 0 
0 0 -0.01816983061875317 0.03524199326350765 -4.336808689942018e-19 0 0 -0.0178764512008396 0 0 0 
0.0138377855288099 0.04682123430739984 0.02917876842569924 -0.03296143120621971 -0.02498862214373331 -0.001439328003881195 0.003704703100826029 0.0197468026185639 -0.008366167103931264 -0.005645702176849003 0.008429910597258745 
-0.001890162105351686 -0.0119014182347677 0.01950444696344089 0.01138675551598745 -0.0008104256888424005 0.006570390719293859 -0.0493895962007033 -0.04669526119154806 -0.06815896991624658 -0.008590079032768398 0.004963372421452148 
0.1008097718218053 0.03632505269624089 0.07847367773878591 -0.04774035115603195 -0.02058292181562529 -0.009358733384084501 0.05123351172597548 -0.1060506374908178 0.005272037301282796 0.09166270894837932 -0.006398895129483935 
0.03054670279034334 -0.020759347707402 -0.02546797065220626 0.02575715760799713 -0.03911670502616653 0.03506849427384538 0.1192771651725763 -0.09664024550052486 0.03436724400922622 -0.005568266031452474 0.01200209072731507 
-0.02974205603951882 -0.01064457160416888 -0.04544722172713723 -0.03891875183745833 0.0282224037859915 0.00230315267617132 0.1567682969666072 -0.07160768264522169 0.004940811929406508 -0.02448034108498785 -0.003483384153987093 
0.02217178247263088 0.2030422114966001 0.0201284495105075 0.04408038363859186 0.03642861153301695 0.002303152676171327 -0.1283949114876908 -0.05934816618189812 0.03069638234612377 -0.01895091424116117 -0.003483384153987093 
0.04231886782944359 0.07812986136102672 0.02684732357444714 -0.05225060174622306 0.1167132550386641 -0.0252215057501196 0.01411185826839541 0.003911461998712946 -0.06252777261645301 -0.02566421032559824 -0.001815130188464737 
-0.01997929257697456 -0.1496251309301917 0.0002062202118752147 0.05390849144602066 0.03587526908429516 -0.01779025269379239 0.115817924213039 -0.03314155502479628 -2.168404344971009e-19 -0.01282559494515244 -0.001815130188464737 
-0.01394261969386511 -0.04086649699147248 0.08394659442438263 0.1667035384310532 -0.008796604909687741 -0.01779025269379239 -0.02690172446765471 -0.03314155502479628 -2.168404344971009e-19 -0.007217732160968065 -0.001815130188464737 
-0.00263446179352207 -0.07453454265848193 0.103720134059365 0.1587801527471132 0 0 -0.1033551264501767 -0.03314155502479628 0 0 0 
-0.00263446179352207 -0.01837088386436108 0.1022288054147281 0.06966525468850424 0 0 -0.06105651117720443 -0.03314155502479628 0 0 0 
0 0.03607062576015464 0.05787490682757569 0.03123563440473814 0 0 -0.02602426831818433 0 0 0 0 
0 0.06450592154807043 0.05787490682757569 -0.005010118853052603 0 0 -0.03121854831691657 0 0 0 0 
0 0.06450592154807043 0.05787490682757569 -0.005010118853052603 0 0 -0.03121854831691657 0 0 0 0 
-0.08353434510274778 -0.1468916579639074 -0.1176304404563438 0.02317714861603747 -0.1069672607276591 -0.08326933831516523 -0.1261697893407246 -0.04208554330140538 -0.05614626192908279 -0.06554515079408289 -0.06490416637989908 
-0.03260906089068911 -0.05772535036472574 -0.0275816428091592 -0.06295379947347796 -0.04303576872366525 -0.04067875208144794 -0.0163997009344856 -0.006397935294654813 -0.01790241043635114 -0.03297105736888015 -0.03647268464274676 
-0.01673957983525806 -0.04035736173702709 0.00254355098036866 -0.0323731057971566 -0.02914762224624558 -0.02412431514189944 -0.04405202722003753 0.004961064402841883 -0.01186830775644211 0.002258877945213887 -0.02012024198939237 
-0.004406387747650906 2.585585431940133e-05 -0.0210991786832672 -0.05401942937305912 0.00252136221062967 -0.002308785537716448 0.01794190248595318 -0.002069267195383266 -0.002934992176857876 -0.01849089376411066 -0.007154541114639894 
-0.002264568862881171 0.04896302824292694 0.01673438421074804 -0.05042446562689194 0.02261022673254922 0.005695419704153155 0.02000974706598625 -0.003076403497590912 -0.003564520714962595 -0.02131106066589971 -0.003407461792043862 
0.004111228148766591 0.04064794959423784 -0.01304767564930608 -0.07241685593009457 0.02508494599511943 0.00925853206822951 0.04198808122714218 -0.004360092336285193 0.001409512092219817 -0.01119703157863323 -0.003069347730070224 
-0.004250865181015734 0.02761985842476247 0.006706868227908212 -0.007079500624681869 -0.01319827489925235 -0.002711161197614905 -0.01539980712331247 -0.01027237550318564 -0.001185681766517767 -0.004477509831296263 -0.004088954787828776 
0.001860955884840237 0.01555682071768276 -0.02804336700908085 0.01021741365761041 0.008436630841811626 -0.009004195804735545 0.01781505756962381 0.01384593896733196 -0.006937632546802325 -0.007967557186165618 -0.0002927105547934882 
0.007306116699344613 -0.008798832579366854 -0.0886006526094799 0.02442311282506419 0.001249154747441753 0.002961914094845964 0.05625517766143693 0.02759309862124878 0.0161170962980249 0.01336139174025932 0 
0.0009758747663590138 -0.02681734436856715 -0.09209679653039229 -0.01689428195583959 0.005254029273435305 0.004795046258564266 0.07773571976164406 0.03519571100822089 -0.001088726547913441 0.01349419929526468 0 
0.002217702811154262 3.035766082959412e-18 -0.01839280417597378 0.04919183969309557 -0.002364853371830913 0.002150854012599829 -0.04061867960895137 0.05647874616238577 -0.001088726547913441 0.01349419929526468 0 
0.002217702811154262 -3.469446951953614e-18 -0.02328144770194599 0.04239039235629957 -0.02022522776463846 0.002150854012599829 -0.02175718383681559 0.06466590793727298 0 0 0 
0 3.469446951953614e-18 -6.938893903907228e-18 0.04917680106235027 -0.03871627551734178 0.003300105331171915 -0.01886863123107001 -0.01168030493792059 0 0 0 
0 3.469446951953614e-18 -6.938893903907228e-18 0.01464746732268824 0.008966793960731906 0 -0.006646096196536648 -0.007222231694932571 0 0 0 
0 3.469446951953614e-18 -6.938893903907228e-18 0.01464746732268824 0.008966793960731906 0 -0.006646096196536648 -0.007222231694932571 0 0 0 
-0.01016247520675326 -0.01489487435965239 0.02984356604247329 0.006122688864820888 -0.001038992019534262 -0.01299416227841464 -0.03916477967069264 -0.002970713855104564 -0.02073003843577905 -0.02390934823053705 -0.007937299561270364 
-0.003786196679923206 -0.03703960111589502 0.04831438319083695 -0.01608310614728434 -0.005327797579360321 -0.01286355150658251 -0.01167294463374499 -0.003303205347117204 -0.02854012170918084 -0.0100444487257473 -0.006969267068342076 
-0.008669065958122439 0.03984797267936004 -0.02723118534477994 0.005708150457150096 -0.02142480028396719 -0.006404257009122612 0.01025428634546762 -0.004329626147268885 -0.03037968029117982 -0.01507768530745971 -0.00299852032553012 
-0.01073335238457874 0.02082260413664485 -0.02240134895502699 0.0374321625392515 -0.02725342089754972 -0.003325004573425585 0.004882706384578983 -0.01310125070871496 -0.02502438242164306 -0.01533631196554802 0.0005300692713366799 
0.0002760470080590163 -0.006416826821802999 0.00965767031860593 0.001825965089995123 -0.001524856489812954 0.01303528068752866 -0.01340157683581043 -0.004391812267807035 -0.01326225387786694 0.00397412382885704 0.004627422878826889 
0.0138377855288099 0.04682123430739984 0.02917876842569924 -0.03296143120621971 -0.02498862214373331 -0.001439328003881195 0.003704703100826029 0.0197468026185639 -0.008366167103931264 -0.005645702176849003 0.008429910597258745 
0.0138377855288099 0.04682123430739984 0.02917876842569924 -0.03296143120621971 -0.02498862214373331 -0.001439328003881195 0.003704703100826029 0.0197468026185639 -0.008366167103931264 -0.005645702176849003 0.008429910597258745 
-4.336808689942018e-19 -0.03378745615879694 -0.1336003147707373 -0.06601126019910759 0.08545203076405426 -8.673617379884035e-19 -0.05645475691069733 8.673617379884035e-19 -0.0004024994015255245 0 0 
0.01775052779022701 -0.02257388534119673 0.08357401375882417 0.06467977324976122 0.1171113684822804 0.02145248397642765 0.01606685319028345 -0.1932432232091321 -0.1381632725100371 0.04081996347025953 -0.01778386035327769 
-0.0008799501914570041 -0.1050490962465384 -0.01417246836317679 -0.0572982468290849 0.1544350724901768 -0.09188401832897367 0.1421318726509729 -0.04306137340984059 -0.05308495119238705 -0.002236454270713273 0 
-4.336808689942018e-19 -0.03378745615879694 -0.1336003147707373 -0.06601126019910759 0.08545203076405426 -8.673617379884035e-19 -0.05645475691069733 8.673617379884035e-19 -0.0004024994015255245 0 0 
-4.336808689942018e-19 -0.03378745615879694 -0.1336003147707373 -0.06601126019910759 0.08545203076405426 -8.673617379884035e-19 -0.05645475691069733 8.673617379884035e-19 -0.0004024994015255245 0 0 
-4.336808689942018e-19 -0.03378745615879694 -0.1336003147707373 -0.06601126019910759 0.08545203076405426 -8.673617379884035e-19 -0.05645475691069733 8.673617379884035e-19 -0.0004024994015255245 0 0 
-4.336808689942018e-19 -0.03378745615879694 -0.1336003147707373 -0.06601126019910759 0.08545203076405426 -8.673617379884035e-19 -0.05645475691069733 8.673617379884035e-19 -0.0004024994015255245 0 0 
0 -0.05942233749545146 0 0 -5.421010862427522e-20 0 0.06634407915181136 0 0 0 0 
0 -0.004558189780152319 0.007149667844981999 0.07276758242022648 0 0 -0.01681108811984468 0 0 0 0 
-0.01195307065802996 -0.03431595952828461 0.02977996158279072 -0.009729302817974222 -0.01285887617584226 0.00190606164636064 0.007754805039108465 -0.00832267045589513 0.0008009802723987507 -0.03538034067132938 -0.003742086945866055 
0 0 0 0 0 0 0 0 0 0 0 
-0.008458380037568413 -0.04147186841949977 -0.1474161209760397 -0.1504907448494775 0.4043134741737732 -0.07743763233676387 -0.165199905673475 -0.07835031173727687 -0.01789269921348621 -0.053381141862916 -0.01249467394486155 
-0.008458380037568372 -0.009732593680847982 -0.1019493598641045 -0.05203265924752741 0.2484038218482497 -0.07743763233676385 -0.06380420956099617 -0.05706449474657521 0.01295986733917224 -0.03103259500510938 -0.01249467394486154 
0.02010502879154141 -0.009732593680848044 -0.0583141747622621 0.0533842289031969 0.1109591221374891 -0.0731116233387032 -0.002296386481280328 -0.04125747440699384 0.01899326502670004 -0.03103259500510936 -0.01249467394486155 
-0.0166435790361709 -0.0396097431777838 -0.1440304993396645 -0.2419502504640188 0.275896724116962 -0.05649823734873972 0.014487956168058 0.01576607606561356 -0.04144201879763922 -0.02797789172835346 -0.005049335438001367 
-0.05971984928607962 -0.07127696510401579 -0.0433945097239828 -0.1153599046801332 0.1732429011328374 -0.009746218953105769 -0.0002282156737495992 -0.02400059031407212 -0.01433802311028878 -0.01846323134398169 -0.005049335438001367 
-4.336808689942018e-19 -0.03378745615879694 -0.1336003147707373 -0.06601126019910759 0.08545203076405426 -8.673617379884035e-19 -0.05645475691069733 8.673617379884035e-19 -0.0004024994015255245 0 0 
-4.336808689942018e-19 -0.03378745615879694 -0.1336003147707373 -0.06601126019910759 0.08545203076405426 -8.673617379884035e-19 -0.05645475691069733 8.673617379884035e-19 -0.0004024994015255245 0 0 
-0.006111821065855986 0.01206303770707969 0.03475023523698908 -0.01729691428229225 -0.02163490574106406 0.006293034607120569 -0.03321486469293577 -0.02411831447051799 0.00575195078028457 0.003490047354869384 -0.003796244233035289 
-0.005853700450539847 0.02408939698172264 -0.03576149806206823 0.007747860242646969 0.01433296972833581 -0.0002418781800072071 0.01092530395544499 -0.00805549780949864 -0.01417098942491132 -0.0009858655025550903 -0.000725748454277951 
-0.002229443282644209 0.02826610239112569 -0.06939157756003354 -0.01542541464836179 -0.00182185947372481 -0.007449462199268935 0.02183239894185197 -0.02091388249019286 -0.02934254041979913 0.02205320764522154 -0.005568715624069865 
0.009528504841473847 -0.06271538886770205 0.04662633645153585 0.04074571164191046 0.01974100224877722 0.000916522945671312 -0.03588466836405813 0.01213145759195761 -0.02334794394788886 0.007698467876685732 -0.005568715624069865 
0.006727028283821925 0.02586032581003984 0.004459268415573144 0.008658810579787348 0.002450929107703381 -0.01359210456890781 -0.01057410514876493 0.008338267330564289 -0.0179908351022954 0.0145798099545082 -0.002656305460099714 
-0.006491719873161852 -0.01625180472744754 -0.06842025861689033 0.07733646073735534 0.00999592166119434 -0.006977322882954482 0.01653290945396408 0.008821754429114431 -0.01705755389158257 0.02870473684883363 -0.002656305460099714 
-0.006491719873161843 0.002059743768965388 -0.08694202372426069 0.009384592274229974 0.01419730192269565 -0.00177101543459274 0.05737805746450802 0.01516576454672772 -0.01705755389158257 0.01627528271479331 -0.002656305460099714 
-0.0007333330647177114 -0.06771406370806143 0.03895581328243151 0.03409805204653635 -0.01436104962744785 -0.004022879274472328 0.006548223508111992 0.02246143670353382 -0.0009509320839788018 -0.01209244730996832 -0.0008411752716349764 
-0.0007333330647177136 -0.08844069245393384 0.0005516828216151851 -0.009663620327009136 0.004187448534614792 0.008548462161882431 0.02692698796632028 0.03673774397234317 -0.0009509320839788031 -0.003434703849642566 -0.0008411752716349764 
-0.0007333330647177136 -0.01934249389916867 -0.1162077181926804 0.02203650206603312 -0.004418506791448106 -0.01168937539962727 0.02692698796632026 0.04713789571430254 -0.0009509320839788039 -0.0008958385772224757 0 
0 -0.05942233749545145 -0.01101003826843796 0.02211119606305482 -0.004418506791448106 -0.01168937539962727 0.06634407915181138 -1.897353801849633e-19 -0.0009509320839788039 0 0 
0 -0.05942233749545145 -0.01101003826843796 0.02211119606305482 -0.004418506791448106 -0.01168937539962727 0.06634407915181138 -1.897353801849633e-19 -0.0009509320839788039 0 0 
-0.04043444617884465 -0.1216402760493011 -0.007178627722366208 0.04968146309252357 -0.003299730815519786 -0.01233744962244835 -0.05639856745413131 -0.03835153447603737 -0.04064568722243034 -0.05758463079363203 -0.02845064178572154 
-0.008974064706270747 -0.06311488972977601 0.02601521932509108 -0.02203104921386507 -0.009284427671258991 -0.009383813801703729 -0.01518117433938025 -0.0005406523352997012 -0.01196542095242666 -0.03147435627521075 -0.01560699939674062 
-0.01195307065802996 -0.03431595952828461 0.02977996158279072 -0.009729302817974222 -0.01285887617584226 0.00190606164636064 0.007754805039108465 -0.00832267045589513 0.0008009802723987507 -0.03538034067132938 -0.003742086945866055 
-0.01195307065802996 -0.03431595952828461 0.02977996158279072 -0.009729302817974222 -0.01285887617584226 0.00190606164636064 0.007754805039108465 -0.00832267045589513 0.0008009802723987507 -0.03538034067132938 -0.003742086945866055 
0.1615530647983068 -0.03974258532062547 -0.1051122177690366 -0.05626027877259313 -1.734723475976807e-18 3.794707603699266e-19 -0.02673498743476972 -0.1499885854616947 0 -0.04394743883893758 -8.470329472543003e-20 
0.1124044465494847 -0.2542224175059647 0.07574673255834033 0.1132259600377882 0.02695461502491083 0.0342475679502726 -0.07069042318998202 0.01684069005618637 -0.1397689944884823 0.1057708741398245 -0.007251711362134468 
0.2350266126489936 -0.05323079107074143 -0.1249907790803256 -0.17409339312666 -0.1044756722272911 0.009213772794496925 0.1089688490580657 0.06411433041743989 -0.05900578395272761 0.0916517319232571 -0.00721707377872806 
0.0199694310014948 -0.07376919475000088 -0.206895273580526 -0.2464139256975096 -0.1415260969689848 -0.1023248620059192 0.2846755380355979 0.2573793587473002 -0.01850365381420637 -0.08520795951240417 -0.007217073778728058 
0.1615530647983068 -0.03974258532062547 -0.1051122177690366 -0.05626027877259313 -1.734723475976807e-18 3.794707603699266e-19 -0.02673498743476972 -0.1499885854616947 0 -0.04394743883893758 -8.470329472543003e-20 
0.1615530647983068 -0.03974258532062547 -0.1051122177690366 -0.05626027877259313 -1.734723475976807e-18 3.794707603699266e-19 -0.02673498743476972 -0.1499885854616947 0 -0.04394743883893758 -8.470329472543003e-20 
0.1615530647983068 -0.03974258532062547 -0.1051122177690366 -0.05626027877259313 -1.734723475976807e-18 3.794707603699266e-19 -0.02673498743476972 -0.1499885854616947 0 -0.04394743883893758 -8.470329472543003e-20 
-0.005279136686469873 0.07473135143719678 -0.02563483857770561 0.003028436168933566 0.03369361326485022 -0.001477845788251399 -0.02661058414596095 -0.003474966842987056 0.01386094453055237 -0.006913125833814911 -0.00146096153130662 
0 0 0 0 0 0 0 0 0 0 0 
0 -0.01617097599465448 0.05211956869670796 0 0 0 0 0 0 0 0 
-0.000236531429681827 -0.405063801730043 -0.06109204984773364 0.1034558740958279 -0.005949867121143659 -0.003012302218890533 0.265019866536906 -0.03252102387987049 -0.002446406031918724 -0.0002670143549878188 0.002846245100840833 
0.1615530647983068 -0.03974258532062547 -0.1051122177690366 -0.05626027877259313 -1.734723475976807e-18 3.794707603699266e-19 -0.02673498743476972 -0.1499885854616947 0 -0.04394743883893758 -8.470329472543003e-20 
0.1615530647983068 -0.03974258532062547 -0.1051122177690366 -0.05626027877259313 -1.734723475976807e-18 3.794707603699266e-19 -0.02673498743476972 -0.1499885854616947 0 -0.04394743883893758 -8.470329472543003e-20 
-0.01233319208760698 -0.04038321759134772 0.02364272966363543 0.02164632357590311 -0.0316689844568754 -0.02181552960418316 -0.06199392970598972 0.007030331598225012 -0.008933315579584268 0.0207497717093247 -0.01296570087475243 
-0.003081441330320392 0.01315958997045584 0.0565513953748187 -0.08869744828924885 0.0115263900143812 0.006211063130971558 -0.0130101012944747 -0.0006391981855489359 -0.02642811807496366 0.007217761419330607 -0.0002411573183921172 
-0.0009827803518420828 -0.01122492860972376 0.02287561641752573 -0.04421290010977154 0.04504655002442733 0.002113763878359642 0.02672222122914317 0.01023374731348782 -0.009996675107575573 0.001377402624193765 0.001040195588351233 
0.003015958850812776 0.004173848111574352 0.02757057211195361 -0.02812972181107249 0.0645999743529093 0.005454653375403351 0.01528486917997674 -0.01077507147955769 -0.01023298618962631 -0.03435515439865504 0.001057921925031409 
0.001238831647700253 0.06829909260633191 -0.01629050647299051 0.003584393360166378 0.007324431130193485 -0.005830286474104645 -0.01948626410186781 -0.01834161955236405 -0.004279089112745433 -0.02876412648403066 0.001057921925031409 
-0.005279136686469873 0.07473135143719678 -0.02563483857770561 0.003028436168933566 0.03369361326485022 -0.001477845788251399 -0.02661058414596095 -0.003474966842987056 0.01386094453055237 -0.006913125833814911 -0.00146096153130662 
-0.005279136686469873 0.07473135143719678 -0.02563483857770561 0.003028436168933566 0.03369361326485022 -0.001477845788251399 -0.02661058414596095 -0.003474966842987056 0.01386094453055237 -0.006913125833814911 -0.00146096153130662 
0.006113211377229187 0.07196276179701466 -0.09400525532116231 -0.08204120110013778 -0.03413165029464228 -0.02042617855003918 0.01688260390022796 -0.01458340961746669 -0.02739873496654693 -0.01057562498841178 -0.018584573700939 
-0.002904263582797707 0.09767934184970524 -0.07254720755058332 -0.05004968143515147 -0.02885537933233822 -0.01502843123904408 -0.02675342180481015 -0.003497478657424514 -0.006536100747859455 0.00423667494962734 -0.01171021825571332 
-0.005803833853293367 0.005109683666676165 0.06871066844220591 -0.01082461027354357 0.02197542810155984 -0.0009744773082191083 -0.01415302518179659 0.0002293641811779804 -0.007317485599175694 -0.01849067375435413 -0.002784822374603686 
-0.001867634551524717 -0.01648846698757661 0.07571502564216506 -0.05622956515786647 0.01592343664732607 -0.001271340980932803 -0.001593669795881282 0.004915513955913939 0.008825591250415101 -0.002329477111770635 -0.002094081982525798 
-0.000850581493012662 0.0006433369941923968 0.02620874137612513 -0.01176233631599909 -0.01145131310280276 -0.001271340980932806 -0.02379364909771431 0.01633706298690127 -0.003836645666753394 -0.001013461775786754 0 
-0.002934538488430834 -0.003765478028493213 -0.01225389739894169 0.04967002333562157 -0.002008545769430805 -0.001271340980932806 -0.02955689176289239 0.007652983166853675 -0.003836645666753394 0.003472995195168502 0 
0.0006032824898007071 -0.01933392304468956 -0.02813740388513862 0.03904628672433333 0.002502178381360597 -0.001271340980932806 0.004133089804984061 0.01952595061819533 0 0.003472995195168502 0 
-0.0009856115191620815 0.05317747921652376 -0.02813740388513863 6.505213034913027e-19 0.002502178381360597 -0.001271340980932806 0.004133089804984061 0 0 0.003472995195168502 0 
0 -0.01617097599465447 0.05211956869670796 0 0 0 0 0 0 0 0 
0 -0.01617097599465447 0.05211956869670796 0 0 0 0 0 0 0 0 
0 -0.1430565963066099 0.1853937110667238 -0.00916740367351058 0 0 0 0 -0.01045965158644603 0 0 
-0.1701237201481014 0.06738775090488905 0.1757131133421495 0.003023744453544853 -0.08839746694287584 -0.09571898833452887 -0.1259175239959884 -0.07261347212205735 0.1009241121991925 -0.06047937503563603 -0.009335921799581655 
-0.01279450669594976 0.4204286376627797 -0.2171335080028927 -0.1172998299193145 1.734723475976807e-18 -0.01268398672160461 0.05025937117162663 -0.0246733763120253 -0.05290705461576132 -0.01599486740853698 0 
0 0.1380549337657394 -0.0921764649229569 0.0948615482659925 -0.001730164752886802 -0.02049834333048469 -0.05175645665346781 -0.04641218223472562 -0.013858601621019 -0.001145101320480776 -0.0003674416279360479 
-0.01279450669594976 0.4657238621221117 -0.1734916482059667 -0.08327372948524683 1.734723475976807e-18 -0.01261885906840004 -0.137578229775428 -0.0246733763120253 -0.04791938184459838 -0.01599486740853698 0 
0 -0.150291427026932 0.2586341864899602 0.0184170656474922 0 0 0 -0.04093391845483432 -0.01045965158644604 0 0 
0 -0.1244249864321537 0.1122350250303198 -0.00916740367351058 0 0 0 -0.01234419511342757 -0.03328012354227434 0 0 
0 -0.150291427026932 0.2586341864899602 0.0184170656474922 0 0 0 -0.04093391845483432 -0.01045965158644604 0 0 
0 -0.1430565963066099 0.1853937110667238 -0.00916740367351058 0 0 0 0 -0.01045965158644603 0 0 
-0.01411515889915988 -0.005463732241380538 0.0228993477673544 -0.03691475466724383 -0.002647664987014819 0.01313348589081469 -0.02222735556477114 -0.01939182178215065 -0.03822067180778119 0.01616818653734909 -0.008462556994166556 
0.02946569931802232 0.1765825089867255 -0.0003157515972097129 -0.2322822497012978 -0.01406908706108405 -0.0134290309480822 0.01988253253596133 -0.03947865170757027 -0.03460143638878406 -0.002270803645167112 0 
0.01750548652547214 -0.07528359952395956 -0.0437535846898713 0.1100292361096503 -1.127570259384925e-17 0.02458744959974792 0.006818914444648785 -0.01430786204051321 -5.149960319306146e-19 0 0 
0.007950782207529429 -0.01925345431562851 -0.02670577071314568 0.1197843085318127 0.04762231460981336 0.02875052779066169 0.0579652955547936 -0.01104913154888244 -0.02334320076628746 -0.01440937148671801 -0.006182777403972073 
-0.1139600761453666 0.1431905509743033 0.102112726296087 -0.05521099599299614 -0.05617648768148065 -0.09155977142862223 -0.008963971034807595 -0.1551103505599862 -0.02159356171459152 0.007397577553762775 -0.05830269780988175 
-0.06725920663305508 -0.07315815552438093 0.1977184022903401 -0.06774890796334326 0.01704615583929759 -0.05034780799732023 -0.06717416837618252 -0.1036044327031955 -0.01587320193634261 0.009226047241258754 -0.03096608957648534 
-0.01034961268293163 -0.02005069324796002 0.1008555536486987 -0.1008737244979392 0.006364771254520323 -0.02542013689514612 -0.1194919729391292 -0.09366838791565871 0.02254019660559032 0.08441482745949454 -0.005016733419802691 
-0.05145529212627455 -0.1041044673293321 0.2022432532748692 -0.06727622060787197 -0.008253004096837258 -0.02221122017778047 -0.03895680011181051 -0.08553255327106676 0.003951742769760339 -0.01218592717195292 -1.653408313040394e-18 
-0.007434094884799938 -0.06830060611328009 0.07567221814417881 0.001822843368219746 -0.0223419484634792 -0.005512800611683205 0.02434481502419997 -0.04369579070802455 0.02989334191576827 0.02647230115491444 -1.897353801849633e-19 
-0.0003918594800826353 0.02485416590330231 0.03167952805451861 -0.006242192357856028 -0.0005351373577842307 -0.005512800611683203 0.05364494747956738 -0.03880912112191824 0.05828534084153287 -0.003974890078664143 0 
-0.0003918594800826355 0.06775632583637742 -0.1281099850067473 0.1669232375281204 0 -0.005512800611683203 0.01032677489362878 0 0.07358524584188271 -0.002037569871048165 0 
-1.084202172485504e-19 0.01830199759965284 -0.1248839737330178 0.1266810144598798 0 -0.005512800611683203 0.02274991000505606 0 0.09854296532958408 0 0 
0 0.01231572350288499 -0.04012221377457184 0.1652026407163797 0 0 0.02274991000505606 0 -0.01816968908815664 0 0 
0 0.01231572350288499 -0.04012221377457184 0.1652026407163797 0 0 0.02274991000505606 0 -0.01816968908815664 0 0 
-0.01411515889915988 -0.005463732241380538 0.0228993477673544 -0.03691475466724383 -0.002647664987014819 0.01313348589081469 -0.02222735556477114 -0.01939182178215065 -0.03822067180778119 0.01616818653734909 -0.008462556994166556 
-0.01411515889915988 -0.005463732241380538 0.0228993477673544 -0.03691475466724383 -0.002647664987014819 0.01313348589081469 -0.02222735556477114 -0.01939182178215065 -0.03822067180778119 0.01616818653734909 -0.008462556994166556 
-0.0135617385207509 -0.05323806112920245 -0.01952109810709329 0.03478739629621495 0.02346376565392027 0.01447460869140984 -0.01710627993663654 -0.02413861488637098 -0.00489608677393568 0.009619826005706052 -0.003802487718431862 
-0.002600424182790689 -0.06166730293280841 -0.05692020121502307 0.08659157986432162 4.553649124439119e-18 0.01487632164088323 -0.002304035390151866 -0.04160357318699571 -0.02303879099518327 -0.00049382830178218 0 
0.01750548652547214 -0.07528359952395956 -0.0437535846898713 0.1100292361096503 -1.127570259384925e-17 0.02458744959974792 0.006818914444648785 -0.01430786204051321 -5.149960319306146e-19 0 0 
0.01750548652547214 -0.07528359952395956 -0.0437535846898713 0.1100292361096503 -1.127570259384925e-17 0.02458744959974792 0.006818914444648785 -0.01430786204051321 -5.149960319306146e-19 0 0 
0 -0.04011671384314582 -0.03426999747733515 -0.02555694610725932 0.08533195762562198 0 -0.03657845153983953 0 0 0 0 
-0.06287506576628693 0.05911811761807381 0.07042350568069972 0.04872851632170445 0.1248893626907053 0.1844946519419865 -0.143004762149214 -0.1169854095484108 0.005681627182800767 -0.07871153319838534 -0.01336252577368933 
-0.08235460296054117 0.1655116297947076 -0.1226189916007587 -0.2123886644141033 -0.02593249223464113 -0.2323786285975834 0.3579754635700331 0.08042061633878174 -0.243199146823235 -0.06255308769880309 -0.02605095755120788 
0 -0.04011671384314582 -0.03426999747733515 -0.02555694610725932 0.08533195762562198 0 -0.03657845153983953 0 0 0 0 
0 -0.04011671384314582 0.03199236232223195 -0.02555694610725932 0.08533195762562198 0 -0.06329254653064867 0 0 0 0 
0 -0.04011671384314582 -0.03426999747733515 -0.02555694610725932 0.08533195762562198 0 -0.03657845153983953 0 0 0 0 
0 -0.04011671384314582 -0.03426999747733515 -0.02555694610725932 0.08533195762562198 0 -0.03657845153983953 0 0 0 0 
0 -0.04011671384314582 -0.03426999747733515 -0.02555694610725932 0.08533195762562198 0 -0.03657845153983953 0 0 0 0 
0 -0.04011671384314582 -0.03426999747733515 -0.02555694610725932 0.08533195762562198 0 -0.03657845153983953 0 0 0 0 
0 0 0.04203961474680724 0 0 0 -0.01125826155936262 0 0 -0.005063607485834285 0 
-0.03624688436184616 -0.1807905394353386 0.2990943316178274 -0.1150075868361961 -0.011286643795376 -0.009374116698966763 -0.1430614330062072 -0.03866864685035389 -0.005040873623557583 -0.01172798683947088 -0.00503773359489946 
-0.0002783513163705132 -0.07444062536416343 -0.06250051555421869 -0.003382945365101534 0.1632206024099397 -0.005194854061871441 -0.006825094606425179 -0.02273914864325141 -0.00168162326479699 0 0.0008998280152119956 
0.009175647591161018 -0.08931615685626224 -0.03764407149378437 -0.3581690842161609 -0.07019713677287315 -0.01512411584135276 0.2769100296874812 0.01542058239644672 0.0005573137629160995 0.003016774917391129 -0.00131470812251986 
-0.0597198492860796 -0.03748950894521891 0.09020580504675446 -0.04934864448102513 0.08779087036878291 -0.009746218953105765 0.05622654123694771 -0.02400059031407212 -0.01393552370876326 -0.01846323134398169 -0.005049335438001367 
-0.03118600562068382 0.02754184145967929 0.1296917323102679 0.02442003090760391 -0.009893236930639119 -0.002076671419514606 0.0780608555116498 -0.01826929679427033 -0.01393552370876326 -0.01846323134398169 -0.005049335438001367 
0 -0.04011671384314582 -0.03426999747733515 -0.02555694610725932 0.08533195762562198 0 -0.03657845153983953 0 0 0 0 
0 -0.04011671384314582 -0.03426999747733515 -0.02555694610725932 0.08533195762562198 0 -0.03657845153983953 0 0 0 0 
-0.02211146501793781 -0.04219324658046167 -0.03482944946754563 0.01246439576032063 -0.01451841008995247 -0.01666900341637446 -0.01307640811949934 -0.01278281486965877 -0.02319049862311612 -0.01126667052720976 -0.01700135495730639 
0.01069320987162649 0.00816235510193819 -0.06967704422655091 0.01018033628419757 0.01507165566300785 -0.003402974860462787 0.03143765669341086 0.01096249683810347 -0.01140318074850755 0.0002778284137888757 -0.005411710133064589 
-0.008885687784740193 0.03726832493984809 -0.03715062706250298 -0.01922429111723282 -0.009146397977791421 -0.007364453906748342 0.02873151913884604 0.007192558406224756 -0.017056520874465 -0.0006915685699760332 -0.001007405685519087 
0.01311261966614707 0.02972591092377825 -0.03925196195200607 -0.02656118702406532 0.004986059374027098 0.01472006615371256 0.01319702292758567 -0.0001272054222133048 0.0092830908908573 0.01088589650690711 -0.0005770132128890539 
-0.01604005022969103 0.01087103972644239 -0.001252595579837424 -0.007598373401082055 -0.01345722521261418 0.0009805785621295787 0.01075338202759623 -0.01151105080307247 -0.02476738480668166 0.03010816471380178 -0.0004281748622081282 
-0.004437219000442976 0.02738347076868853 -0.02135162216474748 -0.0009421229036841424 -0.01032157084640698 -0.003620763293469891 0.038894781315857 -0.0001683327446934969 -0.01569203333525005 -0.005063607485834285 -0.0004281748622081282 
-0.004437219000442975 -0.04840945777752056 0.05475592187433147 0.02697053716331206 -0.01619783835438643 -0.004501672573603002 -0.04492934215660051 0.00494265619099522 -0.01238915803492842 -0.005063607485834285 0 
-0.004437219000442975 -0.04646735152141269 0.06188977877183474 0 -0.02112446055458222 0 -0.03994158236663109 0.005033870664627607 -0.01238915803492842 -0.005063607485834285 0 
0 -0.002866702642159075 0.04203961474680724 0 2.168404344971009e-19 0 -0.01125826155936262 0 0 -0.005063607485834285 0 
0 -0.002866702642159075 0.04203961474680724 0 2.168404344971009e-19 0 -0.01125826155936262 0 0 -0.005063607485834285 0 
-0.009150246812874258 0.0240433076939201 0.01772374047923745 0.006934038555135968 0.02783562135461675 0.007290550126834158 -0.01120240376539452 -0.009979831250059992 0.02094458888711173 0.008706331762207614 0.0007336832097500012 
-0.01488501374784326 0.03292360441402213 0.01432084884377372 0.004341338385382578 0.01428484687196743 -0.01016899594685786 -0.009042155943092501 -0.001220755280173067 -0.01247241198801359 -0.01440862003673866 -0.001282315885122218 
-0.009986464133781875 0.01590309250267034 -0.02384469138158392 0.02300880793858457 0.08696895057508545 0.0007929060951138707 -0.02114993886662272 -0.009455673025308784 0.01422872257580643 -0.01575409920868295 -0.00260208910234304 
-0.02323419706284677 0.02667669130949217 -0.01743083836653671 -0.007133974910055412 0.108787616060035 0.001316916879245531 -0.04347279726379101 -0.01368234849004299 -0.00168312669483921 5.421010862427522e-19 -0.003277867347473975 
-0.0002783513163705132 -0.07444062536416343 -0.06250051555421869 -0.003382945365101534 0.1632206024099397 -0.005194854061871441 -0.006825094606425179 -0.02273914864325141 -0.00168162326479699 0 0.0008998280152119956 
-0.0002783513163705132 -0.07444062536416343 -0.06250051555421869 -0.003382945365101534 0.1632206024099397 -0.005194854061871441 -0.006825094606425179 -0.02273914864325141 -0.00168162326479699 0 0.0008998280152119956 
0.05296961084925535 -5.204170427930421e-18 -0.01398837839401129 1.734723475976807e-18 0 -0.01387447292261263 -0.07633814153628979 0 0 0 0 
0.1790703064311428 0.0206843862915507 -0.06475964642112936 0.07451186786127395 0.02342312408790766 0.134052892739257 -0.1974179591864772 0.08378394798050885 -0.113019730737561 -0.07204952848960862 -4.174178364069192e-18 
0.3133992449842321 -0.1699333232332583 -0.2982865737225977 -0.3842236000343904 -0.08865693166939391 0.2741467879641027 -0.08006304590878294 0.1889116244669268 -0.0448371841829158 -0.035095085173909 0 
0.2959075288365877 -0.03331387168589287 -0.1614657817435156 -0.09855894436588707 0.07608943915450443 -0.09337122820705041 -0.01680840196247406 -0.1023799952208759 -0.00556045217301823 -0.06789814898611682 -0.01335029184237985 
0.4098267529977251 -5.204170427930421e-18 -0.07103688775996889 -0.219680621086131 0 -0.100845335222991 -0.1307332381480965 -8.673617379884035e-19 0 0 0 
0.3737360480093204 -0.2409300901405712 -0.1130344725963541 -0.2624525558961318 -0.05980141528096883 -0.09337122820705038 0.08763757446163672 -0.07105169718116715 -0.005560452173018229 -0.04696271932542942 -0.01262222354394932 
0.4098267529977251 -5.204170427930421e-18 -0.07103688775996889 -0.219680621086131 0 -0.100845335222991 -0.1307332381480965 -8.673617379884035e-19 0 0 0 
0.003560079849188765 -0.2290466768862101 -0.01398837839401129 1.734723475976807e-18 0 -0.01387447292261263 0.2885002332830154 0 0 0 0 
0.001942291479862273 0.0009931214169793946 0.07899185824320551 -0.06338829566340241 -0.008895098707061922 -5.421010862427522e-20 -0.04498954929455058 -0.02002238682547838 -0.03795910413604255 0.00131005918566737 0 
0 0 0 0 0 0 0 0 0 0 0 
-0.002070911126640308 -0.008714468152590851 -0.01306315848482842 0.0736684379118747 -0.00952638060355462 -0.001240216142376247 -0.0205370296679517 0.009345472959202086 -0.001014843233207072 0.00280250965179607 1.897353801849633e-19 
0 0 0 0.028257905568077 0 -0.0008113895286708534 -8.673617379884035e-19 0 0 0 0 
0.007581287413687329 0.04120437700750217 0.1615714186263916 -0.1246351958422032 -0.05419552184327732 0.10667043036369 0.02596373260580216 -0.1532881523863232 -0.0197207367976596 -0.01733577067798186 -0.03220989784185476 
0.07215524095463555 -0.06376707113503102 -0.1221176942013907 -0.1313472599768649 -0.0965492102579496 0.1154505641869184 0.02051661854608659 -0.09148046604958117 0.07746326241690449 -0.02026963638447045 -0.01514477589300642 
0.2207346228707433 -0.05321525178170891 -0.06663972776237156 -0.1919558181306801 -0.0598014152809688 -0.0810967636048482 -0.0630259596339573 -0.008122411463217859 -0.005560452173018236 -0.01477432966080681 2.710505431213761e-20 
0.01247262489013265 -0.04133183852734798 0.03001968770549681 8.673617379884035e-19 0 -0.03112478147535381 0.05135829711513339 -0.008122411463217859 0 0 0 
0.05296961084925535 -5.204170427930421e-18 -0.01398837839401129 1.734723475976807e-18 0 -0.01387447292261263 -0.07633814153628979 0 0 0 0 
0.05296961084925535 -5.204170427930421e-18 -0.01398837839401129 1.734723475976807e-18 0 -0.01387447292261263 -0.07633814153628979 0 0 0 0 
0.006517968334170152 -0.006432258830864983 0.009344332104715084 0.0005559571912328114 -0.02636918213465673 -0.004352440685853247 0.007124320044093151 -0.01486665270937703 -0.0181400336432978 -0.02185100065021569 0.00251888345633803 
0.0008571066516458734 -0.005100922502792626 0.03160535105600904 -0.06489643373339103 -0.004099834919284304 0.001346298790097136 0.01471388866895309 -0.01891611987182007 -0.03827956046955729 0.003349911774693821 0.003208952565808348 
0.001942291479862273 0.0009931214169793946 0.07899185824320551 -0.06338829566340241 -0.008895098707061922 -5.421010862427522e-20 -0.04498954929455058 -0.02002238682547838 -0.03795910413604255 0.00131005918566737 0 
0.001942291479862273 0.0009931214169793946 0.07899185824320551 -0.06338829566340241 -0.008895098707061922 -5.421010862427522e-20 -0.04498954929455058 -0.02002238682547838 -0.03795910413604255 0.00131005918566737 0 
0.001716665751163965 -0.05099066897883422 0.005647200161996473 -0.06427094255226684 -0.04837420193771852 -0.02347957095158347 0.008218571344490012 -1.392669397177532e-05 -0.01996835886289694 -0.010833780177262 -0.02233916180152949 
-0.004219840102694868 -0.02743523475694756 0.03740849097417152 -0.04650550349318616 -0.02497365171809494 -0.01233702564660565 -0.02357456197465552 -0.008462945050588755 -0.0139385117984598 -0.0134112152034254 -0.01344678615865119 
-0.003741293733024372 0.0006547130416277413 0.01043124683554989 -0.02732675997469833 -0.01397710326662237 -0.01438281487223859 -0.03796911654632963 -0.001288069645541462 -0.004715108177865103 -0.008444786821099528 -0.0102340320801469 
-0.003118015911668529 -0.05347921306812546 0.001185092833982793 0.06280013857139673 -0.009526380603554613 -0.01159405167978065 -0.02524826455786684 0.005635443376437503 -0.01076665754223917 0.009039115579463476 -0.003621482201283812 
-0.002070911126640308 -0.008714468152590851 -0.01306315848482842 0.0736684379118747 -0.00952638060355462 -0.001240216142376247 -0.0205370296679517 0.009345472959202086 -0.001014843233207072 0.00280250965179607 1.897353801849633e-19 
-0.002070911126640308 -0.008714468152590851 -0.01306315848482842 0.0736684379118747 -0.00952638060355462 -0.001240216142376247 -0.0205370296679517 0.009345472959202086 -0.001014843233207072 0.00280250965179607 1.897353801849633e-19 
0 0 -0.08724492814601585 0.07448485730492174 0 -0.01344933956778803 4.336808689942018e-19 -0.0232520629952399 -0.00942557808456621 0 -5.421010862427522e-20 
-0.1495748786377843 -0.565697191058778 0.3977718802034217 0.04028716662619262 -0.1637992422839422 -0.04077138808166156 0.0005482098072931147 0.05395640721694911 -0.03437552252444813 -0.199265762185759 -0.02822387453099948 
-0.03536231822061008 -0.3387193573761661 0.2470870043025494 0.2257859960419712 -0.03568609239786567 -0.01344933956778803 -0.1111694211377522 -0.1106412455991934 -0.01039072638667223 -0.000982307118738069 -3.035766082959412e-18 
-0.06234310459850064 -0.08450754006521025 -0.2557487990954609 0.04319313719898139 -0.04779507049625875 0.1817866134571296 -0.1491445732475256 -0.04789455218217484 0.256953479640474 0 -5.421010862427522e-20 
0 -0.1956330649541183 -0.067164975663214 0.1532551745134137 -0.02481994025805941 -0.01344933956778803 -0.06403657614816743 -0.02325206299523991 -0.00942557808456621 0 -5.421010862427522e-20 
0 0 -0.08724492814601585 0.07448485730492174 0 -0.01344933956778803 4.336808689942018e-19 -0.0232520629952399 -0.00942557808456621 0 -5.421010862427522e-20 
0 0 -0.08724492814601585 0.07448485730492174 0 -0.01344933956778803 4.336808689942018e-19 -0.0232520629952399 -0.00942557808456621 0 -5.421010862427522e-20 
0 0 -0.08724492814601585 0.07448485730492174 0 -0.01344933956778803 4.336808689942018e-19 -0.0232520629952399 -0.00942557808456621 0 -5.421010862427522e-20 
0.009984615569457934 0.0441430326496317 0.03464356110324238 0.03313156277390115 0 8.673617379884035e-19 -0.06773816036567608 -0.01847423006114518 -1.084202172485504e-19 0.0068486331769974 0.0002868822728930454 
-0.03105125283832243 0.1671951731006508 0.04010988452573579 -0.08258033292606294 0.0003727982535405646 -0.02106959579119393 0.04295883276101588 -0.003087988828970085 -0.006409541462770024 -0.009763286026403521 -0.001861680228377665 
0 0 -7.338286644283741e-05 0 0 0 0 -3.469446951953614e-18 0 0 0 
-0.03398874369399878 0.2159161137757123 -0.2720459968845158 0.2284104319153666 0.000419563654085453 -0.01012520645302581 -0.1468923241017353 -0.02237997081813171 -0.01711679375869034 0.005484101913890529 -0.0005455499585708025 
-0.1184037340713647 -0.09628802522565687 -0.04809520572153925 0.459653660970072 -0.1350699555376421 -0.09652535345768412 -0.01129843497457694 -0.1545778040148203 -0.002822150461162356 -0.02780948520559031 -0.0554900235530893 
-0.08059049090998902 -0.2057585188579154 -0.05510452032928555 0.3778440770362465 -0.09897671245304629 -0.01344933956778803 -0.09716611013822642 -0.06481506856101171 -0.04225821473819225 -0.002501860552785974 -0.023705774645807 
-0.06604430981957707 -0.1169874191982139 -0.2081018740219512 0.3895460144616785 -0.07828870974317131 -0.01344933956778803 -0.07623081037786546 -0.05426113417233365 -0.04225821473819225 -0.0008795470794088622 0 
2.168404344971009e-19 -3.903127820947816e-18 -0.1483781458551384 0.1815050177243251 -0.04460944850825307 -0.01344933956778803 -0.006345837551588677 -0.0519492248349458 -0.009425578084566214 0 -5.421010862427522e-20 
0 0 -0.08724492814601585 0.07448485730492174 0 -0.01344933956778803 4.336808689942018e-19 -0.0232520629952399 -0.00942557808456621 0 -5.421010862427522e-20 
0 0 -0.08724492814601585 0.07448485730492174 0 -0.01344933956778803 4.336808689942018e-19 -0.0232520629952399 -0.00942557808456621 0 -5.421010862427522e-20 
-0.006375797011647757 0.008315078648689203 0.0297820598600537 0.02199239030320572 -0.002474719262570455 -0.00356311236407622 -0.02197833416115571 0.001283688838694309 -0.004974032807182398 -0.01011402908726646 -0.0003381140619736377 
-0.006771098432512196 0.0405457811614168 -0.0003500627492669539 0.003248161888875063 0.02776794173576077 0.003052810966271401 -0.0136513638615359 0.01868326921866201 0.01886984305048856 -0.006791108032791144 0.001030928888122517 
-0.01018047118305151 0.06874166693578042 -0.007646645612431462 0.02889858314586024 0.01311087880196794 -0.005967599926163434 -0.02429402485735611 0.01551177496874553 5.703535840865896e-05 -0.01600556883989227 -0.0001542790125067887 
-0.02395261860183009 0.02681732612930076 0.01283947433656095 0.01742238869747838 -2.358139725155972e-18 -0.001537904333022507 -0.03883932874723604 0.02577846634613698 -1.409462824231156e-18 -0.02171789088001073 0.0002868822728930454 
0.009984615569457934 0.0441430326496317 0.03464356110324238 0.03313156277390115 0 8.673617379884035e-19 -0.06773816036567608 -0.01847423006114518 -1.084202172485504e-19 0.0068486331769974 0.0002868822728930454 
0.009984615569457934 0.0441430326496317 0.03464356110324238 0.03313156277390115 0 8.673617379884035e-19 -0.06773816036567608 -0.01847423006114518 -1.084202172485504e-19 0.0068486331769974 0.0002868822728930454 
0.00593650585385885 -0.02355543422188647 -0.03176129081217536 -0.01776543905908159 -0.02340055021962376 -0.01114254530497793 0.03179313331914543 0.008449018356617009 -0.00602984706443712 0.002577435026163431 -0.008892375642878335 
-0.005087049209101021 -0.03596048800385855 -0.02670570578372241 -0.01830280365538475 -0.0139814513408121 -0.00169381605865236 0.04612342007717696 0.004308954589612222 0.002267207683340481 -0.02190647523752151 -0.006464409769579097 
-0.003006454496419958 0.03180957958459421 -0.03314627921984895 -0.04303198500999415 -0.003807273151198526 0.001134055399191811 0.03060338584198854 0.01532327887119843 -0.02140760946681614 0.004654121930025297 -0.004953861534116223 
-0.001874785966038252 0.06167860638923914 0.01007183179314238 0.02186206212917262 1.084202172485504e-18 -0.008804331694225582 -0.00826496889114276 0.01463057544610648 -0.01132990286480871 0.009161076771927438 0.001144693406697225 
0 0.0616786063892392 0.04910624580840426 -0.002521166850642796 0 -0.009938334628466884 -0.006664132681092567 -0.002090923265581351 -0.01132990286480871 0.009201476518402201 0 
0 -0.02212471547221444 0.03453110404455498 -0.007719671417802308 0 0.003076524887130814 0.02118115959223221 -0.002090923265581348 0 0.01070091694136547 0 
0 3.469446951953614e-18 0.01724630839756131 0.03058191308072586 0 0 0.007129703816501824 -0.002090923265581348 0 0 0 
0 0 -7.338286644283741e-05 0 0 0 0 -3.469446951953614e-18 0 0 0 
0 0 -7.338286644283741e-05 0 0 0 0 -3.469446951953614e-18 0 0 0 
0 -0.02733433280140693 -0.08358999312315113 0.1104405644252266 -0.01694655715268739 0 5.421010862427522e-20 0 -0.000212281635759221 0 0 
-0.02353492541895793 -0.02846644625786035 0.1458693940879736 0.1800829803111378 -0.02638209641202038 -0.04164712428900658 -0.09392596056204403 -1.734723475976807e-18 -0.01113941543072571 -0.003407968022361281 -0.00923931543452066 
-0.01015644888148736 -0.07959753159836076 0.02053233167652388 0.1507085425148215 -0.02031881741539981 0 -0.05563322755066755 0 -0.004567176705889579 8.673617379884035e-19 -0.00923931543452066 
0.09848762862810534 -0.06665190134878478 -0.07106249243549904 0.2135518518656186 -0.02563048301881429 2.168404344971009e-19 0.04188889636168057 -0.0009740899827801671 -0.000212281635759221 -0.01500099136809081 0 
-0.01015644888148736 -0.04304836825853364 -0.1215289112780919 0.1988212240005097 -0.01694655715268739 0 -0.05563322755066751 0 -0.004567176705889579 8.673617379884035e-19 -0.00923931543452066 
0.1869308652565851 0.01808988302200429 -0.1583243499870031 0.1150725653960609 -0.02563048301881427 2.168404344971009e-19 0.0418888963616806 -0.0009740899827801671 -0.000212281635759221 -0.003382039734813113 0 
-0.01015644888148736 -0.04304836825853364 -0.1215289112780919 0.1988212240005099 -0.01694655715268739 0 -0.05563322755066751 0 -0.004567176705889579 8.673617379884035e-19 0 
2.168404344971009e-19 0.2820290519918032 -0.152281163992834 0.03197587974935211 -0.01873348199674193 0 -0.01151660297988894 0 -0.000212281635759221 0 0 
-0.005227059016481069 0.03542269496531146 -0.03680188910581728 -0.02776727476520462 0.02969261669957182 -0.002184930340688411 0.04054805969378605 -0.01002601051719889 -0.02872945771746414 0.008887191752553592 -0.001990731102296701 
-0.0005232678278236948 0.003520425233572793 -0.1081854562229681 0.1079340016744025 9.540979117872439e-18 -1.084202172485504e-19 -0.04745628867516668 -0.0004579673626802689 5.421010862427522e-20 0.005605772916384942 0 
0.003321362803102074 -0.08028626487320423 0.03186322197438401 -0.02472751806753126 0.0003315110604030559 -0.003823193941878216 0.03230014946478712 -0.007791492025526182 0 -0.00792721556324884 0.001823278070527447 
-0.03781324316137558 0.1094704936322593 0.007009314607745718 0.08180958393382975 -0.03609324308459626 -0.08307601388989605 0.08586767516364902 -0.08976273545380771 0.03943606427702975 -0.02530762465280434 -0.03178424890728231 
-0.01681160656616316 0.1421983348777647 0.04838683086608467 -0.04534791291654566 0.03633833871098903 -0.03826070947367601 0.09818835472373282 -0.02677787448514351 0.05514652872015335 -0.01870930193520274 -0.02230351599898053 
4.336808689942018e-18 0.1221891810924586 -0.06722260908820181 0.03026066274735884 0.07039915638795415 4.336808689942018e-19 -0.05751938308985966 -0.04328807190679528 0.06173014253393737 -0.009472629043663297 -0.01639448357736129 
0 0.02667252419153395 -0.06287254124803995 -0.009470190773888672 0.03689906295680218 0 -0.01823758642597578 -0.01762477534451492 0.04703298964854338 -0.009472629043663297 -0.006452070236341462 
0 -0.05159615076045258 0.02866688686411545 0.02610483513107865 0.02343444246562403 0 0.03555639689129469 -0.007426700960193919 -0.007635624651847405 0 -0.006452070236341462 
0 -0.09928130428642207 0.06974899876117227 0.1159387321167626 -0.03854530581478241 0 -2.38524477946811e-18 0 -0.005807002607923341 0 0 
0 -0.06028355544833186 0.06974899876117227 0.07754030597730077 -0.02586427420049358 0 0 0 -0.003776024426512233 0 0 
0 -0.02733433280140693 0.1102995286139961 -0.02093898049225627 -0.02586427420049359 0 -1.439956010332311e-19 0 -0.000212281635759221 0 0 
0 -0.02733433280140693 0.1102995286139961 -0.02093898049225627 -0.02586427420049359 0 -1.439956010332311e-19 0 -0.000212281635759221 0 0 
-0.01586948105543071 -0.01736798862769675 -0.03012519378952794 -0.0305806936763225 -0.01388814647741985 -0.01655443693954869 0.02765232628555086 -0.01135899969749665 -0.006034102679909004 -0.03522993531409389 -0.01635244265335446 
-0.01703493356320527 -0.02808721285553898 -0.05351331062653884 0.08369703216636884 -0.03312452769308419 -0.003229299249425587 -0.02480057683225682 -0.01890242808762857 0.01802479932089451 -0.01887780028259822 -0.005881233732367148 
0.00841519233521363 0.04648949726514661 -0.005311060179131421 -0.05514102157605289 -0.007776918805625677 -0.004383139923919281 0.00760114287249734 -0.01095254729852796 -0.00887689375805953 -0.01092265367379943 -0.001301154848432728 
-0.0085578352004856 0.05517205782179434 -0.01684021420631814 -0.02868694465704706 0.006872040848214911 0.003674464185879205 0.04022933698359192 -0.01356908608887951 -0.01013184137792927 0.003325343785962458 -0.001042601126933812 
-0.005227059016481069 0.03542269496531146 -0.03680188910581728 -0.02776727476520462 0.02969261669957182 -0.002184930340688411 0.04054805969378605 -0.01002601051719889 -0.02872945771746414 0.008887191752553592 -0.001990731102296701 
-0.005227059016481069 0.03542269496531146 -0.03680188910581728 -0.02776727476520462 0.02969261669957182 -0.002184930340688411 0.04054805969378605 -0.01002601051719889 -0.02872945771746414 0.008887191752553592 -0.001990731102296701 
0.002064286426456305 0.01902536854271479 -0.004829836389752817 -0.03172401208210103 0.005828620613582492 -0.003079252435697026 0.005371579960888705 0.008771624561446093 -0.005355297869536769 0.0002586266580883048 -0.003528589596866796 
-0.008612305581236497 0.0674871850337402 -0.04615374462506568 0.01126159375076195 0.01484543992292891 -0.004377069178316744 -0.01301662461057389 -0.003814025912535625 -0.005355297869536769 -0.004913754368991144 -0.0005812702160496919 
0.003321362803102074 -0.08028626487320423 0.03186322197438401 -0.02472751806753126 0.0003315110604030559 -0.003823193941878216 0.03230014946478712 -0.007791492025526182 0 -0.00792721556324884 0.001823278070527447 
0.003321362803102074 -0.08028626487320423 0.03186322197438401 -0.02472751806753126 0.0003315110604030559 -0.003823193941878216 0.03230014946478712 -0.007791492025526182 0 -0.00792721556324884 0.001823278070527447 
-0.04808661144894787 -0.01792530963492578 -0.07933200314893983 -0.1420689499378643 0.1418245838444083 0 -0.07191633574642392 0 0 0 -0.0007280682984305324 
-0.04808661144894789 -0.3799984318759821 0.3752186815326188 0.08853358934725196 0.1267204217740689 -0.03561124154920758 -0.4106362472654887 -1.084202172485504e-19 -0.02044302848901996 0 -0.0007280682984305324 
-0.04808661144894787 -0.01792530963492578 -0.07933200314893983 -0.1420689499378643 0.1418245838444083 0 -0.07191633574642392 0 0 0 -0.0007280682984305324 
-0.04808661144894787 -0.01792530963492578 -0.07933200314893983 -0.1420689499378643 0.1418245838444083 0 -0.07191633574642392 0 0 0 -0.0007280682984305324 
-0.04808661144894787 -0.01792530963492578 -0.07933200314893983 -0.1420689499378643 0.1418245838444083 0 -0.07191633574642392 0 0 0 -0.0007280682984305324 
-0.04808661144894787 -0.01792530963492578 -0.07933200314893983 -0.1420689499378643 0.1418245838444083 0 -0.07191633574642392 0 0 0 -0.0007280682984305324 
0 -0.02291061085757998 0.007832238025829731 0 0 0 0 0 0 0 0 
0.005965761383864588 0.2196565849806101 -0.2558742279554096 0.02471926686716646 -0.001809089732357917 -0.005066559526546634 0.00406688669825135 -0.02161841632940383 -0.03734657603540445 0.0395505304915483 -0.007244894967284498 
-0.01304313655342047 0.02211218777876568 -0.03756483283151958 -0.08847676023517556 0.002697115188393913 -0.00453703937523499 -0.03938119980850072 0.1524209073838986 0 -0.06443792438614045 0 
0.03674860782771214 0.02987714949693597 0.08571632457740214 0.2953344793672166 -0.164937601979473 -0.01661338598996347 -0.01678434264933836 -0.05702355047260747 0.06043528382433918 -0.003054703276755901 -0.00744533850686018 
0.08558506161573638 -0.09642352822323312 0.0390910086004253 -0.06136082927259069 0.01055483392027036 -0.007745188799081986 -0.04280329636826413 -0.02202074193716976 -0.0006962824228120596 0 -0.001944445025774779 
-0.04808661144894787 -0.01792530963492578 -0.07933200314893983 -0.1420689499378643 0.1418245838444083 0 -0.07191633574642392 0 0 0 -0.0007280682984305324 
-0.04808661144894787 -0.01792530963492578 -0.07933200314893983 -0.1420689499378643 0.1418245838444083 0 -0.07191633574642392 0 0 0 -0.0007280682984305324 
0.001165452507774587 0.01071922422784192 0.02338811683701071 -0.1142777258426927 0.01923638121566446 -0.01332513769012314 0.05245290311780745 0.007543428390131976 -0.02405890200080345 -0.01635213503149571 -0.0104712089209873 
-0.006368910269097913 0.0547033390971586 -0.02332896085810324 -0.07757349660784282 0.02290619102029446 -0.01442835255998447 0.03145307141151181 0.01138590336865568 -0.03944870430157666 -0.01203767077222087 -0.007643418899880243 
0.003731385569029573 0.03061348634745707 -0.003832077899700561 -0.02387348752978758 0.003447590918566648 -0.01133243932862408 0.002038897806945268 0.004977052199617682 -0.003782132326942045 -0.0004841309300417061 -0.008526725399150134 
-0.002444243876171274 0.04896172712649574 -0.06341609533125563 -0.06587117132813364 0.00224550272503325 0.002688356378009297 0.01121093930018344 0.0008796509840220119 -0.00567579490659862 -2.168404344971009e-19 -0.002549935583301009 
-0.008056673771020866 0.03215877450181578 -0.03920916285580744 -0.2242422225350871 0.0008426190621608035 0.006875357297690412 0.0992746655650171 -0.001396483214882894 -0.00567579490659862 0 -0.002549935583301009 
0.002580588781123519 -0.03403048498148945 -0.04187210854264468 -0.1459634934338272 1.084202172485504e-19 0 0.1145878549706485 -0.0009304942957207943 0 0 0.001438067311173664 
-0.001126847464725461 0.03726138395761899 0.007832238025829727 -0.1459634934338272 1.084202172485504e-19 0 0.0423098747157547 0 0 0 0 
0 -0.02291061085757998 0.007832238025829731 0 -2.168404344971009e-19 0 0 0 0 0 0 
0 -0.02291061085757998 0.007832238025829731 0 -2.168404344971009e-19 0 0 0 0 0 0 
-0.00184315405548305 -0.03087086339995337 0.04418465892539036 0.01000355005130646 -0.006653585799850914 -0.005223127558740943 0.02192958469083214 0.003828007285392229 -0.0008257823794828295 -0.02289069000606479 -1.772633668017823e-05 
0 -0.008716784263751281 -0.03941385164591109 -4.336808689942018e-19 0 0 0.03824504824331407 0 1.084202172485504e-18 5.421010862427522e-20 0 
-0.007973268857093471 0.07118001127849886 -0.1010267450992365 0.01129782026750688 0.002611664655394689 -0.001716058717856179 -0.01415313497579257 0.002915527090250845 0.001022726724581689 0.04113592621850656 -0.007708857248000685 
-0.002505585127504729 -0.02793133876455337 -0.1268677582139384 0.2913780417398641 0.03065892541390182 0.005119190268190348 -0.1832225161880909 -0.0166721846747977 0.0006783162344101232 -0.02908487113401519 0.001514007336661146 
-0.003998739202654824 -0.0153987767212981 -0.004694955694428015 -0.01608317829869915 -0.01955342432848226 -0.003340889497043715 0.01143735204916636 0.0210088187930454 0.0002363110820507395 0.03573255702284871 -1.772633668017826e-05 
0.002607331136334529 0.0756230225519469 -0.01343996392995145 -0.0005761753507627625 -0.007637286550480851 -0.003340889497043714 -0.003925382575026605 0.004053283804505427 0.0006611389819361042 0.003757263604306504 -1.772633668017823e-05 
-0.00184315405548305 -0.03087086339995337 0.04418465892539036 0.01000355005130646 -0.006653585799850914 -0.005223127558740943 0.02192958469083214 0.003828007285392229 -0.0008257823794828295 -0.02289069000606479 -1.772633668017823e-05 
-0.00184315405548305 -0.03087086339995337 0.04418465892539036 0.01000355005130646 -0.006653585799850914 -0.005223127558740943 0.02192958469083214 0.003828007285392229 -0.0008257823794828295 -0.02289069000606479 -1.772633668017823e-05 
0.002899570270495645 0.09256965818303113 -0.1412578759927894 -0.03922507116160835 -0.05083080743389807 -0.01405395393082494 -0.01260039662301357 -0.003726842838602508 0.0007813848513162144 0.02272734870398144 -0.008925395881109632 
0.003483362498399606 0.1276075234793298 -0.1460097957007926 -0.1203451579945305 -0.02313697280571101 -0.004702751015696767 -0.03585567801455624 -0.01771758915061723 0.03643364116227538 0.04378569546407565 -0.007708857248000686 
-0.01092656657540518 0.02333314575424014 -0.1056617544926941 0.08758026431869373 0.002611664655394682 0.008339133379815964 -0.01389529750115504 0.01154081326400117 -0.01646818258275137 0.03737600776951797 -0.007708857248000685 
0.006894502784106526 -0.03873649251714213 -0.02797310056892079 -0.004810794949863715 0.002611664655394686 0.01064228286018991 -0.01415313497579257 -0.007546646877598699 0.005361940949434646 0.03541455309405492 -0.007708857248000685 
-0.007973268857093471 0.07118001127849886 -0.1010267450992365 0.01129782026750688 0.002611664655394689 -0.001716058717856179 -0.01415313497579257 0.002915527090250845 0.001022726724581689 0.04113592621850656 -0.007708857248000685 
-0.007973268857093471 0.07118001127849886 -0.1010267450992365 0.01129782026750688 0.002611664655394689 -0.001716058717856179 -0.01415313497579257 0.002915527090250845 0.001022726724581689 0.04113592621850656 -0.007708857248000685 
-0.0004867473401527808 -0.02157898432885891 0.03722957862609902 -0.006899006249845695 0 0 -4.336808689942018e-19 0 0 -5.421010862427522e-19 0 
-0.01785097465505986 0.1886045787941901 0.004306032126031548 -0.1934426456898575 2.168404344971009e-19 0.1604173589627072 -0.1942994294338139 0.1053811054429608 0 7.589415207398531e-19 0 
0.250501523521974 -0.06054264778060021 0.07384027273470875 -0.0279661982032567 -0.05591571589697271 -0.05257085597540939 -0.07079603173769569 -0.02013586764110764 0.04801844436463187 -0.05960938013916522 0 
-0.0004867473401527795 -0.02157898432885893 0.1544981846436347 -0.1074470493658493 0 -0.00157747647993743 -0.009728858371744076 4.336808689942018e-19 0 7.589415207398531e-19 0 
-0.04710041347048299 -0.02157898432885891 0.3442608160727712 -0.2645168585392113 -0.004175981279323657 -0.02581347246212196 0.1026768879997262 -0.01605344677755437 -0.001584430799067671 -0.008307412861272314 0 
-0.0004867473401527795 -0.02157898432885893 0.1544981846436347 -0.1074470493658493 0 -0.00157747647993743 -0.009728858371744076 4.336808689942018e-19 0 7.589415207398531e-19 0 
-0.04599840096910694 -0.02157898432885891 0.2042165771690072 -0.226085379499626 -0.004175981279323657 -0.003708565535523935 0.1103211992433629 -0.002639030258452517 -0.001584430799067671 -0.008307412861272314 0 
-0.01847918290057286 0.04424329941063367 -0.01844074595166729 -0.08156400444866607 -0.01292678210835462 0.0369507305664263 -0.05177712201865157 0.05244102896757192 -0.008310707579549291 0.0005668577827875731 -0.002808979429339361 
0.003716453128457377 0.03939575454360351 -0.02536889817864717 0.006802256173053916 -0.01129787426825334 0.001142160687821744 0.0006575873320938092 -0.009898205906858446 -8.673617379884035e-19 -0.004129031104330322 0.0002364704042124758 
0 0.111686055704394 0.1042995270607717 -0.2461225368351011 -0.02473612335953333 0 -0.02478092432835672 -0.04075150130069619 0 0 0 
-0.0569095939501232 -0.05310746227642156 0.09686284864163548 0.03312481653459544 0.01068138458477726 -0.0249276711021741 0.05231780456294548 -0.009936044787536895 -0.03841339854193292 -0.07518878021823594 -0.02594935615668264 
-0.008857239564272099 -0.007881289803437073 0.02407834324069585 0.03844985445471231 -0.05308128331342249 4.336808689942018e-19 0.06501800776482866 -0.07710475526520029 0.02655709630804952 -0.01342901712322961 0 
-0.008857239564272102 -0.06747240399944952 0.1151911719946019 -0.03771151330686078 -0.02408484103108472 4.336808689942018e-19 -0.02116995638140892 -0.0337705597514184 -0.009642447343894814 -8.673617379884035e-19 0 
-0.0004867473401527782 -0.04635659877055452 0.01524470199797393 -0.01118597741533496 -2.602085213965211e-18 0 0.07334141281606182 -0.0337705597514184 0 -8.673617379884035e-19 0 
-0.0004867473401527808 -0.02157898432885891 0.03722957862609902 -0.006899006249845695 0 0 -4.336808689942018e-19 0 0 -5.421010862427522e-19 0 
-0.0004867473401527808 -0.02157898432885891 0.03722957862609902 -0.006899006249845695 0 0 -4.336808689942018e-19 0 0 -5.421010862427522e-19 0 
-0.004898549614061371 0.01702051191135217 0.03816554022535791 -0.01866746955320212 -0.07268410370311837 -0.01096190204197164 0.01210778292353008 0.008234917745135722 -0.02670113456381998 0.001345479171944327 0.00131977321722082 
-0.0004627752411500545 0.002742859912365577 0.03591907449861118 0.006103249616878058 -0.02868235807753528 0.001721331715336072 -0.02402115476202284 0.01908975521721565 -0.0008654975436929923 -0.008832850324332552 -0.002419478400660616 
0.003801053375633112 0.0007588967111481492 0.0195747249965871 -0.004113019121799608 -0.003821291395256862 0.01689165036423786 -0.0235773466802569 0.02570644707940233 -0.0135698264993546 -3.632263761528361e-05 0.0007590248663038007 
0.003716453128457377 0.03939575454360351 -0.02536889817864717 0.006802256173053916 -0.01129787426825334 0.001142160687821744 0.0006575873320938092 -0.009898205906858446 -8.673617379884035e-19 -0.004129031104330322 0.0002364704042124758 
0.003716453128457377 0.03939575454360351 -0.02536889817864717 0.006802256173053916 -0.01129787426825334 0.001142160687821744 0.0006575873320938092 -0.009898205906858446 -8.673617379884035e-19 -0.004129031104330322 0.0002364704042124758 
0 -0.02562082437062307 -0.1075411800219585 -0.09143811052046016 -0.02466729928617004 0.176930394140271 -0.09038494294049679 0 -0.02077836422441524 0 0 
-3.469446951953614e-18 0.2743070509922854 -0.0004682412439486131 -0.08999224455769607 -0.05914769453639873 0.1035239731906387 -0.07084989052686706 -0.1787870786852379 -0.04204039195537131 0 0 
0 -0.02562082437062307 -0.1075411800219585 -0.09143811052046016 -0.02466729928617004 0.176930394140271 -0.09038494294049679 0 -0.02077836422441524 0 0 
0 -0.02562082437062307 -0.1075411800219585 -0.09143811052046016 -0.02466729928617004 0.176930394140271 -0.09038494294049679 0 -0.02077836422441524 0 0 
0 -0.02562082437062307 -0.1075411800219585 -0.09143811052046016 -0.02466729928617004 0.176930394140271 -0.09038494294049679 0 -0.02077836422441524 0 0 
0 -0.02562082437062307 -0.1075411800219585 -0.09143811052046016 -0.02466729928617004 0.176930394140271 -0.09038494294049679 0 -0.02077836422441524 0 0 
-0.0007237257608321122 -0.02397783921722234 -0.01515627355258717 -0.01493889346628059 -0.002727236226987632 0.007488087520650181 -0.002704444915429185 0.004264094111916715 -4.336808689942018e-19 -0.007129573179026114 0 
-0.007058433097043673 0.07713439024081624 0.04630248337167509 -0.01992849637542997 -0.001821932292807056 -0.01368605954928151 0.01025084946989311 -0.01217531896730494 0.01701902387566104 -2.168404344971009e-19 -0.0007647612782327151 
0 -0.1541146140642275 0.3522196917644594 -0.2432983040100575 0 -2.168404344971009e-19 -0.0163403321129619 -0.007027729965372024 0 0 0 
-0.1485793819161065 -0.01055181935332159 -0.05547796643901787 0.06060855815381704 -0.0367477949769804 0.1965473277917658 0.08354257818004422 -0.08335805458636339 0.08302371458992275 -0.005495306723663647 -0.01514477589300642 
-0.05572212041498912 0.04122484898132955 -0.1205153511926394 0.01901789654495723 0.04031147814751812 0.2121224362114171 -0.02117676725747925 -0.009469752202291215 -0.04815720476130603 -0.01956646094702971 -0.0006801196502803845 
-0.00843284570985499 -0.1085166346541414 -0.07760999803011455 -0.03553519029728679 0.1972658611479597 0.09520868312984289 -0.06976451661090939 0.06337889094519995 -0.04071381088181347 0 0 
0 -0.02562082437062307 -0.1075411800219585 -0.09143811052046016 -0.02466729928617004 0.176930394140271 -0.09038494294049679 0 -0.02077836422441524 0 0 
0 -0.02562082437062307 -0.1075411800219585 -0.09143811052046016 -0.02466729928617004 0.176930394140271 -0.09038494294049679 0 -0.02077836422441524 0 0 
0.01957889765636665 -0.02910596983790986 -0.03252641716404794 0.02940462740142998 0.02421805364079923 0.003961479046285485 0.002706137554564966 0.003769938431878697 0.005653340125957413 0.0009693969837648783 -0.004404304447545505 
0.02332164309725759 0.02090312649056108 0.0100559753666964 -0.01489335128920287 -0.002102605686849864 0.008451182382112048 -0.03303654159279545 -0.009356094965590644 0.002202470926346988 -0.01294921561775057 -0.0006865908137768032 
-0.0005746908754683679 -0.007443747022650977 -0.01773766383429514 -0.0205979615439696 0.01053672322099859 0.01826646309952353 -0.01164906900026038 -0.002943164855631717 0.01470303871011409 -0.01276691615426836 -0.0006865908137768032 
-0.008189350009056155 -0.02397783921722236 -0.005660317175283294 -0.05624120640788889 -0.002949154946382177 0.02241493533665808 -0.0003261485002415622 0.004264094111916708 -4.336808689942018e-19 -0.007129573179026114 -0.0006865908137768032 
-0.0007237257608321122 -0.02397783921722234 -0.01515627355258717 -0.01493889346628059 -0.002727236226987632 0.007488087520650181 -0.002704444915429185 0.004264094111916715 -4.336808689942018e-19 -0.007129573179026114 0 
-0.0007237257608321122 -0.02397783921722234 -0.01515627355258717 -0.01493889346628059 -0.002727236226987632 0.007488087520650181 -0.002704444915429185 0.004264094111916715 -4.336808689942018e-19 -0.007129573179026114 0 
0.002979005951759262 -0.02879893020149174 -0.003764742257699602 -0.01230174639589058 0.003574448504583181 -0.01128987544806441 -0.02293597937848882 0.007782018120595372 -0.01276640122482541 0.003905984396118629 -0.01186491245087455 
-0.01134703308178531 -0.04464667468064496 0.005211812065274064 -0.003019710766849616 -0.03329779543476936 -0.008929190916012133 -0.03609147036633508 0.005697657241797783 0.005348750497447013 -0.0001667524531581614 -0.005538763147458534 
-0.02101849769951698 0.06754894615060657 0.031624178189882 -0.0475280001444279 -0.01952409145034708 -0.009632861946748049 -0.05102989480804469 0.00265032736690684 0.0127311818088431 -0.01331655543212696 -0.002156635667404354 
-0.002618198619034785 0.09551286550737265 0.03247400290684289 -0.09494994146548622 -0.0106121970001218 -0.0153179310565777 -0.01656174244110093 0.02451890517107581 0.01474249360035413 -0.008492066715082115 -0.004014963827892118 
-0.007058433097043673 0.07713439024081624 0.04630248337167509 -0.01992849637542997 -0.001821932292807056 -0.01368605954928151 0.01025084946989311 -0.01217531896730494 0.01701902387566104 -2.168404344971009e-19 -0.0007647612782327151 
-0.007058433097043673 0.07713439024081624 0.04630248337167509 -0.01992849637542997 -0.001821932292807056 -0.01368605954928151 0.01025084946989311 -0.01217531896730494 0.01701902387566104 -2.168404344971009e-19 -0.0007647612782327151 
0.0008777636374040426 0.1046986938525825 -0.04018793015355986 -0.04779871892607371 -0.006212463459504327 0.002547072665824899 0.02851253860201907 0.002515496112079137 -0.01810480901122909 -0.003937361506300337 -1.084202172485504e-19 
0.00287441643167754 -2.602085213965211e-18 -0.1557657687416562 0.06068760226535448 4.336808689942018e-19 -0.0001394550449238534 -0.003526787938743382 -0.001004898144027144 0 -2.168404344971009e-19 0 
0.005688435866686289 0.028331055177748 -0.02858252471222449 3.469446951953614e-18 0.002180691241431539 2.38524477946811e-18 0.002263872766756251 0.03576257478571427 0 -2.168404344971009e-19 0 
0.0115876853684246 0 0 0 0 0 0 -0.02635380084348287 0 0 0 
0.003409372750539315 -0.02819588577436422 0.007296582863164485 -0.02565042125698478 0.01465706293379276 0.00902041089243481 0.01064266099582027 0.003171494249916439 0.0188128076920799 0.009214460807101142 0.001185207900629308 
-6.957846331540911e-05 -0.02307040841173028 0.03648290617820557 -0.02971491918677297 0.01778514608964225 0.008721981565427736 -0.01391528054457632 0.00702293364700874 -0.003301895902321494 -0.001692178716272193 0.002465846576981488 
-0.004441999148760677 0.03703023112809606 0.04816793860088606 -0.006309016891172493 -0.01862636547017495 -0.01010345932053365 -0.01809701951475511 -0.01143680919026732 0.008491444245938671 -0.0001204647548350489 -0.001877876216331732 
0.0008777636374040426 0.1046986938525825 -0.04018793015355986 -0.04779871892607371 -0.006212463459504327 0.002547072665824899 0.02851253860201907 0.002515496112079137 -0.01810480901122909 -0.003937361506300337 -1.084202172485504e-19 
0.0008777636374040426 0.1046986938525825 -0.04018793015355986 -0.04779871892607371 -0.006212463459504327 0.002547072665824899 0.02851253860201907 0.002515496112079137 -0.01810480901122909 -0.003937361506300337 -1.084202172485504e-19 
0.005608405643572342 0.09061760969189822 -0.05414950697118318 -0.02637501501428426 -0.004777320870948756 0.01366271237930279 0.02605289986491945 0.003639076421726953 0.009161629878532068 -0.009961037938591936 0.002311358650055906 
0.0005417196491936727 0.06116659289921417 -0.05265877448490257 -0.07579072591714431 0.007269210149978752 0.008848295549359475 0.06690398710245068 0.01653418731840287 -0.01776522070642807 0.003109487862264389 0.0006026408083352407 
-0.0002441157953617706 -0.06452476574548018 0.04378620233650729 0.001431522231034597 0.02152308562392296 0.008192990417610587 -0.007611849956524721 0.008281082803485381 -0.01776522070642806 -0.003547311956636574 -0.001057734155085767 
0.01378548060078703 -0.05264738927756368 0.001657017747836834 0.001364999694660733 0.009639501982736375 0.003516975065532779 0.01550223923480781 0.01606105939537238 -0.02344272166654439 0.003680749045545354 -0.0005501476674919159 
-0.02430430325067861 -0.0367482152637546 0.03834348540014203 0 0.009639501982736375 0.01179169871171227 0.002263872766756247 0.02258368106764844 -0.02344272166654439 0 0 
0.005688435866686289 0.028331055177748 -0.02858252471222449 3.469446951953614e-18 0.002180691241431539 2.38524477946811e-18 0.002263872766756251 0.03576257478571427 0 -2.168404344971009e-19 0 
0.005688435866686289 0.028331055177748 -0.02858252471222449 3.469446951953614e-18 0.002180691241431539 2.38524477946811e-18 0.002263872766756251 0.03576257478571427 0 -2.168404344971009e-19 0 
0 -8.673617379884035e-19 0.1310571472017242 -0.104096589824716 0 0 -0.03441314318133716 -0.03121283491837352 -0.01544808744453274 -8.673617379884035e-19 0 
-0.04722652296641256 0.03946780928263809 0.0333264499521625 0.2480907839478458 -0.1277625379746215 -0.03241684031814967 -0.1027932790732135 0.01405777333131849 -0.04322643967193808 -0.07939361474803168 -0.01369733343059618 
-0.02845302955192754 0.04615956264994414 0.1906013205018046 -0.1799460283637711 -0.02471419735192081 -0.06548057730785534 0.1800796141355558 -0.06276040078975893 -0.03354558785270766 -0.06427480032366116 -0.003992755214136037 
-0.01673466851329252 -0.3032930305148733 0.2410015900024462 0.01604035753721549 -0.01350161799844944 -0.1906889083020268 -0.1094529109370392 0.1463164587067997 0.02371494630013115 -0.01532157579973588 -0.01154725259818584 
0 -8.673617379884035e-19 0.1310571472017242 -0.104096589824716 0 0 -0.03441314318133716 -0.03121283491837352 -0.01544808744453274 -8.673617379884035e-19 0 
-4.336808689942018e-19 -0.07199615395201703 0.1093301535353486 0.08916502678328873 0 0 -0.0531290438286657 -0.03954118071182705 -0.01706999479686968 -8.673617379884035e-19 0 
0 -8.673617379884035e-19 0.1310571472017242 -0.104096589824716 0 0 -0.03441314318133716 -0.03121283491837352 -0.01544808744453274 -8.673617379884035e-19 0 
0 -8.673617379884035e-19 0.1310571472017242 -0.104096589824716 0 0 -0.03441314318133716 -0.03121283491837352 -0.01544808744453274 -8.673617379884035e-19 0 
-0.001090666658464197 -0.110845562566485 0.01320802409416457 0.1423219992200949 0.01420333778714185 0.005625171454285326 0.03085484762932319 0.0326672229341911 0 -0.0004856756296223195 1.084202172485504e-19 
0 -0.03715849606473119 0.0788093106246258 -0.02093911487368669 0 0 -8.673617379884035e-19 0 0 0 0 
-0.01585033695705072 0.04031701747859651 -0.0364453216539265 -0.1156308253450549 -0.001860460453400471 0.01174217814232654 0.1257712410927097 0.002926313511068905 0.01930138147983802 -7.699912592907297e-05 -0.0002460680750318651 
0.07026306903146165 0.05708440040364236 0.1039416483909936 -0.07349750876403005 0.01853378321054126 -0.0444272276579299 -0.06804365344659991 -0.009410391990293022 -0.02909520670794369 0.09723097497983202 -0.01840098585679901 
0.02786469012717491 0.01316426440155059 0.002021091274118613 0.06534505537533218 0.06470476202693347 -0.02461686190631827 -0.02264155635938391 -0.06362400894259457 -0.06798638658901711 0.07235188705025375 -0.009238488936376896 
0.03374541054820162 -0.01368954466600516 -0.002092101473221792 0.03295562806513679 0.0546179053230833 -0.02065058902658161 -0.02457333968685921 -0.06928042426939895 -0.04016176553417021 0.1002235535085685 -0.004421334579588358 
-0.03262369040760289 0.1387652946280939 -0.0223753739981319 0.1352134112146223 -0.01474867251839711 -0.01721381162943015 0.06793068576931766 -0.01371218265685725 -0.02920936594128724 -0.07226296906277035 -0.004421334579588358 
-0.01227188314393323 0 -0.03441935504054654 -0.104096589824716 0 -0.01302666131585814 0.1843038736006035 -0.03121283491837354 -0.01544808744453274 -0.03288472036012707 0 
0 -8.673617379884035e-19 0.1310571472017242 -0.104096589824716 0 0 -0.03441314318133716 -0.03121283491837352 -0.01544808744453274 -8.673617379884035e-19 0 
