solver_type L2R_L2LOSS_SVC_DUAL
nr_class 11
label 1 2 3 4 5 6 7 8 9 10 11
nr_feature 2934
bias -1
w
0.5279888693502421 -0.03783715521151029 -0.1393058625463414 -0.01419987092054374 -0.05943431696666183 -0.2550959176070841 -0.04491491359765312 0 0 -0.00396250041439072 4.336808689942018e-19 
-0.1193147409224304 0.01901712695043627 0.0600048499767016 0.3581661758997408 0.01465834507093339 -0.2725873094659318 -0.3253500096328711 -0.1884312253362744 -0.04958942306273216 -0.1792522169962202 -0.3146621927210496 
0.363154014761867 -0.2297825714964634 0.01657227335097002 -0.192531780904605 0.06942496096881795 -0.0181816089295848 0.06918013540202871 -0.12232575384797 -0.0009633965078465563 0.1601751501657852 0.05078339582244184 
0.1901828085250021 0.007333468305245244 0.05905369084046592 0.1725646662506304 -0.2754564766148788 0.1882232463423128 -0.184075798687472 -0.252037359509263 -0.04265570882332417 0.05723406840057198 -0.06765002708809004 
0.6137990120882725 -0.2496970411451754 -0.1994127403814103 -0.4332704748025162 0.03699950604110603 0.2686464806317121 -0.03846537388419854 -0.04395175166905534 -0.0009633965078465533 -0.1201386655497678 0.1805824274208885 
0.5920594667851578 -0.1415136746497456 -0.5160290432697162 -0.2736656616828537 -0.2208213360071861 0.6341732644759681 -0.06217179756868026 -0.009891140622045883 -0.006202223783209173 -0.01412832974369632 -0.08272296048763809 
0.05359732881787276 -0.3246574217934055 -0.09614388951639072 -0.357995130390188 0.5804031899387939 0.5852727873826221 -0.2213280848721672 -0.006374730000172846 -2.710505431213761e-20 -0.05285948107855768 -0.2376374429715521 
0.5279888693502421 -0.03783715521151029 -0.1393058625463414 -0.01419987092054374 -0.05943431696666183 -0.2550959176070841 -0.04491491359765312 0 0 -0.00396250041439072 4.336808689942018e-19 
0.5279888693502421 -0.03783715521151029 -0.1393058625463414 -0.01419987092054374 -0.05943431696666183 -0.2550959176070841 -0.04491491359765312 0 0 -0.00396250041439072 4.336808689942018e-19 
0.5279888693502421 -0.03783715521151029 -0.1393058625463414 -0.01419987092054374 -0.05943431696666183 -0.2550959176070841 -0.04491491359765312 0 0 -0.00396250041439072 4.336808689942018e-19 
-0.1907889188613101 -0.326991401226113 0.135258378677928 -0.09285205859997156 -0.135782649098166 -0.1335450494364054 -0.1865601668074566 -0.1838850664533725 -0.1832224480344743 -0.1949981315620309 -0.2027248385821728 
-0.1953288508151945 -0.133324032314691 -0.001752895414505371 -0.107207033758754 -0.1626711859477164 -0.1335450494364054 -0.2217194667261298 -0.1931588261309383 -0.1832224480344743 -0.2026737266448743 -0.2027248385821728 
0.9237982294311932 -0.1468206075043922 -0.2879660388990539 -0.07363315158028895 -0.2569825550654843 -0.1250018390405528 -0.06011635957848629 -0.002704002628988105 0 0 -0.0767713737130777 
0.1882430023572405 0.3459498064700835 -0.1327301173463349 -0.08815337986106182 -0.1062196694613284 -0.1535163125322968 -0.0123775983864128 0 0 -0.04010409230942312 -0.02336301578805719 
0.2297839007675404 -0.03761636831842154 -0.08252536139406727 -0.0002220550804540272 -0.02558429830845922 -0.1054593026689562 0 0 0 0 0 
0.4684835531321113 0.2830969508038642 0.2064386158124654 -0.1221425721475439 -0.3998063627474012 -0.4035174424387254 -0.08912977116295676 -0.09953324349569405 -0.04684052205055911 -0.01446819462240125 -0.1161538350442875 
-0.002651144819067099 -0.007852259101265099 0.002998040072931995 -0.002122007181358734 -0.001463872388811598 0.0002061161466585214 -0.0002973228156816513 -0.003312998520015068 -0.002207790750843787 -0.00238045237116522 -0.001821073253142295 
-4.551030440577561e-05 -0.0001364243684649568 3.182822050753744e-05 4.940317339927912e-05 4.859414712595635e-05 -4.77726705781821e-05 -3.178849389191465e-05 -4.281876672417086e-05 -2.667397348920527e-05 -3.317553631519167e-05 -2.406926736745147e-05 
-0.4909243668292513 -0.2656919332573688 0.09834824989272135 -0.6210472683467696 -0.08631484668340017 -0.2422954159007714 -0.4812524955617077 -0.3452735097247807 -0.3975260917055201 -0.4719566878428518 -0.4367765064558808 
-0.06357558930940982 -1.129690606559482 -0.5089440152822181 -0.05500664574335755 -0.3776620564326156 0.3266419134618481 0.004133329418316655 -0.2363070879416095 -0.2907318785095074 -0.4522903716087986 -0.1223036030651127 
-0.388010997781065 0.5365538814269554 0.194562470732901 0.04022717271496831 -0.009987959136066701 -0.5045650490740323 -0.4719405835583789 -0.1493794073721461 -0.1087944284894024 -0.04003938545372624 -0.323259836863009 
-0.105754034418886 0.1697239131874424 0.201694075444861 0.1348412540608094 -0.04313656971772428 -0.3073713529430961 -0.1865732864224394 -0.1691390457925775 -0.07296552415202166 0.0824772586272304 -0.07201957422139108 
-0.6128943900649618 -0.2340747719692059 0.2586677421657816 0.02779169776556437 -0.4758897468804069 -0.7207560567474054 -0.7455766129646954 -0.6388545919484402 -0.4998546495387846 -0.447950919455942 -0.5524052612593998 
-4.734641737858301e-05 -5.530497665739738e-05 7.852961105739174e-06 7.17434078845405e-05 4.377374485440383e-05 -9.152687492616791e-05 -6.807194611300485e-05 -3.44475736221802e-05 -2.758866039497795e-05 -3.230790906419794e-05 -4.045117728713199e-05 
0.02313448795067554 -0.03164344358591203 -0.0871621665956786 -0.00898315803676456 -0.01821502826967861 0.06253624117375463 0.03403760719244735 -0.001541412955550422 9.539296704829762e-05 0.0020202357530689 0.0219891882726403 
0.1676778691635994 0.3111643498897482 -0.4097415992941205 -0.2544788625433939 0.1299131725303136 0.1944029848358344 -0.3516949126344817 0.02875865992180414 -0.09465495098485593 -0.2633953746339338 -0.534740148733123 
-0.0003716986097867364 -0.01233013299887825 -0.002815602237427188 0.002275092958232518 -0.002091553268329313 0.003909088962559755 0.002425776715685295 -0.002517004680793342 -0.001502008575559415 -0.002331196291163908 -0.000399822008035763 
0.001782331423949248 -0.001324104764065375 -0.003462615100642737 0.001612734391265376 -0.001530872725395947 -0.001295135094601303 0.001693169763837051 0.0004346224288357622 -0.0002667404935786803 -0.0004797945170557539 0.001574067261011452 
2.938917059720067e-06 -1.08835648278071e-05 -9.105556896770459e-05 7.588747483555563e-05 -1.240272315397689e-05 3.297054805075875e-09 2.332917380574375e-05 4.236499635524716e-06 -2.459055713665383e-06 -7.862427745607662e-06 5.429839132755298e-06 
-0.2117967620268464 -0.1721212972923709 -0.28202288864928 0.2518202620489669 -0.04555034411274159 0.02687377633753306 -0.1427858042333898 0.03202258259735359 -0.0572287228731618 0.005799574438407349 0.2367481601221197 
-0.1625708749174028 0.3821245327047547 0.1610023429041413 -0.03951976254512357 -0.03474248982123578 -0.272441397455192 -0.2641764152357424 -0.09921357208958713 -0.05079404002450973 -0.02243338084103848 -0.004125253830809999 
0.2375049697692183 -0.4126360381282879 -0.3336636792864502 0.06067469509574194 -0.121257602879198 0.2241731678739804 0.4101556240195735 0.03505949460111598 -0.03381750972621983 0.06988859043849514 -0.02265105713830354 
-0.05357415365171677 -0.0151396892626309 0.140123247425265 -0.2616497132994091 0.007438026951970454 0.1077641001910298 0.1704914164247317 -0.03652514185062986 -0.001803955275581248 0.01310020225902103 -0.03217872041096714 
0.09012314145907122 -0.01914335907287956 -0.2272049000207233 -0.2326598317280914 -0.1409941097757122 0.1431302691422017 0.3971761860298454 -0.1128767132063604 -0.08595670621784714 0.03574989659650975 -0.1007495743590698 
-1.014435955275598e-05 -3.534981455419362e-06 -6.887298205042265e-05 4.45257934583434e-05 -7.159045696200045e-06 2.340942711371741e-05 3.791467439229419e-05 -5.813498322846513e-06 -3.771388273831095e-06 -2.202174645304405e-06 -1.616503574481226e-05 
-0.001544766606626261 0.03919538246728384 0.01820525646486806 0.02288599945003313 -0.01619483705378501 -0.01765795195169189 -0.02237322461504259 -0.006427505944102642 -0.0005033469900791621 -0.01090071996720646 -0.01523328544752681 
-0.3198982641065081 0.5258081440367419 0.8162633264360714 -0.4163160269321019 -0.1280524741779141 -0.6100203879407561 -0.1238256766436035 -0.05345290882774095 -0.04828313633484876 -0.03305597298306642 -0.01680047481141898 
0.001762181612759327 0.001572343445700068 -0.001126694009679287 0.0003662796949819067 -0.000671564822951917 -0.003013584182809927 0.001367600895414772 -0.0004488876270349775 -0.0002246084791709077 -0.0007567769274041446 -0.0002209253691596335 
0.0007367430712072322 0.001272300865932623 0.0005875327362556309 -0.001636200253624005 -0.001238518650429466 -0.0001894668388793618 0.0001087577143067639 -0.0004963473997555115 -1.961109496554802e-05 -0.0003360593460022961 -0.001169333188920212 
-2.247822873366003e-05 3.145621913661455e-05 7.038644983712367e-06 -3.313737489993041e-05 -1.469104937014278e-05 2.522093541450481e-05 -1.761050831631027e-05 9.39984564263401e-06 3.972303235906056e-07 3.244435953016713e-07 -2.418374045557408e-06 
0.01465171982931945 -0.009114269004568194 -0.02515947366651177 0.03636808616272998 0.02011188724317056 -0.2772658222533884 0.03320935601748037 -0.02058583906070873 -0.09444294782162238 -0.01056380694480989 -0.07687294586399962 
-0.2064885611268544 -0.2545645584994141 -0.09947342466955658 0.4286410060102453 -0.2152121001820233 -0.04764793936006685 -0.01162171835896744 -0.0346071648660831 -0.1008773242171658 -0.01210593340188122 0.1041229922590154 
0.3880031080766838 0.098748187480489 0.154852618254686 -0.7787084776242508 0.4276131841833503 -0.08448810247641055 0.02831483506431446 -0.04889573034999115 0.05027697827767696 -0.0153162300716313 -0.1414046342085221 
0.07371856699629231 0.2109509179110243 -0.1919154045167853 -0.04975001397372068 -0.1832566830481537 0.14995100482698 0.0137241156934893 0.0001594634731808998 0.02083947019295316 -0.01746145145647874 -0.06908835767634119 
0.1532618778243542 0.181383064413436 -0.2342294949471626 -0.408665839852534 0.03544029739487496 0.09787823196516938 -0.02661395139128356 -0.1314953246027781 0.01065898905652507 -0.04688330670010706 -0.06445900807236567 
-2.375925638336401e-05 2.464198015342192e-05 -7.048487931498851e-06 -3.362547978187838e-05 -2.470424380104249e-06 3.126614784570627e-05 -1.705094561979616e-05 9.375121704954218e-06 -4.802981630698537e-07 1.33276009866583e-06 7.031840640044114e-06 
-0.02066442136449244 -0.0236827242613563 0.0383392711280453 -0.01227186416578332 0.006507283670792488 -0.01183436831504479 0.002454774705752284 0.004397881056840477 0.002883746824333408 -0.0002101899729069449 0.002615565504409102 
0.03075501750757596 0.09767175987577101 -0.4818904740804564 -0.1450688576765065 -0.2029409623418398 0.0722175124558045 0.5222621311919875 0.3530244459802042 -0.05814188835470024 -0.001996036446553187 0.004049097409436243 
-0.001448715616620186 0.0003072723458553153 0.001438948932809331 -0.0001980903914699436 -0.001677639984111997 0.0004235633124294989 -0.0002582221382583506 -0.0004206967851508017 -0.0003088407496726735 -0.0002779582866813397 -4.911653982695967e-06 
0 0.3670242510356178 -0.2026558721629001 -0.04692083756342488 -0.08405908287535925 0 0 -0.05816641411577578 -0.02528305293551315 -0.0293786543291256 0 
-0.07601410989276372 -0.1523411592651275 -0.0617577453912069 -0.4653732096584949 -0.1773295310186505 0.139042260029526 0.1036305429067402 -0.004727600794664077 -0.1336330249717423 -0.02342150964865387 0.1119373541388763 
-0.139904416656073 0.2415147719826227 -0.5816583887471327 -0.1920486533895236 -0.03318937151795179 -0.01763283680739083 -0.2152575099457602 0.1635637890157812 0.2491166674965548 0.2781270616445529 0.1694235802141875 
-0.1619872096276398 0.8795607000025574 -0.07622673730238423 -0.1550246764150641 0.1018816659586814 -0.3798007025979676 -0.09783439139150256 -0.1424808701032078 -0.05173968034458688 -0.07644591436841405 -0.1834129652491365 
0 0.3670242510356178 -0.2026558721629001 -0.04692083756342488 -0.08405908287535925 0 0 -0.05816641411577578 -0.02528305293551315 -0.0293786543291256 0 
-0.0342542611124364 0.8511250866931126 -0.2624939567429894 -0.2781004772602899 -0.2653827401985596 -0.04204567667665123 -0.007156779278821668 -0.1046955535749305 -0.03238996874707538 -0.03478029861818275 -0.02440318662850716 
0 0.3670242510356178 -0.2026558721629001 -0.04692083756342488 -0.08405908287535925 0 0 -0.05816641411577578 -0.02528305293551315 -0.0293786543291256 0 
0 0.3670242510356178 -0.2026558721629001 -0.04692083756342488 -0.08405908287535925 0 0 -0.05816641411577578 -0.02528305293551315 -0.0293786543291256 0 
0 0.3670242510356178 -0.2026558721629001 -0.04692083756342488 -0.08405908287535925 0 0 -0.05816641411577578 -0.02528305293551315 -0.0293786543291256 0 
0 0.3670242510356178 -0.2026558721629001 -0.04692083756342488 -0.08405908287535925 0 0 -0.05816641411577578 -0.02528305293551315 -0.0293786543291256 0 
-0.1667496202586895 -0.1680532465910242 0.03020968914040541 -0.0682253044427301 -0.1030688784532404 -0.1070096909634667 -0.2540638583325294 -0.1714460180858612 -0.1518409459206955 -0.2022991017437247 -0.2180616162678187 
0.02832240892414314 -0.4039611961335648 -0.6369308654451615 -0.0669798232584283 0.1221773267344551 0.1053481983861844 -0.06167325693529623 0.3981732294573166 0.0922310283798889 -0.06283056834415632 0.2809182357991719 
-0.2123468072910925 -0.1754847554238413 0.08127066700155371 -0.06001217190620947 -0.1424754144486501 -0.1031028425532432 -0.2389789030154473 -0.1814111614456067 -0.1605759955149003 -0.1872344427783899 -0.1794879587378357 
0.3985770641007716 0.4833635360619386 -0.3394197780558736 -0.7229808463740102 0.1230437055501907 -0.5599489334746148 0.4429174207963885 0.4018492827586783 -0.2455511671511169 -8.046727187842979e-05 -0.5950085805917873 
-0.007243225062833677 -0.01045049923777068 0.3376979381327303 -0.1099950718928743 -0.07810791647187877 -0.08860665477117023 0 -0.00222643833204806 -0.004093532260761147 -0.01219369733804453 0 
-0.1499522530180833 -0.09291651312301979 0.1905188900597354 -0.0505266735768471 -0.2371356241661932 0.5768643050732091 0.160551203676138 -0.1145138567226436 -0.04941021113734557 -0.02920470462013844 -0.2254599861904265 
-0.007243225062833677 -0.01045049923777068 0.3376979381327303 -0.1099950718928743 -0.07810791647187877 -0.08860665477117023 0 -0.00222643833204806 -0.004093532260761147 -0.01219369733804453 0 
-0.06890662335892936 -0.6053853414290788 0.4287190509034561 0.3387004541825856 0.4381040748868981 -0.3377550259213164 -0.0751604044926906 -0.03778531652827749 -0.01934971159751147 -0.02448136337891291 -0.1025375757719015 
-0.007243225062833677 -0.01045049923777068 0.3376979381327303 -0.1099950718928743 -0.07810791647187877 -0.08860665477117023 0 -0.00222643833204806 -0.004093532260761147 -0.01219369733804453 0 
-0.007243225062833677 -0.01045049923777068 0.3376979381327303 -0.1099950718928743 -0.07810791647187877 -0.08860665477117023 0 -0.00222643833204806 -0.004093532260761147 -0.01219369733804453 0 
-0.007243225062833677 -0.01045049923777068 0.3376979381327303 -0.1099950718928743 -0.07810791647187877 -0.08860665477117023 0 -0.00222643833204806 -0.004093532260761147 -0.01219369733804453 0 
-0.007243225062833677 -0.01045049923777068 0.3376979381327303 -0.1099950718928743 -0.07810791647187877 -0.08860665477117023 0 -0.00222643833204806 -0.004093532260761147 -0.01219369733804453 0 
-0.007243225062833677 -0.01045049923777068 0.3376979381327303 -0.1099950718928743 -0.07810791647187877 -0.08860665477117023 0 -0.00222643833204806 -0.004093532260761147 -0.01219369733804453 0 
-0.1358673189936962 0.1207074085173734 -0.101539736884093 0.1986594997119331 -0.3440920732239369 0.2249511637535545 -0.1551184528235809 -0.06645684891339719 -0.01423039894128982 0.3138887133893751 -0.07402475580819132 
0 -0.07898552962488958 0.2047097009168801 -0.06123219121256161 -0.0190743642324794 -0.004643446667946863 -0.00115926059705545 -0.02875170990321421 0 -0.02522162433707112 -0.02010315883529148 
0 -0.07898552962488958 0.2047097009168801 -0.06123219121256161 -0.0190743642324794 -0.004643446667946863 -0.00115926059705545 -0.02875170990321421 0 -0.02522162433707112 -0.02010315883529148 
0.3042120874509798 -0.1966517559765061 0.3329822641072582 -0.1812391143251529 -0.1308064500525216 -0.0982634469509987 -0.1572098420049557 0.3010750324718089 0 -0.05928875153721024 -0.04614202976519923 
0 -0.07898552962488958 0.2047097009168801 -0.06123219121256161 -0.0190743642324794 -0.004643446667946863 -0.00115926059705545 -0.02875170990321421 0 -0.02522162433707112 -0.02010315883529148 
0 -0.07898552962488958 0.2047097009168801 -0.06123219121256161 -0.0190743642324794 -0.004643446667946863 -0.00115926059705545 -0.02875170990321421 0 -0.02522162433707112 -0.02010315883529148 
0 -0.07898552962488958 0.2047097009168801 -0.06123219121256161 -0.0190743642324794 -0.004643446667946863 -0.00115926059705545 -0.02875170990321421 0 -0.02522162433707112 -0.02010315883529148 
0 -0.07898552962488958 0.2047097009168801 -0.06123219121256161 -0.0190743642324794 -0.004643446667946863 -0.00115926059705545 -0.02875170990321421 0 -0.02522162433707112 -0.02010315883529148 
0 -0.07898552962488958 0.2047097009168801 -0.06123219121256161 -0.0190743642324794 -0.004643446667946863 -0.00115926059705545 -0.02875170990321421 0 -0.02522162433707112 -0.02010315883529148 
0 -0.07898552962488958 0.2047097009168801 -0.06123219121256161 -0.0190743642324794 -0.004643446667946863 -0.00115926059705545 -0.02875170990321421 0 -0.02522162433707112 -0.02010315883529148 
-0.09133462315110902 -0.4144814424157195 0.3968791146162863 0.04892052602237543 -0.2194150065977278 0.1944570449622483 -0.1283086488572955 -0.04825687915736012 -0.009842476577409264 -0.04388675174315609 0.2378499038578248 
0 -0.07898552962488958 0.2047097009168801 -0.06123219121256161 -0.0190743642324794 -0.004643446667946863 -0.00115926059705545 -0.02875170990321421 0 -0.02522162433707112 -0.02010315883529148 
0.5710518089310082 -0.09478197013680419 -0.08790066616393405 -0.07416585574591164 -0.1483554405867386 -0.06023579965804633 -0.02619968007990007 1.626303258728257e-19 -0.009125499499126558 -0.01132472085192302 -0.04835112922135688 
0.2547266765543977 -0.03012267693868489 -0.256277121710135 0.03801298113324387 -0.0624802946336211 0.271540896860466 -0.03749280219621362 -0.06232769374293734 -0.009125499499126558 -0.06454293245091723 0.1154246441728899 
0.2155802306155102 0.1073549202067038 -0.3457248834182494 0.1478133374030921 -0.04564878064083736 -0.2700890872420804 0.01672164984543136 -0.3279837882131831 0.3385428174848514 0.2260312195950298 -0.1273118764187084 
0.5341466376112483 0.2964296553825098 -0.8197621321967805 -0.503935096301826 0.1881572601076164 0.2494109204792439 -0.2231832498997827 -0.02075737923129648 -0.009125499499126555 -0.04387621496443084 0.4454352815433454 
0.9183717015101918 0.004580936962877858 -0.2988410772218737 -0.4238250528487702 -0.02402097832361419 -0.1885039362965576 0.2526084027253589 -0.03889794051783271 -0.05535564164463819 -0.06189873662461782 -0.1490141046827594 
0.5710518089310082 -0.09478197013680419 -0.08790066616393405 -0.07416585574591164 -0.1483554405867386 -0.06023579965804633 -0.02619968007990007 1.626303258728257e-19 -0.009125499499126558 -0.01132472085192302 -0.04835112922135688 
1.044725006512211 -0.2507682154987202 -0.1084957233016744 -0.2231980088509859 0.04414606125984544 -0.1885039362965577 -0.1382729818597695 -0.03889794051783271 -0.04513173130329907 -0.03509380274502945 -0.1237716715400673 
0.5710518089310082 -0.09478197013680419 -0.08790066616393405 -0.07416585574591164 -0.1483554405867386 -0.06023579965804633 -0.02619968007990007 1.626303258728257e-19 -0.009125499499126558 -0.01132472085192302 -0.04835112922135688 
0.2294639795028358 -0.1628506605501521 -0.1862859622882082 -0.1161334374447422 0.2999952647957547 -0.06023579965804633 -0.02650064092125723 -3.252606517456513e-19 -0.01367935522233597 -0.01402338334583416 -0.04835112922135688 
0.2666477834366873 0 0 -0.0448753100457052 -0.0586683407342219 -0.04544464253817418 -0.02097381433720531 0 -0.005717224297400114 -0.008419823500589219 -0.04835112922135688 
0.2666477834366873 0 0 -0.0448753100457052 -0.0586683407342219 -0.04544464253817418 -0.02097381433720531 0 -0.005717224297400114 -0.008419823500589219 -0.04835112922135688 
0.2296779651216486 -0.0510000281010042 0.3137303559143846 -0.1839788197562781 -0.07959816022002381 -0.07382543755630117 -0.02298903314983695 0 -0.005717224297400114 -0.01231741813830508 -0.08445315819570487 
0.3367084925322385 -0.01259543435399589 -0.03705682739600476 0 -0.07290555798663242 -0.06812395740493465 -0.0720094653677769 -0.0387979944830125 -0.007117264696218269 -0.003795287391049605 -0.01197120911480385 
0.07843438733690153 -0.01670775706035131 -0.06272574620695037 -0.2984867068996763 0.02955960459753435 0.290012530785309 -0.1118197088024121 -0.1983065448293614 -0.03101515114958467 -0.01270703791371524 0.2724242142964518 
0.2367090919453706 -0.01259543435399589 -0.1496677059832602 -0.157525650353788 -0.2283194874515523 0.1801061826241869 -0.1015154168059687 -0.1506974853356443 -0.01436443376745878 -0.01270703791371523 0.3434448398332476 
0.3367084925322385 -0.01259543435399589 -0.03705682739600476 0 -0.07290555798663242 -0.06812395740493465 -0.0720094653677769 -0.0387979944830125 -0.007117264696218269 -0.003795287391049605 -0.01197120911480385 
0.3367084925322385 -0.01259543435399589 -0.03705682739600476 0 -0.07290555798663242 -0.06812395740493465 -0.0720094653677769 -0.0387979944830125 -0.007117264696218269 -0.003795287391049605 -0.01197120911480385 
0.3367084925322385 -0.01259543435399589 -0.03705682739600476 0 -0.07290555798663242 -0.06812395740493465 -0.0720094653677769 -0.0387979944830125 -0.007117264696218269 -0.003795287391049605 -0.01197120911480385 
0.3367084925322385 -0.01259543435399589 -0.03705682739600476 0 -0.07290555798663242 -0.06812395740493465 -0.0720094653677769 -0.0387979944830125 -0.007117264696218269 -0.003795287391049605 -0.01197120911480385 
0 -0.08457525274722422 0.1813474399488868 -0.04611357924321255 -0.03142099822635058 0 -0.009740898394739178 -0.0325451318352389 0 -0.00852254131385566 0 
-0.03790149571269293 -0.227602035188314 0.7777326683498269 -0.08045748001010902 -0.1466784786936692 -0.103490722903217 -0.1635030577544751 -0.04690997633695167 -0.004304258777757745 -0.03401099022146119 -0.08071994511111236 
0.2157867325339642 -0.02519727095324705 0.1535723655867831 -0.6059144170258495 -0.1824432995978599 -0.06591862945920923 0.08064826986583057 0.463456415142215 -0.01012794156667943 -0.06744689705499822 0.1568254132775034 
0 -0.08457525274722422 0.1813474399488868 -0.04611357924321255 -0.03142099822635058 0 -0.009740898394739178 -0.0325451318352389 0 -0.00852254131385566 0 
0 -0.08457525274722422 0.1813474399488868 -0.04611357924321255 -0.03142099822635058 0 -0.009740898394739178 -0.0325451318352389 0 -0.00852254131385566 0 
0 -0.08457525274722422 0.1813474399488868 -0.04611357924321255 -0.03142099822635058 0 -0.009740898394739178 -0.0325451318352389 0 -0.00852254131385566 0 
0 -0.08457525274722422 0.1813474399488868 -0.04611357924321255 -0.03142099822635058 0 -0.009740898394739178 -0.0325451318352389 0 -0.00852254131385566 0 
0 -0.08457525274722422 0.1813474399488868 -0.04611357924321255 -0.03142099822635058 0 -0.009740898394739178 -0.0325451318352389 0 -0.00852254131385566 0 
0 -0.08457525274722422 0.1813474399488868 -0.04611357924321255 -0.03142099822635058 0 -0.009740898394739178 -0.0325451318352389 0 -0.00852254131385566 0 
0 -0.08457525274722423 0.4557582908171078 -0.2841937380678097 -0.08188750776748027 -0.0408654887938185 -0.009740898394739178 -0.03628423915048141 0 -0.00852254131385566 0 
0 -0.08457525274722422 0.1813474399488868 -0.04611357924321255 -0.03142099822635058 0 -0.009740898394739178 -0.0325451318352389 0 -0.00852254131385566 0 
-0.04448466821947267 -0.0154621432969607 -0.1513434007885394 0.448248599281493 -0.120724395966919 -0.04544604351926033 -0.02236279044727407 -0.0445188807753815 -0.02665478965307448 -0.001943311263079014 -0.007307347144410663 
-0.1262226515243166 -0.05563214680109307 0.02746989261735686 0.6998822268303881 -0.1399797966670773 -0.1651495388166556 -0.09658470311948297 -0.04457260497525296 -0.03078761646684757 -0.0312411908404881 -0.06716845403271562 
-0.04448466821947267 -0.0154621432969607 -0.1513434007885394 0.448248599281493 -0.120724395966919 -0.04544604351926033 -0.02236279044727407 -0.0445188807753815 -0.02665478965307448 -0.001943311263079014 -0.007307347144410663 
-0.1978211216781425 -0.1729736799444692 -0.4734082874301936 0.004424357901009771 0.3860933054679737 -0.2048643222062954 0.3486194606029094 -0.1256890023388472 -0.09774398704378856 -0.05803991610798518 0.5283904994696822 
-0.04448466821947267 -0.0154621432969607 -0.1513434007885394 0.448248599281493 -0.120724395966919 -0.04544604351926033 -0.02236279044727407 -0.0445188807753815 -0.02665478965307448 -0.001943311263079014 -0.007307347144410663 
-0.04448466821947267 -0.0154621432969607 -0.1513434007885394 0.448248599281493 -0.120724395966919 -0.04544604351926033 -0.02236279044727407 -0.0445188807753815 -0.02665478965307448 -0.001943311263079014 -0.007307347144410663 
-0.04448466821947267 -0.0154621432969607 -0.1513434007885394 0.448248599281493 -0.120724395966919 -0.04544604351926033 -0.02236279044727407 -0.0445188807753815 -0.02665478965307448 -0.001943311263079014 -0.007307347144410663 
-0.04448466821947267 -0.0154621432969607 -0.1513434007885394 0.448248599281493 -0.120724395966919 -0.04544604351926033 -0.02236279044727407 -0.0445188807753815 -0.02665478965307448 -0.001943311263079014 -0.007307347144410663 
-0.02647855442081581 -0.02904455438274305 -0.1746705263474345 0.4369583791534271 -0.07995027199470209 -0.01433634774223265 -0.02029892978160475 -0.08979523930947039 -0.008172308566448223 0 -0.04111342631184774 
-0.02647855442081581 -0.02904455438274305 -0.1746705263474345 0.4369583791534271 -0.07995027199470209 -0.01433634774223265 -0.02029892978160475 -0.08979523930947039 -0.008172308566448223 0 -0.04111342631184774 
0.09935445369717374 -0.2266741138735264 0.0314139430192145 0.1968413447338717 -0.2151113146393059 -0.5332276582324289 0.4166932843765502 0.09343752040450092 -0.03043243609936246 -0.08243525814255939 0.241336707707913 
-0.02647855442081581 -0.02904455438274305 -0.1746705263474345 0.4369583791534271 -0.07995027199470209 -0.01433634774223265 -0.02029892978160475 -0.08979523930947039 -0.008172308566448223 0 -0.04111342631184774 
-0.1722592758519637 0.3502315033242605 -0.7290777644003805 0.2173522331243658 0.05552586190771301 -0.173383250780168 -0.2187016556856933 0.256596604335838 -0.01003594913572439 -0.01221098404558551 0.381748969567817 
-0.02647855442081581 -0.02904455438274305 -0.1746705263474345 0.4369583791534271 -0.07995027199470209 -0.01433634774223265 -0.02029892978160475 -0.08979523930947039 -0.008172308566448223 0 -0.04111342631184774 
-0.02647855442081581 -0.02904455438274305 -0.1746705263474345 0.4369583791534271 -0.07995027199470209 -0.01433634774223265 -0.02029892978160475 -0.08979523930947039 -0.008172308566448223 0 -0.04111342631184774 
-0.02647855442081581 -0.02904455438274305 -0.1746705263474345 0.4369583791534271 -0.07995027199470209 -0.01433634774223265 -0.02029892978160475 -0.08979523930947039 -0.008172308566448223 0 -0.04111342631184774 
-0.02647855442081581 -0.02904455438274305 -0.1746705263474345 0.4369583791534271 -0.07995027199470209 -0.01433634774223265 -0.02029892978160475 -0.08979523930947039 -0.008172308566448223 0 -0.04111342631184774 
-0.3415878294281727 -0.06806869041334779 -0.09838529612427416 -0.04196758169883057 0.4483507053824934 0 -0.0003009608413571398 0 -0.004553855723209422 -0.002698662493911127 0 
0.2398792233551584 -0.4331259475133225 0.03853380815365604 0.4357114836418003 0.1616533743272451 -0.2061705687893502 -0.09048247788857797 -0.06721451985825612 -0.03101231053744998 -0.0673118988342262 -0.1435244857161484 
0.2605481862314804 -0.1406966145870859 -0.4999958417244974 -0.4421233814282913 0.9498108434324699 -0.1092440009933067 -0.06312584371680771 -0.02091603352257471 -0.004553855723209422 -0.009977719746555001 -0.008801553604817696 
0.3515696938044972 -0.109290000077754 -0.2348191080521603 -0.2648440975621205 0.251816701788857 -0.05728839506132793 -0.004366734096292354 0 -0.004553855723209422 -0.002698662493911126 -0.005016933582035054 
0.3515696938044972 -0.109290000077754 -0.2348191080521603 -0.2648440975621205 0.251816701788857 -0.05728839506132793 -0.004366734096292354 0 -0.004553855723209422 -0.002698662493911126 -0.005016933582035054 
-0.3498601809577344 -0.1352028604467924 -0.2079469646368804 0.2334467068039285 0.4259473530839655 -0.01113377419897408 -0.01013705637794876 8.673617379884035e-19 -0.004553855723209422 -0.002698662493911127 -0.01648467401563639 
-0.3415878294281727 -0.06806869041334779 -0.09838529612427416 -0.04196758169883057 0.4483507053824934 0 -0.0003009608413571398 0 -0.004553855723209422 -0.002698662493911127 0 
0.3044040254943211 -0.0947819701368042 -0.08790066616393404 -0.02929054570020645 -0.08968709985251667 -0.01479115711987214 -0.005225865742694761 0 -0.003408275201726442 -0.0029048973513338 0 
0.3044040254943211 -0.0947819701368042 -0.08790066616393404 -0.02929054570020645 -0.08968709985251667 -0.01479115711987214 -0.005225865742694761 0 -0.003408275201726442 -0.0029048973513338 0 
-0.07522170773446755 -0.04256425696148289 -0.1405845571969868 -0.1510589163541588 -0.03328466463866469 0.4139145607491608 0 0 0 -0.001074932343076042 0 
-0.1218177853826331 0.1092386399754888 -0.2928658249536968 0.2660488109535638 -0.2267484310474763 0.3465499001982821 -0.06783475133680847 4.065758146820642e-19 0 -0.001074932343076042 9.974659986866641e-18 
-0.07522170773446755 -0.04256425696148289 -0.1405845571969868 -0.1510589163541588 -0.03328466463866469 0.4139145607491608 0 0 0 -0.001074932343076042 0 
-0.07522170773446755 -0.04256425696148289 -0.1405845571969868 -0.1510589163541588 -0.03328466463866469 0.4139145607491608 0 0 0 -0.001074932343076042 0 
-0.07522170773446755 -0.04256425696148289 -0.1405845571969868 -0.1510589163541588 -0.03328466463866469 0.4139145607491608 0 0 0 -0.001074932343076042 0 
-0.07522170773446755 -0.04256425696148289 -0.1405845571969868 -0.1510589163541588 -0.03328466463866469 0.4139145607491608 0 0 0 -0.001074932343076042 0 
-0.07522170773446755 -0.04256425696148289 -0.1405845571969868 -0.1510589163541588 -0.03328466463866469 0.4139145607491608 0 0 0 -0.001074932343076042 0 
-0.07522170773446755 -0.04256425696148289 -0.1405845571969868 -0.1510589163541588 -0.03328466463866469 0.4139145607491608 0 0 0 -0.001074932343076042 0 
-0.005708109718376456 -0.03079973255249182 0.306782353148461 -0.2126636464110157 -0.03252222683506164 -0.01838286122917319 -0.0006827283208438669 -0.01123413858090133 0 0 0 
-0.1609586432054372 -0.3895659659070361 0.2324902001595447 0.6680454825492339 -0.01487508901926517 -0.2210837794037596 -0.2310335039294636 -0.03984390424022699 -0.008267986585943016 -0.02982870805981379 -0.118596638157918 
-0.02532049269041498 0.1987919539756189 0.5971903989324954 -0.6314938961210754 -0.1342538497053341 -0.1484726820430829 0.306158861406553 -0.01719950236742764 0 -0.002230646861994769 -0.1007332703952171 
-0.1609586432054372 -0.3530130791672597 -0.0425883959941599 0.8045937953631861 0.002357553795281952 -0.1867312227885941 -0.1869960112199196 -0.03984390424022699 -0.008267986585943016 -0.027598061197819 -0.1017630370313488 
-0.005708109718376456 -0.03079973255249182 0.306782353148461 -0.2126636464110157 -0.03252222683506164 -0.01838286122917319 -0.0006827283208438669 -0.01123413858090133 0 0 0 
-0.1003735468877339 -0.272063115738264 0.209475028985574 0.6577403857095272 -0.3513178343896958 -0.1793007932752183 -0.160203827204405 -0.03239363885067168 -0.008125951586736914 -0.027598061197819 -0.06991781960150759 
-0.005708109718376456 -0.03079973255249182 0.306782353148461 -0.2126636464110157 -0.03252222683506164 -0.01838286122917319 -0.0006827283208438669 -0.01123413858090133 0 0 0 
-0.005708109718376456 -0.03079973255249182 0.306782353148461 -0.2126636464110157 -0.03252222683506164 -0.01838286122917319 -0.0006827283208438669 -0.01123413858090133 0 0 0 
-0.005708109718376456 -0.03079973255249182 0.306782353148461 -0.2126636464110157 -0.03252222683506164 -0.01838286122917319 -0.0006827283208438669 -0.01123413858090133 0 0 0 
-0.005708109718376456 -0.03079973255249182 0.306782353148461 -0.2126636464110157 -0.03252222683506164 -0.01838286122917319 -0.0006827283208438669 -0.01123413858090133 0 0 0 
0 -0.1128862421389837 0.2940217313129323 -0.1134953845364254 -0.04764488313783596 -0.01700663963909791 -0.005984623037313498 0 0 0 -0.006399806932083525 
-0.1199939810410477 0.3085203783351229 -0.2340980659038752 -0.02712040523770757 0.02342545964186458 0.5028439161024865 -0.1576408092370736 -0.1251896035393674 -0.02142129258572841 -0.01993087772281929 -0.1877215606589772 
-0.0444308256780416 0.3128555249275295 0.1236977537785762 0.1837527075303418 -0.1326758553937917 -0.2881260033481804 -0.03482653194935776 -0.02273835109104177 -0.007632217921241826 -0.00626775923427197 -0.08793571683147226 
0 -0.1128862421389837 0.2940217313129323 -0.1134953845364254 -0.04764488313783596 -0.01700663963909791 -0.005984623037313498 0 0 0 -0.006399806932083525 
0 -0.2817899675183023 0.2184677299409776 0.3494325060869282 -0.1996059961539395 -0.03571427616656525 -0.02533369444759031 0 0 -0.006066305505077666 -0.00639980693208352 
0 -0.1128862421389837 0.2940217313129323 -0.1134953845364254 -0.04764488313783596 -0.01700663963909791 -0.005984623037313498 0 0 0 -0.006399806932083525 
0 -0.1128862421389837 0.2940217313129323 -0.1134953845364254 -0.04764488313783596 -0.01700663963909791 -0.005984623037313498 0 0 0 -0.006399806932083525 
-0.138671261938991 -0.233225150898632 1.298099275390536 -0.3892487487649907 -0.1785162500940932 -0.2008709380482344 -0.265763789241564 -0.0305028236340612 -0.02950717270466398 -0.03219365394116016 0.07520605585029361 
0 0.3092262456812405 0.09630713670512628 -0.1420412729039392 -0.08937713153092615 -0.1014594130085673 -0.02400050452876508 -0.006707494226516339 0 0 -0.04207321692961322 
-0.06030827038708938 0.1114174347714942 -0.08931040967634277 0.3269271162386759 -0.173645428778177 0.08553910189465773 -0.06579613116573739 -0.04352242718725329 -0.007632217921241824 4.336808689942018e-19 -0.08124332645074121 
-0.1145222224944531 -0.1912916024989577 0.4520852387891366 -0.0317467782866042 0.3018848846335161 -0.2787218571261774 -0.03647448411340667 -0.02647006754509161 -0.02121215540866997 -0.01305990285456733 -0.05374987821378006 
-0.02250682925377392 0.3718653614714399 -0.2171048868797968 -0.07930584173076771 0 -0.028080175577487 -0.01560270695315765 0 0 -0.001165184573175014 -0.003207110906672434 
-0.2164185639948376 0.05384741507905557 0.1181372240573452 -0.03506742473090548 -0.3067555956843313 0.4318477225260884 0.128461727133898 -0.0756644541404352 -0.02537524730362732 -0.004542381620273226 -0.1634443805758399 
-0.04990580707569577 0.01569536108098377 0.08539546344875683 0.3761158922426568 -0.1599927640969685 -0.171201559378323 -0.02093950797469445 -0.02397535331860743 2.168404344971009e-19 -0.001165184573175014 -0.08515230022321542 
-0.02250682925377392 0.3718653614714399 -0.2171048868797968 -0.07930584173076771 0 -0.028080175577487 -0.01560270695315765 0 0 -0.001165184573175014 -0.003207110906672434 
-0.03259779860512101 0.2103488503314957 0.09308111299484514 -0.1625022891927614 -0.02490638168082851 -0.05849593706965282 -0.01560270695315765 0 0 -0.001165184573175014 -0.01561836134028636 
-0.02250682925377392 0.3718653614714399 -0.2171048868797968 -0.07930584173076771 0 -0.028080175577487 -0.01560270695315765 0 0 -0.001165184573175014 -0.003207110906672434 
-0.02250682925377392 0.3718653614714399 -0.2171048868797968 -0.07930584173076771 0 -0.028080175577487 -0.01560270695315765 0 0 -0.001165184573175014 -0.003207110906672434 
-0.02250682925377392 0.3718653614714399 -0.2171048868797968 -0.07930584173076771 0 -0.028080175577487 -0.01560270695315765 0 0 -0.001165184573175014 -0.003207110906672434 
-0.1784460574433352 0.5070400044808938 0.2718183749155424 -0.2708142147011571 -0.06166016999782255 -0.04839795482342613 -0.1298879681482228 -0.03610154308070861 -0.009603334709241414 -0.0180893657768635 -0.003207110906672434 
0.2756981393289279 0.371644574578351 -0.2738853880320709 -0.0932836575708574 -0.03385001865820261 -0.1777167905156147 -0.06051762055081077 0 0 -0.005127684987565734 -0.003207110906672441 
-0.02250682925377392 0.3718653614714399 -0.2171048868797968 -0.07930584173076771 0 -0.028080175577487 -0.01560270695315765 0 0 -0.001165184573175014 -0.003207110906672434 
0.1772892338543401 0.2029055856922858 0.5171089849416943 -0.2276063246116703 -0.229741834779166 -0.3133426524214648 -0.1042875677576605 -0.02034524365294754 -0.01219016176831773 -0.01980048909763023 -0.05334489242897319 
-0.03540837540463306 -0.09391777688666891 -0.2356548562754231 -0.08793746282768372 -0.03045219616021252 -0.05759972894839313 0.5036984088800599 -0.01597345142456664 0 2.710505431213761e-20 -0.0195414640141824 
-0.1160972121860381 -0.01096459529720939 0.07295523364799937 -0.1542694258499036 -0.329714757463361 0.4750107166720053 0.2660541195383962 -0.09138587449665708 -0.03885937071045655 -0.08291042671350583 0.09570008115769828 
-0.04812415206716708 0.04730757570647242 0.2314418445243761 -0.3402347106640087 -0.1228963574735513 -0.1957117547615054 0.6191784360422686 -0.02552190153085111 -0.009425116764261856 -0.05838775251229472 -0.1120736635006322 
-0.05012501507442901 0.1998047797833407 -0.05890055379237664 -0.2712260454705042 -0.09844998399600696 -0.0643627838754189 0.3793937767743514 -0.01597345142456663 -2.168404344971009e-19 -8.673617379884035e-19 -0.092173083902177 
-0.03540837540463306 -0.09391777688666891 -0.2356548562754231 -0.08793746282768372 -0.03045219616021252 -0.05759972894839313 0.5036984088800599 -0.01597345142456664 0 2.710505431213761e-20 -0.0195414640141824 
-0.03540837540463306 -0.09391777688666891 -0.2356548562754231 -0.08793746282768372 -0.03045219616021252 -0.05759972894839313 0.5036984088800599 -0.01597345142456664 0 2.710505431213761e-20 -0.0195414640141824 
-0.03540837540463306 -0.09391777688666891 -0.2356548562754231 -0.08793746282768372 -0.03045219616021252 -0.05759972894839313 0.5036984088800599 -0.01597345142456664 0 2.710505431213761e-20 -0.0195414640141824 
-0.03540837540463306 -0.09391777688666891 -0.2356548562754231 -0.08793746282768372 -0.03045219616021252 -0.05759972894839313 0.5036984088800599 -0.01597345142456664 0 2.710505431213761e-20 -0.0195414640141824 
-0.03256764181403868 -0.06335626171332773 -0.02323314797809337 -0.0471777094044248 0 -0.03375308775664667 0.1812776734713417 0 0 0 -0.0195414640141824 
-0.08406060192549508 0.8041596869156916 -0.4217671963755663 -0.1222001776933015 -0.1969210290589298 -0.1940917458343512 0.285522148092643 -0.0248450966056732 -0.005701267015865925 -0.04896168219239316 -0.1143205785835173 
0.3093854033641336 -0.2140698717640477 -0.3158667267930074 0.07208706239817568 -0.04674237311729068 -0.1337723858607611 0.4813495536401717 -0.01284524348757796 0 -0.02303267770063826 -0.1242970266415103 
-0.03256764181403868 -0.06335626171332773 -0.02323314797809337 -0.0471777094044248 0 -0.03375308775664667 0.1812776734713417 0 0 0 -0.0195414640141824 
-0.03047647696313727 -0.05287366894491462 0.3154489950146993 -0.1305661540847485 -0.003892392826777122 -0.03616444832056671 0 0 0 0 -0.04663077087059009 
-0.1299960453427313 0.08828526544202278 0.09376095877899028 0.4220662635789649 0.003840593789490318 -0.2539311755141427 -0.2700583149793868 -0.09530922452293276 -0.01991822664080901 -0.03756796589490492 -0.2055521016893118 
-0.0556541578428385 0.002915665991914659 0.3017938231867318 -0.1937852483983801 -0.02689959249685413 -0.05350413278149427 -0.01851179379841255 -5.204170427930421e-18 -0.01072979953205997 -0.01378012047786571 -0.04968631032445261 
0.5300983322231713 -0.1734840574610091 0.2339217384517508 -0.398594358799024 -0.1930356418631063 -0.3093155025777647 -0.07847944362157133 -0.07008107081798634 -0.01025632151378492 -0.005971356610060099 0.4770817191553475 
-0.03047647696313727 -0.1169089628750739 0.1831434480995554 0.1120215800131454 -0.009524744461256111 -0.05136392398384122 0 0 0 0 -0.04968631032445261 
-0.03047647696313727 -0.05287366894491462 0.3154489950146993 -0.1305661540847485 -0.003892392826777122 -0.03616444832056671 0 0 0 0 -0.04663077087059009 
-0.03047647696313727 -0.05287366894491462 0.3154489950146993 -0.1305661540847485 -0.003892392826777122 -0.03616444832056671 0 0 0 0 -0.04663077087059009 
-0.03047647696313727 -0.05287366894491462 0.3154489950146993 -0.1305661540847485 -0.003892392826777122 -0.03616444832056671 0 0 0 0 -0.04663077087059009 
-0.03047647696313727 -0.05287366894491462 0.3154489950146993 -0.1305661540847485 -0.003892392826777122 -0.03616444832056671 0 0 0 0 -0.04663077087059009 
-0.03047647696313727 -0.05287366894491462 0.3154489950146993 -0.1305661540847485 -0.003892392826777122 -0.03616444832056671 0 0 0 0 -0.04663077087059009 
-0.03156857126394023 0.1532111227559048 -0.153158766545892 0.01290804573815124 0.01584626553615144 0.1050591858485852 -0.1700968925433957 -0.09342600186260856 -0.0448928139010679 -0.03369704552979334 0.04102118011965034 
-0.08716254700478791 0 -0.08792737487930014 -0.04551336748148215 -0.07319774596263831 0.2808803884448643 0 -0.00989114062204588 -0.006202223783209173 0 -0.007403969813710741 
-0.2014601483322087 -0.1022442445874491 0.03598515105890474 -0.06876910113731129 0.6166960680788667 0.1433803347654921 -0.1221977078306562 -0.2149411072929695 -0.07123149411430071 -0.04153841466610866 -0.1662038141618882 
-0.08716254700478791 0 -0.2075600202121694 -0.1371494263218565 -0.13350136929822 0.6531308191674292 -0.03954322400678249 -0.07252757125206866 -0.006202223783209174 4.336808689942018e-19 -0.05329256038669093 
-0.08716254700478791 0 -0.2075600202121694 -0.1371494263218565 -0.13350136929822 0.6531308191674292 -0.03954322400678249 -0.07252757125206866 -0.006202223783209174 4.336808689942018e-19 -0.05329256038669093 
-0.08716254700478791 0 -0.08792737487930014 -0.04551336748148215 -0.07319774596263831 0.2808803884448643 0 -0.00989114062204588 -0.006202223783209173 0 -0.007403969813710741 
-0.08716254700478791 0 -0.08792737487930014 -0.04551336748148215 -0.07319774596263831 0.2808803884448643 0 -0.00989114062204588 -0.006202223783209173 0 -0.007403969813710741 
-0.08716254700478791 0 -0.08792737487930014 -0.04551336748148215 -0.07319774596263831 0.2808803884448643 0 -0.00989114062204588 -0.006202223783209173 0 -0.007403969813710741 
-0.08716254700478791 0 -0.08792737487930014 -0.04551336748148215 -0.07319774596263831 0.2808803884448643 0 -0.00989114062204588 -0.006202223783209173 0 -0.007403969813710741 
-0.09855136601596806 -0.05659292661743395 0.1426499051510607 -0.04551336748148215 -0.1336508679748723 0.2196510652348916 -0.03526794299698869 -0.00989114062204588 -0.006202223783209173 -0.003874891741111295 -0.007403969813710738 
-0.01081614430346989 -0.0356671131047774 -0.08905432950322766 0.2980386184037579 -0.03646595439543138 -0.01118800859657682 -0.01654713072030497 0 -0.01336573438527019 -0.01090011854686828 -0.01931481370133193 
-0.01908849583303158 -0.1196326823610856 0.03155930456143868 0.4634749154008629 -0.06053674701063226 -0.08492570541515812 -0.02953666908740667 0 -0.01336573438527019 -0.01090011854686828 -0.06821961029698333 
-0.01081614430346989 -0.05249851232764094 0.1411209730740449 0.1880606268981038 -0.03813339471210446 -0.07379193121618403 -0.01970057355081503 3.469446951953614e-18 -0.01336573438527019 -0.01090011854686828 -0.05173493628134695 
-0.01081614430346989 -0.0356671131047774 -0.08905432950322766 0.2980386184037579 -0.03646595439543138 -0.01118800859657682 -0.01654713072030497 0 -0.01336573438527019 -0.01090011854686828 -0.01931481370133193 
-0.01081614430346989 -0.0356671131047774 -0.08905432950322766 0.2980386184037579 -0.03646595439543138 -0.01118800859657682 -0.01654713072030497 0 -0.01336573438527019 -0.01090011854686828 -0.01931481370133193 
-0.01081614430346989 -0.0356671131047774 -0.08905432950322766 0.2980386184037579 -0.03646595439543138 -0.01118800859657682 -0.01654713072030497 0 -0.01336573438527019 -0.01090011854686828 -0.01931481370133193 
-0.01081614430346989 -0.0356671131047774 -0.08905432950322766 0.2980386184037579 -0.03646595439543138 -0.01118800859657682 -0.01654713072030497 0 -0.01336573438527019 -0.01090011854686828 -0.01931481370133193 
-0.01081614430346989 -0.0356671131047774 -0.08905432950322766 0.2980386184037579 -0.03646595439543138 -0.01118800859657682 -0.01654713072030497 0 -0.01336573438527019 -0.01090011854686828 -0.01931481370133193 
-0.02010387143273968 -0.0356671131047774 -0.2224723843819211 0.6298790739650011 -0.0364659543954314 -0.101786809557054 -0.02585498575240411 -0.01803122741070439 -0.01336573438527019 -0.01090011854686828 -0.0758306341699623 
-0.01081614430346989 -0.0356671131047774 -0.08905432950322766 0.2980386184037579 -0.03646595439543138 -0.01118800859657682 -0.01654713072030497 0 -0.01336573438527019 -0.01090011854686828 -0.01931481370133193 
-0.01081614430346989 -0.0356671131047774 -0.08905432950322766 0.2980386184037579 -0.03646595439543138 -0.01118800859657682 -0.01654713072030497 0 -0.01336573438527019 -0.01090011854686828 -0.01931481370133193 
-0.03116121602378477 -0.02241579260661142 -0.08176291989915727 -0.1221375505679434 -0.02890323919636203 0.3287512659536984 -0.02007660187514461 0 0 -0.002679848118423462 -0.02117752270104604 
-0.1144413446732278 -0.2080711998587918 -0.4481168060905006 0.2635613579222985 0.1432269177832645 0.5502896965983113 -0.04572390319137885 1.084202172485504e-19 0 -0.01037654754219901 -0.0670557093913639 
-0.03116121602378477 -0.02241579260661142 -0.08176291989915727 -0.1221375505679434 -0.02890323919636203 0.3287512659536984 -0.02007660187514461 0 0 -0.002679848118423462 -0.02117752270104604 
-0.03116121602378477 -0.02241579260661142 -0.08176291989915727 -0.1221375505679434 -0.02890323919636203 0.3287512659536984 -0.02007660187514461 0 0 -0.002679848118423462 -0.02117752270104604 
-0.03116121602378477 -0.02241579260661142 -0.08176291989915727 -0.1221375505679434 -0.02890323919636203 0.3287512659536984 -0.02007660187514461 0 0 -0.002679848118423462 -0.02117752270104604 
-0.03116121602378477 -0.02241579260661142 -0.08176291989915727 -0.1221375505679434 -0.02890323919636203 0.3287512659536984 -0.02007660187514461 0 0 -0.002679848118423462 -0.02117752270104604 
-0.03116121602378477 -0.02241579260661142 -0.08176291989915727 -0.1221375505679434 -0.02890323919636203 0.3287512659536984 -0.02007660187514461 0 0 -0.002679848118423462 -0.02117752270104604 
-0.03116121602378477 -0.02241579260661142 -0.08176291989915727 -0.1221375505679434 -0.02890323919636203 0.3287512659536984 -0.02007660187514461 0 0 -0.002679848118423462 -0.02117752270104604 
-0.03116121602378477 -0.02241579260661142 -0.08176291989915727 -0.1221375505679434 -0.02890323919636203 0.3287512659536984 -0.02007660187514461 0 0 -0.002679848118423462 -0.02117752270104604 
-0.03116121602378477 -0.02241579260661142 -0.08176291989915727 -0.1221375505679434 -0.02890323919636203 0.3287512659536984 -0.02007660187514461 0 0 -0.002679848118423462 -0.02117752270104604 
-0.03116121602378477 -0.02241579260661142 -0.08176291989915727 -0.1221375505679434 -0.02890323919636203 0.3287512659536984 -0.02007660187514461 0 0 -0.002679848118423462 -0.02117752270104604 
-0.06703798600723701 -0.04496231319017848 -0.08142021576851816 0 -0.103355764041688 -0.01789783991901597 0.4488312662026703 -0.01889241796740147 0 -0.002743368985575878 -0.1024484904061125 
-0.2383191418849756 0.03497856572370842 -0.22706675373905 -0.07368202425812737 0.1031999485164274 -0.1353586655903379 0.181663810007298 -0.08310940952796658 0 -0.02293208853751886 0.4796318539910758 
-0.06703798600723701 -0.04496231319017848 -0.08142021576851816 0 -0.103355764041688 -0.01789783991901597 0.4488312662026703 -0.01889241796740147 0 -0.002743368985575878 -0.1024484904061125 
-0.2273174152768857 -0.238243962180485 -0.2694627557119479 -0.04513613589061356 0.1521239958503359 -0.05090589222086858 0.26764611919885 -0.04717890921758387 0 -0.02293208853751886 0.5255541761521467 
-0.06703798600723701 -0.04496231319017848 -0.08142021576851816 0 -0.103355764041688 -0.01789783991901597 0.4488312662026703 -0.01889241796740147 0 -0.002743368985575878 -0.1024484904061125 
-0.2273174152768857 -0.238243962180485 -0.2694627557119479 -0.04513613589061356 0.1521239958503359 -0.05090589222086858 0.26764611919885 -0.04717890921758387 0 -0.02293208853751886 0.5255541761521467 
-0.1203849226056354 -0.2183390308518663 -0.2058851943648477 -0.1633452662249698 0.1545644751612257 0.3541869201692372 0.4025007028242829 -0.01889241796740147 0 -0.00274336898557588 -0.1395243903605541 
-0.06703798600723701 -0.04496231319017848 -0.08142021576851816 0 -0.103355764041688 -0.01789783991901597 0.4488312662026703 -0.01889241796740147 0 -0.002743368985575878 -0.1024484904061125 
-0.06703798600723701 -0.04496231319017848 -0.08142021576851816 0 -0.103355764041688 -0.01789783991901597 0.4488312662026703 -0.01889241796740147 0 -0.002743368985575878 -0.1024484904061125 
-0.0807925419223349 -0.002368622419350391 -0.1634483946777341 0 -0.1216027870591184 0.3723377016518671 -0.03291174054599723 0 0 0 0 
0.2089788897525653 0.1735495215767609 -0.2301412682714484 -0.6871998245017533 0.9848021667676425 0.2340331230467162 -0.1217463523125497 -0.2273423851629516 -0.0753259953052154 -0.1152894594071637 -0.334891244315336 
-0.08895994228374438 -0.00236862241935038 0.1622292545238572 -0.1209017253769843 -0.2133903620603376 0.316300227787044 -0.03291174054599723 -0.04026140910842961 -0.007150940640210119 -0.02258019468356758 1.084202172485504e-19 
-0.0807925419223349 -0.002368622419350391 -0.1634483946777341 0 -0.1216027870591184 0.3723377016518671 -0.03291174054599723 0 0 0 0 
-0.0807925419223349 -0.002368622419350391 -0.1634483946777341 0 -0.1216027870591184 0.3723377016518671 -0.03291174054599723 0 0 0 0 
-0.0807925419223349 -0.002368622419350391 -0.1634483946777341 0 -0.1216027870591184 0.3723377016518671 -0.03291174054599723 0 0 0 0 
-0.0807925419223349 -0.002368622419350391 -0.1634483946777341 0 -0.1216027870591184 0.3723377016518671 -0.03291174054599723 0 0 0 0 
-0.08549935264768269 -0.2189754324034391 0.1158933721980357 0.0762939616327067 -0.1283194913374532 0.2731900939382875 -0.06189441027705876 0 -0.005840389369447153 -0.02552749088990915 -0.01939602036712969 
-0.08079254192233488 -0.01628828289760878 0.1591891135030692 -0.07903610093431229 -0.1691280675876776 0.2651638051219491 -0.03980317724399087 -0.02226130190514923 0 -0.007559098601889123 -0.02342429411592037 
-0.0807925419223349 -0.002368622419350391 -0.1634483946777341 0 -0.1216027870591184 0.3723377016518671 -0.03291174054599723 0 0 0 0 
-0.03449493063128223 0 -0.006772716098362288 -0.02932758524881473 -0.09131513625051006 -0.08835472598087825 -0.04425768673210698 0.3975626254007315 -0.02913648516142807 -0.02365686444288507 -0.01879626386985543 
-0.2613909370908376 -0.2254818786813808 -0.8296554560904198 -0.003364287845618437 0.3970109871180734 0.1106761037596641 0.2469870880082325 0.5256337327834573 -0.05734939096029427 0.2408303070094908 -0.1878194577943241 
-0.1255455267825535 -0.05940943446600246 -0.2062798379783002 -0.06725909190189498 -0.2493514495415182 0.09471095913547095 -0.1618969904728911 0.2710022495076644 0.3153520931416353 -0.06011237824443539 0.2619879124685989 
-0.03449493063128223 0 -0.006772716098362288 -0.02932758524881473 -0.09131513625051006 -0.08835472598087825 -0.04425768673210698 0.3975626254007315 -0.02913648516142807 -0.02365686444288507 -0.01879626386985543 
-0.03449493063128223 0 -0.006772716098362288 -0.02932758524881473 -0.09131513625051006 -0.08835472598087825 -0.04425768673210698 0.3975626254007315 -0.02913648516142807 -0.02365686444288507 -0.01879626386985543 
-0.03449493063128223 0 -0.006772716098362288 -0.02932758524881473 -0.09131513625051006 -0.08835472598087825 -0.04425768673210698 0.3975626254007315 -0.02913648516142807 -0.02365686444288507 -0.01879626386985543 
-0.03449493063128223 0 -0.006772716098362288 -0.02932758524881473 -0.09131513625051006 -0.08835472598087825 -0.04425768673210698 0.3975626254007315 -0.02913648516142807 -0.02365686444288507 -0.01879626386985543 
-0.03449493063128223 0 -0.006772716098362288 -0.02932758524881473 -0.09131513625051006 -0.08835472598087825 -0.04425768673210698 0.3975626254007315 -0.02913648516142807 -0.02365686444288507 -0.01879626386985543 
-0.03449493063128223 0 -0.006772716098362288 -0.02932758524881473 -0.09131513625051006 -0.08835472598087825 -0.04425768673210698 0.3975626254007315 -0.02913648516142807 -0.02365686444288507 -0.01879626386985543 
-0.02741924771394449 0 -0.06122351809872113 -0.04221100751284101 0.3192739258311141 -0.1188991986476567 -0.04189441883284303 -0.05997831897157166 -0.006979614525285819 -0.005022784162010253 -0.01298877069711084 
-0.06728621415909705 0 -0.1408978966003385 -0.1165897352801781 0.5930603172492572 -0.2271051286044178 -0.04189441883284303 -0.08940705508894994 -0.009458609628391491 -0.005022784162010253 -0.05327678719043732 
-0.02741924771394449 0 -0.06122351809872113 -0.04221100751284101 0.3192739258311141 -0.1188991986476567 -0.04189441883284303 -0.05997831897157166 -0.006979614525285819 -0.005022784162010253 -0.01298877069711084 
-0.02741924771394449 0 -0.06122351809872113 -0.04221100751284101 0.3192739258311141 -0.1188991986476567 -0.04189441883284303 -0.05997831897157166 -0.006979614525285819 -0.005022784162010253 -0.01298877069711084 
-0.02741924771394449 0 -0.06122351809872113 -0.04221100751284101 0.3192739258311141 -0.1188991986476567 -0.04189441883284303 -0.05997831897157166 -0.006979614525285819 -0.005022784162010253 -0.01298877069711084 
-0.02741924771394449 0 -0.06122351809872113 -0.04221100751284101 0.3192739258311141 -0.1188991986476567 -0.04189441883284303 -0.05997831897157166 -0.006979614525285819 -0.005022784162010253 -0.01298877069711084 
-0.02741924771394449 0 -0.06122351809872113 -0.04221100751284101 0.3192739258311141 -0.1188991986476567 -0.04189441883284303 -0.05997831897157166 -0.006979614525285819 -0.005022784162010253 -0.01298877069711084 
-0.02741924771394449 0 -0.06122351809872113 -0.04221100751284101 0.3192739258311141 -0.1188991986476567 -0.04189441883284303 -0.05997831897157166 -0.006979614525285819 -0.005022784162010253 -0.01298877069711084 
-0.02741924771394449 0 -0.06122351809872113 -0.04221100751284101 0.3192739258311141 -0.1188991986476567 -0.04189441883284303 -0.05997831897157166 -0.006979614525285819 -0.005022784162010253 -0.01298877069711084 
-0.05472310170140705 0 -0.1084851533534124 -0.03454965529090746 -0.06633779450532712 0.3155368365506219 -0.0336710675185243 -0.03298061299559166 -0.01051655007805441 0 -0.0183758258585934 
-0.05472310170140705 0 -0.1084851533534124 -0.03454965529090746 -0.06633779450532712 0.3155368365506219 -0.0336710675185243 -0.03298061299559166 -0.01051655007805441 0 -0.0183758258585934 
-0.05472310170140705 0 -0.1084851533534124 -0.03454965529090746 -0.06633779450532712 0.3155368365506219 -0.0336710675185243 -0.03298061299559166 -0.01051655007805441 0 -0.0183758258585934 
-0.05472310170140705 0 -0.1084851533534124 -0.03454965529090746 -0.06633779450532712 0.3155368365506219 -0.0336710675185243 -0.03298061299559166 -0.01051655007805441 0 -0.0183758258585934 
-0.05472310170140705 0 -0.1084851533534124 -0.03454965529090746 -0.06633779450532712 0.3155368365506219 -0.0336710675185243 -0.03298061299559166 -0.01051655007805441 0 -0.0183758258585934 
-0.05472310170140705 0 -0.1084851533534124 -0.03454965529090746 -0.06633779450532712 0.3155368365506219 -0.0336710675185243 -0.03298061299559166 -0.01051655007805441 0 -0.0183758258585934 
-0.05472310170140705 0 -0.1084851533534124 -0.03454965529090746 -0.06633779450532712 0.3155368365506219 -0.0336710675185243 -0.03298061299559166 -0.01051655007805441 0 -0.0183758258585934 
-0.05472310170140705 0 -0.1084851533534124 -0.03454965529090746 -0.06633779450532712 0.3155368365506219 -0.0336710675185243 -0.03298061299559166 -0.01051655007805441 0 -0.0183758258585934 
-0.05472310170140705 0 -0.1084851533534124 -0.03454965529090746 -0.06633779450532712 0.3155368365506219 -0.0336710675185243 -0.03298061299559166 -0.01051655007805441 0 -0.0183758258585934 
0 0 -0.1228343077468238 0.2344991000695477 -0.03757998884352109 -0.06059063362398385 0 -0.01416742500447121 -0.01078027694666185 0 -0.01743576565912067 
-0.322006830521767 0.1779158305370629 0.4201300046234038 -0.3434474718261125 -0.03702151166328517 0.4719185275756194 -0.1513892789190134 -0.07041513259151305 -0.05888491767964141 -0.04441288926320013 -0.2982336205187932 
-0.2479623544645095 0.2767890321772107 -0.5285003438941299 1.173396021715459 -0.2723352641770805 -0.3046873965106128 -0.4054857698505728 -0.1442946409043517 -0.02510004831187616 -0.07762557822131282 0.2200580439963908 
-0.108215384446432 -0.3895657458946709 0.3722687405108692 0.7143733223080915 -0.2422522669001309 -0.2652835625373262 -0.0174237500863281 -0.0331336547694932 -0.02154469350966969 -0.03265046861969215 -0.1255667218207514 
-0.006200342093882295 0.1919801591026677 0.01899154351443565 0.02745172158771104 -0.06150213542484776 -0.1308083129532448 -0.008916683781034095 -0.0141674250044712 -0.01078027694666185 0 -0.03778716017935486 
1.734723475976807e-18 -0.1410887375539729 -0.2446900245765987 0.5358902983229357 -0.05771477939719397 -0.08580128776209765 0 -0.01416742500447121 -0.01249498568455871 -0.01120796029977704 -0.01743576565912067 
0 0 -0.1228343077468238 0.2344991000695477 -0.03757998884352109 -0.06059063362398385 0 -0.01416742500447121 -0.01078027694666185 0 -0.01743576565912067 
0 0 -0.1228343077468238 0.2344991000695477 -0.03757998884352109 -0.06059063362398385 0 -0.01416742500447121 -0.01078027694666185 0 -0.01743576565912067 
0 0 -0.1228343077468238 0.2344991000695477 -0.03757998884352109 -0.06059063362398385 0 -0.01416742500447121 -0.01078027694666185 0 -0.01743576565912067 
-0.06428084917236518 -0.0642140469702609 -0.5966405264804595 0.7011209217777794 -0.1811963473482511 -0.1397878822378473 -0.007286062387685979 -0.04394680634851568 -0.01294482780192311 -2.168404344971009e-18 0.3569081127870948 
0 0 -0.1228343077468238 0.2344991000695477 -0.03757998884352109 -0.06059063362398385 0 -0.01416742500447121 -0.01078027694666185 0 -0.01743576565912067 
0.6931575232326698 -0.04122130966440623 -0.1364338119278862 -0.2228765158632898 -0.1965340035936365 -0.05728839506132793 -0.004065773254935224 0 0 0 -0.005016933582035054 
0.351054058924273 -0.3826952807796254 0.2464470619866943 0.1244993252549774 -0.3101056913104324 0.158932997976603 -0.09023385721896472 -0.00815159360812256 2.710505431213761e-20 -0.04401661476583486 -0.09948673401412425 
0.5151904191341282 -0.1903791584623779 -0.08916374791665271 0.3496626160387675 -0.2461433599986578 -0.2687938611832389 -0.04519047702827821 -5.372419987145128e-05 0 -0.01033496805301718 -0.04489415243886752 
0.6931575232326698 -0.04122130966440623 -0.1364338119278862 -0.2228765158632898 -0.1965340035936365 -0.05728839506132793 -0.004065773254935224 0 0 0 -0.005016933582035054 
0.2178774340617911 0.07103096650097374 -0.1810700670434525 -0.2467619771045653 0.1019275335572478 -0.1272938970651268 -0.06863767957065145 0 0 -0.02394410070291898 0.2946308592413478 
0.3428936132647188 -0.04122130966440624 -0.06208651471940796 -0.08239649067887345 -0.1069192101312282 -0.02581917119756075 0 0 0 0 -0.005016933582035054 
0.3428936132647188 -0.04122130966440624 -0.06208651471940796 -0.08239649067887345 -0.1069192101312282 -0.02581917119756075 0 0 0 0 -0.005016933582035054 
0.3259674049803712 0.7041291115059531 -0.1613457413096294 -0.2537328356152203 -0.1975022496314157 -0.1716064226738902 -0.03599868819086596 -0.009665077116258396 0 -0.006267759234271971 -0.1027289543849205 
-0.06442232560330298 0 -0.03634126536829027 -0.07810651315681247 0.2932347776861144 -0.05195560593197874 -0.01423166122159358 -0.009953283340539852 0 -0.007279057252643878 -0.003784620022782647 
-0.06442232560330298 0 -0.03634126536829027 -0.07810651315681247 0.2932347776861144 -0.05195560593197874 -0.01423166122159358 -0.009953283340539852 0 -0.007279057252643878 -0.003784620022782647 
-0.06442232560330298 0 -0.03634126536829027 -0.07810651315681247 0.2932347776861144 -0.05195560593197874 -0.01423166122159358 -0.009953283340539852 0 -0.007279057252643878 -0.003784620022782647 
-0.06442232560330298 0 -0.03634126536829027 -0.07810651315681247 0.2932347776861144 -0.05195560593197874 -0.01423166122159358 -0.009953283340539852 0 -0.007279057252643878 -0.003784620022782647 
-0.06442232560330298 0 -0.03634126536829027 -0.07810651315681247 0.2932347776861144 -0.05195560593197874 -0.01423166122159358 -0.009953283340539852 0 -0.007279057252643878 -0.003784620022782647 
-0.06442232560330298 0 -0.03634126536829027 -0.07810651315681247 0.2932347776861144 -0.05195560593197874 -0.01423166122159358 -0.009953283340539852 0 -0.007279057252643878 -0.003784620022782647 
0.1590106301137263 -0.08933820156706704 -0.4095899171582998 0.1175801562976259 0.5627826044544821 -0.160233359499402 -0.1147089043435776 -0.05562039201751067 0 -0.01235564733440941 -0.06143610633872524 
-0.06442232560330298 0 -0.03634126536829027 -0.07810651315681247 0.2932347776861144 -0.05195560593197874 -0.01423166122159358 -0.009953283340539852 0 -0.007279057252643878 -0.003784620022782647 
0.3913659254792065 -0.2077961236370978 0.2384124194406231 -0.4666976183095501 0.06760700892054 0.1799935683146472 -0.0598095635610423 -0.01005322937536006 -0.02338754094209444 -0.03443024679300974 -0.07964520366030317 
0.09479802781660701 -0.1910003583562671 -0.1648040256702961 -0.3851786695360599 0.73569016460504 0.04232190165768775 -0.1638604466036687 -0.06435031997002165 -0.02231510401153755 -0.02801448602088782 0.1773023871319192 
-0.01647297325449671 0 -0.1914202048017168 -0.07220311691179351 0.3597558514699726 -0.04877300219148049 0 -0.007985662181397101 -0.0007359423123941254 -0.006221360535790733 -0.03030353428598511 
-0.01647297325449671 -0.01391966047825839 0.1312173033790864 -0.1512392178461058 0.3122305709414134 -0.1559468987213985 -0.006891436697993658 -0.03024696408654632 -0.0007359423123941263 -0.01378045913767986 -0.05372782840190549 
-0.01647297325449671 0 -0.1914202048017168 -0.07220311691179351 0.3597558514699726 -0.04877300219148049 0 -0.007985662181397101 -0.0007359423123941254 -0.006221360535790733 -0.03030353428598511 
-0.01676418961031392 -0.2398910446814448 0.2594630463760204 0.007135935685157101 0.07235262124460928 -0.08555876613485053 -0.04268427268730775 -0.007985662181397101 -0.0007359423123941271 -0.006221360535790734 -0.0477910048400992 
-0.01647297325449671 0 -0.1914202048017168 -0.07220311691179351 0.3597558514699726 -0.04877300219148049 0 -0.007985662181397101 -0.0007359423123941254 -0.006221360535790733 -0.03030353428598511 
-0.01647297325449671 0 -0.1914202048017168 -0.07220311691179351 0.3597558514699726 -0.04877300219148049 0 -0.007985662181397101 -0.0007359423123941254 -0.006221360535790733 -0.03030353428598511 
-0.1109041417905812 -0.2010948486087982 -0.4253223705251833 0.1979305437823762 0.1443701349596425 -0.09418380415977698 -0.1269591268490874 -0.01715937839976076 -0.0007359423123941254 0.3548848937471157 0.3139257415017569 
0 0.3301702025932201 -0.1477645407965993 -0.04291580271181498 -0.1755352975019897 0 0 0 0 0 -0.01735011275551619 
-0.1696479673870596 0.1346448842069898 0.3045765504001097 0.0429859655458761 -0.5632563383508477 -0.3236880644866761 0.01655565629069347 -0.02916162272903736 -0.02149225108642243 -0.0419064259603114 0.5035335102485403 
-0.05849270470295775 0.03202428527684843 -0.3374146173164927 0.2967862832148952 -0.2522134555632295 -0.06716588879901683 -0.1183963887563179 -0.01693497233924476 0 -0.007684447097261425 0.4402659776620756 
-0.1750173458212761 -0.5234214194130594 -0.3449438360962056 -0.4167619956245938 1.768735912042836 -0.1636296310941774 -0.07812449334425035 -0.03592573477399932 2.168404344971009e-19 -0.03293773673333312 -0.02306661278217962 
0 0.3301702025932201 -0.1477645407965993 -0.04291580271181498 -0.1755352975019897 0 0 0 0 0 -0.01735011275551619 
-0.03451710768789406 0.007464891150563424 -0.2437486148948424 -0.08313232745545948 0.31033412345527 -0.02163792663961409 -0.01068304164089503 0 0 8.673617379884035e-19 -0.01735011275551619 
0 0.3301702025932201 -0.1477645407965993 -0.04291580271181498 -0.1755352975019897 0 0 0 0 0 -0.01735011275551619 
0 0.3301702025932201 -0.1477645407965993 -0.04291580271181498 -0.1755352975019897 0 0 0 0 0 -0.01735011275551619 
-0.2538243077092188 1.136604956678282 0.7991352754570328 -0.9331592816483206 -0.293864504466723 -0.1878002536184654 -0.2212319329967171 -0.06673701084686828 -0.04266540900752598 -0.0958774707441378 -0.1574120770082961 
0 0.3301702025932201 -0.1477645407965993 -0.04291580271181498 -0.1755352975019897 0 0 0 0 0 -0.01735011275551619 
0 0.3301702025932201 -0.1477645407965993 -0.04291580271181498 -0.1755352975019897 0 0 0 0 0 -0.01735011275551619 
-0.1822331929223311 0.1954240953960974 -0.3782911897770454 0.5346707632302187 -0.3130529634962304 -0.1619527346186641 0.3576522614757241 -0.01188895641792163 -0.01006973939250038 -0.008956480751383205 -0.04776236624731631 
0 0 -0.0928732041244216 0.2255227184883398 -0.0824021813333594 -0.04388365121399959 0 0 -0.008947848073981633 -0.02512693452188209 -0.001644876723961951 
-0.1463877643572459 -0.4626125012986902 -0.01322418360074334 0.1928503648267854 -0.06694885830223272 0.7181739442933567 -0.1144024603272014 -0.08038982619656559 -0.02441406030778372 -0.06021124594593522 -0.05208375215193842 
-0.01927283237581768 -0.08251701575930033 0.2220592386184805 0.1485850239010024 -0.1374716814112169 -0.1148726917872417 -0.01210564523299087 -0.00745732371925167 -0.008947848073981633 -0.02512693452188209 -0.001644876723961949 
-0.07845382095252935 -0.4821586358353781 -0.2802424085376785 0.3768373979625337 0.5531438359001407 -0.06631038020127256 -0.1507582806864508 -0.02371382195487469 -0.01290161116706728 0.2957670850598393 -0.03802569119640278 
-0.01927283237581768 -0.08251701575930033 0.2220592386184805 0.1485850239010024 -0.1374716814112169 -0.1148726917872417 -0.01210564523299087 -0.00745732371925167 -0.008947848073981633 -0.02512693452188209 -0.001644876723961949 
-0.0260268605803335 -0.09412004819506307 -0.248464242148049 0.1628321957373371 0.3035043789524965 -0.04388365121399959 -0.004483084067154759 0 -0.009314795375041634 -0.05253731040649001 -0.001644876723961956 
0 0 -0.0928732041244216 0.2255227184883398 -0.0824021813333594 -0.04388365121399959 0 0 -0.008947848073981633 -0.02512693452188209 -0.001644876723961951 
0 0 -0.0928732041244216 0.2255227184883398 -0.0824021813333594 -0.04388365121399959 0 0 -0.008947848073981633 -0.02512693452188209 -0.001644876723961951 
-0.03603889843965499 -0.2299321041500254 -0.7588325256111894 1.281851138044497 0.002001762971540271 -0.1634860779931326 -0.05272279322362963 1.734723475976807e-18 -0.008947848073981633 -0.04109180529956448 -0.06331091090165858 
0 0 -0.0928732041244216 0.2255227184883398 -0.0824021813333594 -0.04388365121399959 0 0 -0.008947848073981633 -0.02512693452188209 -0.001644876723961951 
0 0 -0.0928732041244216 0.2255227184883398 -0.0824021813333594 -0.04388365121399959 0 0 -0.008947848073981633 -0.02512693452188209 -0.001644876723961951 
-0.01056137672389831 -0.1029357375074638 -0.1417605471929856 0.5554401011350394 -0.0824021813333594 -0.0438836512139996 -0.04620201663637907 -0.01693497233924476 -0.008947848073981633 -0.02512693452188209 -0.0986920432716368 
0 -0.02524130091718295 0.2080491378259498 -0.08094353740657564 -0.006716704278334703 -0.02194409003910087 -0.02898266973106155 0 -0.005840389369447153 -0.009562620112226769 -0.01783254243151989 
-0.03808127898311806 0.1315471503514667 0.3273030370923166 -0.1150820306187457 0.01688561616168122 -0.1629649574430001 -0.07047704009663927 -0.02217024666852643 -0.02184642877270462 -0.0431586616274569 -0.05531314569300386 
-0.01304079279498781 0.3167923849572654 -0.2071594008088078 0.04335328360311295 0.1080255075581551 -0.05582950434058397 -0.0506618748036752 -1.734723475976807e-18 -0.007179445279945221 -0.0431586616274569 -0.05374966775739404 
0 -0.02524130091718295 0.2080491378259498 -0.08094353740657564 -0.006716704278334703 -0.02194409003910087 -0.02898266973106155 0 -0.005840389369447153 -0.009562620112226769 -0.01783254243151989 
0 -0.02524130091718295 0.2080491378259498 -0.08094353740657564 -0.006716704278334703 -0.02194409003910087 -0.02898266973106155 0 -0.005840389369447153 -0.009562620112226769 -0.01783254243151989 
0 -0.02524130091718295 0.2080491378259498 -0.08094353740657564 -0.006716704278334703 -0.02194409003910087 -0.02898266973106155 0 -0.005840389369447153 -0.009562620112226769 -0.01783254243151989 
0 -0.02524130091718295 0.2080491378259498 -0.08094353740657564 -0.006716704278334703 -0.02194409003910087 -0.02898266973106155 0 -0.005840389369447153 -0.009562620112226769 -0.01783254243151989 
0 -0.02524130091718295 0.2080491378259498 -0.08094353740657564 -0.006716704278334703 -0.02194409003910087 -0.02898266973106155 0 -0.005840389369447153 -0.009562620112226769 -0.01783254243151989 
-0.07809516385516709 -0.4532716839182458 1.300205555364845 -0.5337618157425497 -0.272381382307894 -0.103365823252094 0.2226474336886637 -0.02922300608386635 -0.0117206216095322 -0.02636308108513305 -0.108013413126543 
0 -0.02524130091718295 0.2080491378259498 -0.08094353740657564 -0.006716704278334703 -0.02194409003910087 -0.02898266973106155 0 -0.005840389369447153 -0.009562620112226769 -0.01783254243151989 
-0.02077730677799399 -0.02277851590833673 -0.03118869360351496 -0.08080100994040262 -0.07581996319671575 -0.0008507258599489096 -0.03003356755612978 -0.024649785919922 0.3944758031898804 -0.007445800424418632 -0.0517898068039486 
-0.04745582056786697 -0.141357177992712 0.09088394643399204 -0.3157044279135401 0.1387247501907767 -0.06846519997728501 -0.1104118087497231 0.3364334801983083 0.3327182760041081 -0.03453355999718464 -0.1145217432124384 
-0.04745582056786697 -0.09548728564752353 -0.1407267333648342 -0.1969437264352714 0.1538847342278201 -0.06846519997728504 -0.1104118087497231 0.3364334801983083 0.3544575607792536 -0.02089623683935004 -0.1007994737759935 
-0.07213992820588233 0.2100329026314477 0.01797807179865669 -0.1534064122003042 -0.2351854673975712 -0.1073514863654749 -0.06720385878571103 -0.07422712565797815 0.7154124805340334 -0.05506638141186777 -0.1077954238917273 
-0.02077730677799399 -0.02277851590833673 -0.03118869360351496 -0.08080100994040262 -0.07581996319671575 -0.0008507258599489096 -0.03003356755612978 -0.024649785919922 0.3944758031898804 -0.007445800424418632 -0.0517898068039486 
-0.02077730677799399 -0.02277851590833673 -0.03118869360351496 -0.08080100994040262 -0.07581996319671575 -0.0008507258599489096 -0.03003356755612978 -0.024649785919922 0.3944758031898804 -0.007445800424418632 -0.0517898068039486 
-0.02077730677799399 -0.02277851590833673 -0.03118869360351496 -0.08080100994040262 -0.07581996319671575 -0.0008507258599489096 -0.03003356755612978 -0.024649785919922 0.3944758031898804 -0.007445800424418632 -0.0517898068039486 
-0.02077730677799399 -0.02277851590833673 -0.03118869360351496 -0.08080100994040262 -0.07581996319671575 -0.0008507258599489096 -0.03003356755612978 -0.024649785919922 0.3944758031898804 -0.007445800424418632 -0.0517898068039486 
-0.02589632539669682 -0.04690420643306097 -0.09468973861365274 -0.1307073400066214 -0.08463513452205863 -0.07547424748347949 -0.1207157897286789 -0.024649785919922 0.3793724040557656 -0.007445800424418632 0.3213664013928115 
0.2418110332156237 -0.1590143646700619 -0.6713635992487275 -0.2338005471036543 0.3965431310958394 -0.3054378593017842 0.4183232083555536 -0.1493150785177185 0.3336233829452115 -0.03668076126544217 0.1863006026237828 
-0.02077730677799399 -0.02277851590833673 -0.03118869360351496 -0.08080100994040262 -0.07581996319671575 -0.0008507258599489096 -0.03003356755612978 -0.024649785919922 0.3944758031898804 -0.007445800424418632 -0.0517898068039486 
-0.08501683460431851 -0.1316801739911216 0.3519349327938753 0 -0.1558948148123377 -0.02654742710678357 0 0 0 0 0 
-0.2821975275302109 -0.4555801755385545 0.1811485327517021 -0.06414059137564251 0.9514716017679169 -0.4300328750235117 -0.1145401119142715 -2.168404344971009e-18 0 -0.08416203446720702 0.180437205411901 
-0.08501683460431851 -0.1316801739911216 0.3519349327938753 0 -0.1558948148123377 -0.02654742710678357 0 0 0 0 0 
-0.08501683460431851 -0.1316801739911216 0.3519349327938753 0 -0.1558948148123377 -0.02654742710678357 0 0 0 0 0 
-0.08501683460431851 -0.1316801739911216 0.3519349327938753 0 -0.1558948148123377 -0.02654742710678357 0 0 0 0 0 
-0.08501683460431851 -0.1316801739911216 0.3519349327938753 0 -0.1558948148123377 -0.02654742710678357 0 0 0 0 0 
-0.08501683460431851 -0.1316801739911216 0.3519349327938753 0 -0.1558948148123377 -0.02654742710678357 0 0 0 0 0 
-0.05562166342547321 0.3004415337212319 -0.2198861979327815 -0.03129796253400065 -0.01084716908355245 0 0 0 -0.009663198932204981 -0.003797536758534711 0 
0.04061872281713673 0.6910454838917557 -0.333870923363485 -0.2959029582078996 0.06392564159427901 0.1038054980074989 -0.2248774070565785 -0.08716023211819149 -0.02544017649254836 -0.0529080765818853 -0.1606614858719719 
-0.1005876514728173 0.1362832529730815 0.02832125747177032 0.166293939477073 -0.1367716743088775 -0.01031472169239607 -0.0001743517906226332 -0.02034524365294754 -0.02544017649254836 -0.03446094096024147 4.336808689942018e-19 
-0.0799886058560612 0.132619067241962 0.4302240564800398 -0.1908340037914627 -0.09970111183505811 -0.03675012806016366 -0.07308503771459689 0 -0.02612862713560597 -0.03330179621000177 -0.01870098197778577 
-0.05562166342547321 0.3004415337212319 -0.2198861979327815 -0.03129796253400065 -0.01084716908355245 0 0 0 -0.009663198932204981 -0.003797536758534711 0 
-0.05562166342547321 0.3004415337212319 -0.2198861979327815 -0.03129796253400065 -0.01084716908355245 0 0 0 -0.009663198932204981 -0.003797536758534711 0 
-0.05562166342547321 0.3004415337212319 -0.2198861979327815 -0.03129796253400065 -0.01084716908355245 0 0 0 -0.009663198932204981 -0.003797536758534711 0 
-0.05562166342547321 0.3004415337212319 -0.2198861979327815 -0.03129796253400065 -0.01084716908355245 0 0 0 -0.009663198932204981 -0.003797536758534711 0 
-0.06833744008800721 0.07124302066717918 0.8571321629787529 -0.479853052648357 -0.2252507708032739 -0.02923413794694319 -0.1081891653872693 4.336808689942018e-19 -0.009663198932204981 -0.03720742670077739 -0.09529254686975192 
-0.07544051336404957 0.3832686944028596 -0.31510292553458 0.4331995776636188 -0.104874524661183 -0.09956148585094371 -0.1310680267570498 -0.00219371746084009 -0.009663198932204981 -0.02462940518447228 -0.07618562749657176 
-0.05562166342547321 0.3004415337212319 -0.2198861979327815 -0.03129796253400065 -0.01084716908355245 0 0 0 -0.009663198932204981 -0.003797536758534711 0 
0.4186016421098494 -0.003870956316975237 -0.135623241401959 -0.06257433018449718 -0.02959507075696032 -0.09246363370454014 0 -0.002382062665772875 0 0 -0.04376939317231189 
-0.03695560793321724 -0.3998631568498757 0.7501957653742788 -0.1077295696430058 -0.3944447853254333 0.1599251928100451 -0.4128252921754959 0.1694911909695581 -0.05376584687736917 -0.04863185958349386 0.2871334076576705 
0.3614446699171189 -0.05619796996603944 -0.3816833583735605 0.2192338249440894 -0.05237816987453801 0.1472299985594521 -0.02791392797348189 -0.02440113410715633 0 9.215718466126788e-19 -0.1002852136409423 
0.2284006472017136 -0.0208126527985191 0.1660101528824699 0.05963020524452536 -0.08912412636838626 -0.1585264119848753 -0.01195183658294703 -0.002382062665772877 0 -0.0172987249430784 -0.1088053993900144 
0.3707323970463887 -0.05619796996603945 -0.2482653034948673 -0.1126066306171536 -0.05237816987453801 0.2378287995199293 -0.01860607294138276 -0.006369906696451929 0 9.215718466126788e-19 -0.0437693931723119 
0.4186016421098494 -0.003870956316975237 -0.135623241401959 -0.06257433018449718 -0.02959507075696032 -0.09246363370454014 0 -0.002382062665772875 0 0 -0.04376939317231189 
0.4186016421098494 -0.003870956316975237 -0.135623241401959 -0.06257433018449718 -0.02959507075696032 -0.09246363370454014 0 -0.002382062665772875 0 0 -0.04376939317231189 
0.3338459957490741 -0.0607934471644628 0.04397849787082006 -0.2259425007797784 -0.1456895716323691 -0.1204990281808303 0.3803223805592219 -0.05402566474315836 0 -0.02354615506560801 -0.07615561367369009 
0.4186016421098494 -0.003870956316975237 -0.135623241401959 -0.06257433018449718 -0.02959507075696032 -0.09246363370454014 0 -0.002382062665772875 0 0 -0.04376939317231189 
0.3734486116681981 0.2516022948580838 -0.3859312942262383 0.1886358355828482 -0.1116499544906199 -0.1353789582893909 -0.05146804070566086 -0.002382062665772875 0 7.589415207398531e-19 -0.05740205874549895 
-0.01730800847057478 -0.07465119940136275 -0.2923092528364162 0.5583511359039379 -0.01847084276313738 -0.07925646562009546 0 -0.02397535331860743 0 0 -0.06953393888292909 
-0.04075692784584677 -0.1154786318596132 -0.09013718221422588 0.2902757028331368 -0.0184708427631374 -0.1855981194457894 -0.08576991156322235 -0.02397535331860743 0 -0.00771727202625672 0.257061241212967 
-0.01730800847057478 -0.07465119940136275 -0.2923092528364162 0.5583511359039379 -0.01847084276313738 -0.07925646562009546 0 -0.02397535331860743 0 0 -0.06953393888292909 
-0.01730800847057478 -0.07465119940136275 -0.2923092528364162 0.5583511359039379 -0.01847084276313738 -0.07925646562009546 0 -0.02397535331860743 0 0 -0.06953393888292909 
-0.01730800847057478 -0.07465119940136275 -0.2923092528364162 0.5583511359039379 -0.01847084276313738 -0.07925646562009546 0 -0.02397535331860743 0 0 -0.06953393888292909 
-0.01730800847057478 -0.07465119940136275 -0.2923092528364162 0.5583511359039379 -0.01847084276313738 -0.07925646562009546 0 -0.02397535331860743 0 0 -0.06953393888292909 
-0.07132705207715291 -0.1162653751160586 0.1502507634571054 0.0005525060921007102 -0.02453684270957142 0.1783846409359917 -0.02221794178833148 -0.02674104869349235 -1.084202172485504e-19 -0.007074858094106382 -0.06860380280670683 
-0.003776282018435977 -0.01606081745620636 -0.0972393156484455 0.2224679267073685 0 -0.052170120176942 0 0 0 0 -0.04137423492761673 
-0.003776282018435977 -0.01606081745620636 -0.0972393156484455 0.2224679267073685 0 -0.052170120176942 0 0 0 0 -0.04137423492761673 
-0.01845064866058152 0.3078380349992531 -0.4097955558100795 0.4625033984167048 -0.04173224839309017 -0.1737869449866067 -0.01801588149145157 -0.006707494226516343 0 -0.001700529470929157 -0.07704764492514643 
-8.505833116515107e-05 -0.1107261520079367 -0.08883104263640136 0.3047035377244286 -0.05386538568300278 -0.004990653952737203 0 0 -0.003586815792025646 -0.03066340420170675 0 
-8.505833116515107e-05 -0.1107261520079367 -0.08883104263640136 0.3047035377244286 -0.05386538568300278 -0.004990653952737203 0 0 -0.003586815792025646 -0.03066340420170675 0 
-8.505833116515107e-05 -0.1107261520079367 -0.08883104263640136 0.3047035377244286 -0.05386538568300278 -0.004990653952737203 0 0 -0.003586815792025646 -0.03066340420170675 0 
-8.505833116515107e-05 -0.1107261520079367 -0.08883104263640136 0.3047035377244286 -0.05386538568300278 -0.004990653952737203 0 0 -0.003586815792025646 -0.03066340420170675 0 
-8.505833116515107e-05 -0.1107261520079367 -0.08883104263640136 0.3047035377244286 -0.05386538568300278 -0.004990653952737203 0 0 -0.003586815792025646 -0.03066340420170675 0 
-0.0524396470185201 0.03988223379632923 -0.06859800918751104 0.5951375085819905 -0.1715891450194664 -0.120113857203929 -0.127392448325204 0 -0.01683578742970031 -0.05838899936025341 -0.03975061301700046 
-8.505833116515107e-05 -0.1107261520079367 -0.08883104263640136 0.3047035377244286 -0.05386538568300278 -0.004990653952737203 0 0 -0.003586815792025646 -0.03066340420170675 0 
-8.505833116515107e-05 -0.1107261520079367 -0.08883104263640136 0.3047035377244286 -0.05386538568300278 -0.004990653952737203 0 0 -0.003586815792025646 -0.03066340420170675 0 
-8.505833116515107e-05 -0.1107261520079367 -0.08883104263640136 0.3047035377244286 -0.05386538568300278 -0.004990653952737203 0 0 -0.003586815792025646 -0.03066340420170675 0 
-0.005078518626657126 0.3544648026014254 -0.1523622261399318 -0.1532773995550572 -0.01381300607679537 -0.02263265438833815 -0.02964402680642376 0 -0.005979509730524378 -0.0004749153501369044 0 
-0.005078518626657126 0.3544648026014254 -0.1523622261399318 -0.1532773995550572 -0.01381300607679537 -0.02263265438833815 -0.02964402680642376 0 -0.005979509730524378 -0.0004749153501369044 0 
-0.06068568996141938 0.720205397699645 -0.07746681653493154 0.08896865251769277 -0.2350213023453247 -0.1719647839316086 -0.2017705811624575 -0.01738359234263168 -0.03856282369699422 -0.08151339837509039 -0.04737933995502242 
-0.005078518626657126 0.3544648026014254 -0.1523622261399318 -0.1532773995550572 -0.01381300607679537 -0.02263265438833815 -0.02964402680642376 0 -0.005979509730524378 -0.0004749153501369044 0 
-0.008934441985859447 0.2501840644163721 -0.3118862810171239 0.2229672086599892 -0.04356148803023978 -0.09726472194853247 -0.0301452072678801 2.710505431213761e-20 -0.01240637351318584 -0.009584303453908273 0 
-0.005078518626657126 0.3544648026014254 -0.1523622261399318 -0.1532773995550572 -0.01381300607679537 -0.02263265438833815 -0.02964402680642376 0 -0.005979509730524378 -0.0004749153501369044 0 
-0.005078518626657126 0.3544648026014254 -0.1523622261399318 -0.1532773995550572 -0.01381300607679537 -0.02263265438833815 -0.02964402680642376 0 -0.005979509730524378 -0.0004749153501369044 0 
-0.06390484378293115 0.5737860902417034 -0.37775718095767 -0.2694472433155512 -0.05339976851375811 -0.08131460489472343 0.3049951481045608 6.505213034913027e-19 -0.005979509730524378 -0.006010025598129913 -0.05647220284872789 
-0.02119796672172938 -0.01145587578527313 -0.1126512326142573 -0.05517052773851065 -0.06263931722918675 -0.05296255006527061 0.3567551532124924 -0.005973113495302851 0 -0.02131088430923786 -0.01447588919642291 
-0.03101090713038823 -0.02737072308934051 -0.2320145100159239 -0.1054518036855503 0.3122246757322975 -0.08533813665756189 0.2761950415760811 -0.01755668388316547 2.168404344971009e-19 -0.04297392939116419 -0.01977448589375292 
-0.02119796672172938 -0.0200515121539582 -0.2065551008549302 -0.1393674675356685 -0.0757165348607397 -0.1069759549823986 0.6606920099030842 -0.01552156360158732 -4.336808689942018e-19 -0.04437489976523129 -0.036560180827713 
-0.02119796672172938 -0.01145587578527313 -0.1126512326142573 -0.05517052773851065 -0.06263931722918675 -0.05296255006527061 0.3567551532124924 -0.005973113495302851 0 -0.02131088430923786 -0.01447588919642291 
-0.02119796672172938 -0.01145587578527313 -0.1126512326142573 -0.05517052773851065 -0.06263931722918675 -0.05296255006527061 0.3567551532124924 -0.005973113495302851 0 -0.02131088430923786 -0.01447588919642291 
-0.02119796672172938 -0.01145587578527313 -0.1126512326142573 -0.05517052773851065 -0.06263931722918675 -0.05296255006527061 0.3567551532124924 -0.005973113495302851 0 -0.02131088430923786 -0.01447588919642291 
-0.02119796672172938 -0.01145587578527313 -0.1126512326142573 -0.05517052773851065 -0.06263931722918675 -0.05296255006527061 0.3567551532124924 -0.005973113495302851 0 -0.02131088430923786 -0.01447588919642291 
-0.02119796672172938 -0.01145587578527313 -0.1126512326142573 -0.05517052773851065 -0.06263931722918675 -0.05296255006527061 0.3567551532124924 -0.005973113495302851 0 -0.02131088430923786 -0.01447588919642291 
-0.1846640371277832 0.06164834359566574 0.3371368176727319 -0.2388101244261143 -0.2053148320317146 -0.1224353248270853 0.2087716909214786 -0.05546861563976997 0 -0.05400362173102824 0.269753929371182 
-0.03367187839493786 -0.06476580844836091 0.0853676967810289 0.2150104176663551 -0.1328822660621151 -0.1399235942507244 0.2136839343960003 -0.005973113495302852 -0.007855500719202964 -0.03770840518265703 -0.03798300624124216 
-0.04432521418798288 0.1513297439428183 0.3414365258180307 -0.3394626746189935 -0.1304250910959354 -0.06178887107033739 0.2082347498372131 -0.006075286555104445 0 -0.03556535878618542 -0.1190865223538419 
-0.06199087655473308 -0.03101646752722478 -0.1333680378349393 -0.06289350692666873 -0.02766728165425289 0.3225091149723686 -0.006188986098396528 0 0 -0.0007034336123845355 0 
-0.06968614434354604 0.09316181064676024 -0.06447949144085774 -0.5292174527285193 0.1504031245075264 0.4446590345686251 -0.07020726169835616 -0.0213372833388781 0 -0.00485711524753926 -0.02054227479151698 
-0.06199087655473308 -0.03101646752722478 -0.1333680378349393 -0.06289350692666873 -0.02766728165425289 0.3225091149723686 -0.006188986098396528 0 0 -0.0007034336123845355 0 
-0.06199087655473308 -0.03101646752722478 -0.1333680378349393 -0.06289350692666873 -0.02766728165425289 0.3225091149723686 -0.006188986098396528 0 0 -0.0007034336123845355 0 
-0.06199087655473308 -0.03101646752722478 -0.1333680378349393 -0.06289350692666873 -0.02766728165425289 0.3225091149723686 -0.006188986098396528 0 0 -0.0007034336123845355 0 
-0.06199087655473308 -0.03101646752722478 -0.1333680378349393 -0.06289350692666873 -0.02766728165425289 0.3225091149723686 -0.006188986098396528 0 0 -0.0007034336123845355 0 
-0.07860197830073683 -0.03110642818904383 -0.4323885058062874 0.2042844764144567 0.1875305003512311 0.259715014757784 -0.01658675093971002 -0.0009476832645541197 2.168404344971009e-19 -0.01117624808352694 -0.01582594867858533 
-0.06199087655473308 -0.03101646752722478 -0.1333680378349393 -0.06289350692666873 -0.02766728165425289 0.3225091149723686 -0.006188986098396528 0 0 -0.0007034336123845355 0 
-0.06199087655473307 -0.1202214497212227 0.1036711613172983 0.1989471920633289 -0.1678460260561055 0.1669819449214382 -0.03665633439012469 -0.02226130190514923 -0.002931500981121028 -0.008262532214273657 -0.03289101613014667 
-0.01113880769028691 -0.01813056525205691 -0.06175328794400439 -0.08528317034729084 -0.0733433924136884 -0.04541080196829649 -0.04581424029727556 -0.009173716218363659 0 0.3956186705303251 -0.0222947430846131 
-0.01113880769028691 -0.01813056525205691 -0.06175328794400439 -0.08528317034729084 -0.0733433924136884 -0.04541080196829649 -0.04581424029727556 -0.009173716218363659 0 0.3956186705303251 -0.0222947430846131 
-0.01113880769028691 -0.01813056525205691 -0.06175328794400439 -0.08528317034729084 -0.0733433924136884 -0.04541080196829649 -0.04581424029727556 -0.009173716218363659 0 0.3956186705303251 -0.0222947430846131 
-0.01113880769028691 -0.01813056525205691 -0.06175328794400439 -0.08528317034729084 -0.0733433924136884 -0.04541080196829649 -0.04581424029727556 -0.009173716218363659 0 0.3956186705303251 -0.0222947430846131 
-0.01113880769028691 -0.01813056525205691 -0.06175328794400439 -0.08528317034729084 -0.0733433924136884 -0.04541080196829649 -0.04581424029727556 -0.009173716218363659 0 0.3956186705303251 -0.0222947430846131 
-0.01113880769028691 -0.01813056525205691 -0.06175328794400439 -0.08528317034729084 -0.0733433924136884 -0.04541080196829649 -0.04581424029727556 -0.009173716218363659 0 0.3956186705303251 -0.0222947430846131 
-0.01113880769028691 -0.01813056525205691 -0.06175328794400439 -0.08528317034729084 -0.0733433924136884 -0.04541080196829649 -0.04581424029727556 -0.009173716218363659 0 0.3956186705303251 -0.0222947430846131 
-0.01113880769028691 -0.01813056525205691 -0.06175328794400439 -0.08528317034729084 -0.0733433924136884 -0.04541080196829649 -0.04581424029727556 -0.009173716218363659 0 0.3956186705303251 -0.0222947430846131 
-0.01113880769028691 -0.01813056525205691 -0.06175328794400439 -0.08528317034729084 -0.0733433924136884 -0.04541080196829649 -0.04581424029727556 -0.009173716218363659 0 0.3956186705303251 -0.0222947430846131 
-0.01113880769028691 -0.01813056525205691 -0.06175328794400439 -0.08528317034729084 -0.0733433924136884 -0.04541080196829649 -0.04581424029727556 -0.009173716218363659 0 0.3956186705303251 -0.0222947430846131 
0 0.3950430263499367 -0.1331042827378439 -0.2429376785054098 0 -0.03408161775013723 0 0 0 -0.004153681635154723 0 
-0.005573938032490469 -0.2884057173499138 -0.9293431911975782 1.421358019068532 -0.1885025195646511 -0.0814055671299731 -0.05316654611751782 0 8.673617379884035e-19 -0.02848048980938307 -0.05166822565683088 
0 0.3950430263499367 -0.1331042827378439 -0.2429376785054098 0 -0.03408161775013723 0 0 0 -0.004153681635154723 0 
-5.421010862427522e-19 0.2461111303928249 -0.1757634697175039 0.0602222048788672 -0.004557776068126739 -0.03408161775013723 -0.05191522711230789 0 0 -0.01362811779794904 -0.0282116178942206 
0 0.3950430263499367 -0.1331042827378439 -0.2429376785054098 0 -0.03408161775013723 0 0 0 -0.004153681635154723 0 
-5.421010862427522e-19 0.2461111303928249 -0.1757634697175039 0.0602222048788672 -0.004557776068126739 -0.03408161775013723 -0.05191522711230789 0 0 -0.01362811779794904 -0.0282116178942206 
0 0.3950430263499367 -0.1331042827378439 -0.2429376785054098 0 -0.03408161775013723 0 0 0 -0.004153681635154723 0 
0 0.3950430263499367 -0.1331042827378439 -0.2429376785054098 0 -0.03408161775013723 0 0 0 -0.004153681635154723 0 
-0.001800655486441565 0.3351709234316549 -0.1692436252740823 0.07544468256047021 -0.1218810986082841 -0.03408161775013723 -0.0779433441090512 -0.004421897462737322 0 -0.004262243218021686 0 
-0.06381325254171721 0.3769447044942196 0.1859335606406237 -0.2909232716853223 -0.03360782118325518 -0.1038474402487616 -0.05898028992533642 0 0 -0.0104494055873031 -0.02459338238695125 
-0.009287727129269788 0 -0.1334180548786935 0.331840455561243 0 -0.09059880096047722 -0.009307855032099143 -0.01803122741070439 0 0 -0.05651582046863038 
-0.03292280221207005 -0.1295458210840775 -0.1817165256005124 0.7300673401217803 -0.01419384019000147 -0.09059880096047722 -0.06687265627145138 -0.03541481975333607 0 -0.005657036743718678 -0.05651582046863037 
-0.009287727129269788 0 -0.1334180548786935 0.331840455561243 0 -0.09059880096047722 -0.009307855032099143 -0.01803122741070439 0 0 -0.05651582046863038 
-0.009287727129269788 0 -0.1334180548786935 0.331840455561243 0 -0.09059880096047722 -0.009307855032099143 -0.01803122741070439 0 0 -0.05651582046863038 
-0.009287727129269788 0 -0.1334180548786935 0.331840455561243 0 -0.09059880096047722 -0.009307855032099143 -0.01803122741070439 0 0 -0.05651582046863038 
-0.009287727129269788 0 -0.1334180548786935 0.331840455561243 0 -0.09059880096047722 -0.009307855032099143 -0.01803122741070439 0 0 -0.05651582046863038 
-0.009287727129269788 -0.04586989234518846 0.09819262492013266 0.2130797540829744 -0.01515998403704348 -0.09059880096047722 -0.009307855032099145 -0.01803122741070439 -0.02173928477514547 -0.0136373231578346 -0.07023808990507524 
-0.009287727129269788 0 -0.1334180548786935 0.331840455561243 0 -0.09059880096047722 -0.009307855032099143 -0.01803122741070439 0 0 -0.05651582046863038 
0 -0.05225051080721178 -0.1913944729273625 0.2598972308273808 -0.1031329205954929 0 0 0 0 0 -0.00208168509152002 
-0.03983016142808862 -0.3489641887558081 0.3267534934768495 0.7604512858360843 -0.2792683000599867 -0.1903923798445944 -0.1773878878850687 -0.09911084902017431 9.215718466126788e-19 -0.01744553655814956 -0.104229293358062 
-0.01467436664214554 -0.1872265817438538 0.2066542474500356 0.2257994360586387 -0.1513050398266751 -0.07792237820162293 -0.05101628215771607 0 0 -0.002702700882983688 -0.01361421980527226 
0 -0.05225051080721178 -0.1913944729273625 0.2598972308273808 -0.1031329205954929 0 0 0 0 0 -0.00208168509152002 
0 -0.05225051080721178 -0.1913944729273625 0.2598972308273808 -0.1031329205954929 0 0 0 0 0 -0.00208168509152002 
0 -0.05225051080721178 -0.1913944729273625 0.2598972308273808 -0.1031329205954929 0 0 0 0 0 -0.00208168509152002 
-0.03317047518171155 -0.147584392813645 -0.2894102364748883 0.3876474932570718 0.2436459743003656 -0.05489357908607026 -0.03621289508791307 -0.01812488319790229 -0.02157916169914343 -0.005984391371868359 -0.0633378031847828 
0 -0.09786795636528114 0.1772391635765545 -0.05307514667513724 -0.03321394698355165 -0.006602499525351723 0 -0.01816031048172529 0 0 -0.004267213345129257 
-0.09887531631521199 -0.1626355834775016 0.1199341238485535 -0.07812246883232973 0.2977847430302642 -0.05871215344575739 -0.008399399892980483 -0.01816031048172529 0 -1.084202172485504e-19 -0.004267213345129257 
0 -0.09786795636528114 0.1772391635765545 -0.05307514667513724 -0.03321394698355165 -0.006602499525351723 0 -0.01816031048172529 0 0 -0.004267213345129257 
0 -0.1685348382825844 0.446621206750444 -0.1678764868473821 -0.07812685510544956 -0.07189735369628172 0 -0.03164068073147767 0 -0.0003381752955475883 -0.004267213345129257 
0 -0.09786795636528114 0.1772391635765545 -0.05307514667513724 -0.03321394698355165 -0.006602499525351723 0 -0.01816031048172529 0 0 -0.004267213345129257 
0 -0.09786795636528114 0.1772391635765545 -0.05307514667513724 -0.03321394698355165 -0.006602499525351723 0 -0.01816031048172529 0 0 -0.004267213345129257 
0 -0.09786795636528114 0.1772391635765545 -0.05307514667513724 -0.03321394698355165 -0.006602499525351723 0 -0.01816031048172529 0 0 -0.004267213345129257 
0 -0.09786795636528114 0.1772391635765545 -0.05307514667513724 -0.03321394698355165 -0.006602499525351723 0 -0.01816031048172529 0 0 -0.004267213345129257 
0 -0.09786795636528114 0.1772391635765545 -0.05307514667513724 -0.03321394698355165 -0.006602499525351723 0 -0.01816031048172529 0 0 -0.004267213345129257 
0 -0.09786795636528114 0.1772391635765545 -0.05307514667513724 -0.03321394698355165 -0.006602499525351723 0 -0.01816031048172529 0 0 -0.004267213345129257 
-0.09271904030282488 0.2219062898597204 -0.060967411405355 -0.02340288583070527 -0.1713419243109386 -0.03085021456567883 -0.09965020757325946 0.3178682325874897 -0.01839895499483337 -0.04421365138173802 -0.09458671932221528 
-0.005711646221976009 -0.1004864324958805 -0.05703034555564417 0.1819477703667011 -0.01115130548758772 0 0 0 0 0 0 
-0.008849325938864606 0.1467536831644859 -0.014842020251882 0.1883489705833822 -0.0664802595720615 -0.05657394234414875 -7.589415207398531e-18 -0.0007086001242709359 0 -0.00731485071347057 -0.07848632096589964 
-0.005711646221976006 -0.1383212343019103 0.1973158137780105 0.1221418546683597 -0.09364605028564144 -0.03881983195786216 -0.06783475133680847 0 0 0 0 
-0.005711646221976009 -0.1645217264260397 -0.1893358924707881 0.4245355044645949 -0.0167836571220667 -0.01519947566327452 0 0 0 0 -0.003055539453862536 
-0.005711646221976006 -0.1383212343019103 0.1973158137780105 0.1221418546683597 -0.09364605028564144 -0.03881983195786216 -0.06783475133680847 0 0 0 0 
-0.005711646221976009 -0.1645217264260397 -0.1893358924707881 0.4245355044645949 -0.0167836571220667 -0.01519947566327452 0 0 0 0 -0.003055539453862536 
-0.005711646221976009 -0.1004864324958805 -0.05703034555564417 0.1819477703667011 -0.01115130548758772 0 0 0 0 0 0 
-0.03625006013580297 -0.1008849763417249 -0.1613295346733065 0.5563949789896319 -0.08928863899843499 -0.107417516251035 -0.01275756291742784 -0.01188895641792163 -0.00345918901660862 0 -0.005169820349108028 
-0.01650363819480281 -0.07370707858330061 -0.08220192184973941 0.2664081842605185 0 -0.06047096036201161 -0.02003274545026896 0 0 -0.01203258235198693 -0.01264253075356089 
-0.08875672959605178 0.3172667324853237 -0.2082174106315275 0.2073271927566779 -0.09574058076500563 -0.07883860654207653 -0.02113014160951427 0 0 -0.01803654888690453 -0.0174381699921859 
-0.05782619570227972 -0.1305946478993042 -0.3173372507659956 0.4025395427643815 -0.02705042580577255 -0.1261180620107095 0.3152005493040652 -2.168404344971009e-19 0 -0.03210905367899836 -0.02137517419077193 
-0.01650363819480281 -0.07370707858330061 -0.08220192184973941 0.2664081842605185 0 -0.06047096036201161 -0.02003274545026896 0 0 -0.01203258235198693 -0.01264253075356089 
-0.01650363819480281 -0.07370707858330061 -0.08220192184973941 0.2664081842605185 0 -0.06047096036201161 -0.02003274545026896 0 0 -0.01203258235198693 -0.01264253075356089 
-0.01650363819480281 -0.07370707858330061 -0.08220192184973941 0.2664081842605185 0 -0.06047096036201161 -0.02003274545026896 0 0 -0.01203258235198693 -0.01264253075356089 
-0.01650363819480281 -0.07370707858330061 -0.08220192184973941 0.2664081842605185 0 -0.06047096036201161 -0.02003274545026896 0 0 -0.01203258235198693 -0.01264253075356089 
-0.08311206952718289 -0.1368002283955141 -0.4249613849997926 0.9626595183796745 -0.3673726075520076 0.3937537383425062 -0.1772476530437624 -0.02940256428595017 -0.002931500981121027 -0.0368844818589061 -0.1233143633905816 
-0.01650363819480281 -0.07370707858330061 -0.08220192184973941 0.2664081842605185 0 -0.06047096036201161 -0.02003274545026896 0 0 -0.01203258235198693 -0.01264253075356089 
-0.01650363819480281 -0.07370707858330061 -0.08220192184973941 0.2664081842605185 0 -0.06047096036201161 -0.02003274545026896 0 0 -0.01203258235198693 -0.01264253075356089 
-0.05014272529324151 -0.03342753273034338 -0.1553868544668437 -0.2874474482571325 -0.03194235431262934 0.5411936097115523 -0.0121983835193172 -0.008097869408251109 0 -0.0009345170157595675 -0.01849055260090875 
-0.05399864865244382 -0.2083751528327 -0.04552886617014632 -0.02600418021433101 -0.1066037443879716 0.401266687980428 -0.01269956398077353 -0.0215782396580035 -0.006426863782661464 -0.01038208041507853 -0.01849055260090875 
-0.05014272529324151 -0.03342753273034338 -0.1553868544668437 -0.2874474482571325 -0.03194235431262934 0.5411936097115523 -0.0121983835193172 -0.008097869408251109 0 -0.0009345170157595675 -0.01849055260090875 
-0.05014272529324151 -0.03342753273034338 -0.1553868544668437 -0.2874474482571325 -0.03194235431262934 0.5411936097115523 -0.0121983835193172 -0.008097869408251109 0 -0.0009345170157595675 -0.01849055260090875 
-0.05014272529324151 -0.03342753273034338 -0.1553868544668437 -0.2874474482571325 -0.03194235431262934 0.5411936097115523 -0.0121983835193172 -0.008097869408251109 0 -0.0009345170157595675 -0.01849055260090875 
-0.05014272529324151 -0.03342753273034338 -0.1553868544668437 -0.2874474482571325 -0.03194235431262934 0.5411936097115523 -0.0121983835193172 -0.008097869408251109 0 -0.0009345170157595675 -0.01849055260090875 
-0.02891524646532176 0 -0.1154045785175738 -0.1063963520787885 -0.03194235431262934 0.2498187174546917 -0.0121983835193172 0 0 -0.000934517015759568 -0.01849055260090875 
-0.03626410495634802 -0.1615453635408153 -0.3246378842930551 0.09595000732458787 0.4057939697221915 0.005009912027523829 -0.07697869553431441 -2.602085213965211e-18 0 -0.005518540950568818 -0.08058034258815566 
-0.04455221375506246 -0.2432381348656266 0.08399640687156416 0.2384922517280113 -0.08450340553371909 0.1133140941558354 -0.05166059120075108 0 0 -0.0009345170157595677 -0.05447809733548211 
-0.03366987414651926 -0.09773435089892898 -0.2096515930002537 -0.3301089562769992 0.2647820497049231 0.3122829986741504 -0.1785457589061692 0 -0.004813944061215217 -0.01786903111019764 0.2641763230820684 
-0.07107449825966421 0 -0.09500155666146977 -0.04254383574676295 -0.07552936280023416 0.3190448377829818 -0.009014397215769909 -0.01387820109538526 -0.007840188639074357 0 -0.0329123135043028 
-0.1022058572517587 -0.004112322706355419 -0.221637000113749 -0.1035500049927782 0.29924021547479 0.2315438789759119 -0.009581876215215295 -0.02787764156789925 -0.01270620243683159 0 -0.05679781938207981 
-0.07107449825966421 0 -0.09500155666146977 -0.04254383574676295 -0.07552936280023416 0.3190448377829818 -0.009014397215769909 -0.01387820109538526 -0.007840188639074357 0 -0.0329123135043028 
