solver_type L2R_L2LOSS_SVC_DUAL
nr_class 11
label 1 2 3 4 5 6 7 8 9 10 11
nr_feature 29076
bias -1
w
1.0069832402167 -0.135216097334763 -0.03671243931776465 -0.001322336905568881 1.734723475976807e-18 0 -0.2509228017232618 -0.7841285872907686 -0.004013856731923963 -0.09353201871214309 0 
0.07616233346423538 -0.08691442074968722 -0.153179570196864 -0.2206617648704133 0.07064155383573741 0.1426554644741801 -0.1154593109028085 0.1956200627518677 0.1950286870095006 0.1276304232631768 0.07944894027948125 
0.6010925754243616 -0.2013353161148889 -0.5603617863881847 0.4396902229795613 0.05807597395934948 -0.06761549464659883 -0.008073963819636227 -0.2000258974623631 -0.2907892792938059 0.3690180396577571 -0.01808590394188663 
0.1318858788537163 -0.1816597281723276 0.218365026068662 0.4576391303511068 -0.2522971404263951 -0.1075866380111197 -0.3274265458089989 0.3630041599539618 -0.4027632615061166 0.1309952486383315 -0.2176279379022011 
1.176310679792576 -0.4711971412673188 -0.8599864416123257 -0.2867418740833756 -0.472397242343597 -0.005705369151883862 0.3233414479099201 0.1963936881176424 -0.1968864152677057 -0.02518017412739183 -0.01808590394188663 
1.349088689019769 -0.2984388379182289 -1.42828765845884 -1.106616270912771 -0.04171009489914802 -0.03043494226220659 -0.4780132748120725 0.9905911926672907 -0.04082384047261222 -0.2619559646273304 2.818925648462312e-18 
0.1932882545313263 -0.2985487034946823 -0.2267802812799867 -0.9176236052821832 -0.1522368518649744 -0.6453197298856802 0.7538539752787522 0.9619143760360123 -0.1350880722298644 -0.2892700773732257 -8.673617379884035e-19 
1.0069832402167 -0.135216097334763 -0.03671243931776465 -0.001322336905568881 1.734723475976807e-18 0 -0.2509228017232618 -0.7841285872907686 -0.004013856731923963 -0.09353201871214309 0 
1.0069832402167 -0.135216097334763 -0.03671243931776465 -0.001322336905568881 1.734723475976807e-18 0 -0.2509228017232618 -0.7841285872907686 -0.004013856731923963 -0.09353201871214309 0 
1.0069832402167 -0.135216097334763 -0.03671243931776465 -0.001322336905568881 1.734723475976807e-18 0 -0.2509228017232618 -0.7841285872907686 -0.004013856731923963 -0.09353201871214309 0 
-0.4289643044183544 0.1560334517862103 -0.1012597171407493 -0.1332141537061318 -0.339111670742976 -0.2728256364908562 -0.480627153409116 -0.3480575012725887 -0.1002843112906785 -0.2259650113495693 -0.2516020607430026 
-0.3569767606280402 -0.09739321414417898 0.03520168839627416 -0.006292032738983023 -0.2980354069700857 -0.2537285405504693 -0.4090647048503143 -0.3222148461456131 -0.1485582699359905 -0.2153634050844902 -0.2516020607430025 
-0.3250065336766986 0.3610391120281431 -0.2280622190929304 0.09757152287993137 -0.2548088285166544 -0.2355495332225565 -0.377953411751021 -0.3086464593717759 -0.1631497005763533 -0.1855829136449364 -0.2276556320152472 
0.04261224509400183 -0.1493792410003321 -0.2534081637471446 0.2818230784592404 0.01332965029386773 -0.04365497500643524 0.0396548349929905 0.0697386530259185 0.1704479988060205 -0.02786711161088952 -0.04081256549228662 
0.004309721761390811 -0.1208131908228267 -0.03170751511091847 -0.0205017950186639 0.1144211857163583 -2.168404344971009e-19 -8.673617379884035e-19 -0.007005078576856729 0 0 0 
0.004309721761390812 -1.734723475976807e-18 -0.04888750296735361 0 0 0 0.03443715162253376 -0.007090136755815324 0 0 0 
0.002099455877036247 -0.01466525487464841 0.001819506664568194 -0.04035723834365667 0.009631708943223634 -0.002307493846509737 0.005802282894222026 0.01315655489305029 -0.01029186652715769 -0.009101814083041842 -0.003182915244783003 
9.368441525342296e-06 -0.000179952543313195 -0.0005768082481090615 0.0002350333266495585 -9.818747243824526e-05 5.615235150970342e-06 2.940919626876681e-05 -3.902118212173891e-06 -0.0001961456362954424 -4.003736912623624e-05 -3.167760473509155e-05 
-0.8608524832770036 -0.2248704694482504 0.7164257190907589 -0.9903086829741713 -0.8834888644208083 -0.530983607336814 -0.07906936020579851 -0.6314718759644548 -0.5169326326188556 -0.6120118351972683 -0.4996363814093463 
0.5523188482286246 -1.464868020929742 -0.5066953114513092 0.7401137113203183 0.3121296375635672 0.2466159104712904 -0.4297627672901537 0.4590020107389545 -0.3436198589043902 -0.3985442859174143 -0.2836061689966726 
-0.7245598771133956 -0.4253009035505301 -0.3172428098562609 1.138993205826182 -0.597290044099317 -0.298376055600021 0.194761411932648 -0.6164692231756824 0.09975780057769143 -0.347779953221012 -0.2927941518105359 
-0.139044748471306 0.1247179888651111 -0.5286641671115668 0.5385922740216887 -0.3300143993855733 -0.4890301402447808 0.04849341727629099 -0.2806079376525181 -0.1965439364539884 0.1353719859025596 -0.1082050912366566 
-0.7447721853684228 -0.6084878839273505 0.1734177906974339 -1.086363668901204 -0.4214333890647982 -0.749287544760971 -0.238821004743986 -0.6223565094898826 -0.4097668698909177 -0.4350050826741961 -0.7346678837084618 
-3.701360717452841e-05 -7.741860322962806e-05 -0.0006687222338331343 0.0007348540887189806 -0.000246484494337096 -1.580972075178366e-05 -1.269908283652304e-05 -0.000199399807477244 -0.0001200432754707076 2.707108833171718e-05 -3.043559278139212e-05 
0.1581723488366509 -0.1228601829248386 -0.5469176697029583 -0.06610094906052871 0.1340672025025843 0.1098482311444897 -0.07652170323983291 0.1803089510821211 0.007882093819229989 0.008336700561951935 0.007725945224071239 
0.3496095369096748 1.171835120120617 -0.8623325033959406 -0.7763628231963445 -0.4371689643528382 -0.7902067648175465 0.08719543502102317 -0.124802278209704 -0.0482514382726332 0.03997820177722797 -0.08674538357176413 
0.01134703225534613 -0.03359691564163779 -0.01651546580110504 -0.02249732781450148 0.01873454551807935 0.003564435715491982 0.006746834273684779 0.02144795483125296 -0.007834568454460802 -0.004908690019566956 -0.001694393823208405 
0.002865009646059751 0.007979046755225462 -0.009432666229568865 0.005710925830957673 -0.003549810381302661 -0.0005105197020398149 -0.005126531196655936 -0.001160504360073326 -0.002915126550504874 0.00221189774733753 -8.976158375473206e-05 
3.502283682229645e-05 5.845718091498161e-05 3.468326346937897e-06 0.00012734812682583 -5.653734977476725e-05 1.773207245110865e-05 -0.0001432955490343695 -1.704958735146153e-05 -5.211272399540479e-05 3.884664088094397e-05 -2.257614563289869e-06 
-0.007297242235576881 0.5344998881349337 -0.4581843785393525 -0.2116343399370405 -0.07881680851937679 0.1072592785937117 0.0652808796376308 -0.03104282595709294 -0.0383394715689733 0.003688545538903346 -0.0500698430536054 
-0.06014144501397687 -0.1808332305983199 0.1120487352365195 0.3470054956847873 -0.02934937777232488 -0.1998436209026933 -0.2324027226117021 -0.1277540460090054 -0.08476017704238807 -0.0758282958867731 -0.05151797330490903 
0.0755474309937563 -0.03615622526895841 0.08508656551420526 -0.1103189136454247 0.110502271147756 0.03947607274058441 0.143120458127862 0.02674129632077015 0.1476854652927254 -0.01263730826642768 0.01941192403127326 
-0.04219014116158516 0.2672970588816925 -0.3486629317832051 -0.01478665120278207 -0.01942372344560352 0.07196097418662395 0.01706661989404482 0.01288420416861159 -0.004526424866874697 -0.009909359342019463 0.003547099531545657 
-0.06209049104940793 -0.1077725479024726 -0.04337276551086221 0.05250824371056253 -0.01028220254661654 -0.002441458755738534 -0.1015893144333272 0.03858927977927448 -0.03001694889733228 -0.04342383261004149 -0.02558388365378821 
1.417151613353446e-06 -3.255205567805619e-05 0.0001693176061074316 2.044779243337762e-05 -2.616753438101869e-05 2.754368661649787e-05 -9.726397913863211e-05 -1.051876875001716e-05 -2.024630364428819e-05 6.248466503465817e-06 -2.555846827264258e-06 
-0.05182341021233086 -0.1309995379365322 0.1182817171742389 0.02779653683452361 -0.02236609364390345 0.001147904217381006 -0.01240942110513341 -0.01796065665532697 -0.0001877036981391471 -0.0262912225445766 -0.002539391759153234 
0.01964697304681915 -0.003474762844142027 0.02894538124359695 -0.06337174319939935 0.1901991789017171 0.03029837612558996 -0.05266388118602976 -0.02099830342779747 -0.06558607560476416 0.002117466782556914 0.009499310165353369 
0.001711483569224155 0.003034747115912912 -0.001701460027662439 0.006819894511913059 -0.003620767151268387 -0.001804206974347898 -0.006142009328997563 -0.002249648269135691 -0.001968129332268653 0.001132616146195348 -0.00013956547772351 
3.469446951953614e-18 1.040250895639618 -1.323735132054011 0 0 0 -0.03099014285830077 0 0 0 0 
-0.4331390940922728 0.337093076638295 0.009136138126462804 0.214369732131425 -0.3686769608058279 -0.4154811009650381 -0.3400950145253839 -0.5178349088974946 -0.3468285142864888 -0.3535954346127475 -0.3310510010224837 
-0.3052102618876191 0.2593292855649657 -0.5908976327526685 -0.1016795962223074 0.2988857528385639 0.3054211206268353 -0.05894105361575712 0.8214974283365717 -0.2782368287080992 -0.1396710950586195 -0.04824367729997579 
-0.07626262344176005 -0.09156550639996397 0.2200743127780427 -0.4597746134332765 0.8176833616383413 -0.2008657466958304 0.5724486068950241 -0.3636224675136807 -0.1188780926105781 -0.0472893973509758 1.734723475976807e-18 
1.032589411296534 -0.07398670399730672 -0.09706665879678457 0.1312112384392615 -0.1722717909170594 0.4625256832836069 0.6695872193163315 -0.8120643492286856 -0.2299790672102188 -0.1747014625122069 -0.002384627771317649 
-3.469446951953614e-18 0.4053412078582211 0.164220036759585 -0.2880220299701974 0.3696530939938876 -0.07130803854734698 -0.4366442200173605 -0.09154286195797759 -0.1125260435080401 -3.035766082959412e-18 0 
-0.2129324167381963 1.014713745501501 0.1782044107432361 -0.5529339434276049 0 -0.02351630607746339 -0.1534982401686789 -0.08450281697519213 -0.03490602298098299 -0.02942844409905556 0 
-3.469446951953614e-18 0.8109368954589514 0.2192973145584417 -0.3725691875329622 -0.4646302553713217 -0.06971031058443666 -0.2819128662513394 -1.951563910473908e-18 0 -2.168404344971009e-18 0 
-0.208179901122755 1.018938254719648 -0.0790525618184499 -0.4146415549845514 0 -0.00688355894599457 -0.1534982401686789 -0.08450281697519213 -0.03490602298098299 -0.02942844409905556 0 
0.0009665523165916117 0.1684781690662305 1.367831282721363 -1.529242677910735 -0.1786183920393198 -0.08378595181469078 -0.6406118726210467 -0.3357045973009664 -0.1277617305555568 0.04794553448650995 0 
2.168404344971009e-19 0.6306843973025034 -0.2871814868734818 0 0.003218648640194537 0 -0.5521452163113908 0.004640948771753974 0 0 0 
0.01818929125136513 -0.08039865139262822 -0.1938758541917933 -0.1474472412521093 -0.01714846195362456 0 -1.734723475976807e-18 0 0 0 0 
0.001208749226483942 -0.003210939025952886 -0.001957486310530966 0.002266963214052896 -0.004703737335852581 0.0002562989129672054 -0.0006226811557273414 -0.0008520842033826971 0.003930915505642695 -0.0001155890758100947 -0.0001112263089918597 
3.064687213221172e-05 2.183174904404845e-05 -0.0001991030763924883 2.412433342404318e-05 -4.752131365105902e-05 2.751169670801996e-05 6.32088624601944e-05 1.290535639143286e-05 3.368049113951954e-05 -5.188924362028053e-06 6.895612920513711e-07 
0.01007136605126445 -0.1133608656264419 -0.4242032849703656 0.3939091197708361 -0.06898872627326168 0.01246807414898314 0.00469396185386938 -0.01439013251398421 -0.03454644981637415 -0.003824123361051446 -0.03059938112022792 
-0.01420539254592586 0.3896629284578961 -0.3106793120618726 -0.1565733985911771 -0.03028393361472597 -0.08294214539010915 -0.07351618197687396 -0.04879640444644996 -0.1227514715273091 0.02950858882906139 -0.04513588233964131 
0.006871630036848732 0.1134998148272427 0.1642968978335483 -0.2445578609850503 0.1472279637618146 0.125895989003161 0.1105957535745449 0.006517300007691835 -0.149849257788505 0.09932446425764119 0.006501644561067372 
-0.01701582529624195 0.03606888933210625 -0.244753986954014 0.2290419123254695 0.04115413595487963 -0.01314030898869322 -0.06155033323914423 0.1307352926244585 0.1017410616395085 -0.1195347094156771 0.005055733036593633 
-0.07561187384056538 -0.181020910523509 0.1325103603532947 0.003447521194484986 0.02721233403635544 0.004879071979745129 -0.043679668624079 -0.01420404160131895 0.08404092595574378 -0.03337436259588919 -0.03983341847944179 
4.862775194786074e-06 2.466695347194589e-05 -0.0001608894744620338 1.521243728395037e-05 2.374743142536469e-06 2.413403532793754e-05 8.367817816627272e-05 2.489273072232686e-05 -2.91935790206895e-06 -1.172468557002751e-05 2.355787489945017e-07 
-0.0190370544501708 0.05192056082322653 0.07789840435195468 -0.04013769915023505 -0.08620029591743369 -0.0588810781288264 -0.1018644561438695 -0.06414761309811362 0.006568516330823792 -0.02063296679318725 -0.005182388013785351 
-0.2582814001374274 0.359243806725231 0.9157284006558932 -0.5960863531265985 -0.2617809798404235 -0.2548119408848247 -0.4433027383836948 -0.2856052536047492 -0.08019930535115721 -0.1603172629132436 -0.143688245427668 
0.000768481010485455 -0.00134916695939871 0.0009228974571404031 -0.0002740940646149962 -0.005595360014287431 -0.001220299966713212 -0.002131655613988701 -0.001796720036599349 0.003174838908055306 0.000533817740632916 -0.000145867309969127 
0 -1.361772777645228 1.764083834936868 -0.2308425376356154 -0.1691614779695255 0 -0.01906506006605985 0 0 2.168404344971009e-18 0 
-0.1199852227261374 -0.0618891107334737 -0.1987868044789098 0.8721773066749057 0.2364798054841885 0.1211413367260533 -0.1562560734807682 -0.4595595566314274 -0.6792370065982992 0.3777949271699541 0.7962264983345416 
-0.297157060645402 0.2232058149900953 -0.7897736890240032 -0.5781427028462165 0.539978070204579 0.2698500773054781 0.9340424544600814 -0.04498653098257304 -0.1181896112980553 0.601215808346006 -0.02935291440016126 
-0.03141752671075078 1.602077520293724 0.5876321442155558 -0.5066497271814558 -0.6342992430173395 -0.1609737399083296 -0.8526369438555131 -0.01560959202051374 0 -0.4844278104927437 -0.01231063712813611 
-0.014374145720522 -0.6607193357226848 1.982107908007023 -1.080035255390966 -0.2406428635756516 -0.04807565259808793 -0.134145795021367 0 0 -0.09712694117789467 0 
-0.004029440692902873 -0.4020252641053311 0.3111468022285211 -3.469446951953614e-18 -0.0149283406952727 -0.03085590398011268 -0.03658736468121724 0 0 0 0 
-0.04862751664305052 -0.6098303642518866 0.3088257705361231 0.2444332892638434 -0.08765710424826555 -0.02751017727363945 -0.1292970271159486 -0.1030839407585303 -0.0402631286982072 0.07213948884448655 0.0006204510390997012 
0 -0.1228669127180478 0.08102850738965373 -4.336808689942018e-18 -0.0149283406952727 -0.01158668343851261 0 -2.168404344971009e-19 -0.006187730549378856 0 0 
0.01459349036450522 0.1108926293756395 -0.1256726056996459 0.1394383219982928 -0.1149271349983389 0.01359302082329455 -0.1737457022830343 -0.002263255311356707 -0.03534530092506757 -0.0554813579050642 0.0007368646312387177 
0 -0.1065752295566981 0 0.2821272908050655 0 0 -0.2197298846553685 0 0 0 0 
0.9807361800563732 0.01648323149000448 -0.6486148975245298 -0.3026508797601343 0.704507278287447 0.3764765146755354 0.6180861074900659 -0.3910015426046223 0.04021632554069658 -0.3616605798355387 -3.686287386450715e-18 
-0.786103856057029 0.7814290809313604 -0.9471583571616266 1.453269814651374 -0.4701909762520866 -0.0210778487288911 -0.4787867739286971 -0.2221706115980832 -0.7482599458320076 -0.3722095672945722 -0.09493493404072302 
-0.247961290681776 -0.2656716452466227 0.3119481881000844 0.9537307802041416 -0.1883090270760981 -0.1180538239782281 0.05606655285032503 -0.1085091716975681 -0.04521509416992148 -0.02588210906618442 0 
-0.2010335438050586 -0.8501919682463759 -2.906163066476934 3.48907440911612 -0.5216622467417275 -0.5779917622694648 -0.7356765051990137 -0.7757139579828228 -0.2244003083836449 -0.3163145076139606 -0.08683687833882839 
-0.07822576915402134 -0.24930613647488 -0.354476390386059 0.03353580070418583 -0.01894217710910037 -0.0903355994809914 0.6362442059255119 0 0 0 0 
-0.07179322243954309 0.1850702101092362 -0.09537867132418039 -0.07167223310901373 -0.01684174855364953 6.938893903907228e-18 -0.3364914223140437 -0.02800492971620096 -0.0251250440154137 0 0 
-0.07822576915402134 -0.24930613647488 -0.354476390386059 0.03353580070418583 -0.01894217710910037 -0.0903355994809914 0.6362442059255119 0 0 0 0 
0 -0.2375984976147262 -0.166849288989153 0.1532529561774781 -0.001674269464454125 0 -0.2197298846553685 -0.02800492971620096 0 0 0 
0 4.336808689942018e-19 -0.2287472206183577 0.2464745773324198 0 -0.01353995238835217 -0.02643650053428631 -0.01572677702840482 0 0 0 
-0.009301827595495632 -1.734723475976807e-18 -0.02354462441537156 0.1792042227242966 0.02591013334981091 0 -0.01326354341413424 -0.003870139914076925 0 0 0 
-0.1338124497775369 -0.06131704802125766 0.6094586883463604 -0.2421341685920758 -0.1849798577668094 -0.06093414787759645 -0.1232565402717795 0.105453134901938 -0.1148283172449196 -0.1831509562733125 0.1008739193274096 
-0.10442030119069 -0.1031379898457546 0.05104196531544267 0.09939503697185821 -0.03251733769786262 0.002831003626496631 0.03933041190781444 -0.06380531088985185 -0.06581937886592094 0.01584158372636638 0.006186580831706917 
-3.306816626080789e-18 -0.3105354604950384 -0.5890526323157205 -0.4960539410372529 1.167141590472211 -0.04591342302080163 -0.3194915981863175 -0.01863289630647439 4.336808689942018e-18 -6.938893903907228e-18 -2.168404344971009e-19 
0.1592522806518621 -0.1400772181711622 0.180619255788692 0.3752800258053567 0.5615232814621428 0.1435307225805197 0.1418138008133975 -0.7354919270727256 -0.2653789026747363 0.05544003325249774 -4.431676380034499e-18 
-0.1238216669390015 0.1268989907389169 -0.5679834917074951 0.0509715143931796 0.4616303313211111 -0.1531544573110762 0.3917943355622676 -0.01863289630647433 -0.1386962616769931 -0.009730099421896 -2.168404344971009e-19 
-3.306816626080789e-18 -0.3105354604950384 -0.5890526323157205 -0.4960539410372529 1.167141590472211 -0.04591342302080163 -0.3194915981863175 -0.01863289630647439 4.336808689942018e-18 -6.938893903907228e-18 -2.168404344971009e-19 
-3.306816626080789e-18 -0.3105354604950384 -0.5890526323157205 -0.4960539410372529 1.167141590472211 -0.04591342302080163 -0.3194915981863175 -0.01863289630647439 4.336808689942018e-18 -6.938893903907228e-18 -2.168404344971009e-19 
-3.306816626080789e-18 -0.3105354604950384 -0.5890526323157205 -0.4960539410372529 1.167141590472211 -0.04591342302080163 -0.3194915981863175 -0.01863289630647439 4.336808689942018e-18 -6.938893903907228e-18 -2.168404344971009e-19 
-3.306816626080789e-18 -0.3105354604950384 -0.5890526323157205 -0.4960539410372529 1.167141590472211 -0.04591342302080163 -0.3194915981863175 -0.01863289630647439 4.336808689942018e-18 -6.938893903907228e-18 -2.168404344971009e-19 
-0.05852237841123946 -0.3562036726583374 -0.005430054912926522 0 -0.0223587127136949 0 0.3196725892900963 0.001846554065765971 -0.02683733994891107 0 0 
-0.003219086667283271 -0.02449682862596065 0.07749579253495491 0.03548161208700422 0 0 -0.06000104981767826 0 0 0 0 
-0.04683045882451606 -0.6727603009802124 -0.5513733830834329 0.5157751241818457 0.485950303558205 0.1071918524635937 0.01947880734596636 -0.1242505326715684 0.03069648046434088 -0.2516030297316673 0.04417454717325673 
0 0 0 0 -0.007839549671178577 0 0.02832057589783732 0 0 0 0 
1.220274122560265 -0.2072000611038818 -0.4041736142294123 -0.2004073672135651 -0.0221840097494618 -7.37257477290143e-17 -0.2231843996803465 -0.8950622563080972 6.938893903907228e-18 -0.147777244492665 6.505213034913027e-19 
0.3422235299569079 -0.6313356247599161 0.2610360277600233 0.05894566767641277 0.2442469891148987 0.08735374031563276 6.720773198420281e-05 -0.09297571506922438 -0.4819069363221015 0.6462985612416506 3.903127820947816e-18 
1.308921160409487 -0.3811808102912644 -0.5872134834902645 -0.9123271853813822 0.07930639108690477 0.2101986289122197 0.196435360953285 0.3190268897877673 -0.09736011206821399 0.1503862204855345 -8.239936510889834e-18 
0.3396179214012846 -0.4241567949697008 -0.8905545800814415 -0.6644027336447046 -0.3676434220211137 -0.5516987937525036 0.8180151219576632 1.732676185331532 -0.08278765609597388 -0.4016321683788126 6.505213034913027e-19 
1.220274122560265 -0.2072000611038818 -0.4041736142294123 -0.2004073672135651 -0.0221840097494618 -7.37257477290143e-17 -0.2231843996803465 -0.8950622563080972 6.938893903907228e-18 -0.147777244492665 6.505213034913027e-19 
1.220274122560265 -0.2072000611038818 -0.4041736142294123 -0.2004073672135651 -0.0221840097494618 -7.37257477290143e-17 -0.2231843996803465 -0.8950622563080972 6.938893903907228e-18 -0.147777244492665 6.505213034913027e-19 
1.220274122560265 -0.2072000611038818 -0.4041736142294123 -0.2004073672135651 -0.0221840097494618 -7.37257477290143e-17 -0.2231843996803465 -0.8950622563080972 6.938893903907228e-18 -0.147777244492665 6.505213034913027e-19 
0.09392987012864591 0.5415238490433348 0.3974638582073864 -0.3821181068784535 0.1653528597522203 -0.106142038338416 -0.4246840709584386 0.01327914677419749 -0.03597106247724562 -0.01845640551474501 1.084202172485504e-19 
0 0 -0.09044191457952404 0 0.03151417511871277 0 0 0 0 0 0 
0.002436733448600834 -0.02871526159339587 0 0 0 0 0 0 0 0 0 
-0.04188410633042475 -0.4291275278769647 -0.4014550935956739 0.5462996251903773 0.04750496608727404 0.01789181140479037 0.1759403232457005 0.0381761950401889 -0.03078601669050622 -0.0445054895413327 0.01494444447928061 
0 -0.6893454722647278 0.8088625293052174 -0.07638622059000952 0 0 0 0 -0.01019520960567949 0 0 
-0.2762441391971967 0.2263501802206948 0.7103975664650957 0.03509740337299698 -0.4666375840182861 -0.4235524467781514 -0.2520257492197948 -0.3109382833030447 0.1573818335661602 -0.4443039692398008 -0.06907422033675212 
-0.08736233374848967 1.121590280861662 -0.3335830549185961 -0.464263930796187 -0.07009624326616072 -0.01279341012312575 0.05883162590609543 -0.05276633963940994 -0.140046583370042 -0.02835956532618085 0 
-0.1013626330405248 0.1937170881624902 -0.6193770493628947 0.6516937058524854 -0.0588613381921417 -0.09553043039718259 -0.1658648993990734 -0.186642795764219 -0.05014872403393351 -2.371692252312041e-20 0 
-0.08736233374848967 1.255104851724147 -0.05394501202681592 -0.4289021659607649 -0.07009624326616072 -0.01279341012312575 -0.5647523383296895 -0.03783540886394947 -0.1131877125246692 -0.02835956532618085 0 
0 -0.6893454722647278 0.7421068743181876 0.01936506950890228 0 0 -0.03141149633949513 -0.186642795764219 -0.01019520960567949 0 0 
0 -0.3320297342342279 0.4041586008232568 -0.07638622059000952 0 0 0 -0.02595849928217855 -0.05673109905336982 0 0 
0 -0.6893454722647278 0.7421068743181876 0.01936506950890228 0 0 -0.03141149633949513 -0.186642795764219 -0.01019520960567949 0 0 
0 -0.6893454722647278 0.8088625293052174 -0.07638622059000952 0 0 0 0 -0.01019520960567949 0 0 
-0.1711191970077005 0.0472993608255787 1.424807149159168 -1.393509641265314 -0.328167441025607 -0.2737083036889328 -0.555375493282965 -0.6901278211562122 -0.307906789855954 0.1082156838764516 -0.06382349602943706 
0.07761113085779223 0.4327109891018891 0.2035297545808967 -0.5296197098299513 -0.1089950612587901 -0.03278307671631643 -0.3126914655337803 -0.1315835319752209 -0.1031623296400529 -0.0500564030558807 0 
-0.03404850675504406 -0.7718977624147469 0.2935168162719289 0.5882108175225543 -0.1631873534703548 0.1837318088798786 -9.95407082779033e-05 -0.07000976232235372 -0.0521994577514821 -0.04103882424997636 -0.001712866924789596 
0.0140311123307204 -0.1586282467667264 -0.1161199550555028 0.308341634304818 0.07149695034651833 0.05312972345393754 0.1169000128563325 -0.01932834621173418 -0.03872094023586067 -0.02867439334782976 -0.01335128534550012 
-1.734723475976807e-17 -0.2352139295116151 -0.5678324786455434 -0.2238307484708192 1.052882141043747 -0.004618238245714056 -0.1063777495362658 -1.344410693882025e-17 0 6.938893903907228e-18 0 
-0.0491782147552272 0.07927818109029749 0.4084949774675393 0.07743186228757078 0.4029261981116095 0.5208696402830726 -0.6681888938877031 -0.9172413078519994 0.07324458106142122 -0.3716481625683675 8.673617379884035e-18 
-0.1458063655258416 0.3792654761792653 -0.3610557395326028 -0.554563681293528 0.00827818117552514 -0.6564997915933544 1.07270478747896 0.3118162213369243 -0.6489750441769679 0.007864662575240183 -0.09480486723707171 
-1.734723475976807e-17 -0.2352139295116151 -0.5678324786455434 -0.2238307484708192 1.052882141043747 -0.004618238245714056 -0.1063777495362658 -1.344410693882025e-17 0 6.938893903907228e-18 0 
-1.734723475976807e-17 -0.3353714564260626 -0.1463310670667375 -0.2238307484708192 1.043330796301186 -0.004618238245714056 -0.2662893240520736 -1.344410693882025e-17 0 6.938893903907228e-18 0 
-1.734723475976807e-17 -0.2352139295116151 -0.5678324786455434 -0.2238307484708192 1.052882141043747 -0.004618238245714056 -0.1063777495362658 -1.344410693882025e-17 0 6.938893903907228e-18 0 
-1.734723475976807e-17 -0.2352139295116151 -0.5678324786455434 -0.2238307484708192 1.052882141043747 -0.004618238245714056 -0.1063777495362658 -1.344410693882025e-17 0 6.938893903907228e-18 0 
-1.734723475976807e-17 -0.2352139295116151 -0.5678324786455434 -0.2238307484708192 1.052882141043747 -0.004618238245714056 -0.1063777495362658 -1.344410693882025e-17 0 6.938893903907228e-18 0 
-1.734723475976807e-17 -0.2352139295116151 -0.5678324786455434 -0.2238307484708192 1.052882141043747 -0.004618238245714056 -0.1063777495362658 -1.344410693882025e-17 0 6.938893903907228e-18 0 
0 -0.2960440374375255 0.2358706452849267 -0.001757379370384999 0.01090911074870898 0.01818239163342182 -0.02416973491114556 0 0 -0.02984046830225753 0 
-0.0785817769412032 -0.1579925395069095 0.64577563147565 -0.3562350225758904 0.0320984586470048 0.06240965389783599 -0.1598946614258173 -0.1102207492486108 -0.09294772897847234 0.004939763517512949 -0.03075148588355753 
-0.09349128732504863 -0.3198981145832642 -0.3036765717422218 0.6247092631729033 0.35709426674505 0.05372737566582203 0.01689064428617969 -0.1332420133417481 -0.04339910934351221 -0.02623164376659805 -0.003395890091782962 
0.03025005980299616 -0.1858267074104674 0.3287388487309529 -0.5783589034570034 -0.0365274643427459 0.02573441822842275 0.1259011691734634 0.07323264415639794 -0.04179395329935646 0.02733228219073337 -0.003409564692886306 
0.6594188721022838 -0.09399894084938562 -0.1320093194978259 -0.02297862677229141 -0.04035358529674495 -0.1545759199723941 -0.260907239017728 6.938893903907228e-18 0 1.301042606982605e-18 0 
0.4839509791157509 0.1290292889147149 -0.2603351877416489 0.1706523556673499 -0.1399484185369444 0.5175122592842885 -0.677749023981136 0.3317018811831417 -0.319239731828879 -0.2221708806098292 0 
1.489285775380972 -0.1780113424044036 -1.478544915079976 -1.259946527756154 -0.285715389018649 1.320657287227718 0.1812671902097385 0.5737451330432802 -0.1440669394251828 -0.02672897688974199 0 
1.182912470198238 0.2355428027118327 -0.947309582500656 -0.5514701488103156 0.4418480037341415 -0.426013623894506 0.2481892690337996 -0.2874427807069497 -0.01695108430530252 -0.2837437892214239 -0.02822685327702936 
1.943275516745423 -0.1605985852602125 -0.3230358085654309 -0.576744861550079 -0.04035358529674503 -0.293046307230061 -0.7282775862917146 -0.1282923870119658 0 1.301042606982605e-18 0 
1.919605766069871 -0.5497757694289122 -0.1552693989971944 -1.464987961943718 -0.4126564279849549 -0.4010654708946022 0.4228515072419144 -0.2810478475210637 -2.38524477946811e-18 -0.2272038527928673 -0.02422191055423017 
1.943275516745423 -0.1605985852602125 -0.3230358085654309 -0.576744861550079 -0.04035358529674503 -0.293046307230061 -0.7282775862917146 -0.1282923870119658 0 1.301042606982605e-18 0 
-0.7976598946558022 -0.3607734068252601 -0.1338703284892102 -0.02297862677229141 -0.04035358529674495 -0.1545759199723941 1.209676638513127 -0.2495742795237888 0 1.301042606982605e-18 0 
0.05161832856579063 -0.05204053531483951 0.9197519933444319 -0.4610029047856137 -0.06577659220285709 -0.04513165302965826 -0.3531839973254756 -0.06737799695637572 -0.07359309675738449 0.02727388639237468 0 
0 0 -0.05294951883222158 0 0 0 0.02510467704116806 0 0 0 0.006398821482366015 
-0.01993522495243721 -0.5555533512199722 0.611734463205069 -0.2582719006418293 -0.2091791157724612 -0.03462103042726092 -0.1740441623440426 0.1054937000544282 -0.09153549433768446 0.03713428443125913 -0.01924627055785922 
-0.007830432932761321 0.208279988686533 -0.0104851544104507 0.01788674976880052 -0.01628037187906329 -0.005730873751292499 -0.1877339388132865 -2.602085213965211e-18 -0.001447283222589826 -2.168404344971009e-19 0 
-4.906014830496908e-18 -0.05164680940388278 -0.8928023185612809 1.056329053739509 -0.01481513179963468 -0.1953452280596943 -5.204170427930421e-17 -0.00737240475636862 -0.09174241767192248 0 0 
-0.3252606996298091 -1.242909518526776 1.130182143509312 0.2657713989429538 -0.2852454974670292 0.1872851530421038 -0.1705919332604876 0.1890695267830158 -0.1810067073556531 -0.5145796574042233 -0.07744135486285231 
-0.2663300124411892 -0.7145846581610982 0.9676982947799182 0.9090544503091953 -0.1274166686649862 -0.261320634692555 -0.706694532374797 -0.6496758225445062 -0.09966827123396672 -6.938893903907228e-18 -1.734723475976807e-18 
-0.1275345841852189 -0.1415987730814314 -1.155718459966288 0.7102291969662559 -0.1644656197387218 0.7632258702955115 -0.4372312697167305 -0.2857677313246519 0.7276957691160442 -6.938893903907228e-18 4.77048955893622e-18 
-0.02367522328914363 -0.3474628368769511 -0.4991866864873414 0.9324720172299441 -0.04205414229449793 -0.2058316191734602 -5.204170427930421e-17 -0.007372404756368675 -0.09174241767192251 0 -1.734723475976807e-18 
-4.906014830496908e-18 -0.05164680940388278 -0.8928023185612809 1.056329053739509 -0.01481513179963468 -0.1953452280596943 -5.204170427930421e-17 -0.00737240475636862 -0.09174241767192248 0 0 
-4.906014830496908e-18 -0.05164680940388278 -0.8928023185612809 1.056329053739509 -0.01481513179963468 -0.1953452280596943 -5.204170427930421e-17 -0.00737240475636862 -0.09174241767192248 0 0 
-4.906014830496908e-18 -0.05164680940388278 -0.8928023185612809 1.056329053739509 -0.01481513179963468 -0.1953452280596943 -5.204170427930421e-17 -0.00737240475636862 -0.09174241767192248 0 0 
-0.01581318191025038 0.0531943379272946 7.568284659569642e-05 0.2916403317362526 -0.07728759289924271 -0.004989586802563761 -0.4878742466378816 0.1695655589024435 -0.01778221728591117 0.01311680104164647 0.01053593590404187 
-0.03047742795470293 0.1561744117460829 0.1156875272297345 -0.2054288791881366 -0.07140904141678824 0.02343851228777039 0.1052421550494753 -0.078076262960514 -0.06671147776932183 -0.09295743210978535 -0.001215610260671497 
-0.09598928150379217 -0.03378578710683369 -0.05726068545270332 0.0004208286993072994 0 0 0.2184169492360105 -0.03450198784998584 0 0 0 
-0.06187380585339416 -0.01313445037011088 -0.4746508422246156 0.4717971269551355 -0.1362533488766927 -0.0484201124618287 -0.06234876842138423 0.01017288382265141 0.001958298976253456 0.001104197441125866 -0.001347513048008275 
-0.03407310819153586 -0.2230624574998027 -0.4547375050847008 0.7950544448560206 -2.168404344971009e-19 0 3.469446951953614e-18 0 0 0 0 
-0.06569391287110694 -0.2921250062230332 0.3995626429302389 0.7402764270970824 -0.1146704427658496 -0.1729827229195091 -0.4465530354490529 -0.1666660178156296 -0.05233218325357056 -0.02443445890274991 0 
-0.06569391287110694 -0.4890261390211434 -0.3627921721207576 0.9266568905064608 1.165517335421917e-17 5.204170427930421e-18 -0.3728684395311276 -0.03652420391943997 -0.02046561191666953 0 0 
0.5410923565528548 -0.1243451636957034 -0.2887575228536208 0.5477072303864154 -0.6104946116093362 -0.07671242030830019 0.4032992349813316 0 -0.03961585972989679 -0.1401527782060775 0 
-0.03407310819153586 -0.2886304772516779 -0.5250959858753848 0.8595678184132379 1.165517335421917e-17 -1.734723475976807e-18 -0.3728684395311275 -3.469446951953614e-18 -0.01430719117325206 0 0 
0.6402915503085783 0.1306526494101411 -0.2108006825702489 -0.1630432793346661 -0.6104946116093359 -0.07671242030830019 0.4346660217804318 0 -0.03725449370387092 -0.07198111005473948 0 
-0.03407310819153586 -0.2398622823733761 -0.8075756655756992 1.173502659078484 1.165517335421917e-17 1.734723475976807e-18 -0.3728684395311275 -2.602085213965211e-18 -0.01430719117325206 0 0 
-0.1224930763686515 0.7772077082908123 -0.503307272325198 0.5219377517259192 -0.02401574502027207 -0.07671242030830022 -0.1845238125029451 0 -0.03297628970944209 0 0 
-0.04836777519477842 0.5027380561037145 -0.6941629923614705 0.0794984278573201 0.02124947959033533 -0.109831410754485 0.2753916542652382 -0.2554815797239163 -0.05655629554497965 -0.006381635727994971 0.04980313955901927 
-0.09455082214922096 -0.146315029061799 -0.2279315262904243 0.49663717100265 0.07942835434633501 -0.006504985149132779 -0.1691816007278271 0.1032773830974545 -0.01904973583988994 0.03145064766152629 -0.008446958377636522 
-0.08209225565117159 -0.3877091095303819 0.1071697910038758 0.09477594375233672 -0.02561566657873465 -0.06935399768314139 0.2021345518958381 -0.02321158635609122 -0.08084975994517529 -0.1048141463493701 0.09413583375388998 
-0.2850816340292812 -0.1700441866851023 -0.5418456510945645 -0.5101861954018372 1.159929160025903 -0.0249481529999027 -0.07607167642113286 -1.734723475976807e-18 -1.084202172485504e-18 -0.002556314814521109 -1.084202172485504e-18 
-0.2850816340292815 -0.721423406210453 0.9901563785678055 0.01952132776846332 0.6530234615056558 -0.05653337509756887 -0.994348441632478 -1.734723475976807e-18 -0.008306598817375471 -0.008383117085954883 -1.084202172485504e-18 
-0.2850816340292812 -0.1700441866851023 -0.5418456510945645 -0.5101861954018372 1.159929160025903 -0.0249481529999027 -0.07607167642113286 -1.734723475976807e-18 -1.084202172485504e-18 -0.002556314814521109 -1.084202172485504e-18 
-0.2850816340292812 -0.1700441866851023 -0.5418456510945645 -0.5101861954018372 1.159929160025903 -0.0249481529999027 -0.07607167642113286 -1.734723475976807e-18 -1.084202172485504e-18 -0.002556314814521109 -1.084202172485504e-18 
-0.2850816340292812 -0.1700441866851023 -0.5418456510945645 -0.5101861954018372 1.159929160025903 -0.0249481529999027 -0.07607167642113286 -1.734723475976807e-18 -1.084202172485504e-18 -0.002556314814521109 -1.084202172485504e-18 
-0.2850816340292812 -0.1700441866851023 -0.5418456510945645 -0.5101861954018372 1.159929160025903 -0.0249481529999027 -0.07607167642113286 -1.734723475976807e-18 -1.084202172485504e-18 -0.002556314814521109 -1.084202172485504e-18 
0 -0.009251253774291781 -0.1100567517590658 -0.08195290832621634 -9.324138683375338e-18 -0.004275885321697668 0.1973294424618331 0.03303149215596122 -6.505213034913027e-19 0 0 
0.03325298357226128 0.6469729971369551 -0.5608241028957702 -0.2580395947156796 0.1013173790413722 -0.01485504632299502 0.06669509069348706 -0.09820980230126418 -0.07996270525104353 0.06794144695394577 0.01455596408453012 
-0.03604674319950813 0.2168625228042695 -0.3491151474191085 -0.118016051434636 0.09982266278086674 0.07042532299975063 -0.04198055278009005 0.2274100840277247 -0.05655167442001036 -0.113417383206854 0 
0.01439362682972402 -0.3499706958436744 0.6544313316911834 -0.3223360364315505 -0.05216513719639058 -0.07745664657290341 -0.07578325209256798 0.04781465965802191 -0.09730396159289442 0.3400219981452448 0 
0.01255749571157199 0.1138743969008983 -0.08935388912484581 -0.0423885198223169 -0.01942496386108727 -0.02502304286753576 0.1418488204272125 -0.004376861348712071 -0.005875792125703014 -0.007938400097923048 0 
0.1303456510458924 0.4306678782252285 -0.9237494208672751 0.1924666298601224 0.003760481275449266 -0.03245192118174719 -0.05886705096409361 0.0008336911858714486 -0.01788612691428745 0.4597690240755034 -0.02160943532882772 
0.01084825649967211 -0.04238836005402678 -0.3397310882136489 0.4257702266776694 0.07291244578200515 0.09528395112274836 -0.03829858659859955 -0.06111697109337925 -0.006436653095883814 0.02006876615504034 0.004527157833080221 
-0.06086451159608688 -0.136354629118821 0.4911642631446673 -0.2658463833428208 -0.0006203656856631194 -0.01192595430679405 1.409462824231156e-17 -0.03160465893433924 0 -0.03825410458657768 0 
-0.2350604229038024 0.8559168428510475 0.6018385543477408 -0.8901442047594303 -0.01055314369227609 0.4506232506222743 -0.5619740800015069 0.294412542315081 1.387778780781446e-17 -0.09939745721093832 0 
1.091296868978728 -0.3934505189888974 -0.02152078655645227 -0.02911093427339253 -0.08678788065854974 -0.2437421505250455 -0.4829366612895685 -0.1477232939597535 0.1362814499562562 -0.1409307401577184 0 
-0.06086451159608688 -0.136354629118821 0.8826982525700888 -0.3579950947482887 -0.0006203656856631114 -0.01586407946444175 -0.1999500041160075 -0.03160465893433925 0 -0.03825410458657768 0 
-0.3360443997206959 -0.2541298164923599 1.318127433825828 -0.6953082888131339 -0.02257378253126814 -0.04263695328577403 0.3620318455695832 -0.2133875053368221 -0.04788826868406901 -0.05231489892749713 0 
-0.06086451159608688 -0.136354629118821 0.8826982525700888 -0.3579950947482887 -0.0006203656856631114 -0.01586407946444175 -0.1999500041160075 -0.03160465893433925 0 -0.03825410458657768 0 
-0.260860833547403 -0.2541298164923599 0.7744174689462963 -0.4155218781898002 -0.02257378253126814 -0.04263695328577403 0.3928107160277688 -0.2062600020704999 -0.02877432664634235 -0.03825410458657767 0 
0.0119117889049801 0.01738874988991944 0.323364864866348 -0.4791781871920274 -0.09687578079626974 0.1650175196576547 -0.08951525143349531 -0.004663008440109807 -0.07420969912510308 0.003162729535874737 0.001079037303316866 
-0.09184758738655333 0.1214651243317999 0.05672224552895047 -0.04066486215687912 0.008948684586268525 0.00127207412961368 0.1780702469919756 -0.006608668090539025 -0.03448828048380815 -0.1287208676684014 0.008975691201147464 
-0.03249518921670001 0.3466264852998407 0.1948944753299255 -0.467724023505047 -0.03298831784515112 0 -0.02238757760620953 -0.03656560946408893 0 0 0 
-0.03727976060067743 -0.08995196367754851 -0.6232015021413024 -0.543527817954098 -0.0876680431006723 1.213533906955671 -0.162522133204431 -3.122502256758253e-17 -0.1287643891217635 0 0 
-0.1342889884050353 0.4135465356968597 -0.07497157440492158 -0.1460495036297551 -0.3793430652272527 0.7015693898000284 0.1431700525010745 -0.6038921035220919 -0.1386387084783118 -1.127570259384925e-17 0 
-0.03727976060067743 -0.08995196367754851 -0.6232015021413024 -0.543527817954098 -0.0876680431006723 1.213533906955671 -0.162522133204431 -3.122502256758253e-17 -0.1287643891217635 0 0 
-0.03727976060067743 -0.08995196367754851 -0.6232015021413024 -0.543527817954098 -0.0876680431006723 1.213533906955671 -0.162522133204431 -3.122502256758253e-17 -0.1287643891217635 0 0 
-0.03727976060067743 -0.08995196367754851 -0.6232015021413024 -0.543527817954098 -0.0876680431006723 1.213533906955671 -0.162522133204431 -3.122502256758253e-17 -0.1287643891217635 0 0 
-0.03727976060067743 -0.08995196367754851 -0.6232015021413024 -0.543527817954098 -0.0876680431006723 1.213533906955671 -0.162522133204431 -3.122502256758253e-17 -0.1287643891217635 0 0 
-0.02156262445723063 -0.09355476461858279 -0.219291853578905 -0.06065778533181197 0.01677343684838441 0.1355639510154046 0.03366844494359856 0.003208072306941069 -0.01409001904541022 0.09917772959204031 0 
-0.05090804175608402 0.1269092691026689 0.5415416205293319 -0.4306263002092482 -0.1852490370329345 -0.08482057406008926 0.08316085063632665 -0.07237652286182129 0.06754694468413329 -0.0251615805133031 -0.004302028049847027 
-0.01769929024670152 -0.1894676260853371 0.5046596602669873 -0.2745959132610521 -0.02977068320076339 4.336808689942018e-19 -0.06439366046480048 -0.01499648562412002 -0.00861625928407146 -0.01916210440403675 0 
-0.02216696563859274 0.6160520916893414 -0.03911377852653651 -0.7770282739729304 -0.05106573153613679 0.1444448722557267 0.2110472690542202 0.01840556410605697 -0.0305846856680443 -0.0873280295669952 0.006541139263033075 
0.006107553329590921 -0.09948821316539179 -0.6843713527612866 0.4207336599695451 -0.06424021955304017 0.04600719692156634 -0.005387003185140793 0.03005373398048847 0 0.009579324781213511 0 
-0.06437093578084982 0.03608946019569922 -0.1151466759099247 -0.1010409817313264 0.09472122308295058 -0.02188313763118224 0.0570880450918267 0.1061124685541728 -0.002138252745423785 -0.04709431011351171 -0.00353578577119142 
0.01707015281444274 0 0 0 0 0 -0.01057088890236045 -0.01768419345515268 0 0 0 
0 0 0.5827777133170381 -0.3800388012714956 0 -0.0007698161499990793 -0.1117628683280695 -0.09648261561625235 -0.09529598584639901 -1.084202172485504e-19 0 
0.1099278518902315 0.08004807846642574 0.0008109051377304648 0.4895748044475217 -0.3207392021687298 0.06563862122521333 -0.04857970158698179 0.1320865700856512 -0.1539952470117258 -0.03768933881050359 -0.08882882861698065 
-0.04089525034809031 0.09581513321665731 0.5700600818084717 -0.5619091136924995 -0.01973527175193859 -0.1689141437095004 0.6435407886369841 -0.2553620435458836 -0.1402828756719087 -0.1563853178624867 -0.0004655579468185736 
-0.3056464716453026 -0.9645068676421574 0.6665418163747789 0.08896213699209257 -0.07274487560771446 -0.3838856530350596 -0.3935067297419348 0.1774926017282103 0.2763365987691937 -0.1577020412869 -0.07744135486285234 
0 0 0.5827777133170381 -0.3800388012714956 0 -0.0007698161499990793 -0.1117628683280695 -0.09648261561625235 -0.09529598584639901 -1.084202172485504e-19 0 
-0.05301097341657226 -0.1752764521739698 0.4199684232713573 0.03036442833970886 1.734723475976807e-18 -0.0007698161499990793 -0.1516498519943657 -0.224744065939446 -0.161312931487909 -1.084202172485504e-19 0 
0 0 0.5827777133170381 -0.3800388012714956 0 -0.0007698161499990793 -0.1117628683280695 -0.09648261561625235 -0.09529598584639901 -1.084202172485504e-19 0 
0 0 0.5827777133170381 -0.3800388012714956 0 -0.0007698161499990793 -0.1117628683280695 -0.09648261561625235 -0.09529598584639901 -1.084202172485504e-19 0 
-0.002304760695282513 -0.3177258133201911 -0.2577637348461054 0.2928702202752286 0.09425469397134618 0.0329097187941605 0.1323838656299192 -0.009363499212101912 -0.0349281076149876 -0.0201213872905166 3.396758851266578e-08 
0 -0.113555426019448 0.3098892969003998 -0.1896352437007255 0 0 0 -0.009274161030134552 0 0 0 
-0.05833278080243937 0.3724217591549204 -0.1136504919133249 -0.4547379230019509 0.02175731466214863 0.06919670130719426 0.2938999946205562 0.01870296279144111 0.04348890785430438 -0.004402294013865475 0 
0 0 0.1503131944497146 -0.1963501100762506 0 0 -0.06542456738597423 0 0 0 0 
-0.4022808596595591 -0.3306329161066938 0.8300183860218794 1.168170370234795 -0.2638192798793018 -0.1651648662374071 -0.5975058424169674 -0.297565414178951 -0.188739137957514 -0.08293894482842414 -0.01241486777136309 
-0.04181131797944581 -0.6447085004233968 0.8017587235820741 -0.04085731210700783 -0.01790180430658042 -0.1211320762608135 -0.08744581265085061 5.421010862427522e-19 -0.1343233007096062 -0.01541472198398504 -0.007803878530525766 
0 -0.09204226612461976 0.3254883452852422 -0.1964947864906384 0 0 -0.06542456738597423 0 -0.009427350749258382 2.168404344971009e-19 0 
-0.1671686909286085 -0.8193059488575438 1.189171233635892 -0.314188478994454 0 4.336808689942018e-18 0.4382847518794219 -3.469446951953614e-18 2.168404344971009e-19 0 0 
0 0 0.1503131944497146 -0.1963501100762506 0 0 -0.06542456738597423 0 0 0 0 
0 0 0.1503131944497146 -0.1963501100762506 0 0 -0.06542456738597423 0 0 0 0 
0.009131849706126714 -0.1156626706544117 0.707716532302007 -0.5707603075352781 -0.04722602613637771 0.1852116423942025 -0.1045773999741202 -0.02890238766768442 -0.004706915068822433 -0.02803193004920429 -0.00213337247033087 
-0.0172017204431538 -0.3429133335821549 0.6673258906011039 -0.404805809616785 -0.1279925482077465 -0.01990798397357065 -0.06391517004825714 0.05562973030701945 -0.0358739824211738 -0.05210463860879863 -0.01395345830595474 
-0.0377613754286529 -0.1316700180099765 -0.02318654647934979 0.1703708065050559 -0.05175908004259952 0.009100524487339513 0.01943658037358434 -0.03936712616823563 0.03579311869405898 -0.02309583830789959 0.005973523988969501 
-1.734723475976807e-18 3.903127820947816e-18 -0.5711330842361672 0.8365015670265811 0 -0.03060390026223643 -0.01380865321029512 -0.03851946941442747 -0.1049193868769339 0 0 
-0.5003681098295194 -0.2760028537322063 0.1454352427587875 0.06239949507852641 -0.1538233875687664 -0.353987025947607 0.07688949675803051 0.6595143417097989 -0.07748446033397641 -0.1900902357587413 -0.07795888518023773 
0.2400634086905842 -0.338135298344221 0.07021837872040476 1.138359324817078 -0.1918222644216571 -0.1785693322873803 -0.151324540094794 -0.7015116262572437 -0.1316497010602765 -0.0442996366775287 0 
-1.734723475976807e-18 -0.06516966785137734 -0.8805306023056988 1.059217916765556 0 -0.03060390026223643 0.1351763088308272 -0.03851946941442747 -0.1049193868769339 0 0 
-1.734723475976807e-18 3.903127820947816e-18 -0.5711330842361672 0.8365015670265811 0 -0.03060390026223643 -0.01380865321029512 -0.03851946941442747 -0.1049193868769339 0 0 
-1.734723475976807e-18 3.903127820947816e-18 -0.5711330842361672 0.8365015670265811 0 -0.03060390026223643 -0.01380865321029512 -0.03851946941442747 -0.1049193868769339 0 0 
-1.734723475976807e-18 3.903127820947816e-18 -0.5711330842361672 0.8365015670265811 0 -0.03060390026223643 -0.01380865321029512 -0.03851946941442747 -0.1049193868769339 0 0 
0 0 -0.001365958016338064 0.04225440724129596 0 0.004600042335866575 0 0 0 0 0 
0.03919199508931691 -0.05749844688312236 -0.02158722520957468 0.06290940317537462 -0.00548588236134368 -0.01382046577593899 -0.1007635064030222 -0.01076231790087373 0 -0.02104790063045206 0.003248127350856553 
-0.09355632908575712 0.1344785882007214 0.01065608109306822 0.01381125342646887 -0.02991741982829459 0.04066358618839031 -0.07900080937407492 0.05108431742110235 -0.08852062521625248 0.1902577514480263 0.04921467745555352 
-0.01182794874461217 0.1422369313757323 -0.1989091192540188 0.04225440724129596 0 0 0 0.001079464938830937 0 0 0 
0 -0.1043123047050781 -0.4332199715287405 -0.2219069506524707 0 -0.03604584833238991 0.9554797964622435 -0.03097484683679061 -0.1004738170477599 0 -0.007086669828843244 
-0.2949850289668304 -0.01505992389937708 0.1279270792520412 -1.037530933220331 0.1581691874430649 0.2631534362101323 0.2804434571956887 0.5398007215426321 0.3237858547422547 0.4791483244709514 0.618880649457392 
0.2890236798202364 0.04301941998510633 -0.232722111049366 0.5963774961792049 -0.4286652736501094 -0.154708727369278 0.871224948167112 -0.4485938518359678 -0.3715402085931214 -0.1338509645383567 -0.08086319446151539 
-0.0288960489694907 -0.8316434199040663 -0.268724797957422 -0.5342452900284504 -0.3327321912137723 0.4973111576701485 0.3604870057751929 0.5621254049653814 0.4815406518911599 -0.2666882025280795 0.6951593126522628 
-0.4609204040986773 -0.1088923424603176 0.2620468384423076 -0.7247302207739514 -0.09927678472904075 -0.1188054406671119 1.428666397979018 -0.4186173128921932 -0.2919028438858339 -0.03668595671075892 -0.08086319446151539 
0 -0.1043123047050781 -0.963290720096233 -0.2443703428386067 0 -0.04541724910901257 1.469412238063102 -0.0460622461836717 -0.1288085267128565 0 -0.008891162686173831 
0 -0.1211121295786513 -0.9414839156568904 0.7403710618210421 -1.355252715606881e-18 -0.03604584833238994 0.3233301748989524 -0.03097484683679063 -0.1004738170477599 3.469446951953614e-18 -0.007086669828843244 
0 -0.1043123047050781 -0.4332199715287405 -0.2219069506524707 0 -0.03604584833238991 0.9554797964622435 -0.03097484683679061 -0.1004738170477599 0 -0.007086669828843244 
0 -0.1043123047050781 -0.4332199715287405 -0.2219069506524707 0 -0.03604584833238991 0.9554797964622435 -0.03097484683679061 -0.1004738170477599 0 -0.007086669828843244 
-0.008908541206725292 -0.325898042448562 -0.0099686670181428 0.3295543677174792 -0.09902073682868574 -0.006415437103879431 0.09875083763011989 0.09580761658861722 -0.01232527338603489 -0.0221869776837186 -0.01044646765652294 
0 0 0 -0.02804190449347298 0 0 0.009684554900554605 0.0256075608512706 0 0 0 
0 -0.02191423896871529 0.1081641207736647 1.734723475976807e-18 0 0 -0.04336068826568103 0 0 0 0 
0 0 0 0 0 0 0.009684554900554605 0 0 0 0 
-1.457078766758088 -0.2667744659758748 -0.00186100899138423 0 0 0 1.470583877530853 -0.2495742795237888 0 0 0 
0.3793217282751036 0.1077033463178092 -0.1034107981855054 0.5719964958374906 -0.4518955813752817 0.09791482370064117 -0.1548135349337338 -0.07819134127205492 -0.1262186244910722 0.2133510127006179 -0.132644743801806 
0.2367651424924863 0.3400285515069265 -0.6792143662017696 -1.384707811062037 -0.239128648621008 -0.01623885929295835 1.389873689509128 0.5021694843201093 -0.1320676781838656 -0.172848262510617 0 
0.5034305302126076 -0.9228377455644738 -0.7798064677210051 -0.9782846508875511 6.938893903907228e-18 -2.602085213965211e-18 0.7796002967916899 0.9841847308325994 -0.004302852065087579 -0.0909029100877832 0 
0.5034305302126076 -0.9228377455644738 -0.7798064677210051 -0.9782846508875511 6.938893903907228e-18 -2.602085213965211e-18 0.7796002967916899 0.9841847308325994 -0.004302852065087579 -0.0909029100877832 0 
-0.04412042705164079 0.4224884350493264 -0.3334411824766174 -0.02891348336207763 -0.04726627330146778 0.1192940414397818 0.01416387669565783 -0.05544411405719905 -0.02905904818625941 -0.01081794713213761 0.002714099062918306 
-0.1110885602511207 0.1781870746423669 0.1484774105604583 -0.05081564593421509 -0.08044428258793472 -0.01233808718763738 0.05342287651114804 -0.1028185600542506 -0.001910519366486708 -0.08466429755978297 -0.007154444405838555 
-0.1969325510182157 -0.04548643239474761 0 0 0 0 0.1619511778171865 -0.06026392553115351 0 0 0 
-0.01476183134845371 0.315285005657816 -0.3278276764821085 0.09596678291692477 0.1342991710810113 -0.08480351507026583 -0.05978155243646208 0.008103757971961369 0.1228292399546348 -0.05484266500917492 -0.02996311946319967 
0 -0.206358517223676 0 0.1243480014653009 0 0 0 0 0 0 0 
0.2817241924497213 0.4358937390929656 0.2256002527596924 -0.7450695108848104 -0.1885844582990329 0.2141250179634001 0.09036984540316037 -0.06299890429337496 -0.03666199241979752 -0.1203564282005355 0 
-8.673617379884035e-19 -0.05930672484843896 0.1649703689025698 0.03555871985509994 0 -0.009947124744870353 -0.1111357233518038 0 0 -0.002665792221062519 0 
0 -0.2085338563601147 -0.1898197528110208 0.6209352287930453 -5.204170427930421e-18 -0.006707348479643023 -0.1432515465273801 0 -0.0582650009222573 0 -0.002888595164070627 
0 0.03218167165089412 -0.5999220165951538 0.7670640889824354 0 -0.009947124744870353 -0.1111357233518038 0 0 0 0 
0 -0.6113755997183673 -1.734723475976807e-18 0.2995793471814935 0 0 -8.673617379884035e-19 0 0 0 0 
0 0.3571167652601018 -0.09127421753571878 -0.0211414595677656 0 0 -0.08491651858272292 0 0 0 0 
0.03469909948342034 -0.3366504904487084 -0.03398708715192999 0.1085098621055104 -0.006295525731551374 -0.0001333515662440843 0.1286259494780005 -0.07070769412404314 -0.01850060986960673 2.168404344971009e-19 0 
-0.3514342439166354 0.1680874710913706 -0.1039149386720461 0.03615166029070806 -0.2788870840415033 -0.2441223301664373 -0.4564199418475285 -0.2859344680044285 -0.1313550296333293 -0.1847507557111066 -0.2350540687398106 
0 -0.2318980384804347 -0.0355626607701388 0 0 -0.06768791012200734 0.3462587800216897 -0.03137965165771819 -0.03736954686434649 0 0 
-0.06113415950986442 0.0265649802951051 -0.447547372734539 -0.8919796406840456 -0.2849577810329343 0.1525610846154137 0.5422522097809491 0.2973297978534423 0.2944147274044302 0.1961046477446811 0.5996351694266939 
-0.03951021994206133 0.148450244075527 -0.4931011798954154 -0.2726234698756399 5.421010862427522e-18 -0.1346122825886069 0.6037245389410738 -0.1696575054431661 0.1663439629361471 0.4022269066048802 -0.03724278764337004 
-0.07809544613326289 0.5106839895458095 -0.2130301140291941 0.005124670616479881 0.5168838237924934 0.1884805270114157 0.0776652711385863 -0.2468398665127099 -0.2370404457341634 -0.01008238950087295 -7.589415207398531e-19 
0 -0.4463090379897403 -0.03556266077013884 0 5.421010862427522e-18 -0.06768791012200734 0.7262570181033088 -0.03137965165771816 -0.1129195515630282 -0.01979404283545817 -2.168404344971009e-19 
-0.06120609898107583 0.1033618078766307 0.4690169908375582 -0.4442481988946558 -0.4236115324584817 0.3003999167172817 0.2779584643671709 -0.07203136492343121 -0.151754415879274 1.084202172485504e-18 1.084202172485504e-19 
0 -0.4463090379897403 -0.03556266077013884 0 5.421010862427522e-18 -0.06768791012200734 0.7262570181033088 -0.03137965165771816 -0.1129195515630282 -0.01979404283545817 -2.168404344971009e-19 
0 2.707778615236948 -3.090772346795096 -0.8020238290095051 -0.1707878103193183 0.7124974731851967 1.135910679396353 -0.03137965165771818 -0.0373695468643465 0 0 
0 -0.2318980384804347 -0.03556266077013881 0 0 -0.06768791012200734 0.3462587800216897 -0.03137965165771819 -0.03736954686434649 0 0 
0 0 0 0 0.01207698245222297 0 0 0 0 0 0 
0 0 0 0 0.01760077293112186 0 0 0 0 0 0 
0.02916614958875983 0.8170042811838014 -1.127636340502391 0.186596917094082 0.03214534313869873 -0.08881778500867954 -0.0402309672237575 -0.0787762819560669 0.09674035838336485 -0.0633257796594883 -0.007946705398277663 
0 -0.06308860363254953 0.2000083835971543 -0.04652202014173275 0 0 -0.04247933247548259 0 0 0 0 
-0.7693613544837311 0.4312055835005095 -0.03620958044596861 -0.3760833310907891 -0.06374427809391381 -1.561251128379126e-17 0.838927670096367 -0.1620533047583763 0.1820202806769278 -0.05454453764178523 0 
8.673617379884035e-19 0.2911105834295586 0.4827815954684126 -0.352148347104686 -0.01901447268930876 8.673617379884035e-19 -0.2781602562156157 -0.1404474393328549 -0.02542322013816188 -0.04139844278573203 0 
0.8350809498108503 0.2246171825067927 -0.1644760326887484 0.6322548736142305 -0.3293884889210686 -0.03590328670216625 -0.4352848275326942 -0.02997653894377483 -0.07344808328730267 -0.09716500782759785 0 
0 -0.06308860363254953 0.3346761942428732 -0.08096885529101407 0 0 -0.04247933247548259 0 -0.0001745359180419699 0 0 
-8.673617379884035e-19 -0.2399360037330139 0.9826922282543561 -0.422659881584445 -0.04710561811111891 -8.673617379884035e-19 -0.0424793324754826 0 0 0 0 
0 -0.06308860363254953 0.3346761942428732 -0.08096885529101407 0 0 -0.04247933247548259 0 -0.0001745359180419699 0 0 
-8.673617379884035e-19 -0.2399360037330139 0.9826922282543561 -0.422659881584445 -0.04710561811111891 -8.673617379884035e-19 -0.0424793324754826 0 0 0 0 
0 -0.02103648473437069 0.0629314340037764 0 0 0 -0.006514634910782572 0 0 0 0 
-0.133031134095021 -0.8037445707770979 1.267134020835118 -0.7913405456590641 -0.01929750159107285 -0.3556650498383808 -0.4221587189716757 -0.001855373978176212 -0.1917099097389148 -0.06350804710090263 -0.04705804816631282 
-0.1356004204797346 -0.177436608988131 -0.4671146024070658 -0.1393822190648718 1.076762158737205 -0.1536671512320278 -0.3851019310881973 -0.1050468131569635 -0.0460329686999858 -0.01981774116213839 0 
0.592399530299846 -0.082550976849446 -1.149870250696497 -0.2167237094642609 0.2845745003377868 0.1598599895678718 0.8122220557003573 0.2528898544063055 0.1159900791621211 0.3452572171481239 -1.301042606982605e-18 
0.5689086557343905 -0.04071951156892743 -0.630145973714061 -0.9756650010332765 0.7775986804281467 0.9666083882598511 0.04745865689616099 0.2206503637672952 -0.3040294348599152 -0.2084868014054152 -4.336808689942018e-19 
-0.231581702268837 -0.4721016204497372 -0.06879703732743896 -0.5164620373060853 0.6459668954642269 -0.2423437068830587 0.8956949924375992 -0.1965725628555811 -0.09938505870111103 -0.1209133903623787 0 
-0.1356004204797346 -0.21194376713686 -0.03695092096238371 -0.1641114664441145 0.948141166716579 -0.1632014319374834 -0.3851019310881973 -0.1050468131569635 -0.0460329686999858 -0.01981774116213839 0 
-0.1356004204797346 -0.177436608988131 -0.4671146024070658 -0.1393822190648718 1.076762158737205 -0.1536671512320278 -0.3851019310881973 -0.1050468131569635 -0.0460329686999858 -0.01981774116213839 0 
-0.1356004204797346 -0.177436608988131 -0.4671146024070658 -0.1393822190648718 1.076762158737205 -0.1536671512320278 -0.3851019310881973 -0.1050468131569635 -0.0460329686999858 -0.01981774116213839 0 
-0.1356004204797346 -0.177436608988131 -0.4671146024070658 -0.1393822190648718 1.076762158737205 -0.1536671512320278 -0.3851019310881973 -0.1050468131569635 -0.0460329686999858 -0.01981774116213839 0 
-0.1356004204797346 -0.177436608988131 -0.4671146024070658 -0.1393822190648718 1.076762158737205 -0.1536671512320278 -0.3851019310881973 -0.1050468131569635 -0.0460329686999858 -0.01981774116213839 0 
0 0 0 0 0 0 0 0 0 0 0 
0 0 0 0 0 0 0 0 0 0 0 
0.06076262646101957 -0.1221381507623697 0.9909374056581719 -0.7669396925613232 -0.2725500197224591 -0.08025078937483782 -0.7236878582096817 0.1362657918421472 -0.1916074094601072 0.06573348691250229 -2.168404344971009e-19 
0 0 0 0 0 0 0 -0.001183681192291077 0 0 0 
0 0 0 0 0 0 0 -0.001183681192291077 0 0 0 
0 0 0 0 0 0 0 -0.005630973009168531 0 0 0 
0 -0.2192677930974141 -0.3865198914816926 0 0 0 0.5798877381596658 0 0 0 0 
-0.2472151779816982 0.1591151517216113 0.3715805612940728 0.6097679638745082 -0.4053072807119045 -0.2372269248817393 0.01370508056608191 -0.1015713876167234 -0.0413276294951209 -0.1226099711954132 0 
-0.1057447670776267 -0.750857520146869 -0.07084270760485763 0.8711137676002784 0.2130194542416956 -0.09781411982625225 0.7512807399927258 -0.3436280249832164 -0.03057980841790048 -0.07328557847091366 0 
-0.2355141739638348 0.4980941114211236 0.4347468242538582 -0.6526088534215067 -2.42861286636753e-17 -0.1193537451031905 0.06914942000476754 -0.07213196718408392 -0.01061405428692334 -0.1226099711954132 0 
-0.09120650049493724 -0.2453097827182908 0.08596507516009171 -0.4849312414975312 0.3185886751579712 -0.09781411982625225 1.003317932112249 -0.2997459213911656 -0.03057980841790049 -0.06511439537129056 0 
0 -0.5169582435156015 0.4268213990308869 -0.4451224006647194 0 0 0.5798877381596658 0 0 0 0 
0 0.321296719376392 -0.7210153462966116 0 -0.0140652104411329 0 0.5201327970480777 0 0 0 0 
0.09752765438534923 -0.03664452833818785 0.2447126779586082 -0.2344837844300178 -0.05598931574944661 0.04415155437659311 -0.1546927355551843 0.01155862779316623 -0.09705410644251231 -0.008021120007643604 -0.0130698736470278 
-0.04236548223732726 -0.1259144498880115 -0.3865198914816926 0 0 0 0.5131506306901452 0 0 0 0 
0.03764982438800997 0.3947535641032064 -0.6758685762064918 0.04051586256360587 -0.1163936345576559 -0.01597065675868907 0.2851653802229028 0.1552249184421396 -0.006572323186611748 0.1163169149417192 -0.0008612176889412976 
0 0 0.1353807134899358 0 0 0 -0.1225882051579473 -0.06642293174261146 0 -0.02628829248164505 -0.0524450372430733 
-0.2609576707734711 -0.2491642695574156 1.074452240667765 -0.7236737792396458 -0.1444467889518951 -0.08716367270711643 -0.2066321648271283 0.1128740501794137 -0.06736842654355994 0.8659928075732809 -0.0524450372430733 
-1.431146867680866e-17 -0.2767532744608139 0.5006725561017158 -0.8740397687125808 -0.046525451639881 -0.1867379499248202 -0.4204411163561118 0.3904087758173313 -0.1841949044535539 -0.0744967399956048 0.7778522299467481 
-0.0544437423303589 -0.1576356131611102 0.5783633087879521 -0.03876962883817428 0 0 -0.2057445043202105 -0.06642293174261149 0 -0.06211380983182787 -0.0524450372430733 
0 0 0.1353807134899358 0 0 0 -0.1225882051579473 -0.06642293174261146 0 -0.02628829248164505 -0.0524450372430733 
-0.0544437423303589 -0.1576356131611102 0.5783633087879521 -0.03876962883817428 0 0 -0.2057445043202105 -0.06642293174261149 0 -0.06211380983182787 -0.0524450372430733 
0 0 0.01409712079632676 0 0 0 -0.04017219651000084 -0.03664715910393073 0 -0.01469454439803528 -0.02873911448261809 
-0.159004613680206 -0.3293468374801178 0.7788547222600729 -0.5886726692941124 0.1290568474993272 -0.04767380518972737 -0.3103266856581323 -0.04866864967185489 -0.02973361090863564 -0.08606098003751446 -0.02873911448261809 
0 0 0.01409712079632676 0 0 0 -0.04017219651000084 -0.03664715910393073 0 -0.01469454439803528 -0.02873911448261809 
0.9852061951149028 -0.2219127994088596 -0.4698214032597024 -0.0972778296655592 1.517883041479706e-18 -0.3268910553996036 -0.02124463729353286 -0.1084513184346403 -0.00315361538289922 0 0 
0.6724932830427858 -0.07333758283128769 -0.07249954898150726 -0.9573268158865886 0.3121069696405065 0.1514809693125517 -0.07092191323645913 -0.3062586652487304 0.9245194963807661 0.08600417106703445 8.673617379884035e-19 
1.399887489351936 0.03561784519021207 -0.2541250611440279 0.3244062112603676 -0.2541439625213563 -0.4340653405034637 -0.1585148164486634 0.467873415820382 -0.626320987451462 -0.08476868687016913 0 
0.1150499254645731 0.146290467304141 0.3071561721075154 0.1634475847994132 -0.08359710040996425 0.2714305333838254 0.004538101870722279 -0.3011831905298861 -0.00315361538289922 -0.01848819528952562 0 
1.244505163101769 -0.2219127994088596 -0.5953169816318683 -0.0972778296655592 -0.01102174599913634 -0.3524358639556655 -0.04431166360961626 -0.2324504423718739 -0.02479879065196013 -1.301042606982605e-18 0 
0.9852061951149028 -0.2219127994088596 -0.4698214032597024 -0.0972778296655592 1.517883041479706e-18 -0.3268910553996036 -0.02124463729353286 -0.1084513184346403 -0.00315361538289922 0 0 
1.244505163101769 -0.2219127994088596 -0.5953169816318683 -0.0972778296655592 -0.01102174599913634 -0.3524358639556655 -0.04431166360961626 -0.2324504423718739 -0.02479879065196013 -1.301042606982605e-18 0 
0.006414596807043042 0 0 0 0 -0.01958976136860251 0 -0.004925796147770042 0 0 0 
0.009963574130753206 0 0 0 0 -0.01958976136860251 0 -0.004925796147770042 0 0 0 
0.009963574130753206 0 0 0 0 -0.01958976136860251 0 -0.004925796147770042 0 0 0 
-0.1394055263335009 0.1924088969121614 0.02200199130437046 -0.09907714759992148 -0.03065959043347417 0.05598842189481443 0.1151598922591017 -0.04682811368878154 -0.06630448543996265 -0.004999353379853418 0.01102730914050899 
0 0 0 0.01879169077082576 0 0 0 0 0 0 0 
8.673617379884035e-19 -0.4878507297513296 0.8123375568429694 0.1898433159004806 -0.3999284454632269 -0.03158522209766624 0.07407503137827651 0 -0.008306598817375475 -0.005826802271433776 0 
0 0.2959306655302906 0.01903818322591191 -0.1276947180162068 -0.1812512375327419 -0.03158522209766624 0.1347843430844672 0 -0.007822239965033236 -0.005826802271433776 0 
0 -0.2587261056544823 0.1909730817192422 0.2588287581602169 1.301042606982605e-18 0 -0.1117919864331342 0 0 0 0 
-0.03820119512373547 0.08032025338128898 -0.1983865499074952 0.3232190154935001 -0.03837502082003728 -0.04168851342578108 0.03448523889319412 -0.02958173565376799 0 -4.336808689942018e-19 0 
0 0 0 0.01879169077082576 0 0 0 0 0 0 0 
-0.09557041518239 -0.5565900253640007 -0.3951032663091577 0.9210447646050238 0.03236514731183567 0.1592853847439362 0.03053079719051144 -0.5020259340530973 -0.07555165879642929 -0.1381367660984877 -0.04666912140334789 
-0.006177609539110454 0.1145162928528386 0.02729394622308462 -0.212789743885073 -0.001898850543603237 -0.1111159508344964 0.1250548659686341 -0.08594805250454057 -0.01364955413472539 0.1418496381632149 -0.01702443260428505 
-6.938893903907228e-18 -0.1030779574365635 -0.4729658052058506 -0.6429834139400853 -0.08437417376964035 -0.03508715784461043 -0.03942341121112716 0.9334145611078467 -0.001655874702518937 -0.03770302476863165 -3.672734859294646e-18 
-0.05690244815524526 -0.3870051261538549 -1.158246240555217 -0.9078377870619807 -0.09084606422643771 -0.05510577616174994 -0.05115441411670909 2.34906183127099 -0.0662822201664315 -0.03770302476863165 -3.672734859294646e-18 
-0.04994575752686284 -0.8973150967309694 0.1385860177236229 0.9982416550067734 -0.3924269540717937 -0.1934249453664869 -0.3022902301460622 0.6034275491233356 0.3574108271215902 -0.2658228068573812 -0.01628009246690688 
-6.938893903907228e-18 -0.1030779574365635 -0.4729658052058506 -0.6429834139400853 -0.08437417376964035 -0.03508715784461043 -0.03942341121112716 0.9334145611078467 -0.001655874702518937 -0.03770302476863165 -3.672734859294646e-18 
-6.938893903907228e-18 -0.1030779574365635 -0.4729658052058506 -0.6429834139400853 -0.08437417376964035 -0.03508715784461043 -0.03942341121112716 0.9334145611078467 -0.001655874702518937 -0.03770302476863165 -3.672734859294646e-18 
-6.938893903907228e-18 -0.1030779574365635 -0.4729658052058506 -0.6429834139400853 -0.08437417376964035 -0.03508715784461043 -0.03942341121112716 0.9334145611078467 -0.001655874702518937 -0.03770302476863165 -3.672734859294646e-18 
-6.938893903907228e-18 -0.1030779574365635 -0.4729658052058506 -0.6429834139400853 -0.08437417376964035 -0.03508715784461043 -0.03942341121112716 0.9334145611078467 -0.001655874702518937 -0.03770302476863165 -3.672734859294646e-18 
0 0 0 0 0 0 0 0.005980447556789967 0 0 0 
-0.01434210529963357 -0.1005889647938318 -0.2873001839007859 0.4393461556286454 -0.01812980262091298 -0.0651509940145715 -0.0233372400701245 0.01108780890223931 2.602085213965211e-18 0.009343724292540422 0 
-0.1320250989491845 -0.0678364067762135 0.2038589679953904 -0.1656191196848576 -0.2322938306534426 0.2580145231706543 0.2331922783082462 -0.1005823952327864 0.06367717448329155 -0.02690985091746852 -0.03113239858974357 
0.06565814654737764 -0.03244390947358189 0.148898707923208 -0.2305862778978034 -0.07776245803286903 0.012839277939254 -0.06602265282757951 0.06732056027928313 0.1036745830185192 0.06767714713458382 -0.05398020132522253 
-0.1236770990316845 -0.137839554401968 -0.3933806827640312 -0.2269312137281093 -0.1277358631272825 -0.09089275661205298 -0.0828941483492575 0.7973939600683512 -0.08876668504456307 -0.1606334472150099 0 
-0.2747077958913234 -0.3406274356101151 -0.4966137575792937 -0.1851879646482637 0.2535848426097119 0.2170277772548148 -0.2739401221294961 1.060229668695129 -0.3661533095541549 0.2193674117495595 -0.04160797495838441 
0.318026535662799 -0.1918733404838509 -0.5105755585108532 -0.255764979814452 -0.1816470694083397 -0.09089275661205298 -0.2156771513739167 0.5445705394945133 -0.1281200909482212 0.4973039242137895 0 
-0.1236770990316845 -0.137839554401968 -0.3933806827640312 -0.2269312137281093 -0.1277358631272825 -0.09089275661205298 -0.0828941483492575 0.7973939600683512 -0.08876668504456307 -0.1606334472150099 0 
-0.1236770990316845 -0.137839554401968 -0.3933806827640312 -0.2269312137281093 -0.1277358631272825 -0.09089275661205298 -0.0828941483492575 0.7973939600683512 -0.08876668504456307 -0.1606334472150099 0 
-0.1236770990316845 -0.137839554401968 -0.3933806827640312 -0.2269312137281093 -0.1277358631272825 -0.09089275661205298 -0.0828941483492575 0.7973939600683512 -0.08876668504456307 -0.1606334472150099 0 
-0.1236770990316845 -0.137839554401968 -0.3933806827640312 -0.2269312137281093 -0.1277358631272825 -0.09089275661205298 -0.0828941483492575 0.7973939600683512 -0.08876668504456307 -0.1606334472150099 0 
-0.1236770990316845 -0.137839554401968 -0.3933806827640312 -0.2269312137281093 -0.1277358631272825 -0.09089275661205298 -0.0828941483492575 0.7973939600683512 -0.08876668504456307 -0.1606334472150099 0 
-0.1236770990316845 -0.137839554401968 -0.3933806827640312 -0.2269312137281093 -0.1277358631272825 -0.09089275661205298 -0.0828941483492575 0.7973939600683512 -0.08876668504456307 -0.1606334472150099 0 
-0.01048685728933205 0.1540824821966039 -0.6608418427090545 0.3833190679144329 0.03968547163478795 0.039174017392738 0.2233763878482488 -0.03099868618719109 -0.04181939246871087 -0.06582210400905787 0.03128829714517208 
0 0 0 0 0 0 0 0 0 0 0 
-0.08587895718575998 -0.1812800709211761 -0.4830427142756532 0.3039677044179554 -0.06315765681603978 0.05057974752225559 0.1205225672746498 0.2367243335745009 -0.03239781065079964 -0.03614574496140344 -0.003089086958465382 
0.004815362924890077 -0.2815644895929119 0.33903268262215 0.05231042624327188 -0.1352737920573729 -0.04412960386355049 -0.1904376793729297 -0.06839951865514694 0.2629005496800658 -0.01675944461941172 -0.03291032020612109 
8.673617379884035e-18 -0.03935769341481351 -0.7017675561236791 0.8219089353476688 -5.854691731421724e-18 8.673617379884035e-19 -5.898059818321144e-17 -0.1612324493934776 -4.336808689942018e-19 -0.02913456278968066 0 
-0.2502291611762191 -0.01793703181552683 -0.4821013153849626 0.6697373656661189 0.3122109951152098 -0.05799809417185509 -0.3961880202773315 0.6400134765043517 -0.1753887778298496 0.4717508188699266 0 
1.734723475976807e-18 -0.3090788592171356 -0.8722264963832758 1.207594902727416 -4.98732999343332e-18 8.673617379884035e-19 -7.28583859910259e-17 -0.1899060683587405 -4.336808689942018e-19 -0.02913456278968066 0 
-0.03830506727505651 0.002904628380875773 0.2675404577730255 0.267630221902116 -0.03852596015777509 -0.003732321547532597 -0.09239146258180392 -0.5001829028016918 -0.03999841385865548 -0.1267018802942496 0 
8.673617379884035e-18 -0.2916179759368916 -0.8342673638777888 1.145283546755254 -5.854691731421724e-18 8.673617379884035e-19 -7.28583859910259e-17 -0.1612324493934776 -4.336808689942018e-19 -0.02913456278968066 0 
8.673617379884035e-18 -0.03935769341481351 -0.7017675561236791 0.8219089353476688 -5.854691731421724e-18 8.673617379884035e-19 -5.898059818321144e-17 -0.1612324493934776 -4.336808689942018e-19 -0.02913456278968066 0 
-0.1771840810958497 -1.03212281619297 -0.7270279385308803 1.63533688855559 -0.2992311957102542 -0.241850391470022 -0.1702312778827385 -0.1252067347505728 -0.1509974992815031 -0.1049213669995475 -0.1202787511406278 
0.05160252127845336 0.157781454012288 -0.1042163228011057 0.08873590630755601 -0.06089446544090963 0.09306250243176666 -0.04868877709510008 -0.02501630301072032 -0.0101466673209806 -0.07331253781437522 0.03314938134286955 
-0.09521862995035159 -0.3274635842484809 -0.05621192007724142 0.2737221778896014 -0.04162426902318788 -0.03075999409470082 0.1195386528681395 0.2561936166674265 -0.0008296965447408314 -0.05638482695318641 0.01739315252048462 
0.02630967667638778 -0.2876498537728208 0.3086213493049453 -0.4212786398348168 0.006543830317568591 -0.03582381226545298 0.3781413034625893 0.01289237207710908 8.673617379884035e-19 -0.05265101871902416 0.01645892881826235 
7.209944447028604e-18 -0.4619594025235172 -0.2316339893728982 1.314931292552925 -0.5288111178488225 -0.1566631349020469 -0.0875484632763652 0 -0.08268538050880113 -0.05127071566020652 0 
-0.334490032382151 -0.2783345481766845 -0.9989746846638993 0.3162885308860734 0.8114891630679064 0.5682931243029142 0.2725016175329009 -0.096952147870297 -0.2202459631105014 -0.06410431972943338 -2.168404344971009e-18 
-0.7443893884757122 0.5200947947148713 -1.681434428568148 0.7507625150598187 -0.2033941624982226 0.3302974388576144 0.7254419924576023 -0.2815842359036418 0.4243176735714754 0.7154101933848318 2.710505431213761e-19 
7.209944447028604e-18 -0.4619594025235169 0.02727841940430008 1.172297405146955 -0.5288111178488225 -0.1566631349020469 -0.0875484632763652 0 -0.08268538050880113 -0.05127071566020652 0 
5.204170427930421e-18 0.5189829633368407 -0.3763718461816614 -0.08541965651523775 0.8217870919328476 -0.3618091527018773 -0.7188627185274181 0 -0.2179694425796165 0.2662832383966389 0 
7.209944447028604e-18 -0.4619594025235172 -0.2316339893728982 1.314931292552925 -0.5288111178488225 -0.1566631349020469 -0.0875484632763652 0 -0.08268538050880113 -0.05127071566020652 0 
7.209944447028604e-18 -0.4619594025235172 -0.2316339893728982 1.314931292552925 -0.5288111178488225 -0.1566631349020469 -0.0875484632763652 0 -0.08268538050880113 -0.05127071566020652 0 
0.1024866477427634 -0.7751083571377638 -0.6588983359807772 1.032508959921602 -0.2435487946832856 -0.107107491314325 -0.1690215189505551 -0.0262957263448954 -0.01384137649333812 -0.07962052726106442 -0.02196821021951368 
-0.01282066736635428 0.1957547676977587 -0.656032887221771 0.3714973480353412 -0.0235983065136715 -0.08266940547822077 0.1132209497157868 -0.00515305686072486 0.08532745954731676 -0.211149887881462 0.03057911105405915 
-0.005147837668518312 -0.02475026199273934 0.2728240248488105 -0.2225934181341108 -0.04499684365606077 -0.0018544209931191 0.01683435302884104 0.05148030910065134 0 -0.006205005639274001 0.02033823404348467 
-0.01005100488364587 -0.1211709469986711 0.01903342016563379 0.09766751179423744 -0.01447382092372498 -0.02456178171097669 0.007576780850567956 0.00724314999797797 0.006533690469634059 0 0 
0 -0.2693551248785948 0 0.1732985969428813 0 -1.734723475976807e-18 -0.007084693153890063 0 0 0 0 
-0.009503655493516529 -0.3536144653479318 -0.7001930136627474 1.18367393946766 -0.05823668573192479 -0.1478209763354938 -0.06252344368671768 8.673617379884035e-19 0 0 0 
-5.421010862427522e-20 -0.1496155008425418 -0.4125442674492431 0.6789558070676897 -0.1571961441547829 -0.1830501815473575 -0.08293903803094352 0 0 1.734723475976807e-18 0 
0 -0.2693551248785948 0 0.1732985969428813 0 -1.734723475976807e-18 -0.007084693153890063 0 0 0 0 
0 -0.2693551248785948 0 0.1732985969428813 0 -1.734723475976807e-18 -0.007084693153890063 0 0 0 0 
0.02846774248743304 0.2340361752241231 -0.6174329690360817 0.4030991928493381 -0.01041107720046846 -0.07355942507949378 0.1077559492676077 -0.0126620759597385 0.1028861268076461 -0.111226415959024 -0.006148589346700553 
0.08664918507590684 -0.2227061095874366 0.03250736101186905 0.2584963551955857 -0.1427609520700601 -0.02580289714654651 -0.1052479502053911 0.04173594798449563 0.07447484400874585 -0.04634799993269358 0.0007583925946431512 
0 -0.001454220430139603 -0.008003794824078538 -0.03248533041831272 0.01772890689117446 0.01945952468578855 0.006984482346883699 0.02903904775195464 0 0 0 
1.137522185830364 -2.818925648462312e-18 -0.913589273790927 -0.1505914805057386 -0.1682414220022304 3.252606517456513e-19 -0.01309716391118552 0 -0.05773583856170002 -0.003496942959513705 0 
0.7827846937883428 -1.124259357441046 1.074127893191689 0.3385526452513747 -0.3659460112597697 -0.2031671273978475 -0.03518912654800256 -0.4179039598295611 -0.1020125633747229 -0.06008915394385844 -2.602085213965211e-18 
0.4564451609431618 -0.893958872371416 0.5941217337979706 -0.6766838245081457 0.8730400134506207 -0.1556528626189634 0.274305015024903 -0.364261888968035 -0.6283234477416412 0.511577324310529 0 
1.031846078900825 -0.5631770345755214 -0.04774475215434445 -0.4252546888793968 -0.1856756268709472 3.252606517456513e-19 -0.01309716391118552 0 -0.06326493316649265 -0.003496942959513705 0 
1.536978093282478 -2.818925648462312e-18 -1.162643747855516 -0.1505914805057386 -0.2707440308814174 -0.05963725577607826 -0.01831250256879752 0 -0.1607043593166225 -0.01231920644200146 0 
1.137522185830364 -2.818925648462312e-18 -0.913589273790927 -0.1505914805057386 -0.1682414220022304 3.252606517456513e-19 -0.01309716391118552 0 -0.05773583856170002 -0.003496942959513705 0 
1.137522185830364 -2.818925648462312e-18 -0.913589273790927 -0.1505914805057386 -0.1682414220022304 3.252606517456513e-19 -0.01309716391118552 0 -0.05773583856170002 -0.003496942959513705 0 
0.03586322780110885 0.09260207477712161 -0.2127488318741863 0.09149765608162869 -0.004382622942297152 -0.06515665613020984 0.147933649361168 0.0002562144469970143 -0.006662037803615697 -0.003181595042951276 0 
0.03864099785954862 0.3129427139384419 -0.3184455934973273 -0.247724328011744 0.0771588053093607 -0.0429229288556229 0.2027223583211285 -0.03023572004654814 -0.02558617281350151 0.1084522832744788 0 
-0.02277120382604767 -0.1370526490255246 -0.06897621882641544 0.2233621613048398 -0.07916393634382748 -0.03243353344575423 0.1430961494043486 -0.02904373990058872 -0.06013417372884168 0.3221256756831086 -0.005112261989726172 
0 0.2493697491035891 0.187285950075006 -0.1808063210747342 0.004980395679763389 0 -0.09701943520115287 0.004264814864793229 -0.0373294332251011 -0.009919781202831136 0 
0.02597561421588318 0.6701897078430289 -0.2911027797858243 -0.08177661393806646 0.005879908184612925 0.002337372377078447 -0.4829856195233313 -0.01601527384560723 0 0 0 
-0.03122623218699738 -0.2675759704960379 -0.478990633631492 0.4521028675306907 0.4191451831421109 -0.09441043786160938 -0.01413418509172278 -0.09968699106489683 0.02489457777047724 -0.07278616553667133 -0.01230697599928455 
-0.04809965553728804 -0.08520321488447348 -0.03653691445946686 0.03103513369063764 -0.1862579591507988 0.2020732304497546 0.1001727118819774 -0.01748942450189475 0.09441792405328542 0 -0.003154766138840904 
-0.02778756273296246 -0.2450330396982282 -0.6224921233392875 -0.2421295708975586 -0.01017379047222373 -1.734723475976807e-18 -0.08251504923102672 0.9375644048920658 -2.168404344971009e-18 -0.005071981556073667 0 
0.5532530933744518 -0.4548665078259403 0.5102050328647164 -0.05147034708724108 -0.3428975083334936 -0.2048465205857734 -0.7351747076620645 0.6154897661605556 0.1411343993425217 -0.170522168328932 -2.352718714293545e-17 
-0.2261477872826813 -0.1258144235834703 -0.843382646703693 -0.355607230875421 -0.01026946402451385 -1.734723475976807e-18 -0.08251504923102675 1.389646819366525 -0.03967879778641689 -0.005071981556073667 0 
-0.06811759650749794 -0.436736264433966 0.4743847102529737 -0.2650299131537223 -0.05598860649839124 -5.204170427930421e-18 -0.3782216784768586 0.7704294399607567 -0.04799111836580582 -0.005071981556073667 0 
-0.02778756273296246 -0.2450330396982282 -0.6224921233392875 -0.2421295708975586 -0.01017379047222373 -1.734723475976807e-18 -0.08251504923102672 0.9375644048920658 -2.168404344971009e-18 -0.005071981556073667 0 
-0.02778756273296246 -0.2450330396982282 -0.6224921233392875 -0.2421295708975586 -0.01017379047222373 -1.734723475976807e-18 -0.08251504923102672 0.9375644048920658 -2.168404344971009e-18 -0.005071981556073667 0 
-0.02778756273296246 -0.2450330396982282 -0.6224921233392875 -0.2421295708975586 -0.01017379047222373 -1.734723475976807e-18 -0.08251504923102672 0.9375644048920658 -2.168404344971009e-18 -0.005071981556073667 0 
-0.02778756273296246 -0.2450330396982282 -0.6224921233392875 -0.2421295708975586 -0.01017379047222373 -1.734723475976807e-18 -0.08251504923102672 0.9375644048920658 -2.168404344971009e-18 -0.005071981556073667 0 
-0.001395189199902446 -1.626303258728257e-18 1.734723475976807e-18 1.734723475976807e-18 -0.01653756846372601 -0.01974055563600187 0.09468887934657799 0.003846591099485462 0 0 0 
-2.710505431213761e-18 0.2609284080397342 -0.2621056597623044 -0.06801392286415849 0 0 -0.04158712228933905 0.1180320579376172 -0.0213238800001883 -0.002249130164966195 -0.000626823276297686 
0.1281603907783929 0.07503071487640822 -0.05655389646008425 -0.1471700701272105 0.2822140799058637 -0.05957785100516547 0.04632553034675936 -0.03049628777609966 -0.1003960504554359 -0.09402952909969178 0.0001684997764187789 
0 -0.4843582954318116 0.8537012993262285 -0.3594988767436651 -0.1110443879156375 -0.01217053818064644 0 0 0 1.734723475976807e-18 0 
0.3304659945861967 -0.03704457536314166 0.1736441844213333 0.1343355591802194 0.2014714544313781 -0.3276461587508838 -0.206016409704851 -0.5787953232121312 -0.01300403524906815 0.6637395591137579 -0.09671853372631517 
-0.06615601993814375 0.8860456345520845 -0.2419019003664179 -0.7399565219186427 0.896418303250365 -0.01856019428001549 -0.4696444910958227 -0.1200686197710158 -0.07893084586281124 -0.2595980633704817 0 
-0.4077131679611724 -0.7559030188282846 1.006637671502223 -0.385413919165186 0.3904879213055094 0.9646913734558352 0.06854786423121248 -0.3852724306637457 -0.05353080627690288 -0.2769417502562642 0 
-0.01968651545756729 0.2139351736334275 1.003917534536741 -0.7268310685134108 -0.130158066699245 -0.01217053818064644 -0.4698918993332569 0 0 -0.02785009557200017 0 
0 -0.7845041082699284 0.05473492563432581 0.9046592096270624 -0.1375909760419447 -0.1398121192964575 -0.09981966170849108 0 0 1.626303258728257e-18 0 
-0.01968651545756729 -0.07775138580407931 1.05738056377321 -0.4488831783337883 -0.1301580666992451 -0.01217053818064644 -0.4698918993332569 0 0 3.469446951953614e-18 0 
0 -0.4843582954318116 0.8537012993262285 -0.3594988767436651 -0.1110443879156375 -0.01217053818064644 0 0 0 1.734723475976807e-18 0 
-0.1149996876384098 -0.07412892443664813 1.518077534006505 -0.9500053577993566 -0.3141236737320145 -0.2013310142424882 -0.7724973322904783 -0.3401230112969085 -0.04345643841147663 0.08700846158682315 0 
-0.2554642858283657 0.1277678334108378 0.4088380233532284 -0.25392613080674 -0.2358610299450732 -0.1667479907060936 0.06749282463972509 -0.0178222237388113 0.04240229646228583 -0.1637872351452152 -0.02240759077131054 
-0.2164200745303546 -0.3026591609806771 -0.9218046451729189 -0.4437205627524345 -0.06419401715173362 1.49880900650024 -0.04573115478303241 -0.09579860085896123 -8.673617379884035e-19 0 4.336808689942018e-19 
1.336429100758719 -0.3729950368607717 -0.2915992645321004 -0.9110268528957741 -0.4084576015141321 0.6152860761444781 -0.7496794601865743 1.048383976905437 -0.007615418017378835 -0.09175774945196102 1.490777987167569e-19 
-0.2164200745303546 -0.3026591609806771 -0.9218046451729189 -0.4437205627524345 -0.06419401715173362 1.49880900650024 -0.04573115478303241 -0.09579860085896123 -8.673617379884035e-19 0 4.336808689942018e-19 
-0.2164200745303546 -0.3362213143590632 0.6638953136714364 -0.4170866313562938 -0.4881768396213493 0.5574627196477586 -0.08837040104956764 -0.09579860085896121 -0.003459231596692406 -5.204170427930421e-18 3.252606517456513e-19 
-0.2164200745303546 -0.3026591609806771 -0.9218046451729189 -0.4437205627524345 -0.06419401715173362 1.49880900650024 -0.04573115478303241 -0.09579860085896123 -8.673617379884035e-19 0 4.336808689942018e-19 
-0.2164200745303546 -0.3026591609806771 -0.9218046451729189 -0.4437205627524345 -0.06419401715173362 1.49880900650024 -0.04573115478303241 -0.09579860085896123 -8.673617379884035e-19 0 4.336808689942018e-19 
0.09901568101578409 -0.004612884291768448 -0.1379380128079358 -0.01588392576556598 -0.009016330064566473 0.008491329003852268 0.04227348248679186 0.1128999146158611 -0.02774068243298716 -0.01081100818916019 0 
-0.09237117405686714 -0.1834922964222091 0.4104252943031116 -0.3595595570769116 0.08933838694345127 0.198385142467514 -0.2688179120265442 -0.1070771522967905 0.178724265905554 0.01227815035503078 0.01286659710518766 
0 0 0 0.020246960287547 -0.01310036701390114 -0.01818905698686889 -0.01084918327515506 -0.008107335036480786 -0.00947899101987836 0 0 
-0.02640511198946012 0.1460772280337036 -0.3735949074325976 0.5398497894327682 0.03796140706193141 -0.1385100349149204 0.01454912392853373 0.01788179516345865 0.03627809359992039 -0.09359409834125409 0.02959093019353443 
-0.001993374926584213 -0.1007118860074867 -0.1173999020615236 0.124908530061747 -0.0180681473638806 -0.01156548950638527 0.01802952920850317 0.151786566674419 0 -0.01870408978988415 0.004433520890085246 
0.01518578436480973 0.06975174789279329 -0.09099474597277622 0 0 0 0 -0.006616681303737491 0 0 0 
0 0 0 0 0 0 0 -4.336808689942018e-19 0 0 0.0006593619145644551 
0 -0.1022492208158927 0.9916429952351504 0 0 0 -0.9175887944225802 0 0 0 0 
-0.1344768693872242 0.1560035354874501 0.3982532168395417 -0.09067823243569557 -0.1977144499128507 -0.004037228573964619 0.3274965051627725 -0.1836765024166592 -0.09093328361611365 -0.3983556564413537 0 
-0.416899230696443 -2.321053531148279 -2.234035179421725 -1.919511967741765 -0.8523818713419909 -0.2156794187336395 5.203296665594683 -0.7631545005773461 -0.2624366259524009 -0.479884417863066 -0.002437765650367128 
0 0.5436078594158232 0.1591907574191291 -0.1308022484122188 -0.00930729502622403 0 -0.9175887944225802 0 -0.0167116675467357 0 0 
-0.01631486039480393 -0.07891606959320076 0.9017900314659597 -0.2306676771235254 8.673617379884035e-19 0 -0.3274542181617107 -0.007093337425292993 -0.02586902409302399 -4.336808689942018e-19 0 
0 0.2879979230988269 0.6163666634398081 -0.1308022484122188 -0.00930729502622403 0 -0.9175887944225802 0 -0.0167116675467357 0 0 
0 -0.1022492208158927 1.941191826826802 0 0 0 -1.895484055771498 -0.007093337425292983 -0.02242382303283377 0 0 
0.02277929732996311 0.03164807458174716 -0.1670838468617651 0.1836304398618932 -0.03372467488303768 -0.07045036949326822 0.1431087695011203 -0.05877510785115752 -0.06369287735472881 -0.06997543817917481 -0.03251405017773939 
-0.01704338099022876 -0.2800372173728297 -0.1120854002254899 0.6490637171030895 0 0 -0.1259448520916189 0 0 0 0 
-0.006501273343464608 0.07997506681341826 -0.07893912548700854 0.2084020330967875 -0.03323652287880385 -0.1096285933991861 -0.07713759470329593 0.01565901477096998 -0.1590673486652945 -0.02783778847433285 0.0112952039770978 
-0.007648678912275565 0 -0.499363495389624 0 0 0 -0.002416359104788264 0.5328869995596544 0 0 0 
-0.007648678912275565 8.239936510889834e-18 -0.6222287627923956 -0.1344399840894266 0 0 -0.1257769769547437 0.940727549635441 -0.08394750411484629 0 0 
-0.3483897883039783 -0.07449024625733416 -0.510334034773847 -0.197181829112592 -0.03082727078304431 -2.846030702774449e-19 -0.2624803971247304 1.346842338565148 -0.07151070669830001 -0.04244656178075211 0 
-0.007648678912275565 0 -0.7490545427200057 -0.1377982128111871 0 0 -0.07589614311374417 1.071868621141435 -0.0294518432449364 0 0 
-0.0005838067502829452 -0.1497538693091487 -0.2090854632856014 0.2047916198860479 0 0 -6.505213034913027e-19 0.2252105668739098 0 0 0 
-0.1289594813328603 0.1983143448680245 -0.07633209270331405 0.1957778973084051 -0.05704247643409871 -0.1374890067732676 -0.02479109088289577 -0.06470578412978717 0.09870792201229761 -0.2775027628602826 0.01633671119999106 
-0.0005838067502829452 0 -0.08906606565934221 -0.1610208650879093 0 -0.0009765570271211845 0 0.2252105668739098 0 0 0 
-3.057450126409123e-17 -0.03434838463824791 -0.3482498244893115 -0.4212831367530755 0.9369990521098948 2.949029909160572e-17 -0.4018785349000973 -0.034570379619211 -0.1206899362102373 -0.1443267332517855 -6.938893903907228e-18 
-0.5074520041614834 -0.8915656531615895 -1.894311915129699 0.01746528490144179 0.6921663691397467 -0.3920287337450521 0.9360287681275674 0.02964902901925785 0.9383294292157596 0.5188349781905869 -0.1111889429641616 
-0.2014489224986896 -0.2561016995569912 -0.6009899211817686 -0.1600297722851184 0.864812319999037 -0.291201227206806 1.218929994652558 -0.2261769605688723 -0.2142568725882614 -0.3905058312518503 -6.938893903907228e-18 
-3.057450126409123e-17 -0.1577928371498806 0.03916374410323865 -0.7702450884112271 1.638933418842375 1.734723475976807e-18 -0.8994877906434808 -0.1095134456886796 0.05927894975331738 -0.2065428871901966 -6.938893903907228e-18 
-3.057450126409123e-17 -0.03434838463824791 -0.3482498244893115 -0.4212831367530755 0.9369990521098948 2.949029909160572e-17 -0.4018785349000973 -0.034570379619211 -0.1206899362102373 -0.1443267332517855 -6.938893903907228e-18 
-3.057450126409123e-17 -0.03434838463824791 -0.3482498244893115 -0.4212831367530755 0.9369990521098948 2.949029909160572e-17 -0.4018785349000973 -0.034570379619211 -0.1206899362102373 -0.1443267332517855 -6.938893903907228e-18 
-3.057450126409123e-17 -0.03434838463824791 -0.3482498244893115 -0.4212831367530755 0.9369990521098948 2.949029909160572e-17 -0.4018785349000973 -0.034570379619211 -0.1206899362102373 -0.1443267332517855 -6.938893903907228e-18 
-3.057450126409123e-17 -0.03434838463824791 -0.3482498244893115 -0.4212831367530755 0.9369990521098948 2.949029909160572e-17 -0.4018785349000973 -0.034570379619211 -0.1206899362102373 -0.1443267332517855 -6.938893903907228e-18 
0 -0.03525382885014131 0 0 0.002976166333592975 0.08150699017517 0 0 0 0 0 
0 -0.1510312301486893 0 0.2462361377664839 0.01905395931479832 0 -0.02382801210255688 0 0 0 0 
-0.01097137223552862 0 0.05201022674484505 -0.01730073035975263 0.002976166333592976 -0.01804574315813211 0.02685522080553554 -0.009680407917514644 0 -0.009419641771764319 0 
-0.08368630817775362 -0.1008412070176894 0.3350305446955271 -0.03835237501689333 -0.08864344855127421 -0.007106086978517839 -0.1444593679305521 -0.003654296912984563 -0.01161351881205223 -0.02749586058450896 -0.03864170311820856 
0 -0.08558665221110373 -0.1704237834908587 0.5238051202027008 -0.07390297573792143 2.168404344971009e-19 -0.03469058514623048 -5.963111948670274e-19 0 0 0 
0 0.6727372713102708 -0.5546504034945816 0.5291498714799013 -0.0880443078478418 -0.03149078752058801 -0.2123691250697048 -0.04109338564761352 0 -0.002756840839863748 0 
-0.3550119866509466 0.6924526552275525 -0.2325465364993631 0.5333777921245693 0.3923162129448453 -0.202477127950385 0.2302390761165703 -0.4232532457411545 -0.1054731038533146 -0.1054071085115952 -0.07277584422854841 
0 -0.6782713935103123 -0.05437511168524765 1.023191872606665 -0.07390297573792146 -0.02650120071802422 -0.04525822710496619 -0.04109338564761351 0 -0.002756840839863748 0 
-0.2154633180688421 0.632941722183414 -1.219384779706172 -0.4611861494043858 0.7228222532283457 -0.1389726046382018 1.117024875763386 -0.06879737934906148 -0.05006977262206777 -0.001606272316850372 0 
0 -0.6430577080460927 -0.1809636239588496 1.023191872606665 -0.07390297573792146 -0.02650120071802422 -0.04525822710496619 -0.04109338564761354 0 -0.002756840839863748 0 
0 -0.1130609485918739 0.06061762591400711 0.4109663543538211 -0.1170878601727264 2.168404344971009e-19 -0.06569297195642332 -5.963111948670274e-19 0 0 0 
-0.1223305876383543 -0.874036018412475 -0.375394917398775 1.437537613053483 -0.5222739821495317 -0.288831444069207 -0.9156885297260812 0.07878718707991775 -0.02360974388046615 -0.07373002038140362 -0.1019328501398801 
4.336808689942018e-19 -0.03345404907501823 -1.301042606982605e-18 -0.03527337384187344 0 0 0 -4.336808689942018e-19 -0.00505459381512083 0.1126049903285359 0 
0.02407185213304092 -0.4332619317055874 -0.3638392909784675 0.6326919235546453 0.1092379568448783 0.1704673340442746 0.1045378149388936 -0.08859734257848915 -0.01431711478718006 -0.03463487446821484 0 
-0.01368994529194646 -0.04859342705091613 0.06811672418092715 -0.0112016443009684 0.1571372587278975 0 -0.01863704876471879 -0.03520116420769052 -0.01749159024922104 -0.007613452992390241 0 
1.067350280007207 -0.3726875488106718 -0.3496058792720997 -0.3219066024617678 -0.1178058296922912 -0.2408866352000363 -0.05956044245022685 -0.01838572517577704 -0.007615418017378821 0 0 
0.2822217056956269 0.06663989256495267 -0.3185790146706497 0.7607393780208954 -0.372838263282612 0.5925283055058079 -0.3766854942431989 -0.1032948406878949 -0.1695002401108437 -0.07534645359792022 0 
1.067350280007207 -0.3726875488106718 -0.3496058792720997 -0.3219066024617678 -0.1178058296922912 -0.2408866352000363 -0.05956044245022685 -0.01838572517577704 -0.007615418017378821 0 0 
1.067350280007207 -0.3726875488106718 -0.3496058792720997 -0.3219066024617678 -0.1178058296922912 -0.2408866352000363 -0.05956044245022685 -0.01838572517577704 -0.007615418017378821 0 0 
1.067350280007207 -0.3726875488106718 -0.3496058792720997 -0.3219066024617678 -0.1178058296922912 -0.2408866352000363 -0.05956044245022685 -0.01838572517577704 -0.007615418017378821 0 0 
1.067350280007207 -0.3726875488106718 -0.3496058792720997 -0.3219066024617678 -0.1178058296922912 -0.2408866352000363 -0.05956044245022685 -0.01838572517577704 -0.007615418017378821 0 0 
0.00387498317000602 0 0 0 0 -0.009847924814703391 -1.734723475976807e-18 -4.336808689942018e-19 0 0 0 
0.02031889943869861 0.1009510609253941 -0.02187723848819188 -0.06138733627770716 -0.003334163673580478 0.1027132628866973 -0.0817786423976643 0.1370140512120193 -0.04222162190365172 -0.03451477437927882 -0.01904487632151646 
0.003874983170006021 -0.02919162051517665 0 0 0.06246666173493524 -0.009847924814703391 0 0.004717955620589367 -0.004489613691565974 0 0 
0 -7.806255641895632e-18 0.8542730030650115 -0.6961846873298282 -0.175244474874909 0 4.336808689942018e-19 0 0 0 0 
-0.2817844253253981 -0.4903156087121514 0.363990312907431 0.2086828146696948 0.6870863902443209 -0.2987929913516508 -0.1863008193399076 6.938893903907228e-18 3.252606517456513e-19 -1.734723475976807e-18 0 
-0.2299570295122531 0.7697256431537126 0.03504077629408131 0.3365249114203839 -0.1416790834476761 -0.2601009371508798 -0.7933115380883229 -0.2576730467211161 -0.1410308065253046 -0.2270483473087004 -0.03446241801808488 
-0.2240564016886833 -0.3960122253846637 0.7767180219631976 0.07683601018421521 -0.04444879894052911 -0.195000243094823 -0.09352187044020967 0 0 0 0 
-0.06955590161512572 -0.3623359189364065 0.8213271435321087 -0.0001073943643711455 -0.3982653506421184 -0.002033151910337564 -1.734723475976807e-18 0 -0.02561263310012062 -0.0114700584640057 -0.0003557612122535413 
-0.2048182843823787 -0.08589032360374578 0.4851854417788314 -0.4281540952398615 0.2400600266407414 0 -0.0440792956822588 0 0 0 0 
0 -0.1485469442054078 0.02223750936990223 0.1165670304293914 -0.3471991779364723 6.776263578034403e-21 4.336808689942018e-19 0 0 0 0 
-0.2998536125570375 0.410008757682799 1.13750406280167 -1.068017707927214 -0.2735801774572104 -0.2879041311674502 -0.4535151519235042 -0.1937398752074032 0.1089692417505296 -0.05758197409521434 -0.04824367729997578 
0.0633153122061734 -0.009233559187023429 0.1222341566884657 -5.204170427930421e-18 -0.02005612815956526 0 0 -0.04475916277252424 0 -0.007946834536031662 0 
-0.002243583934962208 0 -0.003835366395332464 -8.673617379884035e-19 0 0.01746688551024857 4.336808689942018e-19 0 0 0 0 
-0.04339472548413034 0.1625553288513073 0.9268508440027763 -0.6916666639082103 -0.1170420228062359 0.01464983394703455 -0.2656182795877097 -0.1610551954271138 -0.05989006550849514 -0.05005886507829262 0 
-0.004215473161843135 -0.1633835045108458 -0.02283547485416405 0.01583537060166484 -0.2031399137438692 -0.008069749751545912 0.1507542903922965 1.734723475976807e-18 0 0 0 
0 0 -0.2667377225813868 -0.4568924721302295 0.549726616323259 0 0 -3.035766082959412e-18 0 0 0 
0.03480882396931149 0 0 0 -5.421010862427522e-20 1.734723475976807e-18 -1.084202172485504e-19 0.01653750140584738 0 -8.673617379884035e-19 0 
0.004907248580759926 0 -0.0301381214757772 0.06240959428279139 0.001124058928234381 0 0 -0.001055649962982849 0 0 0 
-0.2434083357299398 1.349185243140703 -0.7353995295202624 0 0 -0.1175819549996595 0 -0.2712741939063478 0 0 0 
-0.5500142202691822 1.63654534447267 0.3214749798934269 -1.054843461506427 -0.1826361857166151 0.2416327844263505 -0.3126933715460248 -0.5470866280295557 -0.1769996844027656 -0.1431364173441227 -0.03331589003395928 
0.1026188690598001 0.4912448506974243 -0.8601262588569234 -0.2854849068543036 -0.07166654944339415 -0.4869299112609736 -0.04990255800739563 1.298247900872203 -0.1328173462690385 -2.168404344971009e-18 0 
-0.2434083357299398 0.4485758648820163 0.08154488897157036 0 0 -0.1175819549996595 3.252606517456513e-19 -0.2712741939063478 0 4.336808689942018e-19 0 
-0.3582005659585303 1.162770779456848 -0.7353995295202624 0.4548288930835634 0 -0.1663171563335846 0.04092784013430587 -0.430813566633402 0 0 0 
-0.2434083357299398 0.7336426083493327 -0.1837439423734823 0 0 -0.1175819549996595 3.252606517456513e-19 -0.2712741939063478 0 0 0 
-0.02776961454237985 0.1963217819822234 -0.1152373593819427 0 0 -0.01651091810531723 0 -0.02358432250395906 0 0 0 
8.673617379884035e-19 -0.4118960483302523 0.6921032185506731 -0.2203178116920898 0 0 -0.03765305749206895 0 0 0 0 
-0.1813663744539547 -0.1618496512170818 0.1920529594372925 0.1863101892673503 -0.2776179281814211 -0.06780331234737563 0.3110062711890434 -0.2365465892019346 -0.0690143812180537 -0.2707528655523628 -7.589415207398531e-19 
0.6407608425298029 0.7224697543144116 0.2829447285388826 0.4084748738154871 -0.1266200218767486 5.421010862427522e-18 -0.6953044860572295 -0.6338804448405387 -0.0743696549801956 -0.07243521211981827 0 
-0.0409870212718644 -0.1173471591282504 0.3951918088669253 0.08311423336249932 -0.01779273967222766 0 -0.1194313016247639 -0.154936540950308 -0.05190310254036309 -0.07422566760136466 0 
-0.1388860011884567 -0.1847253886136447 0.8163931667769929 -0.2203178116920899 0 0 -0.1483696409262071 -0.05653607571971185 0 0 0 
8.673617379884035e-19 -0.4118960483302523 0.6921032185506731 -0.2670156392671754 0 0 -0.03765305749206895 0 0 0 0 
8.673617379884035e-19 -0.04476152555287717 0.3546963483474435 -0.2203178116920899 0 0 -0.09199239836345137 0 0 0 0 
-0.03731200613114591 -0.4279357908168203 0.9163742126237138 -0.4638797483054682 -0.08532836848327674 -0.05228281512414364 -0.04172249026826361 -0.1784413162770755 -0.01053085202856381 1.301042606982605e-18 0 
0.8827773638937416 0 -0.2153973207460393 -0.1704395353650956 0 -0.002435213205974436 -0.09064789179078994 -0.5029318949401507 -0.02402705283419244 -0.005392810350102949 0 
1.315069815590042 -0.2450998707638613 -1.131155325652479 -0.1633137478987979 -0.09098635450130536 -0.09421169279091227 -0.2476272786513697 0.989763865372674 -0.1193914967075708 -0.1324821869652682 0 
0.6692686313120252 -0.1230465259218969 0.01164501457493394 0.2015878064561303 0 -0.004669934999759206 -0.1611625259450743 -0.5156723862552499 -0.03742359746391211 -0.005392810350102949 0 
1.66583575795847 -0.1939865064835902 -1.185438350253451 -0.7956431226438773 -0.02013877728858428 -0.02045137751801379 -0.1627600061136039 0.3905043731674171 -0.02402705283419243 -0.1062287590719205 0 
0.8827773638937416 0 -0.2153973207460393 -0.1704395353650956 0 -0.002435213205974436 -0.09064789179078994 -0.5029318949401507 -0.02402705283419244 -0.005392810350102949 0 
0.8827773638937416 0 -0.2153973207460393 -0.1704395353650956 0 -0.002435213205974436 -0.09064789179078994 -0.5029318949401507 -0.02402705283419244 -0.005392810350102949 0 
0.1201940143151147 -0.2088770406552482 -0.1116907544233176 0.33596013554482 -0.01363253679115027 0.2378749785537517 -0.06775178743184213 -0.0431338840290104 0.04393452406487949 0.1084254077746455 -0.003683854109409383 
0.01423534549683399 0.3475295935403879 0.4344600685572724 -0.3360034652208021 -0.02178036076145444 -0.02058029417832338 -0.05048802255016138 -0.1704382254059403 2.168404344971009e-19 -0.04287010419441829 0 
-0.01452352822847404 -0.1997755772415236 -0.409398517951516 -0.6041447938916346 -1.127570259384925e-17 -0.03373920734739022 -0.01381551930263894 1.05139525568267 8.673617379884035e-19 8.673617379884035e-19 0 
-0.2499417288036128 -0.2960798273797328 -0.9516186093152821 0.7242827896933941 -0.07241537009403462 -0.1018242158858415 0.456785449502265 0.8889640943910723 1.301042606982605e-18 -0.01499915228223719 0 
-0.1519810843160575 -0.1997755772415236 -0.4093985179515162 -0.08782328447132706 -0.006589919054695383 -0.03373920734739022 -0.04271142452289579 0.9017561627962249 8.673617379884035e-19 3.903127820947816e-18 0 
-0.01452352822847404 -0.1997755772415236 -0.409398517951516 -0.6041447938916346 -1.127570259384925e-17 -0.03373920734739022 -0.01381551930263894 1.05139525568267 8.673617379884035e-19 8.673617379884035e-19 0 
-0.01452352822847404 -0.1997755772415236 -0.409398517951516 -0.6041447938916346 -1.127570259384925e-17 -0.03373920734739022 -0.01381551930263894 1.05139525568267 8.673617379884035e-19 8.673617379884035e-19 0 
-0.01452352822847404 -0.1997755772415236 -0.409398517951516 -0.6041447938916346 -1.127570259384925e-17 -0.03373920734739022 -0.01381551930263894 1.05139525568267 8.673617379884035e-19 8.673617379884035e-19 0 
-0.01452352822847404 -0.1997755772415236 -0.409398517951516 -0.6041447938916346 -1.127570259384925e-17 -0.03373920734739022 -0.01381551930263894 1.05139525568267 8.673617379884035e-19 8.673617379884035e-19 0 
-0.009023902257076537 -0.1521125372679192 0.4947910915018988 -0.3019254243037427 -0.02577965895608534 -0.001015170961885191 3.469446951953614e-18 -0.008168593148808153 0 0.05146211873556489 0 
-0.02247544846874432 -0.008004760176078729 0.1324618649573016 -0.05568721656942471 0 0.008492304347465052 0.0255611477670531 0.01416212175307572 0 0 0 
0.000345588181772706 0.1823819550740895 0.1630162934212892 -0.233251441639842 0.00699360248139586 -0.05528752638237184 -0.003587137278506086 0.006253512131259464 -0.03835011706994317 -0.08081555581735488 0.003872146631584897 
