solver_type L2R_L2LOSS_SVC_DUAL
nr_class 11
label 1 2 3 4 5 6 7 8 9 10 11
nr_feature 5557
bias -1
w
0.4170975415442895 -0.06552440768558528 -0.08945334932245323 -0.06692831901844472 -0.1121068112730543 0 0 -0.02050278760330231 0 0 -0.04690187267479992 
-0.3018310332113607 -0.2312973874755652 0.2333785449260475 -0.1087948293488082 0.3445075514316003 -0.1330870365685153 -0.3063554415231032 -0.2942298554905838 -0.1872860415857744 -0.1066135075283469 -0.1530663993870527 
-0.1633060889329339 0.6269625555982334 -0.08491719631893711 -0.7275259701177654 -0.510557897727754 0.5319293896598682 0.5281295485541938 0.3359102145132079 -0.0924826268502008 -0.02406964947714498 -0.2002017678645964 
0.1698898099103275 0.1685157972987814 -0.1317887430597003 0.1941598488985228 0.2172458833752988 -0.3465570275211009 -0.3525719393185621 0.002929253675642625 -0.3113221381597379 -0.1190545770129819 0.2814224055344811 
0.6195450261050678 0.7652979340062354 -0.3894510495506855 -0.3048359831668578 -0.2907282406517304 -0.3086295147284523 -0.2814972112009243 0.305706487526881 -0.008607320184181365 0 -0.04690187267479991 
0.2189722677506951 -0.2432310279665752 0.4106672484200847 -0.5105176525187103 -0.01011373632287727 -0.2910186818372467 -0.07389721962171077 -0.09220454370605567 -0.0225014000600618 -0.00751243478035459 0.6164046187832607 
0.8221720358796131 0.1405179995731611 -0.1474396818154156 -0.4445640956783792 -0.3564217859056126 0.1839676632199211 -0.07493679283882926 -0.073667842996851 -0.008607320184181365 0 -0.04690187267479992 
0.1145213021154398 -0.165205781002961 0.4395337964605348 -0.4318007087068622 -0.03240396952692574 -0.2020051531641994 -0.0213184429699608 -0.05381246116157805 -8.673617379884035e-19 -0.007512434780354591 0.3873011180459245 
0.4170975415442895 -0.06552440768558528 -0.08945334932245323 -0.06692831901844472 -0.1121068112730543 0 0 -0.02050278760330231 0 0 -0.04690187267479992 
0.4170975415442895 -0.06552440768558528 -0.08945334932245323 -0.06692831901844472 -0.1121068112730543 0 0 -0.02050278760330231 0 0 -0.04690187267479992 
-0.1366008456126611 -0.2015852742336446 -0.2023580105479749 0.04770936202322068 -0.1865704511821413 -0.2256779303119534 -0.1939779195135053 -0.1991642396057136 -0.1115890285015143 -0.1810096643641302 -0.1583300889330109 
-0.1807655966792416 -0.2335594534600217 -0.1190346024141789 -0.1080324323226949 -0.08796131112681355 -0.1756425482067847 -0.2274201889270148 -0.2166505996541865 -0.1666930907237742 -0.194168676180363 -0.187946981094589 
0.3106810859480809 -0.2166310804733421 0.2367611541226931 -0.04998439838872141 0.1441264399010801 -0.1407929200040146 -0.06815552301115055 -0.06878664863929781 -0.001042115900731723 0 -0.04874390885518352 
0.3872808405766464 -0.1263617251577017 -0.08945334932245323 0.1972304867792404 -0.271976104559671 1.734723475976807e-18 0 -0.02050278760330231 0 0 -0.04690187267479992 
0.2726987121452568 -0.2047941814983171 -0.5786908236128981 0.6579474325500658 0.1794374237682143 -0.1976499525191937 -0.1940951160407789 -0.005746702823478778 -0.03650306294228474 -0.002143183673843793 -0.1632415662293531 
0.05143599949587412 -0.092782270702309 0.1004910161084669 0.01990836320089658 0.1401150672865509 0.01699704168475886 -0.316006675047904 0.0617089710595578 -0.0594877817153503 -0.04912045413069557 -0.1713544938797015 
0.00358816679544415 -0.001550260093778579 -0.009444214364173068 0.01128166626997188 -0.01068122591970284 -0.003283839627650346 0.002359975836134636 -0.00231684681482363 -0.004762107651542292 -0.002422762137158657 -0.004049049559982395 
3.873338225158367e-05 -6.56135251587993e-05 -0.0001899225684142665 -3.194837936319712e-06 4.310541497927954e-05 0.000121487019743905 -3.028637593667333e-05 -3.697456449986777e-05 -6.154261755716058e-05 -2.614824001805363e-05 -4.081392651917622e-05 
-0.3501705856830346 -0.5536424939291333 -0.6470142034429048 0.3354067902712362 -0.4402615526615619 -0.1046582774589415 -0.4767742972860363 -0.360283296116429 -0.3687578149850619 -0.4040524072925985 -0.3925723751322822 
0.229346187348513 0.06333832138493428 -1.057894689049535 -0.7108761793211281 0.1694745737003584 -0.3560819062687668 0.1028790434382183 0.0194954080991975 -0.3635269009653796 -0.3205596961627872 -0.1906703140787261 
-0.4257496467560029 -0.5406804218106721 0.2609242022749133 -0.325210834720069 0.1491063397383276 0.2136309577413257 -0.5175028466052114 -0.2930735124525472 0.05962042302171617 -0.1128595685484535 -0.2715510248385567 
-0.2589688978712359 0.0107653236808507 0.2091871283991161 -0.07089272880514196 0.3255483647840799 -0.1430686331824431 -0.1638007822737881 -0.2096516395502778 -0.1815743405157492 -0.05460271837728305 0.008036125909561681 
-0.7394782253967422 -0.6060478556406548 -0.1514937618731552 0.3104843828678134 -0.2473840351610609 -0.6260903332874316 -0.7049564586749943 -0.5834944791227696 -0.6406098111280093 -0.5102259969708819 -0.5275136910557762 
-4.755774744342449e-05 -7.605870359800504e-05 -8.757816080749706e-05 -0.0001164224477473811 0.0001489099746588137 0.0001401923268525393 -9.914722092596455e-05 -4.732365151351362e-05 -4.089930824523742e-05 -2.430803040792627e-05 -2.892106414444503e-05 
0.07561070789199507 0.05320770309079615 -0.03178816419448755 -0.1574421159086751 -0.004052022660714668 -0.02642953149191392 0.05342773510635507 0.03551961985017701 -0.00593506179448014 0.001076724629191446 0.002152236633673885 
0.04933293961960207 0.1413413626153833 1.131652190277816 -0.8307631068788767 -0.9208973943878067 0.17486971081194 -0.5497839910055395 -0.8326268115852722 0.3147874355117788 -0.1656118675044506 -0.2221853670986206 
0.007045401825205307 0.002802632228054236 -0.01090483514653414 3.362458348224721e-05 -0.005583544679863391 -0.004099410631225568 0.005494515580588459 -5.541612684091571e-05 -0.004083675525928189 -0.001809527323606063 -0.002638285291333566 
-0.001411648551085947 0.001982129125103011 -0.004341346908498704 -0.002160220119407495 0.003468737676378387 -0.003733547919847729 0.002918566602722091 0.001657692677615234 0.001429255961820268 -0.0002878950555614869 -0.0004048707573207045 
1.314224656406308e-05 8.157552972410024e-06 -9.303709882716832e-05 -6.040596132888294e-05 0.0001156017303297374 -3.939173226983727e-05 5.622918341572049e-05 5.873031545758953e-06 6.035502879645509e-06 -1.319725046236818e-06 -1.108670096970579e-05 
0.0042491774319965 -0.1313175199226675 -0.1127702661621152 0.01351823585094795 0.06607042561365012 0.05616253896134248 -0.2146909531901361 0.09914574221944122 -0.01901602370289363 -0.05384114480597817 -0.04361136397768466 
-0.1216311226915815 -0.001001449211849651 0.622138195896265 -0.1633851048190249 -0.09674957432856444 -0.07412292538261225 -0.1684628753692719 -0.2000581407465255 -0.2747705586719582 -0.009179012908622559 -0.01862660213550166 
0.0854074665688542 0.1591856687429433 -0.259353053995472 -0.5099124564037166 0.2595002548508999 0.2027404911138109 0.3283646185246161 0.07113760666852013 -2.192112155977987e-05 -0.05839582910353383 0.09012229081765198 
0.08412748102859907 -0.1187209058985188 -0.1766461955240555 0.2629288843796895 -0.1917361863080308 -0.001144279324496194 0.1475351971278941 0.1056693287151462 0.05231523094683499 -0.02125817402364098 -0.04048709491327745 
0.02003807720925128 0.03893654943546787 -0.2919209701946218 -0.2449567867104671 -0.03431306439664854 -0.02970384551351389 0.3446622783389631 0.0652602259303099 0.1145252314848206 -0.1047800071061112 -0.02408276841867901 
3.47914400230076e-05 -7.187228909883943e-06 -7.146369902667445e-05 -5.083575711028835e-05 8.287624098090347e-05 -8.075427668655375e-07 5.125258139196898e-05 -1.358161487688444e-05 -4.411751272028885e-06 -3.426135149671703e-06 -1.163370043585443e-05 
-0.02425937254349773 -0.001980358941531081 0.06602594821106872 0.01996579740917298 -0.01651141746240602 -0.01314800094305142 -0.03061712039035496 -0.01937902682015038 -0.005362070859815205 0.0008619683901445898 -0.01271557131090334 
-0.3550670324545122 -0.524738297270951 0.7696606631447114 0.8348302232120889 -0.4761441376064627 -0.377289962462051 -0.03676636147345801 -0.1140095583624348 -0.2024214037032386 -0.05517311628255065 -0.06122050057361268 
-0.00268915445826431 0.002475474384383069 0.0001705384530443648 -0.002871105084664035 0.001831024969188165 -0.001785380618373104 0.002788741980042458 -0.0008924798321910398 -0.0007764008982717533 -2.051808445733936e-05 -0.0003028655203380468 
-0.0005612613603951635 0.0009995303948414325 0.001294108690450787 -0.002406651220307289 -0.001275827381475475 -0.0009026920961706173 -0.0004378740375132107 -2.151614885422762e-05 -0.001170645124497558 0.0004176028912245558 0.0002968039881011382 
2.3890102846771e-05 -1.285675879727094e-05 -1.667872342035809e-06 9.370458944711507e-06 -2.819970248429562e-07 -1.552184084760936e-05 -3.157205898109448e-05 9.463517289778187e-06 6.141444548094368e-06 6.308369758747194e-06 -5.029300264483688e-06 
-0.2404531948003827 0.09364230377874276 0.001316606183310579 0.01026357672139401 -0.2669620483157816 0.3126135564519272 -0.01726948626979779 -0.2055229145635672 -0.01309197741063705 -0.1027352377505085 -0.06751923898177994 
0.1448829550024184 -0.03991797073258962 -0.2941690422339304 -0.2109072727832496 0.7909795342982014 -0.5333135788286697 0.03253122577131617 -0.01284029091173942 -0.02202199361060558 -0.1425347632751899 -0.1448101451547104 
-0.1832142708137698 0.1528011475405661 -0.2050323478648412 0.2384358214956109 -0.6450755305284204 0.6606299614511703 -0.07190199069165408 -0.04953156204883583 -0.09568912768491791 0.1347563160898347 0.08020964393769849 
0.08934939832033655 -0.0213754441291169 0.237305108284359 0.009381170552919295 -0.2438856464489594 -0.02093407635856796 0.01690404555291383 -0.08158875695126119 -0.01950332894535538 0.04638798078456862 0.02567271918505906 
0.04049734298449768 -0.09555327322401781 0.2132214914677616 0.02718167771614844 -0.3772017993642945 0.05403101294250295 -0.05172261702694569 -0.03164780737324117 -0.1966379740659326 0.08031828882447378 -0.03211327079295222 
2.533412495485986e-05 -2.657920233377136e-05 1.188457389124624e-07 2.560838483767907e-05 -5.82860471798394e-06 -6.055260771950088e-06 -2.824948992230777e-05 1.330405424700781e-05 1.176280991361565e-05 4.597454411361796e-06 -8.328568998907097e-06 
-0.004015651436427298 -0.02437505662719305 -0.07144329126991623 0.07492133915304967 0.003726177595684725 -0.009920461909554095 0.004530191203098177 0.004319277142945985 0.00230880317004067 0.0006345598342013634 -0.007245773740005147 
-0.04668928724078802 -0.0286484876459617 -0.05609625388483503 -0.07674522473031044 -0.0600840579895978 -0.3225066473695565 0.2895355002894728 0.2713865353450845 0.2488406514231454 -0.1255392244150321 -0.01687617247727931 
0.001362967859181873 -0.0005484517889398184 0.0009598845109384914 -0.001384255279561784 0.003903317521931314 -0.005575893228077451 -0.0003203111827355023 0.0005880681132222293 -0.001031847010316827 -6.221560835683981e-06 -0.00064023972875526 
-0.2179446570140183 0.5421164921222845 -0.04318154869970574 -0.1691438385639497 -0.004585273561864061 -0.08134694801859578 -0.04269385540746756 -0.006840652213213354 0 0 -0.032782705149515 
-0.128998357405702 0.2267924375554309 -0.5067469644488293 0.2430009857377677 -0.1579728102825926 -0.0947573777341701 0.2263178877814179 0.01665198961486993 -0.1735591626971347 -0.0165959532228225 0.4025089047928999 
0.1708749534992345 0.662025163618926 -0.4407122742732957 -0.1681327569572101 -0.6405773986034806 0.1297807213038644 0.04346799199357772 0.3494103231184508 -0.04834414427118469 -8.131516293641283e-19 -0.06979770196695437 
0.8586016114476083 0.6046519655447313 -0.24431546433362 -0.6066857821722891 -0.3141973790251851 -0.2398478157560236 -0.04269385540746754 -0.04876005008811601 -4.336808689942018e-19 3.091670257478196e-20 -0.1041418566526187 
0.8187912814757854 0.2936355428270508 -0.4179557361503923 -0.1699598550784153 -0.4225033049685393 0.5116315007658105 -0.256065505920399 -0.2621657331618737 -0.009434687903094787 0 -0.1532612058404739 
-0.2179446570140183 0.5421164921222845 -0.04318154869970574 -0.1691438385639497 -0.004585273561864061 -0.08134694801859578 -0.04269385540746756 -0.006840652213213354 0 0 -0.032782705149515 
-0.2179446570140183 0.5421164921222845 -0.04318154869970574 -0.1691438385639497 -0.004585273561864061 -0.08134694801859578 -0.04269385540746756 -0.006840652213213354 0 0 -0.032782705149515 
-0.2179446570140183 0.5421164921222845 -0.04318154869970574 -0.1691438385639497 -0.004585273561864061 -0.08134694801859578 -0.04269385540746756 -0.006840652213213354 0 0 -0.032782705149515 
-0.2535409761807507 0.7392572349828344 -0.192113511925644 0.4127166371393605 -0.4127734650481845 -0.265810719932093 -0.06665580969761495 -0.07888546817762805 0 0 -0.01269586240457905 
-0.1535586072639524 0.2011962014703749 0.2571704247625684 -0.108198097306361 -0.0554789356191517 -0.07958927628212306 -9.526268249650575e-05 -0.01481739156326667 0 0 -0.06197410670491114 
-0.08545422203440717 0.2340615449358359 -0.04318154869970574 -0.108198097306361 0 -0.00837415767943011 0 0 0 0 -0.01269586240457906 
-0.4287283395308024 0.5095092012555854 0.887100792070328 -0.3625483401347197 -0.1690626493121445 -0.4193370284813154 0.02198806463943344 -0.1756911417006315 -0.1123637307448119 -0.03106117352727118 -0.1237562176706462 
0 0 0.3901423795170688 -0.2127040027312699 -0.05869492179838449 -0.05062465304153244 0 -0.01555732207020617 -0.05435647762409471 -0.01225832390756896 -0.01614209765930593 
0.1210654365321169 -0.002262065984456487 -0.3524131473402267 0.0007623970261132831 -0.4324688625584184 -0.04255551163826898 0.07893525259608701 0.07757925583639579 0.02059295086199981 -0.08755516865201576 -0.03488058170753682 
-0.01840880789620347 -0.0758383389640693 0.2651503388135902 -0.695086872092222 -0.404418576179092 0.2279582147124368 -0.1624882844336369 0.1783210782866324 0.1768134184095737 0.2458722779227098 0.2659598812532812 
-0.3044440168451059 -0.06034222482188366 0.8519769854882091 0.3917885599969099 -0.4568799081517585 -0.05522116314640987 -0.2343552244907667 -0.2621848008923024 -0.1763028428883039 -0.0548332343817181 -0.1208492703055165 
0 0 0.3901423795170688 -0.2127040027312699 -0.05869492179838449 -0.05062465304153244 0 -0.01555732207020617 -0.05435647762409471 -0.01225832390756896 -0.01614209765930593 
-0.1431448233483212 -0.09784779971735511 0.989807121997172 -0.05692550204047077 -0.3013368800328048 -0.373993277060212 -0.08040318556105984 -0.06300115269621401 -0.1312101857266797 -0.04676209121694672 -0.03944928967869768 
0 0 0.3901423795170688 -0.2127040027312699 -0.05869492179838449 -0.05062465304153244 0 -0.01555732207020617 -0.05435647762409471 -0.01225832390756896 -0.01614209765930593 
-0.008732167844893507 0 0.6309063495947672 -0.4152277149432105 -0.05869492179838447 -0.05062465304153242 -0.02919105387570656 -0.01555732207020617 -0.05435647762409471 -0.01225832390756896 -0.01614209765930592 
0 0 0.3901423795170688 -0.2127040027312699 -0.05869492179838449 -0.05062465304153244 0 -0.01555732207020617 -0.05435647762409471 -0.01225832390756896 -0.01614209765930593 
-0.008732167844893507 0 0.6309063495947672 -0.4152277149432105 -0.05869492179838447 -0.05062465304153242 -0.02919105387570656 -0.01555732207020617 -0.05435647762409471 -0.01225832390756896 -0.01614209765930592 
-0.1552440634450308 -0.2133218180106453 -0.1551258831897333 -0.07539319335864415 -0.03786998138005137 -0.1480347599567611 -0.2405055821368189 -0.2212243304769376 -0.1556807593849059 -0.1631868452078014 -0.1645421623223708 
0.01498035745362294 0.03536961536176387 -0.04164889151332507 -0.4539221329509768 0.1607892830331399 0.01976270104676429 -0.04449569515038905 0.2100214327382444 0.3465539908459153 0.0243049361536576 -0.1319788454154551 
-0.1521095417336739 -0.2282205874565388 -0.1561926291019289 -0.05335346842319478 -0.06183109878481312 -0.1754308203364086 -0.2244812689429083 -0.1824667110682423 -0.1342238510085159 -0.1764892310345039 -0.14959213919941 
-0.08878396073185994 0.1009377534512286 -0.235929295150634 0.08162278699615876 -0.2278151001404631 0.1395382010634309 0.3428102123973081 -0.2450303802933386 0.3158690075823687 -0.2935642614301726 -0.1755375883858457 
-0.09310701671463521 -0.02321517680290106 0 0.3337878297288139 -0.09536638345087607 -0.07599118733601382 0 0 0 -0.002132954627875523 -0.009013620283560664 
0.9500622827179844 -0.2026965565016575 -0.1883519357437138 -0.1318658435306916 -0.07874309728530239 -0.2925397304412486 -0.01502456182782665 0.0158263618920261 -0.1196657746071906 -0.05919288157483287 -0.05450578998243581 
-0.09310701671463521 -0.02321517680290106 0 0.3337878297288139 -0.09536638345087607 -0.07599118733601382 0 0 0 -0.002132954627875523 -0.009013620283560664 
-0.1158488771236609 0.1856924352307163 -0.7705603946086919 -0.1915288722255187 0.5218412511174656 0.5889149333704249 -0.1344629575546434 -0.0915184127618909 -0.04052724590266154 -0.006867607749889345 -0.05550329417144351 
-0.09310701671463521 -0.02321517680290106 0 0.3337878297288139 -0.09536638345087607 -0.07599118733601382 0 0 0 -0.002132954627875523 -0.009013620283560664 
-0.09310701671463521 -0.02321517680290106 0 0.3337878297288139 -0.09536638345087607 -0.07599118733601382 0 0 0 -0.002132954627875523 -0.009013620283560664 
-0.09310701671463521 -0.02321517680290106 0 0.3337878297288139 -0.09536638345087607 -0.07599118733601382 0 0 0 -0.002132954627875523 -0.009013620283560664 
-0.09310701671463521 -0.02321517680290106 0 0.3337878297288139 -0.09536638345087607 -0.07599118733601382 0 0 0 -0.002132954627875523 -0.009013620283560664 
-0.09310701671463521 -0.02321517680290106 0 0.3337878297288139 -0.09536638345087607 -0.07599118733601382 0 0 0 -0.002132954627875523 -0.009013620283560664 
-0.02534604235191217 -0.03499631194773353 0.1640367042384208 -0.04513524979059575 -0.1600484668637107 0.006617444719352246 -0.118430828156441 -0.03419787353833999 -0.07958684497860512 -0.01447365795648325 0.3505341090220824 
-0.01761717820779678 -0.009131718587331927 -0.05325175962855448 0.2063365733393983 -0.0567732544541731 -0.005329844713897418 -0.005274993039551182 -0.01863073075730515 -0.0253822424419017 0 -0.009171208807146679 
-0.06001526066996542 -0.02153909155443304 0.4136574837645138 0.01679016290229093 -0.05677325445417311 -0.08443604833889085 -0.03941689601492241 -0.1072974520683701 -0.03284410913250517 -0.003869701311416264 -0.009171208807146679 
-0.143566341047385 0.2784419990312323 -0.004396311564811997 0.4878589479557385 -0.3523542779167995 -0.2021240043752878 -0.1291248980666135 -0.05670209702106926 0.2897983285634783 0 -0.02693783729189372 
-0.01761717820779678 -0.009131718587331927 -0.05325175962855448 0.2063365733393983 -0.0567732544541731 -0.005329844713897418 -0.005274993039551182 -0.01863073075730515 -0.0253822424419017 0 -0.009171208807146679 
-0.05936071993705835 -0.02965927336437606 -0.05701959837737067 0.4918595193935589 -0.1732904392001809 -0.03878784925225188 -0.005274993039551183 -0.0187979270135534 -0.06113250899491528 0 -0.009171208807146679 
-0.01761717820779678 -0.009131718587331927 -0.05325175962855448 0.2063365733393983 -0.0567732544541731 -0.005329844713897418 -0.005274993039551182 -0.01863073075730515 -0.0253822424419017 0 -0.009171208807146679 
-0.01761717820779678 -0.009131718587331927 -0.05325175962855448 0.2063365733393983 -0.0567732544541731 -0.005329844713897418 -0.005274993039551182 -0.01863073075730515 -0.0253822424419017 0 -0.009171208807146679 
-0.01761717820779678 -0.009131718587331927 -0.05325175962855448 0.2063365733393983 -0.0567732544541731 -0.005329844713897418 -0.005274993039551182 -0.01863073075730515 -0.0253822424419017 0 -0.009171208807146679 
-0.01761717820779678 -0.009131718587331927 -0.05325175962855448 0.2063365733393983 -0.0567732544541731 -0.005329844713897418 -0.005274993039551182 -0.01863073075730515 -0.0253822424419017 0 -0.009171208807146679 
0.3830409019919181 0.1092566194287281 -0.4595012157244036 0.435099868943525 -0.115794800680387 -0.317875675962832 -0.1071609012182852 0.1661972325721448 -0.04478844139417283 -0.004817537057404957 -0.05876077571600718 
-0.01761717820779678 -0.009131718587331927 -0.05325175962855448 0.2063365733393983 -0.0567732544541731 -0.005329844713897418 -0.005274993039551182 -0.01863073075730515 -0.0253822424419017 0 -0.009171208807146679 
-0.009732849533014069 0.6051452444648809 -0.02426372498630192 -0.1001879704677538 -0.09374962130803847 -0.1809507584194 -0.0413435473212394 -0.06857583003882431 0 -0.002600661955216929 -0.007945202040748537 
0.2395732496068058 0.2216382380305245 -0.3478240980291528 0.07829642137315213 -0.01227251433610646 -0.1284926599125865 0.1046972654526479 0.2818314519569483 -0.09098020372298815 -0.005199924889379764 -0.0944217112965749 
-0.3795491227320345 -0.02680546717059006 -0.2474258386712339 -0.2741051518030596 0.4886703445498501 -0.02876385620548058 0.03959627768439759 -0.05916385918226861 -0.1611775671765323 0.3489050924107787 0.3163805241410169 
0.2421990150312571 0.7365195059951555 0.1421095662389595 -0.8891464979449117 -0.7382439741144238 0.1588374163333262 -0.2538625353130548 0.6571101079393125 -0.00745967665504796 -0.003804197370098929 -0.05558704837985991 
-0.1599235332289749 0.8960304596947429 0.05366806405885835 -0.4503032174212456 -0.4081711482808986 0.01174930731931478 0.3778571613181861 -0.1668822702273592 -0.03122394971175184 -0.03557582781018075 -0.1168059492995874 
-0.009732849533014069 0.6051452444648809 -0.02426372498630192 -0.1001879704677538 -0.09374962130803847 -0.1809507584194 -0.0413435473212394 -0.06857583003882431 0 -0.002600661955216929 -0.007945202040748537 
-0.159923533228975 1.085263287465535 -0.1622966009519543 -0.1082375056058155 -0.3909172785952116 0.1596035009611605 -0.1810352191353495 -0.1341499470535772 -0.03122394971175184 -0.02628288546252883 -0.06845778120496714 
-0.009732849533014069 0.6051452444648809 -0.02426372498630192 -0.1001879704677538 -0.09374962130803847 -0.1809507584194 -0.0413435473212394 -0.06857583003882431 0 -0.002600661955216929 -0.007945202040748537 
-0.1103919008751805 0.1631380072940811 -0.1423423834996048 -0.1001879704677539 -0.09374962130803845 0.4437828515606485 -0.0413435473212394 -0.06857583003882431 -0.0009583370464970113 -0.008642209191285534 -0.02134799527341025 
-0.008181573552965653 0.260779811156543 0.283151060002879 0.4233826555973026 -0.644450792360869 -0.0518383473103901 -0.1125211825147331 -0.06618183786703713 -1.084202172485504e-18 -0.00260066195521693 -0.01021217546583992 
-0.008181573552965652 0.2913739659785864 -0.01663387851857719 -0.04209547112383163 -0.01075814700630052 -0.1037724921510047 -0.0196105323955795 -0.04198227343145697 0 -0.00260066195521693 0 
-0.1127952097536958 0.1400039575116822 -0.05113044311503068 0.1430021268764728 -0.1869592524807144 0.2493093641829311 -0.03324258880207198 -0.09006633059951044 -3.469446951953614e-18 -0.007327534933699888 -0.005076225004416273 
-0.04953163235379446 0.3919989747181232 0 -0.09727860031547154 -0.03576370951777624 -0.08084531584384945 -0.0729208301072001 -0.03719333873242733 -0.03026561266525482 -0.0004369825705188448 0 
0.1831206129584418 0.07905168613254571 -0.1028473878497004 -0.1766053593663198 -0.1920166517562285 0.07158047219341787 0.1112157688482137 0.1656287593370226 -0.2007538692570308 -0.01371779098034465 -0.03843970022243764 
0.1731245922646393 0.2555256270857335 -0.02021200866453841 -0.355102518600353 -0.2532069351952042 0.03808678077523467 -0.1259119248051523 0.3427793226066249 -0.1132568761270437 -0.009209082263583464 -0.01944545792475775 
-0.04953163235379446 0.3919989747181232 0 -0.09727860031547154 -0.03576370951777624 -0.08084531584384945 -0.0729208301072001 -0.03719333873242733 -0.03026561266525482 -0.0004369825705188448 0 
-0.04953163235379446 0.3919989747181232 0 -0.09727860031547154 -0.03576370951777624 -0.08084531584384945 -0.0729208301072001 -0.03719333873242733 -0.03026561266525482 -0.0004369825705188448 0 
-0.04953163235379446 0.3919989747181232 0 -0.09727860031547154 -0.03576370951777624 -0.08084531584384945 -0.0729208301072001 -0.03719333873242733 -0.03026561266525482 -0.0004369825705188448 0 
-0.04953163235379446 0.3919989747181232 0 -0.09727860031547154 -0.03576370951777624 -0.08084531584384945 -0.0729208301072001 -0.03719333873242733 -0.03026561266525482 -0.0004369825705188448 0 
0 0 -0.05747552359280788 0.1756968660049678 -0.03767680537523588 -0.005205202765199202 -0.01796929197860212 -0.01104094221661889 -0.04120566052166708 0 0 
-0.2481781786841429 -0.07361099066252981 0.276683341324642 0.77561729921266 -0.2971338231572749 -0.4057670720451142 -0.2566104445341321 -0.1294818680089069 0.1490746447994059 -0.0474607290552342 -0.09901073812298744 
-0.1295890128088113 0.3796018544782053 -0.05393672369378406 0.2408771293830591 -0.6642337744355911 -0.2894845208005014 0.2453931951711431 0.1445750389397547 0.4467285484634416 -0.002356691628491375 -0.123604879600181 
0 0 -0.05747552359280788 0.1756968660049678 -0.03767680537523588 -0.005205202765199202 -0.01796929197860212 -0.01104094221661889 -0.04120566052166708 0 0 
0 0 -0.05747552359280788 0.1756968660049678 -0.03767680537523588 -0.005205202765199202 -0.01796929197860212 -0.01104094221661889 -0.04120566052166708 0 0 
0 0 -0.05747552359280788 0.1756968660049678 -0.03767680537523588 -0.005205202765199202 -0.01796929197860212 -0.01104094221661889 -0.04120566052166708 0 0 
0 0 -0.05747552359280788 0.1756968660049678 -0.03767680537523588 -0.005205202765199202 -0.01796929197860212 -0.01104094221661889 -0.04120566052166708 0 0 
0 0 -0.05747552359280788 0.1756968660049678 -0.03767680537523588 -0.005205202765199202 -0.01796929197860212 -0.01104094221661889 -0.04120566052166708 0 0 
0 0 -0.05747552359280788 0.1756968660049678 -0.03767680537523588 -0.005205202765199202 -0.01796929197860212 -0.01104094221661889 -0.04120566052166708 0 0 
-0.04611428596540276 -0.04437148889011588 -0.05747552359280788 0.5405423239851143 -0.3239760366709423 -0.007457927202941972 -0.01796929197860212 -0.01104094221661889 -0.04607678455528087 0 0 
-0.05506981445381248 0 -0.05747552359280788 0.4781672433559279 -0.4141019099010379 -0.005205202765199195 -0.01796929197860212 -0.01104094221661889 -0.04120566052166708 0 0 
-0.01941140115808102 -0.0136478202247884 0 -0.1847132855083136 0.4251581930587515 -0.08239708569068868 -0.03598350392850961 -0.03259938957865084 -0.05443013189034787 -0.01330514410807241 -0.02203120468692252 
-0.2067476898020657 -0.1779201083209238 -0.1930584228504304 0.5780197190184022 0.6192751275457629 -0.2268959812579755 -0.1471926901709637 -0.1072376027161515 -0.1451389982467366 -0.02086337356454607 -0.04718481462405128 
-0.01941140115808102 -0.0136478202247884 0 -0.1847132855083136 0.4251581930587515 -0.08239708569068868 -0.03598350392850961 -0.03259938957865084 -0.05443013189034787 -0.01330514410807241 -0.02203120468692252 
-0.1397446350464819 -0.08474861952265138 -0.160199544648414 -0.4781735656258064 -0.2921738041896914 0.3300022119784956 0.5353147601210406 0.5350153232317142 -0.128003851185985 -0.06782050961902315 -0.07729929137232941 
-0.01941140115808102 -0.0136478202247884 0 -0.1847132855083136 0.4251581930587515 -0.08239708569068868 -0.03598350392850961 -0.03259938957865084 -0.05443013189034787 -0.01330514410807241 -0.02203120468692252 
-0.01941140115808102 -0.0136478202247884 0 -0.1847132855083136 0.4251581930587515 -0.08239708569068868 -0.03598350392850961 -0.03259938957865084 -0.05443013189034787 -0.01330514410807241 -0.02203120468692252 
-0.01941140115808102 -0.0136478202247884 0 -0.1847132855083136 0.4251581930587515 -0.08239708569068868 -0.03598350392850961 -0.03259938957865084 -0.05443013189034787 -0.01330514410807241 -0.02203120468692252 
-0.01941140115808102 -0.0136478202247884 0 -0.1847132855083136 0.4251581930587515 -0.08239708569068868 -0.03598350392850961 -0.03259938957865084 -0.05443013189034787 -0.01330514410807241 -0.02203120468692252 
0 0 0 -0.1939490812242588 0.414325127226547 -0.1339960068244724 -0.009903354760307905 -0.05549984308685889 -0.07565406500741162 0 -0.04282852229657576 
-0.2244178398560298 -0.05270993992459214 -0.159603116749687 0.4034832030976657 0.2256622551465839 0.08463070261862388 -0.06305714727802417 -0.12320068598484 -0.1156043410100339 -0.01170908882701433 -0.06135417258521476 
-0.4806889781679823 0.1356091640328604 -0.2663491356343364 0.1223866289495537 0.1072458161721959 0.08234624605202089 0.3263456902715245 0.2219640720470657 0.03271940492448939 -0.008267312893065632 0.01061875952590307 
0 0 0 -0.1939490812242588 0.414325127226547 -0.1339960068244724 -0.009903354760307905 -0.05549984308685889 -0.07565406500741162 0 -0.04282852229657576 
-0.1410958691182784 -0.3434498632723151 0.5739008038800191 -1.036725686963519 0.1602982618285037 0.5172039969099317 -0.2900568801914935 0.2331974610583932 0.1885268784092349 -0.001005881269384491 0.1593483254966062 
0 0 0 -0.1939490812242588 0.414325127226547 -0.1339960068244724 -0.009903354760307905 -0.05549984308685889 -0.07565406500741162 0 -0.04282852229657576 
0 -0.03530215423973815 -0.188137483699583 -0.346096468372266 0.3086002610232556 0.1123726442748224 -0.07283201648768686 -0.107387708539083 -0.07565406500741162 0 0.2959681155125106 
0 0 0 -0.1939490812242588 0.414325127226547 -0.1339960068244724 -0.009903354760307905 -0.05549984308685889 -0.07565406500741162 0 -0.04282852229657576 
0 0 0 -0.1939490812242588 0.414325127226547 -0.1339960068244724 -0.009903354760307905 -0.05549984308685889 -0.07565406500741162 0 -0.04282852229657576 
-0.1006590513421664 -0.4420072371707996 -0.1180786585133029 1.387778780781446e-17 3.469446951953614e-18 0.6247336099800486 0 0 -0.0009583370464970117 -0.006041547236068605 -0.01340279323266171 
0.09023965120128519 0.1075411117339969 -0.07140595929434444 -0.4449366504762745 0.6429086160997146 0.1687168485981689 -0.1634779308689417 0.0003306892339785697 -0.1423283258882363 -0.02318281951697862 -0.1852487618221462 
0.2871932560971481 0.07599223329803448 -0.1670212173300379 -0.7063438374217896 -0.5155993234468279 1.057290430899626 -0.0425741772957626 -0.01814067899198508 -0.05823155993849899 -0.006041547236068605 -0.01340279323266171 
0.4005647677671801 0.1737131167112863 -0.3794295365595985 -0.2201901032463518 -0.5856848279968789 0.5032512756442269 1.734723475976807e-18 -0.002165423107814398 -0.05423998981523877 -0.006041547236068605 -0.01340279323266171 
0.4005647677671801 0.1737131167112863 -0.3794295365595985 -0.2201901032463518 -0.5856848279968789 0.5032512756442269 1.734723475976807e-18 -0.002165423107814398 -0.05423998981523877 -0.006041547236068605 -0.01340279323266171 
-0.08812721372233979 0.09880102010559233 -0.3681591721042148 -0.1187108170757347 -0.1831616166305685 0.724533579367663 -0.04616810115544685 -0.07497775095659562 -0.03296620601227679 -0.002138769202537829 -0.009775266073950375 
-0.06150536057716935 -0.2591266668897204 -0.00840330025595429 0 0 0.3136320049612683 0 0 -0.0009583370464970117 0 0 
-0.01291361884318812 0.2484363624203044 -0.007629846467724744 -0.1537388446801283 0.2816583536288888 -0.170968403332605 -0.04448337986112439 -0.09311581739820057 0 0 -0.0220948886506154 
-0.001551275980048415 0.3137712784862943 -0.007629846467724741 -0.05809249934392221 -0.08299147430173799 -0.07717826626839536 -0.0217330149256599 -0.02659355660736734 0 0 -0.007945202040748535 
0.5566173170885682 -0.07595653422243412 -0.1444417800212164 -0.1969225933954037 -0.1533827048919753 -0.01187326905647754 0 -0.006258412540869159 0 0 -0.01171273476112222 
0.6752696286085321 -0.1170506523512799 0.1068154921993797 -0.4909366039296299 0.193517700514395 -0.2798981005649617 -0.03538804271063245 -0.0190894379359554 -0.0001185284277715105 0 -0.01171273476112222 
0.8843623988795937 -0.07595653422243412 -0.1932877544019207 -0.2956674289895324 -0.3160655802662722 -0.02907761074399487 0 -0.006258412540869159 -0.0001185284277715105 0 -0.01171273476112222 
0.5566173170885682 -0.07595653422243412 -0.1444417800212164 -0.1969225933954037 -0.1533827048919753 -0.01187326905647754 0 -0.006258412540869159 0 0 -0.01171273476112222 
0.5566173170885682 -0.07595653422243412 -0.1444417800212164 -0.1969225933954037 -0.1533827048919753 -0.01187326905647754 0 -0.006258412540869159 0 0 -0.01171273476112222 
0.5566173170885682 -0.07595653422243412 -0.1444417800212164 -0.1969225933954037 -0.1533827048919753 -0.01187326905647754 0 -0.006258412540869159 0 0 -0.01171273476112222 
0.2514169476889065 -0.05926728567163144 0 -0.03398350278047714 -0.1533827048919753 -0.01187326905647754 0 0 0 0 -0.01171273476112222 
0.2364082639679835 -0.05926728567163145 -0.05578369203393773 0.2848590798879283 -0.2981710536583504 -0.04471228950797584 -0.05746207943039698 -0.001256734545220518 0 0 -0.01171273476112222 
0 -0.001002470438060927 -0.02943988172398632 0.36612908421224 -0.09308201711566767 -0.05865003446066828 0 0 0 0 -0.0564264525253716 
0.02422692712418786 0.1823825170033305 0.2176321359741433 -0.5997440915332302 -0.3938506708118355 0.4274605811010915 0.028976898085808 0.1463906727205083 -0.01586733908113048 -0.01470757630022099 0.2176531504852477 
0.1836852114491055 -0.1388577772319782 -0.6119465949401273 0.5157385817480602 0.3351921624031245 -0.2670696396719691 -0.2649657526389488 0.1157307443944241 0.03635701935252914 -0.04145300286289305 -0.1334009901315971 
-0.1065764365277338 -0.02574214675314701 -0.2218060810424564 -0.08713207417966642 -0.2719379216346512 0.02474166770588954 0.3159473004963964 -0.0448615824225969 0 0 0.4981801658959144 
0.203665035365392 -0.146594808896743 -0.5342016915392801 0.1574799910298266 0.1963598155582929 -0.0215852698888336 -0.2339298163008284 -0.2802698762363502 0.4337043233636634 -0.02488944029015802 -0.08288101220603809 
-0.08944603847717081 -0.001002470438060923 -0.1998956918892233 0.1497215681010419 -0.2190993496601269 -0.1063640653084066 -0.0212231802874643 -0.003566114601032927 0 0 0.573410369549278 
0 -0.001002470438060927 -0.02943988172398632 0.36612908421224 -0.09308201711566767 -0.05865003446066828 0 0 0 0 -0.0564264525253716 
0 -0.001002470438060927 -0.02943988172398632 0.36612908421224 -0.09308201711566767 -0.05865003446066828 0 0 0 0 -0.0564264525253716 
0 -0.001002470438060927 -0.02943988172398632 0.36612908421224 -0.09308201711566767 -0.05865003446066828 0 0 0 0 -0.0564264525253716 
0 -0.001002470438060927 -0.02943988172398632 0.36612908421224 -0.09308201711566767 -0.05865003446066828 0 0 0 0 -0.0564264525253716 
-0.057290224532585 0.30924783760604 -0.0294398817239863 0.2590040380279705 -0.09308201711566767 -0.2329469388633133 0 -1.734723475976807e-18 0 0 -0.05704483526937134 
0 -0.001002470438060927 -0.02943988172398632 0.36612908421224 -0.09308201711566767 -0.05865003446066828 0 0 0 0 -0.0564264525253716 
-0.3262933897522085 0.1523626232024268 0.1321963685386001 -0.1078448234347889 -0.323989380587048 0.5093684472295659 -0.202517054670414 0.2593174610015816 -0.1422581057601846 -0.01263913764013089 -0.07148868635174119 
-0.08380650053051172 0 -0.04357370839249373 0.4089857183655096 -0.2380548216963482 0 -0.01634442447047706 0 0 0 0 
0.09420406773853089 -0.3022927403580704 0.074402455719522 -0.6305924299086334 0.8782912431270762 0.03499799536588553 -0.2710556650796836 -0.114775621751282 -0.1517775130082425 -0.06047710212453083 -0.07647124481213718 
-0.2053079070728421 -0.08903745640929099 0.1232019013615157 1.15667869998927 -1.095987184982531 -0.21950232939207 0.5041191295194276 -0.0987335650207512 -0.02802071505718707 2.168404344971009e-19 3.469446951953614e-18 
0.1457539800882126 -0.3022927403580705 -0.03020554080196662 -0.5350487805117072 0.6401220328198578 0.1548074074067744 -0.2277031130292432 -0.0917698844880948 -0.1097160609912558 -0.06047710212453083 -0.07472125854344931 
-0.08380650053051172 0 -0.04357370839249373 0.4089857183655096 -0.2380548216963482 0 -0.01634442447047706 0 0 0 0 
0.3739701794207456 -0.244001476743534 -0.2892650351120867 -0.1246131032674115 1.061591035861273 -0.9054373432792601 -0.1932053411722119 -0.06397806982536246 -0.08577114242225931 -0.05933044165030535 -0.05094367296072952 
-0.08380650053051172 0 -0.04357370839249373 0.4089857183655096 -0.2380548216963482 0 -0.01634442447047706 0 0 0 0 
-0.1104283536756822 0 -0.1471938396203051 0.2433886335858431 0.06577630424576486 -0.06153276861137311 -0.01634442447047706 0 2.168404344971009e-19 0 0 
-0.08380650053051172 0 -0.04357370839249373 0.4089857183655096 -0.2380548216963482 0 -0.01634442447047706 0 0 0 0 
-0.08380650053051172 0 -0.04357370839249373 0.4089857183655096 -0.2380548216963482 0 -0.01634442447047706 0 0 0 0 
-0.002825146163218028 -0.07077129357314679 -0.1322171283010317 0.3603394267861845 -0.08598761945474347 -0.01068268881775764 0 0 0 0 -0.0149054635519398 
0.4786209019734817 -0.06723133227069268 0.1826867192758231 -0.4806575140113727 -0.1305485471661374 0.112276949261718 -0.2678372053048619 -0.2576403964203536 0.36419702984319 -0.01421217066750838 -0.08157534289872707 
-0.4103157088396065 0.2008885769010605 0.1840955432745786 -0.03661052519896263 0.6737161269134438 -0.1370790913459691 -0.1470998478196584 -0.1835565472173169 -0.1150021907935158 -0.003854791521965497 -0.03172732619011499 
-0.1164395264052489 0.3110387895178577 -0.1322171283010317 0.3514528940571241 -0.1718613744323945 -0.03275521280822316 -0.1307913322732453 -0.06385366811977371 -0.007670675963137277 -0.003665064091068959 -0.0149054635519398 
-0.1575153298279179 0.499288128897858 -0.2370358241417575 -0.1074156016015563 0.5021609784514925 -0.4493941963919756 -0.001579357795092018 -0.02025210169411603 -0.02851264334109961 8.131516293641283e-19 -0.01490546355193979 
-0.002825146163218028 -0.07077129357314679 -0.1322171283010317 0.3603394267861845 -0.08598761945474347 -0.01068268881775764 0 0 0 0 -0.0149054635519398 
-0.002825146163218028 -0.07077129357314679 -0.1322171283010317 0.3603394267861845 -0.08598761945474347 -0.01068268881775764 0 0 0 0 -0.0149054635519398 
-0.1340447010457116 -0.03997176199253785 0.6712004284202117 0.7765544681222381 -0.8752411999048935 -0.6298626481226361 -0.3032974340536973 0.01275222671042586 -0.05402090691623489 -0.05266533349680696 0.1784449096864163 
-0.0701220967690399 -0.125148196183062 -0.1408820535940126 0.5387991050026624 -0.09765730155108453 -0.04841925066217961 -0.01637639540181704 -0.02164113543104703 0 0 -0.0149054635519398 
0.04948543980734532 -0.2143327931899041 0.1213741180377382 0.1737249531063315 0.3487629431491767 -0.2896292450402077 -0.2169935480760538 0.1671099468294301 -0.06711752596765465 0 -0.05895082463757273 
-0.2053615507344445 -0.1698517620178907 -0.0534470196911639 0.07508259248645491 -0.2816864200056154 0.4324692930220414 -0.1651135484409031 -0.09087688678616788 0.2122420876768285 -0.009294356166072671 0.2641335614910391 
-0.001115018390013932 0 0.4130124297304522 -0.2741581674426598 -0.05370644297249781 0 -0.02327764492322919 0 0 0 -0.003027345805918893 
0.3611613777644304 -0.2624236319754653 -0.1629074713654269 0.3616303204846484 -0.23548682597027 -0.3760408146543763 0.1986739134519208 -0.1590899817786335 0.542428947858595 -0.01214328708860497 -0.06280271665026414 
-0.1419997250667024 -0.1836870773630424 -0.09867178598376751 0.247545624584043 0.5714066039245354 -0.1399302879363823 -0.05910752460432969 -0.1380012429783976 -0.05549981201075316 -0.001395727519280838 -0.006608480319049356 
-0.001115018390013929 0 0.3632655767669695 0.07874952759503273 -0.1184008737104149 -0.07844430704614526 -0.1144087043853007 0 -0.0006139370079595438 0 -0.02825468748716828 
-0.01032915573119876 -0.0227083694500444 0.2313970142060718 0.06989975239377749 -0.1612239370812486 -0.0003383773757339431 -0.02327764492322919 2.710505431213761e-19 0 0 -0.003027345805918893 
-0.001115018390013932 0 0.4130124297304522 -0.2741581674426598 -0.05370644297249781 0 -0.02327764492322919 0 0 0 -0.003027345805918893 
-0.001115018390013932 0 0.4130124297304522 -0.2741581674426598 -0.05370644297249781 0 -0.02327764492322919 0 0 0 -0.003027345805918893 
-0.001115018390013932 0 0.4130124297304522 -0.2741581674426598 -0.05370644297249781 0 -0.02327764492322919 0 0 0 -0.003027345805918893 
-0.108478925378435 -0.08899901231017721 0.8003760659448264 -0.1251330061823184 -0.4319558812281314 -0.1789047446286431 -0.1273624330938483 -0.004584738380541823 -0.01338677959590517 -0.009491932571206115 0.2816249698919499 
-0.2002023551059132 0.1744526973215261 0.4990763738477609 -0.5240160208756279 -0.1884282803335603 0.2990478392378958 0.1812873727283836 -0.05046329526330752 -0.009872969792867064 0 -0.052225873938477 
-0.001115018390013932 0 0.4130124297304522 -0.2741581674426598 -0.05370644297249781 0 -0.02327764492322919 0 0 0 -0.003027345805918893 
-0.2829020345734029 0.1372627593275473 -0.1298570236776874 0.6086247881690998 -0.2276402662631445 -0.01440728396020069 -0.09799775275305316 -0.05983524367635288 -0.01358227617365177 -0.007079839256302642 -0.04754727715495784 
-0.03098796062773665 -0.023816456033205 -0.09857781649326525 -0.2349509004733301 -0.1284280824131303 -0.01371389788416469 0.5359008737275127 -0.03584706064669188 -0.01382097686506841 0 -0.00729574466355209 
0.4481892003426843 -0.1174972145267666 0.2582917644621812 -0.2646547827950056 0.03427052158569301 -0.4722906837317753 0.3151456265066798 0.1519827067769533 -0.07817925514106359 -0.02425474518696635 -0.1003748254044063 
-0.1832840296267974 -0.03036346718333077 0.5068182880091863 -0.1158091231493622 -0.3279102753601059 -0.2799188290178836 0.5920978065737955 -0.1420249658296611 -0.0216816942406244 -0.01990009484427714 -0.04285544979926682 
-0.04599664434865966 -0.05788030749431634 0.03951276809640807 0.1469565021205347 -0.1748232925805727 -0.211945805901576 0.3420385201930188 -0.0893744560142247 -0.01382097686506841 0 -0.01146542359202282 
-0.03098796062773665 -0.023816456033205 -0.09857781649326525 -0.2349509004733301 -0.1284280824131303 -0.01371389788416469 0.5359008737275127 -0.03584706064669188 -0.01382097686506841 0 -0.00729574466355209 
-0.03098796062773665 -0.023816456033205 -0.09857781649326525 -0.2349509004733301 -0.1284280824131303 -0.01371389788416469 0.5359008737275127 -0.03584706064669188 -0.01382097686506841 0 -0.00729574466355209 
-0.03098796062773665 -0.023816456033205 -0.09857781649326525 -0.2349509004733301 -0.1284280824131303 -0.01371389788416469 0.5359008737275127 -0.03584706064669188 -0.01382097686506841 0 -0.00729574466355209 
-0.03098796062773665 -0.023816456033205 -0.09857781649326525 -0.2349509004733301 -0.1284280824131303 -0.01371389788416469 0.5359008737275127 -0.03584706064669188 -0.01382097686506841 0 -0.00729574466355209 
-0.02756993992229429 -0.01655461057285226 -0.2254991476352767 0.1549509788820956 -0.03223210250116486 -0.05713389156848629 0.2195950433236447 -0.03195482844582086 -0.01534301875667869 0 -2.168404344971009e-19 
-0.134350747608189 -0.04716229080823563 0.6653815732899752 -0.1573509923471716 -0.7084171087435673 -0.05858173911218605 0.2954815229349211 -0.1355145510487278 -3.469446951953614e-18 -0.01110583878633874 -0.05940173676890777 
-0.05189301381833782 0.2462113019574662 -0.1101135770403405 -0.1914680551779656 0.03021521607019626 -0.06906326344938002 0.304457567003461 -0.120193347263583 -4.336808689942018e-19 0 -0.01767940523495934 
-0.008684305667041863 -0.01655461057285226 -0.08100292547256531 -0.2806555223119617 0.2352634666109246 -5.213471994912084e-05 0.1484760399842484 -0.05943451708010505 0 0 0 
-0.003223170578911552 -0.08712983166181602 -0.1014734938771332 -0.3465287873784624 0 -0.1566487061411886 -0.1193907226382013 0.7069985942278629 0 0 -0.003135095032995745 
-0.1286339132225602 -0.2633110689609295 0.1606904333520299 -0.2717362989667863 -0.1704736696991515 0.1247426211677799 0.1321330290347413 0.6237415084975733 -0.04966980563346915 0 -0.06197960830848052 
-0.04195747779272098 0.1090766445470203 0.1002158888827083 -0.03141397423443582 -0.3443820862498692 -0.03210354597532301 -0.1731054836269459 0.4115567733656521 0 0 -0.122118260367739 
-0.0420121857372175 -0.2542651329186819 -0.05224644204698608 -0.4311565168829783 -0.1561336439647009 0.1479598112533373 0.1898298082620213 0.7130222926996487 -0.04966980563346915 0 -0.06197960830848052 
-0.003223170578911555 -0.1825997597421866 0.3829670731933023 0.1448037170379164 -0.3443820862498694 -0.2444958112418969 -0.1388798040132647 0.4762669964737307 0 0 -0.1131248346267799 
-0.03056248970747845 -0.2542651329186819 -0.03116613601880956 -0.8024187973925432 -0.04705677037174798 0.1670831348487966 0.2309479254151271 0.7936559785249834 -0.03032253686023124 0 -0.04625631795685953 
-0.07763780859302785 -0.03392448127137301 -0.1179445596544429 -0.3351676055620343 0.3745744183371669 -0.09606281325277582 -0.07884807803045935 0.3395308995624674 0 0 -0.003135095032995745 
0.1752928848522536 0.3964727910146907 0.03533982342472228 -0.05665085675828098 -0.216844740134734 -0.2688098051270115 -0.2003485192179531 0.1228500441627799 -0.04126254988503093 -0.06525505090222945 0.1772570124161146 
0.0751902365480946 -0.1494395135809419 -0.9396056820182521 1.427042441207436 -0.4992397274654866 -0.5113490112755188 0.08047720011448248 0.1120271795524624 -0.06672223432391217 -0.005175660324479107 0.1062645769015761 
-0.003223170578911552 -0.03372244060653943 0 -0.2445731475723029 0 0 -0.0655563291972818 0.3581558532888933 0 0 -0.003135095032995745 
-0.006163614633531511 -0.04333550342634782 0 0.2145728293701281 -0.1470408472566605 0 0 -0.01923902558285445 0 0 0 
-0.3216544239935281 -0.2306093193307172 0.5455133406613549 0.138406183397091 0.2798132029781534 -0.2025990522697023 -0.2921182729441006 -0.2069295113216846 -0.1200968032555578 -0.03205458758655046 -0.1093972120251265 
-0.1753917245027276 -0.1507554781738699 -0.7594909890004502 0.6362290099816011 0.4877482581124019 -0.1548555009715232 -0.01053962215932112 -0.07359047313769132 -0.03986700584937683 -0.01880997959767387 -0.07084993307492655 
-0.3470489460845051 0.8554228797264933 -0.4396558706522672 0.61911245809587 -0.6786778782382004 -0.2421991385445921 -0.06604791599482518 0.4101133422341924 -0.02222158164658969 0 -0.06131364227166081 
-0.006163614633531511 -0.04333550342634781 -0.3726383065754193 0.1862994939756833 0.2649807346463687 -0.07346923676057973 3.469446951953614e-18 -0.01923902558285445 0 0 0 
-0.006163614633531511 -0.04333550342634782 0 0.2145728293701281 -0.1470408472566605 0 0 -0.01923902558285445 0 0 0 
-0.006163614633531511 -0.04333550342634782 0 0.2145728293701281 -0.1470408472566605 0 0 -0.01923902558285445 0 0 0 
-0.006163614633531511 -0.04333550342634782 0 0.2145728293701281 -0.1470408472566605 0 0 -0.01923902558285445 0 0 0 
-0.006163614633531511 -0.04333550342634782 0 0.2145728293701281 -0.1470408472566605 0 0 -0.01923902558285445 0 0 0 
-0.05384053893813373 -0.05446756528579488 0 0.4940686131271787 -0.3347820448846235 -0.03574405810540023 0 -0.01923902558285445 -0.01600535743362587 -0.005642152090823772 0 
0.3091009772291003 -0.0883869265815458 0 -0.1133449103131564 -0.06248284906084182 -0.0300756651546037 0 -0.01069104313171532 0 0 -0.00823266198381069 
0.1701781787362693 0.03272260748298784 -0.03878656386676872 -0.2531056059860158 0.03104196684838147 0.4804172635697578 -0.1232682385795735 -0.1103431807831707 -0.1793102888926052 -0.05849728659863551 -0.09253102975993874 
0.5800372529125892 -0.1426204372585257 0 -0.4123257239642061 0.161090081305137 -0.1464981188238231 -0.0518624257428467 -0.04773024763340425 -0.06593962060894239 3.811648262644352e-21 -0.008232661983810686 
0.678862865024432 -0.08838692658154579 0 -0.2367048585931049 -0.2146115728624798 -0.07607332595285152 -0.0518624257428467 -0.032340232578375 -0.04451489997926569 3.811648262644352e-21 -0.008232661983810686 
0.3091009772291003 -0.0883869265815458 0 -0.1133449103131564 -0.06248284906084182 -0.0300756651546037 0 -0.01069104313171532 0 0 -0.00823266198381069 
0.3091009772291003 -0.0883869265815458 0 -0.1133449103131564 -0.06248284906084182 -0.0300756651546037 0 -0.01069104313171532 0 0 -0.00823266198381069 
0.3091009772291003 -0.0883869265815458 0 -0.1133449103131564 -0.06248284906084182 -0.0300756651546037 0 -0.01069104313171532 0 0 -0.00823266198381069 
0.3091009772291003 -0.0883869265815458 0 -0.1133449103131564 -0.06248284906084182 -0.0300756651546037 0 -0.01069104313171532 0 0 -0.00823266198381069 
0.1684891474329609 -0.1376348505214199 0.1377707540473815 0.4028701247593146 -0.410143112887674 -0.152382625985258 -0.03924848152677767 -0.0194380303317594 -0.01600535743362586 -0.005642152090823772 -0.008232661983810697 
0 0 -0.03831183420463788 -0.08597064513536212 0.1999088363585517 -0.003270720772038023 -0.01705071642642486 0 0 -0.006612940808468134 -0.008247345124023931 
-0.06728427410904575 -0.03280692103064357 -0.3163708900618395 0.07928722334407703 0.731282669656125 -0.2094248494780986 -0.04684970277993557 -0.03507150059217259 -0.02692964111759531 -0.006612940808468134 -0.008247345124023931 
-0.04496702829079435 -0.0001694328919113123 -0.09278731479335929 0.01486824537664039 0.3409911158152515 -0.0722274083051935 -0.04212620121381849 -0.008421058923714364 -1.084202172485504e-19 -0.006612940808468134 -0.00824734512402393 
-1.040834085586084e-17 0 -0.1345859920655191 -0.2039398762135417 0.4889359404099742 -0.02415115496493777 -0.03286227052961022 0 0 -0.006612940808468134 -0.008247345124023931 
0 0 -0.03831183420463788 -0.08597064513536212 0.1999088363585517 -0.003270720772038023 -0.01705071642642486 0 0 -0.006612940808468134 -0.008247345124023931 
-1.040834085586084e-17 0 -0.1345859920655191 -0.2039398762135417 0.4889359404099742 -0.02415115496493777 -0.03286227052961022 0 0 -0.006612940808468134 -0.008247345124023931 
0 0 -0.03831183420463788 -0.08597064513536212 0.1999088363585517 -0.003270720772038023 -0.01705071642642486 0 0 -0.006612940808468134 -0.008247345124023931 
0 0 -0.03831183420463788 -0.08597064513536212 0.1999088363585517 -0.003270720772038023 -0.01705071642642486 0 0 -0.006612940808468134 -0.008247345124023931 
-0.1426916656973418 -0.02200818146594058 -0.05735183471267491 -0.4518705507100508 0.7729400308814955 -0.003270720772038037 -0.03141174340890866 -0.04538954550910047 8.673617379884035e-19 -0.006612940808468134 -0.008247345124023931 
-0.1982201083003301 -0.02524494747358433 0.1585003542663189 0.08067612980424073 0.1138696155634192 -0.06177430997463829 0.196341788712634 -0.07446604075577971 -0.01231837846331767 -0.01100977505562632 -0.01740137165090478 
0 0 -0.03831183420463788 -0.08597064513536212 0.1999088363585517 -0.003270720772038023 -0.01705071642642486 0 0 -0.006612940808468134 -0.008247345124023931 
0 0 0.15996464345973 -0.2558886406971491 0 0 0 0 0 0 0 
-0.03030475712334918 -0.0006503366716978248 0.2307243369529276 -0.6497252005679929 0.4297267287625974 -0.01599509188912958 0 -1.734723475976807e-18 0 0 -0.006996732013816191 
-0.1553299419287259 -0.208145412144264 1.103928802460718 0.0853694555723967 -0.6559003833981721 -0.1897632175567997 -0.06899868343927403 -0.0637979971995245 -0.0343818584372576 -0.0007068999453892261 -0.07601996662725341 
-0.01059079931775159 -0.0006503366716978248 0.3273216750382948 -0.4934118369763338 0.1760914108500643 -0.01599509188912958 0 0 0 0 -0.006996732013816191 
-0.005943494030672816 -0.02625643364003305 0.03454745924062841 0.1873102342703429 -0.1670726581069583 -0.02620340262510012 -0.01258761065886148 0 -0.00628116130609211 0 -0.01018927067667154 
0 0 0.15996464345973 -0.2558886406971491 0 0 0 0 0 0 0 
0 0 0.15996464345973 -0.2558886406971491 0 0 0 0 0 0 0 
-0.1979312277321697 -0.2057231621419786 1.602250785567408 0.4192338064377091 -1.362924096417891 -0.2630559981476494 -0.3768239826715701 -0.4192354617084987 -0.07842570862825654 -0.04805611806022102 -0.252256880180956 
-0.02282760465882698 -0.1039704773147388 -0.06158488966363927 0.4494982134276957 -0.3464986647516972 0.08862369061928642 -0.1159930980580186 -0.1135839906226633 5.204170427930421e-18 -0.002062005542198105 -0.08013196650535173 
0 0 0.09077836692078131 0.1120237427345586 -0.2979040502728507 -0.0007945776439479496 -0.01497765793898999 0 0 0 0 
-0.03430297493031344 -0.05632669670406858 0.1170580312101485 -0.3735257918496759 -0.162572512559271 -0.07927751924965466 0.3661728960568669 0.2314650128426944 -0.0163261116685085 -0.006261422658990364 -0.01508722432307343 
0.3361164384789994 -0.02342264040011536 0 -0.09715531784669229 -0.1339956709108123 -0.04044925370007663 -0.0109866501758094 -0.01420623790316588 0 0 -0.01135326617545018 
0.5653348853344435 -0.1486127670555828 -0.3588495937871258 -0.3786319743605189 0.3212812897021288 0.2974524910014308 -0.02660591309043811 -0.09026108837622954 0 0 -0.02214454829264082 
0.3361164384789994 -0.02342264040011536 0 -0.09715531784669229 -0.1339956709108123 -0.04044925370007663 -0.0109866501758094 -0.01420623790316588 0 0 -0.01135326617545018 
0.3361164384789994 -0.02342264040011536 0 -0.09715531784669229 -0.1339956709108123 -0.04044925370007663 -0.0109866501758094 -0.01420623790316588 0 0 -0.01135326617545018 
0.3361164384789994 -0.02342264040011536 0 -0.09715531784669229 -0.1339956709108123 -0.04044925370007663 -0.0109866501758094 -0.01420623790316588 0 0 -0.01135326617545018 
0.3361164384789994 -0.02342264040011536 0 -0.09715531784669229 -0.1339956709108123 -0.04044925370007663 -0.0109866501758094 -0.01420623790316588 0 0 -0.01135326617545018 
0.3361164384789994 -0.02342264040011536 0 -0.09715531784669229 -0.1339956709108123 -0.04044925370007663 -0.0109866501758094 -0.01420623790316588 0 0 -0.01135326617545018 
0.3361164384789994 -0.02906395768460415 -0.02948547216438681 -0.2316530401433496 -0.2273751157070957 0.243006434263026 -0.0109866501758094 -0.01420623790316588 0 0 -0.01135326617545018 
0.3361164384789994 -0.02342264040011536 0 -0.09715531784669229 -0.1339956709108123 -0.04044925370007663 -0.0109866501758094 -0.01420623790316588 0 0 -0.01135326617545018 
0.6796680436220321 -0.065304879838502 -0.03517009564977769 -0.200412316509329 -0.3097043427144208 -0.04044925370007663 -0.0109866501758094 -0.01420623790316588 -0.006350540719105215 0 -0.01135326617545018 
0.2948903864344341 -0.03535351337387076 0 -0.239539078798001 0.1345904286590215 -0.07545396895426931 -0.06414044269352567 -0.04070089814127213 0 -0.004920276261965091 -0.02987891646408918 
-0.02694863937802952 -0.03846194427159673 -0.08375402977420399 -0.1499479182731924 0 -0.08913734684996451 0.7511226604862696 -0.2859587056037034 0 0 -0.04312122292386378 
-0.03659691021677039 -0.06483092207096783 -0.08375402977420397 -0.3082560173716347 -0.03949250083045838 -0.1081594735459078 0.6822489390480881 -0.2859587056037033 0 0 0.3041833205045292 
-0.02694863937802952 -0.03846194427159673 -0.08375402977420399 -0.1499479182731924 0 -0.08913734684996451 0.7511226604862696 -0.2859587056037034 0 0 -0.04312122292386378 
0.2519744483032283 -0.04960988537571343 -0.1655119376799498 -0.2138358077149735 -0.08303636477651663 0.1976425710235343 0.3397717969029339 -0.1479080988547219 0 0 -0.01150872679452376 
0.2793768058114616 -0.03645247412093502 0 -0.06209150546489503 -0.1304796761828747 -0.3223747653733387 0.3808329062827945 -0.1244648277710393 8.673617379884035e-19 0 -0.009537780038318767 
-0.02694863937802952 -0.03645247412093502 0 -0.06209150546489503 0 -0.08766118871044278 0.3808329062827945 -0.1244648277710393 0 0 -0.009537780038318767 
0.6253440404999362 -0.1262399854476555 -0.1577246463872923 -0.2605435028379193 0 -0.1422942913684937 -0.04725719762531031 0 0 0 0 
0.2195405010850366 0.1678682599972681 0.1747973273614694 -0.04450849413140002 -0.8099824254001033 0.8083519132071987 0.06682276884656367 -0.3400620716591547 -0.3263125024295247 -0.05260564775284567 -0.1779408280834746 
0.5809438545370391 -0.1262399854476555 -0.157812688722751 0.1282272882654747 -0.1732730519578663 -0.247885621060089 -0.04725719762531031 0 -0.02553951611971142 0 -0.01746014728192367 
0.6253440404999362 -0.1262399854476555 -0.1577246463872923 -0.2605435028379193 0 -0.1422942913684937 -0.04725719762531031 0 0 0 0 
0.6253440404999362 -0.1262399854476555 -0.1577246463872923 -0.2605435028379193 0 -0.1422942913684937 -0.04725719762531031 0 0 0 0 
0.6253440404999362 -0.1262399854476555 -0.1577246463872923 -0.2605435028379193 0 -0.1422942913684937 -0.04725719762531031 0 0 0 0 
0.3001018187995103 -0.04761968649910207 0 -0.1520661443453337 0 -0.08673809358308379 -0.04379349809807007 0 0 0 0 
0.1640524013691103 -0.1600227778585132 -0.2511137542896341 -0.1229313756273389 0.2678043807745204 0.02012536370812131 -0.05152657832142425 -0.009482096734504864 -0.005347589859847395 -0.002668720065266516 -0.04984795179545352 
0.2037820259982984 -0.04761968649910207 0 0.1484018642008048 -0.09450973193488869 -0.147183116776485 -0.04379349809807007 -1.084202172485504e-18 -0.01091932815122891 0 0 
0.3001018187995103 -0.04761968649910207 0 -0.1520661443453337 0 -0.08673809358308379 -0.04379349809807007 0 0 0 0 
-0.08604268063414494 -0.01776897173351204 0 -0.02650229450493741 -0.06393422212442822 -0.1119313003375448 -0.05209455594498424 -0.02763103086218919 0.401023595568932 -0.0178982360320884 -0.02337377829095578 
0.07313588726777913 -0.3063261258553459 -0.2910201779456437 -1.157624809562045 0.02825619460487595 0.5016033820581121 0.4187108895322065 -0.2188173493185366 0.7220229131929331 -0.04532139850290054 0.2956093859600575 
0.04384031963409796 -0.07583833896406933 -0.07833269810026693 -0.3370196662517151 -0.2325334472633754 0.04936052954147185 -0.1453521108602639 0.2654706838259882 0.2676823664748723 0.2931987317484498 -0.06829446191602409 
-0.08604268063414494 -0.01776897173351204 0 -0.02650229450493741 -0.06393422212442822 -0.1119313003375448 -0.05209455594498424 -0.02763103086218919 0.401023595568932 -0.0178982360320884 -0.02337377829095578 
-0.08604268063414494 -0.01776897173351204 0 -0.02650229450493741 -0.06393422212442822 -0.1119313003375448 -0.05209455594498424 -0.02763103086218919 0.401023595568932 -0.0178982360320884 -0.02337377829095578 
-0.08604268063414494 -0.01776897173351204 0 -0.02650229450493741 -0.06393422212442822 -0.1119313003375448 -0.05209455594498424 -0.02763103086218919 0.401023595568932 -0.0178982360320884 -0.02337377829095578 
-0.08604268063414494 -0.01776897173351204 0 -0.02650229450493741 -0.06393422212442822 -0.1119313003375448 -0.05209455594498424 -0.02763103086218919 0.401023595568932 -0.0178982360320884 -0.02337377829095578 
-0.08604268063414494 -0.01776897173351204 0 -0.02650229450493741 -0.06393422212442822 -0.1119313003375448 -0.05209455594498424 -0.02763103086218919 0.401023595568932 -0.0178982360320884 -0.02337377829095578 
-0.08604268063414494 -0.01776897173351204 0 -0.02650229450493741 -0.06393422212442822 -0.1119313003375448 -0.05209455594498424 -0.02763103086218919 0.401023595568932 -0.0178982360320884 -0.02337377829095578 
-0.08604458776200644 -0.04624233954720648 0 -0.07997957737207036 -0.06514832523041145 0.3465520145186479 -0.04776645462247872 -0.01433272127176474 -0.0552992822619295 -0.006170649437461518 -0.02144324249789626 
-0.1979397576718605 0.2541065149854125 -0.001043540644115084 -0.2482164711055945 -0.2146208467924158 0.4777989502938397 -0.04776645462247872 -0.03002192599363743 -0.06234660976565366 -0.00617064943746152 -0.02160451689904198 
-0.08604458776200644 -0.04624233954720648 0 -0.07997957737207036 -0.06514832523041145 0.3465520145186479 -0.04776645462247872 -0.01433272127176474 -0.0552992822619295 -0.006170649437461518 -0.02144324249789626 
-0.08604458776200644 -0.04624233954720648 0 -0.07997957737207036 -0.06514832523041145 0.3465520145186479 -0.04776645462247872 -0.01433272127176474 -0.0552992822619295 -0.006170649437461518 -0.02144324249789626 
-0.08604458776200644 -0.04624233954720648 0 -0.07997957737207036 -0.06514832523041145 0.3465520145186479 -0.04776645462247872 -0.01433272127176474 -0.0552992822619295 -0.006170649437461518 -0.02144324249789626 
-0.08604458776200644 -0.04624233954720648 0 -0.07997957737207036 -0.06514832523041145 0.3465520145186479 -0.04776645462247872 -0.01433272127176474 -0.0552992822619295 -0.006170649437461518 -0.02144324249789626 
-0.08604458776200644 -0.04624233954720648 0 -0.07997957737207036 -0.06514832523041145 0.3465520145186479 -0.04776645462247872 -0.01433272127176474 -0.0552992822619295 -0.006170649437461518 -0.02144324249789626 
-0.08604458776200644 -0.04624233954720648 0 -0.07997957737207036 -0.06514832523041145 0.3465520145186479 -0.04776645462247872 -0.01433272127176474 -0.0552992822619295 -0.006170649437461518 -0.02144324249789626 
-0.09341863850065815 -0.04624233954720647 -0.1498235002095813 0.1998188126652254 -0.08116546869241356 0.2883413122444127 -0.04776645462247872 -0.01433272127176474 -0.0552992822619295 -0.006170649437461518 -0.02144324249789626 
0.332396501359643 -0.02977894591635209 0 -0.1449613715516182 -0.0536413347134974 -0.05480077813390533 -0.006023285262146461 -0.03302427084102243 -0.01753004130925492 -0.006619794532610065 0 
0.332396501359643 -0.02977894591635209 0 -0.1449613715516182 -0.0536413347134974 -0.05480077813390533 -0.006023285262146461 -0.03302427084102243 -0.01753004130925492 -0.006619794532610065 0 
0.332396501359643 -0.02977894591635209 0 -0.1449613715516182 -0.0536413347134974 -0.05480077813390533 -0.006023285262146461 -0.03302427084102243 -0.01753004130925492 -0.006619794532610065 0 
0.332396501359643 -0.02977894591635209 0 -0.1449613715516182 -0.0536413347134974 -0.05480077813390533 -0.006023285262146461 -0.03302427084102243 -0.01753004130925492 -0.006619794532610065 0 
0.332396501359643 -0.02977894591635209 0 -0.1449613715516182 -0.0536413347134974 -0.05480077813390533 -0.006023285262146461 -0.03302427084102243 -0.01753004130925492 -0.006619794532610065 0 
0.332396501359643 -0.02977894591635209 0 -0.1449613715516182 -0.0536413347134974 -0.05480077813390533 -0.006023285262146461 -0.03302427084102243 -0.01753004130925492 -0.006619794532610065 0 
0.332396501359643 -0.02977894591635209 0 -0.1449613715516182 -0.0536413347134974 -0.05480077813390533 -0.006023285262146461 -0.03302427084102243 -0.01753004130925492 -0.006619794532610065 0 
0.332396501359643 -0.02977894591635209 0 -0.1449613715516182 -0.0536413347134974 -0.05480077813390533 -0.006023285262146461 -0.03302427084102243 -0.01753004130925492 -0.006619794532610065 0 
0.332396501359643 -0.02977894591635209 0 -0.1449613715516182 -0.0536413347134974 -0.05480077813390533 -0.006023285262146461 -0.03302427084102243 -0.01753004130925492 -0.006619794532610065 0 
-0.01146154109130403 0 -0.07611808686625557 -0.04343006651044102 0.1882920037809044 -0.00111472240224039 0 0 0 -0.0006319489821372049 0 
0.5946483429956209 -0.1319799909234193 -0.121507762500957 0.2300760096872362 0.007828468022454392 -0.1382477558688709 -0.2098317881872532 -0.2413434840624102 -0.01253456556206676 -0.0417959452498878 -0.0539718740752411 
-0.4286085961771199 -0.3790273031143956 0.7273600412336558 -0.715732904281452 1.159086163624072 -0.3361180767040798 -0.3138980965249851 0.1019927210834906 -0.2855025375341602 -0.006891528788615896 -0.1285514323251939 
-0.361920784027931 0.2148231397792542 -0.275790642226386 -0.0220690574786541 0.7800316895664664 -0.1368561940510131 -0.02100068433964618 -0.1289766133500537 -0.0008880252912753402 -0.0006319489821372032 -0.002153457388303279 
-0.0967644214595062 -0.01563672731573529 0.9054292103968218 -0.6457443313509269 -0.3260605331203307 -0.09425886536390343 0.4010906055602619 -0.03398078848821898 -0.09152800367691433 -0.0008216764130337384 -8.673617379884035e-19 
-0.01164982680116367 1.734723475976807e-18 -0.2164623962405846 -0.1171716053956313 0.4601817688437832 -0.04700554293815622 0 0 0 -0.0006319489821372049 -0.0009665935249825728 
-0.01146154109130403 0 -0.07611808686625557 -0.04343006651044102 0.1882920037809044 -0.00111472240224039 0 0 0 -0.0006319489821372049 0 
-0.01146154109130403 0 -0.07611808686625557 -0.04343006651044102 0.1882920037809044 -0.00111472240224039 0 0 0 -0.0006319489821372049 0 
-0.01146154109130403 0 -0.07611808686625557 -0.04343006651044102 0.1882920037809044 -0.00111472240224039 0 0 0 -0.0006319489821372049 0 
-0.3205426904990131 -0.2673279595127327 -0.3178938627306022 -0.5058950766757566 1.051160957856701 0.06849664657249514 0.1439977120490673 0.1735576687048061 -0.06259626406019425 -0.006934875759000698 -0.03380451496333008 
-0.01146154109130403 0 -0.07611808686625557 -0.04343006651044102 0.1882920037809044 -0.00111472240224039 0 0 0 -0.0006319489821372049 0 
-0.1700628823585728 0.7572215685817413 -0.1390455585381418 1.734723475976807e-18 -0.1729809371291771 -0.2652692711490744 0 -0.002165423107814402 0 0 0 
0.02005033116814938 0.614428562032202 -0.2565064650201477 0.05757549448328514 -0.2173102709190702 -0.1410823473611939 -0.05710942553413756 -0.08849511398152972 -0.0273232791983786 -0.01941894278793272 -0.1251453825642603 
-0.4035254996926886 0.6573807870270009 0.0176630000350954 -0.3225738283227134 0.5087023847742218 -0.4462457526642599 -0.03305542342083907 -0.04110658439050138 -0.01715579416904684 0 -0.03041235012415145 
-0.1700628823585728 0.6556225635775592 0.1083736734279076 -0.2290512805583145 -0.1916592391180958 -0.2652692711490744 0 -0.002165423107814402 0 0 0 
-0.1603144144137328 0.2224698849956727 0.1796189582675329 0.1009989693966099 -0.4951570464022762 -0.002424809648906839 -0.05507469327988267 0.2788879576775263 0 0 -0.006113476802835501 
-0.08510491546296173 0.3708671143587449 -0.1390455585381418 0 0 -0.1265145093754779 0 -0.001948213908192383 0 0 0 
-0.08510491546296173 0.3708671143587449 0.5835933279885976 -0.3877402609698376 -0.0214246460092717 -0.3178801899954129 -0.05124534326555633 -0.02931723478802621 -4.336808689942018e-19 0 0 
-0.1658809851709544 0.3347380750870951 0.5898100766539023 -0.1974482276481224 -0.2750611683079887 -0.1399023240886322 -0.01630851554641312 -0.07156404528924423 -0.002607074640065581 0 0 
-0.08257469210506203 -0.06126405387058565 -0.06879985024329571 0 -0.07048988894350265 0.3191126626667904 -0.01065625230085474 0 -0.003991570123260222 0 0 
-0.08257469210506203 -0.06126405387058565 -0.06879985024329571 0 -0.07048988894350265 0.3191126626667904 -0.01065625230085474 0 -0.003991570123260222 0 0 
-0.08257469210506203 -0.06126405387058565 -0.06879985024329571 0 -0.07048988894350265 0.3191126626667904 -0.01065625230085474 0 -0.003991570123260222 0 0 
-0.08257469210506203 -0.06126405387058565 -0.06879985024329571 0 -0.07048988894350265 0.3191126626667904 -0.01065625230085474 0 -0.003991570123260222 0 0 
-0.08257469210506203 -0.06126405387058565 -0.06879985024329571 0 -0.07048988894350265 0.3191126626667904 -0.01065625230085474 0 -0.003991570123260222 0 0 
-0.08257469210506203 -0.06126405387058565 -0.06879985024329571 0 -0.07048988894350265 0.3191126626667904 -0.01065625230085474 0 -0.003991570123260222 0 0 
-0.03981720015432172 0.03652162773417601 1.017457773246595 -0.6171904934986859 -0.2591818968187053 0.0841080232249712 -0.172241536465142 -0.04107098934823594 -0.04841184966686698 -0.005235734620558741 -0.0515183305276066 
-0.08257469210506203 -0.06126405387058565 -0.06879985024329571 0 -0.07048988894350265 0.3191126626667904 -0.01065625230085474 0 -0.003991570123260222 0 0 
0.03324127112305131 0.7704821356645034 -0.3069682306606365 0.1325099527878988 -0.5498216655654966 0.1381472762680948 -0.07742709400776479 -0.0977926110182229 -0.003991570123260223 -0.01720369370072445 -0.06132675513285365 
0.1546503016289574 0.07551235040803261 -0.2436734722510366 -0.2663213875849557 -0.2072199565421654 0.6475050068892355 -0.1496273363159085 0.2128682703079134 -0.03664969785347844 -0.06018538574388824 -0.08086110136078772 
-0.04309547906028647 -0.03658611967063347 0 -0.174856652895802 -0.06911302034629105 0.3240758078089604 0 -0.01885280009492219 -0.001337502717777745 0 0 
-0.1394152718614983 -0.03658611967063347 -1.734723475976807e-18 0.1256113556503365 -0.1636227522811798 0.2636307846155593 0 -0.01885280009492219 -0.01225683086900666 0 8.673617379884035e-19 
-0.04309547906028647 -0.03658611967063347 0 -0.174856652895802 -0.06911302034629105 0.3240758078089604 0 -0.01885280009492219 -0.001337502717777745 0 0 
-0.08741520681780103 -0.07888932657247405 -0.2819511503376727 0.2610561528505642 -0.3526571049176071 0.560014854217024 -0.03922981645782123 -0.01885280009492219 -0.001337502717777743 0 0 
-0.04309547906028647 -0.03658611967063347 0 -0.174856652895802 -0.06911302034629105 0.3240758078089604 0 -0.01885280009492219 -0.001337502717777745 0 0 
-0.04309547906028649 -0.04987453070887488 -0.07488325512223518 -0.3468172816702063 -0.4067596653101696 0.914196305690383 0 -0.0188528000949222 -0.001337502717777745 0 0 
-0.1583970557385846 -0.08999351072591008 -0.171352308821582 -0.4325491070699573 0.4240486203161602 0.06246353451744012 -0.1465986266213951 0.2431968294141151 -0.006647896097794185 0 0.2495237279438425 
0 0 0.360129414830075 -0.07268693940908533 -0.01119103845234526 -0.2638078416525713 0 0 0 0 0 
-0.3069249104134907 -0.1731704860120726 -0.03227482934515737 0.4190098559065701 0.07338341172993165 -0.4466159904883492 0.07221387061493861 0.4279886899785367 -0.03118243164700902 -0.0271532007494642 -0.1203357569919535 
-0.08130321391746095 -0.0509047964353391 -0.5322387542467918 -0.2533328932401991 0.4545762440349497 0.139529971771436 -0.1771456047132663 0.4161919533177475 -0.01993751438181155 -0.01734241470968175 -0.03398435405701117 
-0.1658077654781456 -0.194296864868777 -0.8525775037686688 -1.00764782525193 -0.4992044728238383 2.620787199832671 -0.1216226751925159 3.903127820947816e-18 -0.03523294754097667 -0.003314329481158287 -0.03643113052239288 
-0.02586019366498565 0 0.1521018874766027 -0.1744134002851458 0.3900798627386274 -0.2638078416525713 -0.07634083612208387 -0.07710186665559478 -4.336808689942018e-19 0 0 
-0.005204605456838314 0 0.04894420040162662 -0.2210530864655659 -0.02399375362050777 0.2197965338512317 0 -8.673617379884035e-19 0 -0.003314329481158287 0 
0 0 0.360129414830075 -0.07268693940908533 -0.01119103845234526 -0.2638078416525713 0 0 0 0 0 
0 0 0.360129414830075 -0.07268693940908533 -0.01119103845234526 -0.2638078416525713 0 0 0 0 0 
0 0 0.360129414830075 -0.07268693940908533 -0.01119103845234526 -0.2638078416525713 0 0 0 0 0 
0 0 0.360129414830075 -0.07268693940908533 -0.01119103845234526 -0.2638078416525713 0 0 0 0 0 
-0.3288749734034399 0.1168958291608703 0.007355747926744843 -0.3685966157051426 0.6076392889127127 -0.1490528887208437 0.2050161336517522 -0.03452275816617451 0.2749607736860475 -0.01130862952060529 -0.05123351688189497 
0 -0.003737092812668007 0.3327783148071274 -0.0926484250377691 -0.1332606920063605 -0.03480014588302783 0 0 0 -0.005235734620558739 0 
-0.3506723592922555 -0.3039792475436005 -0.1629487742416345 0.7651703288352724 0.4008004865144096 -0.283002208990954 -0.3551782361180303 -0.1689599876079474 -0.1345776177308607 -0.03107489500808468 -0.1552397450136903 
-0.03779699125736696 -0.08641537129488908 0.1084925850652964 -0.293907646889581 0.3548043137296635 -0.1230112391593846 -0.07111900333939626 -0.0434549445184549 -0.001197075291014526 -0.02270442444824977 -0.01932047767877916 
-0.009866884559509856 -0.003737092812668007 0.2574064661678529 0.139850003409499 -0.2399837850590389 -0.03480014588302783 -0.003639330772423506 -0.00948209673450486 0 -0.007904454685825256 -0.02698997505447969 
4.336808689942018e-19 -0.003737092812668007 0.2851568198445054 -0.06592759028488712 -0.1989205594833246 -0.03535084190518584 0 0 0 -0.005235734620558739 0 
-0.009866884559509856 -0.003737092812668007 0.2574064661678529 0.139850003409499 -0.2399837850590389 -0.03480014588302783 -0.003639330772423506 -0.00948209673450486 0 -0.007904454685825256 -0.02698997505447969 
4.336808689942018e-19 -0.003737092812668007 0.2851568198445054 -0.06592759028488712 -0.1989205594833246 -0.03535084190518584 0 0 0 -0.005235734620558739 0 
0 -0.003737092812668007 0.3327783148071274 -0.0926484250377691 -0.1332606920063605 -0.03480014588302783 0 0 0 -0.005235734620558739 0 
-0.01200295782752052 -0.003737092812668007 0.3327783148071274 -0.2854000644626092 0.2044019978084489 -0.08979682383961532 -0.06425799079750688 0 0 -0.005235734620558739 -0.02191111057677122 
-0.1425497108036918 0.300124566858143 0.5075722779720547 -0.1917699671597649 -0.3509192566581385 -0.2282585829754972 -0.0005872827168747223 0.2716054143629137 0 -0.005235734620558739 -0.04636955679588819 
-0.1519978472208098 -0.01375037051100109 0.1946000212033376 -0.3269429998490469 -0.1112826180577856 0.2818522102861046 0.3012190274232237 -0.05303911679462785 -0.003372033067375577 -0.005235734620558739 -0.02041152188538215 
-4.404954700185401e-05 -0.02243513755871833 0 -0.330067127711023 0.4783520454150749 -0.07625618291276236 -0.02345355265237581 0 0 -0.003943591979612481 -0.02022187074483021 
0.3468630619704227 0.4012524183783645 -0.5948780942455213 0.4671821539334211 0.0850835956525593 -0.3071360443204029 -0.2231158442160253 -0.2618749131722196 0.1480402381550373 -0.00850051388450891 -0.1636174447798856 
-0.207644243636982 0.2264709960803429 -0.2152400495199193 0.3528284809532309 0.09803367683836864 -0.1549384026100636 -0.05458502471280966 -1.301042606982605e-18 -0.09076015866317033 -0.00394359197961248 -0.02022187074483021 
-0.1250761135192179 -0.2210531721299957 -0.5812400988864095 -0.08847630872614493 0.2120826210779372 0.4471121082371523 0.1201576409264054 0.2790471802982538 -0.04424443713878966 -0.07167985760475715 0.2399294824748852 
-0.02098267473043964 -0.0622840609699014 -0.1369084936636867 -0.02484004239154046 0.4416912534206037 -0.1247477070716467 -0.02345355265237581 0 -0.01803103391995449 -0.003943591979612481 -0.02022187074483021 
-0.1085206383346687 -0.05394716678866023 -0.03347079201155395 -0.5255084478385573 0.4011123672113746 0.5537309308395184 -0.09635851785298148 -0.04793518857685774 -0.02286712350423598 -0.0314869752353653 -0.1073017252709393 
-4.404954700185401e-05 -0.02243513755871833 0 -0.330067127711023 0.4783520454150749 -0.07625618291276236 -0.02345355265237581 0 0 -0.003943591979612481 -0.02022187074483021 
-4.404954700185401e-05 -0.02243513755871833 0 -0.330067127711023 0.4783520454150749 -0.07625618291276236 -0.02345355265237581 0 0 -0.003943591979612481 -0.02022187074483021 
-0.09387194998246708 -0.2197056743757009 -0.4975063052777707 -0.3220238818398107 1.289123342834573 -0.2383327905121691 -0.1227512457971886 0.1531265867554315 0 -0.003943591979612481 -0.06772459748398357 
-4.404954700185401e-05 -0.0004348148769526709 0 -0.09362173963791455 0.1269511864580531 -0.06349562217456466 0 0 0 -0.003943591979612481 -0.007651650526607887 
-4.404954700185401e-05 -0.0004348148769526709 0 -0.09362173963791455 0.1269511864580531 -0.06349562217456466 0 0 0 -0.003943591979612481 -0.007651650526607887 
-4.404954700185142e-05 -0.0004348148769526733 -0.1160108857968474 -0.1893136709444741 0.3191197325757761 0.1629923654728498 -0.09631809826027758 -0.07134364329793677 -0.001226321724574474 -0.00394359197961248 -0.03646873454947008 
-0.009563760362777 -0.01587865799625253 0.2529090607269696 -0.2206199147803813 0 -0.04234730347190682 0 0 0 0 0 
0.314995858591079 -0.2049608185707482 0.1330507324998671 -0.02415141210465274 -0.01651807449036384 -0.1663683364438284 -0.03436049235707719 -0.06046571461637509 -0.05471243693680557 -0.0001327750900211222 -0.01581554653958388 
-0.009563760362777 -0.01587865799625253 0.2529090607269696 -0.2206199147803813 0 -0.04234730347190682 0 0 0 0 0 
-0.009563760362777 -0.01587865799625253 0.3912201334505044 -0.3235249807649492 -0.03682833590167382 -0.08881811375100172 0 0 0 0 0 
-0.009563760362777 -0.01587865799625253 0.2529090607269696 -0.2206199147803813 0 -0.04234730347190682 0 0 0 0 0 
-0.009563760362777 -0.01587865799625253 0.3912201334505044 -0.3235249807649492 -0.03682833590167382 -0.08881811375100172 0 0 0 0 0 
-0.009563760362777 -0.01587865799625253 0.2529090607269696 -0.2206199147803813 0 -0.04234730347190682 0 0 0 0 0 
-0.1053915070730859 -0.2086282707302704 0.3401747011519662 0.1039396697496703 -0.1789454050433028 -0.01476486425593945 -0.1897601112052206 0.2010317465175679 -0.03422066682253617 2.602085213965211e-18 -0.1294879018547277 
-0.009563760362777 -0.01587865799625253 0.2529090607269696 -0.2206199147803813 0 -0.04234730347190682 0 0 0 0 0 
-0.2040498376155971 0.272355120337065 0.07972845491415885 0.1643921889565425 -0.2295275752622386 0.07240532355521258 -0.0617697109597765 -0.08275306119943986 -0.02289522445285205 -0.03728977233059867 0.1853508264551133 
-0.009866884559509856 0 -0.07537184863927449 0.2324984284472681 -0.1067230930526784 0 -0.003639330772423511 -0.00948209673450486 0 -0.002668720065266516 -0.02698997505447969 
-0.1362223034163373 -0.0186760641565886 0.4363488064943752 0.4419362510571075 -0.1968984747288425 -0.07344351892979434 -0.1955613872899219 -0.1271705753055431 -0.06147763273176308 -0.0114350274243906 -0.119327562506404 
-0.04112101491677507 -2.34187669256869e-17 0.06486464598262133 -0.3390556626966658 0.5276142552062346 -0.03806657885264855 -0.0947303259651523 -0.04469878258728022 -0.009545831046123669 -0.00521438565992252 -0.05703111704246068 
-0.009866884559509856 0 -0.1011192981867264 0.4962014081791976 -0.2811647361414862 -0.07336617599551212 -0.003639330772423508 -0.009482096734504862 0 -0.00521438565992252 -0.03948786272431479 
-0.009866884559509856 0 -0.07537184863927449 0.2324984284472681 -0.1067230930526784 0 -0.003639330772423511 -0.00948209673450486 0 -0.002668720065266516 -0.02698997505447969 
-0.009866884559509856 0 -0.07537184863927449 0.2324984284472681 -0.1067230930526784 0 -0.003639330772423511 -0.00948209673450486 0 -0.002668720065266516 -0.02698997505447969 
-0.06791622910096211 0 -0.1534655398605451 0.1262545350941313 0.1078339873025088 0 -0.003639330772423513 -0.00948209673450486 0 -0.002668720065266516 -0.02698997505447969 
-0.01888563425525243 0 -0.08476865410368133 0.3418236545839044 -0.2571072903506079 0 0 0 -0.01534301875667869 0 0 
-0.04821408859710294 -0.007980072036815966 0.2829916245440616 0.7284486163139489 -0.5435813303079564 -0.1482072183380889 -0.108368271687406 -0.0748938573996201 -0.07410595833436422 -0.02094703869554383 -0.03081568221610614 
-0.01888563425525243 0 -0.08476865410368133 0.3418236545839044 -0.2571072903506079 0 0 0 -0.01534301875667869 0 0 
-0.01888563425525243 0 -0.08476865410368133 0.3418236545839044 -0.2571072903506079 0 0 0 -0.01534301875667869 0 0 
-0.4253992827692269 -0.06622713629132944 -0.3781024535539953 1.273205496359654 -0.322069689335109 -0.1725627464180819 -0.002707404020898272 -3.469446951953614e-18 -0.02290775989513074 0 -0.02024792899372361 
-0.07572580626369146 -0.007225299174173506 -0.0381878423018075 -0.2259229196136813 -0.08269713504671877 -0.0569323266291698 -0.04405413991178 -0.03143078007817587 -0.01706979691339246 0.5955908456131629 -0.01819095716425534 
0.1361210491509318 -0.239451813893196 -0.0546746006718028 0.2312531820573839 -0.6463392966004622 0.04976580141739158 0.1058693901796402 -0.05822368978967821 0.2940761737519582 0.3315622769264764 0.1924885407718928 
0.2616521119085527 -0.05353851415984444 -0.4030321816300275 0.1824754988830787 -0.4134903932219153 0.07663654306694619 -0.1322806656610401 -0.05761018013647652 0.3216842312174213 0.3882062994764028 -0.06497436625944136 
-0.1267489770797938 -0.02675645902616519 0.2662564327477321 -0.3229475931209078 -0.003044600834262532 -0.2323378666638784 -0.08972388527133937 -0.08974869686437 -0.06999214227790779 0.8552943341439885 -0.08525571731118718 
0.3862356769518288 -0.007225299174173501 -0.1611309916969967 0.05250920201255524 -0.3732056080132781 -0.1011630496996193 -0.0624625976483292 -0.04856366100235041 -0.04955018794852093 0.4485054164783903 -0.04588277803443674 
-0.07572580626369146 -0.007225299174173506 -0.0381878423018075 -0.2259229196136813 -0.08269713504671877 -0.0569323266291698 -0.04405413991178 -0.03143078007817587 -0.01706979691339246 0.5955908456131629 -0.01819095716425534 
-0.07572580626369146 -0.007225299174173506 -0.0381878423018075 -0.2259229196136813 -0.08269713504671877 -0.0569323266291698 -0.04405413991178 -0.03143078007817587 -0.01706979691339246 0.5955908456131629 -0.01819095716425534 
-0.07572580626369146 -0.007225299174173506 -0.0381878423018075 -0.2259229196136813 -0.08269713504671877 -0.0569323266291698 -0.04405413991178 -0.03143078007817587 -0.01706979691339246 0.5955908456131629 -0.01819095716425534 
-0.07358016721241803 -0.03780770764787338 -0.09468730389878714 -0.09476382531647105 -0.1377716266280298 -0.0256891503880873 -0.1358127149405524 0.3739487732447993 -0.01706979691339246 0.3087664440099157 -0.000295442905762185 
-0.1309620149589836 0.3455710087588243 -0.4737002876072564 -0.584017514688109 -0.122531398735389 0.2404752605231041 0.4832642437535157 0.1291094696220664 -0.1170603978520725 0.2546754773653064 -0.09752533404564842 
-0.03567384863297182 -0.007225299174173506 0 -0.01474926808942338 -0.08269713504671877 -0.02086709891152476 -0.04405413991177999 -0.03143078007817587 -0.01706979691339246 0.3131210943526048 -0.000295442905762185 
-0.02712322809733378 -0.0875524211406374 -0.1356677005128614 0.3950193673837078 0 -0.1405207695915957 0 0 0 0 0 
-0.575883169913778 -0.04569122215288772 -0.3149446584119902 -0.3255507694214804 0.4625307277112455 0.7565848275018696 -0.1694181280168993 0.2506240444158332 -0.03116190423042751 -0.002329230447084596 -0.1826724909780824 
-0.02712322809733378 -0.0875524211406374 -0.1356677005128614 0.3950193673837078 0 -0.1405207695915957 0 0 0 0 0 
-0.02712322809733378 -0.0875524211406374 -0.1356677005128614 0.3950193673837078 0 -0.1405207695915957 0 0 0 0 0 
-0.02712322809733378 -0.0875524211406374 -0.1356677005128614 0.3950193673837078 0 -0.1405207695915957 0 0 0 0 0 
-0.09985537632771209 -0.09147029921431422 0.2317059389874899 0.2300983284870584 -0.09675836280902621 -0.1624730307203316 0 0 0 0 0 
-0.02712322809733378 -0.0875524211406374 -0.1356677005128614 0.3950193673837078 0 -0.1405207695915957 0 0 0 0 0 
0 -0.01371149425006913 0.3213803377798191 -0.2392445911446347 -0.02700148978516299 -0.059732549525394 0 0 0 -0.01206542277341394 -0.00816450017266895 
0.07623338532349788 0.1027275430535042 0.3564049206268755 -0.2631198531182439 -0.3208282339266498 0.2944266703541494 -0.3163354550994902 -0.2292495476744477 -0.07759859248309224 -0.0156281898815306 0.2149491002212086 
-0.1049103571305158 -0.08230222896143875 0.08415735329025992 -0.07503517521129645 0.4852607444830869 -0.1551200458665185 -0.07077294639340372 -0.01244377922945507 -0.01480162734691528 -0.01562818988153059 -0.09040830693737736 
-0.05833616460154404 -0.02463204133389112 0.1506423030785359 0.1969382928899019 0.2110755317335287 -0.2008115114111308 -0.1609119910521992 -0.0148295287741242 -0.004186683266809431 -0.03757687523755787 -0.05068009235225185 
-0.09947400761982819 -0.01371149425006914 0.05562291986832916 -0.0003747892527216634 0.2150298686005387 -0.08300468740972423 -0.04774236185246714 0 0 -0.01206542277341394 -0.05727474288935053 
0 -0.01371149425006913 0.3213803377798191 -0.2392445911446347 -0.02700148978516299 -0.059732549525394 0 0 0 -0.01206542277341394 -0.00816450017266895 
0 -0.01371149425006913 0.3213803377798191 -0.2392445911446347 -0.02700148978516299 -0.059732549525394 0 0 0 -0.01206542277341394 -0.00816450017266895 
0 -0.01371149425006913 0.3213803377798191 -0.2392445911446347 -0.02700148978516299 -0.059732549525394 0 0 0 -0.01206542277341394 -0.00816450017266895 
-0.07673284251408986 -0.04693126791796885 0.2572211279162306 0.5845165292653787 -0.8602647963327514 0.06156581311861758 -0.1051521626735823 -0.06531822277846076 -0.009872969792867066 -0.01206542277341394 -0.01606557316191512 
-0.2383726526028673 -0.06195858622189161 0.1048145524416752 0.545534461360711 -0.1079683428634665 -0.07827573466496929 -0.1930231393777436 -0.1857946702719958 -0.01260355724000362 -0.01249919984850354 -0.1151661051531279 
0 -0.01371149425006913 0.3213803377798191 -0.2392445911446347 -0.02700148978516299 -0.059732549525394 0 0 0 -0.01206542277341394 -0.00816450017266895 
-0.04468215834043213 0.4047010081790681 -0.03322541082795994 -0.1542980742479839 -0.03191007033036891 -0.02871441846078524 -0.01513807813862327 -0.01592749647001372 0 0 0 
0.4587314337780091 0.6095971106725775 -0.07882187610702725 -0.6056622888701828 0.003819703845226757 -0.1407045587739599 -0.03291106892507755 -0.06044372141429865 -0.08181604217045214 -0.0002656898766435425 -0.009502841934165496 
-0.4537826378526035 0.2096033724332137 -0.0338020018186625 0.5809571114395293 0.01753492946810598 -0.07280518260451233 -0.03184131257531539 -0.08101229078680902 -0.03890945636808986 -2.168404344971009e-19 -0.04064246481684349 
0.1986302085551676 0.7054224183570685 -0.0597818755989902 -0.4039522330363449 -0.1824486562437184 -0.1021529592333631 -0.01855004194259375 -0.03162900095902346 -0.01535289886384883 0 -0.009502841934165489 
-0.04468215834043213 0.4047010081790681 -0.03322541082795994 -0.1542980742479839 -0.03191007033036891 -0.02871441846078524 -0.01513807813862327 -0.01592749647001372 0 0 0 
-0.04468215834043213 0.4047010081790681 -0.03322541082795994 -0.1542980742479839 -0.03191007033036891 -0.02871441846078524 -0.01513807813862327 -0.01592749647001372 0 0 0 
-0.06451811358376627 0.3578117507875296 -0.06749143949806732 -0.0348650396612518 -0.2985306344599569 -0.09265157375789375 0.3872223969610372 -0.0300564488183764 -0.0252281751624426 0 -0.01526930727462025 
-0.04468215834043213 0.4047010081790681 -0.03322541082795994 -0.1542980742479839 -0.03191007033036891 -0.02871441846078524 -0.01513807813862327 -0.01592749647001372 0 0 0 
-0.1588985613360661 0.3306684327986946 0.7287730906465898 -0.3261589611502849 -0.04624807494955896 -0.2236281902582183 -0.06629017969264256 -0.01592749647001374 0 0 -0.06552480574870632 
-0.04151510128121504 -0.009775484768158624 0 -0.3085037054778267 0.4685711960007266 -0.01004248267532944 -8.673617379884035e-19 -0.0726261135687975 -0.005593884520833962 0 0 
-0.3017722271507755 -0.0698886032323581 -0.05910903790809361 -0.3103267209677132 0.7333177958546671 -0.1700851385816347 -0.1285735628876915 0.3117568832792884 -0.09350927705199401 -0.001310255046503618 -1.084202172485504e-19 
-0.07364738028903804 -0.03517272058694093 -0.1512680790079927 -0.2453827205812796 0.5990582555628116 -0.02662785388709339 -0.03129100997614693 -0.1196015851341776 -0.02989773534022965 0 0 
-0.04151510128121504 -0.009775484768158624 0 -0.3085037054778267 0.4685711960007266 -0.01004248267532944 -8.673617379884035e-19 -0.0726261135687975 -0.005593884520833962 0 0 
-0.04151510128121504 -0.009775484768158624 0 -0.3085037054778267 0.4685711960007266 -0.01004248267532944 -8.673617379884035e-19 -0.0726261135687975 -0.005593884520833962 0 0 
-0.04151510128121504 -0.009775484768158624 0 -0.3085037054778267 0.4685711960007266 -0.01004248267532944 -8.673617379884035e-19 -0.0726261135687975 -0.005593884520833962 0 0 
0.1196865001042505 -0.1135562858955906 0.1120870861117891 -0.05058727499403511 -0.179805172307993 0.01139700726048036 -0.03366793250814105 0.3219781127498075 -0.02539353443353287 4.336808689942018e-19 -0.03099148954012797 
-0.0245597739543976 -0.009775484768158624 -0.149467930316145 0.1498796179054954 0.1502562044342683 -0.05979528370034728 0 -0.03530644761044557 0 0 -0.02825821824181401 
-0.02455977395439761 -0.009775484768158624 0 -0.1707374110076176 0.2522823360379784 0 0 -0.03530644761044557 0 0 0 
-0.008220060444705048 0 0.3675468090678606 -0.1812463688167376 -0.1597330046962484 -0.0204088950055082 0 0 0 0 0 
-0.1310360294043951 -0.04375263091728141 0.2586206944481323 0.5102434236800195 -0.4152465312778822 0.04578255184880579 -0.1597577040099634 -0.08813426327674742 -0.007910794726814245 0 -0.02677247208393357 
-0.008220060444705048 0 0.3675468090678606 -0.1812463688167376 -0.1597330046962484 -0.0204088950055082 0 0 0 0 0 
-0.1236619786657433 -0.03612903927164982 0.250222653022942 0.07220662265708699 -0.1984062444732596 0.1616971621741594 -0.128702871101718 -0.08813426327674734 -0.007910794726814248 0 -0.02677247208393357 
-0.008220060444705048 0 0.3675468090678606 -0.1812463688167376 -0.1597330046962484 -0.0204088950055082 0 0 0 0 0 
-0.008220060444705048 0 0.3675468090678606 -0.1812463688167376 -0.1597330046962484 -0.0204088950055082 0 0 0 0 0 
-0.01220608027105136 -0.01712068046482012 0.7966584519988213 -0.2298345946147559 -0.6837020508176948 0.3406197903628779 -0.1773850813779968 -0.04374281524927914 -0.0104175533368563 0 -0.04692135448516616 
0.2021168314983113 0.02196439961125152 -0.02868716747442923 -0.02989183311821265 0.04513558027239394 0.0007009872193529821 -0.0275112713812513 -0.2348264134484736 -0.06111182816599523 -0.03229138722565606 -0.05097819738307007 
-0.008220060444705048 0 0.3675468090678606 -0.1812463688167376 -0.1597330046962484 -0.0204088950055082 0 0 0 0 0 
-0.0165124090765528 0 -0.0525102528257511 -0.1823858484159608 0.1546988307073986 0 0 0 0 0 -0.01590574007122321 
0.2392951040095236 -0.1324194494770382 -0.08970077420998723 -0.4859794367046589 0.9007668928055313 -0.252757920420305 -0.03353596855911661 -0.1124661318561597 -0.0314197977478203 0 0.135398907004238 
-0.0165124090765528 -0.08267827848222106 -0.03685949468151664 0.1394917223386621 -0.01131308318318197 -0.08127495487884905 -0.07111900333939628 -0.0434549445184549 0 -0.0007068999453892261 -0.01932047767877916 
-0.01990101884695747 0 -0.2007830675502975 -0.477807565891188 0.7063217190542554 7.589415207398531e-19 -0.01004908927585737 -0.007175040824884738 0 0 -0.04948203468605109 
-0.0165124090765528 0 -0.0525102528257511 -0.1823858484159608 0.1546988307073986 0 0 0 0 0 -0.01590574007122321 
-0.01990101884695747 0 -0.2007830675502975 -0.477807565891188 0.7063217190542554 7.589415207398531e-19 -0.01004908927585737 -0.007175040824884738 0 0 -0.04948203468605109 
0.2148074468854927 -0.05456233156452454 -0.3424236547820191 -0.1318907170439711 1.31976322977049 -0.6331014859476348 -0.3775188120891965 -0.1843933199936564 -0.0484711879034924 -0.05091004223611368 0.0466938759858388 
-0.0165124090765528 0 -0.0525102528257511 -0.1823858484159608 0.1546988307073986 0 0 0 0 0 -0.01590574007122321 
0 0 -0.05417452967106622 -0.09977788457572857 0.3165955860297337 -0.1179077091038102 0 0 0 0 -0.02896388511955611 
0 0 -0.05417452967106622 -0.09977788457572857 0.3165955860297337 -0.1179077091038102 0 0 0 0 -0.02896388511955611 
0 0 -0.05417452967106622 -0.09977788457572857 0.3165955860297337 -0.1179077091038102 0 0 0 0 -0.02896388511955611 
0 0 -0.05417452967106622 -0.09977788457572857 0.3165955860297337 -0.1179077091038102 0 0 0 0 -0.02896388511955611 
0 0 -0.05417452967106622 -0.09977788457572857 0.3165955860297337 -0.1179077091038102 0 0 0 0 -0.02896388511955611 
-0.119021321598982 -0.05195232105613209 -0.04214872870293535 0.08662819053305072 0.2643309068140409 0.2663934023818277 -0.1805104033510184 -0.1054948000352458 -0.01574583473867826 -0.002545665594656005 -0.1058738545267233 
-0.0006435477093458487 0 -0.3028124480526145 -0.1846230461229028 0.1186991633306647 0.446759777480279 -0.00715312946685035 0 0 0 -0.02896388511955611 
0 0 -0.05417452967106622 -0.09977788457572857 0.3165955860297337 -0.1179077091038102 0 0 0 0 -0.02896388511955611 
0 0 -0.05417452967106622 -0.09977788457572857 0.3165955860297337 -0.1179077091038102 0 0 0 0 -0.02896388511955611 
-0.003868901699843894 0 -0.2181323841330801 -0.06403255345975445 -0.2254631422425197 0.5498766988806912 -0.03449777185703113 0 0 0 0 
-0.3452694567183761 -0.1566120565055032 -0.04931898218757517 -0.2790603208399651 0.4216101350014927 0.2714806593730703 0.06521716166228922 -0.1614187464552674 0.2351357546825825 -0.01043649132982567 0.1694846799188614 
-0.05460771910120164 -0.004141218686212872 0.09544943992450131 -0.3883450947875877 0.06388553206453236 0.4152193137461846 -0.105142654245613 -0.01200817632171559 3.252606517456513e-18 0 -0.07528866149142599 
-0.003868901699843894 0 -0.2181323841330801 -0.06403255345975445 -0.2254631422425197 0.5498766988806912 -0.03449777185703113 0 0 0 0 
-0.1195279878708922 -0.05829126361453617 -0.05153345819908953 -0.2697886070801025 -0.4978990979482077 1.122172603683079 -0.03449777185703112 -0.02779181466273225 -0.02394491856899648 -0.001146660474225476 1.734723475976807e-18 
-0.003868901699843894 0 -0.2181323841330801 -0.06403255345975445 -0.2254631422425197 0.5498766988806912 -0.03449777185703113 0 0 0 0 
-0.003868901699843894 -0.04112669339466328 -0.3826461245658366 -0.06403255345975445 -0.2355039082370625 0.7905817831312504 -0.03449777185703112 -0.02779181466273225 0 0 0 
-0.003868901699843894 0 0 -0.02400863011790223 -0.1248905115658638 0.2228032610784591 -0.03449777185703113 0 0 0 0 
-0.09070277316255473 -0.1655256847198634 -0.05641353988672389 0.2692505093184477 -0.5040328449560088 0.17078231102565 0.169865250562664 0.2728935969612556 -0.04640694694028939 0 -0.07328123018511834 
-0.003868901699843894 0 0 -0.02400863011790223 -0.1248905115658638 0.2228032610784591 -0.03449777185703113 0 0 0 0 
-0.02128428111059025 0 0.3910582841371935 -0.1341227322005574 -0.1728410492681761 -0.01944348279263057 0 0 -0.01155915147186883 0 -0.001743463357623002 
-0.125692927543112 -2.710505431213761e-20 0.3174273920051386 -0.2873606035753093 0.1887969896862158 -0.01944348279263057 -1.734723475976807e-18 -0.007698426971935713 -0.01155915147186883 0 -0.03335979319867689 
-0.1263598709499562 -0.1255670338984044 0.6250139603821643 0.4333637979319005 -0.05341872196881777 -0.3610554543312164 -0.380024114911247 -0.1124856539371429 -0.03772886302298831 -0.06190780337805488 -0.1117148346513059 
-0.02128428111059025 0 0.3910582841371935 -0.1341227322005574 -0.1728410492681761 -0.01944348279263057 0 0 -0.01155915147186883 0 -0.001743463357623002 
-0.04344097573310118 6.938893903907228e-18 0.3418663894025144 -0.3273435626168843 0.2188970837034966 -0.04478468820520189 -0.1106312887507678 0 -0.01330050165525111 -0.0009273329825163341 -0.02190090153069198 
-0.02128428111059025 0 0.3910582841371935 -0.1341227322005574 -0.1728410492681761 -0.01944348279263057 0 0 -0.01155915147186883 0 -0.001743463357623002 
-0.02128428111059025 -8.673617379884035e-19 0.1553937091980278 0.2770328512833565 -0.282454918396568 -0.01944348279263057 -0.1060924190458142 0 -0.01155915147186883 0 -0.005690814117829471 
0.2554920179632036 -0.1055003275074136 0.7087923840353637 -0.6235192189391181 -0.3312858307658344 -0.08754165053861243 0.2999471242202366 -0.06690522597369551 -0.0142242877068811 0 -0.01704961403970883 
-0.02446229195056498 -0.00391321099232856 0 -0.05155345496661687 -0.1437261167211144 -0.1073625655282988 0.3420344452089201 0 -0.00755169341712571 0 -0.03049946973749342 
-0.0891843120428089 -0.0928488191151837 0.132595152150129 -0.6306272573428109 0.1252815063485949 0.4784814542126998 0.5218604656597321 -0.2672745757742785 -0.03631370254893582 -0.001813363443607957 -0.1364485939004838 
-0.04241532703375796 -0.00391321099232856 -0.06125045245402697 -0.09154179530876336 -0.2791696347483051 -0.1073625655282988 0.6449861473721441 -0.03406457838594241 -0.01298934757992663 0 -0.03973703075294742 
-0.02446229195056498 -0.00391321099232856 0 -0.05155345496661687 -0.1437261167211144 -0.1073625655282988 0.3420344452089201 0 -0.00755169341712571 0 -0.03049946973749342 
-0.02446229195056498 -0.00391321099232856 0 -0.05155345496661687 -0.1437261167211144 -0.1073625655282988 0.3420344452089201 0 -0.00755169341712571 0 -0.03049946973749342 
-0.02446229195056498 -0.00391321099232856 0 -0.05155345496661687 -0.1437261167211144 -0.1073625655282988 0.3420344452089201 0 -0.00755169341712571 0 -0.03049946973749342 
-0.02446229195056498 -0.00391321099232856 0 -0.05155345496661687 -0.1437261167211144 -0.1073625655282988 0.3420344452089201 0 -0.00755169341712571 0 -0.03049946973749342 
-0.02446229195056498 -0.00391321099232856 0 -0.05155345496661687 -0.1437261167211144 -0.1073625655282988 0.3420344452089201 0 -0.00755169341712571 0 -0.03049946973749342 
0.09206900623891376 -0.03971982372579873 -0.1793248603293111 -0.1511388545481495 0.4983640222847268 -0.2183356771079806 0.1975180251090448 -0.06856908607020373 -0.00755169341712571 -0.0047453212250245 -0.07333063151128114 
-0.2022926535148876 0.0831129215754845 -0.1417373242412317 0.1073671062196233 0.3694423422231735 -0.0004795755907303443 0.08666463546970284 -0.2227512694971077 -0.01895943024454175 -0.01941894278793272 -0.08330539570166763 
0.3234833882734247 -0.09272907928759426 0 -0.1272744398997789 -0.09374655151050366 -0.00145684547812537 0 0 0 0 -0.005044197962282581 
0.7154081031985228 -0.1250430362154913 0.02385194907299597 -0.3484406977831376 -0.1829461129740372 -0.04942368588062872 -0.1609615739726669 -0.00881976192727707 -0.00788773130576699 -0.0009774462054475408 -0.007721836088345358 
0.3234833882734247 -0.09272907928759426 0 -0.1272744398997789 -0.09374655151050366 -0.00145684547812537 0 0 0 0 -0.005044197962282581 
0.3234833882734247 -0.09272907928759426 0 -0.1272744398997789 -0.09374655151050366 -0.00145684547812537 0 0 0 0 -0.005044197962282581 
0.3234833882734247 -0.09272907928759426 0 -0.1272744398997789 -0.09374655151050366 -0.00145684547812537 0 0 0 0 -0.005044197962282581 
0.3234833882734247 -0.09272907928759426 0 -0.1272744398997789 -0.09374655151050366 -0.00145684547812537 0 0 0 0 -0.005044197962282581 
0.1574162311626029 -0.1107365579788612 -0.08262847478196393 0.03881990204326591 0.02627364361960845 0.1180784729285012 -0.02261120793805532 -0.01900490070700519 -0.004960601567215573 0 -0.02319496065983431 
0.3234833882734247 -0.09272907928759426 0 -0.1272744398997789 -0.09374655151050366 -0.00145684547812537 0 0 0 0 -0.005044197962282581 
0.1902433650583145 -0.09272907928759429 -0.01239369555558827 0.01293977334938298 0.1158785624899856 -0.102902616007049 -0.02661361654809549 8.673617379884035e-19 -0.01091932815122891 0 -0.005044197962282581 
-0.03605416866298669 0 -0.03620704181206585 -0.08565252576314517 -0.214210604866104 -0.06346505542748052 -0.05954593451589477 -0.0005431927143815788 -0.01429093149580583 0 0.5753045737967558 
-0.03605416866298669 0 -0.03620704181206585 -0.08565252576314517 -0.214210604866104 -0.06346505542748052 -0.05954593451589477 -0.0005431927143815788 -0.01429093149580583 0 0.5753045737967558 
-0.03605416866298669 0 -0.03620704181206585 -0.08565252576314517 -0.214210604866104 -0.06346505542748052 -0.05954593451589477 -0.0005431927143815788 -0.01429093149580583 0 0.5753045737967558 
-0.03605416866298669 0 -0.03620704181206585 -0.08565252576314517 -0.214210604866104 -0.06346505542748052 -0.05954593451589477 -0.0005431927143815788 -0.01429093149580583 0 0.5753045737967558 
-0.03605416866298669 0 -0.03620704181206585 -0.08565252576314517 -0.214210604866104 -0.06346505542748052 -0.05954593451589477 -0.0005431927143815788 -0.01429093149580583 0 0.5753045737967558 
-0.03605416866298669 0 -0.03620704181206585 -0.08565252576314517 -0.214210604866104 -0.06346505542748052 -0.05954593451589477 -0.0005431927143815788 -0.01429093149580583 0 0.5753045737967558 
-0.03605416866298669 0 -0.03620704181206585 -0.08565252576314517 -0.214210604866104 -0.06346505542748052 -0.05954593451589477 -0.0005431927143815788 -0.01429093149580583 0 0.5753045737967558 
-0.01208771173212962 0 0.3704159165610076 -0.2167198495540362 -0.2278087867351202 -0.0634650554274806 -0.04473709916616098 -0.0005431927143815789 -0.005310393380016439 0 0.2617938373606316 
-0.004977386178029782 0 -0.03620704181206585 -0.02535459251822107 -0.01875180658498424 -0.0634650554274806 -0.04473709916616099 -0.0005431927143815788 -0.005310393380016439 0 0.2751588232133328 
-0.004977386178029782 0 -0.03620704181206585 -0.02535459251822107 -0.01875180658498424 -0.0634650554274806 -0.04473709916616099 -0.0005431927143815788 -0.005310393380016439 0 0.2751588232133328 
-0.04085944356717328 0 0.424534629503527 -0.08606529642926387 -0.3140153295567464 0 -0.02309192229508145 0 0 0 0 
-0.09074493877256712 -0.01412694658468232 -0.4079765878104674 -0.9439675295101515 1.554436696991612 -0.1382171834271052 -0.1441666240290136 -0.0993262001687653 -0.03277561332508588 -8.673617379884035e-19 -0.04210989477446724 
-0.04085944356717328 0 0.424534629503527 -0.08606529642926387 -0.3140153295567464 0 -0.02309192229508145 0 0 0 0 
