solver_type L2R_L2LOSS_SVC_DUAL
nr_class 11
label 1 2 3 4 5 6 7 8 9 10 11
nr_feature 2908
bias -1
w
0.1722975840456059 -0.003856889605114813 0 -0.1167818341209128 0 0 -0.04300455884830422 -0.009366029535898523 -0.001444978576911684 0 0 
-0.2502667759196036 -0.1579621620838964 -0.1127054617087361 -0.2420927461424379 0.03519922181535356 -0.2125210827362764 -0.1641508942859244 -0.2446038769597442 -0.2597706048446304 -0.2291004297806115 -0.2401773467992837 
0.02595395295043049 -0.001916870530146114 -0.1764338255594571 -0.06986212309700124 0.02895635917859976 -0.04724134855131746 0.1236769578019943 0.01575667319579609 0.03855269111171357 -0.0481482945293832 -0.01519964650558685 
0.06466187790394988 -0.02894121973988416 0.04733266092472679 0.03731864120078267 0.04297802526899307 -0.1859989294865832 -0.1653673761022978 -0.01497574410321331 -0.02382491344396201 -0.07959900226801839 -0.06901002471639789 
0.1941636671951038 -0.06602934438915821 -0.08749792545781192 0.1123154645191162 -0.1371405452175449 -0.05363496913971476 -0.005947499832694714 -0.03453019237707767 0.08949996179176155 -0.01382519800003179 -0.01519964650558685 
0.2027237045695554 -0.1446944521120475 -0.06228219341237824 0.2766971780460734 -0.1332712307142219 -0.0004391515031585534 -0.1100260533671616 -0.02853544910048084 -0.03558279890853927 -0.00579348666037945 -0.004385895714687831 
0.006086465003379623 -0.1382631623055213 -0.005418365086356614 0.2343919907935325 -0.1705572729631051 -0.01054275065164594 0.1313827842916768 -0.02272927251173311 -0.03966004281771056 -0.01319688439139187 0 
0.1722975840456059 -0.003856889605114813 0 -0.1167818341209128 0 0 -0.04300455884830422 -0.009366029535898523 -0.001444978576911684 0 0 
0.1722975840456059 -0.003856889605114813 0 -0.1167818341209128 0 0 -0.04300455884830422 -0.009366029535898523 -0.001444978576911684 0 0 
0.1722975840456059 -0.003856889605114813 0 -0.1167818341209128 0 0 -0.04300455884830422 -0.009366029535898523 -0.001444978576911684 0 0 
-0.3312687145926714 -0.0542045087342655 -0.375370040129932 -0.2564450658431699 -0.2654828263574756 -0.2843280646653261 -0.3183807588984719 -0.3233151107576994 -0.3271863013767623 -0.3417028730810711 -0.3644486516470693 
-0.3578011741387755 -0.136099388469119 -0.2667979934516513 -0.293214883297188 -0.3047779027386702 -0.3134139419442095 -0.3392390733894061 -0.3600329482579983 -0.3516933647580737 -0.36902704482219 -0.3899545165621662 
0.2097625757050595 -0.1924293418737512 -0.1271230350884935 0.09830479443459786 -0.165860785499099 -0.02719649388042853 0.2505351784976036 -0.02737575791451208 -0.01655932915761442 -0.022404284305286 -0.01250428312641386 
0.1289218157448271 -0.05746256823282284 0.1130184743593402 -0.1167818341209128 0 -0.008974670728960667 -0.06960706419662616 -0.01126184192762076 -0.001444978576911684 -0.008465404523145873 -0.008606453224004457 
0.1722975840456059 -0.003856889605114813 0 -0.1167818341209128 0 0 -0.04300455884830422 -0.009366029535898523 -0.001444978576911684 0 0 
0.1528933818417024 0.0004043634856595456 0.04122010508750676 -0.1357023541923043 -0.03675252008403356 -0.04451276763726894 -0.09237332747986778 0.1014254580705607 -0.0651384065879918 -0.003898157496150811 0 
0 0.1696425980069305 -0.02760652922941095 0 -0.06435786180020431 -0.05377259260626337 0 -0.003315550267603829 -0.007613062615018488 0 -0.003103204706901203 
-0.06833676177605452 0.02010481824340432 -0.133859213968032 0.1473062859131949 -0.01722055999475048 0.07074381696138607 -0.08833679189951349 -0.02143380501126763 0.06459543582074005 -0.01648208098642817 -0.01152554072764999 
-0.000618936971783592 -0.1298160489392769 0.06470572355678456 -0.1651615705934694 0.01419119591460613 0.02414476848681132 0.001175151606173935 -0.02015189923665384 0.05446684169534002 -0.07786145090693967 0.09152215652245335 
-0.04245120778943601 0.1923605959412247 -0.06669677975006209 -0.1013938746267849 -0.07056616222606416 0.1530391862868709 -0.05290752648822959 -0.01656995834442303 -0.05689934761084811 -0.01367483640627038 -0.005118629521683537 
-0.06906072702511132 -0.1427744758999235 -0.1375258581232191 -0.06230332405465971 0.1051314683042423 -0.003586950492978208 0.2296219712505493 0.07435754136177865 0.03471302038619976 -0.01386861116514292 -0.03592784281930687 
0 0.1244181992833299 -0.02760652922941095 -0.02887774690334438 -0.1005432206499748 0.06555141609253255 -0.0002904104494884455 -0.01148327953069404 -0.03535591713143144 -0.01367483640627038 -0.003103204706901203 
0 0.08218799715049023 0.1609101837920558 -0.02112973570655554 -0.1161483526300935 -0.05377259260626337 -0.02556548100907311 -0.007722255016102752 -0.02582291425530774 0 -0.005654618695624911 
0 0.1696425980069305 -0.02760652922941095 0 -0.06435786180020431 -0.05377259260626337 0 -0.003315550267603829 -0.007613062615018488 0 -0.003103204706901203 
0 0.08218799715049023 0.1609101837920558 -0.02112973570655554 -0.1161483526300935 -0.05377259260626337 -0.02556548100907311 -0.007722255016102752 -0.02582291425530774 0 -0.005654618695624911 
0 0.1696425980069305 -0.02760652922941095 0 -0.06435786180020431 -0.05377259260626337 0 -0.003315550267603829 -0.007613062615018488 0 -0.003103204706901203 
-0.02312597132927985 0.1893414722073183 -0.02760652922941095 -0.03149621549905752 0.09512446717718211 -0.0574064038017653 -0.1330400050836913 -0.02399130868819693 -0.02835038576435439 -0.005896392355282276 -0.00866637821700025 
0 0.1696425980069305 -0.02760652922941095 0 -0.06435786180020431 -0.05377259260626337 0 -0.003315550267603829 -0.007613062615018488 0 -0.003103204706901203 
0.1081307723940355 0.1655976107792798 -0.11182784099063 -0.03168932236982721 0.032528128492293 -0.09339542481822517 -0.1329345426942694 -0.01873307968796736 -0.009688731074733821 -0.02837867415128903 -0.007164186615362111 
-0.01124922275715471 0.03983253895630409 -0.005917177153738597 -0.01894683262178868 0 -0.003924156846648428 -0.01212749703043019 -0.001922287901694628 -0.008521924592707304 0 0 
-0.1075343982191721 0.02186277361477763 -0.1540925317429158 -0.05112213715474911 -0.3399771245540231 -0.1008928592079326 -0.1750881791034816 -0.1154290712982536 -0.09192275991344304 -0.1399266150415782 -0.1497771697628829 
0.03738601893570801 -0.0885879829033675 -0.01586920994722229 0.03988926783754405 -0.04346581429718716 -0.05390472246353921 0.1256981238871474 -0.04661549692977499 -0.01841246407419993 -0.03612042265916453 -0.01979706330229951 
-0.07892018144699087 0.2880539468416835 -0.00728043096832273 -0.09650600739207846 -0.01256984642645283 -0.10589191660546 -0.08401448406968877 -0.06333285752509556 -0.04911364402099681 -0.04717175234179428 -0.03365408361565056 
-0.04472047213577716 -0.05576941406388636 -0.005917177153738597 -0.020248414360031 -0.01451091284273016 -0.003924156846648428 0.1081522016656747 -0.001922287901694628 -0.008521924592707304 -8.673617379884035e-19 -0.008182872445878706 
-0.05157123603191539 0.2546206767642556 -0.04564405263368009 -0.05296497617281029 -0.04968190062412357 -0.01076449511315904 -0.05171162496728928 -0.01125778717116496 -0.016409008745384 -0.01316917246540395 -4.336808689942018e-19 
-0.01124922275715471 0.03983253895630409 -0.005917177153738597 -0.01894683262178868 0 -0.003924156846648428 -0.01212749703043019 -0.001922287901694628 -0.008521924592707304 0 0 
-0.02453014913346323 0.1269365294513297 -0.01001568306223955 -0.01894683262178868 -0.05388199957648522 -0.01076449511315904 -0.01212749703043019 -0.01125778717116496 -0.008521924592707304 0 -4.336808689942018e-19 
-0.01124922275715471 0.03983253895630409 -0.005917177153738597 -0.01894683262178868 0 -0.003924156846648428 -0.01212749703043019 -0.001922287901694628 -0.008521924592707304 0 0 
-0.01124922275715471 0.03983253895630409 -0.005917177153738597 -0.01894683262178868 0 -0.003924156846648428 -0.01212749703043019 -0.001922287901694628 -0.008521924592707304 0 0 
-0.05384609335395274 0.3167156058816513 0.05352934388373193 -0.07781594016215601 -0.1701817189135716 -0.04407547657281517 -0.1453100366806955 -0.03962831618155344 -0.0330289879740186 -0.02855870946070304 -0.02550586491509695 
-0.05798690298915407 0.1086307931139587 -0.1177646995140273 -0.03692426917059841 0.1479868235143691 -0.04457181996286576 -0.01408639491753526 -0.01404109486246516 -0.0370590302486269 -0.03175737503108438 -0.01255276792453274 
-0.01124922275715471 0.03983253895630409 -0.005917177153738597 -0.01894683262178868 0 -0.003924156846648428 -0.01212749703043019 -0.001922287901694628 -0.008521924592707304 0 0 
0.1308048627923253 -0.003049114954048998 -0.02459248083397824 -0.0270878353425166 -0.05511117059363501 -0.003924156846648428 -0.0277778812829625 -0.003485933203789086 -0.008521924592707304 0 0 
-0.02653245954610396 -0.08189487973485361 0.1085720466782813 -0.03676981745401812 -0.03929507638119506 -0.0290858772788838 -0.02085831449093439 -0.03671783750029895 -0.02450706338131129 -0.02732417174111889 -0.02550586491509695 
-0.02653245954610396 -0.08189487973485361 0.1085720466782813 -0.03676981745401812 -0.03929507638119506 -0.0290858772788838 -0.02085831449093439 -0.03671783750029895 -0.02450706338131129 -0.02732417174111889 -0.02550586491509695 
-0.02653245954610396 -0.08189487973485361 0.1085720466782813 -0.03676981745401812 -0.03929507638119506 -0.0290858772788838 -0.02085831449093439 -0.03671783750029895 -0.02450706338131129 -0.02732417174111889 -0.02550586491509695 
-0.02653245954610396 -0.08189487973485361 0.1085720466782813 -0.03676981745401812 -0.03929507638119506 -0.0290858772788838 -0.02085831449093439 -0.03671783750029895 -0.02450706338131129 -0.02732417174111889 -0.02550586491509695 
-0.02653245954610396 -0.08189487973485361 0.1085720466782813 -0.03676981745401812 -0.03929507638119506 -0.0290858772788838 -0.02085831449093439 -0.03671783750029895 -0.02450706338131129 -0.02732417174111889 -0.02550586491509695 
-0.02653245954610396 -0.08189487973485361 0.1085720466782813 -0.03676981745401812 -0.03929507638119506 -0.0290858772788838 -0.02085831449093439 -0.03671783750029895 -0.02450706338131129 -0.02732417174111889 -0.02550586491509695 
-0.02653245954610396 -0.08189487973485361 0.1085720466782813 -0.03676981745401812 -0.03929507638119506 -0.0290858772788838 -0.02085831449093439 -0.03671783750029895 -0.02450706338131129 -0.02732417174111889 -0.02550586491509695 
-0.02653245954610396 -0.08189487973485361 0.1085720466782813 -0.03676981745401812 -0.03929507638119506 -0.0290858772788838 -0.02085831449093439 -0.03671783750029895 -0.02450706338131129 -0.02732417174111889 -0.02550586491509695 
-0.02653245954610396 -0.08189487973485361 0.1085720466782813 -0.03676981745401812 -0.03929507638119506 -0.0290858772788838 -0.02085831449093439 -0.03671783750029895 -0.02450706338131129 -0.02732417174111889 -0.02550586491509695 
-0.02653245954610396 -0.08189487973485361 0.1085720466782813 -0.03676981745401812 -0.03929507638119506 -0.0290858772788838 -0.02085831449093439 -0.03671783750029895 -0.02450706338131129 -0.02732417174111889 -0.02550586491509695 
-0.02653245954610396 -0.08189487973485361 0.1085720466782813 -0.03676981745401812 -0.03929507638119506 -0.0290858772788838 -0.02085831449093439 -0.03671783750029895 -0.02450706338131129 -0.02732417174111889 -0.02550586491509695 
0.07169016198926445 -0.109986611843585 0.1069334592010106 -0.04029589008578319 -0.03929507638119506 -0.04830455595299539 -0.04521656079052271 -0.03671783750029895 -0.04455432112024653 -0.02732417174111889 -0.02550586491509695 
-0.1045351208867897 0.03016697052997159 -0.03099743688972201 0.0773806182859311 -0.06902663273069887 -0.04684874720998755 -0.06450158732668729 0.104787683309732 -0.02826311836283444 -0.03326586800071717 -0.02639675442200032 
-0.01328092637630852 0.08710399049502565 -0.004098505908500957 0 -0.05388199957648522 -0.006840338266510607 0 -0.009335499269470329 0 0 0 
-0.04294505641015484 0.1044794161083365 -0.01998912837759349 -0.03229962700975143 0.04173145918366179 -0.02439635927937423 0.0286947367638178 -0.01920805516470556 -0.01607824253444511 -0.003965698726950875 0 
-0.01328092637630852 0.08710399049502565 -0.004098505908500957 0 -0.05388199957648522 -0.006840338266510607 0 -0.009335499269470329 0 0 0 
-0.01328092637630852 0.08710399049502565 -0.004098505908500957 0 -0.05388199957648522 -0.006840338266510607 0 -0.009335499269470329 0 0 0 
-0.01328092637630852 0.08710399049502565 -0.004098505908500957 0 -0.05388199957648522 -0.006840338266510607 0 -0.009335499269470329 0 0 0 
-0.02311665238215284 0.01291743832458026 0.1261575425831179 -0.03034132469758102 -0.0987186107254152 0.1127599375704647 -0.08588690863025757 -0.01688004433029749 -0.03653967402240956 -0.008220320792288516 -0.001584625494823023 
0.05615461175532425 0.08304254801059865 -0.1254941120731997 -0.1227348915658078 0.01076702085703746 -0.01834969768114491 -0.01128760438194909 -0.01539069428074622 -0.03314530022891974 -0.005622471283018802 -0.00888916972219515 
-0.01328092637630852 0.08710399049502565 -0.004098505908500957 0 -0.05388199957648522 -0.006840338266510607 0 -0.009335499269470329 0 0 0 
0 0.1256901984848099 -0.01691250959389182 -0.01682779151487722 -0.03432286787404536 -0.01106544244728296 -0.01760995354870112 -0.0009881907795598536 0 0 0 
-0.04422459456892781 0.1226977623251487 0.05666859597292025 -0.08718473256808995 0.1299381184301975 -0.06075631541492016 -0.05981306041345418 -0.052297280079623 -0.01219713799617617 -0.01214964111506591 -0.04296792461390347 
-0.1108673264269304 0.1482097492333206 -0.1032122199646295 0.0803252367848742 -0.2446364112317737 0.1523379910666398 -0.01684676075610064 0.04884950718920361 -0.060071888666096 -0.03824992984142606 -0.02327311464348877 
0 0.07138393082719308 -0.04790138017827043 -0.02754987523633074 0.04415631439427763 -0.01106544244728296 -0.01760995354870112 -0.0009881907795598536 0 0 0 
-0.02950013367748545 0.05564469667502633 0.03660877331888463 -0.01742938308136452 -0.1394943219331372 0.001191923573363957 0.157718765056039 -0.03880867919637034 -0.0278415939672067 -0.02064852348188901 -0.009487593521315821 
0 0.1256901984848099 -0.01691250959389182 -0.01682779151487722 -0.03432286787404536 -0.01106544244728296 -0.01760995354870112 -0.0009881907795598536 0 0 0 
0 0.1256901984848099 -0.01691250959389182 -0.01682779151487722 -0.03432286787404536 -0.01106544244728296 -0.01760995354870112 -0.0009881907795598536 0 0 0 
0 0.1256901984848099 -0.01691250959389182 -0.01682779151487722 -0.03432286787404536 -0.01106544244728296 -0.01760995354870112 -0.0009881907795598536 0 0 0 
0 0.1256901984848099 -0.01691250959389182 -0.01682779151487722 -0.03432286787404536 -0.01106544244728296 -0.01760995354870112 -0.0009881907795598536 0 0 0 
0.006721264166270087 -0.2115069961508172 -0.1004369940386782 -0.04163000232574322 0.2035541373681565 -0.1055156604360029 0.09022468580228554 -0.08693734162785495 -0.1467834823414585 0.04759897013612058 0.002828434009909031 
0 0.1256901984848099 -0.01691250959389182 -0.01682779151487722 -0.03432286787404536 -0.01106544244728296 -0.01760995354870112 -0.0009881907795598536 0 0 0 
-0.05807652244942886 -0.07112628950579389 -0.005418365086356615 0.1666839152489854 0 -0.01054275065164594 -0.0363803735706183 -0.005147520347758582 -0.006851986595901854 0 0 
-0.05807652244942885 0.08689630691571987 -0.02066407078686961 0.14366116244385 -0.04052136120942643 -0.01937391361938232 -0.07534590688935836 -0.01883514599535721 -0.006851986595901854 -0.00176318062287038 0 
-0.05807652244942886 -0.07112628950579389 -0.005418365086356615 0.1666839152489854 0 -0.01054275065164594 -0.0363803735706183 -0.005147520347758582 -0.006851986595901854 0 0 
-0.05807652244942886 -0.07112628950579389 -0.005418365086356615 0.1666839152489854 0 -0.01054275065164594 -0.0363803735706183 -0.005147520347758582 -0.006851986595901854 0 0 
-0.05807652244942886 -0.07112628950579389 -0.005418365086356615 0.1666839152489854 0 -0.01054275065164594 -0.0363803735706183 -0.005147520347758582 -0.006851986595901854 0 0 
0.3152889352311945 -0.2487067442000898 0.2018856396423943 0.05458702823758401 -0.1847261575159881 -0.1283034509803415 -0.0561993031162829 -0.02228413424291118 -0.03021634023725743 -0.02035139657084657 -0.009744219630854214 
-0.05807652244942886 -0.07112628950579389 -0.005418365086356615 0.1666839152489854 0 -0.01054275065164594 -0.0363803735706183 -0.005147520347758582 -0.006851986595901854 0 0 
-0.05807652244942886 -0.07112628950579389 -0.005418365086356615 0.1666839152489854 0 -0.01054275065164594 -0.0363803735706183 -0.005147520347758582 -0.006851986595901854 0 0 
-0.05807652244942886 0.03179447057804743 -0.01731341953025548 0.1559689523149562 -0.09598968501235608 -0.0128890862526152 -0.0363803735706183 -0.005147520347758582 -0.006851986595901854 -0.001426212649661725 0 
-0.01342475055196636 -0.06799378130337543 0 -0.02327020215816474 0.1910425370609363 -0.0261723011110204 -0.03132506873583375 -0.02239440140751783 -0.009027106769444661 -0.0173273572065234 -0.003755957716601986 
-0.02154610283751981 0.03906556148977176 -0.01195393173525695 -0.02968172681700379 0.1237551645684946 -0.02617230111102039 -0.03897270190672434 -0.02400945719480552 -0.02112977391582934 -0.0173273572065234 -0.0117441536623747 
-0.1206696392758749 -0.3611705839931885 -0.06732243258404014 0.007214901537781133 0.01806222296287167 0.1594445018149165 0.04546808553771287 0.1244586279568553 -0.08924494776154665 0.1431796190489259 -0.07381625146351949 
-0.02154610283751981 0.03906556148977176 -0.01195393173525695 -0.02968172681700379 0.1237551645684946 -0.02617230111102039 -0.03897270190672434 -0.02400945719480552 -0.02112977391582934 -0.0173273572065234 -0.0117441536623747 
-0.01342475055196636 -0.06799378130337543 0 -0.02327020215816474 0.1910425370609363 -0.0261723011110204 -0.03132506873583375 -0.02239440140751783 -0.009027106769444661 -0.0173273572065234 -0.003755957716601986 
-0.01342475055196636 -0.06799378130337543 0 -0.02327020215816474 0.1910425370609363 -0.0261723011110204 -0.03132506873583375 -0.02239440140751783 -0.009027106769444661 -0.0173273572065234 -0.003755957716601986 
-0.01342475055196636 -0.06799378130337543 0 -0.02327020215816474 0.1910425370609363 -0.0261723011110204 -0.03132506873583375 -0.02239440140751783 -0.009027106769444661 -0.0173273572065234 -0.003755957716601986 
-0.01342475055196636 -0.06799378130337543 0 -0.02327020215816474 0.1910425370609363 -0.0261723011110204 -0.03132506873583375 -0.02239440140751783 -0.009027106769444661 -0.0173273572065234 -0.003755957716601986 
-0.01342475055196636 -0.06799378130337543 0 -0.02327020215816474 0.1910425370609363 -0.0261723011110204 -0.03132506873583375 -0.02239440140751783 -0.009027106769444661 -0.0173273572065234 -0.003755957716601986 
-0.01006367970298351 0.3175863148616632 -0.09156707581659745 -0.07986144887070759 -0.1642662688130711 -0.06557667003938994 0.06740888051229374 0.01120175130062961 0.0378782844137457 -0.1511998105849273 0.02529562555449279 
0.05762100491444327 -0.1427326824973392 -0.05598407407080427 -0.04787934707262945 0.1704918311434721 -0.03733111602639261 -0.050608874990062 -0.03161818902185455 0.07975375004373463 -0.02109160577679248 -0.005862128470624995 
-0.01342475055196636 -0.06799378130337543 0 -0.02327020215816474 0.1910425370609363 -0.0261723011110204 -0.03132506873583375 -0.02239440140751783 -0.009027106769444661 -0.0173273572065234 -0.003755957716601986 
-0.04529986344105254 -0.009617490208278701 0 0.1989646371129634 -0.03356151983764757 0 -0.1059567419863293 0 0 0 0 
0.03832719934887371 0.04884666612330175 -0.0595725118690756 0.02888139173050183 -0.2124930680086609 -0.1012158770008679 0.258057098697726 -0.06633815882802507 -0.08782533322449659 -0.05401929809807079 -0.01678675801365143 
-0.06210701477780567 -0.08842818413910439 0.1294085526615459 0.1643525496908519 -0.03356151983764757 0 -0.1236929204889132 0 0 0 0 
-0.04529986344105254 -0.009617490208278701 0 0.1989646371129634 -0.03356151983764757 0 -0.1059567419863293 0 0 0 0 
-0.04529986344105254 -0.009617490208278701 0 0.1989646371129634 -0.03356151983764757 0 -0.1059567419863293 0 0 0 0 
-0.04529986344105254 -0.009617490208278701 0 0.1989646371129634 -0.03356151983764757 0 -0.1059567419863293 0 0 0 0 
-0.04529986344105254 -0.009617490208278701 0 0.1989646371129634 -0.03356151983764757 0 -0.1059567419863293 0 0 0 0 
-0.04529986344105254 -0.009617490208278701 0 0.1989646371129634 -0.03356151983764757 0 -0.1059567419863293 0 0 0 0 
0.02225402792592469 -0.1315333224355578 -0.0126806691129497 0.06699585688044711 0.07378783903202672 -0.05536715014947552 0.05286805615671467 -0.006878196660108182 -0.01195727971499861 -0.007985238541174618 -0.01797447353297105 
-0.008022361344660275 -0.107160403869825 -0.003586794443350178 -0.03064314137951988 0.2036163361265517 -0.002807418521882204 -0.02158300249790759 0 -0.002966954847268092 0 0 
0.1004715410759248 0.0166950591894033 -0.06710756723716464 -0.05304068979838625 0.08431321530307138 -0.008257518710064596 -0.04032806509127151 -0.003159504033504615 -0.002966954847268092 -0.01767371591005536 -0.001145271198271084 
-0.008022361344660275 -0.107160403869825 -0.003586794443350178 -0.03064314137951988 0.2036163361265517 -0.002807418521882204 -0.02158300249790759 0 -0.002966954847268092 0 0 
-0.008022361344660275 0.002017106564430882 -0.02744941241728422 -0.03064314137951988 0.1482275370286305 -0.002807418521882204 -0.04879553881601428 0 -0.002966954847268092 -0.0104039200088712 0 
-0.008022361344660275 -0.107160403869825 -0.003586794443350178 -0.03064314137951988 0.2036163361265517 -0.002807418521882204 -0.02158300249790759 0 -0.002966954847268092 0 0 
-0.008022361344660275 -0.107160403869825 -0.003586794443350178 -0.03064314137951988 0.2036163361265517 -0.002807418521882204 -0.02158300249790759 0 -0.002966954847268092 0 0 
-0.008022361344660275 -0.107160403869825 -0.003586794443350178 -0.03064314137951988 0.2036163361265517 -0.002807418521882204 -0.02158300249790759 0 -0.002966954847268092 0 0 
0.07063137522154771 -0.1794314743561991 -0.01066657899181632 -0.0350037852638845 0.1122471613580477 0.1061941446639481 -0.03682256072960444 -0.002565150702486037 -0.02866060760334918 -0.001632315045509398 -0.004412326297723966 
-0.1695949621784195 0.07272093781980497 0.1707432837380932 0.04133057461652721 0.04828949579115552 -0.09443339598934249 -0.2997264363761909 -0.02408004804981243 0.06067235671744842 -0.007873150218865581 -0.0106183458228274 
-0.03254072249989036 -0.1271775949120541 -0.03415033318006518 0.1158044208066998 0.1619170217978616 -0.006237094307772167 -0.04729187283969002 -0.005175879691945596 -0.002966954847268092 -0.004761780663280007 0 
-0.05857758781106755 -0.06772013071779107 -0.06232683296231906 0.1972287218424064 -0.008238445186342752 0 0 0 0 0 0 
0.1381250770486477 -0.02663258052596761 -0.09113330414382775 0.05637577052131967 0.1375707251025256 -0.08306372750138753 -0.0958997555150025 -0.0619693106569334 -0.04940381693145469 -0.02583199422709952 -0.01161031418353501 
-0.06474855292051182 -0.1287486288016259 0.1148269617481006 0.1551161993060594 -0.04642666144733265 0 -0.01069242436995061 0 0 0 0 
-0.05857758781106755 -0.06772013071779107 -0.06232683296231906 0.1972287218424064 -0.008238445186342752 0 0 0 0 0 0 
-0.05857758781106755 -0.06772013071779107 -0.06232683296231906 0.1972287218424064 -0.008238445186342752 0 0 0 0 0 0 
-0.05857758781106755 -0.06772013071779107 -0.06232683296231906 0.1972287218424064 -0.008238445186342752 0 0 0 0 0 0 
-0.05857758781106755 -0.06772013071779107 -0.06232683296231906 0.1972287218424064 -0.008238445186342752 0 0 0 0 0 0 
-0.05857758781106755 -0.06772013071779107 -0.06232683296231906 0.1972287218424064 -0.008238445186342752 0 0 0 0 0 0 
-0.05857758781106755 -0.07270645838986776 -0.06232683296231906 0.1459124601939 -0.04045097669540222 0.148508174133109 -0.05691130419095577 -0.01506662423014224 0 -0.0107435893647753 0 
0.1203911821550473 0.1412433827453571 -0.114911878073528 0.02864252444353092 -0.1122469021209705 -0.03167837548472026 -0.0617707426187573 -0.0187449186210621 -0.03062395989456988 -0.006059539747343728 -0.01088552505695523 
0 0.1580146016431411 -0.03457277081764338 0 -0.04633410086504711 -0.004212268080692485 -0.02648890788849163 0 -0.01918361451608721 0 -0.006126217519966099 
-0.04448964190095517 0.1557818101949088 0.01115550368951565 -0.03701647440208528 -0.02336876813682182 -0.0406849436708456 -0.06152029231676764 -0.01300462202445293 -0.05332951244084014 -0.0206956610936007 -0.01017179796400021 
-0.003220375618481624 0.06984291374074397 -0.02489926605459687 -0.024876485367651 0.007928709791236487 -0.03573012138388991 -0.005249495409605161 -0.003728054649802108 -0.03962981869350093 -0.01883691302095978 -0.006126217519966099 
0 0.1580146016431411 -0.03457277081764338 0 -0.04633410086504711 -0.004212268080692485 -0.02648890788849163 0 -0.01918361451608721 0 -0.006126217519966099 
0 -0.0117159036040792 0.07959395731974997 0 -0.04633410086504711 -0.004212268080692485 -0.02648890788849163 -0.003728054649802108 -0.01918361451608721 -0.00361217907552781 -0.006126217519966099 
0 0.1580146016431411 -0.03457277081764338 0 -0.04633410086504711 -0.004212268080692485 -0.02648890788849163 0 -0.01918361451608721 0 -0.006126217519966099 
0 -0.0117159036040792 0.07959395731974997 0 -0.04633410086504711 -0.004212268080692485 -0.02648890788849163 -0.003728054649802108 -0.01918361451608721 -0.00361217907552781 -0.006126217519966099 
0 0.1580146016431411 -0.03457277081764338 0 -0.04633410086504711 -0.004212268080692485 -0.02648890788849163 0 -0.01918361451608721 0 -0.006126217519966099 
-0.06857438891530984 0.2185722907151631 -0.03457277081764338 -0.01911148190968598 -0.1521991168275486 -0.03401840456724257 -0.04796089465941758 0 0.1354083563909331 -0.0001272634582577314 -0.006126217519966099 
-0.07233355683904191 0.03171485108403939 -0.1985051445941844 0.03760712211934768 0.08017928825775079 -0.06597217832994616 0.1613620111308459 -0.04699768825320991 0.004814079648524662 -0.001907525804302879 -0.02348089415578512 
0 0.1580146016431411 -0.03457277081764338 0 -0.04633410086504711 -0.004212268080692485 -0.02648890788849163 0 -0.01918361451608721 0 -0.006126217519966099 
0 0.1580146016431411 -0.03457277081764338 0 -0.04633410086504711 -0.004212268080692485 -0.02648890788849163 0 -0.01918361451608721 0 -0.006126217519966099 
0 0.1029207600838413 -0.01189505444389887 -0.01071496293402913 -0.09598968501235608 -0.002346335600969259 0 0 0 -0.001426212649661725 0 
-0.02299285441297966 0.1473195270142109 -0.2059762094065738 -0.0501878028477869 0.1375244886227222 -0.05916938984538787 -0.1158040887537643 -0.03460536697848308 0.10800770143613 -0.01352992105745592 -0.005452464043815424 
-0.08233404148578617 0.2696426479883314 -0.1326477475431297 -0.08469823602738538 0.1661484670054856 -0.09544566164729279 -0.09724049359629737 -0.0284600671708032 -0.05973696358775994 -0.01018886346263482 -0.009685961816400256 
0 0.1029207600838413 -0.01189505444389887 -0.01071496293402913 -0.09598968501235608 -0.002346335600969259 0 0 0 -0.001426212649661725 0 
0 0.115160850137716 -0.05278123160215824 -0.01071496293402913 -0.03870313743048714 -0.04252490595705431 -0.01008142243739624 -0.007960189796209743 -0.02031652580251627 -0.002807692854672435 0 
0 0.1029207600838413 -0.01189505444389887 -0.01071496293402913 -0.09598968501235608 -0.002346335600969259 0 0 0 -0.001426212649661725 0 
0 0.1029207600838413 -0.01189505444389887 -0.01071496293402913 -0.09598968501235608 -0.002346335600969259 0 0 0 -0.001426212649661725 0 
0 0.1029207600838413 -0.01189505444389887 -0.01071496293402913 -0.09598968501235608 -0.002346335600969259 0 0 0 -0.001426212649661725 0 
0 0.1029207600838413 -0.01189505444389887 -0.01071496293402913 -0.09598968501235608 -0.002346335600969259 0 0 0 -0.001426212649661725 0 
0 0.1029207600838413 -0.01189505444389887 -0.01071496293402913 -0.09598968501235608 -0.002346335600969259 0 0 0 -0.001426212649661725 0 
-0.07630911564149288 -0.002939003034931682 0.1274153277510928 -0.1043459803526537 0.1850671965847373 -0.07252055936379326 -0.05186330381079708 -0.02079767162436406 -0.06347270520066353 -0.01380176844220649 -0.01387980386749456 
-0.003993207272632496 0.1000922081591896 -0.007398918500181605 -0.0193589449819533 -0.01282830393123847 0 -0.02398587142240747 -0.004936404181997749 0 -0.0006283136086399159 0 
-0.003993207272632496 0.1000922081591896 -0.007398918500181605 -0.0193589449819533 -0.01282830393123847 0 -0.02398587142240747 -0.004936404181997749 0 -0.0006283136086399159 0 
-0.003993207272632496 0.1000922081591896 -0.007398918500181605 -0.0193589449819533 -0.01282830393123847 0 -0.02398587142240747 -0.004936404181997749 0 -0.0006283136086399159 0 
-0.003993207272632496 0.1000922081591896 -0.007398918500181605 -0.0193589449819533 -0.01282830393123847 0 -0.02398587142240747 -0.004936404181997749 0 -0.0006283136086399159 0 
-0.003993207272632496 0.1000922081591896 -0.007398918500181605 -0.0193589449819533 -0.01282830393123847 0 -0.02398587142240747 -0.004936404181997749 0 -0.0006283136086399159 0 
-0.003993207272632496 0.1000922081591896 -0.007398918500181605 -0.0193589449819533 -0.01282830393123847 0 -0.02398587142240747 -0.004936404181997749 0 -0.0006283136086399159 0 
-0.003993207272632496 0.1000922081591896 -0.007398918500181605 -0.0193589449819533 -0.01282830393123847 0 -0.02398587142240747 -0.004936404181997749 0 -0.0006283136086399159 0 
-0.003993207272632496 0.1000922081591896 -0.007398918500181605 -0.0193589449819533 -0.01282830393123847 0 -0.02398587142240747 -0.004936404181997749 0 -0.0006283136086399159 0 
-0.1965055516574643 0.4626860522358545 -0.09119375823003154 0.08231124592108738 -0.1749298420126019 -0.1066275071152997 -0.07958679094851955 0.008963570560121745 -0.09117585630372138 0.06912821480977036 -0.05165868958888413 
0.02522450699593222 -0.1865950876395162 0.1757889571313409 -0.06549332336892399 -0.06172219724401951 0.00766689588162812 0.06958563742830302 0.04392245850142334 -0.1639975592701356 -0.01450260284778206 0.0297653522800501 
0 -0.02697959082276617 0.1359180179453071 -0.01583136907130979 -0.06519300316784203 0 -0.02816263906280281 0 0 0 0 
0.02600402806029113 -0.1471692701722571 0.176063980936967 -0.09729983032178541 0.1269263980276193 -0.1069926301916573 -0.004311642346796211 -0.01042761958742404 -0.05625605985900373 -0.03103082321812965 -0.02887095699788645 
-0.0959050774334913 -0.07113256632554506 -0.04235492271630048 0.09522042234560024 0.2408641807892439 -0.008362443336310355 -0.103784107929292 -0.01975835287706065 -0.009748691826281393 -0.005911676582836308 -0.007384406884030546 
-0.02016608522470603 -0.05661253002830266 0.1027573942058034 -0.06316248410266576 -0.06519300316784203 -0.00784311565174908 0.1329829381680603 0 -0.02458924457092711 0 0 
0 -0.02697959082276617 0.1359180179453071 -0.01583136907130979 -0.06519300316784203 0 -0.02816263906280281 0 0 0 0 
0 -0.02697959082276617 0.1359180179453071 -0.01583136907130979 -0.06519300316784203 0 -0.02816263906280281 0 0 0 0 
0 -0.02697959082276617 0.1359180179453071 -0.01583136907130979 -0.06519300316784203 0 -0.02816263906280281 0 0 0 0 
0 -0.02697959082276617 0.1359180179453071 -0.01583136907130979 -0.06519300316784203 0 -0.02816263906280281 0 0 0 0 
0 -0.02697959082276617 0.1359180179453071 -0.01583136907130979 -0.06519300316784203 0 -0.02816263906280281 0 0 0 0 
-0.02028920637136231 -0.1398814926970495 0.3484483176169466 -0.0443707178193898 -0.1168081445641992 -0.03214920121157801 -0.04377352762730359 -0.008031652222966123 -0.005914509324488905 -0.00290814271473471 -0.002009144493366621 
-0.04839729034070572 0.03166775381163502 0 -0.01980776849999174 0 -0.00543154923651725 -0.01128760438194909 -0.006055195011275888 -0.004434851687290363 -0.005622471283018802 -0.003870372219621148 
-0.05839327219995589 0.3206649482433496 -0.02172413446569496 -0.09180292121463918 -0.1313594537065031 -0.05959935951182257 -0.03478850795528929 -0.02223850720181077 -0.01920670010859321 -0.009914231479383844 -0.02294049391395334 
-0.04839729034070572 0.03166775381163502 0 -0.01980776849999174 0 -0.00543154923651725 -0.01128760438194909 -0.006055195011275888 -0.004434851687290363 -0.005622471283018802 -0.003870372219621148 
-0.0715172729382394 0.1452972177047612 -0.01654880966729416 -0.03863639445888258 0.1476674532927784 -0.009057328349208187 -0.1708017260197254 -0.01964602135714683 -0.01754613937446738 -0.01119753340677433 -0.004232471470729525 
-0.04839729034070572 0.03166775381163502 0 -0.01980776849999174 0 -0.00543154923651725 -0.01128760438194909 -0.006055195011275888 -0.004434851687290363 -0.005622471283018802 -0.003870372219621148 
-0.04839729034070572 0.1402010636826169 -0.003794578907064114 -0.01980776849999174 -0.06187142502077258 -0.00543154923651725 -0.04488528459387012 -0.006055195011275888 -0.004434851687290363 -0.005622471283018802 -0.004232471470729526 
-0.04839729034070572 0.03166775381163502 0 -0.01980776849999174 0 -0.00543154923651725 -0.01128760438194909 -0.006055195011275888 -0.004434851687290363 -0.005622471283018802 -0.003870372219621148 
-0.04839729034070572 0.03166775381163502 0 -0.01980776849999174 0 -0.00543154923651725 -0.01128760438194909 -0.006055195011275888 -0.004434851687290363 -0.005622471283018802 -0.003870372219621148 
-0.04839729034070572 0.03166775381163502 0 -0.01980776849999174 0 -0.00543154923651725 -0.01128760438194909 -0.006055195011275888 -0.004434851687290363 -0.005622471283018802 -0.003870372219621148 
0.07170442472648052 0.08223432916358241 -0.03952760843897191 -0.05423424014355315 -0.1029058019698847 -0.03820667016942263 -0.02729366641689089 -0.01094253135169094 -0.006691726405697875 -0.02106560134627646 -0.003870372219621148 
-0.04086174500288375 -0.02637428721836699 -0.06228219341237824 0.18963096430017 -0.06057633919205636 0 0 -0.007549502820483732 0 0 0 
-0.04086174500288375 0.1161758415896369 -0.1146039846759322 0.1774969833003857 -0.1121304911631261 0 -0.01106211516308 -0.01183022010935595 0 0 -0.003503519497002922 
-0.04086174500288375 -0.02637428721836699 -0.06228219341237824 0.18963096430017 -0.06057633919205636 0 0 -0.007549502820483732 0 0 0 
-0.04086174500288375 -0.02637428721836699 -0.06228219341237824 0.18963096430017 -0.06057633919205636 0 0 -0.007549502820483732 0 0 0 
-0.04086174500288375 -0.02637428721836699 -0.06228219341237824 0.18963096430017 -0.06057633919205636 0 0 -0.007549502820483732 0 0 0 
-0.09316713546501265 -0.06650882084351471 0.2491638095279488 0.08058486323240592 -0.06057633919205636 -0.01823411824550194 -0.07348352989547705 -0.02029951869646373 -0.05605863176896551 -0.009893147989460161 -0.007045475982478297 
-0.04086174500288375 -0.02637428721836699 -0.06228219341237824 0.18963096430017 -0.06057633919205636 0 0 -0.007549502820483732 0 0 0 
0 0.09932416167508751 -0.1002680342145052 0 0 0 -0.004934860969371515 0 -0.005743863664203175 0 0 
-0.005731437260818027 0.188396493003372 -0.1258622747606332 -0.03708901144446317 0.008739325413452813 -0.001411047645619934 -0.03930402784156588 -0.007290574919318667 -0.01538258478349209 -0.0003554343618917967 0 
-0.1067787987500746 -0.05330890506377629 0.3625441130148642 -0.122845085365092 -0.1306867866279942 -0.03400137843970186 -0.03079340324448446 -0.05081620680392619 0.07637106131586147 0 0 
0 0.09932416167508751 -0.1002680342145052 0 0 0 -0.004934860969371515 0 -0.005743863664203175 0 0 
1.734723475976807e-18 -0.03590592595596441 0.2295681688025845 -0.008257806407332698 -0.09247670491719034 -0.03400137843970186 -0.01583047738818304 -0.02786719987578367 -0.005743863664203175 0 0 
0 0.09932416167508751 -0.1002680342145052 0 0 0 -0.004934860969371515 0 -0.005743863664203175 0 0 
1.734723475976807e-18 0.05546813900448051 0.05013994519741564 -0.005237705838240382 -0.05512996059638526 -0.03400137843970186 -0.004934860969371515 0 -0.005743863664203175 0 0 
0.0387368770759601 0.4021413523297442 0.07682065483736197 -0.07879558426932243 -0.3388913611095783 -0.06091842018451325 -0.1206238953300344 -0.04386500744987533 -0.08949852533808678 -0.0104039200088712 -0.01043196041984022 
-0.08782963172831583 0.2730523071516073 -0.1530328722160963 -0.01141842020419199 -0.2133150450921142 -0.02388446214260357 0.1015527160188368 -0.003159504033504613 -0.005743863664203175 0 -0.001145271198271084 
0 0.09932416167508751 -0.1002680342145052 0 0 0 -0.004934860969371515 0 -0.005743863664203175 0 0 
0 0.09932416167508751 -0.1002680342145052 0 0 0 -0.004934860969371515 0 -0.005743863664203175 0 0 
0 -0.004986327672076689 0 -0.05131626164850641 -0.03221253150905947 0.148508174133109 -0.05691130419095577 -0.01506662423014224 0 -0.0107435893647753 0 
-0.03113246185303535 -0.2211149982696968 -0.03872665602724092 -0.08943573166110136 0.03466220414831035 0.05410883460562697 0.3201772304501128 -0.03988293944503542 -0.01030117003180118 -0.02270170214025988 0 
0 -0.05021072639567725 0 -0.08019400855185083 -0.0683978903588299 0.2678321828319049 -0.05720171464044422 -0.02323435349323245 -0.02774285451641295 -0.02441842577104568 0 
0 -0.004986327672076689 0 -0.05131626164850641 -0.03221253150905947 0.148508174133109 -0.05691130419095577 -0.01506662423014224 0 -0.0107435893647753 0 
0 -0.004986327672076689 0 -0.05131626164850641 -0.03221253150905947 0.148508174133109 -0.05691130419095577 -0.01506662423014224 0 -0.0107435893647753 0 
0 -0.004986327672076689 0 -0.05131626164850641 -0.03221253150905947 0.148508174133109 -0.05691130419095577 -0.01506662423014224 0 -0.0107435893647753 0 
0 -0.004986327672076689 0 -0.05131626164850641 -0.03221253150905947 0.148508174133109 -0.05691130419095577 -0.01506662423014224 0 -0.0107435893647753 0 
0 -0.004986327672076689 0 -0.05131626164850641 -0.03221253150905947 0.148508174133109 -0.05691130419095577 -0.01506662423014224 0 -0.0107435893647753 0 
-0.123638738377338 0.09187190868187471 -0.05356530665566306 0.2642048502109688 -0.1969959733622252 0.1133798668522845 -0.1227201547888396 -0.01916618684803683 -0.002656140182230891 -0.01157943417040094 -0.003854144540185675 
0 -0.004986327672076689 0 -0.05131626164850641 -0.03221253150905947 0.148508174133109 -0.05691130419095577 -0.01506662423014224 0 -0.0107435893647753 0 
-0.01575111327586677 -0.07032187279698945 0 -0.006752295555291103 0.1594823289773864 -0.0003712340177836895 -0.02603331928705173 -0.01415050380504224 -0.003756054981523147 0 -0.0008908895069033682 
0.1301059964362773 -0.117802581578156 0 -0.02619896229621855 0.1199587318092845 -0.01091957961998731 -0.04177543422517783 -0.01903784014545729 -0.003756054981523147 -0.01544313006325766 -0.0008908895069033682 
-0.01575111327586677 -0.07032187279698945 0 -0.006752295555291103 0.1594823289773864 -0.0003712340177836895 -0.02603331928705173 -0.01415050380504224 -0.003756054981523147 0 -0.0008908895069033682 
-0.01575111327586677 -0.09585788689624521 -0.05296525453197215 -0.01096480953067187 0.1205082884857372 -0.01045096481208386 0.136609318366866 -0.03394577547971938 -0.01328144350851123 0 -0.005128712722051303 
-0.01575111327586677 -0.07032187279698945 0 -0.006752295555291103 0.1594823289773864 -0.0003712340177836895 -0.02603331928705173 -0.01415050380504224 -0.003756054981523147 0 -0.0008908895069033682 
-0.01575111327586677 -0.07032187279698945 0 -0.006752295555291103 0.1594823289773864 -0.0003712340177836895 -0.02603331928705173 -0.01415050380504224 -0.003756054981523147 0 -0.0008908895069033682 
-0.01575111327586677 -0.07032187279698945 0 -0.006752295555291103 0.1594823289773864 -0.0003712340177836895 -0.02603331928705173 -0.01415050380504224 -0.003756054981523147 0 -0.0008908895069033682 
-0.03031878877135222 0.03354555067519527 -0.02430726774871145 -0.006752295555291105 0.1340293535566569 -0.0003712340177836899 -0.06365811768640317 -0.01415050380504224 -0.003756054981523147 0 -0.004951871415364276 
-0.00984014296573924 -0.02205689169508899 -0.02269108750666499 -0.009504485415034243 0.03991365037645923 0 0 0 0 -0.005911676582836308 0 
-0.01630868951537043 -0.002866404901183207 -0.02269108750666499 -0.02900053267514091 0.1257236300844727 -0.04357550403847454 -0.06913092093658807 -0.005856515011534842 -0.0001754006790921165 -0.006381265737304465 -0.009685961816400258 
-0.0264623712525958 -0.09512985665978277 0.0101852971446375 -0.0230230499113185 0.1564749059656479 -0.008362443336310355 -0.01407105348808718 -0.007928132767704703 0 -0.005911676582836308 -0.003880887387027625 
-0.01630868951537043 -0.002866404901183207 -0.02269108750666499 -0.02900053267514091 0.1257236300844727 -0.04357550403847454 -0.06913092093658807 -0.005856515011534842 -0.0001754006790921165 -0.006381265737304465 -0.009685961816400258 
-0.00984014296573924 -0.02205689169508899 -0.02269108750666499 -0.009504485415034243 0.03991365037645923 0 0 0 0 -0.005911676582836308 0 
-0.00984014296573924 -0.02205689169508899 -0.02269108750666499 -0.009504485415034243 0.03991365037645923 0 0 0 0 -0.005911676582836308 0 
-0.05110940924821277 -0.1716402648674533 -0.0790366546959098 -0.03239248586707429 0.3168080814884609 -0.004049652650313379 0 0 -0.00758738458858147 -0.005911676582836308 0 
-0.04075319303499726 -0.0629681100932292 -0.05155362166914251 0.1602487728596989 0.001719752394392128 -0.009562363891493985 -0.004973530540939436 -0.0009922434401146755 0 -0.005911676582836308 0 
0.2693103648908515 -0.07751393656629141 0.0943012857482118 -0.09313692179306786 -0.06403510246551368 -0.03124442438917534 -0.09518445573953051 -0.004037266730358075 -0.03358928426887155 -0.006038940041094037 -0.003174818900886764 
-0.005573622509701989 -0.03524350564761797 -0.005280825048842468 0 -0.0542524480012474 -0.006170398676154733 0.1587903045685281 -0.01147370344876181 0 -0.007492309028255505 0 
0.08111685173412565 0.05272318579924959 -0.1165860193453294 -0.02997272903010788 -0.184357386850994 -0.01678381150980907 0.2768065054888695 -0.01303734875085627 -0.003372031258724337 -0.007492309028255505 0 
-0.005573622509701989 -0.03524350564761797 -0.005280825048842468 0 -0.0542524480012474 -0.006170398676154733 0.1587903045685281 -0.01147370344876181 0 -0.007492309028255505 0 
-0.005573622509701989 -0.03524350564761797 -0.005280825048842468 0 -0.0542524480012474 -0.006170398676154733 0.1587903045685281 -0.01147370344876181 0 -0.007492309028255505 0 
-0.005573622509701989 -0.03524350564761797 -0.005280825048842468 0 -0.0542524480012474 -0.006170398676154733 0.1587903045685281 -0.01147370344876181 0 -0.007492309028255505 0 
-0.005573622509701989 -0.03524350564761797 -0.005280825048842468 0 -0.0542524480012474 -0.006170398676154733 0.1587903045685281 -0.01147370344876181 0 -0.007492309028255505 0 
-0.005573622509701989 -0.03524350564761797 -0.005280825048842468 0 -0.0542524480012474 -0.006170398676154733 0.1587903045685281 -0.01147370344876181 0 -0.007492309028255505 0 
-0.005573622509701989 -0.03524350564761797 -0.005280825048842468 0 -0.0542524480012474 -0.006170398676154733 0.1587903045685281 -0.01147370344876181 0 -0.007492309028255505 0 
-0.005573622509701989 -0.03524350564761797 -0.005280825048842468 0 -0.0542524480012474 -0.006170398676154733 0.1587903045685281 -0.01147370344876181 0 -0.007492309028255505 0 
-0.05616492500584216 -0.07482287606384361 0 0.1706853581804889 0 0 -0.05463257117026486 -0.003888765510977088 -0.002136044662273548 0 -0.003755978536054287 
-0.05616492500584216 -0.07482287606384361 0 0.1706853581804889 0 0 -0.05463257117026486 -0.003888765510977088 -0.002136044662273548 0 -0.003755978536054287 
-0.05616492500584216 -0.07482287606384361 0 0.1706853581804889 0 0 -0.05463257117026486 -0.003888765510977088 -0.002136044662273548 0 -0.003755978536054287 
-0.05616492500584216 -0.07482287606384361 0 0.1706853581804889 0 0 -0.05463257117026486 -0.003888765510977088 -0.002136044662273548 0 -0.003755978536054287 
-0.05616492500584216 -0.07482287606384361 0 0.1706853581804889 0 0 -0.05463257117026486 -0.003888765510977088 -0.002136044662273548 0 -0.003755978536054287 
-0.05616492500584216 -0.07482287606384361 0 0.1706853581804889 0 0 -0.05463257117026486 -0.003888765510977088 -0.002136044662273548 0 -0.003755978536054287 
-0.05616492500584216 -0.07482287606384361 0 0.1706853581804889 0 0 -0.05463257117026486 -0.003888765510977088 -0.002136044662273548 0 -0.003755978536054287 
-0.08499288416564729 -0.1128861624080971 -0.03316062373950376 0.0899592584637533 -0.06773664173437191 -0.00784311565174908 0.2351259891732306 -0.003888765510977088 -0.02672528923320066 0 -0.003755978536054287 
-0.02120407763958046 -0.04104923516755705 0 -0.01217771074139889 0.08871691797567371 0 -0.03325555023083556 0 0 -0.001609363396804654 0 
0.03099525056969982 -0.03663686071931402 -0.06857103705747603 -0.08116711747441457 0.2134108326728572 -0.01238499135724998 -0.06414157862042129 -0.014277800563221 -0.008271286126890938 -0.00362981968012796 -0.0003546538945759651 
-0.02120407763958046 -0.04104923516755705 0 -0.01217771074139889 0.08871691797567371 0 -0.03325555023083556 0 0 -0.001609363396804654 0 
-0.02120407763958046 -0.04104923516755705 0 -0.01217771074139889 0.08871691797567371 0 -0.03325555023083556 0 0 -0.001609363396804654 0 
-0.02120407763958046 -0.04104923516755705 0 -0.01217771074139889 0.08871691797567371 0 -0.03325555023083556 0 0 -0.001609363396804654 0 
-0.02120407763958046 -0.04104923516755705 0 -0.01217771074139889 0.08871691797567371 0 -0.03325555023083556 0 0 -0.001609363396804654 0 
-0.04322746069027156 -0.1781952023447247 -0.08026286256411071 -0.01466765591928898 0.3849094590601079 0 -0.06981361402611175 0 -0.04003141848484812 -0.001609363396804654 0 
-0.02249615136367302 -0.1273801398314612 0 -0.03239515244977578 0.08871691797567371 -0.006121013401883219 0.09369995197748268 0 0 -0.001609363396804654 0 
-0.02120407763958046 -0.04104923516755705 0 -0.01217771074139889 0.08871691797567371 0 -0.03325555023083556 0 0 -0.001609363396804654 0 
0.1758086803736016 -0.05848914723972025 0 -0.06775217281123136 -0.04800531963366194 0 -0.02136628938977351 0 -0.008804127825261946 0 0 
0.1350821918794437 -0.1483193233077963 -0.04453615397928684 0.07566017229784744 0.07283232223019626 -0.01454691906726368 -0.04071689045153409 -0.0009922434401146755 -0.008804127825261946 -0.00280724458015779 0 
0.09944809682359361 -0.09719622744811361 -0.03337358117462519 -0.09673979085704025 0.1514356739627939 -0.003427664527725215 -0.03817618848860257 -0.006864515683346784 -0.01152463232652907 0 0 
0.1448956303043435 -0.09940036563786048 -0.02886253416247752 0.1020010854635018 -0.08619921761572905 -0.009562363891493985 -0.02633981993071296 -0.0009922434401146755 -0.008804127825261946 0 0 
0.1758086803736016 -0.05848914723972025 0 -0.06775217281123136 -0.04800531963366194 0 -0.02136628938977351 0 -0.008804127825261946 0 0 
0.1758086803736016 -0.05848914723972025 0 -0.06775217281123136 -0.04800531963366194 0 -0.02136628938977351 0 -0.008804127825261946 0 0 
0.1758086803736016 -0.05848914723972025 0 -0.06775217281123136 -0.04800531963366194 0 -0.02136628938977351 0 -0.008804127825261946 0 0 
0.1758086803736016 -0.05848914723972025 0 -0.06775217281123136 -0.04800531963366194 0 -0.02136628938977351 0 -0.008804127825261946 0 0 
0.1365328820467248 0.04406760879832827 -0.1243758646091614 0.08588082501931764 -0.03249176038658012 -0.07563055211118203 0.07640970786705478 -0.04117889583497648 -0.0294337418440786 -0.004129180417316917 -0.003536336937784882 
-0.01862835675412231 -0.05529706880514897 -0.05604520558056234 0 -0.02633637056778645 -0.002050879519763601 -0.01226427462635223 0.1642734010242382 0 -0.002173210419376249 0 
-0.01862835675412231 -0.05529706880514897 -0.05604520558056234 0 -0.02633637056778645 -0.002050879519763601 -0.01226427462635223 0.1642734010242382 0 -0.002173210419376249 0 
-0.02676365948242385 0.1630598532703109 -0.03133944142261067 -0.02302275280513544 -0.2122362572648175 -0.01088204248749998 0.04518483974161832 0.1229897984396532 -0.003577797826263978 -0.00399318650273684 0 
-0.01862835675412231 -0.05529706880514897 -0.05604520558056234 0 -0.02633637056778645 -0.002050879519763601 -0.01226427462635223 0.1642734010242382 0 -0.002173210419376249 0 
-0.01862835675412231 -0.05529706880514897 -0.05604520558056234 0 -0.02633637056778645 -0.002050879519763601 -0.01226427462635223 0.1642734010242382 0 -0.002173210419376249 0 
-0.01862835675412231 -0.05529706880514897 -0.05604520558056234 0 -0.02633637056778645 -0.002050879519763601 -0.01226427462635223 0.1642734010242382 0 -0.002173210419376249 0 
-0.01862835675412231 -0.05529706880514897 -0.05604520558056234 0 -0.02633637056778645 -0.002050879519763601 -0.01226427462635223 0.1642734010242382 0 -0.002173210419376249 0 
-0.01862835675412231 -0.05529706880514897 -0.05604520558056234 0 -0.02633637056778645 -0.002050879519763601 -0.01226427462635223 0.1642734010242382 0 -0.002173210419376249 0 
-0.01862835675412231 -0.05529706880514897 -0.05604520558056234 0 -0.02633637056778645 -0.002050879519763601 -0.01226427462635223 0.1642734010242382 0 -0.002173210419376249 0 
-0.01862835675412231 -0.05529706880514897 -0.05604520558056234 0 -0.02633637056778645 -0.002050879519763601 -0.01226427462635223 0.1642734010242382 0 -0.002173210419376249 0 
-0.03411252816059283 -0.1427050023461747 0.1018871463737486 0 -0.09064686875784608 -0.006846685977765262 -0.01226427462635223 0.1529451066982646 0 -0.002173210419376249 -0.0004028448458295505 
-0.006113893787947818 -0.07832970395571565 0.1638040867864454 0 -0.07802626731238778 0 0 -0.006674778187516764 0 0 0 
-0.1761093287400136 0.02640167605746395 0.03585869796349027 -0.08908456036436166 0.1190088213867489 -0.06498339948583226 -0.0009386410598750021 -0.01574941025548635 -0.04297392917592097 -0.01820555336160832 -0.006802580109072269 
-0.006113893787947818 -0.204185604092874 0.2192049443954953 -0.004424270557091944 -0.07802626731238778 0 0 -0.006674778187516764 0 -0.002530318763629336 0 
-0.08162635293175685 -0.1875352785545735 0.0633425953596919 -0.006528369248346357 0.293202811453364 -0.03429337798916797 -0.03409754170810559 -0.04046606814262745 -0.08617806228224725 -0.01077489349152056 -0.01458807984138269 
-0.006113893787947818 -0.07832970395571565 0.1638040867864454 0 -0.07802626731238778 0 0 -0.006674778187516764 0 0 0 
-0.008455206980677678 -0.1149632985653424 0.2217832684560919 -0.02574711346910992 -0.06424853309694768 0 0 -0.006685129653507644 0 -0.005420266994412969 0 
-0.006113893787947818 -0.07832970395571565 0.1638040867864454 0 -0.07802626731238778 0 0 -0.006674778187516764 0 0 0 
-0.006113893787947818 -0.07832970395571565 0.1638040867864454 0 -0.07802626731238778 0 0 -0.006674778187516764 0 0 0 
-0.0112536680085347 -0.1114924578771419 0.1489740132828802 -0.02684142241111537 0.02539560112721249 0 -0.01623036106491529 -0.006674778187516764 0 0 0 
-0.006113893787947818 -0.07832970395571565 0.1638040867864454 0 -0.07802626731238778 0 0 -0.006674778187516764 0 0 0 
0.14205408554948 -0.04288165391035309 -0.01867530368023965 -0.00814100272072792 -0.05511117059363501 0 -0.01565038425253231 -0.001563645302094459 0 0 0 
0.2427895533718421 -0.04919390970433946 -0.1346043102422061 0.03429277012316466 -0.0444255342467427 -0.001539020819788114 -0.06526095245608471 -0.009582184833269057 -0.007290999461311254 0 -0.006044774308138014 
0.14205408554948 -0.04288165391035309 -0.01867530368023965 -0.00814100272072792 -0.05511117059363501 0 -0.01565038425253231 -0.001563645302094459 0 0 0 
0.2384010722859753 -0.1271352559247453 -0.04888707110771939 -0.05913529672791736 0.06154991973093636 0 -0.05115283012600488 -0.005600912032452533 -0.002046652013520267 0 -0.003174818900886764 
0.14205408554948 -0.04288165391035309 -0.01867530368023965 -0.00814100272072792 -0.05511117059363501 0 -0.01565038425253231 -0.001563645302094459 0 0 0 
0.14205408554948 -0.04288165391035309 -0.01867530368023965 -0.00814100272072792 -0.05511117059363501 0 -0.01565038425253231 -0.001563645302094459 0 0 0 
0.2402767070848484 -0.07097338601908451 -0.02031389115751035 -0.01166707535249299 -0.05511117059363501 -0.01921867867411157 -0.04000863055212063 -0.001563645302094459 -0.02004725773893525 0 0 
0.14205408554948 -0.04288165391035309 -0.01867530368023965 -0.00814100272072792 -0.05511117059363501 0 -0.01565038425253231 -0.001563645302094459 0 0 0 
0.14205408554948 -0.04288165391035309 -0.01867530368023965 -0.00814100272072792 -0.05511117059363501 0 -0.01565038425253231 -0.001563645302094459 0 0 0 
0 0.1169945564282173 -0.1085065620303813 0 -0.03371944713324401 0 0 0 -0.0192647193581418 0 0 
-0.0004356181639540909 0.08211071145360103 -0.1573570139508252 -0.002578617429460675 0.08879088324278725 0 -0.009785616186615208 -0.007952109305554534 -0.0192647193581418 0 0 
0 0.1169945564282173 -0.1085065620303813 0 -0.03371944713324401 0 0 0 -0.0192647193581418 0 0 
0 0.04046477654215425 0.02904174473089112 -0.02038082165556658 -0.06351206974645346 0 0 -0.005241112157796587 -0.03274341876505767 0 0 
0 0.1169945564282173 -0.1085065620303813 0 -0.03371944713324401 0 0 0 -0.0192647193581418 0 0 
0 0.04046477654215425 0.02904174473089112 -0.02038082165556658 -0.06351206974645346 0 0 -0.005241112157796587 -0.03274341876505767 0 0 
0 0.1169945564282173 -0.1085065620303813 0 -0.03371944713324401 0 0 0 -0.0192647193581418 0 0 
0 0.1169945564282173 -0.1085065620303813 0 -0.03371944713324401 0 0 0 -0.0192647193581418 0 0 
0 0.108533309870982 -0.003794578907064114 0 -0.06187142502077258 0 -0.03359768021192102 0 0 0 -0.0003620992511083751 
-0.01848234195164044 0.09464786732080836 0.05390570495436121 -0.06061014879614572 0.08821047130658125 -0.03921926666631144 -0.1175522077288989 -0.02513454064619289 -0.02303364345707016 -0.01652017704510996 -0.006019566418164342 
0 0.108533309870982 -0.003794578907064114 0 -0.06187142502077258 0 -0.03359768021192102 0 0 0 -0.0003620992511083751 
0 0.108533309870982 -0.003794578907064114 0 -0.06187142502077258 0 -0.03359768021192102 0 0 0 -0.0003620992511083751 
0 0.108533309870982 -0.003794578907064114 0 -0.06187142502077258 0 -0.03359768021192102 0 0 0 -0.0003620992511083751 
0 0.108533309870982 -0.003794578907064114 0 -0.06187142502077258 0 -0.03359768021192102 0 0 0 -0.0003620992511083751 
0 0.108533309870982 -0.003794578907064114 0 -0.06187142502077258 0 -0.03359768021192102 0 0 0 -0.0003620992511083751 
0 0.108533309870982 -0.003794578907064114 0 -0.06187142502077258 0 -0.03359768021192102 0 0 0 -0.0003620992511083751 
0 0.0605379524566377 0 -0.00846787912405211 -0.01911251781979232 -0.01014729505588617 -0.001797998571828497 -0.00604248059069289 0 0 0 
0 0.0605379524566377 0 -0.00846787912405211 -0.01911251781979232 -0.01014729505588617 -0.001797998571828497 -0.00604248059069289 0 0 0 
-0.002708764152661173 0.2014762078411772 -0.0006948982893455959 -0.05071264429274354 -0.01911251781979232 -0.03629462133072807 -0.06304359459304296 -0.02773655688776214 0 -0.009378217448068001 -0.004683393419479742 
0 0.0605379524566377 0 -0.00846787912405211 -0.01911251781979232 -0.01014729505588617 -0.001797998571828497 -0.00604248059069289 0 0 0 
0 0.0605379524566377 0 -0.00846787912405211 -0.01911251781979232 -0.01014729505588617 -0.001797998571828497 -0.00604248059069289 0 0 0 
0 0.0605379524566377 0 -0.00846787912405211 -0.01911251781979232 -0.01014729505588617 -0.001797998571828497 -0.00604248059069289 0 0 0 
-0.01763002442810821 0.3975962407341227 -0.05171784276544059 -0.1098331017453744 -0.1927571757860251 -0.04220494792235689 -0.0817498627789008 -0.01016977616787837 -0.01564500475908409 0 1.084202172485504e-19 
-0.07404758298529224 0.2156364123762354 0.03412968292348263 -0.02893571781730408 -0.09506479280417839 -0.1040082875690212 -0.005957638026508347 0.07342342397137225 -0.04522654363590756 -0.01695237584955727 -0.01067851790735451 
0 0.0605379524566377 0 -0.00846787912405211 -0.01911251781979232 -0.01014729505588617 -0.001797998571828497 -0.00604248059069289 0 0 0 
-0.003068054051096637 0.1396210950003075 -0.03849996735056084 0 -0.09308092586751956 0 -0.001164070264606894 0 0 0 0 
-0.03313310916535808 0.07014894566737631 0.1723318426164297 -0.03732807431740783 -0.2132172785569379 -0.02425137358128926 0.0505502243240137 0 -0.01042287154756344 0 -0.005837960438947326 
-0.009773932518476899 0.1801238178548566 0.0944779008319032 -0.02116584014956114 -0.1600892577848007 0 -0.05279654495667358 -0.003888189493178989 -9.75781955236954e-19 0 -0.00108435355585936 
-0.003068054051096637 0.1396210950003075 -0.03849996735056084 0 -0.09308092586751956 0 -0.001164070264606894 0 0 0 0 
-0.003068054051096637 0.1396210950003075 -0.03849996735056084 0 -0.09308092586751956 0 -0.001164070264606894 0 0 0 0 
-0.003068054051096637 0.1396210950003075 -0.03849996735056084 0 -0.09308092586751956 0 -0.001164070264606894 0 0 0 0 
-0.003068054051096637 0.1396210950003075 -0.03849996735056084 0 -0.09308092586751956 0 -0.001164070264606894 0 0 0 0 
-0.03254514190870056 0.05550805712826398 -0.03849996735056084 -0.01056797898297291 -0.06583363192873837 -0.02839773170662416 0.1348276917605606 -0.01654895295328676 -0.01043222812349358 -0.01420342461052733 0 
-0.003068054051096637 0.1396210950003075 -0.03849996735056084 0 -0.09308092586751956 0 -0.001164070264606894 0 0 0 0 
-0.02006081227515055 -0.191014963335974 -0.0251438212918833 -0.01888579595828888 0.2561490405894379 -0.008362443336310355 -0.02123492522412329 -0.001685064244452322 -3.903127820947816e-18 -0.001096334836017286 0 
0.03680033832214267 0.2327853717727598 -0.3041488956066609 -0.09299959307260582 0.1467082661989748 -0.0622357481955317 -0.05868916976725996 -0.004125141925871322 -0.05574890139041998 -0.02678833373121479 -0.01303569085936542 
-0.05072431306917705 -0.08377288310072582 -0.001545765307245925 0.1534095726634719 -0.03807894900144717 -0.001539020819788115 0 0 0 0 0 
-0.07253629595037819 0.1102612699917636 -0.05511876858763479 0.1109734574628449 -0.05150306055534904 -0.007446685974059663 -0.04053287397872331 -0.004127295577185473 -0.01547016060998132 -0.001475894211309979 0 
-0.05072431306917705 -0.08377288310072582 -0.001545765307245925 0.1534095726634719 -0.03807894900144717 -0.001539020819788115 0 0 0 0 0 
-0.05072431306917705 -0.08377288310072582 -0.001545765307245925 0.1534095726634719 -0.03807894900144717 -0.001539020819788115 0 0 0 0 0 
-0.05072431306917705 -0.08377288310072582 -0.001545765307245925 0.1534095726634719 -0.03807894900144717 -0.001539020819788115 0 0 0 0 0 
-0.05072431306917705 -0.08377288310072582 -0.001545765307245925 0.1534095726634719 -0.03807894900144717 -0.001539020819788115 0 0 0 0 0 
-0.05072431306917705 -0.08377288310072582 -0.001545765307245925 0.1534095726634719 -0.03807894900144717 -0.001539020819788115 0 0 0 0 0 
0.07437603559753013 -0.1207809773848657 0.05168193412770323 0.1384114591130974 -0.06748358723052797 -0.01269783573516032 -0.03601584540874402 0 -0.03807817211610416 0 -0.002106170754023012 
-0.05072431306917705 -0.08377288310072582 -0.001545765307245925 0.1534095726634719 -0.03807894900144717 -0.001539020819788115 0 0 0 0 0 
-0.01183349983894453 -0.01741301332865986 0 -0.001346660757344244 -0.04152456365140254 -0.06567243439735387 0.1993671117585313 0 -0.01957614135580201 0 -0.003536336937784883 
-0.03209329495027061 0.04589675685549237 -0.07734333495711287 -0.02842134392958499 -0.09678356033897328 0.1238433088655734 0.04672257456373662 0.1011220229310288 -0.08014683823307919 -0.01224025724691445 -0.01307546030126021 
-0.01183349983894453 -0.01741301332865986 0 -0.001346660757344244 -0.04152456365140254 -0.06567243439735387 0.1993671117585313 0 -0.01957614135580201 0 -0.003536336937784883 
-0.04542437720861967 -0.2306719606192463 -0.05982603259485821 -0.01182635216846836 -0.02562871105683383 0.142576992282738 0.02517782185150077 -0.01512835220608051 0.2264423261259283 -0.008113662249597805 -0.03936164603947209 
-0.01183349983894453 -0.01741301332865986 0 -0.001346660757344244 -0.04152456365140254 -0.06567243439735387 0.1993671117585313 0 -0.01957614135580201 0 -0.003536336937784883 
-0.03593881827326172 -0.07364390841033092 -0.01137878731507777 -0.01138776218389552 -0.09456990356948197 0.2142737249071874 0.1295288218491827 -0.00957473491521559 -0.07602799957798717 -0.008113662249597805 -0.01612778153556488 
-0.01183349983894453 -0.01741301332865986 0 -0.001346660757344244 -0.04152456365140254 -0.06567243439735387 0.1993671117585313 0 -0.01957614135580201 0 -0.003536336937784883 
-0.01183349983894453 -0.01741301332865986 0 -0.001346660757344244 -0.04152456365140254 -0.06567243439735387 0.1993671117585313 0 -0.01957614135580201 0 -0.003536336937784883 
-0.01183349983894453 -0.01741301332865986 0 -0.001346660757344244 -0.04152456365140254 -0.06567243439735387 0.1993671117585313 0 -0.01957614135580201 0 -0.003536336937784883 
-0.01896286290123992 0.0163627338042173 -0.005090621886753285 -0.02537921668888406 -0.1591942184059002 -0.08424763607357116 0.1569914731959526 -0.004386553084451057 0.120632218048571 -0.003474365332218658 -0.008563705204793595 
-0.01763002442810819 0.1344588050409243 -0.04872728291647622 -0.01897646848461974 -0.04257547919130039 0 0 -0.004127295577185473 0 0 0 
0.06110728249089156 -0.07218585091104296 0.2125813677201285 -0.1642369529855953 -0.08644732038383536 -0.1142798799086876 0.05974284451776724 -0.04968809023471966 -0.06999346732107206 -0.03181377098441109 -0.02617518338487258 
0.06881673556297779 0.01427815383117682 0.1807788739834447 -0.02366151174661603 -0.1120440297925444 -0.02760604122864645 -0.07802246776547492 -0.01831973814532444 -0.003525334043836062 -0.008465404523145873 -0.008606453224004457 
-0.01949412547866097 0.05958816037572626 -0.04872728291647622 -0.02588506173896834 0.05496395255662335 0 -0.02299985870709377 -0.004127295577185473 0 -0.001475894211309979 0 
-0.01763002442810819 0.09599461182340825 -0.09371495463797375 -0.01897646848461974 0.08797617949556365 -0.0107272130453521 -0.01315820530630474 -0.004127295577185474 0 -2.168404344971009e-19 0 
-0.01763002442810819 0.1344588050409243 -0.04872728291647622 -0.01897646848461974 -0.04257547919130039 0 0 -0.004127295577185473 0 0 0 
-0.01763002442810819 0.1344588050409243 -0.04872728291647622 -0.01897646848461974 -0.04257547919130039 0 0 -0.004127295577185473 0 0 0 
-0.01763002442810819 0.1344588050409243 -0.04872728291647622 -0.01897646848461974 -0.04257547919130039 0 0 -0.004127295577185473 0 0 0 
-0.01763002442810819 0.1344588050409243 -0.04872728291647622 -0.01897646848461974 -0.04257547919130039 0 0 -0.004127295577185473 0 0 0 
0 0.197314707950343 -0.02209412006670807 -0.01732389899418519 -0.1267044928517187 -0.01433316459158455 -0.01542209725780308 0 -0.00265614018223089 0 -0.003854144540185673 
-0.07654587316363284 0.1729660785613697 -0.03128873088903292 -0.05282538419545044 0.007173908218209783 -0.02880664680335022 0.05397996414745478 -0.0466647948528933 -0.02475384310062924 -0.001438948933831223 -0.004938498096045033 
-0.01662222828685656 0.1312834458267527 0.174026221338709 -0.02861726669785029 -0.196843493367573 -0.01433316459158455 -0.01542209725780309 -0.007020745374153196 -0.00265614018223089 0 -0.007735031927213296 
-0.01908732595567381 0.1394734745248697 -0.08362341727221317 -0.03328778991331457 0.008910846520268051 -0.01433316459158455 -0.01542209725780308 0 -0.00265614018223089 0 -0.003854144540185673 
0 0.197314707950343 -0.02209412006670807 -0.01732389899418519 -0.1267044928517187 -0.01433316459158455 -0.01542209725780308 0 -0.00265614018223089 0 -0.003854144540185673 
-0.01908732595567381 0.1394734745248697 -0.08362341727221317 -0.03328778991331457 0.008910846520268051 -0.01433316459158455 -0.01542209725780308 0 -0.00265614018223089 0 -0.003854144540185673 
0 0.197314707950343 -0.02209412006670807 -0.01732389899418519 -0.1267044928517187 -0.01433316459158455 -0.01542209725780308 0 -0.00265614018223089 0 -0.003854144540185673 
-0.02063922845132394 0.03058698047248544 -0.1114386206159148 -0.02299112839971932 0.258089299281638 -0.0176637093722869 -0.1538218643899756 -0.002607180326407639 -0.01408087824587978 -0.00290524296704989 -0.003854144540185673 
0 0.197314707950343 -0.02209412006670807 -0.01732389899418519 -0.1267044928517187 -0.01433316459158455 -0.01542209725780308 0 -0.00265614018223089 0 -0.003854144540185673 
-0.01680715133675313 -0.07881069393082568 0.1294085526615459 -0.03461208742211153 0 0 -0.01773617850258396 0 0 0 0 
-0.02611052891325831 -0.1509227749668088 0.2722351507636278 -0.03461208742211153 -0.04264699308108873 -0.01434691330664709 -0.01773617850258396 0 -0.01042287154756345 0 0 
-0.01680715133675313 -0.07881069393082568 0.1294085526615459 -0.03461208742211153 0 0 -0.01773617850258396 0 0 0 0 
-0.01680715133675313 -0.07881069393082568 0.1294085526615459 -0.03461208742211153 0 0 -0.01773617850258396 0 0 0 0 
-0.01680715133675313 -0.07881069393082568 0.1294085526615459 -0.03461208742211153 0 0 -0.01773617850258396 0 0 0 0 
-0.01680715133675313 -0.07881069393082568 0.1294085526615459 -0.03461208742211153 0 0 -0.01773617850258396 0 0 0 0 
-0.01680715133675313 -0.07881069393082568 0.1294085526615459 -0.03461208742211153 0 0 -0.01773617850258396 0 0 0 0 
-0.004341092328211059 0 -0.002867641615954067 -0.0005761778028530683 -0.07118639146515728 -0.02506252753219198 0.1473945064224639 -0.01564609080238054 -0.01030117003180118 -0.01195811277548459 0 
-0.004341092328211059 0 -0.002867641615954067 -0.0005761778028530683 -0.07118639146515728 -0.02506252753219198 0.1473945064224639 -0.01564609080238054 -0.01030117003180118 -0.01195811277548459 0 
-0.004341092328211059 -0.09443647522815293 -0.002867641615954067 -0.0005761778028530685 0.09868870086417642 -0.06863803157066649 0.08961506847708017 -0.01564609080238054 -0.01030117003180118 -0.01195811277548459 0 
-0.004341092328211059 0 -0.002867641615954067 -0.0005761778028530683 -0.07118639146515728 -0.02506252753219198 0.1473945064224639 -0.01564609080238054 -0.01030117003180118 -0.01195811277548459 0 
-0.004341092328211059 0 -0.002867641615954067 -0.0005761778028530683 -0.07118639146515728 -0.02506252753219198 0.1473945064224639 -0.01564609080238054 -0.01030117003180118 -0.01195811277548459 0 
-0.004341092328211059 0 -0.002867641615954067 -0.0005761778028530683 -0.07118639146515728 -0.02506252753219198 0.1473945064224639 -0.01564609080238054 -0.01030117003180118 -0.01195811277548459 0 
-0.004341092328211059 0 -0.002867641615954067 -0.0005761778028530683 -0.07118639146515728 -0.02506252753219198 0.1473945064224639 -0.01564609080238054 -0.01030117003180118 -0.01195811277548459 0 
-0.004341092328211059 0 -0.002867641615954067 -0.0005761778028530683 -0.07118639146515728 -0.02506252753219198 0.1473945064224639 -0.01564609080238054 -0.01030117003180118 -0.01195811277548459 0 
-0.008366978524125275 -0.02043098071254788 -0.05542433347063059 -0.02350583173641196 0.0118893390538256 -0.06530814445134955 0.05468085158715456 -0.02119970809324547 0.1373741924776378 -0.01195811277548459 -0.01694167055137675 
0.1124431345066437 -0.04992897619478204 0.1169326887810219 -0.02854595295364143 -0.1240753092343949 -0.0362213424475642 0.08223214909345188 -0.01564609080238054 -0.04837934214790534 -0.01752969085758115 -0.002106170754023012 
-0.0147019758965875 0.1720235975395385 -0.09255812578418895 0 -0.03088295318665323 0 -0.02808932861377523 0 -0.001053472663014642 0 0 
-0.09243108609896286 -0.05980675407655947 -0.05443069976535952 -0.06110346100074026 0.4051365811108196 -0.1378127237753946 -0.1675686321292169 -0.0821608238720187 -0.01362845371280651 -0.04323773250159487 -0.01879315050846974 
-0.04514927663018877 0.1274063761201937 0.1432497582235899 -0.06318903045348734 -0.207035197870016 -0.05532500422233261 -0.07052331273607018 -0.04585993444806416 0.1022419691775996 -0.01214681925275755 -0.006383019070689134 
-0.0147019758965875 0.1720235975395385 -0.09255812578418895 0 -0.03088295318665323 0 -0.02808932861377523 0 -0.001053472663014642 0 0 
-0.0147019758965875 0.05083211767112011 0.03939953758755814 -0.01213998903443427 -0.03291059561484211 -0.03421432378596061 -0.02808932861377523 -0.02651207761756354 -0.007862969061175574 0 -3.252606517456513e-19 
-0.0147019758965875 0.1720235975395385 -0.09255812578418895 0 -0.03088295318665323 0 -0.02808932861377523 0 -0.001053472663014642 0 0 
-0.0147019758965875 0.05083211767112011 0.03939953758755814 -0.01213998903443427 -0.03291059561484211 -0.03421432378596061 -0.02808932861377523 -0.02651207761756354 -0.007862969061175574 0 -3.252606517456513e-19 
-0.05275460645071434 0.2823444403124918 0.1662988663418973 -0.05372917415490191 -0.3378147841469148 -0.04269680507168437 -0.07385300654999194 -0.02190280946796469 -0.03608684540249137 -0.01468567096960013 -0.007152644630030517 
-0.0147019758965875 0.1720235975395385 -0.09255812578418895 0 -0.03088295318665323 0 -0.02808932861377523 0 -0.001053472663014642 0 0 
-0.0147019758965875 0.1720235975395385 -0.09255812578418895 0 -0.03088295318665323 0 -0.02808932861377523 0 -0.001053472663014642 0 0 
-0.01456990899395863 -0.1161029332368315 -0.02557044500673627 -0.01811777176334102 0.1693234080915595 0 0 0 -0.002987472729383478 0 0 
-0.02497115165836318 0.2099383588261977 -0.1150709190902837 -0.04531239275505129 0.05757784491658559 -0.02624682624820301 -0.06769331029070054 -0.00582435081320121 -0.02378402830852837 -0.0003394945942845392 -0.002706637276612207 
-0.01456990899395863 -0.1161029332368315 -0.02557044500673627 -0.01811777176334102 0.1693234080915595 0 0 0 -0.002987472729383478 0 0 
0.109435415665208 -0.01276715828216122 -0.06009277752460342 -0.04869549739831217 0.03977663435291004 0 -0.01384417523326411 0 -0.002987472729383478 0 -0.002869955407251252 
-0.01456990899395863 -0.1161029332368315 -0.02557044500673627 -0.01811777176334102 0.1693234080915595 0 0 0 -0.002987472729383478 0 0 
-0.01456990899395863 -0.1161029332368315 -0.02557044500673627 -0.01811777176334102 0.1693234080915595 0 0 0 -0.002987472729383478 0 0 
-0.01456990899395863 -0.1161029332368315 -0.02557044500673627 -0.01811777176334102 0.1693234080915595 0 0 0 -0.002987472729383478 0 0 
-0.01456990899395863 -0.1161029332368315 -0.02557044500673627 -0.01811777176334102 0.1693234080915595 0 0 0 -0.002987472729383478 0 0 
-0.01456990899395863 -0.1161029332368315 -0.02557044500673627 -0.01811777176334102 0.1693234080915595 0 0 0 -0.002987472729383478 0 0 
-0.06826472327790943 0.1963863101821406 0 -0.02589740835028742 -0.03439872389715425 0 -0.01384417523326411 0 0 0 -0.002869955407251252 
-0.1116404915786883 -0.03408788194015404 0.06676130654211249 0.03739972513898519 -0.2089270943803433 0.03318294419269086 0.08941511706937889 -0.01824795264347253 -0.02537830810298745 0.07716821112281236 0.07944467402850949 
-0.1116404915786883 0.1427806315544326 0.1130184743593402 -0.02589740835028742 -0.03439872389715425 -0.008974670728960667 -0.04044668058158606 -0.001895812391722234 0 -0.008465404523145873 -0.01147640863125571 
-0.06826472327790943 0.1963863101821406 0 -0.02589740835028742 -0.03439872389715425 0 -0.01384417523326411 0 0 0 -0.002869955407251252 
-0.06826472327790943 0.1963863101821406 0 -0.02589740835028742 -0.03439872389715425 0 -0.01384417523326411 0 0 0 -0.002869955407251252 
-0.06826472327790943 0.1963863101821406 0 -0.02589740835028742 -0.03439872389715425 0 -0.01384417523326411 0 0 0 -0.002869955407251252 
-0.06826472327790943 0.1963863101821406 0 -0.02589740835028742 -0.03439872389715425 0 -0.01384417523326411 0 0 0 -0.002869955407251252 
-0.02890139042724526 -0.08084600073527942 0 0.1624488847807337 -0.01872712327244278 0 -0.03650157994971252 -0.008215722628075996 -0.004268153712535205 0 0 
-0.1151243821200725 0.02796788224261706 -0.09791688397485374 0.2019887591870647 -0.003911705788988848 0.05514787679672524 -0.06955981331262458 -0.02554422398549066 -0.0173356736797275 -0.03020489020975714 -0.00715211190116003 
-0.02890139042724526 -0.1392382791995491 -0.01787098183583559 0.1395608843286936 0.08480921081433675 -0.004049652650313379 -0.03650157994971252 -0.008215722628075996 -0.004268153712535205 0 0 
-0.02890139042724526 -0.08084600073527942 0 0.1624488847807337 -0.01872712327244278 0 -0.03650157994971252 -0.008215722628075996 -0.004268153712535205 0 0 
-0.02890139042724526 -0.08084600073527942 0 0.1624488847807337 -0.01872712327244278 0 -0.03650157994971252 -0.008215722628075996 -0.004268153712535205 0 0 
-0.02890139042724526 -0.08084600073527942 0 0.1624488847807337 -0.01872712327244278 0 -0.03650157994971252 -0.008215722628075996 -0.004268153712535205 0 0 
-0.02890139042724526 -0.08084600073527942 0 0.1624488847807337 -0.01872712327244278 0 -0.03650157994971252 -0.008215722628075996 -0.004268153712535205 0 0 
0.1212298227720044 -0.02024275603949452 -0.06470726745500739 0.1473033223243792 -0.05349015435184876 -0.03035455912789404 -0.0752565311636908 -0.01487883649843931 -0.05263173946460835 -0.007034191898500901 0 
-0.02890139042724526 -0.08084600073527942 0 0.1624488847807337 -0.01872712327244278 0 -0.03650157994971252 -0.008215722628075996 -0.004268153712535205 0 0 
-0.06289726231141976 -0.003940751906909041 -0.03021176742747972 -0.02108542696095332 0.1186835850945425 0 0 0 0 0 0 
-0.06289726231141976 0.120147294381208 -0.05002765003442886 -0.03224842494966509 0.02200507173001625 -0.03873657323762926 0.005300609541973911 -0.001392263844550771 -0.01102706207644056 -0.0104039200088712 -0.004095942832460063 
-0.06289726231141976 -0.003940751906909041 -0.03021176742747972 -0.02108542696095332 0.1186835850945425 0 0 0 0 0 0 
-0.06289726231141976 -0.003940751906909041 -0.03021176742747972 -0.02108542696095332 0.1186835850945425 0 0 0 0 0 0 
-0.06289726231141976 -0.003940751906909041 -0.03021176742747972 -0.02108542696095332 0.1186835850945425 0 0 0 0 0 0 
-0.0979940314109181 -0.2711592900475714 -0.1102560433550721 -0.02799402021530192 0.5236867752682131 -0.03952312874116149 -0.04973683468690505 -0.03222862335212416 -0.01272476186707599 -0.001475894211309979 -0.005117569379434187 
-0.06289726231141976 -0.003940751906909041 -0.03021176742747972 -0.02108542696095332 0.1186835850945425 0 0 0 0 0 0 
0.1625809823667184 -0.09265486090501887 -0.0539462210820963 -0.02108542696095333 0.07517422300274174 0 -0.05308702817577755 0 0 0 0 
-0.07981834034614226 -0.2095412828374209 0.2341997788075562 0.07231944574917298 0.07732076692360551 -0.04552201722206208 -0.08681008434277016 -0.01172739435396905 -0.02146545494296725 -0.007334414856618715 -0.007457715912377135 
-0.01456767549548544 -0.1320819084234325 -0.01711211774857246 0 0.1240307542714567 0 0 0 0 0 -0.004060981908460907 
-0.02842402207609643 -0.06123977971730825 -0.05085591855790781 -0.01342827263045169 0.1760620017238546 0 -0.0472112621131969 0 -0.0219063152130593 0 -0.004060981908460907 
-0.01456767549548544 -0.006995519922552002 0.07156563792888425 -0.01472142692892257 0.02367367377045834 -0.01843303065508219 -0.03411608188765559 -0.009276567374650829 -0.01333124758425985 -0.001858748072640908 -0.01349433233446325 
-0.01456767549548544 -0.1320819084234325 -0.01711211774857246 0 0.1240307542714567 0 0 0 0 0 -0.004060981908460907 
-0.01456767549548544 -0.006995519922552002 0.07156563792888425 -0.01472142692892257 0.02367367377045834 -0.01843303065508219 -0.03411608188765559 -0.009276567374650829 -0.01333124758425985 -0.001858748072640908 -0.01349433233446325 
-0.01456767549548544 -0.1320819084234325 -0.01711211774857246 0 0.1240307542714567 0 0 0 0 0 -0.004060981908460907 
-0.01456767549548544 -0.006995519922552002 0.07156563792888425 -0.01472142692892257 0.02367367377045834 -0.01843303065508219 -0.03411608188765559 -0.009276567374650829 -0.01333124758425985 -0.001858748072640908 -0.01349433233446325 
-0.0966946964777682 -0.2491864451472655 -0.06753494707164759 -0.00207921340040536 0.389544699160378 0 0 -0.001858017410217611 0 -0.001582969585006701 -0.004060981908460907 
-0.02164176868918604 0 -0.01230382802574236 0 -0.06869406192077067 -0.01112282337829048 0.09279522705347024 0 0 0 0 
-0.06618797305314417 -0.4128793247352202 -0.1489442215293088 -0.0816880462101184 -0.1371300621762669 -0.0427765624705444 0.7922727847271307 -0.01603714611903621 -0.02267573669289879 -0.008991283402576445 -0.010510244442143 
-0.02164176868918604 0 -0.01230382802574236 0 -0.06869406192077067 -0.01112282337829048 0.09279522705347024 0 0 0 0 
-0.02901662674259912 0.09002074699737708 -0.01230382802574236 -0.0247439199437664 -0.06869406192077067 -0.01438540055600872 -0.01421145874316931 -0.006525254615550856 -0.01698126816781275 -0.005896392355282274 -0.004672284003195675 
-0.02164176868918604 0 -0.01230382802574236 0 -0.06869406192077067 -0.01112282337829048 0.09279522705347024 0 0 0 0 
-0.02164176868918604 0 -0.01230382802574236 0 -0.06869406192077067 -0.01112282337829048 0.09279522705347024 0 0 0 0 
-0.03374506869374717 -0.1948538472493341 0.1251664873740936 -0.02988808816784752 0.07764382577641865 -0.01112282337829048 0.08189961063465874 -0.02862683296493833 0 -0.000715142387016747 0 
0.09688903073334681 -0.2990503866737173 0.1902324157166761 0.06430579476982592 -0.01482885837639924 -0.07102897495682806 0.1151099126721182 -0.04918620327136717 -0.04193328900233044 0 -0.01592452544776674 
0.06903849985794971 -0.1944409017674977 -0.07359897663447081 -0.1123681595935982 0.199717654888594 0.1876874270726816 -0.07103848420705314 -0.002903386125921793 -0.02290608649210868 -0.03057218340453978 -0.007182555439023924 
-0.02164176868918604 0 -0.01230382802574236 0 -0.06869406192077067 -0.01112282337829048 0.09279522705347024 0 0 0 0 
-0.0008132288798262415 -0.03349998753322488 -0.02262670369995097 0 0.09760225381422562 -0.005308804955200883 -0.02673697597981128 0 -0.003626130980567902 0 -0.005117569379434187 
0.03665039694923296 0.146520004711613 -0.08583268707337753 -0.04061319719953733 0.00654927113565674 -0.009358457605514263 -0.0321436601946686 -0.02903473664670041 -0.008490133398404895 -0.008029674885422489 -0.005117569379434187 
-0.01825647861496277 0.03550793718799385 -0.09666349002015306 -0.03600315925762532 0.03361704198764363 -0.01134354039977147 0.1307987835910774 -0.009853606506586995 -0.004764415584009753 0 -0.0142519671017826 
-0.0008132288798262415 -0.03349998753322488 -0.02262670369995097 0 0.09760225381422562 -0.005308804955200883 -0.02673697597981128 0 -0.003626130980567902 0 -0.005117569379434187 
-0.0008132288798262415 -0.03349998753322488 -0.02262670369995097 0 0.09760225381422562 -0.005308804955200883 -0.02673697597981128 0 -0.003626130980567902 0 -0.005117569379434187 
-0.0008132288798262415 -0.03349998753322488 -0.02262670369995097 0 0.09760225381422562 -0.005308804955200883 -0.02673697597981128 0 -0.003626130980567902 0 -0.005117569379434187 
-0.0008132288798262415 -0.03349998753322488 -0.02262670369995097 0 0.09760225381422562 -0.005308804955200883 -0.02673697597981128 0 -0.003626130980567902 0 -0.005117569379434187 
-0.0008132288798262415 -0.03349998753322488 -0.02262670369995097 0 0.09760225381422562 -0.005308804955200883 -0.02673697597981128 0 -0.003626130980567902 0 -0.005117569379434187 
-0.0008132288798262415 -0.03349998753322488 -0.02262670369995097 0 0.09760225381422562 -0.005308804955200883 -0.02673697597981128 0 -0.003626130980567902 0 -0.005117569379434187 
-0.0008132288798262415 -0.03349998753322488 -0.02262670369995097 0 0.09760225381422562 -0.005308804955200883 -0.02673697597981128 0 -0.003626130980567902 0 -0.005117569379434187 
-0.00720061816733924 -0.01926980813890829 -0.02885603103783713 -0.02019626198398361 0.1310009243482399 -0.003427664527725215 -0.004139357881761353 -0.004022075295905777 -0.002720504501267124 0 0 
-0.05944203538952765 -0.2561141221927923 -0.004703896329669542 -0.0239471372040146 0.4062093266374877 -0.0260916882367603 -0.056192577587896 -0.03578035493097807 -0.03213092727025615 -0.03897265459799783 -0.03487198895216759 
-0.05944203538952766 -0.09322264690682114 0.05380164188832654 -0.004942314674674182 0.1675540040180558 -0.0260916882367603 -0.05619257758789597 -0.01553670666998574 -0.02238223544397474 -0.03414345765018836 -0.03487198895216759 
-0.05944203538952766 -0.03754055674830757 -0.136262162291696 0.07179459433744904 0.2419883817539852 -0.01875355372699855 -0.05619257758789597 -0.01553670666998574 -0.02238223544397474 -0.03414345765018836 -0.03487198895216759 
-0.07636058355000792 -0.03870708020839338 -0.03337358117462519 -0.02898761804580888 0.1994409935964558 -0.003427664527725215 -0.01680989909882904 -0.006864515683346784 -0.002720504501267124 0 0 
-0.00720061816733924 -0.01926980813890829 -0.02885603103783713 -0.02019626198398361 0.1310009243482399 -0.003427664527725215 -0.004139357881761353 -0.004022075295905777 -0.002720504501267124 0 0 
-0.00720061816733924 -0.01926980813890829 -0.02885603103783713 -0.02019626198398361 0.1310009243482399 -0.003427664527725215 -0.004139357881761353 -0.004022075295905777 -0.002720504501267124 0 0 
-0.02268478957380975 -0.1908801313214661 0.2687417014035182 -0.03857903889364092 -0.01550967036504927 0.1062385488006564 -0.03832558594130302 -0.02334361520403515 -0.04099266683508569 0 -0.00040284484582955 
-0.00720061816733924 -0.01926980813890829 -0.02885603103783713 -0.02019626198398361 0.1310009243482399 -0.003427664527725215 -0.004139357881761353 -0.004022075295905777 -0.002720504501267124 0 0 
-0.004605181065224507 -0.06549761549277544 -0.008104215680408686 0 0.06443583975697534 0 -0.01565946495724213 0 0 0 0 
0.03417923566659283 -0.07850993131681916 -0.161197639624714 -0.09941484795224984 0.1056429914607178 -0.04392054599223441 0.1975375583357478 -0.009963815851740753 -0.03907067666356401 -0.008410348222445223 -0.01048850799356857 
-0.004605181065224507 0.052668342502278 -0.01646696313962579 -0.02567031801803233 0.0002638489289699987 -0.02624682624820302 -0.01565946495724213 -0.0001078050786405868 0 -0.0003394945942845395 0 
0.128314270436955 -0.08323290855303327 -0.06285659023366977 -0.03777029684757777 0.1724507893856665 -0.03118001065827091 -0.1080935965360381 2.168404344971009e-19 -0.0203616405438411 0 0 
-0.004605181065224507 -0.06549761549277544 -0.008104215680408686 0 0.06443583975697534 0 -0.01565946495724213 0 0 0 0 
-0.004605181065224507 -0.06549761549277544 -0.008104215680408686 0 0.06443583975697534 0 -0.01565946495724213 0 0 0 0 
0.01530017192990986 -0.3455735500139004 -0.2206386779960083 0.1405699905734971 0.6266057312359936 -0.09137058285814018 -0.1089155699676095 -0.04674048708538624 -0.06171214945377202 -0.02577221084640952 -0.01471993466252111 
-0.004605181065224507 -0.06549761549277544 -0.008104215680408686 0 0.06443583975697534 0 -0.01565946495724213 0 0 0 0 
-0.004605181065224507 -0.06549761549277544 -0.008104215680408686 0 0.06443583975697534 0 -0.01565946495724213 0 0 0 0 
0 -0.05839227846426969 -0.01787098183583558 -0.02288800045204005 0.1035363340867795 -0.004049652650313379 0 0 0 0 0 
-0.03496238400517706 -0.1265137069288705 -0.04610763663216871 -0.02364134729245287 0.2393705222069642 -0.004049652650313379 0 0 0 0 0 
0 -0.05839227846426969 -0.01787098183583558 -0.02288800045204005 0.1035363340867795 -0.004049652650313379 0 0 0 0 0 
0 -0.05839227846426969 -0.01787098183583558 -0.02288800045204005 0.1035363340867795 -0.004049652650313379 0 0 0 0 0 
0 -0.05839227846426969 -0.01787098183583558 -0.02288800045204005 0.1035363340867795 -0.004049652650313379 0 0 0 0 0 
0 -0.05839227846426969 -0.01787098183583558 -0.02288800045204005 0.1035363340867795 -0.004049652650313379 0 0 0 0 0 
-0.01821216678515849 0.1157125198912092 -0.03872600857023036 0 -0.007079148561469246 -0.02170011537591911 0 0 -0.02727962889851556 0 -0.001506798574433747 
0.1815054191311918 -0.01394833338610588 -0.2169828911674635 -0.0849569971139295 -0.1522711777141693 0.2132816895397549 -0.05940268619073456 -0.02479733003327268 0.1522757858594607 -0.0275205881115477 -0.01635870141271142 
-0.03299386075034651 0.1574853810016817 -0.1250202264704769 -0.006950738437137872 -0.0003889316405655888 -0.0907196609885631 0 -0.003197469473020069 0.1022785346223887 -0.0007623747003227084 -0.002379966903201164 
-0.05112510562710806 -0.0714921650301894 0.2258111202559246 -0.03965448106196823 0.1239605060072739 -0.06907400144702582 -0.1010605340348925 -0.03188980191461049 -0.03794254246053521 -0.00319236880542266 -0.03672924374026462 
-0.01821216678515849 0.1157125198912092 -0.03872600857023036 0 -0.007079148561469246 -0.02170011537591911 0 0 -0.02727962889851556 0 -0.001506798574433747 
-0.02214251234146462 0.1427030357165194 0.09960843658618532 0 -0.2147854793978847 -0.02237379198261769 -0.03000366991124197 -0.01264831527422512 -0.02727962889851556 0 -0.009167108713120944 
-0.01821216678515849 0.1157125198912092 -0.03872600857023036 0 -0.007079148561469246 -0.02170011537591911 0 0 -0.02727962889851556 0 -0.001506798574433747 
-0.01821216678515849 0.1157125198912092 -0.03872600857023036 0 -0.007079148561469246 -0.02170011537591911 0 0 -0.02727962889851556 0 -0.001506798574433747 
-0.01821216678515849 0.1157125198912092 -0.03872600857023036 0 -0.007079148561469246 -0.02170011537591911 0 0 -0.02727962889851556 0 -0.001506798574433747 
-0.01821216678515849 0.1157125198912092 -0.03872600857023036 0 -0.007079148561469246 -0.02170011537591911 0 0 -0.02727962889851556 0 -0.001506798574433747 
-0.03241943916911932 -0.1128681888679808 0 -0.01422032191746372 0.1363137228486291 0 -0.02543804562320076 0 0 0 0 
0.007691154490857787 -0.04508523010049314 -0.07210337092902089 0.19831633672408 0.0452289729604235 -0.09847966071953705 -0.04499942775165613 -0.02957777072019273 -0.06359386717205319 -0.03046925277547476 -0.04185154765128482 
0.1188693258452007 0.01236098783075777 -0.1261240029477292 -0.1851277332843219 0.1651473971625452 -0.0264489534128225 0.02385530472373035 -0.005879094132640922 -0.03958683142879013 -0.01231526698711153 0 
-0.03241943916911932 -0.1128681888679808 0 -0.01422032191746372 0.1363137228486291 0 -0.02543804562320076 0 0 0 0 
-0.05053168170311034 -0.1671744565255975 -0.08523172120400055 -0.02494240563891724 0.2583918931399501 0 -0.02543804562320076 -0.0007266331221499047 0 0 0 
-0.03241943916911932 -0.1128681888679808 0 -0.01422032191746372 0.1363137228486291 0 -0.02543804562320076 0 0 0 0 
-0.03241943916911932 -0.1128681888679808 0 -0.01422032191746372 0.1363137228486291 0 -0.02543804562320076 0 0 0 0 
-0.03241943916911931 0 0 0 0 0 0 0 0 0 0 
-0.01811224253399104 0 -0.05424285061962195 0 0.04359898802299798 0 0 -0.0007266331221499047 0 0 0 
0.1229526211750711 -0.1506972068549621 -0.04294352195318277 -0.01175396027234949 0.08950895321886228 -0.006823963985805333 -0.05014340340327484 -0.01577319789875924 0 -0.001162210447957027 -0.00542164234840355 
-0.01811224253399104 0 -0.05424285061962195 0 0.04359898802299798 0 0 -0.0007266331221499047 0 0 0 
-0.01811224253399104 0 -0.05424285061962195 0 0.04359898802299798 0 0 -0.0007266331221499047 0 0 0 
-0.01811224253399104 0 -0.05424285061962195 0 0.04359898802299798 0 0 -0.0007266331221499047 0 0 0 
-0.02727952428959425 0.1192123435689348 -0.1214951409028597 -0.01449364410525376 0.08181519220815954 -0.00613399457408531 -0.05169280321520639 -0.01636538755314296 -1.734723475976807e-18 0 0 
-0.03184381152571415 -0.04830246760878589 -0.104950766594676 -0.01449364410525376 0.2591209729420511 -0.00613399457408531 -0.1263842953594891 -0.008834359188758195 0 -0.0005403067139919248 0 
-0.009303377576505184 -0.07211208103598306 0.142826598102082 0 -0.04264699308108873 -0.01434691330664709 0 0 -0.01042287154756345 0 0 
0.2715229939440386 -0.01070516344996829 -0.0117172486522912 -0.07438027985620316 -0.06189752099286221 0.06801765058865385 -0.09254208195355082 -0.004612188081666068 -0.08895360834215708 -0.004965982777894416 -0.03450496680878427 
-0.05312666588183863 -0.1160460848258656 0.1036421040678021 0 0.07975134754648974 -0.0299804203248309 0 0 -0.01042287154756345 -0.002475735179838212 -0.003748416701155482 
-0.009303377576505184 -0.07211208103598306 0.142826598102082 0 -0.04264699308108873 -0.01434691330664709 0 0 -0.01042287154756345 0 0 
-0.009303377576505184 -0.07211208103598306 0.142826598102082 0 -0.04264699308108873 -0.01434691330664709 0 0 -0.01042287154756345 0 0 
-0.04748465195696026 0.3387988297531707 -0.03876609664153884 -0.06035243135871786 -0.2162131109771529 -0.03216694171400232 -0.08784984943778783 -0.02850099953713333 0.09727649907394854 -0.01431408880383974 -0.009743361677128607 
-0.009303377576505184 -0.2418425862832033 0.2569933262394755 0 -0.04264699308108874 -0.01434691330664709 0 -0.003728054649802108 -0.01042287154756345 -0.00361217907552781 0 
-0.009303377576505184 -0.07211208103598306 0.142826598102082 0 -0.04264699308108873 -0.01434691330664709 0 0 -0.01042287154756345 0 0 
0 -0.06179542890255098 -0.0250599566568923 0 0.1226267054929455 0 -0.02672566915598252 0 0 0 0 
-0.0164746412283139 -0.1488548503702125 -0.03701388839214924 -0.05252211027685122 0.2594753039168827 -0.07137858869584932 -0.05745042987183141 -0.001615055787287697 0.07717531219627087 -0.005950423046025288 -0.009206716254019634 
-0.009967448712807863 -0.08513133211210555 -0.0250599566568923 -0.007345801280429515 0.04842716276880712 1.734723475976807e-18 0.07545099783399561 0 0 0 0 
0 -0.06179542890255098 -0.0250599566568923 0 0.1226267054929455 0 -0.02672566915598252 0 0 0 0 
0 -0.06179542890255098 -0.0250599566568923 0 0.1226267054929455 0 -0.02672566915598252 0 0 0 0 
0 -0.06179542890255098 -0.0250599566568923 0 0.1226267054929455 0 -0.02672566915598252 0 0 0 0 
0 -0.115874642456629 0.1845732132855497 -0.006858073858661527 0.03969855222272821 0 -0.05290531947461267 0 -8.673617379884035e-19 -0.0004003379716364677 -0.004631647365488771 
-0.02127779143753375 -0.0662554872165577 -0.07367697507045184 0.02985894523238692 0.05106828570473229 0 0.05059542427012383 -0.0008449183729848638 -0.006752583644527759 0 0 
0 0.1245358294831358 0 -0.001656485630231548 -0.03930881544563401 -0.003625779112690938 -0.04251748779174486 -0.009872555895235231 -0.01311128768717701 -0.003965698726950875 0 
0 0.1245358294831358 0 -0.001656485630231548 -0.03930881544563401 -0.003625779112690938 -0.04251748779174486 -0.009872555895235231 -0.01311128768717701 -0.003965698726950875 0 
0 0.1245358294831358 0 -0.001656485630231548 -0.03930881544563401 -0.003625779112690938 -0.04251748779174486 -0.009872555895235231 -0.01311128768717701 -0.003965698726950875 0 
0 0.1245358294831358 0 -0.001656485630231548 -0.03930881544563401 -0.003625779112690938 -0.04251748779174486 -0.009872555895235231 -0.01311128768717701 -0.003965698726950875 0 
0 0.1245358294831358 0 -0.001656485630231548 -0.03930881544563401 -0.003625779112690938 -0.04251748779174486 -0.009872555895235231 -0.01311128768717701 -0.003965698726950875 0 
-0.01749346288871052 0.2087139891876011 -0.0541027378754619 -0.03328410807989778 0.05213151803507131 -0.01257410769740415 -0.08210161572860394 -0.02159995024920429 -0.02457472478762294 -0.01233520258608369 -0.007457715912377134 
-0.05411331874156475 -0.09300854216485704 0.0611076276236304 -0.04647551394536672 -0.2288686127017782 0.03349170453781973 -0.01646388092693042 0.116417646416644 0.1450710003575306 0.1002724448919882 -0.006242010954559006 
0 0.1245358294831358 0 -0.001656485630231548 -0.03930881544563401 -0.003625779112690938 -0.04251748779174486 -0.009872555895235231 -0.01311128768717701 -0.003965698726950875 0 
0 0.1245358294831358 0 -0.001656485630231548 -0.03930881544563401 -0.003625779112690938 -0.04251748779174486 -0.009872555895235231 -0.01311128768717701 -0.003965698726950875 0 
0.1251003486667072 0 -0.05320968761539709 -0.01499811355037438 0 -0.0111588149153722 -0.01928380625422824 0 -0.03807817211610416 0 -0.002106170754023012 
0.07004784184865215 -0.03862967385226378 -0.08498210393401891 0.08544518448656212 -0.1541963571857425 -0.01327314105253834 0.03128103630398917 -0.03801322594481588 0.05883829819238476 -0.0428610547123465 -0.01234854451237681 
0.2165765465328803 -0.3219063837087594 0.03683831181031992 0.0376068143000243 -0.1966081784224477 -0.07854540666605977 0.08770401842730371 -0.0273257655803654 0.1699236365979873 -0.02265534232290121 -0.005856992452340972 
0.1251003486667072 0 -0.05320968761539709 -0.01499811355037438 0 -0.0111588149153722 -0.01928380625422824 0 -0.03807817211610416 0 -0.002106170754023012 
0.4478937812641402 -0.04664819786846619 -0.0669725074749786 -0.06840248942078038 -0.07342641752010015 -0.0391102783501871 -0.09254208195355082 -0.003168541849244727 -0.0384866484684866 -0.002490247598056203 -0.02351729769809479 
0.1251003486667072 0 -0.05320968761539709 -0.01499811355037438 0 -0.0111588149153722 -0.01928380625422824 0 -0.03807817211610416 0 -0.002106170754023012 
0.1251003486667072 0 -0.05320968761539709 -0.01499811355037438 0 -0.0111588149153722 -0.01928380625422824 0 -0.03807817211610416 0 -0.002106170754023012 
0.1251003486667072 0 -0.05320968761539709 -0.01499811355037438 0 -0.0111588149153722 -0.01928380625422824 0 -0.03807817211610416 0 -0.002106170754023012 
-0.03250307398102129 0.1478528923862148 -0.007132776836129866 -0.02388738839049529 -0.0237591518479575 -0.04081687367992257 -0.003878563898542362 0 -0.01073836039875464 0 0 
-0.05287638837536857 0.07536728337683529 -0.01563455747505657 -0.03532838323050014 0.1315012203942675 -0.04505332173860832 -0.0151350782075213 0 -0.03176417450999738 0 0 
-0.03954011959124777 0.22972584200562 -0.007132776836129866 -0.06932963758995597 -0.05246039275702001 -0.04081687367992257 -0.005117168243463731 -0.00282519592696408 -0.01073836039875464 -0.005145356389226539 -2.710505431213761e-20 
-0.03250307398102129 0.1478528923862148 -0.007132776836129866 -0.02388738839049529 -0.0237591518479575 -0.04081687367992257 -0.003878563898542362 0 -0.01073836039875464 0 0 
-0.03954011959124777 0.22972584200562 -0.007132776836129866 -0.06932963758995597 -0.05246039275702001 -0.04081687367992257 -0.005117168243463731 -0.00282519592696408 -0.01073836039875464 -0.005145356389226539 -2.710505431213761e-20 
-0.03250307398102129 0.1478528923862148 -0.007132776836129866 -0.02388738839049529 -0.0237591518479575 -0.04081687367992257 -0.003878563898542362 0 -0.01073836039875464 0 0 
-0.03250307398102129 0.1478528923862148 -0.007132776836129866 -0.02388738839049529 -0.0237591518479575 -0.04081687367992257 -0.003878563898542362 0 -0.01073836039875464 0 0 
-0.03250307398102129 0.1478528923862148 -0.007132776836129866 -0.02388738839049529 -0.0237591518479575 -0.04081687367992257 -0.003878563898542362 0 -0.01073836039875464 0 0 
-0.07632636228635473 0.1406673601712329 -0.05133764942148037 -0.02388738839049529 0.0532772029754448 0.06487886499052521 -0.1125693522019158 -0.004827050926576092 -0.04269696028387329 -0.002475735179838212 -0.003748416701155482 
-0.05671672851120579 0.09482227336992408 -0.01291426732769356 -0.05083537307154552 -0.07615362495036118 -0.04164453231810217 0.1617081439696014 0 -0.01073836039875464 -0.007870041508453303 -0.00230563554768986 
0 -0.01882006437004742 0 -0.1135902543388911 0.1323815666251819 -0.0257154333140591 0 -0.007513905225563629 0 -0.002201393154971365 -0.00154412018500609 
-0.04054382892339661 -0.1151851313692602 -0.001574362444179504 0.1319658199876394 0.05672342576591359 -0.04059437479765214 -0.04818847442007761 -0.009834519895008827 -0.002371516706594098 -0.004627588435329245 -0.00154412018500609 
0 -0.05680583955111443 -0.01144071960026198 -0.1135902543388911 0.09112835105320555 0.1208386288967752 -0.03191926603081126 -0.009997741057367223 -0.02537830810298745 -0.006425895046945822 -0.005051575592323042 
0 0.007679010461685228 -0.001574362444179501 -0.1513332344965515 0.1542588125381354 -0.0257154333140591 -0.0125891543231228 -0.007513905225563629 8.673617379884035e-19 -0.004627588435329245 -0.00154412018500609 
0 -0.05680583955111443 -0.01144071960026198 -0.1135902543388911 0.09112835105320555 0.1208386288967752 -0.03191926603081126 -0.009997741057367223 -0.02537830810298745 -0.006425895046945822 -0.005051575592323042 
0 -0.1355817551061678 0 -0.1252761569971623 0.246683642028414 -0.0257154333140591 -0.003943718672142076 -0.007513905225563629 8.673617379884035e-19 -0.002201393154971365 -0.00154412018500609 
0 -0.01882006437004742 0 -0.1135902543388911 0.1323815666251819 -0.0257154333140591 0 -0.007513905225563629 0 -0.002201393154971365 -0.00154412018500609 
0 -0.01882006437004742 0 -0.1135902543388911 0.1323815666251819 -0.0257154333140591 0 -0.007513905225563629 0 -0.002201393154971365 -0.00154412018500609 
-0.0757853339079104 -0.2044974911012919 -0.08625755686742723 0.1740816278862588 0.09567438930462302 -0.1051179974644902 -0.1754829786195427 -0.04435857558378407 0.1102459038924853 0.08053322653004184 0.1044607058486137 
-0.01665347800780563 0 -0.03456761436938036 0 -0.008803265173112888 -0.008950654148086819 -0.06436104355433803 -0.01632910116057603 0.1583375277370869 0 -0.00375082169831796 
0.04989983809382625 -0.1140058292746443 0.04334331182174164 -0.09100973127590216 0.07489636108576522 -0.02065871439861239 -0.09820382303139338 -0.01646148685567493 0.195308447500367 -0.01277759458612793 -0.00375082169831796 
-0.01665347800780563 0 -0.03456761436938036 0 -0.008803265173112888 -0.008950654148086819 -0.06436104355433803 -0.01632910116057603 0.1583375277370869 0 -0.00375082169831796 
-0.06934277481801679 0 -0.1034421377700169 -0.04654656999848742 -0.02306663579789824 -0.008950654148086819 -0.06436104355433804 -0.01632910116057603 0.3345419334486915 0 -0.00375082169831796 
-0.01665347800780563 0 -0.03456761436938036 0 -0.008803265173112888 -0.008950654148086819 -0.06436104355433803 -0.01632910116057603 0.1583375277370869 0 -0.00375082169831796 
-0.01665347800780563 0 -0.03456761436938036 0 -0.008803265173112888 -0.008950654148086819 -0.06436104355433803 -0.01632910116057603 0.1583375277370869 0 -0.00375082169831796 
-0.1162767316004129 0.08630132079237782 0.06539131387660445 -0.007334567574911348 -0.007054410755841936 -0.07244473236196913 0.0005055219671511301 -0.04474667612330779 0.07948385266629615 -0.04418183340424227 -0.01093388305253044 
-0.01665347800780563 0 -0.03456761436938036 0 -0.008803265173112888 -0.008950654148086819 -0.06436104355433803 -0.01632910116057603 0.1583375277370869 0 -0.00375082169831796 
-0.001281820872436777 -0.09536580503360889 0 -0.03650815607972314 0.114067368868841 0 -0.008367306527882692 0 0 0 0 
-0.008726955086749031 -0.1190229592510713 -0.08083556625267899 -0.03650815607972314 0.2432596102776424 0 -0.01436710799931191 -0.0007776768509008134 0 0 0 
-0.001281820872436777 -0.09536580503360889 0 -0.03650815607972314 0.114067368868841 0 -0.008367306527882692 0 0 0 0 
-0.001281820872436777 -0.09536580503360889 0 -0.03650815607972314 0.114067368868841 0 -0.008367306527882692 0 0 0 0 
-0.001281820872436777 -0.09536580503360889 0 -0.03650815607972314 0.114067368868841 0 -0.008367306527882692 0 0 0 0 
-0.001281820872436777 -0.09536580503360889 0 -0.03650815607972314 0.114067368868841 0 -0.008367306527882692 0 0 0 0 
-0.05689284477264992 0.1196088643296514 -0.1351009316954775 0.004059820651151846 0.2357878045097542 -0.08800451096026402 -0.06535529088354905 -0.04418383570890067 -0.03644394543252032 -0.04455529241310898 -0.02281942505817712 
-0.001281820872436777 -0.1314557794481469 -0.06973742283567905 -0.05165889149876099 0.2297156977656688 0 -0.008367306527882692 0 0 0 0 
-0.03596465230378022 0.02667649961744431 -0.03378618377415613 0.09466891771566371 0.03585318081780969 -0.0218438622110252 -0.0135946878963161 -0.003053898205676843 -0.04191599099722779 -0.007169910597884989 0 
-0.03233662646841449 -0.1762514653578975 0.112203048341232 0.05662335184950023 0.08314209003589211 -0.05201261908383584 0.05265049403838308 -0.03270503319686102 -0.04782086305865005 -0.01428299011559367 -0.02605169012698411 
0 -0.04592537929535177 -0.002033576338488265 0.1096177516716795 -0.0510023534219028 -0.005111545295093661 -0.007003259829670675 -0.000111885659357024 0 -0.01331788788075147 0 
-0.05559426495387172 -0.08683659769349195 -0.03089611050096578 0.3435419960582455 -0.1423457174635542 -0.01678665365117462 -0.01197679037061012 -0.0011041290994717 -0.00055145134768913 -0.01331788788075147 0 
0 -0.04592537929535177 -0.002033576338488265 0.1096177516716795 -0.0510023534219028 -0.005111545295093661 -0.007003259829670675 -0.000111885659357024 0 -0.01331788788075147 0 
-0.0246812148846137 -0.04592537929535177 -0.002033576338488265 0.1737887377835123 -0.104151819481487 -0.007224289759680643 -0.007003259829670675 -0.000111885659357024 -0.00055145134768913 -0.01331788788075147 0 
