solver_type L2R_L2LOSS_SVC_DUAL
nr_class 11
label 1 2 3 4 5 6 7 8 9 10 11
nr_feature 29076
bias -1
w
1.00698324006475 -0.1352160978181469 -0.03671243978389136 -0.001322335992254261 -1.734723475976807e-17 0 -0.2509228005776576 -0.7841285887800009 -0.004013856687297823 -0.09353201822122045 0 
0.07616233642861493 -0.08691441873950806 -0.15317956844379 -0.220661771551521 0.07064155248588276 0.1426554670394323 -0.1154593093489095 0.1956200621024202 0.1950286857642885 0.1276304225927407 0.07944894032540513 
0.6010925735782965 -0.2013353167520606 -0.5603617827398832 0.4396902237246403 0.05807597520728768 -0.06761549605138913 -0.008073963172105136 -0.2000258960089273 -0.2907892804398194 0.3690180382554195 -0.01808590411611786 
0.1318858810454699 -0.1816597265843435 0.2183650259413038 0.4576391287364435 -0.2522971429596068 -0.1075866371220509 -0.3274265455522091 0.3630041603878419 -0.4027632611940825 0.1309952486214107 -0.2176279370542841 
1.176310680480282 -0.4711971428034462 -0.8599864395478329 -0.2867418730694217 -0.472397242023482 -0.005705369347019189 0.3233414472851404 0.1963936883740532 -0.196886414595892 -0.02518017286034783 -0.01808590411611786 
1.349088686973747 -0.2984388366480177 -1.428287657822644 -1.106616275104607 -0.04171009333865732 -0.03043494515231958 -0.4780132732743867 0.9905911910422697 -0.04082383971784558 -0.2619559636578205 6.505213034913027e-19 
0.1932882554101473 -0.2985487036450789 -0.2267802739727816 -0.917623603271287 -0.1522368456892438 -0.6453197270161279 0.7538539737161122 0.9619143788386623 -0.135088071622795 -0.2892700768294632 -1.734723475976807e-18 
1.00698324006475 -0.1352160978181469 -0.03671243978389136 -0.001322335992254261 -1.734723475976807e-17 0 -0.2509228005776576 -0.7841285887800009 -0.004013856687297823 -0.09353201822122045 0 
1.00698324006475 -0.1352160978181469 -0.03671243978389136 -0.001322335992254261 -1.734723475976807e-17 0 -0.2509228005776576 -0.7841285887800009 -0.004013856687297823 -0.09353201822122045 0 
1.00698324006475 -0.1352160978181469 -0.03671243978389136 -0.001322335992254261 -1.734723475976807e-17 0 -0.2509228005776576 -0.7841285887800009 -0.004013856687297823 -0.09353201822122045 0 
-0.4289643025380275 0.1560334552001665 -0.1012597140084279 -0.1332141646058969 -0.339111671984688 -0.2728256360070364 -0.48062715015388 -0.3480575006728381 -0.1002843113400659 -0.2259650122968385 -0.2516020612040389 
-0.3569767588156931 -0.09739321171419126 0.03520169251661082 -0.006292044433345964 -0.29803540854126 -0.253728540078231 -0.4090647017600281 -0.322214846828445 -0.1485582700316619 -0.2153634063676805 -0.2516020612040392 
-0.3250065319320713 0.3610391161079681 -0.228062215012814 0.09757151164698996 -0.2548088303911378 -0.2355495336123567 -0.3779534087089471 -0.3086464608809453 -0.1631497010675274 -0.1855829141471311 -0.2276556324282695 
0.04261224539471701 -0.149379240761767 -0.2534081643001859 0.2818230783969777 0.01332964972126534 -0.04365497572690577 0.03965483491971926 0.06973865299659918 0.1704480000275389 -0.02786711124098002 -0.04081256572136657 
0.004309721814156143 -0.1208131903692589 -0.03170751684238968 -0.02050179425637185 0.1144211862187431 0 -1.734723475976807e-18 -0.0070050784556868 0 0 0 
0.004309721814156142 0 -0.04888750249764576 0 0 0 0.03443715116497395 -0.007090136634380768 0 0 0 
0.00209944855227321 -0.01466571707149836 0.001820079454956888 -0.04035716130110165 0.009631695107708079 -0.002307518069165747 0.005802204595492024 0.01315642500133152 -0.01029187267769302 -0.009101831732842229 -0.003182927668276052 
9.464499327264464e-06 -0.0001797847892514914 -0.0005767883891927429 0.0002347044029501609 -9.814727593015373e-05 5.666485784009084e-06 2.926313145659209e-05 -3.925392604548257e-06 -0.0001961161373536728 -3.990779361833974e-05 -3.167233084153058e-05 
-0.8608525054428401 -0.224870431839437 0.7164256647814201 -0.9903087102607978 -0.8834888306519372 -0.5309836029169668 -0.07906931400487754 -0.631471853195784 -0.5169326452188059 -0.6120118538444096 -0.4996363588806551 
0.5523189226549576 -1.464867999230627 -0.5066952468066931 0.7401136094832694 0.3121296380292357 0.2466159247325669 -0.4297627977501127 0.4590019798012238 -0.3436198445064838 -0.398544298780401 -0.283606186083168 
-0.7245598149891606 -0.4253008410234624 -0.3172427724332254 1.138993072646402 -0.597290009076854 -0.2983760487138264 0.19476141930214 -0.6164692371314328 0.0997577940753626 -0.3477799926911712 -0.2927941290679759 
-0.1390447471119201 0.1247180344543313 -0.5286641270812054 0.5385921003286338 -0.3300143751908741 -0.4890301202343695 0.04849341694315362 -0.280607950969202 -0.1965438962801032 0.1353719972352932 -0.108205097677715 
-0.7447722369016386 -0.6084879520428593 0.1734177684759466 -1.086363516010777 -0.4214334233231931 -0.749287557773749 -0.2388210249183753 -0.6223564988015848 -0.4097668738320902 -0.43500504932936 -0.7346678890355596 
-3.685401457789938e-05 -7.754048408142626e-05 -0.0006689115957461065 0.0007348296057534318 -0.0002465895161343909 -1.583133751719821e-05 -1.235371177951966e-05 -0.0001994456881444418 -0.0001200803069780557 2.703061944157274e-05 -3.040218256385838e-05 
0.1581723798791589 -0.1228599216436338 -0.5469180225682874 -0.06610083379051872 0.1340670749367054 0.1098482826204233 -0.07652168593873414 0.180308881530996 0.007882061990340925 0.008336829193893815 0.007725950498850709 
0.3496095255835313 1.171835125675198 -0.8623325093985398 -0.7763628130143982 -0.4371689574795122 -0.7902067943737159 0.08719543249434304 -0.1248022833844876 -0.04825142268836057 0.03997819968981375 -0.08674539809166913 
0.01134709455790779 -0.03359661431963071 -0.01651510478472882 -0.02249792208893062 0.01873470481491637 0.00356445160635544 0.006746576004876729 0.02144801876217499 -0.007834618677804829 -0.004908672229584432 -0.001694368668761669 
0.002865007238028802 0.007979089738251684 -0.009432708194956861 0.005710996439658103 -0.003549828266703028 -0.0005104937724405877 -0.005126540193068663 -0.001160520836260044 -0.002915139986264341 0.002211857188578867 -8.975554192739945e-05 
3.503392421795043e-05 5.823962246231084e-05 3.483694108066304e-06 0.0001275399276453601 -5.658445230177521e-05 1.770920764577672e-05 -0.0001433065083860674 -1.706604422513515e-05 -5.20859760123311e-05 3.886605421287998e-05 -2.256084598447502e-06 
-0.007297263696970842 0.534499868937898 -0.4581843556798766 -0.2116343309559706 -0.07881682798023353 0.1072592980511567 0.06528089425656022 -0.03104282955115332 -0.03833947132337664 0.00368853133980979 -0.05006984454957163 
-0.06014142967218263 -0.180833175634326 0.1120487261349002 0.3470054485468146 -0.02934936848039854 -0.1998436289969044 -0.2324027328927565 -0.1277540495854796 -0.08476017028297594 -0.07582828452688399 -0.05151797228174718 
0.07554744243594548 -0.03615619994669584 0.08508656613580862 -0.1103189571881678 0.1105022647876934 0.03947608294886255 0.143120445531484 0.02674129716925948 0.1476854756862538 -0.01263729995242929 0.01941192358139545 
-0.04219014930855942 0.2672971502227755 -0.3486629007927211 -0.01478673781002459 -0.01942372922028578 0.07196096867809197 0.01706664617567163 0.01288418625271939 -0.004526427242684586 -0.009909358469434939 0.003547099499228167 
-0.06209048533576608 -0.1077725812607337 -0.04337277612928001 0.05250827848160254 -0.01028219145491661 -0.002441470836831475 -0.1015893172472814 0.03858928612417132 -0.0300169585320673 -0.04342383062088351 -0.02558388278976115 
1.41035338525372e-06 -3.27039724764644e-05 0.0001693163430111511 2.054499671564263e-05 -2.616436779859921e-05 2.758075085445735e-05 -9.721806119433511e-05 -1.054833780722005e-05 -2.0259751108385e-05 6.269733889250138e-06 -2.559029255308124e-06 
-0.05182338648880783 -0.1309995834475468 0.1182816897100176 0.02779652018210253 -0.02236608410496259 0.001147914684441041 -0.01240945060722842 -0.01796065925728308 -0.0001877098986526566 -0.02629116782692541 -0.002539394349324307 
0.01964697489389644 -0.003474759848030291 0.02894538295606877 -0.06337175221415939 0.1901991757356775 0.03029837960140113 -0.05266387835554873 -0.02099830472490605 -0.06558606924966251 0.002117465262902509 0.009499309237967305 
0.001711464026671034 0.003034616533030246 -0.001701459808590648 0.006820069202788316 -0.003620758385956571 -0.001804194633824234 -0.006142053818665802 -0.002249657712400198 -0.001968130821743642 0.001132643310649273 -0.0001395617782311828 
-1.734723475976807e-18 1.04025089060968 -1.323735129324533 0 0 0 -0.03099014310109959 0 0 0 0 
-0.4331390952443091 0.3370930772757945 0.009136140635045255 0.2143697271181737 -0.3686769610271302 -0.4154811030464632 -0.3400950127439878 -0.5178349089308621 -0.3468285131161033 -0.353595434889575 -0.3310510015294458 
-0.3052102644045493 0.2593292813530506 -0.5908976309848739 -0.1016795896986179 0.2988857533344274 0.3054211179736964 -0.05894105499994683 0.821497427335443 -0.2782368287517227 -0.1396710946822921 -0.04824367600507563 
-0.07626262355996977 -0.09156550577669073 0.2200743121222447 -0.4597746173797395 0.8176833585820021 -0.2008657481477696 0.5724486056523548 -0.3636224676675229 -0.1188780917820937 -0.04728939796496425 0 
1.032589417289388 -0.07398670313527167 -0.09706666326374727 0.1312112368551867 -0.172271787860332 0.4625256835347447 0.6695872173868022 -0.8120643445310504 -0.2299790667173622 -0.1747014592095905 -0.002384627214045266 
-3.469446951953614e-18 0.4053412076003131 0.1642200375370672 -0.2880220280471884 0.3696530948596063 -0.07130803893019669 -0.4366442208404001 -0.09154286053634948 -0.1125260430749905 -4.336808689942018e-19 0 
-0.2129324161316156 1.014713748517489 0.1782044094250285 -0.5529339477627044 0 -0.02351630747210993 -0.1534982395185611 -0.08450281739533205 -0.03490602325314325 -0.02942844266937528 0 
-1.734723475976807e-18 0.810936897789595 0.2192973211928193 -0.3725691919476911 -0.464630254450454 -0.06971031126451328 -0.2819128677051214 2.168404344971009e-19 0 1.301042606982605e-18 0 
-0.2081799005243656 1.018938256518995 -0.07905256235933322 -0.414641560158878 0 -0.006883559178035121 -0.1534982395185611 -0.08450281739533205 -0.03490602325314325 -0.02942844266937528 0 
0.0009665514878719249 0.1684781736187885 1.367831286219543 -1.52924268691003 -0.1786183910515182 -0.08378595035577202 -0.6406118717401884 -0.3357045974539677 -0.1277617314946158 0.04794553313944874 0 
-8.673617379884035e-19 0.6306843982537202 -0.2871814876199698 0 0.003218648129654889 0 -0.5521452165925688 0.004640948629124439 0 0 0 
0.01818929098595997 -0.08039865207042851 -0.1938758548716989 -0.1474472412908895 -0.01714846233816953 0 0 0 0 0 0 
0.001208748037970587 -0.00321102407765181 -0.001957479854122092 0.002267073017956058 -0.004703747725678162 0.0002562788770311453 -0.0006227170579983051 -0.0008520474887534737 0.003930916825597508 -0.0001155706666827399 -0.0001112258085375792 
3.066673248079968e-05 2.182052318608422e-05 -0.0001991393574458023 2.412310012098882e-05 -4.747679391729545e-05 2.756208292446274e-05 6.314168350813784e-05 1.293442108519315e-05 3.366608245638265e-05 -5.193931782595164e-06 6.912583956876484e-07 
0.01007137226149929 -0.1133608835655897 -0.4242032750459649 0.3939091230423455 -0.06898873472236992 0.01246807768084266 0.004693960574864263 -0.01439013370852209 -0.03454645930643267 -0.003824122525763117 -0.03059938411022887 
-0.01420540050418388 0.3896629452426551 -0.310679304973665 -0.1565734254192734 -0.03028393291953622 -0.08294213906336473 -0.07351617091114844 -0.04879639398735616 -0.1227514675871195 0.02950858524792159 -0.04513587765164739 
0.006871624488451297 0.1134998135808822 0.1642968974156585 -0.2445578788910315 0.1472279670666185 0.1258959973463605 0.1105957626205351 0.006517312877284317 -0.1498492592656909 0.09932447513310649 0.006501646251793187 
-0.01701582484064982 0.03606895207626577 -0.244753968315937 0.2290418604439706 0.04115411666614416 -0.01314030160108627 -0.06155032797036741 0.1307352989252173 0.1017410508304474 -0.1195347201536919 0.005055734989139738 
-0.07561187165234105 -0.181020908183937 0.1325103487797553 0.003447537457573112 0.02721233984788906 0.004879062818943439 -0.04367967543357731 -0.01420405218490843 0.08404093107776543 -0.03337436366551911 -0.03983342036768412 
4.864359493471857e-06 2.444693681753183e-05 -0.0001609222948538025 1.536908329755762e-05 2.408529196486548e-06 2.41064166974101e-05 8.376588198911866e-05 2.487554363672168e-05 -2.932752843952922e-06 -1.173756932451756e-05 2.329515316019834e-07 
-0.01903707832566723 0.05192077449785475 0.07789828236076778 -0.0401377026943651 -0.08620031318535683 -0.05888106617288164 -0.1018644686569609 -0.06414765654680675 0.006568495746156719 -0.02063299318951316 -0.005182390562086489 
-0.2582813995296909 0.3592438061561924 0.9157283964558777 -0.5960863470456731 -0.2617809764067903 -0.2548119406391536 -0.4433027420163319 -0.2856052519477245 -0.08019930480578419 -0.1603172561537473 -0.1436882437179411 
0.0007684696522452592 -0.001349218162856583 0.0009229628686793838 -0.0002740908891083812 -0.005595380960488778 -0.00122034979445713 -0.002131646651056675 -0.001796766618698353 0.003174827471145039 0.0005338395376771704 -0.0001458751384135703 
0 -1.361772763300194 1.764083827657893 -0.2308425431028707 -0.1691614770092975 0 -0.01906505955217574 0 0 2.602085213965211e-18 0 
-0.1199852235761392 -0.06188911038867552 -0.1987868029264619 0.8721773060315059 0.2364798050584542 0.1211413382540686 -0.1562560737682665 -0.4595595553892031 -0.6792370061279625 0.3777949279272874 0.7962264988604295 
-0.2971570632300526 0.2232058136105948 -0.7897736893589533 -0.578142699453754 0.5399780713021687 0.2698500797417707 0.9340424552764289 -0.04498653172591476 -0.1181896106962036 0.6012158090073476 -0.02935291448351999 
-0.03141752797310132 1.602077516590488 0.5876321465388952 -0.5066497226090794 -0.6342992415366177 -0.160973739062366 -0.8526369452456236 -0.01560959336921956 0 -0.4844278108332853 -0.01231063747221043 
-0.01437414651975624 -0.6607193356616792 1.982107898271734 -1.080035248594945 -0.2406428640137902 -0.04807565440723921 -0.1341457953172219 0 0 -0.09712694075388772 0 
-0.004029440329072468 -0.4020252640880301 0.3111468000311577 0 -0.01492834030998881 -0.03085590335377868 -0.03658736445855659 0 0 0 0 
-0.04862751581306592 -0.6098303653382564 0.3088257676043028 0.2444332879264057 -0.08765710276592212 -0.02751017551719856 -0.129297026714576 -0.1030839408758364 -0.04026312934444377 0.07213948850986243 0.0006204510544315615 
0 -0.1228669117863837 0.08102850691671874 1.734723475976807e-18 -0.01492834030998881 -0.01158668225056579 0 2.168404344971009e-19 -0.006187730144436174 0 0 
0.01459348961161792 0.1108926298351433 -0.1256726067064451 0.1394383207720091 -0.1149271364151606 0.01359302103419931 -0.1737457024843287 -0.002263255776213357 -0.03534530237262995 -0.05548135902465547 0.0007368649631950473 
0 -0.106575229735959 0 0.2821272979157474 0 0 -0.2197298834125157 0 0 0 0 
0.9807361810149435 0.01648323000232488 -0.6486148971957304 -0.3026508780010255 0.7045072771473587 0.3764765166744166 0.6180861078116342 -0.3910015410003002 0.04021632674444182 -0.361660580364414 -1.734723475976807e-18 
-0.7861038536387148 0.7814290829726603 -0.9471583575866608 1.453269812539169 -0.4701909757754963 -0.02107784832961736 -0.4787867731675207 -0.2221706111496198 -0.7482599468392709 -0.3722095665395963 -0.09493493524793931 
-0.2479612929648873 -0.2656716394598997 0.3119481894889379 0.95373076978432 -0.1883090280468936 -0.1180538249484982 0.05606655398674826 -0.108509171786496 -0.04521509379901786 -0.02588210881701818 0 
-0.2010335450841884 -0.8501919700613855 -2.906163060858591 3.489074409861936 -0.5216622517055087 -0.5779917633036264 -0.7356765085962558 -0.7757139601824601 -0.2244003095917014 -0.3163145068193475 -0.08683687913320631 
-0.0782257689649698 -0.2493061330063956 -0.3544763854698823 0.03353580078774875 -0.01894217780647893 -0.09033559909583248 0.636244206283535 0 0 0 0 
-0.07179322210183053 0.185070211724866 -0.09537866881242378 -0.07167223265030881 -0.01684174799393422 -6.938893903907228e-18 -0.3364914211950955 -0.02800492832729356 -0.02512504381419218 0 0 
-0.0782257689649698 -0.2493061330063956 -0.3544763854698823 0.03353580078774875 -0.01894217780647893 -0.09033559909583248 0.636244206283535 0 0 0 0 
0 -0.2375984975631373 -0.1668492869173625 0.1532529633760594 -0.001674268383430896 -3.469446951953614e-18 -0.2197298834125157 -0.02800492832729356 0 0 0 
0 4.336808689942018e-19 -0.2287472217731149 0.2464745793970836 0 -0.01353995367209617 -0.02643650219993012 -0.01572677741076975 0 0 0 
-0.009301827244050959 0 -0.02354462592911804 0.1792042200126318 0.02591013273016457 0 -0.01326354387697152 -0.003870139908614203 0 0 0 
-0.1338124483955707 -0.06131704961208203 0.6094586925311292 -0.242134169982304 -0.1849798578887 -0.0609341487433414 -0.1232565405700138 0.1054531335294541 -0.1148283167992148 -0.1831509570036141 0.1008739195180725 
-0.1044203004443694 -0.1031379894767932 0.05104196634089382 0.09939503638619468 -0.03251733862602058 0.002831003750330901 0.03933041180905776 -0.06380531114786706 -0.06581937945144301 0.01584158356642036 0.006186580814836265 
-9.649399335120989e-18 -0.3105354593336417 -0.5890526314999674 -0.4960539414503123 1.167141593183788 -0.04591342108233505 -0.3194915979631689 -0.01863289533611499 7.806255641895632e-18 -1.734723475976807e-18 0 
0.1592522796101355 -0.1400772193761948 0.1806192545394035 0.3752800276693127 0.5615232819061067 0.1435307252514589 0.1418138019383555 -0.7354919261994504 -0.2653789025290032 0.05544003318546284 -7.345469718589293e-18 
-0.1238216661185732 0.1268989912053132 -0.5679834884509928 0.05097151355042179 0.4616303295557916 -0.1531544597307401 0.3917943365384873 -0.01863289533611499 -0.1386962617655746 -0.009730099840304025 0 
-9.649399335120989e-18 -0.3105354593336417 -0.5890526314999674 -0.4960539414503123 1.167141593183788 -0.04591342108233505 -0.3194915979631689 -0.01863289533611499 7.806255641895632e-18 -1.734723475976807e-18 0 
-9.649399335120989e-18 -0.3105354593336417 -0.5890526314999674 -0.4960539414503123 1.167141593183788 -0.04591342108233505 -0.3194915979631689 -0.01863289533611499 7.806255641895632e-18 -1.734723475976807e-18 0 
-9.649399335120989e-18 -0.3105354593336417 -0.5890526314999674 -0.4960539414503123 1.167141593183788 -0.04591342108233505 -0.3194915979631689 -0.01863289533611499 7.806255641895632e-18 -1.734723475976807e-18 0 
-9.649399335120989e-18 -0.3105354593336417 -0.5890526314999674 -0.4960539414503123 1.167141593183788 -0.04591342108233505 -0.3194915979631689 -0.01863289533611499 7.806255641895632e-18 -1.734723475976807e-18 0 
-0.05852237809461552 -0.3562036725236392 -0.005430054420155553 0 -0.02235871365817285 0 0.3196725883975378 0.001846553450248869 -0.02683734092813235 0 0 
-0.003219087317810726 -0.02449682855458797 0.0774957955648358 0.03548161381269276 0 0 -0.06000104930711176 0 0 0 0 
-0.04683045862969393 -0.6727603000364685 -0.5513733793250427 0.5157751212193666 0.485950305489353 0.1071918519654384 0.01947880638733389 -0.1242505311640506 0.03069647890147381 -0.251603028912108 0.04417454721438897 
0 0 0 0 -0.007839550027016964 0 0.02832057587366846 0 0 0 0 
1.220274123654139 -0.2072000557984947 -0.4041736129928148 -0.2004073729270193 -0.02218400886736124 -4.90059381963448e-17 -0.2231843990679542 -0.8950622546770838 -2.255140518769849e-17 -0.1477772442503143 -3.035766082959412e-18 
0.3422235302670569 -0.6313356232755973 0.2610360298897586 0.05894566647745985 0.2442469885063742 0.0873537416487028 6.720715330914403e-05 -0.09297571551137285 -0.4819069377946236 0.6462985617085194 2.51534904016637e-17 
1.30892115977357 -0.3811808113391356 -0.5872134811601954 -0.912327186320314 0.07930638834509102 0.2101986316582041 0.1964353614580303 0.3190268906289798 -0.09736011313249099 0.1503862201598207 -1.301042606982605e-17 
0.3396179254641794 -0.4241567973931469 -0.8905545821451719 -0.6644027371131209 -0.367643421739561 -0.5516987909173205 0.8180151222929253 1.732676185479371 -0.08278765698664733 -0.4016321680661971 -3.035766082959412e-18 
1.220274123654139 -0.2072000557984947 -0.4041736129928148 -0.2004073729270193 -0.02218400886736124 -4.90059381963448e-17 -0.2231843990679542 -0.8950622546770838 -2.255140518769849e-17 -0.1477772442503143 -3.035766082959412e-18 
1.220274123654139 -0.2072000557984947 -0.4041736129928148 -0.2004073729270193 -0.02218400886736124 -4.90059381963448e-17 -0.2231843990679542 -0.8950622546770838 -2.255140518769849e-17 -0.1477772442503143 -3.035766082959412e-18 
1.220274123654139 -0.2072000557984947 -0.4041736129928148 -0.2004073729270193 -0.02218400886736124 -4.90059381963448e-17 -0.2231843990679542 -0.8950622546770838 -2.255140518769849e-17 -0.1477772442503143 -3.035766082959412e-18 
0.09392987213089654 0.5415238512847008 0.3974638545914628 -0.3821181053084869 0.1653528602056304 -0.1061420404112504 -0.4246840709643684 0.01327914625378327 -0.0359710633247902 -0.01845640203509962 0 
0 0 -0.09044191471594712 0 0.03151417562975039 0 0 0 0 0 0 
0.002436733369568977 -0.0287152616087116 8.673617379884035e-19 0 0 0 0 0 0 0 0 
-0.04188410671563318 -0.4291275266559902 -0.4014550959179652 0.5462996236196495 0.04750496690825328 0.01789181168629075 0.175940324975406 0.03817619691671616 -0.03078601655003787 -0.04450548930283784 0.01494444468206807 
0 -0.6893454699255113 0.8088625284588233 -0.07638622085348479 0 0 0 0 -0.01019521017210435 0 0 
-0.276244137003142 0.2263501779713412 0.7103975667220958 0.03509740469568045 -0.4666375833775936 -0.4235524449793828 -0.2520257502792962 -0.3109382833997577 0.15738183407998 -0.4443039678231506 -0.06907422154343867 
-0.08736233013060865 1.121590278935408 -0.3335830547592993 -0.4642639234917418 -0.07009624486600219 -0.01279340880084373 0.05883162564954725 -0.05276633771872313 -0.1400465836733514 -0.02835956613234677 0 
-0.1013626312245144 0.1937170913140802 -0.6193770533380065 0.6516937034931625 -0.0588613369603966 -0.0955304310273252 -0.1658648995617173 -0.1866427963304277 -0.0501487241359572 -8.843023969334896e-19 0 
-0.08736233013060865 1.255104853244153 -0.05394500938523325 -0.4289021636560831 -0.07009624486600219 -0.01279340880084373 -0.5647523391685199 -0.03783540766535026 -0.1131877135178601 -0.02835956613234677 0 
0 -0.6893454699255113 0.7421068731147598 0.01936506955030655 0 0 -0.03141149651486073 -0.1866427963304277 -0.01019521017210435 0 0 
0 -0.3320297346781247 0.4041586001358992 -0.07638622085348479 0 0 0 -0.02595849884902527 -0.05673109993555468 0 0 
0 -0.6893454699255113 0.7421068731147598 0.01936506955030655 0 0 -0.03141149651486073 -0.1866427963304277 -0.01019521017210435 0 0 
0 -0.6893454699255113 0.8088625284588233 -0.07638622085348479 0 0 0 0 -0.01019521017210435 0 0 
-0.1711191973093782 0.04729936188008348 1.424807162187451 -1.393509652309068 -0.328167445599665 -0.2737083062260608 -0.555375497389751 -0.6901278249984425 -0.3079067920686898 0.1082156830031155 -0.06382349653497366 
0.0776111302435035 0.4327109885896511 0.2035297534731958 -0.5296197085777229 -0.1089950624806482 -0.03278307564428197 -0.3126914653131657 -0.1315835318992507 -0.1031623302324476 -0.05005640203595609 0 
-0.03404850719996963 -0.7718977640860902 0.2935168199797196 0.5882108147829818 -0.1631873551572219 0.1837318085443402 -9.953819952278949e-05 -0.07000976224980041 -0.05219945702325123 -0.04103882477848302 -0.001712866768576874 
0.01403111204345917 -0.1586282466287744 -0.1161199540743094 0.3083416358496885 0.07149694987832463 0.05312972342260134 0.1169000125530007 -0.0193283468902883 -0.03872093991363996 -0.02867439166025504 -0.01335128526694248 
-7.806255641895632e-18 -0.2352139299800774 -0.5678324745976426 -0.2238307494284993 1.052882141855781 -0.004618237933610853 -0.1063777486530651 0 -3.469446951953614e-18 -3.469446951953614e-18 0 
-0.04917821343026699 0.07927818059549704 0.4084949770391839 0.07743186101129007 0.4029261982830754 0.5208696398788658 -0.6681888933140603 -0.9172413051161583 0.07324458090714403 -0.3716481632919328 -1.040834085586084e-17 
-0.1458063625744135 0.3792654773478716 -0.3610557383744972 -0.5545636785242549 0.008278179580913682 -0.6564997909929152 1.072704785943317 0.3118162193477472 -0.6489750437292795 0.007864661865223931 -0.09480486775893887 
-7.806255641895632e-18 -0.2352139299800774 -0.5678324745976426 -0.2238307494284993 1.052882141855781 -0.004618237933610853 -0.1063777486530651 0 -3.469446951953614e-18 -3.469446951953614e-18 0 
-7.806255641895632e-18 -0.335371456761966 -0.1463310635993714 -0.2238307494284993 1.043330795785925 -0.004618237933610853 -0.2662893245540872 0 -3.469446951953614e-18 -3.469446951953614e-18 0 
-7.806255641895632e-18 -0.2352139299800774 -0.5678324745976426 -0.2238307494284993 1.052882141855781 -0.004618237933610853 -0.1063777486530651 0 -3.469446951953614e-18 -3.469446951953614e-18 0 
-7.806255641895632e-18 -0.2352139299800774 -0.5678324745976426 -0.2238307494284993 1.052882141855781 -0.004618237933610853 -0.1063777486530651 0 -3.469446951953614e-18 -3.469446951953614e-18 0 
-7.806255641895632e-18 -0.2352139299800774 -0.5678324745976426 -0.2238307494284993 1.052882141855781 -0.004618237933610853 -0.1063777486530651 0 -3.469446951953614e-18 -3.469446951953614e-18 0 
-7.806255641895632e-18 -0.2352139299800774 -0.5678324745976426 -0.2238307494284993 1.052882141855781 -0.004618237933610853 -0.1063777486530651 0 -3.469446951953614e-18 -3.469446951953614e-18 0 
0 -0.2960440398873705 0.235870647901184 -0.001757378940557976 0.01090911042910288 0.01818239156114278 -0.0241697364817771 0 0 -0.02984046857914967 0 
-0.07858177678531146 -0.1579925398691241 0.6457756316005454 -0.3562350237960776 0.03209845740634108 0.06240965350379421 -0.1598946612271795 -0.1102207498603642 -0.09294772932743983 0.004939763578541703 -0.03075148703519829 
-0.09349128611483859 -0.3198981214556766 -0.3036765679219678 0.6247092635505462 0.3570942658534892 0.05372737756739368 0.01689064444541157 -0.1332420133052083 -0.04339910951646461 -0.02623164365066734 -0.003395889976044062 
0.03025005955584959 -0.185826706765521 0.3287388499285709 -0.5783589039653978 -0.03652746575683751 0.02573441791169864 0.1259011693697525 0.07323264339517026 -0.04179395335168731 0.0273322810285915 -0.003409564674019308 
0.6594188719451408 -0.0939989378466371 -0.1320093190445303 -0.02297862880163283 -0.04035358397023105 -0.1545759202913285 -0.2609072388038325 1.301042606982605e-18 0 3.035766082959412e-18 0 
0.4839509803679193 0.1290292897498593 -0.2603351895030033 0.1706523557758131 -0.1399484170877383 0.5175122623744284 -0.677749022704883 0.3317018837725066 -0.3192397313954963 -0.2221708795806016 6.071532165918825e-18 
1.489285777986174 -0.1780113421419462 -1.478544911691889 -1.25994652349198 -0.2857153913254584 1.320657291260036 0.1812671883849838 0.5737451350101719 -0.1440669389583185 -0.02672897633294148 0 
1.182912468124154 0.2355428081036257 -0.9473095829565118 -0.5514701558449923 0.4418480025506172 -0.4260136274643477 0.248189271163855 -0.2874427814017513 -0.01695108411257642 -0.2837437889795025 -0.02822685353764971 
1.94327551577593 -0.1605985804156673 -0.323035806928839 -0.5767448643871979 -0.04035358397023104 -0.2930463081637488 -0.7282775856501013 -0.128292384722868 0 3.035766082959412e-18 0 
1.919605767227103 -0.5497757657375044 -0.1552693987772281 -1.464987972080328 -0.4126564280886989 -0.4010654747157179 0.4228515082599099 -0.281047848583765 -1.170938346284345e-17 -0.2272038523727331 -0.0242219112624422 
1.94327551577593 -0.1605985804156673 -0.323035806928839 -0.5767448643871979 -0.04035358397023104 -0.2930463081637488 -0.7282775856501013 -0.128292384722868 0 3.035766082959412e-18 0 
-0.7976598871577576 -0.3607734083919646 -0.1338703305257494 -0.02297862880163283 -0.04035358397023105 -0.1545759202913285 1.20967663824037 -0.24957427852901 0 3.035766082959412e-18 0 
0.05161833109430471 -0.0520405437050213 0.9197519883465489 -0.4610029002706417 -0.06577658946013916 -0.04513165213537555 -0.3531839929742663 -0.06737799487963785 -0.07359309525778437 0.02727388904589106 0 
0 0 -0.05294951948166733 0 0 0 0.02510467762166154 0 0 0 0.006398821398038552 
-0.01993522401908951 -0.5555533585158506 0.6117344733520046 -0.2582718989774173 -0.2091791155341085 -0.03462103328518086 -0.1740441619418341 0.1054936991590345 -0.09153549473032714 0.03713428396045625 -0.01924627080752945 
-0.007830433089024707 0.2082799888815998 -0.01048515449208789 0.01788674991758702 -0.01628037285458656 -0.005730873691178782 -0.1877339393822198 -1.734723475976807e-18 -0.001447283365482229 -2.168404344971009e-19 0 
-4.526544070126981e-18 -0.05164681132250083 -0.8928023168542893 1.056329059433518 -0.01481513147464097 -0.1953452245710836 -1.778091562876227e-17 -0.007372404471179119 -0.09174241719504614 -8.673617379884035e-19 0 
-0.3252606992258567 -1.242909518169489 1.130182146169416 0.2657713966910386 -0.285245498768491 0.1872851548489716 -0.1705919348728444 0.1890695245582612 -0.1810067060426667 -0.5145796557199854 -0.07744135429089535 
-0.2663300130738143 -0.7145846563689794 0.9676983000641124 0.9090544412740211 -0.1274166684108374 -0.2613206329694967 -0.706694530250674 -0.6496758254019683 -0.09966827084053345 -4.336808689942018e-18 1.301042606982605e-18 
-0.1275345860034907 -0.1415987785294855 -1.155718455480731 0.7102292056910702 -0.1644656184522106 0.7632258729457203 -0.4372312698212704 -0.2857677337258302 0.7276957698228199 1.561251128379126e-17 4.336808689942018e-19 
-0.02367522426921594 -0.3474628413692147 -0.4991866860384617 0.9324720291262015 -0.04205414200876177 -0.2058316148936281 -1.778091562876227e-17 -0.007372404471179119 -0.09174241719504614 -8.673617379884035e-19 1.301042606982605e-18 
-4.526544070126981e-18 -0.05164681132250083 -0.8928023168542893 1.056329059433518 -0.01481513147464097 -0.1953452245710836 -1.778091562876227e-17 -0.007372404471179119 -0.09174241719504614 -8.673617379884035e-19 0 
-4.526544070126981e-18 -0.05164681132250083 -0.8928023168542893 1.056329059433518 -0.01481513147464097 -0.1953452245710836 -1.778091562876227e-17 -0.007372404471179119 -0.09174241719504614 -8.673617379884035e-19 0 
-4.526544070126981e-18 -0.05164681132250083 -0.8928023168542893 1.056329059433518 -0.01481513147464097 -0.1953452245710836 -1.778091562876227e-17 -0.007372404471179119 -0.09174241719504614 -8.673617379884035e-19 0 
-0.01581318386922222 0.05319433517870965 7.569361640030617e-05 0.291640328814575 -0.07728759418887114 -0.00498958597757558 -0.4878742495893721 0.1695655563593464 -0.01778221725447682 0.01311680078630896 0.01053593578742633 
-0.0304774280351321 0.1561744111759743 0.115687527028223 -0.2054288774387421 -0.07140904170927716 0.02343851289268734 0.1052421553352054 -0.07807626430347961 -0.06671147843221636 -0.09295743350996119 -0.001215610478506781 
-0.09598928206716295 -0.03378578378027787 -0.05726068705061755 0.0004208282163746276 0 0 0.218416953574614 -0.03450198791792675 0 0 0 
-0.06187380572666552 -0.0131344494626719 -0.47465084425084 0.4717971291710017 -0.136253348615828 -0.04842011242932838 -0.06234876816446776 0.01017288362508315 0.001958297845765268 0.001104197271488135 -0.001347513109166167 
-0.03407311123385008 -0.2230624505402453 -0.4547375023510432 0.7950544399372766 4.336808689942018e-19 0 1.734723475976807e-18 0 0 0 0 
-0.06569391546577184 -0.2921250004409519 0.3995626461316727 0.7402764241501106 -0.1146704447281227 -0.1729827227846996 -0.4465530345545128 -0.1666660188646842 -0.0523321833867547 -0.02443445948005927 0 
-0.06569391546577184 -0.4890261332169247 -0.3627921707636521 0.926656887063211 -7.806255641895632e-18 -8.673617379884035e-19 -0.3728684394580964 -0.03652420415091921 -0.02046561169898032 -1.734723475976807e-18 0 
0.5410923562000489 -0.1243451635734257 -0.2887575260845262 0.5477072324547502 -0.6104946114565034 -0.07671241692509825 0.4032992353173999 3.469446951953614e-18 -0.03961585969386213 -0.1401527772521124 0 
-0.03407311123385005 -0.2886304731645942 -0.5250959877129083 0.8595678177947979 -7.806255641895632e-18 -8.673617379884035e-19 -0.3728684394580963 -3.469446951953614e-18 -0.01430719118102987 -3.469446951953614e-18 0 
0.6402915465141472 0.1306526516113049 -0.2108006809149143 -0.1630432816107603 -0.6104946114565036 -0.07671241692509825 0.4346660234219044 3.469446951953614e-18 -0.03725449384970879 -0.07198111015223763 0 
-0.03407311123385005 -0.2398622766159695 -0.807575668053175 1.173502658092581 -7.806255641895632e-18 8.673617379884035e-19 -0.3728684394580963 -3.252606517456513e-18 -0.01430719118102987 -3.469446951953614e-18 0 
-0.1224930767172423 0.7772077094513492 -0.5033072696672795 0.5219377486981469 -0.02401574274990887 -0.07671241692509825 -0.1845238131772406 0 -0.03297628996627711 0 0 
-0.04836777030184758 0.5027380578365315 -0.6941630030829331 0.07949842577804006 0.02124948521524157 -0.1098314056620056 0.2753916638876091 -0.2554815777745387 -0.05655629958628484 -0.006381630179711193 0.04980314082644491 
-0.09455082174241625 -0.1463150311460729 -0.2279315279255318 0.4966371722723787 0.07942835540628213 -0.006504985823326145 -0.1691816001966683 0.1032773818729795 -0.01904973606363521 0.0314506488869668 -0.008446957513833375 
-0.08209225635694267 -0.3877091108738404 0.1071697965522538 0.09477594054615676 -0.02561566840207868 -0.06935399843140022 0.2021345548823019 -0.02321158720016102 -0.08084975848945648 -0.1048141466583549 0.09413583365785309 
-0.2850816345623417 -0.1700441854151382 -0.541845651145863 -0.5101861987809578 1.159929160506141 -0.02494815274862941 -0.07607167591593292 -1.561251128379126e-17 2.168404344971009e-18 -0.002556315014473497 4.336808689942018e-19 
-0.2850816345623418 -0.7214234070642932 0.9901563780688182 0.01952133140572921 0.6530234602278696 -0.05653337587458048 -0.9943484436873127 -1.561251128379126e-17 -0.008306600254627396 -0.008383118151213944 4.336808689942018e-19 
-0.2850816345623417 -0.1700441854151382 -0.541845651145863 -0.5101861987809578 1.159929160506141 -0.02494815274862941 -0.07607167591593292 -1.561251128379126e-17 2.168404344971009e-18 -0.002556315014473497 4.336808689942018e-19 
-0.2850816345623417 -0.1700441854151382 -0.541845651145863 -0.5101861987809578 1.159929160506141 -0.02494815274862941 -0.07607167591593292 -1.561251128379126e-17 2.168404344971009e-18 -0.002556315014473497 4.336808689942018e-19 
-0.2850816345623417 -0.1700441854151382 -0.541845651145863 -0.5101861987809578 1.159929160506141 -0.02494815274862941 -0.07607167591593292 -1.561251128379126e-17 2.168404344971009e-18 -0.002556315014473497 4.336808689942018e-19 
-0.2850816345623417 -0.1700441854151382 -0.541845651145863 -0.5101861987809578 1.159929160506141 -0.02494815274862941 -0.07607167591593292 -1.561251128379126e-17 2.168404344971009e-18 -0.002556315014473497 4.336808689942018e-19 
-6.505213034913027e-19 -0.009251254691700218 -0.1100567494384464 -0.08195290942084209 -1.084202172485504e-18 -0.004275885349181658 0.1973294421037488 0.0330314921115938 -4.336808689942018e-19 0 0 
0.03325298240040277 0.6469729986197905 -0.5608241043786382 -0.2580395936527839 0.1013173793384874 -0.0148550442837317 0.06669509180635688 -0.09820980105701052 -0.07996270605554011 0.06794144662511428 0.01455596427264779 
-0.03604674240642442 0.2168625210727153 -0.3491151470733467 -0.1180160502036013 0.09982266257662417 0.07042532294901643 -0.04198055249335766 0.227410084051857 -0.0565516741766019 -0.1134173832314563 0 
0.01439362613188851 -0.3499706945086012 0.6544313383140865 -0.322336037011417 -0.0521651391551925 -0.07745664845939887 -0.07578325454219791 0.04781465652510473 -0.09730396283350694 0.3400220006891732 0 
0.0125574956159494 0.1138743966536198 -0.08935388771587141 -0.04238852203735188 -0.01942496368351021 -0.02502304297776308 0.1418488205190358 -0.004376861184676593 -0.005875791831185456 -0.007938400369290879 0 
0.1303456505711938 0.4306678738976399 -0.9237494185034136 0.1924666289448054 0.00376048079381444 -0.03245192075283468 -0.05886705382791002 0.0008336917182029746 -0.0178861275723432 0.4597690244561129 -0.02160943623444312 
0.01084825564292937 -0.04238835850480806 -0.3397310898398631 0.42577022524861 0.07291244551420546 0.09528394999786842 -0.0382985866931897 -0.06111697194480009 -0.006436652337222689 0.02006876569267252 0.004527157964031274 
-0.06086450949122948 -0.136354623546269 0.4911642631790876 -0.2658463889122031 -0.0006203653259349316 -0.0119259557991725 6.722053469410127e-18 -0.03160465871798403 0 -0.03825410403714027 0 
-0.235060425668092 0.8559168391451829 0.6018385548021058 -0.8901442019615357 -0.01055314268555939 0.4506232497736716 -0.5619740811180328 0.2944125421122024 3.469446951953614e-18 -0.099397455775774 0 
1.091296873547822 -0.3934505173249944 -0.02152078865371505 -0.02911093778607687 -0.0867878818365119 -0.2437421531368131 -0.4829366613823765 -0.1477232916031704 0.136281449894415 -0.1409307383970229 0 
-0.06086450949122948 -0.136354623546269 0.8826982518612365 -0.3579950993944435 -0.0006203653259349314 -0.01586408025717835 -0.199950004713362 -0.0316046587179841 3.469446951953614e-18 -0.03825410403714027 0 
-0.3360443973066125 -0.2541298148247131 1.318127434131954 -0.6953082939088782 -0.02257378273739763 -0.04263695517736948 0.362031844823868 -0.2133875052691452 -0.04788826860271875 -0.05231489805078422 0 
-0.06086450949122948 -0.136354623546269 0.8826982518612365 -0.3579950993944435 -0.0006203653259349314 -0.01586408025717835 -0.199950004713362 -0.0316046587179841 3.469446951953614e-18 -0.03825410403714027 0 
-0.2608608315041945 -0.2541298148247131 0.7744174646314562 -0.4155218773352321 -0.02257378273739763 -0.04263695517736948 0.3928107148717612 -0.2062600024844693 -0.02877432677718801 -0.03825410403714028 0 
0.01191178840959754 0.01738875277956562 0.323364864300158 -0.4791781882910416 -0.09687578184365458 0.1650175203005758 -0.08951525024806575 -0.00466300853156347 -0.07420969898836252 0.003162729719997384 0.001079036983031235 
-0.09184758835044837 0.121465119514898 0.05672225219669811 -0.04066486284906195 0.008948683679869653 0.001272074124891345 0.178070246974029 -0.006608668407448719 -0.03448827892076237 -0.1287208672642483 0.008975691247409878 
-0.0324951891902157 0.3466264877980241 0.1948944800009901 -0.4677240288108465 -0.03298831758270246 0 -0.02238757732452128 -0.03656561014031006 0 0 0 
-0.03727976145917418 -0.08995196720698445 -0.6232015041735622 -0.5435278115565322 -0.08766804154572767 1.213533907699731 -0.162522133153285 6.505213034913027e-18 -0.1287643885822631 0 0 
-0.1342889891783252 0.4135465378876174 -0.07497157585992452 -0.1460495034251324 -0.3793430613154906 0.7015693907688146 0.1431700502556416 -0.6038921022815456 -0.138638707544343 -6.938893903907228e-18 0 
-0.03727976145917418 -0.08995196720698445 -0.6232015041735622 -0.5435278115565322 -0.08766804154572767 1.213533907699731 -0.162522133153285 6.505213034913027e-18 -0.1287643885822631 0 0 
-0.03727976145917418 -0.08995196720698445 -0.6232015041735622 -0.5435278115565322 -0.08766804154572767 1.213533907699731 -0.162522133153285 6.505213034913027e-18 -0.1287643885822631 0 0 
-0.03727976145917418 -0.08995196720698445 -0.6232015041735622 -0.5435278115565322 -0.08766804154572767 1.213533907699731 -0.162522133153285 6.505213034913027e-18 -0.1287643885822631 0 0 
-0.03727976145917418 -0.08995196720698445 -0.6232015041735622 -0.5435278115565322 -0.08766804154572767 1.213533907699731 -0.162522133153285 6.505213034913027e-18 -0.1287643885822631 0 0 
-0.02156262418080921 -0.09355476476407171 -0.2192918472037413 -0.0606577867709304 0.01677343544660446 0.1355639474975549 0.03366844232624688 0.003208071347981354 -0.01409001874266549 0.09917772880672443 0 
-0.05090804134718786 0.1269092676445852 0.541541619523609 -0.4306262948180006 -0.185249035132736 -0.08482057490480142 0.08316084972410261 -0.07237652289682976 0.06754694407907211 -0.02516158034121778 -0.004302027998091029 
-0.01769929019051958 -0.1894676278979164 0.5046596608448464 -0.2745959148215041 -0.02977068214704663 1.301042606982605e-18 -0.06439365996771969 -0.0149964855248355 -0.008616259155875638 -0.01916210453931034 0 
-0.02216696205370138 0.6160520908087747 -0.03911379233879361 -0.777028266059635 -0.05106572650570533 0.1444448746417299 0.2110472732687931 0.01840556972788483 -0.03058468548962522 -0.08732802833159399 0.006541139635243561 
0.006107553614531138 -0.09948821203112047 -0.6843713565337525 0.4207336611050746 -0.06424021771051036 0.04600719746587133 -0.005387002785397155 0.03005373472985112 0 0.009579324907185157 0 
-0.06437093604419629 0.03608946574656853 -0.1151466782200284 -0.1010409828444168 0.09472122456960878 -0.02188313613274354 0.05708804718059958 0.1061124680270868 -0.002138252475666345 -0.04709430955166801 -0.00353578580197786 
0.01707015306273201 0 0 0 0 0 -0.01057088836312153 -0.01768419351229086 0 0 0 
0 -3.469446951953614e-18 0.5827777099397536 -0.3800387995099113 0 -0.0007698169773325498 -0.1117628668748951 -0.09648261731129922 -0.09529598605693743 3.252606517456513e-19 0 
0.1099278523889222 0.08004807870289643 0.0008109065615396474 0.4895748061503004 -0.3207392026678426 0.06563861940105857 -0.04857970274553219 0.1320865683734073 -0.1539952469146391 -0.03768933977201531 -0.08882882821350932 
-0.04089524784152876 0.0958151318653888 0.5700600769944618 -0.5619091141840308 -0.01973527255541542 -0.168914144884705 0.6435407882293733 -0.2553620454908772 -0.1402828761950817 -0.1563853191698895 -0.0004655580363982477 
-0.305646469459808 -0.9645068700349962 0.6665418156844436 0.0889621363291028 -0.07274487705365755 -0.383885653865677 -0.3935067275971643 0.177492599810598 0.276336599276104 -0.1577020427260473 -0.07744135429089533 
0 -3.469446951953614e-18 0.5827777099397536 -0.3800387995099113 0 -0.0007698169773325498 -0.1117628668748951 -0.09648261731129922 -0.09529598605693743 3.252606517456513e-19 0 
-0.05301097077856342 -0.1752764529290384 0.4199684253082454 0.03036443497429843 0 -0.000769816977332549 -0.1516498514685299 -0.2247440658538139 -0.1613129327794034 3.252606517456513e-19 0 
0 -3.469446951953614e-18 0.5827777099397536 -0.3800387995099113 0 -0.0007698169773325498 -0.1117628668748951 -0.09648261731129922 -0.09529598605693743 3.252606517456513e-19 0 
0 -3.469446951953614e-18 0.5827777099397536 -0.3800387995099113 0 -0.0007698169773325498 -0.1117628668748951 -0.09648261731129922 -0.09529598605693743 3.252606517456513e-19 0 
-0.002304759828793655 -0.3177258167520546 -0.2577637361303657 0.2928702208773509 0.09425469347521134 0.03290971744388221 0.1323838641352858 -0.00936349986357039 -0.03492810749845835 -0.02012138783050082 3.395858487640813e-08 
0 -0.1135554267579903 0.3098892942847488 -0.1896352390526594 0 0 0 -0.00927415986084176 0 0 0 
-0.05833278119767431 0.3724217576732042 -0.1136504896382364 -0.454737919105074 0.02175731530976035 0.06919670295020405 0.2938999944940635 0.01870296213748297 0.04348890741357427 -0.004402294195835668 0 
0 0 0.1503131931840751 -0.196350110212687 0 0 -0.06542456629359379 0 0 0 0 
-0.4022808566324919 -0.3306329167859175 0.8300183856542854 1.16817036832369 -0.2638192822533553 -0.1651648684114634 -0.5975058422522207 -0.2975654144079263 -0.1887391375945083 -0.0829389456480215 -0.01241486773439966 
-0.0418113182005548 -0.6447084991678719 0.8017587213056601 -0.04085731151430789 -0.01790180492498377 -0.121132078960411 -0.0874458110092393 -4.228388472693467e-18 -0.1343232999989563 -0.01541472244481265 -0.007803878561748695 
0 -0.09204226336208216 0.3254883432382207 -0.1964947873766553 0 0 -0.06542456629359379 0 -0.009427350766803289 4.336808689942018e-19 0 
-0.1671686894435628 -0.8193059498344062 1.189171237949841 -0.3141884845049295 0 -6.938893903907228e-18 0.4382847507833957 -3.469446951953614e-18 -6.505213034913027e-19 0 0 
0 0 0.1503131931840751 -0.196350110212687 0 0 -0.06542456629359379 0 0 0 0 
0 0 0.1503131931840751 -0.196350110212687 0 0 -0.06542456629359379 0 0 0 0 
0.009131849970296689 -0.1156626683222964 0.7077165329537471 -0.5707603038584795 -0.04722602728416128 0.1852116406884752 -0.1045773986373706 -0.02890238820567688 -0.004706914470918491 -0.02803193099857567 -0.002133372603152411 
-0.01720171949076909 -0.3429133292749448 0.667325888482565 -0.4048058108369914 -0.1279925483136427 -0.01990798409398662 -0.06391516835473801 0.05562972980886991 -0.03587398255301907 -0.05210463934184372 -0.01395345836123309 
-0.03776137461483207 -0.131670020088033 -0.02318654561601929 0.1703708082391823 -0.05175907973334214 0.009100523927841718 0.01943658023737064 -0.03936712637517801 0.03579311859287278 -0.02309583830973924 0.005973524121953112 
0 -1.734723475976807e-18 -0.5711330824092887 0.8365015651529655 0 -0.03060389966637204 -0.01380865227227272 -0.03851947017474878 -0.1049193876498866 0 0 
-0.5003681099214004 -0.2760028574399517 0.1454352420576762 0.06239949781791538 -0.1538233885533879 -0.3539870280003393 0.07688949531161512 0.6595143426146256 -0.07748445953218225 -0.190090235303285 -0.0779588856018283 
0.2400634099114673 -0.3381353014888072 0.0702183786675043 1.138359324320891 -0.1918222643054247 -0.1785693336919948 -0.1513245401732553 -0.7015116233982116 -0.1316497033968042 -0.04429963583714221 0 
0 -0.06516966749022747 -0.8805306007607988 1.059217915449055 0 -0.03060389966637204 0.1351763086571199 -0.03851947017474878 -0.1049193876498866 0 0 
0 -1.734723475976807e-18 -0.5711330824092887 0.8365015651529655 0 -0.03060389966637204 -0.01380865227227272 -0.03851947017474878 -0.1049193876498866 0 0 
0 -1.734723475976807e-18 -0.5711330824092887 0.8365015651529655 0 -0.03060389966637204 -0.01380865227227272 -0.03851947017474878 -0.1049193876498866 0 0 
0 -1.734723475976807e-18 -0.5711330824092887 0.8365015651529655 0 -0.03060389966637204 -0.01380865227227272 -0.03851947017474878 -0.1049193876498866 0 0 
0 0 -0.001365956817663469 0.04225440678177772 0 0.004600043026370407 0 0 0 0 0 
0.03919199521846158 -0.05749844675211328 -0.02158722066063383 0.06290940095845082 -0.005485882268697646 -0.01382046597432941 -0.1007635062522045 -0.01076231808232746 2.168404344971009e-19 -0.02104790097638568 0.003248127330110874 
-0.09355632790220914 0.1344785942389404 0.01065607560384969 0.01381125178787348 -0.02991742077500801 0.04066358763782638 -0.0790008074051442 0.05108431735374411 -0.0885206241539245 0.190257752473367 0.04921467758935615 
-0.01182794950223029 0.1422369297116409 -0.1989091132962779 0.04225440678177772 0 0 8.673617379884035e-19 0.001079464854101443 0 0 0 
0 -0.1043123047913826 -0.4332199658014101 -0.2219069551025438 0 -0.03604584858814337 0.9554797973524083 -0.03097484859849982 -0.1004738173569593 0 -0.007086670548687319 
-0.294985028411026 -0.01505992664816723 0.1279270799319638 -1.037530929924509 0.1581691904301366 0.2631534417375169 0.2804434572050155 0.5398007231321473 0.3237858534401197 0.4791483236745288 0.6188806508327205 
0.2890236767503643 0.0430194181728016 -0.2327221104927774 0.5963775002532727 -0.42866527304708 -0.1547087299787218 0.871224949172148 -0.4485938553904216 -0.3715402064657822 -0.1338509651192824 -0.08086319479154561 
-0.02889604899464151 -0.8316434159103537 -0.2687247963299095 -0.5342452953297235 -0.3327321863211661 0.4973111586943668 0.3604870043232338 0.5621254052904532 0.4815406522426461 -0.2666882028677307 0.6951593136003458 
-0.4609204023763855 -0.1088923426581789 0.2620468388259966 -0.7247302185384282 -0.09927678412223272 -0.1188054399661312 1.428666398067684 -0.4186173147403361 -0.2919028435970484 -0.03668595718670695 -0.08086319479154561 
0 -0.1043123047913826 -0.9632907174364279 -0.2443703471659058 0 -0.04541724816286785 1.469412237169998 -0.0460622476159783 -0.1288085264030099 0 -0.008891163120413203 
-1.734723475976807e-18 -0.1211121308671068 -0.9414839137960032 0.7403710661086363 6.071532165918825e-18 -0.03604584858814339 0.3233301765941723 -0.03097484859849981 -0.1004738173569593 -1.761828530288945e-18 -0.007086670548687319 
0 -0.1043123047913826 -0.4332199658014101 -0.2219069551025438 0 -0.03604584858814337 0.9554797973524083 -0.03097484859849982 -0.1004738173569593 0 -0.007086670548687319 
0 -0.1043123047913826 -0.4332199658014101 -0.2219069551025438 0 -0.03604584858814337 0.9554797973524083 -0.03097484859849982 -0.1004738173569593 0 -0.007086670548687319 
-0.008908541103596311 -0.3258980452111212 -0.009968675834034072 0.3295543781281066 -0.09902073671340744 -0.006415437211502768 0.09875083975887636 0.09580761919358981 -0.0123252729747986 -0.02218697709758092 -0.01044646748487535 
0 0 0 -0.02804190430440641 0 0 0.009684554880002199 0.02560756125615551 0 0 0 
0 -0.02191424046659524 0.1081641194902664 -1.734723475976807e-18 0 0 -0.04336068841203868 -4.607859233063394e-19 0 0 0 
0 0 0 0 0 0 0.009684554880002199 0 0 0 0 
-1.457078759102898 -0.2667744705453274 -0.001861011481219194 0 0 0 1.470583877044203 -0.24957427852901 0 0 0 
0.3793217294970611 0.1077033460176463 -0.1034107988920615 0.5719964955220342 -0.4518955805730855 0.09791482212527529 -0.1548135358015913 -0.07819134027853243 -0.1262186244425456 0.2133510115316477 -0.1326447434971832 
0.2367651440438219 0.3400285510628099 -0.6792143672084741 -1.384707812803763 -0.2391286475401841 -0.01623885779550254 1.389873689998494 0.5021694850415305 -0.1320676782203757 -0.1728482627286123 0 
0.5034305285547545 -0.922837745189667 -0.7798064652766225 -0.9782846556078477 -3.469446951953614e-18 -5.204170427930421e-18 0.7796002954972717 0.9841847309281199 -0.004302851841155527 -0.09090291003311178 0 
0.5034305285547545 -0.922837745189667 -0.7798064652766225 -0.9782846556078477 -3.469446951953614e-18 -5.204170427930421e-18 0.7796002954972717 0.9841847309281199 -0.004302851841155527 -0.09090291003311178 0 
-0.04412042459924466 0.4224884265633308 -0.3334411846505589 -0.02891347871253365 -0.04726627241517873 0.1192940412687676 0.01416387913774311 -0.05544411258926684 -0.02905904799741851 -0.01081794672252679 0.002714099156588367 
-0.1110885599289824 0.1781870722622805 0.1484774102647317 -0.05081564568661221 -0.08044428338500346 -0.01233808699518225 0.05342287446906212 -0.102818559775409 -0.001910519736124343 -0.08466429697294799 -0.007154444479104806 
-0.1969325496756252 -0.04548643431103967 0 0 0 0 0.1619511774613565 -0.0602639248029675 0 0 0 
-0.01476183034011672 0.3152850056627257 -0.3278276761368565 0.09596678303577826 0.1342991714631707 -0.08480351464528062 -0.05978155205407315 0.008103757766162976 0.1228292393440025 -0.05484266550133965 -0.02996311915193253 
0 -0.2063585188432357 0 0.1243480074805988 0 0 0 0 0 0 0 
0.2817241921061809 0.4358937396732552 0.2256002549894951 -0.7450695133299269 -0.1885844585253064 0.2141250190479467 0.09036984440143825 -0.06299890494142353 -0.0366619924786961 -0.1203564259933657 0 
0 -0.05930672765973454 0.1649703685835968 0.03555872218034388 0 -0.009947123431987339 -0.1111357218818034 0 0 -0.002665792287391866 0 
0 -0.2085338519252599 -0.1898197484858904 0.6209352198696696 -3.469446951953614e-18 -0.006707348478782405 -0.1432515476033148 0 -0.05826500145178447 0 -0.002888594902013276 
0 0.03218166782812323 -0.599922019199894 0.7670640918666171 0 -0.009947123431987339 -0.1111357218818034 0 0 0 0 
0 -0.6113755919637072 1.734723475976807e-18 0.2995793370505609 0 0 0 0 0 0 0 
-1.734723475976807e-18 0.3571167695292979 -0.09127421676745189 -0.02114145577577973 0 0 -0.08491651787827706 0 0 0 0 
0.03469909926866362 -0.3366504924206206 -0.03398708518978105 0.1085098638308312 -0.006295525622402957 -0.0001333514536420066 0.1286259503537011 -0.07070769431705258 -0.01850061016686707 -1.734723475976807e-18 0 
-0.3514342411781834 0.1680874729472153 -0.1039149300093398 0.03615164497331418 -0.2788870865532044 -0.2441223295540961 -0.4564199409757095 -0.2859344690028962 -0.1313550307791048 -0.1847507554321395 -0.2350540692512882 
0 -0.2318980419179031 -0.03556265813665658 0 0 -0.06768790828379788 0.3462587790766553 -0.03137965270257539 -0.03736954656542885 0 0 
-0.06113415986463785 0.02656498547858227 -0.4475473758127812 -0.8919796435053753 -0.2849577794929585 0.1525610828818889 0.5422522124675841 0.2973297957901576 0.2944147272199538 0.196104646450541 0.5996351689859795 
-0.03951022255742823 0.1484502410067319 -0.4931011803994322 -0.272623464883157 -1.301042606982605e-18 -0.1346122820314779 0.6037245405500753 -0.1696575063829937 0.1663439633143338 0.4022269043350944 -0.03724278728877572 
-0.07809544953674277 0.5106839907365169 -0.2130301152938665 0.005124668487364223 0.5168838240277448 0.1884805262903055 0.07766527111312761 -0.2468398662189741 -0.2370404478599166 -0.0100823897846098 3.252606517456513e-19 
0 -0.4463090392033434 -0.03556265813665656 0 -1.301042606982605e-18 -0.06768790828379788 0.7262570188244075 -0.03137965270257543 -0.11291955021797 -0.01979404301358759 2.168404344971009e-19 
-0.06120609937784717 0.1033618065054515 0.4690169896188507 -0.4442482013958199 -0.4236115295668579 0.3003999193186453 0.2779584624103059 -0.07203136269449836 -0.1517544173984895 2.168404344971009e-19 3.252606517456513e-19 
0 -0.4463090392033434 -0.03556265813665656 0 -1.301042606982605e-18 -0.06768790828379788 0.7262570188244075 -0.03137965270257543 -0.11291955021797 -0.01979404301358759 2.168404344971009e-19 
0 2.707778611374339 -3.090772344101336 -0.8020238210958535 -0.1707878081885825 0.7124974756266325 1.135910676929237 -0.03137965270257539 -0.03736954656542883 0 0 
0 -0.2318980419179031 -0.03556265813665657 0 0 -0.06768790828379788 0.3462587790766553 -0.03137965270257539 -0.03736954656542885 0 0 
0 0 0 0 0.01207698279460179 0 0 0 0 0 0 
0 0 0 0 0.01760077266545182 0 0 0 0 0 0 
0.02916614937223006 0.8170042811333358 -1.127636339852441 0.1865969153141676 0.03214534189757735 -0.08881778464138858 -0.04023096716541186 -0.07877628308105544 0.09674035944562438 -0.06332578024898808 -0.007946705456725888 
0 -0.06308859968182989 0.2000083841073469 -0.04652202250992858 0 0 -0.0424793319933631 0 0 0 0 
-0.7693613508438611 0.4312055802993434 -0.03620958215360821 -0.376083328762665 -0.06374427805616728 1.127570259384925e-17 0.8389276690367496 -0.1620533056144384 0.1820202800528164 -0.05454453778938212 0 
-1.734723475976807e-18 0.2911105761199469 0.4827815982273755 -0.3521483435610833 -0.0190144728112394 -1.301042606982605e-18 -0.2781602583114953 -0.1404474388552168 -0.02542322062601316 -0.04139844270320416 0 
0.8350809449196774 0.2246171847231175 -0.164476035405285 0.6322548723925655 -0.3293884889248475 -0.03590329001259033 -0.4352848263999193 -0.02997654065008592 -0.07344808226761763 -0.09716500793257531 0 
0 -0.06308859968182989 0.3346761951243894 -0.08096885624588793 0 0 -0.0424793319933631 0 -0.0001745359575954663 0 0 
8.673617379884035e-19 -0.2399359994853071 0.982692225650601 -0.4226598858912807 -0.04710561701883909 1.734723475976807e-18 -0.0424793319933631 0 0 0 0 
0 -0.06308859968182989 0.3346761951243894 -0.08096885624588793 0 0 -0.0424793319933631 0 -0.0001745359575954663 0 0 
8.673617379884035e-19 -0.2399359994853071 0.982692225650601 -0.4226598858912807 -0.04710561701883909 1.734723475976807e-18 -0.0424793319933631 0 0 0 0 
0 -0.02103648265622712 0.06293143413448146 0 0 0 -0.006514634522931254 0 0 0 0 
-0.1330311356118135 -0.8037445638918336 1.267134018606277 -0.791340546297532 -0.01929750126345601 -0.3556650541922328 -0.4221587214823542 -0.001855376414417815 -0.1917099114831658 -0.06350804804935166 -0.0470580481557166 
-0.1356004159887486 -0.1774366086036803 -0.467114603911424 -0.139382219723837 1.076762161081603 -0.1536671490473099 -0.3851019317554541 -0.1050468094658321 -0.04603296902189781 -0.0198177407336785 -9.486769009248164e-20 
0.5923995274087231 -0.08255097269753299 -1.149870250482442 -0.2167237102926762 0.2845745003557303 0.1598599855412908 0.8122220567366738 0.2528898516361935 0.1159900794010693 0.3452572165132681 2.38524477946811e-18 
0.5689086555525276 -0.04071950194633606 -0.6301459740463047 -0.9756650056287622 0.777598679212574 0.9666083878715094 0.04745865739655294 0.2206503633520381 -0.3040294360077189 -0.2084868000130589 1.206174916890124e-18 
-0.2315816996568879 -0.4721016192673061 -0.06879703685175366 -0.5164620397049334 0.6459668937951699 -0.2423437068385524 0.8956949936945272 -0.1965725618979972 -0.09938505836321981 -0.1209133911746697 -9.486769009248164e-20 
-0.1356004159887486 -0.2119437668018142 -0.03695092151717588 -0.1641114667260729 0.9481411696630114 -0.1632014302506404 -0.3851019317554541 -0.1050468094658321 -0.04603296902189781 -0.0198177407336785 -9.486769009248164e-20 
-0.1356004159887486 -0.1774366086036803 -0.467114603911424 -0.139382219723837 1.076762161081603 -0.1536671490473099 -0.3851019317554541 -0.1050468094658321 -0.04603296902189781 -0.0198177407336785 -9.486769009248164e-20 
-0.1356004159887486 -0.1774366086036803 -0.467114603911424 -0.139382219723837 1.076762161081603 -0.1536671490473099 -0.3851019317554541 -0.1050468094658321 -0.04603296902189781 -0.0198177407336785 -9.486769009248164e-20 
-0.1356004159887486 -0.1774366086036803 -0.467114603911424 -0.139382219723837 1.076762161081603 -0.1536671490473099 -0.3851019317554541 -0.1050468094658321 -0.04603296902189781 -0.0198177407336785 -9.486769009248164e-20 
-0.1356004159887486 -0.1774366086036803 -0.467114603911424 -0.139382219723837 1.076762161081603 -0.1536671490473099 -0.3851019317554541 -0.1050468094658321 -0.04603296902189781 -0.0198177407336785 -9.486769009248164e-20 
0 0 0 0 0 0 0 0 0 0 0 
0 0 0 0 0 0 0 0 0 0 0 
0.06076262417239103 -0.1221381402557443 0.9909374074835179 -0.7669396950754597 -0.2725500240137452 -0.08025079388230391 -0.723687864796247 0.1362657877969575 -0.191607411963768 0.06573348625916188 -2.168404344971009e-19 
0 0 0 0 0 0 0 -0.001183681226698324 0 0 0 
0 0 0 0 0 0 0 -0.001183681226698326 0 0 0 
0 0 0 0 0 0 0 -0.00563097282351999 0 0 0 
0 -0.2192677908561067 -0.3865198911353799 0 0 0 0.5798877354348908 0 0 0 0 
-0.247215182947348 0.1591151548991271 0.3715805628034418 0.6097679579519016 -0.4053072785543779 -0.2372269275476181 0.01370508271869804 -0.1015713878132877 -0.04132763015172344 -0.1226099712682602 0 
-0.1057447687466491 -0.7508575180422621 -0.07084270625096334 0.8711137642699398 0.213019454369959 -0.09781412032012871 0.751280739996337 -0.3436280237573135 -0.03057980921413712 -0.07328557792572934 0 
-0.235514178070764 0.4980941068836666 0.4347468259078429 -0.6526088478122826 -3.339342691255354e-17 -0.1193537455306322 0.06914941984880923 -0.07213197045317869 -0.01061405403598784 -0.1226099712682601 0 
-0.09120650220116806 -0.2453097816676785 0.08596507341905242 -0.4849312384161771 0.3185886750881504 -0.09781412032012871 1.003317931441125 -0.29974592060732 -0.03057980921413711 -0.06511439418794754 0 
0 -0.5169582491150724 0.4268213992580119 -0.4451223921391712 0 0 0.5798877354348908 0 0 0 0 
0 0.3212967260957299 -0.7210153452676974 0 -0.01406520929162846 0 0.5201327956149746 0 0 0 0 
0.09752765369183165 -0.03664452852527192 0.2447126784286438 -0.2344837865900525 -0.05598931676299025 0.04415155338681986 -0.1546927351629246 0.01155862798172883 -0.09705410661057083 -0.00802111972505005 -0.01306987387905018 
-0.04236548057241847 -0.1259144495500363 -0.3865198911353799 0 0 0 0.5131506263396171 0 0 0 0 
0.03764982396790179 0.3947535661421472 -0.6758685767258116 0.04051586071806343 -0.116393635431165 -0.01597065759439652 0.2851653788652836 0.1552249183018181 -0.00657232229696905 0.1163169159896199 -0.0008612178421148407 
0 0 0.1353807178622909 0 0 0 -0.1225882085360819 -0.06642293308262051 0 -0.0262882932475859 -0.05244503980145137 
-0.2609576730202444 -0.2491642711015118 1.074452242910239 -0.72367378017462 -0.1444467883498436 -0.08716367294341527 -0.2066321652547461 0.1128740503363971 -0.0673684267529944 0.8659928061429122 -0.05244503980145137 
1.734723475976807e-18 -0.2767532769707781 0.500672553442583 -0.8740397660021106 -0.04652544884478549 -0.1867379492828181 -0.4204411166942023 0.3904087777927269 -0.1841949026462033 -0.07449673998569785 0.7778522282718402 
-0.05444374347308596 -0.1576356065074572 0.5783633106853365 -0.03876963161156539 0 0 -0.2057445062804933 -0.06642293308262051 0 -0.06211381188072866 -0.05244503980145137 
0 0 0.1353807178622909 0 0 0 -0.1225882085360819 -0.06642293308262051 0 -0.0262882932475859 -0.05244503980145137 
-0.05444374347308596 -0.1576356065074572 0.5783633106853365 -0.03876963161156539 0 0 -0.2057445062804933 -0.06642293308262051 0 -0.06211381188072866 -0.05244503980145137 
0 0 0.01409712366520866 0 0 0 -0.04017219840345667 -0.03664715994809253 0 -0.01469454501255333 -0.02873911582154511 
-0.1590046140303645 -0.3293468341606022 0.7788547270300019 -0.5886726717885682 0.1290568457314853 -0.04767380396321647 -0.3103266858425949 -0.04866865055803462 -0.02973361011208335 -0.08606098071867928 -0.02873911582154511 
0 0 0.01409712366520866 0 0 0 -0.04017219840345667 -0.03664715994809253 0 -0.01469454501255333 -0.02873911582154511 
0.985206191503314 -0.2219128020810198 -0.4698213981195266 -0.09727783018656014 5.204170427930421e-18 -0.3268910520850928 -0.0212446368234963 -0.1084513201688662 -0.003153615375598742 0 0 
0.672493279125762 -0.07333758695253473 -0.07249954595133606 -0.9573268187386569 0.3121069691601057 0.1514809714272077 -0.07092191335278847 -0.3062586653936739 0.9245194974880018 0.08600417077108831 8.673617379884035e-19 
1.399887484515121 0.03561784449001996 -0.2541250605633854 0.3244062140746324 -0.2541439625833032 -0.4340653395575803 -0.1585148159579631 0.4678734142362228 -0.6263209865317951 -0.08476868620787474 0 
0.1150499238012112 0.1462904649808819 0.3071561680459605 0.1634475908036651 -0.08359710164403408 0.2714305316496641 0.004538102681012953 -0.3011831927474838 -0.003153615375598742 -0.018488194606147 0 
1.244505160036054 -0.2219128020810198 -0.5953169792433766 -0.09727783018656014 -0.01102174670235789 -0.3524358620908132 -0.04431166368538408 -0.2324504448803865 -0.02479879067176326 5.421010862427522e-19 0 
0.985206191503314 -0.2219128020810198 -0.4698213981195266 -0.09727783018656014 5.204170427930421e-18 -0.3268910520850928 -0.0212446368234963 -0.1084513201688662 -0.003153615375598742 0 0 
1.244505160036054 -0.2219128020810198 -0.5953169792433766 -0.09727783018656014 -0.01102174670235789 -0.3524358620908132 -0.04431166368538408 -0.2324504448803865 -0.02479879067176326 5.421010862427522e-19 0 
0.00641459588709189 0 0 0 0 -0.0195897610647456 0 -0.004925796091801774 0 0 0 
0.009963573283956435 0 0 0 0 -0.0195897610647456 0 -0.004925796091801774 0 0 0 
0.009963573283956435 0 0 0 0 -0.0195897610647456 0 -0.004925796091801774 0 0 0 
-0.1394055249921696 0.1924088972081734 0.02200199289775106 -0.09907714945005304 -0.03065959018291801 0.0559884208709134 0.1151598924547932 -0.04682811440627656 -0.06630448609793618 -0.004999354086085584 0.01102730869051254 
0 0 0 0.01879168997695914 0 0 0 0 0 0 0 
0 -0.4878507293432489 0.81233755563069 0.1898433185827537 -0.399928445190584 -0.03158522312595111 0.07407502991349188 0 -0.008306600254627421 -0.005826803136740459 0 
0 0.2959306680471982 0.0190381821235729 -0.1276947167101084 -0.1812512383304174 -0.0315852231259511 0.1347843403472894 0 -0.007822241187344911 -0.005826803136740459 0 
0 -0.2587261074337039 0.1909730823994779 0.2588287655623656 0 0 -0.1117919870426967 0 0 0 0 
-0.03820119422052764 0.08032025013083409 -0.1983865535206876 0.3232190192084001 -0.03837501862488389 -0.04168851073502731 0.03448524324552306 -0.02958173422055094 0 -6.505213034913027e-19 0 
0 0 0 0.01879168997695914 0 0 0 0 0 0 0 
-0.09557041656423217 -0.5565900407412742 -0.3951032519503473 0.9210447708730295 0.03236514797053647 0.1592853818736566 0.03053079518475891 -0.502025935012091 -0.07555165685027336 -0.1381367671828928 -0.04666912095966974 
-0.006177608028361195 0.1145162932378898 0.02729394691117553 -0.2127897451636297 -0.001898849812839179 -0.1111159498869619 0.1250548656699992 -0.0859480527648494 -0.01364955406185265 0.1418496387495612 -0.01702443256314164 
8.239936510889834e-18 -0.1030779597759903 -0.4729658081880688 -0.6429834140446783 -0.08437417134718814 -0.03508715675237332 -0.03942341152036715 0.9334145618332816 -0.001655874045711158 -0.03770302483509724 7.630072788866737e-18 
-0.05690244988002105 -0.3870051261157889 -1.158246240251827 -0.9078377849508867 -0.0908460617174843 -0.05510577474836386 -0.05115441340788148 2.349061832185229 -0.06628222119796552 -0.03770302483509724 7.630072788866737e-18 
-0.04994575944375951 -0.8973150975651174 0.1385860174082891 0.9982416564187804 -0.3924269523813672 -0.1934249432403425 -0.3022902288084636 0.6034275490417353 0.3574108272518849 -0.2658228069306644 -0.01628009205246243 
8.239936510889834e-18 -0.1030779597759903 -0.4729658081880688 -0.6429834140446783 -0.08437417134718814 -0.03508715675237332 -0.03942341152036715 0.9334145618332816 -0.001655874045711158 -0.03770302483509724 7.630072788866737e-18 
8.239936510889834e-18 -0.1030779597759903 -0.4729658081880688 -0.6429834140446783 -0.08437417134718814 -0.03508715675237332 -0.03942341152036715 0.9334145618332816 -0.001655874045711158 -0.03770302483509724 7.630072788866737e-18 
8.239936510889834e-18 -0.1030779597759903 -0.4729658081880688 -0.6429834140446783 -0.08437417134718814 -0.03508715675237332 -0.03942341152036715 0.9334145618332816 -0.001655874045711158 -0.03770302483509724 7.630072788866737e-18 
8.239936510889834e-18 -0.1030779597759903 -0.4729658081880688 -0.6429834140446783 -0.08437417134718814 -0.03508715675237332 -0.03942341152036715 0.9334145618332816 -0.001655874045711158 -0.03770302483509724 7.630072788866737e-18 
0 0 0 0 0 0 0 0.005980447713051182 0 0 0 
-0.01434210313755783 -0.1005889632692248 -0.2873001848787033 0.4393461537029669 -0.01812980255220735 -0.06515099308987182 -0.02333723993820012 0.01108780910574837 2.38524477946811e-18 0.009343724406266112 0 
-0.1320251009252001 -0.0678364069049526 0.2038589688071321 -0.1656191208653657 -0.2322938339755064 0.2580145240499359 0.2331922775833233 -0.100582393451366 0.06367717564696489 -0.02690985270127939 -0.03113239904504069 
0.06565814615969959 -0.03244391071697672 0.1488987071941089 -0.2305862764509184 -0.07776245766677152 0.01283927711508238 -0.06602265283031972 0.06732056009594804 0.103674581550797 0.0676771474646282 -0.05398020144604367 
-0.1236771006895329 -0.1378395551057193 -0.3933806816573949 -0.2269312145992281 -0.1277358621770589 -0.09089275681371804 -0.08289414870730802 0.7973939599076355 -0.08876668489415906 -0.1606334471506232 0 
-0.2747077968718547 -0.3406274322476093 -0.4966137545102068 -0.1851879749782269 0.2535848460891484 0.2170277728734846 -0.2739401221652781 1.060229669032747 -0.3661533107792138 0.2193674129334389 -0.04160797396765785 
0.3180265335027905 -0.1918733429030191 -0.510575557946226 -0.2557649789937738 -0.181647069103626 -0.09089275681371801 -0.215677151740274 0.5445705391391771 -0.1281200909323845 0.4973039242787795 0 
-0.1236771006895329 -0.1378395551057193 -0.3933806816573949 -0.2269312145992281 -0.1277358621770589 -0.09089275681371804 -0.08289414870730802 0.7973939599076355 -0.08876668489415906 -0.1606334471506232 0 
-0.1236771006895329 -0.1378395551057193 -0.3933806816573949 -0.2269312145992281 -0.1277358621770589 -0.09089275681371804 -0.08289414870730802 0.7973939599076355 -0.08876668489415906 -0.1606334471506232 0 
-0.1236771006895329 -0.1378395551057193 -0.3933806816573949 -0.2269312145992281 -0.1277358621770589 -0.09089275681371804 -0.08289414870730802 0.7973939599076355 -0.08876668489415906 -0.1606334471506232 0 
-0.1236771006895329 -0.1378395551057193 -0.3933806816573949 -0.2269312145992281 -0.1277358621770589 -0.09089275681371804 -0.08289414870730802 0.7973939599076355 -0.08876668489415906 -0.1606334471506232 0 
-0.1236771006895329 -0.1378395551057193 -0.3933806816573949 -0.2269312145992281 -0.1277358621770589 -0.09089275681371804 -0.08289414870730802 0.7973939599076355 -0.08876668489415906 -0.1606334471506232 0 
-0.1236771006895329 -0.1378395551057193 -0.3933806816573949 -0.2269312145992281 -0.1277358621770589 -0.09089275681371804 -0.08289414870730802 0.7973939599076355 -0.08876668489415906 -0.1606334471506232 0 
-0.01048685641295076 0.1540824815913578 -0.6608418365287949 0.3833190584883024 0.03968547540638914 0.03917401814801292 0.2233763888951991 -0.03099868537724686 -0.04181939273956514 -0.06582210216638262 0.03128829761041849 
0 0 0 0 0 0 0 0 0 0 0 
-0.08587895946184519 -0.1812800698768191 -0.4830427160415856 0.3039677074755168 -0.06315765924225532 0.05057974696325037 0.1205225657750056 0.2367243322303567 -0.03239781060247184 -0.03614574641473419 -0.003089087411175181 
0.004815361943054433 -0.2815644870042865 0.3390326807163961 0.05231042891490954 -0.1352737925273707 -0.04412960374650554 -0.1904376781803135 -0.06839951860383096 0.2629005505709389 -0.01675944477116138 -0.03291032028142682 
1.734723475976807e-18 -0.03935769736016281 -0.7017675561892527 0.8219089441839791 2.320192649118979e-17 -2.602085213965211e-18 1.214306433183765e-17 -0.1612324488303319 -1.084202172485504e-18 -0.02913456212522279 0 
-0.2502291609285233 -0.01793703301927142 -0.4821013139362739 0.6697373626166573 0.3122109962181924 -0.05799809234916642 -0.3961880213090163 0.6400134749028817 -0.1753887771928262 0.4717508182661977 0 
8.673617379884035e-18 -0.3090788593866672 -0.8722264983818994 1.207594905341315 2.49366499671666e-17 -2.602085213965211e-18 -1.734723475976807e-18 -0.189906065048797 -1.084202172485504e-18 -0.02913456212522279 0 
-0.03830506751003365 0.002904629209382341 0.2675404533866655 0.2676302285675166 -0.03852595997105219 -0.003732321802861896 -0.09239146246858573 -0.5001829019451887 -0.0399984140899335 -0.12670188028127 0 
1.734723475976807e-18 -0.2916179752967074 -0.834267367362368 1.145283549288883 2.320192649118979e-17 -2.602085213965211e-18 -1.734723475976807e-18 -0.1612324488303319 -1.084202172485504e-18 -0.02913456212522279 0 
1.734723475976807e-18 -0.03935769736016281 -0.7017675561892527 0.8219089441839791 2.320192649118979e-17 -2.602085213965211e-18 1.214306433183765e-17 -0.1612324488303319 -1.084202172485504e-18 -0.02913456212522279 0 
-0.1771840797724487 -1.032122826411155 -0.7270279434156079 1.635336897790226 -0.2992311926052064 -0.2418503932850787 -0.1702312763523108 -0.1252067327134953 -0.1509974970238699 -0.1049213661393876 -0.1202787515296969 
0.05160252242217536 0.157781455367392 -0.1042163253775072 0.08873590773179819 -0.0608944660693701 0.09306250264926601 -0.04868877678533191 -0.02501630287395695 -0.01014666706332782 -0.07331253719887154 0.03314938140476098 
-0.0952186283311489 -0.3274635847476376 -0.05621191787355596 0.2737221740499666 -0.04162426891601187 -0.03075999365251461 0.1195386549083391 0.2561936187939654 -0.000829696543122736 -0.05638482671303577 0.01739315279948359 
0.0263096773201409 -0.2876498537800889 0.3086213492437133 -0.4212786413780838 0.006543829901086057 -0.03582381054153655 0.3781413035405323 0.01289237141098495 0 -0.0526510196873962 0.01645892886163921 
5.421010862427522e-18 -0.4619593992316521 -0.2316339914969219 1.314931294060989 -0.5288111205212004 -0.1566631370319601 -0.08754846212180249 0 -0.08268538098370096 -0.05127071547221171 0 
-0.3344900327586601 -0.2783345438270222 -0.9989746855755903 0.3162885331969357 0.8114891592779562 0.568293123393897 0.2725016202459347 -0.09695214689577186 -0.2202459639150346 -0.06410431839667852 -2.168404344971009e-18 
-0.7443893891287121 0.520094798471824 -1.681434431656271 0.7507625120095507 -0.203394164644323 0.3302974364519193 0.7254419917084787 -0.2815842364695368 0.4243176744823772 0.7154101934717751 2.710505431213761e-19 
5.421010862427522e-18 -0.4619593992316521 0.02727842103192311 1.172297404148639 -0.5288111205212004 -0.1566631370319599 -0.08754846212180249 0 -0.08268538098370096 -0.05127071547221171 0 
5.204170427930421e-17 0.518982968234852 -0.3763718545223609 -0.08541965891464399 0.8217870884991048 -0.3618091559094927 -0.7188627162945673 6.938893903907228e-18 -0.2179694430018687 0.2662832388543185 0 
5.421010862427522e-18 -0.4619593992316521 -0.2316339914969219 1.314931294060989 -0.5288111205212004 -0.1566631370319601 -0.08754846212180249 0 -0.08268538098370096 -0.05127071547221171 0 
5.421010862427522e-18 -0.4619593992316521 -0.2316339914969219 1.314931294060989 -0.5288111205212004 -0.1566631370319601 -0.08754846212180249 0 -0.08268538098370096 -0.05127071547221171 0 
0.1024866486739763 -0.7751083585211884 -0.6588983498546311 1.032508969577947 -0.2435487929192091 -0.1071074894936601 -0.1690215155959503 -0.02629572223508759 -0.01384137508441973 -0.07962052678592567 -0.02196820955719011 
-0.01282066686823412 0.1957547664293661 -0.6560328869458694 0.3714973483862596 -0.02359830635987804 -0.08266940548051059 0.1132209497462413 -0.005153056675199552 0.0853274596539815 -0.2111498869577358 0.03057911111383738 
-0.005147837439278344 -0.02475025934798196 0.2728240219358572 -0.2225934192309263 -0.04499684303663115 -0.001854420614008464 0.01683435267288938 0.0514803090791553 0 -0.006205005502873426 0.02033823415966215 
-0.01005100479510582 -0.1211709482391094 0.01903341974035222 0.09766751442936931 -0.01447382126777957 -0.02456178233223697 0.007576779604703346 0.007243150309771173 0.006533690443636732 0 0 
0 -0.2693551195056349 0 0.1732985947868602 0 1.279358563532895e-17 -0.007084692105408328 0 0 0 0 
-0.009503654697422885 -0.3536144621840914 -0.7001930159610791 1.183673940065618 -0.05823668443324927 -0.1478209760979221 -0.06252344330284321 -4.336808689942018e-19 0 0 0 
-1.084202172485504e-19 -0.1496154980387749 -0.4125442712765184 0.6789558115168864 -0.1571961456260773 -0.1830501797965536 -0.08293903700536516 0 0 -5.204170427930421e-18 0 
0 -0.2693551195056349 0 0.1732985947868602 0 1.279358563532895e-17 -0.007084692105408328 0 0 0 0 
0 -0.2693551195056349 0 0.1732985947868602 0 1.279358563532895e-17 -0.007084692105408328 0 0 0 0 
0.02846774158165588 0.2340361791960031 -0.6174329538451655 0.4030991821197245 -0.01041107794978392 -0.07355942403095707 0.1077559464702379 -0.01266207617438695 0.1028861259328771 -0.1112264157178312 -0.006148589515327732 
0.08664918393019407 -0.2227061088231457 0.03250736119162812 0.258496358211458 -0.1427609515332228 -0.02580289657510814 -0.1052479507276349 0.0417359461926121 0.07447484448770446 -0.04634799888061103 0.0007583924251596111 
0 -0.001454219856467615 -0.008003795213459487 -0.03248533002539767 0.01772890595938742 0.01945952487285286 0.006984482450263777 0.02903904801946345 0 0 0 
1.137522182687656 3.252606517456513e-18 -0.9135892664346856 -0.1505914815186019 -0.1682414216493694 2.168404344971009e-19 -0.01309716405003523 0 -0.05773583957913733 -0.003496943100119716 0 
0.7827846935396727 -1.124259363966265 1.074127890222179 0.3385526465623589 -0.3659460122722001 -0.2031671263033974 -0.03518912623138776 -0.4179039567868221 -0.1020125639357364 -0.06008915603067889 2.602085213965211e-18 
0.4564451589547354 -0.8939588718073597 0.5941217369817973 -0.6766838269307882 0.8730400102761353 -0.1556528654387497 0.2743050149150761 -0.3642618911604167 -0.6283234476169171 0.5115773246336633 0 
1.031846077597846 -0.5631770376233327 -0.04774474810780967 -0.4252546908366627 -0.1856756269637621 2.168404344971009e-19 -0.01309716405003523 0 -0.06326493397600412 -0.003496943100119716 0 
1.536978091211924 3.252606517456513e-18 -1.162643742918361 -0.1505914815186019 -0.270744030935482 -0.05963725722813997 -0.01831250319987698 0 -0.1607043594099753 -0.01231920623775398 0 
1.137522182687656 3.252606517456513e-18 -0.9135892664346856 -0.1505914815186019 -0.1682414216493694 2.168404344971009e-19 -0.01309716405003523 0 -0.05773583957913733 -0.003496943100119716 0 
1.137522182687656 3.252606517456513e-18 -0.9135892664346856 -0.1505914815186019 -0.1682414216493694 2.168404344971009e-19 -0.01309716405003523 0 -0.05773583957913733 -0.003496943100119716 0 
0.03586322697229507 0.09260207609881235 -0.2127488250050267 0.09149765713855355 -0.004382622404865413 -0.06515665762173944 0.1479336450829395 0.0002562144091538957 -0.006662037348523791 -0.003181595310114109 0 
0.03864099720230031 0.3129427152505413 -0.318445591352691 -0.2477243275073883 0.07715880508035509 -0.04292292950096893 0.2027223588976171 -0.03023572040108221 -0.02558617225383471 0.1084522831845756 0 
-0.02277120358707965 -0.1370526461782728 -0.06897621834125893 0.2233621582949449 -0.07916393700786684 -0.03243353330726955 0.143096149724116 -0.02904373970157468 -0.06013417438317262 0.3221256756237786 -0.005112261966921337 
0 0.2493697461573804 0.187285943176203 -0.1808063172155108 0.004980395913117029 0 -0.09701943402929093 0.004264816182920496 -0.03732943254550163 -0.00991978084974026 0 
0.02597561405245898 0.6701897097524412 -0.2911027801134234 -0.08177661182461347 0.005879908813635382 0.002337372061525895 -0.4829856180789243 -0.01601527374654938 0 0 0 
-0.03122623137569294 -0.2675759692833879 -0.4789906340000081 0.452102862387561 0.4191451857115008 -0.09441043478840927 -0.01413418339584555 -0.0996869895639951 0.02489457864098265 -0.07278616496729219 -0.01230697593003443 
-0.04809965432774339 -0.08520321535098949 -0.03653691626581414 0.03103513213889005 -0.1862579576542392 0.2020732316301102 0.1001727110979619 -0.01748942341278427 0.09441792490979002 5.204170427930421e-18 -0.003154765947050167 
-0.02778756510156073 -0.245033037869891 -0.6224921240358418 -0.2421295727781531 -0.01017379187169896 -1.734723475976807e-18 -0.08251504792232434 0.9375644032795174 8.673617379884035e-19 -0.005071981746237931 -6.505213034913027e-19 
0.5532530937987836 -0.4548665075395949 0.5102050341220268 -0.05147034867967895 -0.3428975128405544 -0.2048465222987256 -0.7351747062010979 0.6154897643479654 0.1411343990854024 -0.1705221670177999 1.496198998029996e-17 
-0.2261477914153532 -0.1258144203095774 -0.8433826474469005 -0.3556072319323543 -0.0102694653750112 -4.336808689942018e-19 -0.08251504792232436 1.389646817561658 -0.03967879809047289 -0.005071981746237931 -6.505213034913027e-19 
-0.06811760035670973 -0.43673625866808 0.4743847129983315 -0.265029913321799 -0.05598860770307991 -1.734723475976807e-18 -0.3782216759179957 0.7704294377160563 -0.0479911183146588 -0.005071981746237931 -6.505213034913027e-19 
-0.02778756510156073 -0.245033037869891 -0.6224921240358418 -0.2421295727781531 -0.01017379187169896 -1.734723475976807e-18 -0.08251504792232434 0.9375644032795174 8.673617379884035e-19 -0.005071981746237931 -6.505213034913027e-19 
-0.02778756510156073 -0.245033037869891 -0.6224921240358418 -0.2421295727781531 -0.01017379187169896 -1.734723475976807e-18 -0.08251504792232434 0.9375644032795174 8.673617379884035e-19 -0.005071981746237931 -6.505213034913027e-19 
-0.02778756510156073 -0.245033037869891 -0.6224921240358418 -0.2421295727781531 -0.01017379187169896 -1.734723475976807e-18 -0.08251504792232434 0.9375644032795174 8.673617379884035e-19 -0.005071981746237931 -6.505213034913027e-19 
-0.02778756510156073 -0.245033037869891 -0.6224921240358418 -0.2421295727781531 -0.01017379187169896 -1.734723475976807e-18 -0.08251504792232434 0.9375644032795174 8.673617379884035e-19 -0.005071981746237931 -6.505213034913027e-19 
-0.001395189385124872 6.884683795282953e-18 -1.734723475976807e-18 -6.071532165918825e-18 -0.01653756939010687 -0.019740555590879 0.09468887920791641 0.003846591419103018 0 0 0 
1.084202172485504e-18 0.2609284109684033 -0.2621056611188728 -0.06801392319023544 1.084202172485504e-19 0 -0.04158712176571124 0.1180320585814565 -0.02132388043733027 -0.002249130055915927 -0.0006268233241733474 
0.1281603912836765 0.07503071697150476 -0.0565538976243588 -0.1471700710947474 0.2822140789235329 -0.05957785072682791 0.04632553074373966 -0.03049628889254365 -0.1003960504436198 -0.09402952831577664 0.0001684997559043099 
-6.938893903907228e-18 -0.484358289803959 0.8537012989058926 -0.3594988819032549 -0.1110443901534356 -0.01217053909943738 0 0 0 0 0 
0.3304659979907385 -0.03704457415021915 0.1736441843845948 0.1343355593882357 0.2014714551513896 -0.3276461582842343 -0.2060164093082102 -0.5787953222585488 -0.01300403453710323 0.663739557444829 -0.09671853444236062 
-0.0661560168939478 0.8860456369478376 -0.2419019002907479 -0.7399565270648385 0.8964183046781619 -0.01856019474320737 -0.4696444908900384 -0.1200686180220423 -0.0789308458836782 -0.2595980635152183 0 
-0.407713166133179 -0.7559030136359769 1.006637669563251 -0.3854139242832615 0.390487920076642 0.9646913749306604 0.06854786379601525 -0.3852724314081982 -0.05353080592923491 -0.2769417519541005 -8.673617379884035e-19 
-0.01968651505154056 0.2139351781352817 1.003917537200217 -0.7268310757326483 -0.1301580684546613 -0.01217053909943738 -0.4698918988045416 0 0 -0.02785009522775159 0 
-6.938893903907228e-18 -0.784504108721704 0.05473492582977674 0.9046592080740546 -0.1375909774195052 -0.1398121221407244 -0.0998196607771695 0 0 0 0 
-0.01968651505154055 -0.07775138052826885 1.057380568763131 -0.4488831862168141 -0.1301580684546613 -0.01217053909943738 -0.4698918988045416 0 0 6.938893903907228e-18 0 
-6.938893903907228e-18 -0.484358289803959 0.8537012989058926 -0.3594988819032549 -0.1110443901534356 -0.01217053909943738 0 0 0 0 0 
-0.1149996886527471 -0.07412892508603565 1.51807754556785 -0.9500053637989416 -0.3141236736194298 -0.2013310128394946 -0.7724973346505005 -0.3401230120167854 -0.04345643965971373 0.08700846132794017 0 
-0.2554642864533353 0.1277678294783763 0.4088380262096254 -0.2539261299321562 -0.2358610283564521 -0.1667479896866423 0.06749282206697914 -0.01782222244228426 0.0424022959830226 -0.1637872345287351 -0.0224075905195725 
-0.216420074427724 -0.3026591579760512 -0.921804648686714 -0.4437205651305828 -0.06419401662914324 1.498809002366208 -0.04573115444336149 -0.09579860013385916 4.336808689942018e-18 0 0 
1.336429101197994 -0.3729950377800535 -0.2915992641414425 -0.9110268543796429 -0.4084576028114497 0.6152860774907691 -0.7496794606741479 1.048383976635734 -0.007615419039251945 -0.09175774993156124 4.472333961502706e-19 
-0.216420074427724 -0.3026591579760512 -0.921804648686714 -0.4437205651305828 -0.06419401662914324 1.498809002366208 -0.04573115444336149 -0.09579860013385916 4.336808689942018e-18 0 0 
-0.216420074427724 -0.3362213189655381 0.663895318198667 -0.4170866342620033 -0.4881768393834516 0.5574627240707646 -0.08837040182821097 -0.09579860013385902 -0.003459232395240531 -1.734723475976807e-18 0 
-0.216420074427724 -0.3026591579760512 -0.921804648686714 -0.4437205651305828 -0.06419401662914324 1.498809002366208 -0.04573115444336149 -0.09579860013385916 4.336808689942018e-18 0 0 
-0.216420074427724 -0.3026591579760512 -0.921804648686714 -0.4437205651305828 -0.06419401662914324 1.498809002366208 -0.04573115444336149 -0.09579860013385916 4.336808689942018e-18 0 0 
0.09901568006704729 -0.004612884530516607 -0.1379380088846351 -0.01588392544472293 -0.009016332008754045 0.008491328004611885 0.04227348178700965 0.1128999141301796 -0.02774068195489028 -0.01081100891058844 0 
-0.0923711734934214 -0.1834922965172699 0.4104252952163491 -0.3595595598628675 0.08933838739941816 0.1983851437512832 -0.268817915461354 -0.1070771535271287 0.1787242661854606 0.01227814988015356 0.01286659703706726 
0 0 0 0.02024696146527038 -0.01310036621232429 -0.01818905672241082 -0.01084918345193829 -0.008107334491866052 -0.009478990837997286 0 0 
-0.02640511473808705 0.1460772293772323 -0.37359489476064 0.5398497815024935 0.0379614055261802 -0.1385100382317193 0.01454911761573552 0.01788179348043832 0.03627809444125135 -0.09359410037333871 0.02959092966390157 
-0.00199337508572919 -0.1007118893611092 -0.1173998993683993 0.1249085296528589 -0.01806814721185749 -0.01156549031512711 0.01802952883036304 0.1517865661001187 0 -0.01870408975266689 0.004433520925478744 
0.01518578439452541 0.06975174796725517 -0.09099474682619357 0 0 0 0 -0.006616681018030933 0 0 0 
0 0 0 0 0 0 0 -4.336808689942018e-19 0 0 0.0006593618805479691 
0 -0.10224921875915 0.9916429945839473 0 0 0 -0.9175887947227999 0 0 0 0 
-0.1344768654066976 0.1560035318072814 0.3982532170566331 -0.09067823322769425 -0.1977144496388568 -0.004037229859509834 0.3274965038241361 -0.1836764990126123 -0.09093328295816799 -0.3983556560731615 0 
-0.4168992288502394 -2.32105353583376 -2.234035176582749 -1.919511962976772 -0.8523818692850331 -0.2156794208532267 5.203296663957285 -0.7631545037851608 -0.2624366249509522 -0.479884418044347 -0.002437763858742423 
0 0.5436078524654824 0.159190760804419 -0.1308022485655402 -0.009307293172255159 0 -0.9175887947227999 0 -0.01671166625923879 0 0 
-0.01631485897111471 -0.0789160679233275 0.9017900259786459 -0.2306676788778229 0 0 -0.3274542202400486 -0.007093335769432175 -0.02586902401853323 -3.469446951953614e-18 0 
0 0.2879979220758063 0.6163666645480657 -0.1308022485655402 -0.009307293172255159 0 -0.9175887947227999 0 -0.01671166625923879 0 0 
0 -0.1022492187591499 1.941191821488167 0 0 0 -1.895484056066792 -0.007093335769432203 -0.02242382322094998 0 0 
0.02277929856175647 0.03164807289416709 -0.167083846644159 0.1836304384709089 -0.03372467380045117 -0.07045036909368006 0.14310877039655 -0.0587751078193703 -0.06369287825591964 -0.06997543915194342 -0.03251405127566803 
-0.01704338145334504 -0.2800372144054737 -0.1120853987100302 0.6490637153181313 0 0 -0.1259448523387975 0 0 0 0 
-0.006501272704639975 0.07997506657389569 -0.07893912590970366 0.2084020337475003 -0.0332365235528118 -0.1096285920463062 -0.0771375946363578 0.0156590149674502 -0.1590673489963567 -0.02783778797200352 0.0112952035737933 
-0.00764867815797056 0 -0.4993634943610435 0 0 0 -0.002416359238204315 0.5328870002611166 0 0 0 
-0.00764867815797056 -8.673617379884035e-19 -0.6222287675999145 -0.134439986653125 0 0 -0.1257769766705997 0.9407275519267287 -0.08394750234488135 0 0 
-0.3483897889139315 -0.07449025003953237 -0.5103340362361273 -0.1971818307698532 -0.03082727147643955 2.981555974335137e-19 -0.2624803962217221 1.346842336374955 -0.07151070793943332 -0.04244656183354627 0 
-0.00764867815797056 0 -0.7490545419633516 -0.1377982101038523 0 0 -0.07589614430451669 1.071868622660009 -0.02945184371587729 0 0 
-0.0005838064111450852 -0.1497538687011133 -0.2090854615509977 0.2047916208651427 0 0 0 0.2252105671244505 0 0 0 
-0.1289594787055698 0.1983143470830286 -0.07633209232422479 0.1957778942041683 -0.0570424739467362 -0.137489006431973 -0.02479109106118639 -0.06470578503356497 0.09870792385586664 -0.2775027644014444 0.0163367114569538 
-0.0005838064111450852 0 -0.08906606557263395 -0.1610208658822836 0 -0.0009765571272605847 0 0.2252105671244505 0 0 0 
3.946495907847236e-17 -0.03434838354124525 -0.3482498282250795 -0.4212831314171389 0.9369990506253761 -2.949029909160572e-17 -0.4018785342758824 -0.03457037909484709 -0.1206899361987407 -0.1443267332277052 0 
-0.5074520049418351 -0.8915656513178911 -1.894311914977046 0.01746528147345011 0.6921663705639379 -0.392028734621046 0.9360287696848083 0.02964903001738336 0.938329431696345 0.5188349773114698 -0.1111889424146467 
-0.2014489185291784 -0.2561016975635668 -0.6009899231466438 -0.1600297709943025 0.8648123202877914 -0.2912012240934234 1.218929995117514 -0.2261769628623919 -0.2142568721220248 -0.3905058326954272 0 
3.946495907847236e-17 -0.1577928343723698 0.03916373827334119 -0.7702450834679377 1.638933417990446 6.765421556309548e-17 -0.8994877903474341 -0.1095134443574082 0.05927895058528115 -0.2065428876352315 0 
3.946495907847236e-17 -0.03434838354124525 -0.3482498282250795 -0.4212831314171389 0.9369990506253761 -2.949029909160572e-17 -0.4018785342758824 -0.03457037909484709 -0.1206899361987407 -0.1443267332277052 0 
3.946495907847236e-17 -0.03434838354124525 -0.3482498282250795 -0.4212831314171389 0.9369990506253761 -2.949029909160572e-17 -0.4018785342758824 -0.03457037909484709 -0.1206899361987407 -0.1443267332277052 0 
3.946495907847236e-17 -0.03434838354124525 -0.3482498282250795 -0.4212831314171389 0.9369990506253761 -2.949029909160572e-17 -0.4018785342758824 -0.03457037909484709 -0.1206899361987407 -0.1443267332277052 0 
3.946495907847236e-17 -0.03434838354124525 -0.3482498282250795 -0.4212831314171389 0.9369990506253761 -2.949029909160572e-17 -0.4018785342758824 -0.03457037909484709 -0.1206899361987407 -0.1443267332277052 0 
0 -0.03525382714096123 0 0 0.002976166096270372 0.08150698931195785 0 0 0 0 0 
0 -0.1510312290382432 0 0.2462361354089349 0.01905395933899579 0 -0.02382801288940002 5.421010862427522e-20 0 0 0 
-0.01097137176684081 0 0.0520102253899783 -0.01730073253910089 0.002976166096270373 -0.01804574240190537 0.02685522186422321 -0.009680407829343849 0 -0.009419641466931307 0 
-0.08368631004355123 -0.100841203142524 0.3350305451244265 -0.03835237980672559 -0.08864344876931313 -0.007106086933163838 -0.1444593663750333 -0.003654297894081749 -0.01161351831404665 -0.02749586081085957 -0.03864170387694643 
0 -0.08558664972906724 -0.1704237850286986 0.523805118725697 -0.07390297832382499 -2.168404344971009e-19 -0.03469058443820538 -5.963111948670274e-19 0 0 0 
0 0.6727372719743376 -0.5546504065778081 0.5291498708618393 -0.0880443081601405 -0.03149078679679953 -0.2123691238758894 -0.0410933837674283 0 -0.00275684094450424 0 
-0.3550119838424782 0.6924526546306081 -0.2325465321841767 0.5333777905054482 0.3923162106830083 -0.2024771265129761 0.2302390759834868 -0.4232532484314226 -0.1054731034103069 -0.1054071083086978 -0.07277584369693056 
0 -0.6782713893550896 -0.05437511423693375 1.023191869385119 -0.07390297832382499 -0.02650120081922397 -0.04525822592241944 -0.04109338376742826 0 -0.00275684094450424 0 
-0.2154633210665725 0.6329417232444257 -1.219384778332347 -0.4611861505256492 0.7228222486006655 -0.138972605330689 1.11702487611401 -0.0687973807827905 -0.0500697725559119 -0.001606272576086058 0 
0 -0.6430577038472514 -0.1809636264790533 1.023191869385119 -0.07390297832382499 -0.02650120081922397 -0.04525822592241944 -0.04109338376742824 0 -0.00275684094450424 0 
0 -0.1130609459833583 0.06061762506560524 0.4109663523160322 -0.1170878627234023 -2.168404344971009e-19 -0.06569296977857013 -5.963111948670274e-19 0 0 0 
-0.1223305897851588 -0.8740360090359833 -0.3753949111040448 1.437537603415605 -0.5222739805258192 -0.2888314482904168 -0.9156885360850348 0.07878718561305734 -0.02360974691601994 -0.07373001979702618 -0.1019328508267628 
0 -0.03345404916891333 0 -0.03527337601086164 0 0 0 0 -0.005054593834232146 0.1126049900142681 0 
0.02407185022744815 -0.4332619239285517 -0.3638392999151752 0.632691919328223 0.1092379529440972 0.1704673360121904 0.1045378179057675 -0.08859734344910114 -0.0143171144334524 -0.03463487502665021 0 
-0.01368994518696716 -0.04859342693059375 0.06811672452368049 -0.01120164439114671 0.1571372588743526 0 -0.01863704876097102 -0.03520116403814803 -0.01749159015296044 -0.007613452859963132 0 
1.067350277490509 -0.3726875502042676 -0.3496058746135388 -0.321906602933103 -0.1178058294759649 -0.24088663278534 -0.05956044234527452 -0.0183857254715387 -0.007615419039251951 1.734723475976807e-18 0 
0.2822217044381778 0.06663989071621419 -0.3185790105510455 0.7607393742632403 -0.3728382631336076 0.5925283075327779 -0.3766854944139985 -0.1032948422067263 -0.1695002412661665 -0.07534645458600618 0 
1.067350277490509 -0.3726875502042676 -0.3496058746135388 -0.321906602933103 -0.1178058294759649 -0.24088663278534 -0.05956044234527452 -0.0183857254715387 -0.007615419039251951 1.734723475976807e-18 0 
1.067350277490509 -0.3726875502042676 -0.3496058746135388 -0.321906602933103 -0.1178058294759649 -0.24088663278534 -0.05956044234527452 -0.0183857254715387 -0.007615419039251951 1.734723475976807e-18 0 
1.067350277490509 -0.3726875502042676 -0.3496058746135388 -0.321906602933103 -0.1178058294759649 -0.24088663278534 -0.05956044234527452 -0.0183857254715387 -0.007615419039251951 1.734723475976807e-18 0 
1.067350277490509 -0.3726875502042676 -0.3496058746135388 -0.321906602933103 -0.1178058294759649 -0.24088663278534 -0.05956044234527452 -0.0183857254715387 -0.007615419039251951 1.734723475976807e-18 0 
0.003874982969765964 0 0 0 0 -0.0098479250150647 1.734723475976807e-18 4.336808689942018e-19 0 0 0 
0.02031889997057125 0.1009510597031095 -0.0218772388316296 -0.06138733352521671 -0.003334162703231765 0.1027132635254741 -0.08177864232201831 0.1370140512339719 -0.04222162252023684 -0.0345147739054178 -0.01904487569770924 
0.003874982969765963 -0.02919162050628827 0 8.673617379884035e-19 0.06246666274170851 -0.0098479250150647 0 0.004717956028813742 -0.004489613718416468 0 0 
0 -3.469446951953614e-18 0.8542730066473827 -0.6961846962346209 -0.1752444754008193 0 -2.168404344971009e-18 0 0 0 0 
-0.2817844237237556 -0.4903156088510245 0.3639903096670578 0.2086828105372796 0.687086391781232 -0.2987929913355256 -0.1863008195544661 0 -7.047314121155779e-19 1.301042606982605e-18 0 
-0.2299570231539089 0.7697256428879936 0.03504077477980684 0.3365249083952183 -0.1416790862551164 -0.2601009365345762 -0.793311536334497 -0.2576730439309176 -0.1410308070052037 -0.2270483474198458 -0.0344624165754544 
-0.2240564008765789 -0.3960122227834584 0.776718023665055 0.07683600580255032 -0.04444879950704803 -0.195000244567385 -0.09352187033206665 0 0 0 0 
-0.06955589761210162 -0.3623359188600174 0.8213271397946614 -0.0001073924630376824 -0.3982653474556942 -0.002033150493465369 0 0 -0.02561263352246648 -0.01147005805112994 -0.0003557605690397302 
-0.2048182849651499 -0.08589032360502445 0.4851854453890298 -0.428154097944249 0.2400600248592201 0 -0.04407929582903504 0 0 0 0 
0 -0.1485469438408626 0.0222375089295899 0.1165670312411479 -0.3471991771909192 6.776263578034403e-21 -2.168404344971009e-18 0 0 0 0 
-0.2998536061087517 0.4100087492534731 1.137504035528644 -1.068017695221805 -0.2735801754422077 -0.287904128938808 -0.4535151470241968 -0.1937398725921956 0.1089692426230241 -0.05758197300628155 -0.04824367600507563 
0.06331531228541214 -0.009233560124860816 0.1222341567933924 1.734723475976807e-18 -0.02005612853559098 0 0 -0.04475916261328594 0 -0.007946834538927009 0 
-0.002243584493659243 0 -0.003835364993429835 1.734723475976807e-18 0 0.01746688512907032 0 0 0 0 0 
-0.04339472401460466 0.1625553288359745 0.9268508465634165 -0.6916666661638058 -0.1170420208366637 0.01464983439964949 -0.2656182788596662 -0.1610551957906378 -0.05989006483642716 -0.05005886608349972 0 
-0.004215472444547689 -0.1633835060865301 -0.02283547256491501 0.01583537169599222 -0.2031399141045763 -0.008069749404140557 0.1507542903099914 4.336808689942018e-19 0 0 0 
0 0 -0.2667377205881813 -0.4568924695087861 0.549726616530436 0 0 3.903127820947816e-18 0 0 0 
0.03480882355752274 0 0 0 -5.421010862427522e-20 0 -7.589415207398531e-19 0.01653750153594767 0 0 0 
0.004907248555988611 0 -0.03013812159703039 0.06240959331627802 0.001124058979929691 0 0 -0.00105564999234126 0 0 0 
-0.243408334219378 1.349185250130421 -0.7353995282860263 0 0 -0.1175819551511942 0 -0.2712741931584366 0 0 0 
-0.5500142183600008 1.636545345765216 0.3214749837646803 -1.054843463592284 -0.1826361887018325 0.2416327830594764 -0.3126933712015205 -0.5470866260376904 -0.1769996875008018 -0.1431364173922784 -0.03331588972696613 
0.1026188736698432 0.4912448454202021 -0.8601262579824646 -0.285484899362027 -0.07166655042613168 -0.4869299043929107 -0.04990255980953127 1.298247903477274 -0.1328173463940721 -8.673617379884035e-19 0 
-0.243408334219378 0.4485758678608494 0.0815448899234462 0 0 -0.1175819551511942 1.084202172485504e-19 -0.2712741931584366 0 0 0 
-0.3582005652121114 1.162770782293182 -0.7353995282860263 0.454828897997497 0 -0.1663171560085018 0.04092783832871354 -0.4308135663942326 0 0 0 
-0.243408334219378 0.7336426096968405 -0.1837439405772741 0 0 -0.1175819551511942 1.084202172485504e-19 -0.2712741931584366 0 0 0 
-0.02776961464948537 0.1963217805413116 -0.1152373548752109 0 0 -0.01651091822711369 0 -0.02358432271877409 0 0 0 
0 -0.4118960479083986 0.6921032109775734 -0.2203178075259999 0 0 -0.03765305626859256 0 0 0 0 
-0.1813663743612224 -0.1618496521469051 0.1920529570776557 0.1863101919932106 -0.2776179274182561 -0.06780331466710793 0.3110062736067323 -0.2365465875728973 -0.06901438025418219 -0.2707528665791295 2.331034670843835e-18 
0.6407608434649346 0.7224697544182072 0.2829447276718701 0.4084748758849486 -0.1266200213645479 -3.035766082959412e-18 -0.6953044861484396 -0.6338804478402453 -0.07436965446809235 -0.07243521403887315 0 
-0.0409870200717647 -0.1173471581802135 0.395191800594164 0.08311423860235503 -0.01779274061240651 0 -0.1194313003575694 -0.1549365390565182 -0.05190310153032087 -0.07422566628469811 0 
-0.1388860000858388 -0.184725390441912 0.8163931629534573 -0.2203178075259999 0 0 -0.1483696428747222 -0.05653607436322752 0 0 0 
0 -0.4118960479083985 0.6921032109775734 -0.2670156367929315 0 0 -0.03765305626859256 0 0 0 0 
0 -0.04476153014668539 0.3546963463841486 -0.2203178075259999 0 0 -0.09199239951392507 0 0 0 0 
-0.03731200651316346 -0.4279357909512291 0.9163742138439726 -0.4638797477730621 -0.08532836724499498 -0.052282815533468 -0.04172249148146923 -0.1784413176517582 -0.01053085152657789 0 0 
0.882777361907703 0 -0.2153973191567113 -0.1704395378794892 0 -0.002435213225826647 -0.09064789069115137 -0.5029318966005725 -0.02402705417219678 -0.005392810479400236 0 
1.315069817967633 -0.2450998742286813 -1.131155328693268 -0.163313748559409 -0.09098635333657565 -0.0942116908356023 -0.2476272785329981 0.9897638701893385 -0.1193914981749166 -0.1324821858801776 0 
0.6692686298135465 -0.1230465281185902 0.01164501657676086 0.2015878050588117 0 -0.004669934347332413 -0.1611625251238259 -0.5156723883222014 -0.03742359854101728 -0.005392810479400236 0 
1.665835758316942 -0.1939865097524264 -1.185438344513374 -0.7956431236532613 -0.02013877671522562 -0.02045137713835935 -0.16276000632256 0.3905043738795401 -0.02402705417219681 -0.1062287582635185 0 
0.882777361907703 0 -0.2153973191567113 -0.1704395378794892 0 -0.002435213225826647 -0.09064789069115137 -0.5029318966005725 -0.02402705417219678 -0.005392810479400236 0 
0.882777361907703 0 -0.2153973191567113 -0.1704395378794892 0 -0.002435213225826647 -0.09064789069115137 -0.5029318966005725 -0.02402705417219678 -0.005392810479400236 0 
0.1201940151420538 -0.2088770396417887 -0.1116907533051598 0.3359601372149721 -0.01363253721899475 0.2378749764677278 -0.06775178855323027 -0.04313388534570192 0.04393452377637177 0.1084254077688479 -0.003683854167185729 
0.01423534522352689 0.3475295924786449 0.4344600670057814 -0.3360034638882484 -0.02178036075464885 -0.02058029490403939 -0.05048802254691176 -0.1704382252394559 1.084202172485504e-19 -0.04287010396503372 0 
-0.01452352714760344 -0.1997755795350104 -0.409398519728036 -0.6041447884927313 1.604619215278547e-17 -0.03373920692993147 -0.01381551962895804 1.051395257441742 1.734723475976807e-18 0 0 
-0.2499417286381141 -0.2960798294014727 -0.9516186135573583 0.7242827950170811 -0.07241536882242293 -0.1018242146127614 0.4567854486484622 0.8889640955276319 1.734723475976807e-18 -0.01499915244863642 0 
-0.1519810856263446 -0.1997755795350104 -0.4093985197280359 -0.08782328035929761 -0.006589920670864738 -0.03373920692993147 -0.04271142421159857 0.9017561630390311 1.734723475976807e-18 -8.673617379884035e-19 0 
-0.01452352714760344 -0.1997755795350104 -0.409398519728036 -0.6041447884927313 1.604619215278547e-17 -0.03373920692993147 -0.01381551962895804 1.051395257441742 1.734723475976807e-18 0 0 
-0.01452352714760344 -0.1997755795350104 -0.409398519728036 -0.6041447884927313 1.604619215278547e-17 -0.03373920692993147 -0.01381551962895804 1.051395257441742 1.734723475976807e-18 0 0 
-0.01452352714760344 -0.1997755795350104 -0.409398519728036 -0.6041447884927313 1.604619215278547e-17 -0.03373920692993147 -0.01381551962895804 1.051395257441742 1.734723475976807e-18 0 0 
-0.01452352714760344 -0.1997755795350104 -0.409398519728036 -0.6041447884927313 1.604619215278547e-17 -0.03373920692993147 -0.01381551962895804 1.051395257441742 1.734723475976807e-18 0 0 
-0.009023902045340709 -0.1521125382916721 0.4947910802191974 -0.3019254153722875 -0.02577965912358042 -0.001015170709482905 1.734723475976807e-18 -0.008168592853558273 4.336808689942018e-19 0.0514621184645405 0 
-0.02247544834560701 -0.008004760413376777 0.132461864224903 -0.05568721572897378 0 0.008492303476542503 0.0255611471319899 0.0141621221046249 0 0 0 
0.000345588329782174 0.1823819560721087 0.1630162934375075 -0.2332514424788562 0.006993602428610377 -0.05528752578742092 -0.003587136795709571 0.006253512030718217 -0.03835011681541375 -0.08081555671070328 0.003872146639273715 
0 0 -0.3843615900500411 0.8099649415595847 -0.04499463984460009 -0.002136897753411721 -0.4148494550731472 0 0 -0.08027880833635509 0 
