solver_type L2R_L2LOSS_SVC_DUAL
nr_class 11
label 1 2 3 4 5 6 7 8 9 10 11
nr_feature 1712
bias -1
w
0.3119815647670851 -0.02919452006619156 -0.06372099098353468 -0.03475647966572584 -0.03610604525104309 -0.130034511822936 0 0 0 -0.01288769656587849 -0.01410762773844565 
0.04229852309063864 -0.02090738963242093 -0.4303604720549879 0.5257759280173934 0.2018371989887848 -0.3101783417964684 -0.2182618951926589 -0.1314575456077058 -0.04440911167203745 -0.02667276907998991 -0.2209021937209693 
0.5479395670904359 -0.07445975638491581 -0.4042639733281811 -0.05093112346742241 0.03704911968525248 -0.2031331061230346 0.01477461468640812 -0.06464949779730716 -0.00830848278348134 0.2031627409823771 0.0827040793624249 
0.1228569572413409 -0.2841200163118489 0.1639546068704388 -0.02171907270948172 -0.2379828600311914 0.6039281800854754 -0.4119133813861751 -0.1445888683005955 -0.06024225137052927 0.1021646010945263 0.02566163886165786 
0.6634720247155429 0.04531744392033747 -0.08739265021819309 -0.4568270912656391 -0.03229411738075604 0.0123646126225267 -0.1586871127276288 -0.01204834066307076 -0.005104550482447511 -0.101662895538051 0.1720077512721098 
0.1516522757190536 -0.06749391257524814 -0.322626981127782 -0.2857166052236073 -0.2368730339885787 0.7501863828558457 -0.008160638316187204 -0.02841911432863587 -0.01571553111463005 -0.03954337092755902 -0.0398283499688528 
0.09395585129434075 -0.1223671049193176 0.1400924596133092 -0.1990389748053859 0.1854608206135569 0.159945677853855 -0.07669103978573075 -0.01204834066307076 0 -0.08047444089787424 -0.11212354707049 
0.3119815647670851 -0.02919452006619156 -0.06372099098353468 -0.03475647966572584 -0.03610604525104309 -0.130034511822936 0 0 0 -0.01288769656587849 -0.01410762773844565 
0.3119815647670851 -0.02919452006619156 -0.06372099098353468 -0.03475647966572584 -0.03610604525104309 -0.130034511822936 0 0 0 -0.01288769656587849 -0.01410762773844565 
0.3119815647670851 -0.02919452006619156 -0.06372099098353468 -0.03475647966572584 -0.03610604525104309 -0.130034511822936 0 0 0 -0.01288769656587849 -0.01410762773844565 
-0.1529325778940034 -0.3882869508022063 0.08715119521673098 -0.06854592018869191 -0.1091013055646564 -0.1085901758995582 -0.180696864715143 -0.1601532700505977 -0.1779088667618154 -0.1707506493248722 -0.1944688633548979 
-0.174146382017844 -0.1416989225594214 -0.04488523987689043 -0.1199202833801621 -0.1336778059144026 -0.1085901758995582 -0.2155434641477174 -0.1750213159793108 -0.1779088667618154 -0.174535159966558 -0.1970595272158074 
0.9764000469125966 -0.1425727265998679 -0.194070055570062 -0.1441933502006505 -0.2005989173910622 -0.1429930426942865 -0.06966435119447463 3.469446951953614e-18 -5.421010862427522e-20 -0.01318642211840712 -0.08418261025025049 
0.3119815647670851 -0.02919452006619156 -0.06372099098353468 -0.03475647966572584 -0.03610604525104309 -0.130034511822936 0 0 0 -0.01288769656587849 -0.01410762773844565 
0.3119815647670851 -0.02919452006619156 -0.06372099098353468 -0.03475647966572584 -0.03610604525104309 -0.130034511822936 0 0 0 -0.01288769656587849 -0.01410762773844565 
0.5919950422825275 0.07130754346530757 0.1330961352057491 0.0896098694393079 -0.2517007556054764 -0.4177288278346664 -0.08021304875573755 -0.1051032938894834 -0.04942120721943707 -0.02928265947568219 -0.136575218865887 
-0.003183435742569054 -0.003804021194080587 0.004528262409556166 -0.00471674653497121 -0.001861971331137291 -0.001461680597757233 -0.001273537153294156 -0.002164981995519967 -0.002007399128784978 -0.002420223781829847 -0.002166028726548833 
-3.720690872342033e-05 -9.415002256098403e-05 6.928852997484673e-05 -3.353659310921495e-05 1.74839732491396e-05 -3.907258656058487e-05 -2.877361372880744e-05 -2.85156362451216e-05 -2.4193860934677e-05 -2.854902756305041e-05 -2.884613013068965e-05 
-0.3475805675593197 -0.3184820255532808 -0.4141772391259574 -0.2044429529879648 -0.1632825869696758 -0.1722112018830063 -0.426443700548212 -0.335424458524592 -0.3863714765076542 -0.3730846028038353 -0.4097178887995079 
-0.03628700189493495 -1.071532503361648 -0.5938848698999796 -0.09490004157709907 -0.2294821385262292 0.2958959744162947 -0.1261907008044476 -0.2750347339943322 -0.3175167347770022 -0.2917326141137836 -0.2232519060621272 
-0.3529847266446196 0.5676250601172801 0.3179453110356665 -0.01963346489676734 -0.0905876840782279 -0.4931093197006327 -0.381668674391387 -0.09592992080130563 -0.07008935415493381 -0.1097154094989257 -0.2396167796366981 
-0.1666666184523574 0.1989819026977667 0.3047991312616313 0.03937867901974842 -0.07447386007868599 -0.299271916390063 -0.1322350280067444 -0.06515166481143332 -0.04309272115985272 -0.03117994909206003 -0.07196785763790806 
-0.617577619888572 -0.1531552156710115 0.4197475654587359 -0.2573926973275157 -0.4977653037932748 -0.6465048862347477 -0.6890327332574134 -0.4998165727873898 -0.4607099661996812 -0.4713302868123168 -0.5570745102838278 
-3.673777464206661e-05 -5.612745033431527e-05 4.365086551365478e-05 1.662966267665945e-06 9.107178400418632e-06 -6.148514585345511e-05 -4.84371651705778e-05 -2.975033435571017e-05 -2.539572117651006e-05 -2.723396637131402e-05 -3.548019675591909e-05 
0.01513257960172179 -0.01930935326913921 -0.05089367753805532 -0.01394283035045662 -0.01172484965009459 0.04692440266574753 0.02282696612447104 -0.002518889305499825 -0.0009880746094468151 -0.0007799263844457094 0.008580890310529573 
0.09204160949756467 -0.1024733751749329 -0.3171393885952632 -0.3307949670445816 0.3735323141430042 0.2239598569982738 -0.3760816425274922 -0.0875503664133717 -0.1105987807368789 -0.1050646802386193 -0.2868874667814678 
-0.001130215129303578 -0.00767589719269981 0.0003658605119378574 -0.002202489216389878 -0.001637845621910689 0.001442615320972732 0.0003407592059806783 -0.001496356573844595 -0.001485973309936301 -0.00187137389012203 -0.001108402056598365 
-0.0003941834048370654 -0.001618110897459048 0.001032883966551194 -0.0009271265563436802 -0.0007271971992074715 -0.001935075555498699 0.002334606048789069 -0.0002036561290087113 -0.0004477016236786222 -0.00035690693139249 0.0009212707842748292 
-1.307569658349057e-05 -2.153395732941026e-05 -1.122190286025371e-05 9.404915075143443e-06 -3.74421604239824e-06 -4.646229152347065e-06 2.857666776082555e-05 -6.322370696829377e-06 -5.548154736751601e-06 -2.631481941845358e-06 1.813974286437146e-06 
-0.091801895665029 -0.1475504722431724 -0.2632663400507658 0.09595600444038276 0.02147193060783032 0.04426690226245876 -0.07984611918780871 -0.1081387208222867 -0.05848754525196041 -0.04901796021462253 0.1940721531530425 
-0.08835104476455799 0.2100816079744866 -0.006071448871677506 0.2521994980651409 0.02979276874647968 -0.362261597214128 -0.251329213395 -0.2333109627037251 -0.04826664598225037 -0.06888667212292576 0.05757511688071726 
0.003639825096555928 -0.2845452989881034 0.07083017047798863 -0.4185641668786726 -0.1488820849778744 0.3065926376961317 0.418305665366202 0.09208037592994299 -0.03565014878096688 0.02152228338004665 0.007840036032604103 
-0.05442942740608812 0.01050266352672423 0.1824497335127757 -0.2051611454622872 -0.06668589953605239 0.1005936931935807 0.1431290263814698 -0.008185729565045437 -0.009061239120581318 0.001402197753465154 -0.08050087497475439 
-0.1941940659303198 -0.001413273089330367 0.114733249181602 -0.4417003005077682 -0.1803844136045747 0.158868618007084 0.4474012390914355 -0.1614866392347018 -0.0967538093025854 -0.06126064598050542 -0.05802500327355422 
-1.762793248803091e-05 -9.646775156237172e-06 -1.74680644534223e-05 -7.936437638391992e-06 -8.029916115384966e-06 2.74962629202213e-05 3.502095549921068e-05 -1.332995163672155e-05 -5.49021374397601e-06 -1.572816321732372e-06 -9.37273521578598e-06 
0.002091177364572934 0.01644216159843951 0.01431485576131453 0.02756215793289914 -0.006768305322268921 -0.02653151634986651 -0.009345937038121333 -0.004481172783237354 -0.001436560023849843 -0.003499316955879931 -0.01351448096392481 
-0.3511123308736595 0.4070106403490811 0.66939601046999 -0.2306233559768328 0.1276987900413847 -0.413665900665474 -0.1542305619946478 -0.260761627229157 -0.04041826913565737 0.02903013138611509 -0.06490824679494843 
-0.0002769278485093343 0.0001903252648004713 0.002275127841616732 0.0003473872180276592 -0.0004389845532354266 -0.004323173469409958 0.001410181296387078 -0.001108514390919827 -0.0003803683534071287 -0.0006369082237900224 0.0003222597752475757 
0.0002282619089048242 0.001329464354952635 0.001658060355352996 -0.002767592644011594 -0.001613233123278204 -0.0009391022038980708 0.0002421300670383669 0.000303003284209104 -8.138126364800998e-05 -0.0006230125611203953 -0.0004354246443181588 
-1.835291490016201e-05 1.969077158933088e-05 2.153720478494292e-05 -3.323590997287135e-05 -1.601942526670707e-05 9.146086874273741e-06 -1.264383530077397e-05 1.221695516728282e-05 8.681393719134465e-07 -5.767830185162816e-06 -6.513290113710594e-06 
0.03944718096730689 0.0839621825664373 -0.2084832623754063 0.1386484362255119 -0.06063426526349336 -0.1945067563099116 -0.04533265735654368 0.1057505787760762 -0.07955685042558451 -0.05055066863856079 -0.08254092873645079 
-0.2066410166448798 -0.242579560068843 0.07027921260338618 0.4084498592791019 -0.3448665052228891 -0.001350108392765407 -0.007431665378134893 0.0406638923258051 -0.06749944513008584 -0.03650173199124637 0.01383792731825713 
0.3525522012556577 0.1971460693041222 -0.0316101732037596 -0.6504606797436844 0.3975741462985977 -0.1839566202830783 0.03097802279769396 -0.04382629606031654 0.03384402201374952 -0.02462067949284399 -0.1576581278910343 
0.0535395768836136 0.2107152935966646 -0.1439478136190846 -0.1103032860656247 -0.1169273822708385 0.04669716848950101 0.03656227255304535 0.01638186008092499 0.008197753984427927 -0.009246042203271441 -0.02489542774857209 
0.08571446803392999 0.2374046704813475 -0.1732375012985811 -0.4242466017078103 -0.02447912106565308 -0.04217412567902896 0.01964527002424939 -0.03282034760226709 0.005805839119154386 -0.07743017269950135 -0.08198234960375853 
-1.658349855303807e-05 1.342897834674227e-05 5.783749400313318e-07 -2.297015894606739e-05 3.166697523295027e-06 1.534970463376752e-05 -1.30835588468217e-05 6.163808073086071e-06 4.128564519348297e-07 -3.048606486802913e-06 -9.250966263473373e-06 
-0.01923281347837454 -0.008018028456419119 0.02258874581371476 -0.004372317784538886 -0.003128278397384849 -0.00340199447179297 0.002103019963489766 0.004153801277018047 0.004042925661424245 -0.0006836369149831823 0.002645359860656597 
0.02347839674777598 -0.1125871342125819 -0.4228270284466266 -0.06487893010686048 -0.08927467801938663 0.07259597875864485 0.3328214221821502 0.1106776946578763 -0.05347324723421785 -0.003795303887676805 0.1290052790587666 
-0.00173590170420698 6.381711209057563e-05 0.003327595515480898 -0.001294696320048732 -0.002755672477268952 -0.00029744363273889 0.0003443035503153537 0.0001142679793680631 -0.0002234972122546211 -0.0005136746339225859 0.0002907840118289482 
-0.02785387940179061 0.3875059762526988 -0.2400896311603797 -0.05528324000849145 -0.06952385764629725 -0.01489578023462242 0 -0.05849287888736068 -0.0362411053979081 -0.006846920571849942 0 
-0.2164449051084825 -0.1207915329270005 0.3854752321780983 -0.6456962113975554 -0.3355150049031881 0.2015881658969112 0.002718431044941569 -0.04356377037160478 -0.1334997550897777 -0.1478623908865683 0.02384266650516153 
-0.1616309343590343 0.2909156792504602 -0.30935685314117 -0.160464617014674 -0.1572013113005064 -0.1631966503427514 -0.01724674258415524 0.2357815357352831 0.305656784431419 -0.01458985906264065 0 
-0.2587113245758186 0.5282689228038278 0.1577555716985678 -0.1443311607752152 0.2229170475323605 -0.3908978406658726 -0.06912787991941446 -0.1862875565681786 -0.08992030993468902 -0.06000981459344917 -0.04920506774518645 
-0.02785387940179061 0.3875059762526988 -0.2400896311603797 -0.05528324000849145 -0.06952385764629725 -0.01489578023462242 0 -0.05849287888736068 -0.0362411053979081 -0.006846920571849942 0 
-0.08681861870803911 0.4856242499170489 -0.0833541636276309 -0.1963695746279329 -0.1808961352678269 -0.0478462448433212 -0.004009524677224081 -0.09641057265441372 -0.04966767462906402 -0.01385580759890054 0 
-0.02785387940179061 0.3875059762526988 -0.2400896311603797 -0.05528324000849145 -0.06952385764629725 -0.01489578023462242 0 -0.05849287888736068 -0.0362411053979081 -0.006846920571849942 0 
-0.02785387940179061 0.3875059762526988 -0.2400896311603797 -0.05528324000849145 -0.06952385764629725 -0.01489578023462242 0 -0.05849287888736068 -0.0362411053979081 -0.006846920571849942 0 
-0.02785387940179061 0.3875059762526988 -0.2400896311603797 -0.05528324000849145 -0.06952385764629725 -0.01489578023462242 0 -0.05849287888736068 -0.0362411053979081 -0.006846920571849942 0 
-0.02785387940179061 0.3875059762526988 -0.2400896311603797 -0.05528324000849145 -0.06952385764629725 -0.01489578023462242 0 -0.05849287888736068 -0.0362411053979081 -0.006846920571849942 0 
-0.1074670123397717 -0.1602075154411632 -0.06717164529148405 -0.05530507302317607 -0.1020385304603665 -0.08769516241941411 -0.2604955632724982 -0.1015992224585589 -0.144894190709479 -0.1486149494407834 -0.2159160471693136 
0.2346055174270652 -0.2083239677307183 -0.8674458635134064 -0.003907972956968825 0.310683190001329 0.05225404021247693 -0.01679581475602724 -0.1440125945898798 0.1035625896584532 -0.1688933842590835 0.1280623999539687 
-0.187482445437901 -0.1713556750671034 0.01685234940488714 -0.08771175177350329 -0.08886842903359116 -0.06509411485436073 -0.223792524118601 -0.193592758118228 -0.1595792899500036 -0.1480814207787496 -0.1703651350526547 
0.4949398992681113 0.4044698083433854 0.0007312100066654038 -0.412169399665208 -0.2032036168112908 -0.5762973684412623 -0.2339607650008783 0.3534166425810736 -0.2870657186686489 -0.1709678943267104 -0.3100430065931056 
-0.02893624605539035 -0.0448435828951406 0.3571907009365665 -0.08118634400616657 -0.07591060165766249 -0.08374054856988315 0 -0.03345877474682985 -0.0148618923462512 -0.01873793035500047 0 
-0.1657589469768152 -0.07183356740735311 0.01077643766916307 0.09622511491730579 -0.1810250687369027 0.34219718272233 0.22495638703148 -0.1294149594404098 -0.05287971392761413 -0.02321447019693141 -0.1156710171450532 
-0.02893624605539035 -0.0448435828951406 0.3571907009365665 -0.08118634400616657 -0.07591060165766249 -0.08374054856988315 0 -0.03345877474682985 -0.0148618923462512 -0.01873793035500047 0 
-0.100600978602798 -0.2579778549310371 0.3092717384098694 0.1100179074751848 0.4753296603188079 -0.3430515958225513 -0.0360252054695831 -0.08987698391376478 -0.04025263530562502 -0.03584151329456776 -0.02750160924723404 
-0.02893624605539035 -0.0448435828951406 0.3571907009365665 -0.08118634400616657 -0.07591060165766249 -0.08374054856988315 0 -0.03345877474682985 -0.0148618923462512 -0.01873793035500047 0 
-0.02893624605539035 -0.0448435828951406 0.3571907009365665 -0.08118634400616657 -0.07591060165766249 -0.08374054856988315 0 -0.03345877474682985 -0.0148618923462512 -0.01873793035500047 0 
-0.02893624605539035 -0.0448435828951406 0.3571907009365665 -0.08118634400616657 -0.07591060165766249 -0.08374054856988315 0 -0.03345877474682985 -0.0148618923462512 -0.01873793035500047 0 
-0.02893624605539035 -0.0448435828951406 0.3571907009365665 -0.08118634400616657 -0.07591060165766249 -0.08374054856988315 0 -0.03345877474682985 -0.0148618923462512 -0.01873793035500047 0 
-0.02893624605539035 -0.0448435828951406 0.3571907009365665 -0.08118634400616657 -0.07591060165766249 -0.08374054856988315 0 -0.03345877474682985 -0.0148618923462512 -0.01873793035500047 0 
-0.03600800908099096 -0.06332933400026011 0.1761652497289827 -0.1901575440717757 -0.2076298960227874 0.1389026879087967 -0.1299110697621892 -0.03345877474682985 -0.0148618923462512 0.3490979239808359 -0.01751148949961136 
-0.00261310228794184 -0.08345735212348566 0.1469163060678028 -0.0486003255772221 -0.01980199498485598 -0.01119188202745013 0 0 0 -0.005966262417935036 -0.01962444567523598 
-0.00261310228794184 -0.08345735212348566 0.1469163060678028 -0.0486003255772221 -0.01980199498485598 -0.01119188202745013 0 0 0 -0.005966262417935036 -0.01962444567523598 
0.3294704168088824 -0.1542168511657356 0.4090955483141495 -0.1818428770211095 -0.119783359086854 -0.1038676929419158 -0.1025356436494422 -0.01805940714688741 0 -0.006839500606401978 -0.05758490894585462 
-0.00261310228794184 -0.08345735212348566 0.1469163060678028 -0.0486003255772221 -0.01980199498485598 -0.01119188202745013 0 0 0 -0.005966262417935036 -0.01962444567523598 
-0.00261310228794184 -0.08345735212348566 0.1469163060678028 -0.0486003255772221 -0.01980199498485598 -0.01119188202745013 0 0 0 -0.005966262417935036 -0.01962444567523598 
-0.00261310228794184 -0.08345735212348566 0.1469163060678028 -0.0486003255772221 -0.01980199498485598 -0.01119188202745013 0 0 0 -0.005966262417935036 -0.01962444567523598 
-0.00261310228794184 -0.08345735212348566 0.1469163060678028 -0.0486003255772221 -0.01980199498485598 -0.01119188202745013 0 0 0 -0.005966262417935036 -0.01962444567523598 
-0.00261310228794184 -0.08345735212348566 0.1469163060678028 -0.0486003255772221 -0.01980199498485598 -0.01119188202745013 0 0 0 -0.005966262417935036 -0.01962444567523598 
-0.00261310228794184 -0.08345735212348566 0.1469163060678028 -0.0486003255772221 -0.01980199498485598 -0.01119188202745013 0 0 0 -0.005966262417935036 -0.01962444567523598 
-0.05399648672148772 -0.2204281213181055 0.5246317814714145 0.2049258447423039 -0.1489069752189358 -0.1466334344908926 -0.0198701582111232 -0.01925562309039991 1.084202172485504e-18 -0.01515325187823636 -0.09207902995779289 
-0.00261310228794184 -0.08345735212348566 0.1469163060678028 -0.0486003255772221 -0.01980199498485598 -0.01119188202745013 0 0 0 -0.005966262417935036 -0.01962444567523598 
0.579174076876327 -0.03813588537096995 -0.1201256908929732 -0.08898007531636921 -0.1870043354175527 -0.0631587024629697 -0.06601396143953588 0 -0.01769575368775701 -0.002556216029637012 1.734723475976807e-18 
0.2308629950581317 -0.1380350970408164 0.08125260400906367 -0.1619919941121723 -0.1364331984866895 0.3113928381290602 0.03381920018082113 -0.02730189478595873 -0.01771721751016889 -0.04828521228440689 -0.1640450797658636 
0.2116849988593436 0.2406469284800831 -0.390004167729912 0.3996408403796445 -0.234381629465305 -0.4122863320961247 0.1041452987464138 -0.2145038919677041 0.3748230692649436 -0.06839209588679282 -0.2559386422568608 
0.4709559038134017 -0.06168462555839131 -0.4778318732854974 -0.2707617810733882 0.3572057173738289 0.1900562473751712 -0.1544868206377283 -0.01245857031191096 -0.01769575368775701 -0.01472605473888739 -0.01553778858382538 
0.7742099725958687 -0.2059670020688012 -0.05453977425406237 -0.472907928976174 0.03394591750427929 -0.2310380076383958 0.2553861004560645 -0.08508158212593943 -0.08942620433024577 -0.007225367475990257 -0.02478252459689898 
0.579174076876327 -0.03813588537096995 -0.1201256908929732 -0.08898007531636921 -0.1870043354175527 -0.0631587024629697 -0.06601396143953588 0 -0.01769575368775701 -0.002556216029637012 1.734723475976807e-18 
0.8716514125836372 -0.1695236573018173 -0.02978837470923254 -0.3467695991401595 0.07656942280995692 -0.2310380076383958 -0.1153508339526017 -0.08508158212593943 -0.07528539920547087 -0.005586006795178801 8.673617379884035e-19 
0.579174076876327 -0.03813588537096995 -0.1201256908929732 -0.08898007531636921 -0.1870043354175527 -0.0631587024629697 -0.06601396143953588 0 -0.01769575368775701 -0.002556216029637012 1.734723475976807e-18 
0.3049108418301134 -0.07654308924387447 -0.2120596971306457 -0.1784521331352381 0.2148065238178306 -0.0631587024629697 -0.06601396143953588 0 -0.02194711839080628 -0.005586006795178803 8.673617379884035e-19 
0.2825904739451602 -0.00393795397415064 -0.005573859281512752 -0.03280675174050489 -0.07273219942378201 -0.04718356167170337 -0.06601396143953588 0 -0.01769575368775701 0 0 
0.2825904739451602 -0.00393795397415064 -0.005573859281512752 -0.03280675174050489 -0.07273219942378201 -0.04718356167170337 -0.06601396143953588 0 -0.01769575368775701 0 0 
0.2185440311753966 -0.05620569125810287 0.3509693386598667 -0.1681569843314904 -0.07273219942378197 -0.1183711627704112 -0.07678898400442806 0 -0.01769575368775701 -0.01059364751312859 -0.02756384832476094 
0.3269836933144102 -0.02408328851054392 -0.05468717425584129 -0.01389827786710196 -0.04353536910568383 -0.075955958978768 -0.01907984955127604 -0.05133467145307976 -0.01410446784268533 0 0 
0.03679492503890744 -0.08269061420987875 0.1006105596484718 -0.2515018480243144 0.1332903715909217 0.320563946053647 -0.04114051825892107 -0.2217944625701954 -0.07175199625962039 -0.02421141111721714 -0.01627194648558286 
0.2577323726388012 -0.02408328851054392 -0.09353424778797331 -0.07856563825241739 -0.1187903221016705 0.2425439495496183 -0.03845022942869946 -0.1224229366470605 -0.02731780690691092 -0.01543071678965437 -0.005914871483081031 
0.3269836933144102 -0.02408328851054392 -0.05468717425584129 -0.01389827786710196 -0.04353536910568383 -0.075955958978768 -0.01907984955127604 -0.05133467145307976 -0.01410446784268533 0 0 
0.3269836933144102 -0.02408328851054392 -0.05468717425584129 -0.01389827786710196 -0.04353536910568383 -0.075955958978768 -0.01907984955127604 -0.05133467145307976 -0.01410446784268533 0 0 
0.3269836933144102 -0.02408328851054392 -0.05468717425584129 -0.01389827786710196 -0.04353536910568383 -0.075955958978768 -0.01907984955127604 -0.05133467145307976 -0.01410446784268533 0 0 
0.3269836933144102 -0.02408328851054392 -0.05468717425584129 -0.01389827786710196 -0.04353536910568383 -0.075955958978768 -0.01907984955127604 -0.05133467145307976 -0.01410446784268533 0 0 
0 -0.1006149040114568 0.2273787083375501 -0.07037870118428381 -0.04774297775904382 -0.003792041692107828 -0.01309324679672255 -0.007685700338423091 0 -0.01180447712681365 -0.006759295892390828 
-0.05212513977640701 -0.2810095469913433 0.883198472529944 -0.2153367447415871 -0.1285019507612213 -0.07058908899599033 -0.1088681038244914 -0.01079182606915289 0 -0.01696619071580041 -0.05124792135899577 
-0.1069030033114589 0.4934005770706743 -0.1261393767642797 -0.3297253634314257 -0.1640439253517775 -0.2235306717015759 0.2097192641079027 0.3264396898795601 -0.01768315002560867 -0.02099199731056428 -0.07061330879378235 
0 -0.1006149040114568 0.2273787083375501 -0.07037870118428381 -0.04774297775904382 -0.003792041692107828 -0.01309324679672255 -0.007685700338423091 0 -0.01180447712681365 -0.006759295892390828 
0 -0.1006149040114568 0.2273787083375501 -0.07037870118428381 -0.04774297775904382 -0.003792041692107828 -0.01309324679672255 -0.007685700338423091 0 -0.01180447712681365 -0.006759295892390828 
0 -0.1006149040114568 0.2273787083375501 -0.07037870118428381 -0.04774297775904382 -0.003792041692107828 -0.01309324679672255 -0.007685700338423091 0 -0.01180447712681365 -0.006759295892390828 
0 -0.1006149040114568 0.2273787083375501 -0.07037870118428381 -0.04774297775904382 -0.003792041692107828 -0.01309324679672255 -0.007685700338423091 0 -0.01180447712681365 -0.006759295892390828 
0 -0.1006149040114568 0.2273787083375501 -0.07037870118428381 -0.04774297775904382 -0.003792041692107828 -0.01309324679672255 -0.007685700338423091 0 -0.01180447712681365 -0.006759295892390828 
0 -0.1006149040114568 0.2273787083375501 -0.07037870118428381 -0.04774297775904382 -0.003792041692107828 -0.01309324679672255 -0.007685700338423091 0 -0.01180447712681365 -0.006759295892390828 
0 -0.1006149040114568 0.2273787083375501 -0.07037870118428381 -0.04774297775904382 -0.003792041692107828 -0.01309324679672255 -0.007685700338423091 0 -0.01180447712681365 -0.006759295892390828 
0 -0.1006149040114568 0.2273787083375501 -0.07037870118428381 -0.04774297775904382 -0.003792041692107828 -0.01309324679672255 -0.007685700338423091 0 -0.01180447712681365 -0.006759295892390828 
-0.09655395311562405 -0.03516309411043693 -0.1350054489636621 0.4105263576152658 -0.07928965639431443 -0.08068474345028435 0 -0.04142103690389078 -0.03903796611787323 -0.004255538588204691 0 
-0.09655395311562405 -0.03516309411043693 -0.1350054489636621 0.4105263576152658 -0.07928965639431443 -0.08068474345028435 0 -0.04142103690389078 -0.03903796611787323 -0.004255538588204691 0 
-0.09655395311562405 -0.03516309411043693 -0.1350054489636621 0.4105263576152658 -0.07928965639431443 -0.08068474345028435 0 -0.04142103690389078 -0.03903796611787323 -0.004255538588204691 0 
-0.09655395311562405 -0.03516309411043693 -0.1350054489636621 0.4105263576152658 -0.07928965639431443 -0.08068474345028435 0 -0.04142103690389078 -0.03903796611787323 -0.004255538588204691 0 
-0.09655395311562405 -0.03516309411043693 -0.1350054489636621 0.4105263576152658 -0.07928965639431443 -0.08068474345028435 0 -0.04142103690389078 -0.03903796611787323 -0.004255538588204691 0 
-0.09655395311562405 -0.03516309411043693 -0.1350054489636621 0.4105263576152658 -0.07928965639431443 -0.08068474345028435 0 -0.04142103690389078 -0.03903796611787323 -0.004255538588204691 0 
-0.09655395311562405 -0.03516309411043693 -0.1350054489636621 0.4105263576152658 -0.07928965639431443 -0.08068474345028435 0 -0.04142103690389078 -0.03903796611787323 -0.004255538588204691 0 
-0.09655395311562405 -0.03516309411043693 -0.1350054489636621 0.4105263576152658 -0.07928965639431443 -0.08068474345028435 0 -0.04142103690389078 -0.03903796611787323 -0.004255538588204691 0 
-0.06966798939360123 -0.009874263939368395 -0.1972228713648285 0.389265885331323 -0.06297555223052761 -0.05522033355954077 0 -0.04807544822150037 -0.01511083907832282 -0.004742169238969038 0 
-0.06966798939360123 -0.009874263939368395 -0.1972228713648285 0.389265885331323 -0.06297555223052761 -0.05522033355954077 0 -0.04807544822150037 -0.01511083907832282 -0.004742169238969038 0 
-0.009144284203447272 -0.3814571567503385 0.3084279252668236 0.3041257821579458 -0.1682313800577175 -0.4491525105426866 0.431708132522583 -0.09711379233196701 -0.03516246901958578 -0.06323521806835471 0.01655387752485694 
-0.06966798939360123 -0.009874263939368395 -0.1972228713648285 0.389265885331323 -0.06297555223052761 -0.05522033355954077 0 -0.04807544822150037 -0.01511083907832282 -0.004742169238969038 0 
-0.07663766191902809 -0.03356629353453927 -0.2601797695132228 0.6569848641744125 -0.08884897160530085 -0.05744374978968106 -0.05637320307679614 -0.04807544822150037 -0.01511083907832282 -0.004742169238969038 -0.07463297038931636 
-0.06966798939360123 -0.009874263939368395 -0.1972228713648285 0.389265885331323 -0.06297555223052761 -0.05522033355954077 0 -0.04807544822150037 -0.01511083907832282 -0.004742169238969038 0 
-0.06966798939360123 -0.009874263939368395 -0.1972228713648285 0.389265885331323 -0.06297555223052761 -0.05522033355954077 0 -0.04807544822150037 -0.01511083907832282 -0.004742169238969038 0 
-0.06966798939360123 -0.009874263939368395 -0.1972228713648285 0.389265885331323 -0.06297555223052761 -0.05522033355954077 0 -0.04807544822150037 -0.01511083907832282 -0.004742169238969038 0 
-0.06966798939360123 -0.009874263939368395 -0.1972228713648285 0.389265885331323 -0.06297555223052761 -0.05522033355954077 0 -0.04807544822150037 -0.01511083907832282 -0.004742169238969038 0 
-0.2742632350462137 -0.03840720387290449 -0.09193400623767271 -0.08947205781886892 0.4018108592353833 0 0 0 -0.004251364703049274 -0.003029790765541791 0 
0.002063181074579881 -0.2244131718255041 -0.1554395293617522 0.5603325713507001 0.3843232609040858 -0.2683446321166803 -0.2524660079002787 -0.02512822420843415 -0.007992994872066932 -0.0832483860695744 -0.1192931648468417 
0.1314648106660405 -0.08510617878089061 -0.3611368604912546 -0.3998850572087128 0.8837815697549796 -0.1380802493028376 -0.05454750730836824 -0.01821408409313949 -0.004251364703049274 -0.02126595676956076 -0.02267156634719006 
0.1675295274322626 -0.06225991508003054 -0.1508313125064588 -0.176375984979019 0.2442149227504709 -0.0751505924580273 2.168404344971009e-19 0 -0.004251364703049274 -0.008899177355704398 -0.01029370415041704 
0.1675295274322626 -0.06225991508003054 -0.1508313125064588 -0.176375984979019 0.2442149227504709 -0.0751505924580273 2.168404344971009e-19 0 -0.004251364703049274 -0.008899177355704398 -0.01029370415041704 
-0.2742632350462137 -0.07089500283655356 -0.2133266242637787 0.172166855796518 0.3614880697110787 -0.01670337377475761 -0.04007767920453324 0 -0.004251364703049274 -0.004370885917357448 -0.01544043585231664 
-0.2742632350462137 -0.03840720387290449 -0.09193400623767271 -0.08947205781886892 0.4018108592353833 0 0 0 -0.004251364703049274 -0.003029790765541791 0 
0.2965836029311669 -0.03419793139681931 -0.1145518316114604 -0.05617332357586433 -0.1142721359937707 -0.01597514079126637 0 0 0 -0.002556216029637012 0 
0.2965836029311669 -0.03419793139681931 -0.1145518316114604 -0.05617332357586433 -0.1142721359937707 -0.01597514079126637 0 0 0 -0.002556216029637012 0 
-0.05450069085992221 0 -0.1328018856777821 -0.1583145451489199 -0.07103725276769683 0.3699330355400504 0 0 0 -0.01115852361847709 -0.01021869016700716 
-0.069308764492093 -0.1373007236687068 0.0345025134781898 0.2568891505761325 -0.3180606669159951 0.2839340655155507 -0.05484285305842598 -0.006914140115294662 0 -0.01239855063971056 -0.03565901523535467 
-0.05450069085992221 0 -0.1328018856777821 -0.1583145451489199 -0.07103725276769683 0.3699330355400504 0 0 0 -0.01115852361847709 -0.01021869016700716 
-0.05450069085992221 0 -0.1328018856777821 -0.1583145451489199 -0.07103725276769683 0.3699330355400504 0 0 0 -0.01115852361847709 -0.01021869016700716 
-0.05450069085992221 0 -0.1328018856777821 -0.1583145451489199 -0.07103725276769683 0.3699330355400504 0 0 0 -0.01115852361847709 -0.01021869016700716 
-0.05450069085992221 0 -0.1328018856777821 -0.1583145451489199 -0.07103725276769683 0.3699330355400504 0 0 0 -0.01115852361847709 -0.01021869016700716 
-0.05450069085992221 0 -0.1328018856777821 -0.1583145451489199 -0.07103725276769683 0.3699330355400504 0 0 0 -0.01115852361847709 -0.01021869016700716 
-0.05450069085992221 0 -0.1328018856777821 -0.1583145451489199 -0.07103725276769683 0.3699330355400504 0 0 0 -0.01115852361847709 -0.01021869016700716 
-0.03620456687803015 0 0.3528623856008682 -0.2157105491075658 -0.07933262552881397 -0.05522815155672586 -0.003693552516683151 0 0 -0.006759198616078311 0 
-0.1176712048214248 -0.2103560155980713 0.02823802622106082 0.6393521599969227 0.03986308749385276 -0.1683418541320907 -0.1566037698593472 2.222614453595284e-18 -0.007460871271789893 -0.01941095330432412 -0.08780744927460779 
-0.04435601208514511 -0.05019445848128901 0.2635250634040298 -0.2900707888384817 -0.09269873146985892 -0.1134270197797721 0.3433791953708253 -0.008023766173568063 -2.146382241187785e-05 -0.009367021733808743 -0.02380807289040243 
-0.1176712048214248 -0.2103560155980713 0.02823802622106082 0.6393521599969227 0.03986308749385276 -0.1683418541320907 -0.1566037698593472 2.222614453595284e-18 -0.007460871271789893 -0.01941095330432412 -0.08780744927460779 
-0.03620456687803015 0 0.3528623856008682 -0.2157105491075658 -0.07933262552881397 -0.05522815155672586 -0.003693552516683151 0 0 -0.006759198616078311 0 
-0.05544791108520833 -0.145319646935374 0.207293517315221 0.519377305138007 -0.2817325838776603 -0.1347487242345259 -0.1030617737229185 -1.24683249835833e-18 -0.00320393230103381 -0.01941095330432411 -0.06032138557016244 
-0.03620456687803015 0 0.3528623856008682 -0.2157105491075658 -0.07933262552881397 -0.05522815155672586 -0.003693552516683151 0 0 -0.006759198616078311 0 
-0.03620456687803015 0 0.3528623856008682 -0.2157105491075658 -0.07933262552881397 -0.05522815155672586 -0.003693552516683151 0 0 -0.006759198616078311 0 
-0.03620456687803015 0 0.3528623856008682 -0.2157105491075658 -0.07933262552881397 -0.05522815155672586 -0.003693552516683151 0 0 -0.006759198616078311 0 
-0.03620456687803015 0 0.3528623856008682 -0.2157105491075658 -0.07933262552881397 -0.05522815155672586 -0.003693552516683151 0 0 -0.006759198616078311 0 
0 -0.09319650880250246 0.2508497111637018 -0.04380547669960796 -0.06095040297347233 -0.04002973062597923 -0.02513436955011791 0 0 0 -0.01224159862860335 
-0.09316516147520981 0.339836895542674 0.05763921350573781 -0.1844856420460237 -0.1073273280002108 0.1595147013849312 -0.074722820413723 -0.06977266747952274 -0.02088549898406541 -0.008712498393837913 -0.08443098985026271 
-0.02300609573591883 0.339836895542674 0.1504700918067903 -0.1168032742505885 -0.06095040297347233 -0.1575843713766807 -0.074722820413723 0 -0.002038051296684822 0 -0.07884222846499947 
0 -0.09319650880250246 0.2508497111637018 -0.04380547669960796 -0.06095040297347233 -0.04002973062597923 -0.02513436955011791 0 0 0 -0.01224159862860335 
0 -0.1425353289736926 0.1679941784636894 0.2899138942320286 -0.1750415497963944 -0.06275922452147606 -0.03566543044671372 0 0 0 -0.02603876767617468 
0 -0.09319650880250246 0.2508497111637018 -0.04380547669960796 -0.06095040297347233 -0.04002973062597923 -0.02513436955011791 0 0 0 -0.01224159862860335 
0 -0.09319650880250246 0.2508497111637018 -0.04380547669960796 -0.06095040297347233 -0.04002973062597923 -0.02513436955011791 0 0 0 -0.01224159862860335 
-0.01530855950619475 -0.2719977426110669 1.095656164442424 -0.2686216911184758 -0.1575724100403013 -0.1417566033200233 -0.1838574909823995 -0.02194169493201933 -0.01872818452514356 -0.01343822485136634 -0.1081426728151225 
0 0.2583583078571123 0.1488799700613979 -0.1033189259722245 -0.1176611227950353 -0.1353995190786771 -0.04959426659263413 -0.006158374201002423 0 -0.00408829347292322 -0.01854666611138951 
-0.0132672628071851 -0.1301880485122739 0.05906072097691796 0.1022967361877898 -0.1066169869138651 0.1855305787296957 -0.03420761158769553 -0.001838564193134107 0 -0.008818460515253729 -0.07438277080667824 
-0.1643945297114914 -0.1941950290401243 0.4183353600279754 -0.004593437117136185 0.3045300097041357 -0.224924048952842 -0.07113082654178375 -0.04342509493846656 -0.02533046473172007 -0.008021661715989923 -0.04604910644377644 
-0.00175138325611707 0.3604042207090754 -0.166750021428119 -0.08513718632348025 -0.01442381420853675 -0.03283377725822698 -0.04282772047317982 0 0 -0.002857529573364157 -0.001686898088387692 
-0.1453209729014271 0.1335795059736009 0.1635088883433016 -0.03453261529429159 -0.1917039761228773 -0.01334412959814128 0.186557830229459 -0.08714967429965213 -0.03358477028901055 -0.01587445645878828 -0.05535913192903285 
-0.08222929278554528 0.1052484765813186 0.2104679100721505 0.2901099855745728 -0.1703071327955806 -0.2518490951155592 -0.06060414160224009 -0.006819558300479691 3.469446951953614e-18 -0.01284936158459136 -0.06356660125683093 
-0.00175138325611707 0.3604042207090754 -0.166750021428119 -0.08513718632348025 -0.01442381420853675 -0.03283377725822698 -0.04282772047317982 0 0 -0.002857529573364157 -0.001686898088387692 
-0.01826198915846551 0.272297854916915 0.153388701726145 -0.1860141779692734 -0.07099454170755493 -0.09470330347735095 -0.04282772047317982 0 0 -0.006906376274281794 -0.002269448571750118 
-0.00175138325611707 0.3604042207090754 -0.166750021428119 -0.08513718632348025 -0.01442381420853675 -0.03283377725822698 -0.04282772047317982 0 0 -0.002857529573364157 -0.001686898088387692 
-0.00175138325611707 0.3604042207090754 -0.166750021428119 -0.08513718632348025 -0.01442381420853675 -0.03283377725822698 -0.04282772047317982 0 0 -0.002857529573364157 -0.001686898088387692 
-0.00175138325611707 0.3604042207090754 -0.166750021428119 -0.08513718632348025 -0.01442381420853675 -0.03283377725822698 -0.04282772047317982 0 0 -0.002857529573364157 -0.001686898088387692 
-0.02193794865811739 0.6835243334135523 -0.2629932582848915 -0.1535771591851685 -0.02919207224340145 -0.03283377725822698 -0.1128052908658997 -0.02723760795389309 0 -0.002857529573364157 -0.001686898088387692 
-0.00175138325611707 0.3604042207090754 -0.166750021428119 -0.08513718632348025 -0.01442381420853675 -0.03283377725822698 -0.04282772047317982 0 0 -0.002857529573364157 -0.001686898088387692 
-0.00175138325611707 0.3604042207090754 -0.166750021428119 -0.08513718632348025 -0.01442381420853675 -0.03283377725822698 -0.04282772047317982 0 0 -0.002857529573364157 -0.001686898088387692 
-0.0417116277508779 0.1551694464271042 0.3005290498050346 -0.06344535654871586 -0.149484295558478 -0.0811165018845581 -0.0889854054284599 0 -0.0002840311362279605 -0.007688708415974233 -0.02419266512475581 
-0.007997631954572435 -0.0431619110242096 -0.07334666336598721 -0.05079829296499141 -0.009726984115859514 -0.06871722365935114 0.284141587272372 0 0 -0.002931315007903024 -0.03072843775307468 
-0.1184798593055109 0.1174590948472953 -0.2655621890157342 -0.3320546887887799 -0.298894159984664 0.5117747300723512 0.2854782737016612 -0.01945174740265086 -0.04396898764173671 -0.03312808328520774 0.1789782108750348 
-0.007997631954572433 -0.05042467959535612 -0.1321736859644617 -0.1360150832666481 -0.05569019981008046 -0.1353745361989466 0.5916067231954599 -0.01761318320951676 7.284483346386983e-20 -0.01750327413731945 -0.06205929647554815 
-0.007997631954572435 -0.0720522557952947 0.2045398464842846 -0.1838752564154816 -0.009995484844326306 -0.07726909093417286 0.1982471245349436 3.469446951953614e-18 0 -0.002931315007903024 -0.05253861106203017 
-0.007997631954572435 -0.0431619110242096 -0.07334666336598721 -0.05079829296499141 -0.009726984115859514 -0.06871722365935114 0.284141587272372 0 0 -0.002931315007903024 -0.03072843775307468 
-0.007997631954572435 -0.0431619110242096 -0.07334666336598721 -0.05079829296499141 -0.009726984115859514 -0.06871722365935114 0.284141587272372 0 0 -0.002931315007903024 -0.03072843775307468 
-0.007997631954572435 -0.0431619110242096 -0.07334666336598721 -0.05079829296499141 -0.009726984115859514 -0.06871722365935114 0.284141587272372 0 0 -0.002931315007903024 -0.03072843775307468 
-0.007997631954572435 -0.0431619110242096 -0.07334666336598721 -0.05079829296499141 -0.009726984115859514 -0.06871722365935114 0.284141587272372 0 0 -0.002931315007903024 -0.03072843775307468 
-0.007997631954572435 -0.0431619110242096 -0.07334666336598721 -0.05079829296499141 -0.009726984115859514 -0.06871722365935114 0.284141587272372 0 0 -0.002931315007903024 -0.03072843775307468 
-0.04258941871148336 0.6030763051204205 -0.2927733534379183 -0.2844520233554178 -0.1215163956165281 -0.2224916784794825 0.4593636032805176 -0.03248846848485872 -0.01530939370066169 -0.01004280452118365 -0.07503948629805059 
-0.007997631954572435 -0.0431619110242096 -0.07334666336598721 -0.05079829296499141 -0.009726984115859514 -0.06871722365935114 0.284141587272372 0 0 -0.002931315007903024 -0.03072843775307468 
-0.007997631954572435 -0.0431619110242096 -0.07334666336598721 -0.05079829296499141 -0.009726984115859514 -0.06871722365935114 0.284141587272372 0 0 -0.002931315007903024 -0.03072843775307468 
-0.03433624238503494 -0.02504523255115692 0.2902019328951544 -0.1397524795873745 -0.01823979394397047 -0.06377737083547726 0 0 0 -0.0082896335274523 -0.02117974636139008 
-0.09523991481763046 -0.09349734726869438 0.426200380508575 0.1888164478934915 -0.03326717228678002 -0.1846645486857682 -0.205022516938817 8.673617379884035e-19 -0.01559342483688966 -0.02884458580956351 -0.1219761561964994 
-0.06753703176368998 0.1860254071328669 0.3188411224856088 -0.09816496665858018 -0.06800341255957933 -0.1316273492960695 -0.07985859541321987 0 -0.01530939370066169 -0.01421532870854674 -0.05150051142728732 
0.3071259446286448 -0.131892599381885 0.1534699193456256 -0.2372797064294825 -0.07966646967116638 -0.1856158136659354 -0.0277115348489681 0 1.734723475976807e-18 -0.01846840528680865 0.2821206119357031 
-0.03433624238503494 -0.0743858146744095 0.1692918405559127 0.1193228868396763 -0.0266075135880114 -0.1052829393515089 -0.01370975766979547 0 0 -0.009618603964449496 -0.04533606266940541 
-0.03433624238503494 -0.02504523255115692 0.2902019328951544 -0.1397524795873745 -0.01823979394397047 -0.06377737083547726 0 0 0 -0.0082896335274523 -0.02117974636139008 
-0.03433624238503494 -0.02504523255115692 0.2902019328951544 -0.1397524795873745 -0.01823979394397047 -0.06377737083547726 0 0 0 -0.0082896335274523 -0.02117974636139008 
-0.03433624238503494 -0.02504523255115692 0.2902019328951544 -0.1397524795873745 -0.01823979394397047 -0.06377737083547726 0 0 0 -0.0082896335274523 -0.02117974636139008 
-0.03433624238503494 -0.02504523255115692 0.2902019328951544 -0.1397524795873745 -0.01823979394397047 -0.06377737083547726 0 0 0 -0.0082896335274523 -0.02117974636139008 
-0.03433624238503494 -0.02504523255115692 0.2902019328951544 -0.1397524795873745 -0.01823979394397047 -0.06377737083547726 0 0 0 -0.0082896335274523 -0.02117974636139008 
0.04755227679557699 -0.1106160756763555 0.6149992227446401 -0.1701792236270547 -0.1606337050374015 0.162073955395678 -0.1900655388941458 -0.09375897276504083 -0.05877494568991149 -0.02641624231345112 -0.1391230508164561 
-0.07755063148159248 0 -0.05018337233139661 -0.03341238537290415 -0.07656983010067285 0.2303847488786558 0 -0.02841911432863587 -0.01571553111463005 -0.007059179750158945 -0.003644700273026466 
-0.2261464296243419 -0.03603318281357192 -0.2499729497173399 -0.3045109440804312 0.8310855134248967 0.2221063462991517 -0.05350288460185616 -0.2435855545115398 -0.07181311357838456 -0.04432320879743881 -0.06238924857372369 
-0.1029286028336544 0 -0.1259729199510793 -0.1358153773594331 -0.1236479065906595 0.5778115718201269 -0.02064054446623582 -0.1002877608150277 -0.02733521022576856 -0.007059179750158948 -0.02923190775453213 
-0.1029286028336544 0 -0.1259729199510793 -0.1358153773594331 -0.1236479065906595 0.5778115718201269 -0.02064054446623582 -0.1002877608150277 -0.02733521022576856 -0.007059179750158948 -0.02923190775453213 
-0.07755063148159248 0 -0.05018337233139661 -0.03341238537290415 -0.07656983010067285 0.2303847488786558 0 -0.02841911432863587 -0.01571553111463005 -0.007059179750158945 -0.003644700273026466 
-0.07755063148159248 0 -0.05018337233139661 -0.03341238537290415 -0.07656983010067285 0.2303847488786558 0 -0.02841911432863587 -0.01571553111463005 -0.007059179750158945 -0.003644700273026466 
-0.07755063148159248 0 -0.05018337233139661 -0.03341238537290415 -0.07656983010067285 0.2303847488786558 0 -0.02841911432863587 -0.01571553111463005 -0.007059179750158945 -0.003644700273026466 
-0.07755063148159248 0 -0.05018337233139661 -0.03341238537290415 -0.07656983010067285 0.2303847488786558 0 -0.02841911432863587 -0.01571553111463005 -0.007059179750158945 -0.003644700273026466 
-0.08201890657547632 -0.03884326294554507 0.1885239174592716 -0.03341238537290415 -0.1404800068518904 0.1409802713560029 -0.02210939904674869 -0.02841911432863587 -0.01571553111463005 -0.007059179750158947 -0.01725561422591494 
-0.02716129271923371 -0.04873278583382679 -0.01776426297156279 0.2596714484765256 -0.04988243859393658 -0.02266177929305984 -0.03277704725220088 0 -0.02376280326848114 0 -0.01148438905764946 
-0.02716129271923371 -0.08122058479747585 -0.1391568809976689 0.5213103620919125 -0.09020522811824114 -0.03936515306781745 -0.07285472645673413 0 -0.02376280326848114 -0.001341095151815657 -0.0269248249099661 
-0.02716129271923371 -0.04873278583382679 -0.01776426297156279 0.2596714484765256 -0.04988243859393658 -0.02266177929305984 -0.03277704725220088 0 -0.02376280326848114 0 -0.01148438905764946 
-0.02716129271923371 -0.04873278583382679 -0.01776426297156279 0.2596714484765256 -0.04988243859393658 -0.02266177929305984 -0.03277704725220088 0 -0.02376280326848114 0 -0.01148438905764946 
-0.02716129271923371 -0.04873278583382679 -0.01776426297156279 0.2596714484765256 -0.04988243859393658 -0.02266177929305984 -0.03277704725220088 0 -0.02376280326848114 0 -0.01148438905764946 
-0.02716129271923371 -0.04873278583382679 -0.01776426297156279 0.2596714484765256 -0.04988243859393658 -0.02266177929305984 -0.03277704725220088 0 -0.02376280326848114 0 -0.01148438905764946 
-0.02716129271923371 -0.04873278583382679 -0.01776426297156279 0.2596714484765256 -0.04988243859393658 -0.02266177929305984 -0.03277704725220088 0 -0.02376280326848114 0 -0.01148438905764946 
-0.02716129271923371 -0.04873278583382679 -0.01776426297156279 0.2596714484765256 -0.04988243859393658 -0.02266177929305984 -0.03277704725220088 0 -0.02376280326848114 0 -0.01148438905764946 
-0.05555060781805454 -0.06822279132158779 -0.05354953529854453 0.5801038536802876 -0.06500142510679119 -0.1290146244406368 -0.06228383757106715 0 -0.02423078856916376 0 -0.06249726168047719 
-0.02716129271923371 -0.04873278583382679 -0.01776426297156279 0.2596714484765256 -0.04988243859393658 -0.02266177929305984 -0.03277704725220088 0 -0.02376280326848114 0 -0.01148438905764946 
-0.02716129271923371 -0.04873278583382679 -0.01776426297156279 0.2596714484765256 -0.04988243859393658 -0.02266177929305984 -0.03277704725220088 0 -0.02376280326848114 0 -0.01148438905764946 
-0.02941931268626848 -0.008499613398082142 -0.08548555944782223 -0.1050222616555901 -0.02011438624902253 0.2938914338441877 -0.02522008209354814 0 0 -0.01036713925580592 -0.01508231662371223 
-0.07354735938981874 -0.0571821005995658 -0.2257910369745064 0.1688141564311444 -0.2044602635071932 0.5338673924872827 -0.05496350100405713 -9.107298248878237e-18 4.87890977618477e-19 -0.01134277422711941 -0.03941256989313748 
-0.02941931268626848 -0.008499613398082142 -0.08548555944782223 -0.1050222616555901 -0.02011438624902253 0.2938914338441877 -0.02522008209354814 0 0 -0.01036713925580592 -0.01508231662371223 
-0.02941931268626848 -0.008499613398082142 -0.08548555944782223 -0.1050222616555901 -0.02011438624902253 0.2938914338441877 -0.02522008209354814 0 0 -0.01036713925580592 -0.01508231662371223 
-0.02941931268626848 -0.008499613398082142 -0.08548555944782223 -0.1050222616555901 -0.02011438624902253 0.2938914338441877 -0.02522008209354814 0 0 -0.01036713925580592 -0.01508231662371223 
-0.02941931268626848 -0.008499613398082142 -0.08548555944782223 -0.1050222616555901 -0.02011438624902253 0.2938914338441877 -0.02522008209354814 0 0 -0.01036713925580592 -0.01508231662371223 
-0.02941931268626848 -0.008499613398082142 -0.08548555944782223 -0.1050222616555901 -0.02011438624902253 0.2938914338441877 -0.02522008209354814 0 0 -0.01036713925580592 -0.01508231662371223 
-0.02941931268626848 -0.008499613398082142 -0.08548555944782223 -0.1050222616555901 -0.02011438624902253 0.2938914338441877 -0.02522008209354814 0 0 -0.01036713925580592 -0.01508231662371223 
-0.02941931268626848 -0.008499613398082142 -0.08548555944782223 -0.1050222616555901 -0.02011438624902253 0.2938914338441877 -0.02522008209354814 0 0 -0.01036713925580592 -0.01508231662371223 
-0.02941931268626848 -0.008499613398082142 -0.08548555944782223 -0.1050222616555901 -0.02011438624902253 0.2938914338441877 -0.02522008209354814 0 0 -0.01036713925580592 -0.01508231662371223 
-0.02941931268626848 -0.008499613398082142 -0.08548555944782223 -0.1050222616555901 -0.02011438624902253 0.2938914338441877 -0.02522008209354814 0 0 -0.01036713925580592 -0.01508231662371223 
-0.09608328345020707 -0.04594983484292519 -0.1089807685803951 0 -0.1061222393556568 0.3933704556206261 -0.03231778206792956 0 0 -0.008565549759135212 -0.01409910052952155 
0.3107394308330473 0.142055773076261 0.04155944345671867 -0.8796487917274773 0.8097251976235659 0.1405922528109828 -0.316520740353834 -0.1250734650984886 -0.04569606748871135 -0.0663006061036783 -0.2181756595866368 
-0.09608328345020707 -0.04594983484292519 -0.1089807685803951 0 -0.1061222393556568 0.3933704556206261 -0.03231778206792956 0 0 -0.008565549759135212 -0.01409910052952155 
-0.09608328345020707 -0.04594983484292519 -0.1089807685803951 0 -0.1061222393556568 0.3933704556206261 -0.03231778206792956 0 0 -0.008565549759135212 -0.01409910052952155 
-0.09608328345020707 -0.04594983484292519 -0.1089807685803951 0 -0.1061222393556568 0.3933704556206261 -0.03231778206792956 0 0 -0.008565549759135212 -0.01409910052952155 
-0.09608328345020707 -0.04594983484292519 -0.1089807685803951 0 -0.1061222393556568 0.3933704556206261 -0.03231778206792956 0 0 -0.008565549759135212 -0.01409910052952155 
-0.09608328345020707 -0.04594983484292519 -0.1089807685803951 0 -0.1061222393556568 0.3933704556206261 -0.03231778206792956 0 0 -0.008565549759135212 -0.01409910052952155 
-0.1038270066175058 -0.05954710446592205 0.1866863008806102 -0.1357254537929854 -0.1410718628718536 0.3543488298987467 -0.06520876228806768 0 -0.01872818452514356 -0.01347476591128669 -0.01761571336362677 
-0.09608328345020707 -0.04594983484292519 -0.1089807685803951 0 -0.1061222393556568 0.3933704556206261 -0.03231778206792956 0 0 -0.008565549759135212 -0.01409910052952155 
-0.09608328345020707 -0.04594983484292519 -0.1089807685803951 0 -0.1061222393556568 0.3933704556206261 -0.03231778206792956 0 0 -0.008565549759135212 -0.01409910052952155 
-0.06305768320333369 -0.02646391159164986 -0.03367953095512648 -0.04452427080309368 -0.0525361371674524 -0.08053427525281104 -0.009308004383741868 0.3709573465410564 -0.04281482323901854 -0.007742938490790707 0 
-0.3049776586847967 -0.1762773132769498 -0.4985171740233791 -0.3122867598621184 0.3952867452471252 0.08294224863560731 0.2472608754799676 0.4731900597740011 -0.0921973987943889 0.2262097013516148 -0.1049572847219161 
-0.1337770549572436 -0.09659029700223871 -0.06926722198079036 -0.1051813770061825 -0.08767745365420902 -0.1483008701081289 -0.01724674258415524 0.2942744146226437 0.3418978898293271 -0.007742938490790707 0 
-0.06305768320333369 -0.02646391159164986 -0.03367953095512648 -0.04452427080309368 -0.0525361371674524 -0.08053427525281104 -0.009308004383741868 0.3709573465410564 -0.04281482323901854 -0.007742938490790707 0 
-0.06305768320333369 -0.02646391159164986 -0.03367953095512648 -0.04452427080309368 -0.0525361371674524 -0.08053427525281104 -0.009308004383741868 0.3709573465410564 -0.04281482323901854 -0.007742938490790707 0 
-0.06305768320333369 -0.02646391159164986 -0.03367953095512648 -0.04452427080309368 -0.0525361371674524 -0.08053427525281104 -0.009308004383741868 0.3709573465410564 -0.04281482323901854 -0.007742938490790707 0 
-0.06305768320333369 -0.02646391159164986 -0.03367953095512648 -0.04452427080309368 -0.0525361371674524 -0.08053427525281104 -0.009308004383741868 0.3709573465410564 -0.04281482323901854 -0.007742938490790707 0 
-0.06305768320333369 -0.02646391159164986 -0.03367953095512648 -0.04452427080309368 -0.0525361371674524 -0.08053427525281104 -0.009308004383741868 0.3709573465410564 -0.04281482323901854 -0.007742938490790707 0 
-0.06305768320333369 -0.02646391159164986 -0.03367953095512648 -0.04452427080309368 -0.0525361371674524 -0.08053427525281104 -0.009308004383741868 0.3709573465410564 -0.04281482323901854 -0.007742938490790707 0 
-0.04665153576018871 0 -0.01677884990626392 -0.02808843957707654 0.3187896541874468 -0.1338295911575473 -0.0328623401356203 -0.07271857627788363 -0.01588986477721942 -0.01596327453455352 -0.003399446369872333 
-0.09589969342382204 0 -0.02486676593991666 -0.1246813357334294 0.6187194378131564 -0.2656088284405033 -0.0328623401356203 -0.1153938991910502 -0.03115968949249729 -0.02016044610771255 -0.03315734081919154 
-0.04665153576018871 0 -0.01677884990626392 -0.02808843957707654 0.3187896541874468 -0.1338295911575473 -0.0328623401356203 -0.07271857627788363 -0.01588986477721942 -0.01596327453455352 -0.003399446369872333 
-0.04665153576018871 0 -0.01677884990626392 -0.02808843957707654 0.3187896541874468 -0.1338295911575473 -0.0328623401356203 -0.07271857627788363 -0.01588986477721942 -0.01596327453455352 -0.003399446369872333 
-0.04665153576018871 0 -0.01677884990626392 -0.02808843957707654 0.3187896541874468 -0.1338295911575473 -0.0328623401356203 -0.07271857627788363 -0.01588986477721942 -0.01596327453455352 -0.003399446369872333 
-0.04665153576018871 0 -0.01677884990626392 -0.02808843957707654 0.3187896541874468 -0.1338295911575473 -0.0328623401356203 -0.07271857627788363 -0.01588986477721942 -0.01596327453455352 -0.003399446369872333 
-0.04665153576018871 0 -0.01677884990626392 -0.02808843957707654 0.3187896541874468 -0.1338295911575473 -0.0328623401356203 -0.07271857627788363 -0.01588986477721942 -0.01596327453455352 -0.003399446369872333 
-0.04665153576018871 0 -0.01677884990626392 -0.02808843957707654 0.3187896541874468 -0.1338295911575473 -0.0328623401356203 -0.07271857627788363 -0.01588986477721942 -0.01596327453455352 -0.003399446369872333 
-0.04665153576018871 0 -0.01677884990626392 -0.02808843957707654 0.3187896541874468 -0.1338295911575473 -0.0328623401356203 -0.07271857627788363 -0.01588986477721942 -0.01596327453455352 -0.003399446369872333 
-0.08019620205791901 0 -0.09545420705281064 -0.04994119320447708 -0.04980976262585442 0.3169967597135678 -0.02221658804536883 -0.04755349178027021 -0.01954113271793229 -0.001898292626368852 0 
-0.08019620205791901 0 -0.09545420705281064 -0.04994119320447708 -0.04980976262585442 0.3169967597135678 -0.02221658804536883 -0.04755349178027021 -0.01954113271793229 -0.001898292626368852 0 
-0.08019620205791901 0 -0.09545420705281064 -0.04994119320447708 -0.04980976262585442 0.3169967597135678 -0.02221658804536883 -0.04755349178027021 -0.01954113271793229 -0.001898292626368852 0 
-0.08019620205791901 0 -0.09545420705281064 -0.04994119320447708 -0.04980976262585442 0.3169967597135678 -0.02221658804536883 -0.04755349178027021 -0.01954113271793229 -0.001898292626368852 0 
-0.08019620205791901 0 -0.09545420705281064 -0.04994119320447708 -0.04980976262585442 0.3169967597135678 -0.02221658804536883 -0.04755349178027021 -0.01954113271793229 -0.001898292626368852 0 
-0.08019620205791901 0 -0.09545420705281064 -0.04994119320447708 -0.04980976262585442 0.3169967597135678 -0.02221658804536883 -0.04755349178027021 -0.01954113271793229 -0.001898292626368852 0 
-0.08019620205791901 0 -0.09545420705281064 -0.04994119320447708 -0.04980976262585442 0.3169967597135678 -0.02221658804536883 -0.04755349178027021 -0.01954113271793229 -0.001898292626368852 0 
-0.08019620205791901 0 -0.09545420705281064 -0.04994119320447708 -0.04980976262585442 0.3169967597135678 -0.02221658804536883 -0.04755349178027021 -0.01954113271793229 -0.001898292626368852 0 
-0.08019620205791901 0 -0.09545420705281064 -0.04994119320447708 -0.04980976262585442 0.3169967597135678 -0.02221658804536883 -0.04755349178027021 -0.01954113271793229 -0.001898292626368852 0 
-0.04638102315235359 -0.02586606576466359 -0.02324851599740027 0.2286902878962609 -0.05338260459936506 -0.08615686079952085 0 -0.04629229237380846 -0.02275230029168343 -0.006828787149068915 -0.004158150190465735 
-0.2608351479730629 0.3899732811500592 -0.006155851193548695 -0.2154985829790378 0.06197369797221909 0.5043648923262354 -0.2425396291893917 -0.07844986485800004 -0.06924196647629238 -0.03324761904398236 -0.176749127639067 
-0.2020490894279102 0.150574877179228 -0.4043981829305196 1.004703290444674 -0.4053017305512169 -0.2287453847478826 -0.30342594806887 -0.06303267394770599 -0.02507438272459622 -0.03234388707900571 0.3749216052238054 
-0.1519748963805255 -0.2323441751686849 0.4072689254523773 0.6129450738839312 -0.2027044458011156 -0.3056796057111855 -0.04450173739109915 -0.04629229237380846 -0.02704586898640706 -0.0069703513256502 -0.0751646710594704 
-0.04638102315235359 -0.02586606576466359 -0.02324851599740027 0.2286902878962609 -0.05338260459936506 -0.08615686079952085 0 -0.04629229237380846 -0.02275230029168343 -0.006828787149068915 -0.004158150190465735 
-0.04638102315235359 -0.02586606576466359 -0.02324851599740027 0.2286902878962609 -0.05338260459936506 -0.08615686079952085 0 -0.04629229237380846 -0.02275230029168343 -0.006828787149068915 -0.004158150190465735 
-0.04638102315235359 -0.02586606576466359 -0.02324851599740027 0.2286902878962609 -0.05338260459936506 -0.08615686079952085 0 -0.04629229237380846 -0.02275230029168343 -0.006828787149068915 -0.004158150190465735 
-0.04638102315235359 -0.02586606576466359 -0.02324851599740027 0.2286902878962609 -0.05338260459936506 -0.08615686079952085 0 -0.04629229237380846 -0.02275230029168343 -0.006828787149068915 -0.004158150190465735 
-0.04638102315235359 -0.02586606576466359 -0.02324851599740027 0.2286902878962609 -0.05338260459936506 -0.08615686079952085 0 -0.04629229237380846 -0.02275230029168343 -0.006828787149068915 -0.004158150190465735 
-0.04638102315235357 -0.06959687656025243 -0.1954874079896798 0.4684975782492249 -0.07528110030433469 -0.09944382528263508 0 -0.04629229237380846 -0.02275230029168343 -0.006828787149068915 -0.004158150190465735 
-0.04638102315235359 -0.02586606576466359 -0.02324851599740027 0.2286902878962609 -0.05338260459936506 -0.08615686079952085 0 -0.04629229237380846 -0.02275230029168343 -0.006828787149068915 -0.004158150190465735 
0.4417927624784763 -0.02385271120712605 -0.05889730626878619 -0.08690392716015015 -0.1575959364849124 -0.0751505924580273 0 0 0 -0.005869386590162609 -0.01029370415041704 
0.3513026244015941 -0.07612044849107831 0.2255833105979772 -0.3589812939688822 -0.2000830747902776 0.1581184571170775 -0.03288577981056967 -1.734723475976807e-18 -1.084202172485504e-19 -0.02842632809070193 -0.05126525515478098 
0.4417927624784763 -0.02385271120712605 -0.05889730626878619 -0.08690392716015015 -0.1575959364849124 -0.0751505924580273 0 0 0 -0.005869386590162609 -0.01029370415041704 
0.4417927624784763 -0.02385271120712605 -0.05889730626878619 -0.08690392716015015 -0.1575959364849124 -0.0751505924580273 0 0 0 -0.005869386590162609 -0.01029370415041704 
0.3777463197087126 -0.1198512592866671 0.1254069996803138 0.01755313060182824 -0.179494432189882 -0.1596251580398494 -0.01077502256489219 -2.168404344971009e-18 -1.084202172485504e-19 -0.0164630341032912 -0.03785755247517798 
0.4417927624784763 -0.02385271120712605 -0.05889730626878619 -0.08690392716015015 -0.1575959364849124 -0.0751505924580273 0 0 0 -0.005869386590162609 -0.01029370415041704 
0.4417927624784763 -0.02385271120712605 -0.05889730626878619 -0.08690392716015015 -0.1575959364849124 -0.0751505924580273 0 0 0 -0.005869386590162609 -0.01029370415041704 
0.4187866667425575 0.4091806931380504 -0.1592769256256978 -0.1599017247111307 -0.1575959364849124 -0.1927052332087288 -0.04958845086360508 0 -0.002038051296684821 -0.005869386590162609 -0.07689433398681313 
-0.01373419982685233 0 -0.008517351036420848 -0.1067954488782058 0.2839814237702463 -0.06292965684481036 -0.03172617334803804 -0.01821408409313949 0 -0.01191727645644001 -0.009091340515063003 
-0.01373419982685233 0 -0.008517351036420848 -0.1067954488782058 0.2839814237702463 -0.06292965684481036 -0.03172617334803804 -0.01821408409313949 0 -0.01191727645644001 -0.009091340515063003 
-0.01373419982685233 0 -0.008517351036420848 -0.1067954488782058 0.2839814237702463 -0.06292965684481036 -0.03172617334803804 -0.01821408409313949 0 -0.01191727645644001 -0.009091340515063003 
-0.01373419982685233 0 -0.008517351036420848 -0.1067954488782058 0.2839814237702463 -0.06292965684481036 -0.03172617334803804 -0.01821408409313949 0 -0.01191727645644001 -0.009091340515063003 
-0.01373419982685233 0 -0.008517351036420848 -0.1067954488782058 0.2839814237702463 -0.06292965684481036 -0.03172617334803804 -0.01821408409313949 0 -0.01191727645644001 -0.009091340515063003 
-0.01373419982685233 0 -0.008517351036420848 -0.1067954488782058 0.2839814237702463 -0.06292965684481036 -0.03172617334803804 -0.01821408409313949 0 -0.01191727645644001 -0.009091340515063003 
-0.1058903420410583 -0.09661296295631536 -0.2240368739163609 0.1727605427072485 0.4704309723548661 -0.1189965087754217 -0.04882899458105534 -0.0259400729803499 -8.673617379884035e-19 -0.0177609763747958 -0.03047530075424493 
-0.01373419982685233 0 -0.008517351036420848 -0.1067954488782058 0.2839814237702463 -0.06292965684481036 -0.03172617334803804 -0.01821408409313949 0 -0.01191727645644001 -0.009091340515063003 
0.2805501068215206 -0.126405758301217 0.1160376716085285 -0.3112728937720977 0.1237953819056977 0.06938084753903831 -0.05103758564139553 -0.05196099476599914 -0.03494024427725562 -0.02440409415040214 -0.02153122278879895 
-0.04105233319371783 -0.1099771861723892 -0.1891188665224504 -0.2408917922713033 0.5553167722555179 0.1847076478815047 -0.06001878448426599 -0.04611797859860124 -0.01331821386011871 -0.03050309962899745 -0.01365808265629246 
-0.0273181333668655 -0.0360331828135719 -0.09913326382634398 -0.04401423098756868 0.3360139822023993 -0.09009639708047197 0 -0.02790389450546176 -0.01331821386011871 -0.01710358293956732 0 
-0.0273181333668655 -0.0360331828135719 -0.09913326382634398 -0.04401423098756868 0.3360139822023993 -0.09009639708047197 0 -0.02790389450546176 -0.01331821386011871 -0.01710358293956732 0 
-0.0273181333668655 -0.0360331828135719 -0.09913326382634398 -0.04401423098756868 0.3360139822023993 -0.09009639708047197 0 -0.02790389450546176 -0.01331821386011871 -0.01710358293956732 0 
-0.0273181333668655 -0.0360331828135719 -0.09913326382634398 -0.04401423098756868 0.3360139822023993 -0.09009639708047197 0 -0.02790389450546176 -0.01331821386011871 -0.01710358293956732 0 
-0.0273181333668655 -0.0360331828135719 -0.09913326382634398 -0.04401423098756868 0.3360139822023993 -0.09009639708047197 0 -0.02790389450546176 -0.01331821386011871 -0.01710358293956732 0 
-0.0273181333668655 -0.0360331828135719 -0.09913326382634398 -0.04401423098756868 0.3360139822023993 -0.09009639708047197 0 -0.02790389450546176 -0.01331821386011871 -0.01710358293956732 0 
-0.0473566664121814 -0.06829203938718761 -0.1358578653096538 -0.110447235088521 0.2449841152167603 -0.1378875654231665 -0.0576426265670132 -0.04382803999826781 -0.01331821386011872 0.36989051171085 -0.0155623808421509 
-0.005126774071131504 -0.02366259580720442 -0.02022931003358704 0.2102111234916153 -0.07043179149006945 -0.04908030187186106 -0.02033049303116467 0 -0.01975251818674154 -0.002035965604651608 0 
-0.1041192873009074 -0.2018542717548457 -0.3221500322116271 0.5663894377445207 -0.2860137720705472 0.4903503968890905 -0.07164610569282184 -6.938893903907228e-18 -0.03347954718891097 -0.02009860655034154 -0.03009260358945127 
-0.005126774071131504 -0.02366259580720442 -0.02022931003358704 0.2102111234916153 -0.07043179149006945 -0.04908030187186106 -0.02033049303116467 0 -0.01975251818674154 -0.002035965604651608 0 
-0.05840891826806646 -0.2659569719024517 -0.2065914371794685 0.3877768931472844 0.311323184097226 -0.04908030187186103 -0.0440639152323116 -1.734723475976807e-18 -0.04072488093437186 -0.002238496833533644 -0.0004872944348792184 
-0.005126774071131504 -0.02366259580720442 -0.02022931003358704 0.2102111234916153 -0.07043179149006945 -0.04908030187186106 -0.02033049303116467 0 -0.01975251818674154 -0.002035965604651608 0 
-0.04610873112075301 -0.1261651031513606 -0.1442021422072424 0.1034649983840553 0.3292296752020478 -0.04908030187186106 -0.02363806472089094 -1.734723475976807e-18 -0.02542959444681515 -0.002035965604651608 0 
-0.005126774071131504 -0.02366259580720442 -0.02022931003358704 0.2102111234916153 -0.07043179149006945 -0.04908030187186106 -0.02033049303116467 0 -0.01975251818674154 -0.002035965604651608 0 
-0.005126774071131504 -0.02366259580720442 -0.02022931003358704 0.2102111234916153 -0.07043179149006945 -0.04908030187186106 -0.02033049303116467 0 -0.01975251818674154 -0.002035965604651608 0 
-0.04948352020310324 -0.1282917816014132 -0.2953033570029953 0.6044633944095195 0.1142560231193168 -0.08165877329359271 -0.05294779881003222 -0.006914140115294661 -0.02005475687780475 -0.003523664978710892 -0.04633530707567673 
-0.005126774071131504 -0.02366259580720442 -0.02022931003358704 0.2102111234916153 -0.07043179149006945 -0.04908030187186106 -0.02033049303116467 0 -0.01975251818674154 -0.002035965604651608 0 
-0.005126774071131504 -0.02366259580720442 -0.02022931003358704 0.2102111234916153 -0.07043179149006945 -0.04908030187186106 -0.02033049303116467 0 -0.01975251818674154 -0.002035965604651608 0 
-0.01209644659655834 -0.0473546254023753 -0.08318620818198141 0.4779301023347047 -0.09630521086484267 -0.05130371810200136 -0.07670369610796082 0 -0.01975251818674154 -0.002035965604651608 -0.07463297038931638 
-0.007743723167298711 -0.01359726962299686 0.2956670694610052 -0.1357254537929854 -0.03494962351619676 -0.03902162572187928 -0.03289098022013812 0 -0.01872818452514356 -0.004909216152151474 -0.00351661283410523 
-0.02694316576786298 -0.09135210815006009 0.1661499477471504 0.04545256431193079 0.1652014597973012 -0.1053521490676688 -0.05619833848927376 -0.009161995069768706 -0.01903042321620677 -0.006244576551547248 -0.03232893613257181 
-0.02694316576786298 -0.09135210815006009 0.1661499477471504 0.04545256431193079 0.1652014597973012 -0.1053521490676688 -0.05619833848927376 -0.009161995069768706 -0.01903042321620677 -0.006244576551547248 -0.03232893613257181 
-0.007743723167298711 -0.01359726962299686 0.2956670694610052 -0.1357254537929854 -0.03494962351619676 -0.03902162572187928 -0.03289098022013812 0 -0.01872818452514356 -0.004909216152151474 -0.00351661283410523 
-0.007743723167298711 -0.01359726962299686 0.2956670694610052 -0.1357254537929854 -0.03494962351619676 -0.03902162572187928 -0.03289098022013812 0 -0.01872818452514356 -0.004909216152151474 -0.00351661283410523 
-0.007743723167298711 -0.01359726962299686 0.2956670694610052 -0.1357254537929854 -0.03494962351619676 -0.03902162572187928 -0.03289098022013812 0 -0.01872818452514356 -0.004909216152151474 -0.00351661283410523 
-0.007743723167298711 -0.01359726962299686 0.2956670694610052 -0.1357254537929854 -0.03494962351619676 -0.03902162572187928 -0.03289098022013812 0 -0.01872818452514356 -0.004909216152151474 -0.00351661283410523 
-0.007743723167298711 -0.01359726962299686 0.2956670694610052 -0.1357254537929854 -0.03494962351619676 -0.03902162572187928 -0.03289098022013812 0 -0.01872818452514356 -0.004909216152151474 -0.00351661283410523 
-0.03301876495929525 -0.1357347105286787 0.8123852891332548 -0.2918970534408259 -0.09562255606242326 -0.1084457874807409 -0.07938119247739577 -0.003344306062697685 -0.01872818452514356 -0.005974074100429213 -0.04169701146952637 
-0.007743723167298711 -0.01359726962299686 0.2956670694610052 -0.1357254537929854 -0.03494962351619676 -0.03902162572187928 -0.03289098022013812 0 -0.01872818452514356 -0.004909216152151474 -0.00351661283410523 
-0.01988114947926069 -0.04485604645797647 0 -0.1166129049526405 -0.03140582584562071 -0.01464770319568953 -0.06109058986785085 -0.01131834101946118 0.3777995660655709 0 -0.05068138274640002 
-0.05117999493412941 -0.0723640554337361 -0.01973785025921539 -0.151977781085788 -0.101624720274795 -0.06761219501664872 -0.1144109081448972 0.3528259544236363 0.3575201943516456 -0.009685025828069925 -0.05068138274640002 
-0.05117999493412941 -0.0723640554337361 -0.01973785025921539 -0.151977781085788 -0.101624720274795 -0.06761219501664872 -0.1144109081448972 0.3528259544236363 0.3575201943516456 -0.009685025828069925 -0.05068138274640002 
-0.1048312310264714 0.2199652902499108 -0.1296321194431144 -0.2413142117436293 -0.08833086360245733 -0.08924454814822828 -0.07664724261823641 -0.08800127293787387 0.7203161816440311 2.168404344971009e-19 -0.07243427410927819 
-0.01988114947926069 -0.04485604645797647 0 -0.1166129049526405 -0.03140582584562071 -0.01464770319568953 -0.06109058986785085 -0.01131834101946118 0.3777995660655709 0 -0.05068138274640002 
-0.01988114947926069 -0.04485604645797647 0 -0.1166129049526405 -0.03140582584562071 -0.01464770319568953 -0.06109058986785085 -0.01131834101946118 0.3777995660655709 0 -0.05068138274640002 
-0.01988114947926069 -0.04485604645797647 0 -0.1166129049526405 -0.03140582584562071 -0.01464770319568953 -0.06109058986785085 -0.01131834101946118 0.3777995660655709 0 -0.05068138274640002 
-0.01988114947926069 -0.04485604645797647 0 -0.1166129049526405 -0.03140582584562071 -0.01464770319568953 -0.06109058986785085 -0.01131834101946118 0.3777995660655709 0 -0.05068138274640002 
-0.03381154083541063 -0.08350676072855465 -0.02501756678027391 -0.1723426141232928 -0.0790675110313761 -0.09898820313904656 -0.151856587783014 -0.01131834101946118 0.3554780143524678 0 0.342154340910825 
-0.08504408399661771 -0.08506108731660683 -0.2620270119907228 -0.3100451178025764 -0.08896031243980396 -0.1747882252811094 0.535306735638195 -0.04412502969938845 0.3499631838780263 -0.001679825179157387 0.2531375781298424 
-0.01988114947926069 -0.04485604645797647 0 -0.1166129049526405 -0.03140582584562071 -0.01464770319568953 -0.06109058986785085 -0.01131834101946118 0.3777995660655709 0 -0.05068138274640002 
-0.07374067699753334 0.3007386343882683 -0.09499794157330321 -0.08755873876198314 -0.02879417581672463 0 -0.01995771827635859 0 -0.01814798190942883 0 0 
0.1775742785894511 0.804022141280083 -0.30335156664848 -0.133710595283578 -0.3615097027636675 -0.1371494122111978 -0.09721678608989208 0 -0.03344326839698555 -0.01683738261634776 -0.03203586800906998 
-0.08604086414484675 0.1609467656371771 -0.1573872365455294 0.1967531560012458 -0.0467006669215467 -3.469446951953614e-18 -0.04038356878777924 0 -0.03344326839698555 -0.0002025312288820364 -0.0004872944348792196 
-0.1003024115800096 0.2192296945980088 0.2796040021532715 -0.2247345756917724 -0.1095303160650263 -0.01933518004551247 -0.04782847769742631 0 -0.02963711403063525 -0.02214677853182054 4.336808689942018e-19 
-0.07374067699753334 0.3007386343882683 -0.09499794157330321 -0.08755873876198314 -0.02879417581672463 0 -0.01995771827635859 0 -0.01814798190942883 0 0 
-0.07374067699753334 0.3007386343882683 -0.09499794157330321 -0.08755873876198314 -0.02879417581672463 0 -0.01995771827635859 0 -0.01814798190942883 0 0 
-0.07374067699753334 0.3007386343882683 -0.09499794157330321 -0.08755873876198314 -0.02879417581672463 0 -0.01995771827635859 0 -0.01814798190942883 0 0 
-0.07374067699753334 0.3007386343882683 -0.09499794157330321 -0.08755873876198314 -0.02879417581672463 0 -0.01995771827635859 0 -0.01814798190942883 0 0 
-0.07374067699753334 0.205225265964376 0.2072521375302807 -0.319286516466274 -0.03190528427596279 -3.469446951953614e-18 -0.02657116480706531 0 -0.01814798190942883 -0.00159133292374917 -0.01193116342605293 
-0.1100147194249356 0.2617754543432375 -0.148628642034404 0.1827915517634682 -0.04930591921378531 -0.06046117490717953 -0.03053366740187046 0 -0.01814798190942883 -0.02161263902062065 -0.02787339785876234 
-0.07374067699753334 0.3007386343882683 -0.09499794157330321 -0.08755873876198314 -0.02879417581672463 0 -0.01995771827635859 0 -0.01814798190942883 0 0 
0.3692950684252467 -0.0396521518279386 -0.02052221822328716 -0.1062077502544992 -0.05650429337978118 -0.07844113233074551 0 0 -0.005104550482447514 0 -0.04624193602198656 
-0.01922576573937514 -0.2131129465931333 0.354351963331217 0.22556726581801 -0.5008702409648685 0.2047339835188861 -0.3919840504410707 0.1746371348224182 -0.04596130445634537 -0.04397558536456958 0.2280011297049171 
0.2995560382958806 -0.1155857920599925 -0.129981738479246 0.1421290451276286 -0.08900909869602132 0.1244128673506898 -0.05342006504191892 -0.007004403698766612 -0.005572535783130137 -0.003253388243420835 -0.1120388225555148 
0.3692950684252467 -0.0396521518279386 -0.02052221822328716 -0.1062077502544992 -0.05650429337978118 -0.07844113233074551 0 0 -0.005104550482447514 0 -0.04624193602198656 
0.3279453533947014 -0.09609578657223147 -0.0941964661522641 -0.1783033600761331 -0.07389011218316671 0.2307657124982667 -0.02391327472305262 -0.007004403698766613 -0.005104550482447514 -0.003253388243420834 -0.06102594993268715 
0.3692950684252467 -0.0396521518279386 -0.02052221822328716 -0.1062077502544992 -0.05650429337978118 -0.07844113233074551 0 0 -0.005104550482447514 0 -0.04624193602198656 
0.3692950684252467 -0.0396521518279386 -0.02052221822328716 -0.1062077502544992 -0.05650429337978118 -0.07844113233074551 0 0 -0.005104550482447514 0 -0.04624193602198656 
0.3692950684252467 -0.0396521518279386 -0.02052221822328716 -0.1062077502544992 -0.05650429337978118 -0.07844113233074551 0 0 -0.005104550482447514 0 -0.04624193602198656 
0.3692950684252467 -0.0396521518279386 -0.02052221822328716 -0.1062077502544992 -0.05650429337978118 -0.07844113233074551 0 0 -0.005104550482447514 0 -0.04624193602198656 
0.3562191130101587 -0.100840291795996 -0.1526747208032085 0.1765793718010043 -0.09275276964595508 -0.09592220093740131 0 0 -0.005104550482447514 0 -0.06362952524567322 
-0.03869226183508324 -0.07213782555978994 -0.2240097835178365 0.5207283154818807 -0.03935360969488322 -0.1028332631987414 -0.01122388734651787 -0.006819558300479691 5.312590645178972e-18 -0.005942985310309566 -0.06129715268508082 
-0.06366048140192124 -0.07213782555978986 -0.2874339408421902 0.3606177148222184 -0.04385403029258011 -0.1534811995725662 -0.09304629062047318 -0.008993336473908081 5.312590645178972e-18 -0.008659997086985831 0.3189923413292897 
-0.03869226183508324 -0.07213782555978994 -0.2240097835178365 0.5207283154818807 -0.03935360969488322 -0.1028332631987414 -0.01122388734651787 -0.006819558300479691 5.312590645178972e-18 -0.005942985310309566 -0.06129715268508082 
-0.03869226183508324 -0.07213782555978994 -0.2240097835178365 0.5207283154818807 -0.03935360969488322 -0.1028332631987414 -0.01122388734651787 -0.006819558300479691 5.312590645178972e-18 -0.005942985310309566 -0.06129715268508082 
-0.03869226183508324 -0.07213782555978994 -0.2240097835178365 0.5207283154818807 -0.03935360969488322 -0.1028332631987414 -0.01122388734651787 -0.006819558300479691 5.312590645178972e-18 -0.005942985310309566 -0.06129715268508082 
-0.03869226183508324 -0.07213782555978994 -0.2240097835178365 0.5207283154818807 -0.03935360969488322 -0.1028332631987414 -0.01122388734651787 -0.006819558300479691 5.312590645178972e-18 -0.005942985310309566 -0.06129715268508082 
-0.009816027246168278 -0.03123813168341266 -0.05259370692100478 0.2159106169373585 0 -0.04577550626726969 -0.01122388734651787 -0.006819558300479691 0 -0.001089913391239045 -0.03404550879571941 
-0.009816027246168278 -0.03123813168341266 -0.05259370692100478 0.2159106169373585 0 -0.04577550626726969 -0.01122388734651787 -0.006819558300479691 0 -0.001089913391239045 -0.03404550879571941 
-0.009816027246168278 -0.03123813168341266 -0.05259370692100478 0.2159106169373585 0 -0.04577550626726969 -0.01122388734651787 -0.006819558300479691 0 -0.001089913391239045 -0.03404550879571941 
-0.009816027246168278 0.3203166849762022 -0.1545634480233086 0.1563971676647418 -0.05671071982156301 -0.1411452947199676 -0.03568378438903409 -0.01297793250148211 -2.168404344971009e-19 -0.005178206864162266 -0.04035057627850555 
-0.01230018714731343 -0.1397918687510912 -0.06238929497222617 0.2843118947632289 -0.01790649110482207 0 -0.02042585051142065 0 -0.01529528648755672 -0.0002025312288820364 -0.0004872944348792196 
-0.01230018714731343 -0.1397918687510912 -0.06238929497222617 0.2843118947632289 -0.01790649110482207 0 -0.02042585051142065 0 -0.01529528648755672 -0.0002025312288820364 -0.0004872944348792196 
-0.01230018714731343 -0.1397918687510912 -0.06238929497222617 0.2843118947632289 -0.01790649110482207 0 -0.02042585051142065 0 -0.01529528648755672 -0.0002025312288820364 -0.0004872944348792196 
-0.01230018714731343 -0.1397918687510912 -0.06238929497222617 0.2843118947632289 -0.01790649110482207 0 -0.02042585051142065 0 -0.01529528648755672 -0.0002025312288820364 -0.0004872944348792196 
-0.01230018714731343 -0.1397918687510912 -0.06238929497222617 0.2843118947632289 -0.01790649110482207 0 -0.02042585051142065 0 -0.01529528648755672 -0.0002025312288820364 -0.0004872944348792196 
-0.08726797954153008 0.09883982935019323 0.0224745923878718 0.5428134114686762 -0.1870684503687655 -0.1817866965234619 -0.137098431147233 0 -0.03518023469840025 -0.03147531330841912 -0.03819116447856061 
-0.01230018714731343 -0.1397918687510912 -0.06238929497222617 0.2843118947632289 -0.01790649110482207 0 -0.02042585051142065 0 -0.01529528648755672 -0.0002025312288820364 -0.0004872944348792196 
-0.01230018714731343 -0.1397918687510912 -0.06238929497222617 0.2843118947632289 -0.01790649110482207 0 -0.02042585051142065 0 -0.01529528648755672 -0.0002025312288820364 -0.0004872944348792196 
-0.01230018714731343 -0.1397918687510912 -0.06238929497222617 0.2843118947632289 -0.01790649110482207 0 -0.02042585051142065 0 -0.01529528648755672 -0.0002025312288820364 -0.0004872944348792196 
-0.02087566266049416 0.3863736224135638 -0.09442462503308145 -0.1614582818273477 -0.04238279996461766 -0.04166301640176673 -0.02714427330054376 0 -0.008395816089637102 -0.003045684704870713 -0.0005589126716188119 
-0.02087566266049416 0.3863736224135638 -0.09442462503308145 -0.1614582818273477 -0.04238279996461766 -0.04166301640176673 -0.02714427330054376 0 -0.008395816089637102 -0.003045684704870713 -0.0005589126716188119 
-0.04923655209431982 0.6267940221116619 -0.3156802691469182 0.05391814740316046 -0.09740721873742966 -0.1103277321919934 -0.09329311104396815 0 -0.03391780248666626 -0.009145031663149901 -0.00218269841927017 
-0.02087566266049416 0.3863736224135638 -0.09442462503308145 -0.1614582818273477 -0.04238279996461766 -0.04166301640176673 -0.02714427330054376 0 -0.008395816089637102 -0.003045684704870713 -0.0005589126716188119 
-0.04923655209431976 0.2704118931082168 -0.185496377775089 0.1701702387875325 -0.08421951421457298 -0.1103277321919934 -0.02714427330054375 0 -0.01860840878600457 -0.009145031663149901 -0.0005589126716188121 
-0.02087566266049416 0.3863736224135638 -0.09442462503308145 -0.1614582818273477 -0.04238279996461766 -0.04166301640176673 -0.02714427330054376 0 -0.008395816089637102 -0.003045684704870713 -0.0005589126716188119 
-0.02087566266049416 0.3863736224135638 -0.09442462503308145 -0.1614582818273477 -0.04238279996461766 -0.04166301640176673 -0.02714427330054376 0 -0.008395816089637102 -0.003045684704870713 -0.0005589126716188119 
-0.09216738992547548 0.5863286329486777 -0.2922381822550674 -0.2700558782490475 -0.1301911044835721 -0.085117786051573 0.2783587459304676 0 -0.008395816089637102 -0.02124975989344575 -0.03250662968055253 
-0.02503932051843941 -0.007581659278429968 -0.08220720285506017 -0.03819940047692078 -0.07305555928337056 -0.05596346984781232 0.3289091835264404 -0.02135153969414886 0 -0.02779181545319075 -0.008447092814194862 
-0.03997653794521026 -0.03787349922307008 -0.1457243221824543 -0.1002153665788437 0.2760137848222356 -0.09876560557873515 0.257078897706604 -0.03667701164143038 -3.469446951953614e-18 -0.05709323682094592 -0.02690734359618594 
-0.02503932051843941 -0.0148444278495765 -0.1410342254535348 -0.1234161907785774 -0.1190187749775915 -0.1226207823874078 0.6363743194495284 -0.03896472290366562 2.168404344971009e-19 -0.04236377458260719 -0.03977795153666831 
-0.02503932051843941 -0.007581659278429968 -0.08220720285506017 -0.03819940047692078 -0.07305555928337056 -0.05596346984781232 0.3289091835264404 -0.02135153969414886 0 -0.02779181545319075 -0.008447092814194862 
-0.02503932051843941 -0.007581659278429968 -0.08220720285506017 -0.03819940047692078 -0.07305555928337056 -0.05596346984781232 0.3289091835264404 -0.02135153969414886 0 -0.02779181545319075 -0.008447092814194862 
-0.02503932051843941 -0.007581659278429968 -0.08220720285506017 -0.03819940047692078 -0.07305555928337056 -0.05596346984781232 0.3289091835264404 -0.02135153969414886 0 -0.02779181545319075 -0.008447092814194862 
-0.02503932051843941 -0.007581659278429968 -0.08220720285506017 -0.03819940047692078 -0.07305555928337056 -0.05596346984781232 0.3289091835264404 -0.02135153969414886 0 -0.02779181545319075 -0.008447092814194862 
-0.02503932051843941 -0.007581659278429968 -0.08220720285506017 -0.03819940047692078 -0.07305555928337056 -0.05596346984781232 0.3289091835264404 -0.02135153969414886 0 -0.02779181545319075 -0.008447092814194862 
-0.02503932051843941 -0.007581659278429968 -0.08220720285506017 -0.03819940047692078 -0.07305555928337056 -0.05596346984781232 0.3289091835264404 -0.02135153969414886 0 -0.02779181545319075 -0.008447092814194862 
-0.03936651483410244 -0.03707233105755694 0.2464379134665814 -0.1017883056160473 -0.1305326342516962 -0.1369309924636978 0.2704898813287183 -0.02135153969414886 0 -0.0286650536416577 -0.02486402082717544 
-0.04967127741011126 -0.1343815923681939 0.5285468439744228 -0.1812003592924994 -0.1427875733848995 -0.1159311321245156 0.2309450859198421 -0.02135153969414886 2.710505431213761e-20 -0.04078978360973572 -0.08320515183350109 
-0.02827796670651679 -0.03829939250905663 -0.07592073213506861 -0.05923319503605739 -0.05315990586916592 0.2799031102600755 -0.008160638316187204 0 0 -0.0084379709930445 -0.01185733179037352 
-0.05327982676869114 0.1190819246434041 -0.02200228677338108 -0.4454293955442199 0.1253956501665964 0.3352455997874481 -0.0947367493629538 -0.01899479458442257 0 -0.01745334576899801 -0.04319122451497419 
-0.02827796670651679 -0.03829939250905663 -0.07592073213506861 -0.05923319503605739 -0.05315990586916592 0.2799031102600755 -0.008160638316187204 0 0 -0.0084379709930445 -0.01185733179037352 
-0.02827796670651679 -0.03829939250905663 -0.07592073213506861 -0.05923319503605739 -0.05315990586916592 0.2799031102600755 -0.008160638316187204 0 0 -0.0084379709930445 -0.01185733179037352 
-0.02827796670651679 -0.03829939250905663 -0.07592073213506861 -0.05923319503605739 -0.05315990586916592 0.2799031102600755 -0.008160638316187204 0 0 -0.0084379709930445 -0.01185733179037352 
-0.02827796670651679 -0.03829939250905663 -0.07592073213506861 -0.05923319503605739 -0.05315990586916592 0.2799031102600755 -0.008160638316187204 0 0 -0.0084379709930445 -0.01185733179037352 
-0.07530095025641206 -0.05152293031496603 -0.2104701685552114 0.1640071578623903 0.1073533908160936 0.2099316740864911 -0.02355923291622916 0 -0.005485341521412085 -0.01190055328146728 -0.03622685108177805 
-0.02827796670651679 -0.03829939250905663 -0.07592073213506861 -0.05923319503605739 -0.05315990586916592 0.2799031102600755 -0.008160638316187204 0 0 -0.0084379709930445 -0.01185733179037352 
-0.02827796670651679 -0.03829939250905663 -0.07592073213506861 -0.05923319503605739 -0.05315990586916592 0.2799031102600755 -0.008160638316187204 0 0 -0.0084379709930445 -0.01185733179037352 
-0.02003853304531587 -0.03225885657361572 -0.03672460148330981 -0.06643300410095226 -0.09102986698563889 -0.04779116834269453 -0.0576426265670132 -0.01592414549280606 0 0.3869940946504173 -0.0155623808421509 
-0.02003853304531587 -0.03225885657361572 -0.03672460148330981 -0.06643300410095226 -0.09102986698563889 -0.04779116834269453 -0.0576426265670132 -0.01592414549280606 0 0.3869940946504173 -0.0155623808421509 
-0.02003853304531587 -0.03225885657361572 -0.03672460148330981 -0.06643300410095226 -0.09102986698563889 -0.04779116834269453 -0.0576426265670132 -0.01592414549280606 0 0.3869940946504173 -0.0155623808421509 
-0.02003853304531587 -0.03225885657361572 -0.03672460148330981 -0.06643300410095226 -0.09102986698563889 -0.04779116834269453 -0.0576426265670132 -0.01592414549280606 0 0.3869940946504173 -0.0155623808421509 
-0.02003853304531587 -0.03225885657361572 -0.03672460148330981 -0.06643300410095226 -0.09102986698563889 -0.04779116834269453 -0.0576426265670132 -0.01592414549280606 0 0.3869940946504173 -0.0155623808421509 
-0.02003853304531587 -0.03225885657361572 -0.03672460148330981 -0.06643300410095226 -0.09102986698563889 -0.04779116834269453 -0.0576426265670132 -0.01592414549280606 0 0.3869940946504173 -0.0155623808421509 
-0.02003853304531587 -0.03225885657361572 -0.03672460148330981 -0.06643300410095226 -0.09102986698563889 -0.04779116834269453 -0.0576426265670132 -0.01592414549280606 0 0.3869940946504173 -0.0155623808421509 
-0.02003853304531587 -0.03225885657361572 -0.03672460148330981 -0.06643300410095226 -0.09102986698563889 -0.04779116834269453 -0.0576426265670132 -0.01592414549280606 0 0.3869940946504173 -0.0155623808421509 
-0.02003853304531587 -0.03225885657361572 -0.03672460148330981 -0.06643300410095226 -0.09102986698563889 -0.04779116834269453 -0.0576426265670132 -0.01592414549280606 0 0.3869940946504173 -0.0155623808421509 
-0.02003853304531587 -0.03225885657361572 -0.03672460148330981 -0.06643300410095226 -0.09102986698563889 -0.04779116834269453 -0.0576426265670132 -0.01592414549280606 0 0.3869940946504173 -0.0155623808421509 
0 0.3427920779174824 -0.09978998718390564 -0.1823229399802366 -0.001225130147098986 -0.0617790000149404 -0.01856868943754941 0 0 -0.006042758156812585 -0.016212247610685 
-0.007564836338896032 0.08615990182411382 -0.5719434905812538 0.9159395525790763 -0.2018527763857544 -0.1681420400342773 -0.06312777040670481 -0.009161995069768704 2.38524477946811e-18 -0.01658498818897309 -0.0900292179874731 
0 0.3427920779174824 -0.09978998718390564 -0.1823229399802366 -0.001225130147098986 -0.0617790000149404 -0.01856868943754941 0 0 -0.006042758156812585 -0.016212247610685 
0 0.3427920779174824 -0.09978998718390564 -0.1823229399802366 -0.001225130147098986 -0.0617790000149404 -0.01856868943754941 0 0 -0.006042758156812585 -0.016212247610685 
0 0.3427920779174824 -0.09978998718390564 -0.1823229399802366 -0.001225130147098986 -0.0617790000149404 -0.01856868943754941 0 0 -0.006042758156812585 -0.016212247610685 
0 0.3427920779174824 -0.09978998718390564 -0.1823229399802366 -0.001225130147098986 -0.0617790000149404 -0.01856868943754941 0 0 -0.006042758156812585 -0.016212247610685 
0 0.3427920779174824 -0.09978998718390564 -0.1823229399802366 -0.001225130147098986 -0.0617790000149404 -0.01856868943754941 0 0 -0.006042758156812585 -0.016212247610685 
0 0.3427920779174824 -0.09978998718390564 -0.1823229399802366 -0.001225130147098986 -0.0617790000149404 -0.01856868943754941 0 0 -0.006042758156812585 -0.016212247610685 
-0.01749541663145656 0.272878812863559 -0.1863837014361731 0.1486989067896412 -0.07468205169834914 -0.0617790000149404 -0.07653401809654117 -0.008071391333787115 0 -0.006042758156812585 -0.016212247610685 
0 0.3427920779174824 -0.09978998718390564 -0.1823229399802366 -0.001225130147098986 -0.0617790000149404 -0.01856868943754941 0 0 -0.006042758156812585 -0.016212247610685 
-0.02838931509882082 -0.01949000548776099 -0.03578527232698177 0.3204324052037618 -0.0151189865128546 -0.106352845147577 -0.02950679031886627 0 -0.0004679853006826223 0 -0.05101287262282772 
-0.02838931509882082 -0.01949000548776099 -0.03578527232698177 0.3204324052037618 -0.0151189865128546 -0.106352845147577 -0.02950679031886627 0 -0.0004679853006826223 0 -0.05101287262282772 
-0.02838931509882082 -0.01949000548776099 -0.03578527232698177 0.3204324052037618 -0.0151189865128546 -0.106352845147577 -0.02950679031886627 0 -0.0004679853006826223 0 -0.05101287262282772 
-0.02838931509882082 -0.01949000548776099 -0.03578527232698177 0.3204324052037618 -0.0151189865128546 -0.106352845147577 -0.02950679031886627 0 -0.0004679853006826223 0 -0.05101287262282772 
-0.02838931509882082 -0.01949000548776099 -0.03578527232698177 0.3204324052037618 -0.0151189865128546 -0.106352845147577 -0.02950679031886627 0 -0.0004679853006826223 0 -0.05101287262282772 
-0.02838931509882082 -0.01949000548776099 -0.03578527232698177 0.3204324052037618 -0.0151189865128546 -0.106352845147577 -0.02950679031886627 0 -0.0004679853006826223 0 -0.05101287262282772 
-0.02838931509882082 -0.01949000548776099 -0.03578527232698177 0.3204324052037618 -0.0151189865128546 -0.106352845147577 -0.02950679031886627 0 -0.0004679853006826223 0 -0.05101287262282772 
-0.02838931509882082 -0.01949000548776099 -0.03578527232698177 0.3204324052037618 -0.0151189865128546 -0.106352845147577 -0.02950679031886627 0 -0.0004679853006826223 0 -0.05101287262282772 
0 -0.06649117019468459 0.245467470404703 -0.09046561816921854 -0.06068993166908127 -0.03904174637794816 0 -0.01859738886932164 0 -0.004116629016622749 -0.01047264443872202 
-0.09215614221420595 -0.1029184749410798 0.1792846647071633 -0.1134223779030998 0.2472001916677397 -0.08526387569228089 -0.01710282123301731 -0.02632337775653206 2.168404344971009e-19 -0.00566160358889243 -0.01438109957669352 
0 -0.06649117019468459 0.245467470404703 -0.09046561816921854 -0.06068993166908127 -0.03904174637794816 0 -0.01859738886932164 0 -0.004116629016622749 -0.01047264443872202 
0 -0.06649117019468459 0.245467470404703 -0.09046561816921854 -0.06068993166908127 -0.03904174637794816 0 -0.01859738886932164 0 -0.004116629016622749 -0.01047264443872202 
0 -0.06649117019468459 0.245467470404703 -0.09046561816921854 -0.06068993166908127 -0.03904174637794816 0 -0.01859738886932164 0 -0.004116629016622749 -0.01047264443872202 
0 -0.06649117019468459 0.245467470404703 -0.09046561816921854 -0.06068993166908127 -0.03904174637794816 0 -0.01859738886932164 0 -0.004116629016622749 -0.01047264443872202 
0 -0.06649117019468459 0.245467470404703 -0.09046561816921854 -0.06068993166908127 -0.03904174637794816 0 -0.01859738886932164 0 -0.004116629016622749 -0.01047264443872202 
0 -0.06649117019468459 0.245467470404703 -0.09046561816921854 -0.06068993166908127 -0.03904174637794816 0 -0.01859738886932164 0 -0.004116629016622749 -0.01047264443872202 
0 -0.06649117019468459 0.245467470404703 -0.09046561816921854 -0.06068993166908127 -0.03904174637794816 0 -0.01859738886932164 0 -0.004116629016622749 -0.01047264443872202 
0 -0.06649117019468459 0.245467470404703 -0.09046561816921854 -0.06068993166908127 -0.03904174637794816 0 -0.01859738886932164 0 -0.004116629016622749 -0.01047264443872202 
-0.1287580064194045 -0.1593489899763565 0.1330763360796667 -0.09405405794051834 0.08126661464983037 0.0252965332053284 -0.1145161416875464 0.2838515607170747 -0.03597017968627424 -0.04772601768326045 -0.08801016698015451 
-0.01278698145892197 -0.06872371735986504 -0.08768130550925314 0.2076855589126393 -0.01570811970041358 0 0 -0.006914140115294662 0 0 -0.0116431560207762 
-0.01278698145892197 -0.1180642994831176 -0.2085913978484949 0.4667609253396902 -0.0240758393444545 -0.04150556851603161 -0.01370975766979547 -0.006914140115294662 0 -0.001328970436997194 -0.03579947232879154 
-0.01480807363217067 -0.08796190349751665 0.2501599318559842 0.08148432479341594 -0.1329322673253762 -0.06326947612900276 -0.04431179216183016 -0.006914140115294662 0 -0.001240027021233475 -0.0116431560207762 
-0.01278698145892197 -0.1180642994831176 -0.2085913978484949 0.4667609253396902 -0.0240758393444545 -0.04150556851603161 -0.01370975766979547 -0.006914140115294662 0 -0.001328970436997194 -0.03579947232879154 
-0.01480807363217067 -0.08796190349751665 0.2501599318559842 0.08148432479341594 -0.1329322673253762 -0.06326947612900276 -0.04431179216183016 -0.006914140115294662 0 -0.001240027021233475 -0.0116431560207762 
-0.01278698145892197 -0.1180642994831176 -0.2085913978484949 0.4667609253396902 -0.0240758393444545 -0.04150556851603161 -0.01370975766979547 -0.006914140115294662 0 -0.001328970436997194 -0.03579947232879154 
-0.01278698145892197 -0.06872371735986504 -0.08768130550925314 0.2076855589126393 -0.01570811970041358 0 0 -0.006914140115294662 0 0 -0.0116431560207762 
-0.01278698145892197 -0.06872371735986504 -0.08768130550925314 0.2076855589126393 -0.01570811970041358 0 0 -0.006914140115294662 0 0 -0.0116431560207762 
-0.03627404242740227 -0.03896318004503072 -0.0536307004611008 0.2703502905254513 -0.0205117433970607 -0.06046117490717953 -0.01057594912551188 0 0 -0.02161263902062065 -0.02787339785876234 
-0.03627404242740227 -0.03896318004503072 -0.0536307004611008 0.2703502905254513 -0.0205117433970607 -0.06046117490717953 -0.01057594912551188 0 0 -0.02161263902062065 -0.02787339785876234 
-0.04954130523458737 -0.03896318004503073 -0.1551248245350415 0.5062664115046313 -0.05131866805165235 -0.1403781782639176 -0.01272932767511892 0 0 -0.02769295786346648 -0.0422960028617974 
-0.03627404242740227 -0.03896318004503072 -0.0536307004611008 0.2703502905254513 -0.0205117433970607 -0.06046117490717953 -0.01057594912551188 0 0 -0.02161263902062065 -0.02787339785876234 
-0.03627404242740227 -0.03896318004503072 -0.0536307004611008 0.2703502905254513 -0.0205117433970607 -0.06046117490717953 -0.01057594912551188 0 0 -0.02161263902062065 -0.02787339785876234 
-0.03627404242740227 -0.03896318004503072 -0.0536307004611008 0.2703502905254513 -0.0205117433970607 -0.06046117490717953 -0.01057594912551188 0 0 -0.02161263902062065 -0.02787339785876234 
-0.03627404242740227 -0.03896318004503072 -0.0536307004611008 0.2703502905254513 -0.0205117433970607 -0.06046117490717953 -0.01057594912551188 0 0 -0.02161263902062065 -0.02787339785876234 
-0.05376945905885883 -0.1475164360727297 -0.1743778096396997 0.859370061926184 -0.157439044553239 -0.1043251068803734 -0.1093423151002275 -0.02528913732327212 0 -0.03789503112443842 -0.04062444105185181 
-0.03627404242740227 -0.03896318004503072 -0.0536307004611008 0.2703502905254513 -0.0205117433970607 -0.06046117490717953 -0.01057594912551188 0 0 -0.02161263902062065 -0.02787339785876234 
-0.03627404242740227 -0.03896318004503072 -0.0536307004611008 0.2703502905254513 -0.0205117433970607 -0.06046117490717953 -0.01057594912551188 0 0 -0.02161263902062065 -0.02787339785876234 
-0.0264436953071185 0 -0.07206258107461611 -0.1367271342177467 -0.04248713830536522 0.3044566506738127 -0.02211075724567748 0 0 -0.01196329398741073 -0.01340770267960301 
-0.05480458474094412 -0.1159617293053469 -0.1631343338166235 0.1949013863971336 -0.08432385255532052 0.235791934883586 -0.02211075724567748 0 -0.01021259269636746 -0.01806264094568992 -0.01340770267960301 
-0.0264436953071185 0 -0.07206258107461611 -0.1367271342177467 -0.04248713830536522 0.3044566506738127 -0.02211075724567748 0 0 -0.01196329398741073 -0.01340770267960301 
-0.0264436953071185 0 -0.07206258107461611 -0.1367271342177467 -0.04248713830536522 0.3044566506738127 -0.02211075724567748 0 0 -0.01196329398741073 -0.01340770267960301 
-0.0264436953071185 0 -0.07206258107461611 -0.1367271342177467 -0.04248713830536522 0.3044566506738127 -0.02211075724567748 0 0 -0.01196329398741073 -0.01340770267960301 
-0.0264436953071185 0 -0.07206258107461611 -0.1367271342177467 -0.04248713830536522 0.3044566506738127 -0.02211075724567748 0 0 -0.01196329398741073 -0.01340770267960301 
-0.0264436953071185 0 -0.07206258107461611 -0.1367271342177467 -0.04248713830536522 0.3044566506738127 -0.02211075724567748 0 0 -0.01196329398741073 -0.01340770267960301 
-0.04256789512257003 -0.1396834911015717 -0.3885107808175996 -0.02072278086142228 0.4763294042593816 0.0692655111199553 -0.03266088215296792 0 0 -0.02810501209687488 -0.05427409478642797 
-0.0264436953071185 -0.1055225668199043 -0.1042113212420337 0.133770523754692 -0.08115531303215563 0.2480816979027204 -0.04336247994569728 0 0 -0.013523916539775 -0.02330350427795395 
-0.04077088962278154 -0.0973619936627932 0.03460280027630779 -0.3051816370873687 0.276008478843265 0.4158441434660508 -0.2264322725329825 0 3.252606517456513e-19 -0.03100460865993212 -0.063897908091105 
-0.08637144805002608 0 -0.06664814625971915 -0.05076599058944177 -0.08222826985045115 0.3024692494670756 0 -0.03545453593801683 -0.01725357882787439 -0.008780694327562772 -0.008894233431442446 
-0.1307180472305683 -0.03456576024863197 -0.1834280234237616 -0.1054614023525502 0.3080395597200143 0.1960138238163553 -0.0003597750228693717 -0.06396885059949002 -0.02932610792712951 -0.008780694327562772 -0.01035707500250182 
-0.08637144805002608 0 -0.06664814625971915 -0.05076599058944177 -0.08222826985045115 0.3024692494670756 0 -0.03545453593801683 -0.01725357882787439 -0.008780694327562772 -0.008894233431442446 
-0.08637144805002608 0 -0.06664814625971915 -0.05076599058944177 -0.08222826985045115 0.3024692494670756 0 -0.03545453593801683 -0.01725357882787439 -0.008780694327562772 -0.008894233431442446 
-0.08637144805002608 0 -0.06664814625971915 -0.05076599058944177 -0.08222826985045115 0.3024692494670756 0 -0.03545453593801683 -0.01725357882787439 -0.008780694327562772 -0.008894233431442446 
-0.08637144805002608 0 -0.06664814625971915 -0.05076599058944177 -0.08222826985045115 0.3024692494670756 0 -0.03545453593801683 -0.01725357882787439 -0.008780694327562772 -0.008894233431442446 
-0.08637144805002608 0 -0.06664814625971915 -0.05076599058944177 -0.08222826985045115 0.3024692494670756 0 -0.03545453593801683 -0.01725357882787439 -0.008780694327562772 -0.008894233431442446 
-0.08637144805002608 0 -0.06664814625971915 -0.05076599058944177 -0.08222826985045115 0.3024692494670756 0 -0.03545453593801683 -0.01725357882787439 -0.008780694327562772 -0.008894233431442446 
-0.1017151508702061 -0.01327193549479295 -0.1641377721358276 0.2477140627622394 -0.09549333923076068 0.2364155205236697 -0.05708715846265338 -0.03545453593801683 -0.03532490745778076 -0.01222734769039564 -0.01653303143696851 
-0.09744143998776839 -0.03644334476698393 -0.02475139954482989 -0.1261383298360144 -0.04262350530567763 0 0.3707369344086662 0 -0.01414080512477488 -0.001639360680811448 -0.02478252459689898 
0.5008619671326719 -0.1061408791114107 -0.4729954278404429 -0.05681528029366833 0.08325368407594078 -0.3763262806649645 0.2445269528693772 -0.0202331853203158 -0.03913864933883968 -0.03853901387066356 0.2976210066051894 
-0.1288886889377028 -0.07754593235519082 -0.07990075283780253 0.202219319874212 -0.09011898628253995 -0.05574891620715348 0.316522607070585 0 -0.01414080512477488 -0.01116464127142983 -0.06535974442112455 
-0.09744143998776839 -0.03644334476698393 -0.02475139954482989 -0.1261383298360144 -0.04262350530567763 0 0.3707369344086662 0 -0.01414080512477488 -0.001639360680811448 -0.02478252459689898 
-0.09744143998776839 -0.03644334476698393 -0.02475139954482989 -0.1261383298360144 -0.04262350530567763 0 0.3707369344086662 0 -0.01414080512477488 -0.001639360680811448 -0.02478252459689898 
-0.09744143998776839 -0.03644334476698393 -0.02475139954482989 -0.1261383298360144 -0.04262350530567763 0 0.3707369344086662 0 -0.01414080512477488 -0.001639360680811448 -0.02478252459689898 
-0.09744143998776839 -0.03644334476698393 -0.02475139954482989 -0.1261383298360144 -0.04262350530567763 0 0.3707369344086662 0 -0.01414080512477488 -0.001639360680811448 -0.02478252459689898 
-0.09744143998776839 -0.03644334476698393 -0.02475139954482989 -0.1261383298360144 -0.04262350530567763 0 0.3707369344086662 0 -0.01414080512477488 -0.001639360680811448 -0.02478252459689898 
-0.09744143998776839 -0.03644334476698393 -0.02475139954482989 -0.1261383298360144 -0.04262350530567763 0 0.3707369344086662 0 -0.01414080512477488 -0.001639360680811448 -0.02478252459689898 
-0.09744143998776839 -0.03644334476698393 -0.02475139954482989 -0.1261383298360144 -0.04262350530567763 0 0.3707369344086662 0 -0.01414080512477488 -0.001639360680811448 -0.02478252459689898 
-0.09744143998776839 -0.03644334476698393 -0.02475139954482989 -0.1261383298360144 -0.04262350530567763 0 0.3707369344086662 0 -0.01414080512477488 -0.001639360680811448 -0.02478252459689898 
0 -0.1163062753399055 0.3182642991494075 -0.1319678609235656 -0.05612743004174484 -0.001028037788268718 -0.00665215300930129 0 -0.0002840311362279606 -0.004831178842610077 -0.0007857198947007224 
-0.01237032207248547 -0.1227842952208076 0.1795644576012426 0.1526536475406901 -0.09640147580510683 -0.007419350496176954 -0.03926945878816883 0 -0.0002840311362279606 -0.006318878216669361 -0.0311899663590461 
-0.02300609573591884 0.3167271290052709 0.217884679792496 -0.2049656584745461 -0.05612743004174484 -0.1185826785389702 -0.05624060387290637 0 -0.002322082432912782 -0.004831178842610077 -0.06738634973109682 
0 -0.1163062753399055 0.3182642991494075 -0.1319678609235656 -0.05612743004174484 -0.001028037788268718 -0.00665215300930129 0 -0.0002840311362279606 -0.004831178842610077 -0.0007857198947007224 
-0.02300609573591884 0.3167271290052709 0.217884679792496 -0.2049656584745461 -0.05612743004174484 -0.1185826785389702 -0.05624060387290637 0 -0.002322082432912782 -0.004831178842610077 -0.06738634973109682 
0 -0.1163062753399055 0.3182642991494075 -0.1319678609235656 -0.05612743004174484 -0.001028037788268718 -0.00665215300930129 0 -0.0002840311362279606 -0.004831178842610077 -0.0007857198947007224 
